~o
<STREAMINFO> 1 39
<VECSIZE> 39<NULLD><MFCC_D_A_Z><DIAGC>
~h "a"
<BEGINHMM>
<NUMSTATES> 5
<STATE> 2
<MEAN> 39
 3.521847e+00 -6.312563e+00 -3.925334e+00 -4.007777e+00 -3.504360e+00 6.301261e-01 -8.361487e+00 1.330546e+00 5.786263e+00 2.748686e+00 2.511569e+00 -5.060777e+00 1.174351e-01 1.091335e+00 -2.373510e+00 -3.315235e-01 -1.054292e+00 -2.252154e+00 7.561650e-01 -1.899558e+00 1.688512e+00 2.040904e+00 1.457725e-01 5.798244e-01 -2.381627e+00 2.411055e-01 -6.898874e-01 4.840618e-01 6.013084e-02 5.913042e-01 6.987633e-01 -2.809212e-01 8.862799e-01 1.074983e-01 -3.127377e-01 -2.230263e-01 -5.836800e-01 5.771064e-01 8.382960e-02
<VARIANCE> 39
 9.295571e+00 1.873732e+01 5.194221e+01 3.566647e+01 4.198402e+01 8.832263e+01 4.503381e+01 4.158229e+01 3.837885e+01 3.392981e+01 5.371642e+01 2.897015e+01 2.780871e+01 3.053256e+00 2.535662e+00 3.184926e+00 3.921504e+00 5.840532e+00 5.488621e+00 4.232452e+00 3.718202e+00 4.026026e+00 3.207594e+00 4.483641e+00 3.588085e+00 2.332343e+00 5.688632e-01 5.443255e-01 7.706428e-01 7.024682e-01 1.083967e+00 1.027270e+00 7.472125e-01 6.721386e-01 7.755030e-01 6.667863e-01 1.004866e+00 6.964344e-01 5.808075e-01
<GCONST> 1.310135e+02
<STATE> 3
<MEAN> 39
 2.907503e+00 -9.031833e+00 -3.887352e+00 -4.533987e+00 -5.502600e+00 -8.069899e-01 -9.195111e+00 5.998508e+00 9.287341e+00 1.283787e+00 8.018353e-01 -7.770974e+00 1.348124e+00 8.047775e-02 -1.197276e-01 4.190186e-01 3.680770e-01 9.489405e-02 -5.570436e-01 -2.094677e-01 3.639387e-01 -1.359158e-01 -2.377982e-03 -6.723936e-02 6.854435e-02 8.038153e-02 -2.835197e-02 6.951959e-01 2.772554e-01 5.110983e-01 7.027222e-01 -2.476562e-01 3.042186e-01 -7.107587e-01 -7.590539e-01 7.005447e-02 -8.554538e-02 6.266629e-01 -1.091262e-01
<VARIANCE> 39
 6.466170e+00 1.169231e+01 2.957804e+01 2.069090e+01 2.334464e+01 5.282536e+01 3.130624e+01 3.562753e+01 2.715997e+01 2.797045e+01 3.093258e+01 2.513253e+01 2.056488e+01 5.234755e-01 1.397043e+00 2.012486e+00 2.273837e+00 3.111856e+00 3.997329e+00 2.368302e+00 3.343031e+00 3.261582e+00 2.367980e+00 3.040768e+00 2.102046e+00 1.918074e+00 1.910677e-01 2.639683e-01 2.540316e-01 3.268573e-01 6.370877e-01 5.235070e-01 6.296982e-01 5.762583e-01 5.490400e-01 4.924442e-01 5.590261e-01 4.515336e-01 3.641429e-01
<GCONST> 1.119324e+02
<STATE> 4
<MEAN> 39
 4.067039e+00 -4.115379e+00 -8.526464e-01 -8.266610e-01 -1.401475e+00 -3.094849e+00 -8.269071e+00 2.760756e+00 5.066761e+00 3.499642e+00 1.269424e+00 -3.855668e+00 2.429169e-01 5.799173e-02 1.925753e+00 5.226734e-01 1.696929e+00 1.329490e+00 -3.887644e-01 1.205343e+00 -1.325934e+00 -1.350510e+00 -6.081313e-02 -7.478167e-01 1.232745e+00 -2.554954e-01 -2.248875e-01 2.493601e-01 -1.236177e-01 9.666373e-02 2.761192e-02 1.329050e-01 4.014880e-01 -1.848357e-01 -1.012859e-01 -1.671252e-01 -2.227306e-01 1.275956e-01 7.571200e-02
<VARIANCE> 39
 1.432298e+01 5.359456e+01 3.108416e+01 4.061230e+01 5.068494e+01 6.576418e+01 4.726611e+01 4.995295e+01 4.028156e+01 3.662138e+01 4.109553e+01 3.278586e+01 3.388501e+01 1.881058e+00 3.084256e+00 2.651473e+00 3.506719e+00 6.488505e+00 4.868389e+00 4.533050e+00 4.574078e+00 5.936832e+00 3.566036e+00 3.754786e+00 2.992371e+00 2.882863e+00 3.197726e-01 6.881820e-01 3.882530e-01 6.791546e-01 9.433038e-01 6.812813e-01 6.523690e-01 7.883261e-01 6.991831e-01 5.765856e-01 6.720969e-01 5.341743e-01 5.827112e-01
<GCONST> 1.299414e+02
<TRANSP> 5
 0.000000e+00 1.000000e+00 0.000000e+00 0.000000e+00 0.000000e+00
 0.000000e+00 4.192192e-01 5.807808e-01 0.000000e+00 0.000000e+00
 0.000000e+00 0.000000e+00 6.790370e-01 3.209631e-01 0.000000e+00
 0.000000e+00 0.000000e+00 0.000000e+00 4.596397e-01 5.403603e-01
 0.000000e+00 0.000000e+00 0.000000e+00 0.000000e+00 0.000000e+00
<ENDHMM>
~o
<STREAMINFO> 1 39
<VECSIZE> 39<NULLD><MFCC_D_A_Z><DIAGC>
~h "aa"
<BEGINHMM>
<NUMSTATES> 5
<STATE> 2
<MEAN> 39
 3.930686e+00 -1.127498e+01 -6.429221e+00 -7.948898e+00 -1.493469e+00 6.969521e+00 -5.801792e+00 2.965653e+00 8.822453e+00 1.570622e+00 -1.619089e+00 -7.622879e+00 -1.425089e+00 2.738681e-01 -1.753168e+00 -7.007907e-01 -9.662526e-01 -5.578427e-01 2.303681e+00 3.161535e-01 1.776555e-01 9.479153e-01 -6.619315e-01 -8.084744e-01 -1.312271e+00 -1.830255e-01 -3.935923e-01 5.564446e-01 1.675983e-01 4.158447e-01 5.045831e-01 -2.820732e-01 3.631348e-01 -4.053013e-01 -4.453433e-01 -8.647374e-02 -6.135608e-02 5.385501e-01 5.679528e-02
<VARIANCE> 39
 5.851934e+00 1.253090e+01 2.731246e+01 2.232892e+01 2.747671e+01 7.026319e+01 4.705010e+01 4.855956e+01 3.140251e+01 3.096689e+01 3.033064e+01 2.584974e+01 1.929909e+01 1.217149e+00 1.935791e+00 2.048864e+00 2.141457e+00 3.729654e+00 3.505051e+00 3.148181e+00 4.061370e+00 2.699988e+00 2.525319e+00 2.760566e+00 2.682393e+00 1.437528e+00 3.241926e-01 2.701301e-01 3.701760e-01 3.373125e-01 6.897995e-01 5.749115e-01 6.651635e-01 6.634599e-01 5.012436e-01 4.369757e-01 5.859357e-01 4.260993e-01 2.890312e-01
<GCONST> 1.155226e+02
<STATE> 3
<MEAN> 39
 3.617756e+00 -1.356656e+01 -8.330750e+00 -9.858040e+00 -6.703223e-02 1.250517e+01 -3.297106e+00 -3.328815e-01 8.683858e+00 -4.510385e-01 -2.701244e+00 -8.736005e+00 -1.857867e+00 -6.611945e-02 1.258092e-02 -2.288754e-02 2.515982e-01 1.194878e-02 -3.845413e-01 -4.542516e-03 1.876628e-01 4.930771e-02 -2.691565e-02 -4.213922e-02 -2.537361e-01 2.608975e-01 3.221546e-02 2.217689e-01 1.177714e-01 1.377334e-01 -7.315746e-02 -4.041488e-01 -7.765704e-02 1.618539e-01 -1.150151e-01 1.402584e-01 1.214824e-01 1.321694e-01 4.536980e-02
<VARIANCE> 39
 4.178424e+00 7.133174e+00 1.207077e+01 1.566229e+01 1.615231e+01 3.667824e+01 2.622342e+01 3.506438e+01 2.222262e+01 2.091640e+01 2.318062e+01 2.391773e+01 1.941343e+01 1.603447e-01 4.483314e-01 4.879058e-01 8.385981e-01 8.307356e-01 2.271682e+00 1.024627e+00 1.776009e+00 1.183787e+00 1.194163e+00 1.178321e+00 1.174528e+00 1.096607e+00 2.713523e-02 7.311855e-02 9.561966e-02 1.108307e-01 1.570662e-01 1.968367e-01 1.847657e-01 2.426731e-01 2.108516e-01 2.080821e-01 2.127487e-01 2.121128e-01 1.632842e-01
<GCONST> 8.203051e+01
<STATE> 4
<MEAN> 39
 3.197790e+00 -7.504366e+00 -6.738755e+00 -4.727565e+00 7.888792e-01 3.389496e+00 -2.748439e+00 3.643899e+00 7.520561e+00 2.732492e+00 -2.907622e+00 -7.927126e+00 -1.443665e-02 -2.192624e-02 1.764378e+00 7.297243e-01 1.368495e+00 2.288743e-01 -1.635207e+00 3.072302e-01 -1.146762e-01 -1.020293e+00 5.173667e-01 2.928036e-01 1.272371e+00 -1.009146e-01 -4.632347e-02 2.653126e-01 1.318109e-01 2.422089e-01 1.850813e-01 1.213687e-01 1.912507e-01 -3.965720e-01 -2.885657e-01 -1.489904e-01 -6.420048e-02 2.896705e-01 -7.970241e-02
<VARIANCE> 39
 1.142725e+01 4.551521e+01 2.325757e+01 3.428607e+01 4.781869e+01 6.745651e+01 4.299637e+01 4.124935e+01 3.360937e+01 3.581640e+01 4.046404e+01 3.412806e+01 2.739107e+01 1.399232e+00 2.216976e+00 2.294091e+00 2.899600e+00 4.076347e+00 4.691399e+00 3.405595e+00 3.829688e+00 3.687082e+00 2.885766e+00 3.603000e+00 2.570328e+00 2.365264e+00 2.149137e-01 4.588738e-01 3.104191e-01 5.367888e-01 7.149657e-01 6.326123e-01 5.472392e-01 6.465667e-01 5.939159e-01 5.016354e-01 6.503508e-01 5.156285e-01 4.266860e-01
<GCONST> 1.227076e+02
<TRANSP> 5
 0.000000e+00 1.000000e+00 0.000000e+00 0.000000e+00 0.000000e+00
 0.000000e+00 6.196570e-01 3.803430e-01 0.000000e+00 0.000000e+00
 0.000000e+00 0.000000e+00 8.637868e-01 1.362133e-01 0.000000e+00
 0.000000e+00 0.000000e+00 0.000000e+00 7.428452e-01 2.571548e-01
 0.000000e+00 0.000000e+00 0.000000e+00 0.000000e+00 0.000000e+00
<ENDHMM>
~o
<STREAMINFO> 1 39
<VECSIZE> 39<NULLD><MFCC_D_A_Z><DIAGC>
~h "ax"
<BEGINHMM>
<NUMSTATES> 5
<STATE> 2
<MEAN> 39
 5.732932e+00 -5.093710e+00 -9.472349e+00 -1.074135e+01 -2.498629e+00 1.001694e+01 -2.040222e+00 -8.137668e-01 3.637594e+00 1.190664e+00 1.764276e+00 -1.521012e+00 -1.890326e+00 1.415084e+00 -1.603177e+00 -8.867571e-01 -2.062413e+00 -2.392717e+00 2.607872e+00 2.293807e-01 3.700102e-01 2.701923e-01 -5.020389e-01 5.569375e-01 -1.318637e+00 -2.309431e-01 -6.677940e-01 2.585790e-01 1.003756e-01 3.951638e-01 7.096238e-01 -3.076401e-01 2.575954e-01 -6.162261e-02 -1.612376e-01 3.212915e-02 -2.957409e-01 2.946673e-01 8.546921e-02
<VARIANCE> 39
 2.385544e+01 4.895535e+01 3.393456e+01 4.663672e+01 4.834097e+01 3.489622e+01 1.003546e+02 3.422001e+01 6.093033e+01 4.561404e+01 4.349937e+01 4.398929e+01 2.522588e+01 4.926421e+00 2.364503e+00 3.294458e+00 4.707746e+00 5.030263e+00 3.520958e+00 4.217824e+00 4.040690e+00 3.113904e+00 3.358305e+00 4.336895e+00 2.211259e+00 1.775812e+00 5.656928e-01 4.870051e-01 7.108836e-01 7.906173e-01 9.360428e-01 6.316939e-01 8.795288e-01 7.073322e-01 5.470387e-01 5.342332e-01 5.970605e-01 4.066345e-01 3.316012e-01
<GCONST> 1.298675e+02
<STATE> 3
<MEAN> 39
 5.361143e+00 -9.716109e+00 -1.111898e+01 -1.459520e+01 -3.096223e+00 1.490368e+01 -1.826776e-01 7.541169e-03 3.701907e+00 -2.507498e-01 1.061898e+00 -5.943975e+00 -7.643097e-01 -1.252444e-01 -1.425370e-01 9.411478e-03 7.343733e-02 1.263969e-01 -2.891889e-01 -1.898379e-01 1.821011e-01 -2.337878e-01 2.274953e-01 9.669220e-02 -3.650223e-01 2.605507e-01 2.467969e-02 1.807819e-01 1.455933e-01 2.481034e-01 4.462171e-02 -3.724937e-01 -1.304103e-01 1.069695e-02 -3.973555e-02 1.313935e-01 3.535118e-02 6.984162e-02 4.113726e-02
<VARIANCE> 39
 6.887965e+00 2.807073e+01 1.192304e+01 3.752174e+01 3.662268e+01 2.625007e+01 3.201926e+01 3.944553e+01 4.777827e+01 4.312938e+01 6.017942e+01 3.755792e+01 2.660876e+01 1.832809e-01 6.107750e-01 6.620210e-01 1.168556e+00 8.911721e-01 1.929318e+00 1.445402e+00 2.428565e+00 1.879424e+00 1.817392e+00 1.501878e+00 1.538800e+00 1.386980e+00 3.264918e-02 9.415795e-02 1.495457e-01 1.420746e-01 1.829636e-01 2.245698e-01 2.128247e-01 3.194469e-01 2.823032e-01 2.845042e-01 2.954719e-01 2.542947e-01 1.994961e-01
<GCONST> 9.519537e+01
<STATE> 4
<MEAN> 39
 4.540399e+00 -5.002670e+00 -6.940827e+00 -8.690098e+00 -1.478046e+00 5.490992e+00 -2.812632e+00 1.583956e+00 8.472098e-01 4.139940e+00 2.546984e+00 -4.846118e+00 4.199357e-02 -6.361350e-01 1.441728e+00 1.153034e+00 1.939092e+00 1.067469e+00 -2.001062e+00 3.409069e-01 -2.788110e-01 -2.049903e-01 1.445385e-01 -6.101744e-01 8.274482e-01 9.299713e-02 -2.992930e-01 1.993362e-01 1.452669e-01 1.185436e-01 3.449542e-01 5.889769e-02 2.078653e-01 -1.841745e-01 -1.072838e-01 -3.386259e-01 -1.914990e-01 3.166248e-01 -5.884143e-02
<VARIANCE> 39
 2.340888e+01 5.266808e+01 3.132858e+01 5.979697e+01 3.704827e+01 7.539806e+01 4.116226e+01 6.147117e+01 7.315598e+01 3.586694e+01 4.748914e+01 6.307522e+01 2.359992e+01 3.195197e+00 3.116527e+00 3.394862e+00 4.574952e+00 4.253564e+00 3.857219e+00 4.468419e+00 3.822067e+00 4.436381e+00 4.573625e+00 4.399178e+00 3.938232e+00 2.267960e+00 3.510853e-01 5.973084e-01 5.147566e-01 7.935236e-01 6.728851e-01 7.689478e-01 6.374994e-01 7.633738e-01 8.072916e-01 6.237854e-01 7.114948e-01 6.663241e-01 4.103958e-01
<GCONST> 1.323378e+02
<TRANSP> 5
 0.000000e+00 1.000000e+00 0.000000e+00 0.000000e+00 0.000000e+00
 0.000000e+00 7.230327e-01 2.769673e-01 0.000000e+00 0.000000e+00
 0.000000e+00 0.000000e+00 8.862525e-01 1.137475e-01 0.000000e+00
 0.000000e+00 0.000000e+00 0.000000e+00 7.524720e-01 2.475280e-01
 0.000000e+00 0.000000e+00 0.000000e+00 0.000000e+00 0.000000e+00
<ENDHMM>
~o
<STREAMINFO> 1 39
<VECSIZE> 39<NULLD><MFCC_D_A_Z><DIAGC>
~h "b"
<BEGINHMM>
<NUMSTATES> 5
<STATE> 2
<MEAN> 39
 9.588523e+00 3.345489e+00 1.762343e+00 1.604529e+00 2.294669e+00 6.580181e+00 -2.378472e+00 -4.572035e+00 -5.987233e+00 2.568617e-01 3.000434e+00 -1.833212e+00 -3.573566e+00 1.465602e+00 2.720571e+00 9.982508e-01 9.675146e-01 1.603425e+00 1.373660e+00 1.740313e+00 -8.656111e-01 -1.448724e+00 -5.378025e-01 -4.955184e-01 2.215319e-01 -4.474015e-01 -3.998394e-01 5.223386e-02 -4.105733e-02 -2.788406e-01 -1.494501e-01 -1.959571e-01 1.536867e-01 1.049768e-01 2.668915e-01 -3.916134e-02 -1.301203e-01 1.024755e-02 1.777299e-01
<VARIANCE> 39
 1.252089e+01 4.644244e+01 3.239186e+01 5.254338e+01 3.871236e+01 4.554117e+01 6.753561e+01 3.027063e+01 4.120893e+01 3.435489e+01 3.842010e+01 2.882241e+01 2.532441e+01 1.380018e+00 2.698664e+00 2.269396e+00 4.407485e+00 4.128505e+00 2.929969e+00 4.432603e+00 2.955736e+00 4.482709e+00 3.619151e+00 3.748434e+00 2.651588e+00 2.496698e+00 2.797367e-01 5.179411e-01 3.559711e-01 6.227675e-01 9.228364e-01 4.377771e-01 7.195253e-01 4.844171e-01 6.038203e-01 5.567737e-01 6.941622e-01 4.868366e-01 3.646657e-01
<GCONST> 1.241757e+02
<STATE> 3
<MEAN> 39
 1.118814e+01 1.377786e+01 4.033937e+00 2.888000e+00 6.019329e+00 9.706885e+00 4.980409e+00 -5.841019e+00 -8.506585e+00 -9.713802e-01 8.531940e-01 -2.981080e-01 -3.189387e+00 -4.345395e-01 4.661338e-01 -1.305057e-01 -9.483409e-02 5.300953e-01 -2.971645e-02 4.813854e-01 -4.489827e-02 8.472186e-02 -1.796408e-01 -3.199116e-01 5.473121e-01 9.004509e-02 -3.905078e-01 -7.205245e-01 -2.083405e-01 -1.651896e-01 -2.851939e-01 -3.214884e-01 -3.862829e-01 1.164421e-01 3.013763e-01 6.562247e-02 1.295974e-01 6.491022e-02 2.562244e-02
<VARIANCE> 39
 4.359045e+00 1.659419e+01 1.486257e+01 2.269267e+01 1.995869e+01 3.548335e+01 3.705854e+01 2.740715e+01 3.151215e+01 3.392588e+01 3.748335e+01 3.192426e+01 3.642523e+01 1.094439e+00 2.113222e+00 8.036044e-01 1.229566e+00 1.442167e+00 2.070905e+00 1.874207e+00 1.276220e+00 1.526174e+00 1.434188e+00 1.604933e+00 1.455054e+00 1.274341e+00 1.374697e-01 3.926711e-01 2.063548e-01 3.599517e-01 4.065859e-01 2.981529e-01 4.111287e-01 2.925649e-01 4.241197e-01 4.245134e-01 4.024950e-01 3.087610e-01 3.094981e-01
<GCONST> 1.028694e+02
<STATE> 4
<MEAN> 39
 4.810857e+00 1.997421e+00 -1.755262e+00 -4.438592e+00 1.880173e+00 8.823825e+00 3.806851e-02 -5.180332e+00 -2.588490e+00 5.606288e-01 2.937088e+00 1.289747e+00 -3.668060e+00 -1.068570e+00 -3.548480e+00 -1.118070e+00 -1.978815e+00 -2.277455e+00 -2.177489e-01 -2.048061e+00 7.248343e-01 2.132487e+00 8.240410e-01 1.103802e+00 -1.104762e+00 -2.851603e-01 3.358833e-01 1.242672e-01 2.070087e-01 1.514698e-01 -2.057433e-01 1.036320e-01 -5.250838e-03 1.610566e-01 -3.798519e-02 -1.202795e-01 -1.248145e-01 -4.444360e-01 9.744366e-02
<VARIANCE> 39
 1.964649e+01 7.122719e+01 4.854870e+01 1.042695e+02 6.200042e+01 9.159214e+01 5.721255e+01 2.809527e+01 4.570817e+01 4.097798e+01 4.638342e+01 3.250666e+01 2.128047e+01 2.152332e+00 3.760029e+00 3.977210e+00 6.043149e+00 6.731735e+00 6.103914e+00 4.556804e+00 3.745113e+00 5.373778e+00 6.245170e+00 5.246415e+00 4.928392e+00 3.393833e+00 2.979040e-01 1.066554e+00 4.610028e-01 1.420088e+00 1.560537e+00 1.054206e+00 9.517672e-01 5.811694e-01 7.826658e-01 8.486437e-01 1.162656e+00 7.464147e-01 4.532062e-01
<GCONST> 1.381932e+02
<TRANSP> 5
 0.000000e+00 1.000000e+00 0.000000e+00 0.000000e+00 0.000000e+00
 0.000000e+00 6.599913e-01 3.400087e-01 0.000000e+00 0.000000e+00
 0.000000e+00 0.000000e+00 8.387895e-01 1.612106e-01 0.000000e+00
 0.000000e+00 0.000000e+00 0.000000e+00 7.690710e-01 2.309289e-01
 0.000000e+00 0.000000e+00 0.000000e+00 0.000000e+00 0.000000e+00
<ENDHMM>
~o
<STREAMINFO> 1 39
<VECSIZE> 39<NULLD><MFCC_D_A_Z><DIAGC>
~h "bh"
<BEGINHMM>
<NUMSTATES> 5
<STATE> 2
<MEAN> 39
 1.071764e+01 9.595657e+00 3.003203e+00 3.111273e+00 4.561899e+00 8.124648e+00 2.310707e+00 -5.796369e+00 -8.444326e+00 -1.301593e-01 2.404163e+00 -6.366341e-01 -3.077069e+00 -1.101236e-01 1.189695e+00 4.539631e-02 4.737870e-01 1.222215e+00 2.706039e-01 1.245922e+00 -1.200643e-01 -1.581960e-01 1.314198e-01 -4.021697e-01 7.594752e-01 1.241440e-01 -5.785236e-01 -4.598592e-01 -2.022890e-01 -1.361372e-01 -9.242397e-02 -3.497853e-01 -5.234727e-02 2.259410e-01 4.348580e-01 1.176071e-01 -3.261106e-02 1.414245e-01 1.860207e-01
<VARIANCE> 39
 7.230222e+00 5.305742e+01 2.097852e+01 3.207050e+01 3.239260e+01 4.066609e+01 6.429983e+01 3.036640e+01 3.882248e+01 3.087459e+01 3.543201e+01 3.529219e+01 3.205670e+01 3.471424e+00 4.423162e+00 2.223309e+00 3.000844e+00 2.954502e+00 3.980618e+00 3.477093e+00 2.714291e+00 4.697915e+00 2.871370e+00 2.871762e+00 2.726561e+00 2.299376e+00 2.578267e-01 6.306336e-01 3.424660e-01 5.049919e-01 6.282250e-01 4.489277e-01 5.901474e-01 4.615324e-01 6.441003e-01 5.541503e-01 5.731471e-01 5.174335e-01 3.990369e-01
<GCONST> 1.221155e+02
<STATE> 3
<MEAN> 39
 -5.464866e-01 5.594028e+00 -6.404002e-01 2.834199e+00 9.597741e+00 4.143637e+00 7.966494e+00 -1.733484e+00 -1.166238e+00 3.541848e+00 8.615430e-01 5.387111e+00 1.245365e+00 -1.851243e+00 -1.355591e+00 -7.834498e-01 -1.122811e+00 4.069814e-01 3.356596e-01 7.226800e-01 4.298481e-01 1.191042e+00 9.499602e-01 2.104753e-01 -1.391121e-01 9.519086e-01 5.720657e-01 3.497704e-01 2.507207e-01 -9.671470e-02 -1.409341e-01 4.480920e-01 -1.048514e-01 -3.711976e-01 -4.828473e-01 -2.134293e-01 1.501635e-02 -4.917845e-01 -1.101797e-01
<VARIANCE> 39
 2.241352e+01 2.032631e+01 6.903836e+01 6.882434e+01 4.726845e+01 1.099287e+02 3.195902e+01 2.968192e+01 3.561363e+01 3.495176e+01 2.975986e+01 2.645215e+01 1.947621e+01 2.847484e+00 3.719126e+00 4.850208e+00 3.794713e+00 6.112684e+00 6.457907e+00 3.412982e+00 4.363841e+00 6.156505e+00 4.477882e+00 3.530595e+00 4.831497e+00 2.770123e+00 3.263838e-01 5.314568e-01 5.186761e-01 8.156405e-01 8.745126e-01 1.067937e+00 6.498285e-01 6.456310e-01 7.570658e-01 7.352633e-01 6.813433e-01 6.889932e-01 4.681903e-01
<GCONST> 1.316115e+02
<STATE> 4
<MEAN> 39
 -9.447500e-01 2.314596e+00 -5.313725e+00 -2.476231e+00 1.065850e+01 9.532403e+00 7.947550e+00 -3.133366e+00 6.470420e-01 4.590722e+00 3.494656e-01 3.735661e-01 2.233322e+00 9.503223e-01 -1.057883e+00 -4.468221e-01 -3.866154e-01 -1.754808e+00 -2.480741e-01 -1.075797e+00 -6.614713e-02 3.556826e-01 -6.806945e-01 -3.437458e-02 -1.067214e+00 -6.265174e-01 1.703353e-01 -2.951425e-01 1.837584e-01 -1.512364e-03 -4.694898e-01 -6.592880e-02 -3.012367e-01 1.133179e-01 4.880291e-02 -2.543505e-01 5.810028e-02 -4.658404e-02 -2.130206e-01
<VARIANCE> 39
 2.671455e+01 3.469048e+01 9.931266e+01 4.661739e+01 9.522533e+01 9.728089e+01 3.336203e+01 3.523825e+01 3.543489e+01 2.966232e+01 2.818649e+01 3.496359e+01 2.331028e+01 1.550355e+00 2.813806e+00 2.132867e+00 1.528213e+00 4.193718e+00 2.378815e+00 2.361023e+00 2.432657e+00 2.041599e+00 2.248802e+00 2.005812e+00 2.125055e+00 1.873624e+00 3.576914e-01 4.229863e-01 5.079596e-01 3.177293e-01 5.803512e-01 5.484748e-01 4.267217e-01 4.283698e-01 3.807012e-01 4.120563e-01 4.124242e-01 4.181459e-01 3.546729e-01
<GCONST> 1.192538e+02
<TRANSP> 5
 0.000000e+00 1.000000e+00 0.000000e+00 0.000000e+00 0.000000e+00
 0.000000e+00 8.749565e-01 1.250435e-01 0.000000e+00 0.000000e+00
 0.000000e+00 0.000000e+00 7.657377e-01 2.342623e-01 0.000000e+00
 0.000000e+00 0.000000e+00 0.000000e+00 8.239229e-01 1.760770e-01
 0.000000e+00 0.000000e+00 0.000000e+00 0.000000e+00 0.000000e+00
<ENDHMM>
~o
<STREAMINFO> 1 39
<VECSIZE> 39<NULLD><MFCC_D_A_Z><DIAGC>
~h "c"
<BEGINHMM>
<NUMSTATES> 5
<STATE> 2
<MEAN> 39
 -8.326080e+00 7.725410e+00 2.384667e+00 8.770063e-01 8.134343e+00 -5.539059e+00 3.665619e+00 2.278281e-01 5.929196e-01 2.588937e+00 -3.475705e+00 4.493541e+00 2.524611e-01 -2.921193e+00 -3.202087e-01 -3.356974e-01 -9.415694e-01 9.933141e-01 6.769465e-01 4.667564e-01 6.156436e-02 -1.992995e-01 1.669523e-01 7.518457e-02 5.932704e-01 -2.957987e-01 -4.484652e-01 -3.055488e-01 3.452269e-02 -2.625831e-01 -2.503784e-01 1.321459e-01 -8.459771e-02 1.181947e-01 -6.740626e-02 -1.371349e-02 1.947205e-01 -1.163886e-01 9.345569e-02
<VARIANCE> 39
 7.612312e+01 4.466760e+01 4.555276e+01 3.404961e+01 4.124976e+01 5.139772e+01 4.695839e+01 3.647750e+01 4.797528e+01 2.832426e+01 3.125849e+01 2.633041e+01 2.078213e+01 7.147554e+00 5.328501e+00 3.147884e+00 3.803147e+00 4.070370e+00 3.494666e+00 4.478361e+00 3.352136e+00 3.159589e+00 2.400944e+00 2.963248e+00 2.410488e+00 1.820448e+00 9.873757e-01 8.633799e-01 5.745708e-01 7.210249e-01 8.745374e-01 7.108379e-01 8.330729e-01 6.371619e-01 5.705191e-01 4.929191e-01 5.186396e-01 4.809622e-01 3.569693e-01
<GCONST> 1.294631e+02
<STATE> 3
<MEAN> 39
 -2.881908e+01 3.285882e+00 3.065105e+00 -5.961715e+00 7.988314e+00 -6.249328e-01 6.367166e+00 2.141937e+00 -2.049659e+00 2.956560e+00 -6.816125e-01 6.877611e+00 9.060632e-01 1.016122e+00 -4.398896e-01 1.210584e+00 5.862505e-01 -2.280490e+00 -8.746448e-01 -3.597666e-01 -3.075723e-01 -6.510736e-01 -7.497588e-01 2.790430e-01 -9.093039e-02 -2.182946e-02 2.361783e+00 -6.090451e-02 3.449994e-01 8.336062e-01 -6.997355e-01 -5.517780e-01 -7.039809e-01 -2.494873e-01 3.713345e-02 -3.976409e-01 9.367171e-02 -2.425138e-01 -2.150197e-01
<VARIANCE> 39
 2.216406e+01 2.501591e+01 2.254937e+01 2.514418e+01 4.392700e+01 2.497266e+01 2.279352e+01 2.314284e+01 2.122336e+01 2.019828e+01 1.968429e+01 1.707814e+01 1.253145e+01 2.258945e+01 2.760715e+00 3.609258e+00 6.379136e+00 4.084830e+00 4.118017e+00 4.235672e+00 3.006243e+00 2.683091e+00 2.887020e+00 2.049613e+00 1.651982e+00 1.662335e+00 1.192076e+00 5.596178e-01 5.608975e-01 6.636164e-01 8.560131e-01 5.679500e-01 7.964465e-01 5.310877e-01 6.307585e-01 4.651209e-01 5.386715e-01 3.389866e-01 2.906010e-01
<GCONST> 1.212848e+02
<STATE> 4
<MEAN> 39
 -2.216977e+00 -2.840257e+00 7.555094e+00 1.032870e+00 -6.312412e+00 -6.724642e+00 -5.154218e+00 1.370115e+00 5.880058e-02 -3.087296e+00 1.934724e+00 2.193140e+00 -8.491001e-01 3.987188e+00 -1.757070e+00 -5.940324e-01 -3.480187e-02 -1.518117e+00 6.156332e-01 -1.937966e+00 3.250175e-01 1.366087e+00 -3.862365e-01 6.936358e-01 -1.744527e+00 -6.839120e-02 -1.114549e+00 2.959933e-02 -6.073397e-01 -6.751638e-01 7.422925e-01 7.645304e-01 5.471026e-01 6.335448e-02 1.423566e-01 3.989313e-01 -1.769878e-01 -1.109499e-01 1.443780e-01
<VARIANCE> 39
 5.164228e+01 5.951452e+01 4.883850e+01 3.830592e+01 5.104398e+01 3.700037e+01 4.379167e+01 5.119865e+01 8.042043e+01 1.897999e+01 3.937687e+01 2.987481e+01 1.469369e+01 1.123775e+01 3.647968e+00 5.169643e+00 5.223450e+00 8.999338e+00 6.211851e+00 7.522130e+00 5.306123e+00 5.725999e+00 3.240884e+00 6.293329e+00 2.599376e+00 1.691972e+00 9.271646e-01 5.995935e-01 6.947354e-01 8.633396e-01 1.064223e+00 7.837054e-01 9.985915e-01 1.102586e+00 1.103469e+00 4.640279e-01 8.949519e-01 5.152744e-01 3.130319e-01
<GCONST> 1.367618e+02
<TRANSP> 5
 0.000000e+00 1.000000e+00 0.000000e+00 0.000000e+00 0.000000e+00
 0.000000e+00 8.431250e-01 1.568750e-01 0.000000e+00 0.000000e+00
 0.000000e+00 0.000000e+00 7.837749e-01 2.162252e-01 0.000000e+00
 0.000000e+00 0.000000e+00 0.000000e+00 7.792015e-01 2.207985e-01
 0.000000e+00 0.000000e+00 0.000000e+00 0.000000e+00 0.000000e+00
<ENDHMM>
~o
<STREAMINFO> 1 39
<VECSIZE> 39<NULLD><MFCC_D_A_Z><DIAGC>
~h "ch"
<BEGINHMM>
<NUMSTATES> 5
<STATE> 2
<MEAN> 39
 -6.988471e+00 8.135833e+00 3.304675e+00 1.174706e+00 6.868749e+00 -6.972948e+00 2.672805e+00 -8.241622e-02 2.578862e-01 1.813883e+00 -3.765994e+00 3.595273e+00 3.004727e-01 -3.354345e+00 9.493115e-02 -3.865559e-01 -1.076781e+00 1.229845e+00 8.619993e-01 6.893082e-01 -3.564301e-02 -2.107104e-01 2.307838e-01 1.131283e-02 6.612393e-01 -3.418385e-01 -5.533022e-01 -5.883064e-01 -1.591470e-02 -3.788898e-01 -3.119091e-01 2.856721e-01 -1.000416e-01 1.562874e-01 -2.752671e-02 -1.675486e-02 2.760575e-01 -1.115979e-01 9.816080e-02
<VARIANCE> 39
 8.878932e+01 3.967219e+01 5.849939e+01 3.145278e+01 4.129379e+01 4.498880e+01 4.469992e+01 3.526140e+01 4.794651e+01 2.679865e+01 3.734105e+01 2.513260e+01 2.123568e+01 8.529749e+00 6.398310e+00 3.550174e+00 4.098341e+00 3.978167e+00 3.312028e+00 4.672336e+00 3.396255e+00 3.322674e+00 2.502327e+00 3.727329e+00 2.599916e+00 1.990495e+00 1.254148e+00 8.010092e-01 6.905918e-01 7.138206e-01 8.910770e-01 7.062415e-01 9.285837e-01 6.791973e-01 6.121016e-01 5.051830e-01 6.165541e-01 5.419642e-01 4.006199e-01
<GCONST> 1.315959e+02
<STATE> 3
<MEAN> 39
 -2.728547e+01 -6.581525e-01 2.770165e+00 -6.327877e+00 4.670527e+00 -7.531342e-01 7.012162e+00 2.401362e+00 -7.410389e-01 3.396225e+00 2.672170e-01 7.674821e+00 1.402861e+00 2.232835e-01 -1.650696e+00 -1.872415e-01 3.611365e-01 -1.694989e+00 -2.484090e-01 7.401817e-01 3.041041e-01 9.770282e-02 1.154934e-01 3.037211e-01 4.364411e-01 3.859149e-01 1.285109e+00 2.255595e-01 -8.561916e-02 6.228486e-01 1.568702e-02 -4.120269e-01 -1.364245e-01 -1.191820e-01 -7.287150e-03 -9.540454e-02 -1.995849e-01 -1.833251e-01 -5.454919e-02
<VARIANCE> 39
 2.081496e+01 3.586776e+01 1.823853e+01 1.838377e+01 4.648649e+01 2.155217e+01 2.245468e+01 2.106313e+01 2.045492e+01 1.877638e+01 1.811286e+01 1.726719e+01 1.364254e+01 9.706977e+00 2.927344e+00 2.735378e+00 3.877016e+00 3.010282e+00 3.163789e+00 2.359359e+00 2.385544e+00 2.466460e+00 1.964181e+00 2.266850e+00 1.812733e+00 1.349176e+00 6.620947e-01 6.903315e-01 4.721808e-01 4.012338e-01 1.115579e+00 4.618168e-01 5.374231e-01 4.354589e-01 5.031620e-01 4.060524e-01 4.538332e-01 4.010839e-01 2.883324e-01
<GCONST> 1.153689e+02
<STATE> 4
<MEAN> 39
 -6.170095e+00 -4.195069e+00 -9.325266e-01 1.363331e+00 8.603498e-01 -3.727115e+00 4.166257e+00 1.500002e+00 2.764483e-01 1.877017e+00 4.838481e-02 3.747906e+00 1.151364e+00 3.616590e+00 5.695968e-02 3.660918e-02 7.819463e-03 -9.684946e-01 6.946873e-01 -1.729673e+00 -3.117553e-01 2.888356e-01 -7.124989e-01 5.734726e-01 -1.351549e+00 -4.167174e-01 -3.960464e-01 -1.357493e-01 1.335953e-01 -5.252783e-01 -3.205066e-01 4.203819e-01 -2.169063e-01 1.562800e-02 1.246342e-01 -1.199580e-01 2.172589e-01 2.248822e-03 -4.670568e-02
<VARIANCE> 39
 1.008307e+02 4.583932e+01 6.523965e+01 3.379123e+01 7.929769e+01 5.012760e+01 5.824234e+01 4.866189e+01 4.961427e+01 3.081446e+01 4.444997e+01 3.531959e+01 1.792960e+01 4.788790e+00 6.587017e+00 3.743129e+00 5.491788e+00 1.060908e+01 5.742491e+00 4.886652e+00 4.090032e+00 5.230456e+00 3.937526e+00 4.698288e+00 2.693111e+00 2.214523e+00 9.758823e-01 1.239364e+00 4.657994e-01 6.016725e-01 1.700792e+00 7.222837e-01 9.964423e-01 7.456077e-01 9.253045e-01 6.794668e-01 8.033956e-01 5.713804e-01 3.930705e-01
<GCONST> 1.382164e+02
<TRANSP> 5
 0.000000e+00 1.000000e+00 0.000000e+00 0.000000e+00 0.000000e+00
 0.000000e+00 8.276827e-01 1.723172e-01 0.000000e+00 0.000000e+00
 0.000000e+00 0.000000e+00 8.480932e-01 1.519068e-01 0.000000e+00
 0.000000e+00 0.000000e+00 0.000000e+00 8.493360e-01 1.506640e-01
 0.000000e+00 0.000000e+00 0.000000e+00 0.000000e+00 0.000000e+00
<ENDHMM>
~o
<STREAMINFO> 1 39
<VECSIZE> 39<NULLD><MFCC_D_A_Z><DIAGC>
~h "d"
<BEGINHMM>
<NUMSTATES> 5
<STATE> 2
<MEAN> 39
 5.101429e+00 5.188890e+00 3.705837e+00 5.017145e+00 4.848753e+00 -3.185489e+00 -4.589027e+00 -2.725042e+00 1.878593e+00 2.939995e+00 -4.105918e+00 -4.495013e+00 5.269509e-01 1.369174e+00 2.421478e+00 9.383659e-01 1.387902e+00 1.860664e+00 6.377090e-01 1.815053e-01 -1.835826e-01 4.493456e-01 7.822804e-01 -1.704786e+00 -5.952972e-01 -7.722555e-01 -8.256895e-02 -1.594744e-01 -1.119649e-01 -2.840092e-01 -2.336530e-01 1.499688e-01 -9.560558e-02 1.595229e-01 2.543289e-01 -8.256098e-02 1.330888e-01 -1.204634e-03 4.820280e-02
<VARIANCE> 39
 1.713483e+01 4.937799e+01 3.468180e+01 4.032257e+01 6.924318e+01 5.380540e+01 5.713939e+01 4.272068e+01 4.363183e+01 3.136344e+01 4.857369e+01 2.588904e+01 3.410997e+01 2.074467e+00 2.286461e+00 2.080695e+00 3.110120e+00 5.487714e+00 3.851738e+00 3.675140e+00 3.390772e+00 4.433309e+00 2.549754e+00 3.349272e+00 2.943577e+00 2.446868e+00 4.554370e-01 4.984427e-01 3.533395e-01 4.481535e-01 1.101403e+00 8.679503e-01 6.558418e-01 5.546243e-01 5.837645e-01 4.800150e-01 6.539621e-01 5.513951e-01 5.645083e-01
<GCONST> 1.269321e+02
<STATE> 3
<MEAN> 39
 9.013827e+00 1.299916e+01 6.729090e+00 8.257197e+00 7.304498e+00 -3.992492e-01 -4.087837e+00 -1.042831e+00 6.108529e+00 4.502322e+00 -8.376677e+00 -5.696146e+00 2.388499e-01 -8.779710e-01 8.524882e-02 4.215039e-02 5.026189e-02 6.955277e-01 -2.870767e-01 5.240289e-01 1.352486e-01 -1.456965e-01 -1.219437e-01 -3.470466e-02 7.738663e-01 -1.073638e-01 -6.733668e-01 -6.347564e-01 -1.370788e-01 -2.883698e-01 -2.178056e-01 -3.614290e-01 2.026526e-01 -3.417850e-02 -4.609717e-01 -2.859174e-01 4.597084e-01 4.515706e-01 4.211561e-02
<VARIANCE> 39
 6.976544e+00 2.171634e+01 1.525903e+01 1.878963e+01 2.581610e+01 2.428643e+01 4.309370e+01 2.805479e+01 2.457541e+01 2.021089e+01 2.240619e+01 2.263257e+01 1.651284e+01 3.802841e+00 2.869285e+00 1.281363e+00 1.487192e+00 2.953296e+00 2.698371e+00 3.407358e+00 1.685071e+00 3.555697e+00 1.817873e+00 1.981082e+00 3.041128e+00 1.390380e+00 3.523935e-01 3.714524e-01 2.267141e-01 3.325639e-01 6.181805e-01 4.112216e-01 5.308670e-01 3.634817e-01 4.834698e-01 3.376859e-01 4.050666e-01 4.207199e-01 2.696847e-01
<GCONST> 1.094596e+02
<STATE> 4
<MEAN> 39
 -2.743165e+00 3.962335e+00 4.041741e+00 3.856969e+00 7.791793e+00 -6.440470e+00 -1.136040e+00 -1.634989e+00 2.332248e-01 1.153568e+00 -2.873185e+00 2.140273e+00 -1.463069e-01 -1.024525e+00 -2.721063e+00 -3.668099e-01 -1.861982e+00 -2.729342e+00 -8.789845e-01 -9.338756e-01 -1.213033e-01 -4.487682e-01 -1.094130e+00 2.767468e+00 5.014609e-01 4.596497e-01 1.043381e+00 1.651881e-01 1.136840e-01 -7.080135e-02 -9.503627e-01 6.686629e-01 -5.468496e-01 -9.341305e-02 3.587689e-01 -3.928063e-03 2.158725e-01 -8.923440e-01 8.780665e-02
<VARIANCE> 39
 2.191899e+01 4.206788e+01 3.309872e+01 3.679338e+01 6.506644e+01 4.397772e+01 6.099497e+01 3.268612e+01 5.312365e+01 2.330517e+01 3.900415e+01 2.861670e+01 2.022248e+01 6.320315e+00 3.882127e+00 4.718313e+00 3.593895e+00 9.711009e+00 6.104282e+00 6.383220e+00 6.165887e+00 8.588889e+00 2.964252e+00 4.696769e+00 6.271040e+00 2.190554e+00 5.613744e-01 9.902841e-01 6.235713e-01 6.479964e-01 1.810204e+00 8.667343e-01 1.353318e+00 7.011425e-01 1.046421e+00 5.097212e-01 1.062339e+00 7.264345e-01 4.597240e-01
<GCONST> 1.367410e+02
<TRANSP> 5
 0.000000e+00 1.000000e+00 0.000000e+00 0.000000e+00 0.000000e+00
 0.000000e+00 6.865717e-01 3.134283e-01 0.000000e+00 0.000000e+00
 0.000000e+00 0.000000e+00 8.243233e-01 1.756767e-01 0.000000e+00
 0.000000e+00 0.000000e+00 0.000000e+00 7.085367e-01 2.914633e-01
 0.000000e+00 0.000000e+00 0.000000e+00 0.000000e+00 0.000000e+00
<ENDHMM>
~o
<STREAMINFO> 1 39
<VECSIZE> 39<NULLD><MFCC_D_A_Z><DIAGC>
~h "dh"
<BEGINHMM>
<NUMSTATES> 5
<STATE> 2
<MEAN> 39
 7.229300e+00 9.282182e+00 5.571949e+00 6.880354e+00 6.641555e+00 -2.029959e+00 -4.007196e+00 -1.167263e+00 3.751988e+00 3.878128e+00 -6.204217e+00 -5.244534e+00 4.365227e-01 -3.991850e-01 9.673836e-01 2.431017e-01 6.650438e-01 1.457331e+00 -2.205166e-02 7.877558e-01 2.674553e-01 1.870705e-01 2.743270e-01 -6.407676e-01 8.266015e-01 -2.245711e-01 -6.065276e-01 -5.221149e-01 -2.864607e-01 -3.268779e-01 -2.020435e-01 -1.447203e-01 2.778789e-01 5.354227e-02 -1.346510e-01 -1.846299e-01 3.637400e-01 4.185395e-01 1.042335e-01
<VARIANCE> 39
 1.634820e+01 4.248026e+01 2.921352e+01 3.863934e+01 4.576932e+01 4.204853e+01 4.624305e+01 3.807460e+01 3.791011e+01 2.640332e+01 4.199841e+01 2.584796e+01 2.406211e+01 6.037140e+00 4.654822e+00 2.480003e+00 3.095449e+00 4.578170e+00 3.707545e+00 4.528162e+00 2.763407e+00 4.235303e+00 2.351904e+00 3.831311e+00 4.829810e+00 2.159827e+00 6.338881e-01 5.042092e-01 3.177436e-01 3.894901e-01 8.151348e-01 7.707475e-01 7.736371e-01 5.412813e-01 6.759232e-01 4.249276e-01 5.197226e-01 6.917956e-01 4.414127e-01
<GCONST> 1.264300e+02
<STATE> 3
<MEAN> 39
 -6.354281e+00 4.869212e+00 2.507694e+00 5.537629e+00 1.132358e+01 -6.158414e+00 5.740763e+00 1.106788e+00 4.149828e-01 2.545200e+00 -3.111001e+00 6.955253e+00 3.589025e-01 -1.669894e+00 -1.268857e+00 -1.288883e+00 -6.655364e-01 -9.515450e-01 -1.317766e+00 1.305763e+00 -1.969515e-01 2.255821e-01 -2.638741e-01 1.499326e+00 1.625317e+00 1.038154e+00 1.354164e+00 4.394045e-01 1.386684e-01 1.414116e-01 -7.635465e-01 6.381442e-01 -6.708540e-01 -3.672880e-01 4.419848e-01 5.870153e-02 -4.410240e-02 -1.172984e+00 2.995180e-01
<VARIANCE> 39
 2.022365e+01 2.450013e+01 3.711094e+01 2.706133e+01 3.674782e+01 4.066408e+01 4.938075e+01 2.958174e+01 3.362579e+01 2.323854e+01 2.694135e+01 2.647320e+01 1.884913e+01 7.166636e+00 4.200980e+00 5.355841e+00 3.080550e+00 6.587544e+00 4.861641e+00 6.913796e+00 6.392159e+00 5.575817e+00 3.269392e+00 3.687180e+00 5.872650e+00 2.958021e+00 4.875351e-01 7.460966e-01 7.314220e-01 5.295160e-01 1.092087e+00 1.119137e+00 1.003202e+00 7.333269e-01 7.434991e-01 5.640592e-01 6.527141e-01 6.352803e-01 5.160966e-01
<GCONST> 1.316073e+02
<STATE> 4
<MEAN> 39
 -1.410773e+00 3.015873e+00 -3.085421e+00 2.574109e+00 7.262811e+00 1.029958e+00 4.968225e+00 -5.238190e-01 4.592310e+00 2.329487e+00 -1.412802e+00 1.544562e+00 4.297934e+00 1.078552e+00 -8.800561e-01 -4.533569e-01 -7.769918e-01 -1.301042e+00 1.331078e+00 -7.939487e-01 -2.184280e-01 -2.060567e-03 -4.552082e-01 3.517615e-01 -1.128911e+00 -4.018677e-01 2.266454e-02 -1.927039e-01 2.383375e-01 -8.146635e-02 -9.900073e-02 4.873908e-02 -2.558622e-01 1.066719e-01 -1.344389e-01 -1.018855e-01 -1.007011e-01 -9.983740e-02 -3.055741e-01
<VARIANCE> 39
 2.127393e+01 3.178879e+01 7.096520e+01 3.066006e+01 7.653628e+01 8.934404e+01 4.769852e+01 6.488483e+01 5.219096e+01 2.964720e+01 4.499194e+01 3.503510e+01 2.651469e+01 1.443526e+00 2.842683e+00 2.712652e+00 1.829526e+00 5.610004e+00 3.874836e+00 4.307737e+00 3.294367e+00 3.159772e+00 2.989206e+00 2.766120e+00 2.452270e+00 2.899445e+00 3.073723e-01 4.146369e-01 4.636404e-01 3.400943e-01 8.370570e-01 7.882597e-01 6.198289e-01 6.731289e-01 6.247323e-01 5.401723e-01 5.487847e-01 4.714364e-01 4.747431e-01
<GCONST> 1.263211e+02
<TRANSP> 5
 0.000000e+00 1.000000e+00 0.000000e+00 0.000000e+00 0.000000e+00
 0.000000e+00 8.563723e-01 1.436277e-01 0.000000e+00 0.000000e+00
 0.000000e+00 0.000000e+00 6.572300e-01 3.427700e-01 0.000000e+00
 0.000000e+00 0.000000e+00 0.000000e+00 8.323877e-01 1.676123e-01
 0.000000e+00 0.000000e+00 0.000000e+00 0.000000e+00 0.000000e+00
<ENDHMM>
~o
<STREAMINFO> 1 39
<VECSIZE> 39<NULLD><MFCC_D_A_Z><DIAGC>
~h "dx"
<BEGINHMM>
<NUMSTATES> 5
<STATE> 2
<MEAN> 39
 7.192364e+00 -2.985490e+00 1.989230e+00 9.526216e+00 -3.753917e+00 -3.766160e+00 -4.799588e+00 1.700055e+00 4.254536e-01 -4.473152e+00 -3.645577e+00 1.731942e+00 -1.028989e-01 8.364552e-01 1.280896e+00 9.937173e-01 2.240657e+00 1.903351e+00 -1.462033e+00 -3.155205e-01 4.855974e-01 1.064688e+00 -5.045274e-01 -1.475242e+00 1.426624e-01 9.454601e-03 -1.103476e-01 1.364768e-01 9.401712e-02 -3.099406e-01 1.831298e-01 1.249963e-01 -3.602182e-02 6.855792e-02 1.401358e-01 6.455899e-02 1.465563e-01 -1.462713e-01 -6.042034e-02
<VARIANCE> 39
 2.362412e+01 8.541379e+01 5.808200e+01 4.020539e+01 1.022191e+02 5.443748e+01 7.814747e+01 6.668667e+01 5.795399e+01 4.690011e+01 5.999527e+01 5.118929e+01 4.428146e+01 1.913210e+00 2.860766e+00 2.291650e+00 2.850679e+00 8.473956e+00 5.608773e+00 4.879087e+00 4.377385e+00 6.124530e+00 4.865374e+00 4.334477e+00 5.892916e+00 3.045373e+00 2.953732e-01 6.070296e-01 3.315192e-01 6.015052e-01 1.611045e+00 8.727589e-01 7.985671e-01 7.479282e-01 9.393443e-01 8.270758e-01 8.313687e-01 1.144331e+00 5.452126e-01
<GCONST> 1.377870e+02
<STATE> 3
<MEAN> 39
 9.015320e+00 6.804585e+00 8.156902e+00 1.565427e+01 3.093977e+00 -7.735948e+00 -3.599396e+00 5.567383e+00 4.958498e+00 -5.059905e+00 -6.900756e+00 1.434981e+00 -8.875761e-01 -7.291892e-01 1.961486e-03 2.935810e-01 -7.705635e-01 1.061609e+00 -1.437946e-01 -3.459410e-01 -9.858308e-02 8.741099e-02 5.927670e-01 5.767369e-01 -2.545067e-02 -2.127289e-01 -4.877053e-01 -5.746307e-01 -1.676606e-01 -7.222462e-01 -4.072705e-01 8.771484e-02 7.435656e-02 -2.053451e-01 -3.665151e-01 1.693825e-02 5.684275e-01 1.317780e-01 5.256718e-02
<VARIANCE> 39
 7.365790e+00 2.518902e+01 2.813622e+01 1.978200e+01 4.388360e+01 2.566754e+01 5.542233e+01 3.943887e+01 3.319825e+01 3.580911e+01 2.942424e+01 3.838948e+01 2.212683e+01 2.980293e+00 3.500228e+00 1.981610e+00 3.997995e+00 3.568335e+00 2.583167e+00 3.158268e+00 3.026353e+00 3.404388e+00 2.423024e+00 3.464884e+00 2.721184e+00 2.205274e+00 2.792920e-01 4.764774e-01 3.131528e-01 5.580952e-01 9.216763e-01 4.929695e-01 5.307046e-01 5.782814e-01 7.107274e-01 5.289082e-01 7.666950e-01 4.521280e-01 3.836028e-01
<GCONST> 1.204564e+02
<STATE> 4
<MEAN> 39
 8.040842e-01 -3.031651e+00 4.466429e+00 1.681600e+00 1.012245e+00 -6.821016e+00 -6.918841e+00 2.096558e+00 2.225427e+00 -2.075412e+00 2.545101e+00 1.708203e-01 -5.474252e-02 -7.606645e-01 -1.845918e+00 -8.046821e-01 -2.742120e+00 -2.635145e+00 8.892368e-01 -3.760366e-01 -2.246297e-01 -1.578110e-01 -1.361671e-01 2.299808e+00 -6.700142e-01 2.983165e-02 6.400120e-01 4.866129e-01 -1.717893e-01 6.247849e-01 -2.068152e-01 5.381808e-01 1.260285e-01 -9.333753e-02 2.209083e-01 -9.673181e-02 -6.774582e-01 -3.627046e-01 2.847771e-02
<VARIANCE> 39
 1.857700e+01 3.091801e+01 5.542780e+01 3.557368e+01 7.043927e+01 5.991698e+01 7.521046e+01 6.189301e+01 7.080713e+01 2.687739e+01 5.776575e+01 4.031593e+01 2.019175e+01 3.259273e+00 4.997833e+00 4.388361e+00 5.724188e+00 6.877056e+00 7.265034e+00 6.014219e+00 6.044066e+00 8.992531e+00 3.725295e+00 9.577425e+00 5.023388e+00 2.472208e+00 3.978378e-01 5.422728e-01 4.190997e-01 6.765299e-01 2.009029e+00 8.339826e-01 1.121296e+00 8.259822e-01 1.108768e+00 6.696969e-01 1.344732e+00 7.590969e-01 4.856059e-01
<GCONST> 1.391749e+02
<TRANSP> 5
 0.000000e+00 1.000000e+00 0.000000e+00 0.000000e+00 0.000000e+00
 0.000000e+00 7.344922e-01 2.655078e-01 0.000000e+00 0.000000e+00
 0.000000e+00 0.000000e+00 8.265812e-01 1.734188e-01 0.000000e+00
 0.000000e+00 0.000000e+00 0.000000e+00 7.292892e-01 2.707109e-01
 0.000000e+00 0.000000e+00 0.000000e+00 0.000000e+00 0.000000e+00
<ENDHMM>
~o
<STREAMINFO> 1 39
<VECSIZE> 39<NULLD><MFCC_D_A_Z><DIAGC>
~h "dxh"
<BEGINHMM>
<NUMSTATES> 5
<STATE> 2
<MEAN> 39
 7.074905e+00 4.466732e-01 4.489812e+00 1.282141e+01 2.851765e-01 -6.524469e+00 -3.879465e+00 3.594328e+00 3.537512e+00 -3.710275e+00 -5.272147e+00 2.848495e+00 -1.037998e+00 5.373559e-01 1.179165e+00 6.467016e-01 1.480935e+00 1.397668e+00 -8.580656e-01 -8.874556e-02 2.253802e-01 8.378368e-01 -2.049328e-02 -9.737746e-01 7.415769e-02 3.519245e-01 -2.703730e-01 -4.878030e-02 -8.867756e-02 -3.832692e-01 6.853842e-02 2.208683e-01 1.100190e-01 -4.694037e-02 -2.432420e-02 1.217976e-01 2.014494e-01 -2.297501e-02 5.989250e-02
<VARIANCE> 39
 1.866422e+01 9.016165e+01 5.886924e+01 5.039317e+01 7.586606e+01 3.914266e+01 6.275549e+01 4.274811e+01 4.568494e+01 4.277967e+01 4.397741e+01 3.238028e+01 2.006841e+01 1.784896e+00 2.964362e+00 2.286631e+00 3.251425e+00 5.263417e+00 4.085328e+00 3.548561e+00 2.913797e+00 3.463747e+00 3.720595e+00 3.529707e+00 3.627836e+00 2.051196e+00 3.529346e-01 6.427263e-01 3.545004e-01 5.937640e-01 9.373919e-01 5.854818e-01 6.596755e-01 5.444576e-01 6.535796e-01 6.062074e-01 6.279890e-01 7.065004e-01 4.111753e-01
<GCONST> 1.284375e+02
<STATE> 3
<MEAN> 39
 8.226074e-01 2.408608e+00 3.366796e+00 9.524034e+00 9.134021e+00 -5.382279e+00 -2.556580e-01 4.021726e+00 6.031177e+00 2.748437e-01 -4.493616e+00 3.486248e+00 2.780490e+00 -1.891166e+00 -9.347699e-01 -1.358121e+00 -2.421251e+00 1.633387e-01 1.285327e+00 1.161097e+00 -5.952020e-01 -4.949799e-01 9.524954e-01 1.782489e+00 1.570210e-01 3.723977e-01 3.520908e-01 1.411799e-01 -3.315698e-01 -2.326517e-02 -3.995211e-01 2.977324e-01 4.759154e-02 -2.853358e-01 -1.647925e-01 4.515079e-02 2.160074e-01 -1.808344e-01 -1.047161e-01
<VARIANCE> 39
 4.697617e+01 4.663446e+01 3.996526e+01 6.797500e+01 3.777170e+01 4.890840e+01 9.189954e+01 4.437353e+01 4.210472e+01 3.646715e+01 5.246749e+01 3.919994e+01 2.791569e+01 3.659158e+00 4.779819e+00 4.022049e+00 5.058417e+00 5.368168e+00 5.299541e+00 5.980368e+00 5.075334e+00 4.048739e+00 3.950224e+00 7.116124e+00 4.119067e+00 2.894155e+00 8.590907e-01 1.089299e+00 5.313453e-01 1.306696e+00 8.619491e-01 8.259380e-01 1.159757e+00 7.859771e-01 8.167632e-01 6.429654e-01 1.370078e+00 7.287832e-01 6.129422e-01
<GCONST> 1.392555e+02
<STATE> 4
<MEAN> 39
 1.721548e+00 4.315302e+00 -7.681575e+00 2.839028e-01 5.980874e+00 5.989719e+00 4.343679e+00 -2.733650e+00 1.644862e+00 4.374007e+00 2.398396e+00 2.241411e+00 2.771002e+00 1.260643e+00 -1.537407e-01 -6.459224e-01 -1.480572e+00 -2.186744e+00 1.223819e+00 -3.896535e-01 -5.242726e-01 -9.064917e-01 -6.939492e-01 4.397623e-01 -4.115711e-01 -4.033354e-01 4.132049e-02 -4.053601e-01 5.134196e-01 -7.392978e-04 -3.516509e-01 -2.134594e-01 -3.695160e-01 2.918781e-01 1.320885e-01 -4.358803e-01 -2.234849e-01 -6.375125e-02 -6.726791e-02
<VARIANCE> 39
 2.589978e+01 5.179116e+01 6.074883e+01 3.647845e+01 7.725200e+01 6.057314e+01 4.358409e+01 5.132779e+01 3.970316e+01 3.309780e+01 5.087862e+01 4.158225e+01 2.518178e+01 1.095383e+00 3.920842e+00 3.643219e+00 2.472105e+00 5.019454e+00 3.160470e+00 4.916043e+00 3.403854e+00 3.565249e+00 4.255282e+00 3.357570e+00 3.840615e+00 2.541986e+00 3.299847e-01 4.740395e-01 4.602064e-01 3.741338e-01 7.478158e-01 5.494146e-01 6.073794e-01 5.971126e-01 6.226130e-01 6.960524e-01 8.293804e-01 6.906983e-01 4.401084e-01
<GCONST> 1.285239e+02
<TRANSP> 5
 0.000000e+00 1.000000e+00 0.000000e+00 0.000000e+00 0.000000e+00
 0.000000e+00 8.907284e-01 1.092716e-01 0.000000e+00 0.000000e+00
 0.000000e+00 0.000000e+00 8.021668e-01 1.978332e-01 0.000000e+00
 0.000000e+00 0.000000e+00 0.000000e+00 8.080165e-01 1.919834e-01
 0.000000e+00 0.000000e+00 0.000000e+00 0.000000e+00 0.000000e+00
<ENDHMM>
~o
<STREAMINFO> 1 39
<VECSIZE> 39<NULLD><MFCC_D_A_Z><DIAGC>
~h "dxhq"
<BEGINHMM>
<NUMSTATES> 5
<STATE> 2
<MEAN> 39
 6.934443e+00 -1.291726e+01 -4.505028e+00 4.807283e+00 -1.181196e+01 -9.053463e-01 -9.527419e+00 4.176551e+00 5.348428e+00 4.496209e-01 1.506706e+00 2.630331e-01 -2.876972e+00 4.750476e-01 -1.347540e-01 -2.758974e-02 2.939595e+00 1.283522e+00 -3.156458e+00 -3.629027e-01 6.580318e-01 9.523727e-02 -7.514839e-01 -1.154651e+00 1.728011e+00 7.279296e-01 -1.046255e-01 6.775876e-01 3.553168e-01 -2.208003e-01 1.000233e+00 1.425674e-01 1.056255e-01 -3.931563e-01 -3.297072e-01 -1.781341e-01 1.240226e-03 -9.858698e-02 1.476583e-01
<VARIANCE> 39
 6.802051e+00 2.296201e+01 6.350670e+01 4.205534e+01 2.294305e+01 6.477139e+01 4.426046e+01 6.490569e+01 7.834013e+01 4.078924e+01 3.240627e+01 4.088992e+01 2.238133e+01 3.089570e-01 1.512177e+00 1.992593e+00 2.030964e+00 5.646322e+00 5.990474e+00 5.080377e+00 3.525771e+00 3.955796e+00 3.613051e+00 3.063661e+00 2.975255e+00 2.726912e+00 9.274885e-02 1.777866e-01 2.371746e-01 6.509554e-01 5.001376e-01 1.326747e+00 8.197656e-01 6.282384e-01 1.104659e+00 5.707305e-01 6.484715e-01 9.593305e-01 5.130970e-01
<GCONST> 1.225185e+02
<STATE> 3
<MEAN> 39
 8.029964e+00 -5.014456e+00 1.324784e-01 1.296785e+01 3.166899e+00 -7.383850e+00 -8.736524e+00 2.619009e+00 3.929751e+00 -3.127542e+00 -3.110417e+00 2.429353e+00 -1.094387e+00 -7.827175e-01 1.843492e+00 1.089067e+00 -5.034191e-01 2.450137e+00 -4.409519e-02 7.787558e-01 -6.026508e-01 7.768846e-02 2.489109e-01 -1.624448e-01 -8.108374e-01 5.173397e-02 -4.389323e-01 -4.255819e-02 -1.812640e-01 -9.308680e-01 -9.086471e-01 3.919295e-01 3.733838e-01 -1.266480e-02 2.867037e-02 4.147937e-01 5.206140e-01 -2.263482e-01 1.394010e-01
<VARIANCE> 39
 1.070434e+01 5.114167e+01 6.880178e+01 2.812230e+01 6.079354e+01 2.997363e+01 5.278615e+01 4.835315e+01 3.760445e+01 4.318590e+01 3.463986e+01 2.952923e+01 2.275873e+01 2.030533e+00 2.566711e+00 2.538610e+00 4.647655e+00 8.076559e+00 2.866721e+00 4.891893e+00 3.905151e+00 6.417422e+00 4.483933e+00 5.093836e+00 2.991695e+00 2.747936e+00 2.386468e-01 5.605987e-01 5.595893e-01 4.546497e-01 1.412446e+00 7.902942e-01 1.080151e+00 8.282455e-01 1.095747e+00 8.261790e-01 9.683542e-01 8.062493e-01 7.873768e-01
<GCONST> 1.316882e+02
<STATE> 4
<MEAN> 39
 1.049299e+00 -6.963550e-01 -2.777112e+00 2.798531e+00 4.450882e+00 -3.333433e+00 -1.706308e-01 8.616521e-01 3.934414e+00 2.676783e+00 -3.963302e-01 -8.792808e-01 3.579737e+00 -2.829366e-01 2.889093e-01 -1.198351e-01 -8.584385e-01 -5.496771e-01 6.676159e-01 6.180910e-01 -3.491367e-01 -3.928263e-01 1.919779e-01 3.003512e-01 -2.515939e-01 1.660615e-01 2.235303e-01 -1.861663e-01 8.154046e-02 2.510739e-01 -1.245363e-01 8.973330e-02 -2.136905e-01 1.057506e-02 -5.010625e-02 -2.383813e-01 -1.046960e-01 7.858247e-02 -2.589698e-01
<VARIANCE> 39
 1.581890e+01 3.651579e+01 7.461086e+01 3.378196e+01 6.474627e+01 8.457471e+01 6.687792e+01 5.667324e+01 4.375438e+01 3.136619e+01 4.039871e+01 4.339161e+01 2.807000e+01 2.079374e+00 3.554394e+00 2.926759e+00 3.400722e+00 6.336121e+00 3.228585e+00 5.140920e+00 4.082407e+00 3.898365e+00 3.448152e+00 4.117559e+00 2.898464e+00 4.114943e+00 2.731550e-01 4.135124e-01 4.417284e-01 5.501884e-01 1.000960e+00 5.668095e-01 7.119461e-01 6.747724e-01 6.783431e-01 5.405273e-01 6.509604e-01 4.937623e-01 5.591461e-01
<GCONST> 1.299827e+02
<TRANSP> 5
 0.000000e+00 1.000000e+00 0.000000e+00 0.000000e+00 0.000000e+00
 0.000000e+00 7.470340e-01 2.529661e-01 0.000000e+00 0.000000e+00
 0.000000e+00 0.000000e+00 7.686882e-01 2.313118e-01 0.000000e+00
 0.000000e+00 0.000000e+00 0.000000e+00 8.643728e-01 1.356271e-01
 0.000000e+00 0.000000e+00 0.000000e+00 0.000000e+00 0.000000e+00
<ENDHMM>
~o
<STREAMINFO> 1 39
<VECSIZE> 39<NULLD><MFCC_D_A_Z><DIAGC>
~h "dxq"
<BEGINHMM>
<NUMSTATES> 5
<STATE> 2
<MEAN> 39
 7.244524e+00 -9.325067e+00 -4.474961e+00 3.768379e+00 -1.037622e+01 1.542037e+00 -7.269520e+00 -1.652597e-01 -2.097037e-01 -1.079316e-01 4.435224e+00 2.514157e+00 -2.393858e+00 6.322553e-01 -7.194198e-01 -5.188622e-01 2.671424e+00 1.277141e+00 -2.634921e+00 -1.135786e+00 5.777172e-01 3.269390e-01 -3.497223e-02 -8.916951e-01 1.026100e+00 1.949912e-01 -9.388196e-02 4.913337e-01 2.222858e-01 -1.568322e-01 9.940432e-01 -1.176159e-02 -1.486699e-01 -8.434907e-02 1.201145e-01 -1.796964e-01 -3.644761e-01 -2.507354e-01 1.333222e-01
<VARIANCE> 39
 1.994512e+01 4.166346e+01 7.691722e+01 4.609421e+01 5.470832e+01 9.402931e+01 5.066205e+01 7.047916e+01 8.994495e+01 4.450179e+01 5.785776e+01 4.025573e+01 2.453691e+01 1.123041e+00 2.250689e+00 2.737583e+00 2.470871e+00 8.501004e+00 6.340431e+00 6.642737e+00 3.590379e+00 4.906798e+00 3.476013e+00 4.694986e+00 2.984823e+00 2.819589e+00 2.804112e-01 3.405174e-01 4.528292e-01 5.891392e-01 8.471421e-01 1.278279e+00 1.113041e+00 7.224814e-01 1.170184e+00 6.029803e-01 8.051409e-01 7.434708e-01 4.952163e-01
<GCONST> 1.336854e+02
<STATE> 3
<MEAN> 39
 8.725948e+00 -6.734058e+00 -3.357909e+00 1.143896e+01 3.979480e+00 -4.981934e+00 -1.188692e+01 -1.001795e+00 2.928701e+00 -1.467213e+00 -2.520267e+00 1.826019e+00 -1.792599e+00 -1.065792e+00 1.296818e+00 1.585081e+00 -8.880443e-01 2.156445e+00 -5.805809e-02 5.119353e-02 -5.805051e-01 4.097973e-01 -1.401663e-01 -3.616166e-01 -1.227169e+00 -7.960285e-02 -4.643498e-01 -8.492922e-02 1.880968e-01 -1.203529e+00 -1.463363e+00 4.576174e-01 3.888479e-01 5.869832e-02 -1.650378e-01 1.763580e-01 9.509653e-01 -2.209774e-01 6.620743e-02
<VARIANCE> 39
 1.323836e+01 3.116470e+01 6.595237e+01 2.325698e+01 7.796965e+01 3.897374e+01 5.752934e+01 5.347716e+01 3.708500e+01 3.967755e+01 3.390587e+01 3.033189e+01 2.414748e+01 1.435272e+00 2.152944e+00 3.054504e+00 4.792762e+00 1.167753e+01 3.242258e+00 4.782603e+00 4.149551e+00 6.887216e+00 4.720952e+00 7.510612e+00 3.110733e+00 3.199897e+00 2.040636e-01 5.087005e-01 7.211936e-01 3.985591e-01 1.807254e+00 8.435645e-01 1.247774e+00 1.059000e+00 1.349684e+00 9.073424e-01 1.231477e+00 7.371684e-01 7.811769e-01
<GCONST> 1.337771e+02
<STATE> 4
<MEAN> 39
 2.533966e+00 -4.861896e+00 1.065804e+00 4.288637e-01 -1.999503e+00 -5.034402e+00 -1.053620e+01 -2.081822e-01 3.965319e+00 -4.002719e-02 3.902207e+00 -2.767554e+00 7.944119e-01 -8.848261e-01 2.747810e-01 5.295686e-01 -2.053725e+00 -1.963656e+00 5.153917e-01 5.789970e-01 4.542994e-01 -3.726941e-01 6.965962e-02 1.278984e+00 -8.937272e-01 4.965828e-01 3.594008e-01 7.473217e-03 -2.204226e-01 6.469716e-01 2.461093e-01 2.004077e-01 1.739403e-01 -7.982504e-02 -2.171301e-01 -1.390243e-01 -5.058164e-01 2.580145e-01 -2.048115e-01
<VARIANCE> 39
 9.265612e+00 2.384742e+01 6.653507e+01 3.590668e+01 4.480443e+01 4.893768e+01 3.420225e+01 6.540246e+01 6.091448e+01 4.081535e+01 4.703495e+01 3.223057e+01 2.545417e+01 1.643036e+00 2.461956e+00 3.584710e+00 6.164260e+00 7.715729e+00 3.460484e+00 3.685910e+00 5.958320e+00 6.721286e+00 3.888015e+00 7.578075e+00 3.809093e+00 3.081171e+00 1.842663e-01 3.114672e-01 3.473548e-01 5.727083e-01 1.295369e+00 4.738057e-01 5.719740e-01 7.565870e-01 8.226813e-01 5.942564e-01 9.181808e-01 4.708093e-01 5.644560e-01
<GCONST> 1.293322e+02
<TRANSP> 5
 0.000000e+00 1.000000e+00 0.000000e+00 0.000000e+00 0.000000e+00
 0.000000e+00 7.817960e-01 2.182040e-01 0.000000e+00 0.000000e+00
 0.000000e+00 0.000000e+00 7.391287e-01 2.608713e-01 0.000000e+00
 0.000000e+00 0.000000e+00 0.000000e+00 7.155512e-01 2.844488e-01
 0.000000e+00 0.000000e+00 0.000000e+00 0.000000e+00 0.000000e+00
<ENDHMM>
~o
<STREAMINFO> 1 39
<VECSIZE> 39<NULLD><MFCC_D_A_Z><DIAGC>
~h "ee"
<BEGINHMM>
<NUMSTATES> 5
<STATE> 2
<MEAN> 39
 6.926747e-01 -4.088667e+00 9.331460e+00 1.858352e-01 -7.864493e+00 -9.204181e+00 -6.295537e+00 2.429492e+00 -1.833748e+00 -3.806793e+00 6.646811e+00 -1.813954e-01 1.329342e+00 1.936765e-01 -1.758855e+00 1.375847e+00 -1.253613e+00 -3.043010e+00 -4.844943e-01 -1.238152e+00 1.319312e+00 3.355831e-01 -1.152324e+00 2.124722e+00 -2.030489e-01 3.954304e-01 -1.648813e-01 4.434650e-01 -3.172390e-01 1.878448e-01 3.870968e-01 4.588965e-01 5.255278e-01 -3.115188e-01 -1.421936e-01 3.000142e-01 -3.553362e-01 -3.187139e-02 -1.288366e-01
<VARIANCE> 39
 1.144671e+01 2.647634e+01 4.268739e+01 2.242695e+01 4.317502e+01 2.993955e+01 3.712894e+01 4.320005e+01 4.351336e+01 2.217734e+01 4.236859e+01 2.216971e+01 2.010248e+01 2.239857e+00 1.834895e+00 2.885276e+00 2.250551e+00 4.913858e+00 2.889937e+00 4.670544e+00 4.518643e+00 5.295842e+00 2.277526e+00 5.663666e+00 3.072476e+00 1.858656e+00 4.504167e-01 4.202083e-01 4.836537e-01 4.717687e-01 1.057903e+00 4.374664e-01 7.419288e-01 6.867829e-01 8.979675e-01 4.237551e-01 7.889025e-01 5.858029e-01 3.773458e-01
<GCONST> 1.231719e+02
<STATE> 3
<MEAN> 39
 -4.398446e-01 -5.979836e+00 1.125061e+01 -2.807464e+00 -1.352457e+01 -8.760344e+00 -5.592182e+00 3.300429e+00 -1.931103e+00 -5.019114e+00 9.434699e+00 2.533220e-01 1.623886e-02 -1.757040e-02 -3.912672e-02 -1.476399e-01 -3.668483e-02 -5.176087e-02 -5.421088e-02 9.655583e-02 1.386986e-01 -5.194768e-02 1.591301e-01 -2.986845e-02 -5.086194e-02 -5.649466e-02 8.554349e-02 1.843888e-01 -1.251718e-01 2.181076e-01 3.878410e-01 -1.743785e-02 3.095876e-02 -9.358469e-02 -4.505579e-02 1.203479e-01 -2.464442e-01 -3.026659e-02 5.411115e-02
<VARIANCE> 39
 5.126190e+00 1.099728e+01 3.365505e+01 1.299522e+01 1.652209e+01 1.756557e+01 2.106089e+01 3.987208e+01 3.768536e+01 1.641917e+01 4.001283e+01 1.713001e+01 1.238264e+01 2.053450e-01 3.828975e-01 7.700222e-01 6.881961e-01 9.020472e-01 7.973835e-01 1.005076e+00 1.099601e+00 1.167341e+00 8.607970e-01 9.357340e-01 7.242230e-01 7.631105e-01 3.847668e-02 1.060109e-01 1.163592e-01 1.261623e-01 2.208384e-01 1.574405e-01 2.448084e-01 2.436796e-01 2.129998e-01 1.783280e-01 2.488388e-01 1.469414e-01 1.284429e-01
<GCONST> 8.107266e+01
<STATE> 4
<MEAN> 39
 7.411105e-01 -5.362978e-01 7.698269e+00 2.063058e+00 -6.260443e+00 -9.171761e+00 -3.205215e+00 3.290782e+00 -2.419632e+00 -1.252649e+00 4.760997e+00 3.734776e-01 8.635044e-01 -1.394955e-01 1.687909e+00 -9.295568e-01 1.007531e+00 1.919419e+00 5.189362e-01 9.455227e-01 -7.847992e-01 4.487791e-02 5.785161e-01 -1.327417e+00 4.779774e-01 -1.251901e-01 -1.942073e-01 1.637526e-01 -1.133565e-01 1.559890e-02 1.207631e-01 2.453327e-01 2.389448e-01 -2.101001e-01 -5.072754e-03 -2.662984e-02 -8.973397e-02 1.415781e-01 -9.829853e-02
<VARIANCE> 39
 1.631198e+01 5.436427e+01 4.373948e+01 3.402528e+01 4.810932e+01 3.476743e+01 6.272694e+01 4.170659e+01 5.164503e+01 3.284925e+01 4.879165e+01 3.299244e+01 2.481571e+01 2.548591e+00 2.674252e+00 2.170109e+00 2.640147e+00 4.171478e+00 3.241062e+00 4.460254e+00 3.282840e+00 3.750714e+00 2.676644e+00 3.702269e+00 2.651899e+00 2.032790e+00 3.162526e-01 6.857250e-01 3.415313e-01 4.804765e-01 8.266249e-01 5.276082e-01 8.044544e-01 6.035404e-01 6.894447e-01 5.020577e-01 6.681587e-01 4.294972e-01 3.771197e-01
<GCONST> 1.251739e+02
<TRANSP> 5
 0.000000e+00 1.000000e+00 0.000000e+00 0.000000e+00 0.000000e+00
 0.000000e+00 6.773825e-01 3.226176e-01 0.000000e+00 0.000000e+00
 0.000000e+00 0.000000e+00 8.653572e-01 1.346429e-01 0.000000e+00
 0.000000e+00 0.000000e+00 0.000000e+00 7.781955e-01 2.218045e-01
 0.000000e+00 0.000000e+00 0.000000e+00 0.000000e+00 0.000000e+00
<ENDHMM>
~o
<STREAMINFO> 1 39
<VECSIZE> 39<NULLD><MFCC_D_A_Z><DIAGC>
~h "ei"
<BEGINHMM>
<NUMSTATES> 5
<STATE> 2
<MEAN> 39
 2.658910e+00 -8.708144e+00 3.022635e+00 -1.235119e+00 -7.550965e+00 -7.886240e+00 -6.809950e+00 9.299215e+00 4.998795e+00 -1.649482e+00 3.434629e+00 -1.743500e+00 1.997139e+00 -6.918308e-02 -1.741108e+00 4.381912e-01 -1.160753e+00 -2.331618e+00 -9.710646e-02 -3.539667e-01 2.282274e+00 1.202596e+00 -1.230767e+00 4.492637e-01 1.235316e-01 -1.102475e-01 -2.987155e-01 5.777506e-01 -5.802428e-02 2.152964e-01 5.503414e-01 2.915126e-01 7.443947e-01 -5.067037e-01 -4.732123e-01 9.887110e-02 -3.121421e-01 2.574208e-01 -2.042625e-01
<VARIANCE> 39
 5.777838e+00 1.172073e+01 2.753231e+01 1.619349e+01 3.034442e+01 2.463273e+01 4.594415e+01 3.596082e+01 2.993012e+01 2.598235e+01 3.652580e+01 2.448849e+01 1.984832e+01 1.002178e+00 1.823170e+00 1.634993e+00 1.487058e+00 3.046440e+00 2.159806e+00 4.368716e+00 3.639654e+00 2.912395e+00 1.824565e+00 3.055962e+00 2.181298e+00 2.113539e+00 2.627478e-01 2.670018e-01 3.086250e-01 3.357833e-01 6.983696e-01 3.369904e-01 4.786865e-01 6.305735e-01 4.962790e-01 4.218225e-01 5.251622e-01 3.873239e-01 3.810498e-01
<GCONST> 1.112273e+02
<STATE> 3
<MEAN> 39
 8.764725e-01 -1.006538e+01 4.055787e+00 -3.801800e+00 -1.117787e+01 -7.423269e+00 -2.966597e+00 1.195271e+01 5.350711e+00 -4.307916e+00 2.598380e+00 8.056159e-01 -3.848695e-01 -5.769927e-02 1.367114e-01 9.155989e-02 -8.941181e-03 3.373820e-02 3.734368e-02 3.129921e-01 6.694132e-02 -1.287287e-01 9.632172e-02 -8.361740e-03 9.771217e-02 -1.138832e-01 6.489597e-02 2.200771e-01 -4.083681e-02 1.789462e-01 2.798394e-01 -1.278824e-02 -8.489461e-03 -1.687625e-01 -1.045416e-01 1.722925e-01 -7.064797e-02 -4.991825e-02 1.112064e-01
<VARIANCE> 39
 3.560377e+00 6.878827e+00 1.750042e+01 9.702821e+00 1.357965e+01 1.734163e+01 2.094963e+01 2.351717e+01 2.023279e+01 1.630232e+01 2.385621e+01 1.753597e+01 1.057347e+01 1.548023e-01 4.024788e-01 5.564960e-01 5.990676e-01 8.269052e-01 6.720243e-01 1.021059e+00 9.484963e-01 8.962468e-01 8.658866e-01 8.393442e-01 6.777928e-01 7.080957e-01 2.688968e-02 9.121793e-02 9.731379e-02 1.139987e-01 1.572149e-01 1.317886e-01 2.252999e-01 2.164663e-01 1.646259e-01 1.610440e-01 1.632700e-01 1.243410e-01 1.093275e-01
<GCONST> 7.305854e+01
<STATE> 4
<MEAN> 39
 2.197633e-01 -1.707830e+00 2.339420e+00 1.446452e+00 -3.429832e+00 -5.951429e+00 3.080383e+00 9.950016e+00 3.154434e+00 -4.055985e-01 -2.160741e-01 2.448040e+00 5.826294e-01 -3.841498e-01 1.509578e+00 -7.189714e-01 8.942375e-01 1.565137e+00 5.838994e-01 8.999736e-01 -1.096002e+00 -4.524183e-01 3.909848e-01 -6.886755e-01 4.980578e-01 -1.795400e-02 -1.090999e-01 3.767972e-02 -9.243152e-02 1.741625e-02 7.350103e-02 1.593297e-01 3.100833e-02 -2.079043e-01 -5.238464e-02 -7.835935e-02 -1.100018e-02 7.330496e-02 -9.604602e-02
<VARIANCE> 39
 1.640410e+01 4.645369e+01 3.346119e+01 3.155511e+01 4.651005e+01 3.842527e+01 9.738333e+01 5.132203e+01 3.603194e+01 3.039735e+01 4.217689e+01 3.302117e+01 2.368561e+01 1.631377e+00 2.743951e+00 2.183041e+00 2.456901e+00 3.216003e+00 2.540348e+00 4.515718e+00 3.766585e+00 3.347627e+00 2.619823e+00 2.892170e+00 2.227032e+00 2.131040e+00 2.162540e-01 5.759508e-01 3.214298e-01 4.625884e-01 6.228831e-01 4.278941e-01 7.994825e-01 6.273736e-01 5.942767e-01 4.917183e-01 5.254734e-01 3.808656e-01 3.970916e-01
<GCONST> 1.218226e+02
<TRANSP> 5
 0.000000e+00 1.000000e+00 0.000000e+00 0.000000e+00 0.000000e+00
 0.000000e+00 6.660752e-01 3.339248e-01 0.000000e+00 0.000000e+00
 0.000000e+00 0.000000e+00 8.770258e-01 1.229742e-01 0.000000e+00
 0.000000e+00 0.000000e+00 0.000000e+00 8.345333e-01 1.654667e-01
 0.000000e+00 0.000000e+00 0.000000e+00 0.000000e+00 0.000000e+00
<ENDHMM>
~o
<STREAMINFO> 1 39
<VECSIZE> 39<NULLD><MFCC_D_A_Z><DIAGC>
~h "f"
<BEGINHMM>
<NUMSTATES> 5
<STATE> 2
<MEAN> 39
 4.575933e+00 1.023642e+00 -6.557113e+00 -4.382864e+00 3.864815e+00 6.632166e+00 -5.857730e-02 -3.468392e+00 -1.530176e+00 5.157627e+00 2.334076e+00 1.067742e-01 -2.566242e+00 -1.948052e+00 2.238409e+00 -3.213713e-01 2.032406e+00 2.151557e+00 -1.180851e+00 2.792031e+00 3.213463e-02 -1.251730e-01 1.419260e-02 -5.555167e-01 2.192829e+00 3.222494e-02 -9.636188e-01 -4.018055e-01 3.320210e-01 2.259549e-01 -1.016064e-01 -5.226503e-01 1.754446e-01 4.333463e-01 4.889281e-01 -4.000877e-01 -1.705166e-01 1.756280e-02 4.637069e-02
<VARIANCE> 39
 2.421338e+01 4.701648e+01 3.791576e+01 4.067081e+01 3.820912e+01 7.910169e+01 6.479782e+01 3.152533e+01 3.132960e+01 3.997782e+01 2.743435e+01 4.277107e+01 1.860954e+01 4.471049e+00 3.578781e+00 3.384161e+00 3.070620e+00 4.189781e+00 5.897303e+00 4.443300e+00 5.052259e+00 4.251362e+00 3.583275e+00 3.508408e+00 2.664179e+00 1.490186e+00 4.742922e-01 8.949363e-01 4.295507e-01 5.764437e-01 9.532939e-01 8.579026e-01 1.227717e+00 7.383799e-01 5.781870e-01 5.996053e-01 5.035778e-01 7.763827e-01 2.721107e-01
<GCONST> 1.297530e+02
<STATE> 3
<MEAN> 39
 -1.295240e+01 -9.127245e-01 -5.215671e+00 3.134868e+00 9.946948e+00 -1.432912e+00 6.771365e+00 1.080833e-01 2.664120e+00 3.467710e+00 -5.169241e-01 5.836857e+00 -1.287481e+00 -3.132839e-01 -6.671689e-01 -1.887670e-02 -1.792904e-01 2.330678e-01 -1.962876e-01 -8.313508e-02 -3.121590e-02 4.055966e-02 -9.975615e-03 -2.130928e-01 -2.402139e-01 6.948518e-02 9.007149e-01 1.456396e-01 -4.590682e-02 -3.595437e-01 -2.985067e-01 3.220173e-01 -3.421575e-01 -2.457571e-01 -2.441474e-01 5.734643e-02 9.118045e-02 -3.235569e-01 -3.836950e-02
<VARIANCE> 39
 2.579917e+01 4.033755e+01 2.643545e+01 2.599943e+01 2.609491e+01 3.883533e+01 3.054545e+01 3.546283e+01 2.831209e+01 2.579705e+01 2.133255e+01 2.010481e+01 2.278563e+01 1.030732e+01 4.142018e+00 2.252074e+00 3.653063e+00 3.059047e+00 4.941426e+00 2.555832e+00 4.016265e+00 3.245014e+00 2.258225e+00 2.218682e+00 2.705240e+00 2.232549e+00 6.887143e-01 8.754243e-01 3.909450e-01 6.988192e-01 7.854460e-01 7.750558e-01 6.357450e-01 7.737933e-01 5.775046e-01 4.274360e-01 4.619648e-01 5.087709e-01 4.414225e-01
<GCONST> 1.236661e+02
<STATE> 4
<MEAN> 39
 2.877338e+00 -1.477062e+00 -6.969646e+00 -4.504058e+00 4.356516e+00 3.297670e+00 2.127033e-01 -3.051653e+00 4.997351e-01 5.322610e+00 1.810203e-01 -2.505704e+00 -1.945584e+00 2.264966e+00 -6.930405e-01 6.453383e-01 -1.034912e+00 -2.598508e+00 4.347897e-01 -2.135432e+00 3.632178e-01 6.885810e-01 -1.023686e-01 5.407451e-01 -1.634057e+00 8.054429e-02 -9.147627e-01 -4.262443e-01 2.403745e-01 3.451825e-01 1.172184e-01 -3.666721e-01 6.435093e-02 3.847823e-01 4.101496e-01 -1.784413e-01 -6.613205e-02 3.087640e-01 1.676405e-01
<VARIANCE> 39
 3.906202e+01 4.768536e+01 4.854128e+01 4.273808e+01 7.274053e+01 4.959707e+01 6.379712e+01 3.921873e+01 3.548465e+01 3.092925e+01 2.946678e+01 3.493764e+01 2.034912e+01 9.468388e+00 5.014425e+00 2.744760e+00 4.823399e+00 5.880790e+00 4.656560e+00 3.974859e+00 3.601758e+00 5.033958e+00 4.119386e+00 3.736893e+00 3.688179e+00 2.189712e+00 9.086145e-01 8.391960e-01 3.177942e-01 7.384329e-01 1.205251e+00 6.041079e-01 7.290976e-01 6.735092e-01 6.159399e-01 6.257055e-01 7.007765e-01 5.951468e-01 4.234180e-01
<GCONST> 1.332281e+02
<TRANSP> 5
 0.000000e+00 1.000000e+00 0.000000e+00 0.000000e+00 0.000000e+00
 0.000000e+00 6.991438e-01 3.008563e-01 0.000000e+00 0.000000e+00
 0.000000e+00 0.000000e+00 8.855135e-01 1.144865e-01 0.000000e+00
 0.000000e+00 0.000000e+00 0.000000e+00 7.508053e-01 2.491947e-01
 0.000000e+00 0.000000e+00 0.000000e+00 0.000000e+00 0.000000e+00
<ENDHMM>
~o
<STREAMINFO> 1 39
<VECSIZE> 39<NULLD><MFCC_D_A_Z><DIAGC>
~h "g"
<BEGINHMM>
<NUMSTATES> 5
<STATE> 2
<MEAN> 39
 5.286691e+00 -7.177314e-01 3.811069e+00 3.088168e+00 -7.750517e-01 -5.112566e+00 -3.841586e+00 3.006355e+00 -4.673456e+00 5.899183e-01 2.501665e+00 -5.294312e+00 -2.115262e-01 1.320265e+00 2.304581e+00 1.143060e+00 1.968212e+00 1.398734e+00 -3.948058e-01 1.005255e+00 -9.586896e-01 -1.147169e+00 -9.807209e-02 -6.726356e-01 1.381431e-01 -9.095681e-01 -3.964390e-02 2.051060e-01 -1.454056e-01 -1.705475e-01 -9.549151e-02 2.304525e-01 2.263689e-01 -5.498287e-02 5.011509e-01 -4.303383e-02 -2.737942e-01 9.644769e-03 -1.355884e-01
<VARIANCE> 39
 1.923893e+01 5.113610e+01 4.404846e+01 4.019504e+01 6.865768e+01 6.173111e+01 8.135706e+01 5.878236e+01 6.277109e+01 4.020243e+01 4.489123e+01 3.047327e+01 2.410130e+01 1.317202e+00 2.240227e+00 2.211377e+00 2.361134e+00 5.059666e+00 4.268283e+00 4.160107e+00 3.698610e+00 4.417334e+00 3.301214e+00 4.617344e+00 3.296969e+00 1.856940e+00 3.329514e-01 3.952637e-01 3.358874e-01 4.819363e-01 1.325117e+00 8.666658e-01 8.561789e-01 7.389465e-01 6.321409e-01 6.146920e-01 9.521868e-01 6.081236e-01 3.765788e-01
<GCONST> 1.290349e+02
<STATE> 3
<MEAN> 39
 8.825282e+00 1.296118e+01 8.966763e+00 7.130676e+00 -1.639584e+00 -4.492141e+00 4.688231e+00 9.881110e-01 -5.153720e+00 6.939515e-03 -1.135576e+00 -4.145912e+00 -3.128132e+00 -6.119554e-01 3.544315e-01 -3.209770e-01 2.797308e-01 1.299791e+00 -3.642538e-01 3.570763e-01 -3.967479e-01 4.299193e-01 3.803965e-01 -5.916094e-01 9.499166e-01 -3.160984e-01 -5.803614e-01 -8.301547e-01 -3.962654e-01 -3.005579e-01 2.931456e-01 -5.638219e-02 -3.990006e-01 -1.096664e-01 2.894872e-02 2.765778e-02 1.766021e-01 3.257725e-01 1.526148e-01
<VARIANCE> 39
 8.955906e+00 2.964507e+01 2.863417e+01 2.316584e+01 3.203945e+01 4.178751e+01 4.072400e+01 3.348534e+01 3.453466e+01 2.744646e+01 2.715135e+01 2.548185e+01 1.973224e+01 2.618741e+00 4.739982e+00 4.091761e+00 1.952397e+00 7.365465e+00 3.127934e+00 3.642550e+00 3.026274e+00 2.667152e+00 2.351182e+00 2.963290e+00 2.951147e+00 1.649958e+00 2.641862e-01 4.424642e-01 5.185362e-01 3.534472e-01 9.022180e-01 4.834756e-01 6.197516e-01 5.378597e-01 5.120037e-01 4.189359e-01 5.496875e-01 4.434053e-01 2.927522e-01
<GCONST> 1.192375e+02
<STATE> 4
<MEAN> 39
 1.130122e+00 2.129998e+00 2.278123e+00 3.917448e+00 4.741880e+00 -6.418312e+00 -1.441190e+00 -2.160245e+00 -3.174736e+00 1.711522e+00 7.254311e-01 7.925608e-01 -2.567512e+00 -7.785840e-01 -1.912275e+00 5.103745e-02 -1.499713e+00 -1.819842e+00 2.385863e-01 -2.012166e+00 4.360263e-01 7.643223e-01 -2.235558e-01 1.734691e+00 -3.651213e-01 4.073827e-01 4.635569e-01 1.875043e-01 2.907170e-01 -1.339840e-01 -8.741792e-01 3.825165e-01 -6.021215e-03 3.292759e-01 3.131419e-02 -2.146900e-01 1.170254e-01 -5.534349e-01 1.001996e-01
<VARIANCE> 39
 2.308158e+01 3.728367e+01 9.252010e+01 4.712120e+01 1.006734e+02 6.067569e+01 7.901937e+01 4.110829e+01 5.722043e+01 3.436087e+01 6.414736e+01 3.788324e+01 1.969735e+01 2.605968e+00 2.929295e+00 5.144406e+00 3.721313e+00 1.334266e+01 5.081456e+00 5.344531e+00 4.573280e+00 4.748120e+00 3.642929e+00 6.169449e+00 4.924397e+00 2.119561e+00 3.361365e-01 4.875251e-01 9.136562e-01 7.276680e-01 3.063622e+00 7.347050e-01 1.249762e+00 7.489529e-01 7.164763e-01 6.661703e-01 1.757960e+00 8.232877e-01 4.485100e-01
<GCONST> 1.387478e+02
<TRANSP> 5
 0.000000e+00 1.000000e+00 0.000000e+00 0.000000e+00 0.000000e+00
 0.000000e+00 6.358941e-01 3.641059e-01 0.000000e+00 0.000000e+00
 0.000000e+00 0.000000e+00 7.876788e-01 2.123212e-01 0.000000e+00
 0.000000e+00 0.000000e+00 0.000000e+00 7.768571e-01 2.231429e-01
 0.000000e+00 0.000000e+00 0.000000e+00 0.000000e+00 0.000000e+00
<ENDHMM>
~o
<STREAMINFO> 1 39
<VECSIZE> 39<NULLD><MFCC_D_A_Z><DIAGC>
~h "gh"
<BEGINHMM>
<NUMSTATES> 5
<STATE> 2
<MEAN> 39
 7.687858e+00 1.183673e+01 7.260672e+00 7.068901e+00 -6.621559e-01 -5.112252e+00 3.850157e+00 8.911383e-03 -5.020553e+00 7.697026e-01 -1.698503e+00 -3.763434e+00 -1.373173e+00 6.293847e-02 8.050746e-01 -2.321547e-01 7.673838e-01 1.464850e+00 -2.691159e-01 6.290033e-01 -2.197725e-01 4.833510e-01 2.557182e-01 -6.818337e-01 6.755036e-01 -3.003429e-01 -4.602270e-01 -5.788255e-01 -5.639305e-01 -1.869919e-01 4.206676e-01 -4.798356e-03 -5.268808e-02 6.442983e-02 2.871806e-01 2.062339e-02 -2.631670e-02 3.682828e-01 6.557519e-02
<VARIANCE> 39
 1.441721e+01 5.978724e+01 2.877092e+01 2.633798e+01 4.254738e+01 4.050337e+01 5.434930e+01 3.423453e+01 3.876043e+01 2.916084e+01 3.139742e+01 2.749566e+01 1.751159e+01 3.653684e+00 5.975901e+00 5.628216e+00 2.212123e+00 8.361989e+00 2.946566e+00 4.373065e+00 2.857727e+00 3.623004e+00 2.337947e+00 3.054720e+00 3.772489e+00 1.670002e+00 3.335751e-01 7.164156e-01 6.939117e-01 3.395937e-01 1.151751e+00 5.616347e-01 7.104210e-01 4.983613e-01 5.928015e-01 4.117350e-01 5.661695e-01 5.083524e-01 3.193958e-01
<GCONST> 1.249824e+02
<STATE> 3
<MEAN> 39
 -1.628250e+00 2.463145e+00 -7.716395e+00 8.276235e+00 1.764512e+01 -7.948861e+00 7.463698e+00 4.859398e-01 2.487822e+00 2.957350e+00 -6.702614e+00 7.985816e+00 -1.577893e+00 -1.821067e+00 -2.376079e+00 -2.474203e+00 -9.050463e-01 7.247172e-01 -3.167793e-01 -1.494532e-01 9.151074e-01 1.896070e+00 7.947231e-01 5.865324e-01 1.557433e+00 1.096135e+00 6.126871e-01 9.149064e-01 1.395105e+00 -1.204978e-01 -1.840069e+00 6.078071e-01 -1.961426e-01 5.155053e-02 -3.009540e-01 -9.273757e-02 6.262777e-01 -1.027760e+00 4.487769e-01
<VARIANCE> 39
 2.308202e+01 4.395108e+01 6.574641e+01 5.046375e+01 5.941172e+01 5.535150e+01 5.247599e+01 3.989020e+01 5.382240e+01 3.282271e+01 2.622075e+01 2.609246e+01 1.578378e+01 2.426187e+00 6.959418e+00 1.152091e+01 2.812259e+00 1.477761e+01 4.453117e+00 4.202316e+00 3.339367e+00 3.730383e+00 2.578173e+00 3.962813e+00 5.450033e+00 2.185555e+00 2.988028e-01 1.066406e+00 1.202266e+00 7.499864e-01 1.371278e+00 9.726663e-01 8.945997e-01 7.733482e-01 7.854237e-01 5.745360e-01 6.705477e-01 6.671646e-01 3.481908e-01
<GCONST> 1.344832e+02
<STATE> 4
<MEAN> 39
 -7.449983e-01 2.158990e+00 -5.700829e+00 3.965067e+00 7.510088e+00 2.034149e+00 5.636996e+00 2.350814e+00 4.983459e+00 3.045110e+00 -1.989605e+00 1.666698e+00 4.223753e+00 8.117471e-01 -6.194846e-01 3.491084e-02 -6.335980e-01 -1.914785e+00 1.225746e+00 -6.966265e-01 -5.987099e-02 1.726112e-01 -5.103675e-01 2.542542e-01 -1.177915e+00 -4.153918e-02 1.392681e-01 -2.395339e-01 4.439977e-02 3.489913e-02 -1.360414e-01 -1.936929e-01 -1.375879e-01 -5.468328e-02 -6.948476e-02 -1.648231e-01 -1.065008e-01 -9.621299e-03 -2.523383e-01
<VARIANCE> 39
 2.693337e+01 3.897563e+01 3.618576e+01 3.859927e+01 7.163015e+01 7.871460e+01 4.259006e+01 3.800254e+01 5.222808e+01 2.925363e+01 2.878114e+01 5.207170e+01 2.240047e+01 1.485943e+00 3.688432e+00 2.422728e+00 2.519752e+00 5.667623e+00 6.462991e+00 3.604700e+00 3.153044e+00 2.802196e+00 2.757730e+00 2.786788e+00 2.716991e+00 2.951438e+00 2.469918e-01 5.545754e-01 5.151049e-01 4.212682e-01 9.379938e-01 1.073506e+00 6.301553e-01 5.893324e-01 5.887930e-01 5.174717e-01 5.942647e-01 5.621303e-01 4.603845e-01
<GCONST> 1.267883e+02
<TRANSP> 5
 0.000000e+00 1.000000e+00 0.000000e+00 0.000000e+00 0.000000e+00
 0.000000e+00 8.818222e-01 1.181777e-01 0.000000e+00 0.000000e+00
 0.000000e+00 0.000000e+00 6.812381e-01 3.187619e-01 0.000000e+00
 0.000000e+00 0.000000e+00 0.000000e+00 8.761839e-01 1.238161e-01
 0.000000e+00 0.000000e+00 0.000000e+00 0.000000e+00 0.000000e+00
<ENDHMM>
~o
<STREAMINFO> 1 39
<VECSIZE> 39<NULLD><MFCC_D_A_Z><DIAGC>
~h "h"
<BEGINHMM>
<NUMSTATES> 5
<STATE> 2
<MEAN> 39
 1.498418e+00 1.891253e+00 -2.875881e+00 -1.682319e-02 2.798517e+00 6.607455e-02 3.732605e+00 1.520555e+00 4.933351e-01 3.100824e+00 1.231119e+00 5.910885e-01 2.990264e+00 -9.530032e-01 1.358978e+00 -4.395922e-01 8.797025e-01 2.278348e+00 -6.670799e-02 2.521686e+00 4.427544e-02 1.946530e-01 6.473057e-01 -6.769342e-01 1.413188e+00 6.331391e-01 -2.164463e-01 -1.979288e-01 4.450031e-01 -6.666716e-02 -2.582669e-02 2.038330e-01 8.367799e-03 2.818725e-02 -1.508604e-01 -2.363462e-01 -1.218629e-04 -1.775047e-02 -6.753626e-03
<VARIANCE> 39
 2.008464e+01 4.963132e+01 7.796836e+01 4.156424e+01 7.362922e+01 8.246693e+01 5.473085e+01 7.565216e+01 4.528393e+01 4.102972e+01 4.707026e+01 4.720989e+01 2.480010e+01 1.458650e+00 3.874563e+00 4.216116e+00 3.562795e+00 5.308850e+00 3.980305e+00 4.536732e+00 4.696989e+00 4.579144e+00 3.134164e+00 4.074274e+00 3.726841e+00 2.324660e+00 1.792341e-01 5.315562e-01 3.561188e-01 4.886065e-01 7.740033e-01 5.323027e-01 7.436044e-01 7.410458e-01 6.354362e-01 5.592349e-01 6.365755e-01 6.580073e-01 4.219015e-01
<GCONST> 1.305785e+02
<STATE> 3
<MEAN> 39
 -4.726857e+00 2.650722e+00 -1.194272e+00 1.618484e+00 1.077280e+01 2.370710e+00 1.247851e+01 2.968565e+00 6.123113e-02 2.701746e+00 -1.744476e+00 4.492783e+00 4.949681e+00 1.764868e-01 2.361239e-02 1.449081e-01 -2.861818e-02 -1.829263e-01 -2.536418e-03 -9.912889e-03 9.256246e-02 -1.278455e-01 -2.748802e-01 -7.336979e-03 -1.939106e-01 -1.042164e-01 5.205540e-01 -1.237724e-01 -1.400484e-01 -1.489810e-01 -7.479210e-01 -1.718071e-01 -6.581197e-01 -1.293232e-01 3.747449e-02 -9.123553e-02 1.714080e-01 -3.180469e-01 -2.044392e-01
<VARIANCE> 39
 2.284365e+01 4.549939e+01 7.366618e+01 4.205987e+01 7.672717e+01 6.059509e+01 4.655499e+01 5.574295e+01 3.523662e+01 3.107804e+01 3.311728e+01 3.195636e+01 2.589593e+01 2.104465e+00 1.772156e+00 1.871960e+00 1.863319e+00 4.149714e+00 2.729960e+00 3.499711e+00 2.972336e+00 2.219370e+00 2.397458e+00 2.370125e+00 2.174375e+00 1.702501e+00 1.499789e-01 4.211913e-01 2.729459e-01 3.366657e-01 4.969912e-01 4.261934e-01 5.162547e-01 4.466843e-01 4.647189e-01 4.548847e-01 4.556199e-01 4.117603e-01 3.425795e-01
<GCONST> 1.188967e+02
<STATE> 4
<MEAN> 39
 1.978472e+00 2.020990e+00 -1.759239e+00 7.790525e-01 1.330900e+00 -1.209574e+00 5.595705e+00 2.228151e+00 6.640005e-01 8.022687e-01 4.929919e-01 8.064032e-01 2.127620e+00 1.313986e+00 -1.810322e+00 2.850165e-01 -5.675629e-01 -3.063859e+00 -2.562650e-01 -2.278213e+00 -1.575654e-01 4.987133e-01 -9.533249e-01 5.330201e-01 -1.039168e+00 -1.022459e+00 -3.483466e-01 -4.158230e-01 4.414125e-01 -2.026021e-01 -9.661577e-02 3.055702e-01 -1.033337e-01 1.086343e-01 8.125387e-02 -2.115521e-01 1.708234e-02 6.785317e-03 -7.458782e-02
<VARIANCE> 39
 1.514880e+01 4.962130e+01 8.863132e+01 3.573322e+01 7.362366e+01 7.187023e+01 4.037702e+01 7.269838e+01 3.597208e+01 2.750811e+01 2.920493e+01 3.235835e+01 2.251707e+01 1.350252e+00 2.972780e+00 2.492101e+00 1.868172e+00 3.616570e+00 2.250048e+00 3.046150e+00 2.346314e+00 2.639644e+00 2.216448e+00 2.115772e+00 1.789484e+00 1.662550e+00 1.505427e-01 4.898730e-01 2.840981e-01 2.757989e-01 5.316859e-01 3.472537e-01 4.826335e-01 3.832265e-01 3.620645e-01 3.527519e-01 3.434536e-01 3.109724e-01 2.581214e-01
<GCONST> 1.161989e+02
<TRANSP> 5
 0.000000e+00 1.000000e+00 0.000000e+00 0.000000e+00 0.000000e+00
 0.000000e+00 7.246733e-01 2.753267e-01 0.000000e+00 0.000000e+00
 0.000000e+00 0.000000e+00 8.034022e-01 1.965977e-01 0.000000e+00
 0.000000e+00 0.000000e+00 0.000000e+00 6.550776e-01 3.449225e-01
 0.000000e+00 0.000000e+00 0.000000e+00 0.000000e+00 0.000000e+00
<ENDHMM>
~o
<STREAMINFO> 1 39
<VECSIZE> 39<NULLD><MFCC_D_A_Z><DIAGC>
~h "hq"
<BEGINHMM>
<NUMSTATES> 5
<STATE> 2
<MEAN> 39
 3.107430e+00 -3.836509e+00 -8.492601e+00 -2.511395e+00 7.381130e+00 2.711106e+00 -2.693762e+00 6.969544e+00 7.391442e+00 5.273034e+00 -6.454454e+00 -5.825004e+00 1.727504e+00 -5.291089e-02 2.160811e-01 -1.612141e-01 -2.538553e-01 3.551198e-01 1.274631e-01 3.182300e-01 -6.118816e-01 -1.109072e-01 1.286774e-01 4.701345e-02 1.273731e-01 -2.908016e-01 -2.033934e-02 -3.160569e-01 1.674183e-01 -1.405638e-01 -2.614623e-01 7.797078e-02 -1.750515e-01 5.447275e-02 -3.213925e-02 -8.080346e-02 1.951596e-01 -1.468449e-02 -7.803097e-02
<VARIANCE> 39
 1.007536e+01 2.280842e+01 1.520312e+01 1.315562e+01 6.843040e+01 4.110607e+01 4.586418e+01 1.888989e+01 2.413376e+01 1.646729e+01 1.679299e+01 2.085425e+01 1.163243e+01 1.636291e+00 5.235321e+00 1.522151e+00 1.876062e+00 1.039178e+01 1.776589e+00 6.038889e+00 2.307789e+00 2.414807e+00 1.662588e+00 1.662354e+00 2.090129e+00 1.645395e+00 2.454598e-01 4.481359e-01 2.591925e-01 2.641754e-01 1.258798e+00 3.211342e-01 8.537793e-01 4.731711e-01 5.511575e-01 1.798812e-01 1.831896e-01 3.775659e-01 2.544819e-01
<GCONST> 1.102455e+02
<STATE> 3
<MEAN> 39
 6.370429e+00 -1.184072e+01 -5.163582e+00 -8.638466e+00 -2.061579e+00 4.637150e+00 -1.052039e+01 7.865675e+00 9.198092e+00 4.159396e+00 -2.607946e+00 -9.146103e+00 -2.071328e+00 4.760348e-02 2.103782e-01 1.434207e-01 6.401540e-02 5.384364e-01 -8.506109e-02 1.417782e-01 4.583051e-02 -6.160416e-02 -4.212342e-01 5.101977e-02 -3.930699e-02 7.727289e-02 -1.845619e-02 3.755496e-01 -1.260611e-01 1.886562e-01 2.953411e-01 -1.398207e-01 2.562937e-01 -6.974386e-02 -4.647731e-02 4.519923e-02 -1.450887e-01 8.646505e-02 3.499258e-02
<VARIANCE> 39
 5.842168e+00 9.833117e+00 3.272225e+00 8.403515e+00 2.235579e+01 1.887259e+01 1.424185e+01 7.470145e+00 4.981946e+00 2.075187e+01 9.673978e+00 6.533501e+00 4.957107e+00 7.874519e-02 1.778999e+00 5.509565e-01 1.069955e+00 1.273155e+00 6.588029e-01 1.355245e+00 6.267540e-01 5.515849e-01 6.744101e-01 1.109691e+00 6.223490e-01 1.935629e-01 1.795097e-02 2.084783e-01 1.327536e-01 1.177156e-01 1.399470e-01 1.370882e-01 1.624768e-01 1.961433e-01 6.656785e-02 1.773208e-01 1.043623e-01 8.017690e-02 5.987956e-02
<GCONST> 6.512085e+01
<STATE> 4
<MEAN> 39
 7.310581e-01 2.072679e+00 -6.933072e+00 4.735844e-01 8.817456e+00 -2.026428e+00 2.741143e+00 3.767402e+00 5.815995e+00 2.838362e+00 -5.498200e+00 4.935126e-02 -2.389980e+00 -5.266600e-01 6.491681e-01 -2.415264e-02 5.730705e-01 3.419880e-01 1.850369e-01 1.013556e+00 -7.582752e-02 -1.820000e-01 -3.680331e-02 -1.462435e-01 5.438817e-01 -2.287441e-01 -3.845967e-02 -9.319508e-02 3.785411e-02 -9.282910e-03 -1.375313e-01 7.263665e-02 -6.337058e-02 2.241605e-02 4.870205e-02 -1.632453e-02 -4.611650e-03 -5.168165e-02 -1.903716e-02
<VARIANCE> 39
 1.544433e+01 2.916946e+01 2.363601e+01 1.630461e+01 3.045689e+01 2.934716e+01 2.620261e+01 1.986859e+01 1.674940e+01 2.115770e+01 3.668615e+01 4.777778e+01 1.210398e+01 7.526075e-01 2.297772e+00 1.045300e+00 1.220073e+00 2.373888e+00 2.156489e+00 1.738958e+00 9.866193e-01 1.357795e+00 1.885672e+00 1.943177e+00 2.765185e+00 1.263444e+00 8.747367e-02 4.538417e-01 1.473185e-01 2.543823e-01 3.743058e-01 2.017056e-01 2.117629e-01 1.605361e-01 2.755796e-01 3.218016e-01 4.126349e-01 4.029643e-01 1.793961e-01
<GCONST> 1.000337e+02
<TRANSP> 5
 0.000000e+00 1.000000e+00 0.000000e+00 0.000000e+00 0.000000e+00
 0.000000e+00 8.888924e-01 1.111077e-01 0.000000e+00 0.000000e+00
 0.000000e+00 0.000000e+00 8.863155e-01 1.136845e-01 0.000000e+00
 0.000000e+00 0.000000e+00 0.000000e+00 9.324487e-01 6.755134e-02
 0.000000e+00 0.000000e+00 0.000000e+00 0.000000e+00 0.000000e+00
<ENDHMM>
~o
<STREAMINFO> 1 39
<VECSIZE> 39<NULLD><MFCC_D_A_Z><DIAGC>
~h "i"
<BEGINHMM>
<NUMSTATES> 5
<STATE> 2
<MEAN> 39
 -1.946097e+00 2.067274e+00 1.405070e+01 3.392535e+00 -5.027175e+00 -9.079910e+00 -1.506217e+00 -2.828199e+00 -7.371060e+00 -4.304347e+00 5.027644e+00 1.014320e+00 -2.203811e+00 1.184762e+00 -1.713457e+00 3.000841e+00 -8.954277e-01 -3.896236e+00 -4.437278e-01 -2.166992e+00 -1.265630e-01 -1.038471e+00 -1.723995e+00 2.895222e+00 -1.451050e+00 -6.723972e-02 -9.368831e-02 2.472278e-02 -5.460004e-01 -1.453722e-01 2.581239e-01 6.682791e-01 8.893206e-02 2.459833e-01 3.542720e-01 1.964738e-01 -1.260637e-01 -2.136720e-01 1.366214e-01
<VARIANCE> 39
 1.457562e+01 2.646413e+01 4.447917e+01 2.415749e+01 4.755992e+01 3.830588e+01 3.435875e+01 3.869923e+01 3.416365e+01 2.465873e+01 3.315191e+01 2.370949e+01 1.770911e+01 4.611880e+00 2.720837e+00 4.568299e+00 3.195546e+00 4.293002e+00 4.387961e+00 4.417618e+00 4.201348e+00 4.574620e+00 2.780567e+00 3.630668e+00 3.669426e+00 2.090169e+00 7.813470e-01 5.823286e-01 8.167083e-01 5.431963e-01 1.134038e+00 6.353597e-01 7.972549e-01 7.187052e-01 7.429750e-01 5.030534e-01 7.795754e-01 6.786562e-01 3.124891e-01
<GCONST> 1.272579e+02
<STATE> 3
<MEAN> 39
 -5.384830e-01 -1.404102e+00 1.762449e+01 4.165008e-01 -1.206966e+01 -6.891612e+00 -5.310761e+00 -2.373567e+00 -8.158659e+00 -7.417550e+00 9.835218e+00 -3.224716e+00 -1.815590e+00 1.777196e-01 -1.233023e-01 -5.232869e-02 -2.382564e-02 -3.938259e-02 8.049929e-02 -1.287124e-01 3.967047e-01 -1.839543e-02 -6.024816e-02 -1.020273e-01 -2.863947e-01 2.167050e-01 -1.459434e-02 4.781154e-01 -6.299608e-01 3.498667e-01 8.771774e-01 2.098102e-02 4.831258e-01 1.961384e-02 2.341715e-01 3.506379e-01 -8.067785e-01 2.712853e-01 2.767408e-02
<VARIANCE> 39
 6.204835e+00 1.510207e+01 2.464721e+01 2.177528e+01 2.130055e+01 2.628261e+01 2.143306e+01 4.306003e+01 3.106336e+01 2.149448e+01 2.534894e+01 1.909266e+01 1.853645e+01 5.934173e-01 1.448993e+00 2.304296e+00 1.908667e+00 3.908985e+00 2.344938e+00 2.851216e+00 2.691489e+00 2.581432e+00 2.044795e+00 3.043609e+00 1.733005e+00 1.288989e+00 2.191801e-01 2.832098e-01 3.739303e-01 3.238422e-01 5.920275e-01 4.467773e-01 5.342292e-01 5.493612e-01 5.485467e-01 3.969891e-01 5.677452e-01 3.729846e-01 2.668100e-01
<GCONST> 1.085833e+02
<STATE> 4
<MEAN> 39
 -3.356060e-01 5.208627e+00 1.217116e+01 5.622412e+00 -3.322080e+00 -7.808563e+00 -1.733260e-01 -5.217724e-01 -6.556859e+00 -3.425833e+00 2.406238e+00 -1.558125e-01 -8.751387e-01 -3.855782e-01 1.405877e+00 -1.672362e+00 7.994710e-01 1.749190e+00 5.607794e-01 1.050790e+00 -3.066536e-01 7.540439e-01 5.364738e-01 -1.750708e+00 7.092305e-01 1.630211e-01 -2.547527e-01 -1.658470e-01 -1.838635e-01 -1.605487e-01 -1.391612e-02 1.772553e-01 -3.225301e-02 -2.220284e-01 9.120997e-03 1.657206e-02 6.813933e-02 1.861796e-02 3.012348e-02
<VARIANCE> 39
 2.685847e+01 5.414570e+01 4.193295e+01 3.359248e+01 6.633717e+01 4.204822e+01 4.980072e+01 3.911858e+01 3.927268e+01 3.992237e+01 3.785225e+01 3.447338e+01 2.167708e+01 3.549971e+00 3.445767e+00 2.768178e+00 2.922064e+00 4.671495e+00 3.581822e+00 4.475349e+00 3.980719e+00 3.771768e+00 3.067674e+00 3.722947e+00 3.242079e+00 2.099171e+00 3.646291e-01 7.625469e-01 4.462564e-01 4.942996e-01 7.978932e-01 6.835113e-01 7.385733e-01 7.516633e-01 6.909031e-01 6.181007e-01 5.711502e-01 5.428665e-01 3.375594e-01
<GCONST> 1.282042e+02
<TRANSP> 5
 0.000000e+00 1.000000e+00 0.000000e+00 0.000000e+00 0.000000e+00
 0.000000e+00 5.420845e-01 4.579155e-01 0.000000e+00 0.000000e+00
 0.000000e+00 0.000000e+00 7.724130e-01 2.275870e-01 0.000000e+00
 0.000000e+00 0.000000e+00 0.000000e+00 6.897609e-01 3.102391e-01
 0.000000e+00 0.000000e+00 0.000000e+00 0.000000e+00 0.000000e+00
<ENDHMM>
~o
<STREAMINFO> 1 39
<VECSIZE> 39<NULLD><MFCC_D_A_Z><DIAGC>
~h "ii"
<BEGINHMM>
<NUMSTATES> 5
<STATE> 2
<MEAN> 39
 -1.547524e+00 -1.811334e-01 1.610389e+01 2.006875e+00 -7.265642e+00 -9.315047e+00 -3.040430e+00 -2.801236e+00 -7.560282e+00 -5.406926e+00 6.100096e+00 -6.689600e-01 -1.372303e+00 2.848947e-01 -6.542315e-01 2.298283e+00 -8.577796e-01 -2.780876e+00 8.773300e-01 -8.704722e-01 -9.432966e-01 -8.471536e-01 -1.043883e+00 1.815747e+00 -1.165210e+00 -3.265207e-01 -6.897137e-02 2.422344e-01 -5.544262e-01 -4.218945e-02 4.532895e-01 5.926060e-01 1.014667e-01 -1.067963e-01 3.456012e-01 3.164699e-01 -4.888010e-01 -1.693393e-01 7.075830e-02
<VARIANCE> 39
 8.394538e+00 2.123285e+01 3.382884e+01 2.674875e+01 3.931417e+01 3.745423e+01 2.739356e+01 4.736897e+01 3.273187e+01 2.030138e+01 2.788587e+01 2.342654e+01 2.069850e+01 1.962442e+00 2.165581e+00 2.661092e+00 2.148598e+00 3.248539e+00 3.247787e+00 3.522594e+00 3.010470e+00 3.531364e+00 2.383363e+00 3.299401e+00 2.731983e+00 1.490781e+00 4.007511e-01 3.388367e-01 4.768772e-01 3.967396e-01 7.117260e-01 6.202862e-01 5.577269e-01 5.852237e-01 5.094234e-01 3.730978e-01 5.925569e-01 5.724580e-01 2.905259e-01
<GCONST> 1.172019e+02
<STATE> 3
<MEAN> 39
 -1.971801e+00 1.213355e+00 1.959509e+01 -1.170477e+00 -1.126074e+01 -3.937238e+00 -4.075344e+00 -7.715702e+00 -8.181032e+00 -5.844770e+00 5.974824e+00 -3.732263e+00 -1.807845e+00 2.716313e-02 1.393671e-01 -3.297246e-02 8.955478e-03 -2.960841e-02 4.252590e-02 1.067917e-01 -1.327102e-01 -2.224962e-01 2.942308e-01 -6.433718e-02 -1.720814e-01 1.129203e-01 7.604505e-02 5.931818e-02 -3.152502e-01 2.153504e-01 3.327518e-01 -2.414417e-01 1.740540e-01 2.640295e-01 3.228114e-02 1.442644e-01 -1.332061e-01 1.776235e-01 6.040407e-02
<VARIANCE> 39
 5.178343e+00 1.124324e+01 2.141681e+01 3.188437e+01 1.534837e+01 2.660126e+01 2.004047e+01 2.984546e+01 2.249908e+01 2.012633e+01 2.943148e+01 1.913842e+01 1.577217e+01 2.116187e-01 5.628089e-01 8.809921e-01 9.788160e-01 9.179479e-01 1.356230e+00 1.124193e+00 1.591214e+00 1.127541e+00 1.079033e+00 1.086119e+00 8.066776e-01 6.597605e-01 5.510484e-02 1.248775e-01 1.645069e-01 1.637875e-01 2.691457e-01 2.013573e-01 2.759104e-01 2.296700e-01 2.476353e-01 2.091086e-01 2.703155e-01 1.701748e-01 1.168837e-01
<GCONST> 8.560052e+01
<STATE> 4
<MEAN> 39
 -1.026923e+00 5.400220e+00 1.186133e+01 3.825184e+00 -4.393373e+00 -6.221598e+00 5.347291e-01 -3.749407e+00 -7.492426e+00 -1.493297e+00 2.274881e+00 -5.928086e-01 1.603187e-02 -9.816542e-02 9.046207e-01 -2.011978e+00 8.378403e-01 1.909854e+00 2.101893e-01 8.997199e-01 6.109005e-01 7.518082e-01 4.704250e-01 -1.254707e+00 8.679249e-01 2.193111e-01 -1.255453e-01 9.716708e-04 -1.368592e-01 -5.403566e-02 9.710134e-02 2.831004e-01 6.632739e-02 -1.207523e-01 1.296888e-01 -3.886605e-02 -1.027144e-01 2.655712e-02 -1.341797e-02
<VARIANCE> 39
 2.147009e+01 4.329537e+01 5.478485e+01 3.728317e+01 5.697029e+01 5.614639e+01 5.562292e+01 3.968705e+01 3.594688e+01 3.945857e+01 5.196409e+01 3.534957e+01 2.612357e+01 2.751319e+00 3.207762e+00 2.766925e+00 2.704566e+00 3.880510e+00 4.070384e+00 4.611220e+00 3.673137e+00 3.409653e+00 3.200171e+00 3.164897e+00 2.479116e+00 1.877966e+00 3.044025e-01 6.283469e-01 4.867650e-01 4.574735e-01 7.626157e-01 6.742970e-01 7.861367e-01 6.755382e-01 6.579636e-01 5.846609e-01 6.205109e-01 4.270784e-01 3.352877e-01
<GCONST> 1.269694e+02
<TRANSP> 5
 0.000000e+00 1.000000e+00 0.000000e+00 0.000000e+00 0.000000e+00
 0.000000e+00 6.650289e-01 3.349711e-01 0.000000e+00 0.000000e+00
 0.000000e+00 0.000000e+00 8.606237e-01 1.393763e-01 0.000000e+00
 0.000000e+00 0.000000e+00 0.000000e+00 8.245140e-01 1.754860e-01
 0.000000e+00 0.000000e+00 0.000000e+00 0.000000e+00 0.000000e+00
<ENDHMM>
~o
<STREAMINFO> 1 39
<VECSIZE> 39<NULLD><MFCC_D_A_Z><DIAGC>
~h "j"
<BEGINHMM>
<NUMSTATES> 5
<STATE> 2
<MEAN> 39
 3.204165e+00 9.981341e+00 1.015335e+01 5.563215e+00 -4.295050e-01 -4.343976e+00 4.581932e+00 1.546144e+00 -1.583911e-02 -1.519705e+00 -4.428500e+00 1.769863e+00 1.814878e-01 -4.060584e-01 1.502041e+00 8.059235e-01 5.471619e-01 9.412010e-01 -5.818559e-03 9.961976e-01 -2.766855e-02 -1.424336e-01 2.416634e-01 -3.998540e-01 7.505255e-01 -4.087445e-01 -5.698000e-01 -2.263187e-01 -1.538831e-01 -2.238860e-01 2.467061e-01 4.984301e-02 -2.251762e-01 -1.010750e-01 -1.039042e-01 5.546888e-02 2.344097e-01 -1.100434e-02 -3.832519e-02
<VARIANCE> 39
 2.409614e+01 6.178795e+01 4.572190e+01 2.252241e+01 3.811273e+01 4.499226e+01 5.830716e+01 2.824374e+01 3.894107e+01 2.009643e+01 3.264101e+01 2.131584e+01 2.023974e+01 6.004339e+00 3.522628e+00 3.008273e+00 2.304657e+00 6.268883e+00 4.027468e+00 4.016325e+00 3.039400e+00 3.277735e+00 2.063222e+00 3.239017e+00 2.192262e+00 1.436543e+00 8.851023e-01 4.947153e-01 4.133827e-01 3.781675e-01 1.053930e+00 8.702499e-01 7.088251e-01 5.303782e-01 5.906916e-01 3.884250e-01 6.312121e-01 3.701600e-01 2.778842e-01
<GCONST> 1.239886e+02
<STATE> 3
<MEAN> 39
 -1.314693e+01 1.351658e+01 1.328332e+01 3.814068e+00 9.910231e+00 -5.715613e+00 4.801092e+00 2.337952e-02 -4.833189e+00 7.149806e-01 -9.004488e-01 5.854828e+00 -2.157658e+00 -1.583879e+00 -1.402210e+00 7.297223e-01 -5.917869e-01 -1.071033e+00 -1.048137e+00 -1.463368e+00 -6.880351e-01 -1.234402e+00 -4.891721e-01 1.424894e+00 5.382069e-01 1.313412e-01 1.595021e+00 -8.861563e-01 -1.443447e-02 6.402953e-02 -1.517977e+00 2.254578e-02 -4.582857e-01 4.373037e-02 3.369825e-01 -4.199824e-01 1.668092e-01 -3.499481e-01 1.882826e-01
<VARIANCE> 39
 4.051899e+01 2.878367e+01 3.611768e+01 2.109739e+01 5.111980e+01 5.033357e+01 2.509504e+01 2.260254e+01 2.357587e+01 1.748032e+01 2.011209e+01 1.589904e+01 1.220776e+01 1.427023e+01 4.829260e+00 2.242504e+00 2.376971e+00 1.341939e+01 3.709451e+00 2.843414e+00 2.269847e+00 2.392846e+00 2.353778e+00 1.992594e+00 1.661978e+00 1.343586e+00 1.227195e+00 7.062463e-01 5.151017e-01 4.539643e-01 1.346045e+00 8.066760e-01 5.497485e-01 5.169759e-01 6.474056e-01 3.926893e-01 3.949265e-01 4.356559e-01 2.794907e-01
<GCONST> 1.215830e+02
<STATE> 4
<MEAN> 39
 -3.321995e+00 8.201196e-01 1.201939e+01 3.233063e+00 -4.770083e+00 -8.732997e+00 -4.388613e+00 -3.304140e-01 -3.892943e+00 -3.984707e+00 4.637206e+00 4.343716e+00 1.449556e-01 2.482065e+00 -2.607037e+00 -1.532962e+00 -6.941044e-01 -2.307360e+00 8.055450e-01 -1.963305e+00 7.412451e-01 1.629233e+00 -4.215339e-01 9.800631e-01 -1.530096e+00 4.338763e-01 -2.822439e-01 4.857008e-01 -5.312840e-01 -1.698861e-01 8.735299e-01 5.796421e-01 4.353466e-01 2.731583e-01 3.989429e-01 3.954205e-01 -4.836103e-01 -3.333182e-01 -8.517603e-02
<VARIANCE> 39
 3.241429e+01 3.199420e+01 4.495490e+01 2.910179e+01 5.033080e+01 3.030055e+01 4.830454e+01 3.306222e+01 4.178030e+01 2.297540e+01 3.008333e+01 2.512714e+01 2.058443e+01 2.918100e+00 5.415659e+00 3.310383e+00 2.907242e+00 8.880894e+00 3.448761e+00 5.061472e+00 4.337721e+00 4.996381e+00 3.297622e+00 4.422719e+00 2.379758e+00 1.787897e+00 5.770518e-01 4.883511e-01 4.913417e-01 4.571311e-01 1.066943e+00 6.585519e-01 7.220552e-01 6.757967e-01 7.810702e-01 4.691005e-01 7.141114e-01 5.139511e-01 3.189267e-01
<GCONST> 1.273154e+02
<TRANSP> 5
 0.000000e+00 1.000000e+00 0.000000e+00 0.000000e+00 0.000000e+00
 0.000000e+00 8.740109e-01 1.259892e-01 0.000000e+00 0.000000e+00
 0.000000e+00 0.000000e+00 7.532716e-01 2.467284e-01 0.000000e+00
 0.000000e+00 0.000000e+00 0.000000e+00 6.819710e-01 3.180290e-01
 0.000000e+00 0.000000e+00 0.000000e+00 0.000000e+00 0.000000e+00
<ENDHMM>
~o
<STREAMINFO> 1 39
<VECSIZE> 39<NULLD><MFCC_D_A_Z><DIAGC>
~h "jh"
<BEGINHMM>
<NUMSTATES> 5
<STATE> 2
<MEAN> 39
 3.371901e+00 1.148298e+01 1.054589e+01 5.547599e+00 -2.205537e-01 -3.104514e+00 5.302670e+00 7.019672e-01 -7.539430e-01 -1.786479e+00 -4.439057e+00 2.009193e+00 -7.512621e-01 -1.164076e+00 1.004645e+00 9.442430e-01 6.898014e-02 1.241400e+00 1.665122e-01 7.542787e-01 3.360319e-01 1.385634e-01 3.599118e-01 -7.374319e-03 7.398347e-01 -3.234045e-01 -8.085114e-01 -2.983023e-01 -1.224805e-01 -2.313427e-01 3.481438e-01 1.133906e-01 -2.105769e-01 -6.119675e-02 -1.237707e-01 1.017735e-01 3.683516e-01 5.730018e-02 4.134995e-02
<VARIANCE> 39
 2.520699e+01 4.687518e+01 4.354410e+01 2.192698e+01 4.569758e+01 3.900628e+01 5.349426e+01 2.515913e+01 3.090409e+01 2.138530e+01 2.833463e+01 2.252878e+01 1.709974e+01 8.142627e+00 3.643633e+00 3.214688e+00 2.463145e+00 7.908582e+00 3.436704e+00 4.187440e+00 2.901533e+00 2.861543e+00 2.233047e+00 3.512094e+00 2.157520e+00 1.583766e+00 9.767380e-01 5.328014e-01 5.090972e-01 4.589176e-01 1.104757e+00 6.215593e-01 7.045885e-01 5.517744e-01 5.089774e-01 4.402982e-01 5.630082e-01 3.607033e-01 3.275963e-01
<GCONST> 1.240606e+02
<STATE> 3
<MEAN> 39
 -1.698829e+01 1.006948e+01 1.283550e+01 2.539601e+00 1.011185e+01 -1.082391e-01 7.086579e+00 2.106182e+00 -2.591844e+00 1.587738e+00 7.087359e-01 6.594043e+00 -7.410378e-01 -1.362664e+00 -1.672704e+00 -6.789089e-01 6.529161e-02 -6.381106e-01 -2.756108e-01 1.742388e-01 -8.239219e-02 -1.381834e-01 3.452488e-01 8.061714e-01 5.657539e-01 6.813438e-01 1.483889e+00 -2.901466e-01 -4.173311e-01 3.998354e-01 -7.982544e-01 -3.252460e-01 -4.496931e-02 -1.034198e-01 2.731081e-01 -9.735562e-02 -2.607284e-01 -2.307589e-01 1.902024e-01
<VARIANCE> 39
 4.086167e+01 4.291913e+01 3.600877e+01 2.755684e+01 5.524510e+01 4.958753e+01 2.854314e+01 2.468076e+01 2.269595e+01 2.062172e+01 2.096546e+01 1.718257e+01 1.522806e+01 1.577424e+01 3.507508e+00 3.966597e+00 4.053166e+00 8.912506e+00 5.547204e+00 2.964714e+00 2.543596e+00 2.530825e+00 2.145086e+00 2.513946e+00 1.818704e+00 1.542797e+00 1.121733e+00 8.152947e-01 6.452064e-01 5.716826e-01 1.881855e+00 9.555125e-01 7.402380e-01 5.309963e-01 4.857665e-01 4.521950e-01 4.903058e-01 4.070850e-01 3.142346e-01
<GCONST> 1.259168e+02
<STATE> 4
<MEAN> 39
 -3.456609e+00 6.086034e-01 9.204215e-01 4.976052e+00 4.492148e+00 -1.860018e+00 5.251727e+00 1.089572e+00 2.228083e+00 1.611817e+00 7.737903e-02 3.503946e+00 2.984470e+00 2.155660e+00 -9.952723e-01 -1.365097e+00 -4.872569e-01 -1.014611e+00 5.754828e-01 -9.733884e-01 -2.153699e-01 5.440869e-01 -3.185835e-01 -5.319195e-02 -1.140536e+00 -2.807139e-01 -2.497965e-01 2.432350e-02 2.848772e-01 -3.119368e-01 -1.340028e-01 2.990058e-01 -1.114378e-01 4.293528e-02 -1.122730e-01 -1.550829e-01 3.343299e-02 -7.123746e-02 -2.106876e-01
<VARIANCE> 39
 4.921087e+01 4.110305e+01 6.814701e+01 3.731648e+01 7.247825e+01 5.386601e+01 5.479258e+01 5.022305e+01 4.863592e+01 3.210027e+01 3.876691e+01 3.655689e+01 2.793336e+01 2.040932e+00 3.913373e+00 3.202448e+00 3.828918e+00 7.680933e+00 3.874536e+00 5.319174e+00 4.255467e+00 4.388780e+00 3.834417e+00 3.687329e+00 2.592857e+00 3.333348e+00 3.412027e-01 6.569197e-01 4.695031e-01 5.771502e-01 1.239888e+00 6.785476e-01 8.650624e-01 7.112997e-01 7.321507e-01 7.227994e-01 6.292140e-01 5.566228e-01 5.123013e-01
<GCONST> 1.328275e+02
<TRANSP> 5
 0.000000e+00 1.000000e+00 0.000000e+00 0.000000e+00 0.000000e+00
 0.000000e+00 8.531027e-01 1.468973e-01 0.000000e+00 0.000000e+00
 0.000000e+00 0.000000e+00 8.079226e-01 1.920774e-01 0.000000e+00
 0.000000e+00 0.000000e+00 0.000000e+00 8.617941e-01 1.382060e-01
 0.000000e+00 0.000000e+00 0.000000e+00 0.000000e+00 0.000000e+00
<ENDHMM>
~o
<STREAMINFO> 1 39
<VECSIZE> 39<NULLD><MFCC_D_A_Z><DIAGC>
~h "k"
<BEGINHMM>
<NUMSTATES> 5
<STATE> 2
<MEAN> 39
 -5.269013e+00 8.388739e+00 -6.561529e-01 7.155535e+00 5.397541e+00 -3.575168e+00 5.586320e+00 -3.691763e-01 6.437609e-01 1.301678e+00 -3.228305e+00 5.073059e+00 -1.263532e+00 -1.387944e+00 -1.615769e+00 -1.661993e+00 -3.599752e-01 1.481090e+00 -3.324553e-01 3.881809e-01 -4.670476e-02 5.697399e-01 3.757060e-01 -7.259470e-01 8.924148e-01 -5.880415e-03 1.652031e-01 -7.750631e-01 -3.712046e-01 -4.156086e-01 9.008574e-02 -4.385033e-01 -2.874513e-01 -1.614355e-02 -1.249643e-01 1.252751e-01 -4.959579e-02 -1.297974e-01 -2.281093e-02
<VARIANCE> 39
 3.869337e+01 2.567505e+01 4.013628e+01 3.810536e+01 4.790188e+01 5.802426e+01 4.365519e+01 4.306142e+01 5.282018e+01 3.592750e+01 3.231491e+01 3.530348e+01 1.905953e+01 2.488394e+00 8.048343e+00 6.280065e+00 4.280860e+00 5.184319e+00 6.013115e+00 3.764231e+00 3.713565e+00 3.551078e+00 3.113006e+00 2.933018e+00 2.844832e+00 1.746110e+00 5.078167e-01 7.718253e-01 8.653199e-01 6.539307e-01 8.463222e-01 1.000627e+00 7.252275e-01 6.797097e-01 6.791845e-01 5.994836e-01 5.610037e-01 5.556339e-01 3.445597e-01
<GCONST> 1.308537e+02
<STATE> 3
<MEAN> 39
 -9.463326e+00 -5.078411e+00 -1.214995e+01 1.643777e+00 1.275041e+01 -9.839628e+00 4.993474e+00 -1.646168e+00 1.288022e+00 3.679046e+00 -7.847445e+00 8.130553e+00 -1.591609e+00 1.388259e+00 -8.478295e-01 2.927357e-01 -1.315551e+00 -1.071855e+00 -1.130413e+00 -2.078853e+00 -3.808752e-01 -3.672981e-01 -8.256968e-02 3.379287e-01 -1.182290e+00 -2.427334e-01 1.001205e+00 1.161396e+00 1.775170e+00 1.199263e-01 -1.636631e+00 1.003136e+00 -6.660035e-01 2.974635e-01 -1.305598e-01 -3.301075e-01 1.108848e+00 -9.824626e-01 7.638258e-02
<VARIANCE> 39
 3.424747e+01 4.560412e+01 9.156445e+01 5.257059e+01 5.077348e+01 5.621157e+01 4.346275e+01 3.983808e+01 3.788263e+01 2.997168e+01 2.727317e+01 2.592765e+01 1.673652e+01 5.749784e+00 8.794361e+00 1.532957e+01 4.653678e+00 1.061733e+01 7.601908e+00 5.376953e+00 4.229833e+00 4.464404e+00 3.979079e+00 5.997821e+00 5.070884e+00 2.029497e+00 6.136052e-01 9.617869e-01 1.290840e+00 1.071523e+00 1.420768e+00 1.502637e+00 8.180711e-01 8.515289e-01 7.043170e-01 6.765407e-01 8.694686e-01 7.097670e-01 4.083968e-01
<GCONST> 1.401170e+02
<STATE> 4
<MEAN> 39
 3.787808e-01 -2.001883e-01 7.435305e-01 -2.397489e-01 -9.047300e-02 -6.532311e+00 -4.844074e+00 -5.562857e-01 3.117810e-01 2.092472e+00 7.831996e-01 -9.891238e-01 -1.926491e+00 2.340400e+00 -1.967774e-01 3.067466e+00 -1.395069e+00 -4.452866e+00 2.788834e+00 -2.498306e+00 1.317239e+00 2.765038e-01 -3.558039e-01 3.110670e+00 -2.969344e+00 2.948302e-01 -6.112286e-01 -5.304821e-01 -7.982435e-01 -3.760770e-03 4.907257e-01 5.031307e-01 7.296231e-01 2.450123e-01 2.692390e-01 1.578534e-02 -3.445969e-01 3.942510e-01 1.007169e-01
<VARIANCE> 39
 2.888791e+01 4.160472e+01 7.482886e+01 3.527498e+01 5.994191e+01 5.361666e+01 5.282096e+01 4.184879e+01 5.773523e+01 3.411837e+01 4.485934e+01 3.677530e+01 1.837434e+01 3.451179e+00 3.476800e+00 6.103664e+00 4.779870e+00 7.796782e+00 7.010782e+00 5.231430e+00 3.905008e+00 4.020735e+00 4.016647e+00 5.657351e+00 4.880402e+00 2.029204e+00 3.581809e-01 5.052709e-01 9.688616e-01 4.894246e-01 1.471834e+00 9.852224e-01 7.168990e-01 6.525661e-01 6.265080e-01 5.372900e-01 1.053748e+00 6.618164e-01 3.531275e-01
<GCONST> 1.346787e+02
<TRANSP> 5
 0.000000e+00 1.000000e+00 0.000000e+00 0.000000e+00 0.000000e+00
 0.000000e+00 7.436518e-01 2.563482e-01 0.000000e+00 0.000000e+00
 0.000000e+00 0.000000e+00 6.598278e-01 3.401721e-01 0.000000e+00
 0.000000e+00 0.000000e+00 0.000000e+00 4.852261e-01 5.147740e-01
 0.000000e+00 0.000000e+00 0.000000e+00 0.000000e+00 0.000000e+00
<ENDHMM>
~o
<STREAMINFO> 1 39
<VECSIZE> 39<NULLD><MFCC_D_A_Z><DIAGC>
~h "kh"
<BEGINHMM>
<NUMSTATES> 5
<STATE> 2
<MEAN> 39
 -2.637465e+00 7.000136e+00 -2.239550e+00 4.558985e+00 4.035223e+00 -4.849985e+00 4.835885e+00 -2.460111e-01 2.719203e-01 2.104074e+00 -3.780672e+00 2.992001e+00 -1.114491e+00 -1.829115e+00 -1.394044e+00 -1.809195e+00 -2.862294e-01 1.664730e+00 -2.345691e-01 7.302060e-01 -2.397145e-01 5.849824e-01 5.222716e-01 -8.030468e-01 1.334691e+00 -8.848462e-02 -1.389789e-01 -9.500284e-01 -3.845728e-01 -3.978243e-01 2.251617e-01 -1.712262e-01 -1.178099e-01 1.556699e-01 2.781293e-02 2.783431e-01 9.877774e-02 6.285279e-02 1.158442e-01
<VARIANCE> 39
 3.391622e+01 3.099960e+01 5.073436e+01 4.177938e+01 4.710383e+01 6.013670e+01 4.985796e+01 4.713768e+01 5.396561e+01 4.035355e+01 3.713615e+01 4.256678e+01 2.014980e+01 2.712481e+00 8.002910e+00 6.342660e+00 4.556621e+00 6.277444e+00 5.301681e+00 4.379504e+00 3.946067e+00 3.634179e+00 3.585690e+00 3.437815e+00 3.258387e+00 1.905234e+00 4.916659e-01 6.404870e-01 8.415973e-01 7.698365e-01 1.059590e+00 9.369676e-01 8.014392e-01 7.410665e-01 6.969673e-01 6.641820e-01 6.359355e-01 6.032493e-01 3.647932e-01
<GCONST> 1.336299e+02
<STATE> 3
<MEAN> 39
 -1.234437e+01 -6.307039e+00 -1.119785e+01 -9.900435e-01 1.181862e+01 -6.155580e+00 6.013813e+00 2.466772e-01 3.486520e+00 7.057639e+00 -4.642428e+00 8.729877e+00 6.646000e-01 -3.688758e-01 -3.859658e-01 1.836772e-01 -4.767750e-01 1.791542e-01 4.515862e-01 -2.775151e-02 2.092112e-01 -3.353574e-02 1.514305e-01 1.984381e-01 -3.446373e-01 4.199295e-01 6.749289e-01 8.536052e-01 7.139142e-01 2.881560e-01 -4.947186e-01 3.213432e-01 -9.159338e-02 -4.231142e-02 -3.210548e-01 -3.482312e-01 1.467112e-01 -5.264244e-01 -3.561371e-02
<VARIANCE> 39
 3.031613e+01 2.005254e+01 7.688633e+01 4.290585e+01 7.060741e+01 5.443237e+01 3.776588e+01 4.051333e+01 4.049320e+01 2.960886e+01 2.682660e+01 3.299682e+01 1.874786e+01 3.766419e+00 6.564572e+00 6.912042e+00 4.371894e+00 4.612895e+00 5.299026e+00 3.141630e+00 3.479863e+00 4.476117e+00 3.786938e+00 2.888153e+00 4.384270e+00 1.931689e+00 6.912441e-01 7.172010e-01 9.824854e-01 7.320740e-01 8.885972e-01 8.112388e-01 6.664665e-01 6.617016e-01 7.031800e-01 5.852846e-01 6.437713e-01 5.974195e-01 3.971280e-01
<GCONST> 1.318695e+02
<STATE> 4
<MEAN> 39
 -2.320098e+00 1.155358e-01 -4.336809e+00 3.916881e-01 7.165012e+00 -1.136426e-01 4.413531e+00 7.704398e-01 -3.552009e-01 3.824183e+00 -2.749610e+00 -5.768613e-01 1.072288e+00 3.259996e+00 1.968855e-02 8.952996e-01 8.529334e-03 -2.901645e+00 9.487990e-01 -1.445677e+00 -6.753096e-02 7.586803e-02 -9.675153e-01 1.040983e+00 -1.690045e+00 -5.882683e-01 -3.311819e-01 -8.651564e-01 -2.718905e-01 -3.128074e-01 -3.863760e-01 -3.945073e-02 -3.657493e-01 -8.392191e-03 4.857186e-01 -5.602431e-02 1.841612e-01 2.890722e-01 -1.341504e-01
<VARIANCE> 39
 5.240048e+01 4.607476e+01 7.647169e+01 3.959229e+01 8.495631e+01 8.319909e+01 3.874228e+01 4.618843e+01 3.686160e+01 3.052545e+01 3.361097e+01 4.644364e+01 2.082720e+01 3.875403e+00 8.216111e+00 4.044249e+00 3.696344e+00 5.326757e+00 3.869463e+00 4.398473e+00 3.111014e+00 4.361094e+00 2.870523e+00 3.766241e+00 2.663844e+00 2.348395e+00 9.185123e-01 8.032929e-01 5.076762e-01 5.327324e-01 1.074410e+00 7.001168e-01 6.595598e-01 4.706757e-01 6.397696e-01 4.525234e-01 6.155531e-01 4.311380e-01 4.428569e-01
<GCONST> 1.322975e+02
<TRANSP> 5
 0.000000e+00 1.000000e+00 0.000000e+00 0.000000e+00 0.000000e+00
 0.000000e+00 7.729655e-01 2.270345e-01 0.000000e+00 0.000000e+00
 0.000000e+00 0.000000e+00 8.479509e-01 1.520491e-01 0.000000e+00
 0.000000e+00 0.000000e+00 0.000000e+00 7.259685e-01 2.740315e-01
 0.000000e+00 0.000000e+00 0.000000e+00 0.000000e+00 0.000000e+00
<ENDHMM>
~o
<STREAMINFO> 1 39
<VECSIZE> 39<NULLD><MFCC_D_A_Z><DIAGC>
~h "l"
<BEGINHMM>
<NUMSTATES> 5
<STATE> 2
<MEAN> 39
 2.353582e+00 -3.118235e+00 6.134029e+00 6.315497e-01 9.633844e-01 -1.841853e+00 -1.213035e+01 -3.452831e+00 2.152073e+00 1.480118e-01 1.016123e+00 -4.411147e+00 5.252694e-01 -2.825814e-01 1.745925e+00 2.257476e+00 1.153308e-01 2.007316e+00 9.057198e-01 -2.789746e+00 -1.607847e+00 -2.209504e-01 -1.257069e-01 -6.282046e-01 -4.999706e-01 2.423189e-01 -1.242926e-01 2.045073e-01 -1.329802e-01 -3.584143e-01 -4.258235e-02 4.033310e-01 1.086996e-01 -1.596792e-01 -5.138959e-03 -7.232454e-02 5.302486e-02 -1.416905e-02 1.463159e-02
<VARIANCE> 39
 1.512070e+01 3.607258e+01 6.755820e+01 5.136428e+01 4.653481e+01 5.146258e+01 5.911143e+01 7.654687e+01 5.064497e+01 6.398969e+01 4.730478e+01 3.662822e+01 3.404133e+01 1.264536e+00 2.783286e+00 2.858821e+00 3.312099e+00 5.505350e+00 6.742528e+00 7.049898e+00 6.489906e+00 6.346874e+00 4.298965e+00 6.371694e+00 3.417912e+00 2.250687e+00 1.819569e-01 4.723957e-01 4.630773e-01 5.590654e-01 9.604982e-01 7.790135e-01 1.211668e+00 9.737988e-01 8.155591e-01 8.720903e-01 6.920688e-01 5.133811e-01 4.449949e-01
<GCONST> 1.334248e+02
<STATE> 3
<MEAN> 39
 5.301346e-02 3.432341e+00 1.284411e+01 -1.363915e+00 6.494495e+00 1.979945e+00 -1.988926e+01 -7.160641e+00 3.960291e+00 -1.012288e+00 -2.088316e+00 -5.124057e+00 2.243693e+00 -1.692202e-01 2.570259e-01 -5.060774e-02 -1.246802e-01 3.104947e-01 -9.840283e-02 1.497561e-01 -3.526248e-01 -9.985109e-03 3.309399e-01 -1.205578e-01 1.825226e-01 -1.201893e-01 9.296606e-02 -5.970556e-01 -5.882731e-01 9.036955e-02 -6.121005e-01 -6.037996e-01 1.015147e+00 5.665635e-01 -9.349661e-02 8.246633e-02 2.375501e-01 2.084009e-01 -1.130519e-01
<VARIANCE> 39
 1.168009e+01 1.844455e+01 4.487599e+01 3.526804e+01 3.227391e+01 3.463966e+01 5.667610e+01 4.416403e+01 3.278015e+01 4.250579e+01 3.828260e+01 3.094302e+01 2.698902e+01 4.372324e-01 1.710061e+00 1.929653e+00 1.740959e+00 2.201410e+00 3.237912e+00 5.767190e+00 2.938421e+00 2.452634e+00 2.531517e+00 2.356458e+00 2.118171e+00 1.590349e+00 8.637255e-02 3.130679e-01 2.547278e-01 2.840156e-01 5.510269e-01 5.953018e-01 9.454156e-01 6.411818e-01 6.800892e-01 4.967251e-01 6.661216e-01 4.796488e-01 2.891518e-01
<GCONST> 1.151671e+02
<STATE> 4
<MEAN> 39
 5.778006e-01 -3.347273e-01 5.814451e+00 2.283392e-01 3.080722e+00 -3.430984e+00 -9.040281e+00 -4.255506e+00 1.599237e+00 1.289084e+00 -2.008562e-01 -2.484336e+00 -3.804676e-02 1.296427e-01 -1.465348e+00 -2.077247e+00 -4.765984e-02 -1.788094e+00 -8.315782e-01 2.887296e+00 1.775525e+00 3.568020e-01 -9.239396e-02 2.950564e-01 2.231591e-01 -5.748309e-02 6.937916e-03 4.724612e-02 -2.811540e-02 -8.403241e-02 -1.344956e-01 5.320484e-01 -1.870766e-01 -6.302353e-02 8.683523e-02 -2.441760e-01 3.903384e-02 -2.126638e-01 7.077842e-02
<VARIANCE> 39
 1.931233e+01 5.223637e+01 6.105565e+01 6.391950e+01 4.748270e+01 5.891242e+01 7.567285e+01 5.845740e+01 6.347879e+01 4.449486e+01 4.639907e+01 3.641011e+01 2.413450e+01 1.489269e+00 5.250659e+00 3.109436e+00 4.354748e+00 6.373252e+00 6.868804e+00 6.375574e+00 5.765151e+00 7.065281e+00 3.761018e+00 6.794106e+00 4.738849e+00 2.043303e+00 1.828547e-01 6.230422e-01 5.178903e-01 5.463761e-01 9.276009e-01 8.413348e-01 1.078973e+00 9.617347e-01 7.767554e-01 6.417742e-01 7.255915e-01 5.351122e-01 3.427830e-01
