~o
<STREAMINFO> 1 39
<VECSIZE> 39<NULLD><MFCC_D_A_Z><DIAGC>
~h "a"
<BEGINHMM>
<NUMSTATES> 5
<STATE> 2
<MEAN> 39
 5.856177e+00 2.281073e+00 -4.628261e+00 -1.216413e+01 -7.165014e+00 1.000466e+01 -4.299033e+00 -2.543231e+00 1.650685e+00 -2.576616e+00 4.026872e+00 1.553593e+00 2.402112e-01 3.618402e-01 -2.699797e-01 -1.793099e-01 -2.341943e+00 -2.179305e+00 2.002222e+00 -2.638738e-01 -4.305347e-01 1.305290e+00 -1.695418e+00 1.203146e+00 1.299328e-01 -1.717627e-01 -4.426302e-01 -1.944579e-01 1.570528e-02 6.014364e-01 7.730447e-01 -5.644959e-01 3.120106e-01 1.137977e-01 -1.013238e-01 7.868117e-02 -2.370646e-01 -7.636700e-02 -4.274961e-02
<VARIANCE> 39
 2.173858e+01 3.343422e+01 2.628224e+01 8.482232e+01 6.027966e+01 7.006277e+01 5.663374e+01 5.803788e+01 5.123191e+01 5.599450e+01 4.108691e+01 2.999813e+01 2.653953e+01 1.944498e+00 2.547037e+00 3.054989e+00 6.910819e+00 6.412829e+00 5.277717e+00 5.061807e+00 5.828842e+00 5.382866e+00 5.432559e+00 3.687238e+00 2.822651e+00 2.524208e+00 5.460792e-01 5.117343e-01 6.178313e-01 1.214638e+00 1.058183e+00 9.990878e-01 8.685133e-01 8.374498e-01 9.239231e-01 1.058659e+00 6.972282e-01 5.493858e-01 4.399062e-01
<GCONST> 1.353510e+02
<STATE> 3
<MEAN> 39
 3.980735e+00 2.643271e-01 -5.562164e+00 -1.428778e+01 -5.932328e+00 1.108084e+01 -1.852944e+00 -2.033164e+00 4.780056e+00 -5.684073e+00 5.190214e+00 1.969130e+00 -1.433388e+00 -1.393839e-01 -2.625886e-01 -1.271793e-01 3.225604e-01 1.221666e-01 6.100189e-02 -7.253782e-02 -3.420192e-01 -3.169449e-01 7.476105e-02 3.997034e-01 -7.563363e-02 -1.035326e-01 3.762657e-02 5.448712e-02 1.805608e-01 7.466817e-01 4.961486e-01 -4.229681e-01 -3.741764e-02 -1.485044e-02 -4.333981e-01 4.299503e-01 -2.627700e-01 -1.119775e-01 8.535178e-02
<VARIANCE> 39
 2.750269e+01 2.232548e+01 2.121714e+01 1.360539e+02 8.108221e+01 7.428288e+01 4.937410e+01 5.635521e+01 4.949827e+01 6.053074e+01 4.108755e+01 2.375617e+01 2.810036e+01 5.747898e-01 1.510072e+00 1.192451e+00 3.144803e+00 2.194756e+00 1.905568e+00 2.634063e+00 3.374773e+00 3.259621e+00 3.374888e+00 2.382737e+00 1.924966e+00 1.792479e+00 1.390238e-01 2.278417e-01 3.043928e-01 5.069923e-01 6.928647e-01 5.882035e-01 5.799503e-01 6.872660e-01 6.175625e-01 6.689717e-01 5.146442e-01 3.908382e-01 3.573329e-01
<GCONST> 1.195694e+02
<STATE> 4
<MEAN> 39
 5.141645e+00 1.662960e+00 -4.243892e+00 -9.109664e+00 -3.786333e+00 9.050557e+00 -3.527198e+00 -3.424500e+00 -1.960896e-01 -1.243701e+00 5.078453e+00 1.142429e+00 -3.746900e-01 -1.057650e-01 -1.251109e-03 5.088722e-01 1.962741e+00 1.521128e+00 -1.486248e+00 3.523793e-01 4.410909e-01 -5.813327e-01 8.037489e-01 -5.246158e-01 -1.382336e-01 -2.595226e-01 -2.072178e-01 -2.285125e-02 1.932995e-01 2.113406e-01 2.751643e-01 -3.045247e-01 1.534804e-01 1.002128e-01 2.112377e-01 -1.625944e-01 -3.275040e-01 2.974571e-02 -1.402663e-02
<VARIANCE> 39
 2.835607e+01 3.531704e+01 3.364313e+01 7.886216e+01 8.619422e+01 7.766561e+01 6.943674e+01 7.697548e+01 5.308930e+01 4.878653e+01 4.762108e+01 3.325592e+01 3.109916e+01 3.298424e+00 3.357133e+00 2.896021e+00 6.818190e+00 7.243834e+00 5.965608e+00 6.285725e+00 6.357841e+00 5.725373e+00 4.949768e+00 4.343464e+00 3.450526e+00 2.665082e+00 5.235428e-01 5.415814e-01 4.858719e-01 8.647178e-01 1.296745e+00 9.788676e-01 1.058190e+00 1.078973e+00 8.777348e-01 7.797305e-01 8.260674e-01 6.484150e-01 5.498210e-01
<GCONST> 1.390420e+02
<TRANSP> 5
 0.000000e+00 1.000000e+00 0.000000e+00 0.000000e+00 0.000000e+00
 0.000000e+00 4.849283e-01 5.150717e-01 0.000000e+00 0.000000e+00
 0.000000e+00 0.000000e+00 6.909042e-01 3.090958e-01 0.000000e+00
 0.000000e+00 0.000000e+00 0.000000e+00 5.566593e-01 4.433407e-01
 0.000000e+00 0.000000e+00 0.000000e+00 0.000000e+00 0.000000e+00
<ENDHMM>
~o
<STREAMINFO> 1 39
<VECSIZE> 39<NULLD><MFCC_D_A_Z><DIAGC>
~h "aa"
<BEGINHMM>
<NUMSTATES> 5
<STATE> 2
<MEAN> 39
 4.334164e+00 -9.124123e+00 -7.291612e+00 -9.755197e+00 -1.481641e+00 7.412285e+00 -6.694527e+00 3.725775e+00 1.305810e+01 -1.252572e+00 -9.574028e-01 -8.201804e+00 -2.179648e+00 -4.402696e-02 -1.317369e+00 -8.327632e-01 -1.196721e+00 -5.227998e-02 1.669596e+00 4.251211e-01 -2.061512e-01 2.006078e+00 -1.325139e+00 -3.053129e-01 -1.359749e+00 -8.387355e-01 -2.654937e-01 4.654793e-01 3.631794e-01 5.646062e-01 4.331081e-01 -5.198204e-01 3.771928e-01 -3.882836e-01 -7.352037e-01 3.427465e-02 -5.189093e-02 5.675138e-01 1.706246e-01
<VARIANCE> 39
 9.196874e+00 2.023025e+01 2.686930e+01 4.490095e+01 4.416334e+01 5.980354e+01 4.482472e+01 5.240754e+01 3.239609e+01 3.853508e+01 3.619809e+01 3.088116e+01 2.935615e+01 1.179886e+00 1.654551e+00 1.961526e+00 2.973835e+00 3.761197e+00 4.716459e+00 3.994913e+00 5.300246e+00 3.624488e+00 3.824053e+00 3.329221e+00 3.236917e+00 2.025594e+00 3.002664e-01 3.385189e-01 3.927537e-01 5.242304e-01 6.905112e-01 7.221009e-01 7.118368e-01 1.081978e+00 6.864613e-01 6.953267e-01 5.878395e-01 5.680163e-01 4.219806e-01
<GCONST> 1.237181e+02
<STATE> 3
<MEAN> 39
 3.433037e+00 -1.007656e+01 -8.901815e+00 -1.226485e+01 1.540979e-01 1.069994e+01 -4.944608e+00 2.945112e-01 1.605961e+01 -4.666746e+00 -4.688822e-01 -8.910986e+00 -4.805536e+00 4.935058e-02 2.462103e-01 4.009065e-02 5.283892e-01 -3.414518e-01 -4.572583e-01 -2.621996e-01 1.030496e-01 -1.832852e-01 4.200626e-01 1.064160e-01 -1.511319e-01 1.975549e-01 1.545673e-01 4.079388e-01 2.634871e-01 3.810468e-01 -9.173769e-03 -4.020390e-01 -7.499444e-02 7.852411e-02 -6.357803e-01 3.882196e-01 9.104154e-02 2.881857e-01 2.541966e-01
<VARIANCE> 39
 6.983828e+00 1.329015e+01 1.695773e+01 3.259809e+01 3.027241e+01 4.250986e+01 3.670146e+01 4.548231e+01 2.276295e+01 2.865121e+01 2.909838e+01 2.705286e+01 2.871399e+01 4.233995e-01 9.311498e-01 8.969454e-01 1.865972e+00 1.885719e+00 2.342988e+00 2.157260e+00 2.642806e+00 2.253827e+00 2.484626e+00 2.159420e+00 1.940156e+00 1.670926e+00 8.628866e-02 1.611619e-01 1.735613e-01 2.205810e-01 4.000294e-01 3.446878e-01 4.363370e-01 5.727838e-01 4.448404e-01 3.659718e-01 3.785978e-01 4.012149e-01 2.671701e-01
<GCONST> 1.041628e+02
<STATE> 4
<MEAN> 39
 4.168675e+00 -3.874564e+00 -6.322284e+00 -4.469848e+00 1.238292e+00 2.386948e+00 -3.366014e+00 4.241543e+00 9.326406e+00 2.349507e+00 -2.071042e+00 -6.121919e+00 -1.714498e+00 -1.144924e-01 1.523524e+00 8.853530e-01 1.361522e+00 9.031962e-01 -1.228466e+00 9.088537e-01 6.378955e-02 -1.817641e+00 6.084229e-01 -1.297947e-01 1.143283e+00 9.499387e-02 -3.193518e-01 8.247919e-03 1.061885e-01 -5.990417e-02 1.680001e-01 1.007063e-01 2.515869e-01 -2.292206e-01 -1.056308e-01 -2.836889e-01 -4.678777e-02 1.537453e-01 -5.095867e-02
<VARIANCE> 39
 2.636381e+01 3.601865e+01 3.032194e+01 4.782713e+01 6.912061e+01 6.551681e+01 7.444673e+01 4.810114e+01 4.425369e+01 3.511485e+01 4.912298e+01 3.792864e+01 3.422472e+01 3.645440e+00 2.447195e+00 2.345358e+00 2.506404e+00 4.338352e+00 4.484040e+00 4.830201e+00 5.657781e+00 4.673479e+00 3.201321e+00 3.656280e+00 2.853189e+00 2.742642e+00 5.135664e-01 4.799044e-01 3.369801e-01 4.543236e-01 7.764466e-01 7.257165e-01 8.455794e-01 8.094449e-01 7.828174e-01 5.673000e-01 6.390578e-01 5.766245e-01 5.236530e-01
<GCONST> 1.304337e+02
<TRANSP> 5
 0.000000e+00 1.000000e+00 0.000000e+00 0.000000e+00 0.000000e+00
 0.000000e+00 4.942656e-01 5.057344e-01 0.000000e+00 0.000000e+00
 0.000000e+00 0.000000e+00 7.649375e-01 2.350625e-01 0.000000e+00
 0.000000e+00 0.000000e+00 0.000000e+00 7.335662e-01 2.664338e-01
 0.000000e+00 0.000000e+00 0.000000e+00 0.000000e+00 0.000000e+00
<ENDHMM>
~o
<STREAMINFO> 1 39
<VECSIZE> 39<NULLD><MFCC_D_A_Z><DIAGC>
~h "b"
<BEGINHMM>
<NUMSTATES> 5
<STATE> 2
<MEAN> 39
 9.024067e+00 6.776624e+00 2.511442e+00 2.647270e+00 3.669101e+00 4.142557e+00 1.989012e+00 -3.822523e+00 -4.199106e+00 -4.637552e-01 -1.295294e+00 1.043142e+00 -2.417365e+00 4.436848e-01 1.389332e+00 2.169175e-01 9.120893e-01 1.441519e+00 -3.914616e-01 1.023721e+00 -1.198534e-01 -6.866761e-01 7.110281e-02 -5.383626e-01 2.682983e-01 -3.743374e-01 -4.754660e-01 -4.660269e-01 -9.859590e-02 -2.129968e-01 -3.416936e-01 -2.430788e-01 -3.101398e-01 7.618619e-02 1.813853e-01 -1.042916e-01 8.782193e-02 2.846655e-02 1.500320e-01
<VARIANCE> 39
 2.374603e+01 3.430148e+01 2.994208e+01 6.436121e+01 4.586770e+01 6.871700e+01 4.664847e+01 4.198764e+01 4.523190e+01 3.428596e+01 3.507773e+01 2.650380e+01 3.263763e+01 2.434406e+00 2.493619e+00 1.972333e+00 3.508396e+00 4.571265e+00 4.661442e+00 4.447032e+00 3.789718e+00 3.104767e+00 2.600626e+00 2.929603e+00 2.275957e+00 2.317125e+00 3.318938e-01 6.398067e-01 3.034081e-01 5.311394e-01 8.889166e-01 6.412086e-01 7.530783e-01 6.791949e-01 5.714030e-01 4.990232e-01 5.002849e-01 4.358085e-01 4.798822e-01
<GCONST> 1.255743e+02
<STATE> 3
<MEAN> 39
 6.831990e+00 6.445593e+00 2.068330e+00 4.203139e+00 6.815358e+00 4.454316e-01 3.339514e+00 -3.099273e+00 -5.164972e+00 -1.051217e+00 -3.125958e+00 2.099025e+00 -2.387972e+00 -1.002827e+00 -2.441096e+00 1.412375e-03 -1.587403e+00 -2.173215e+00 -1.853664e-01 -1.509394e+00 -6.556413e-02 8.923560e-01 -4.269832e-01 1.724208e-01 2.809024e-01 3.979013e-01 -7.499760e-02 -7.601481e-01 8.307346e-02 -1.018856e+00 -1.591610e+00 6.872611e-01 -8.193092e-01 -7.866818e-03 6.095548e-01 -1.834647e-01 4.997142e-01 -1.654890e-01 8.059826e-02
<VARIANCE> 39
 2.583927e+01 4.427324e+01 2.006943e+01 4.378428e+01 3.201058e+01 4.890338e+01 3.294973e+01 3.445596e+01 3.460077e+01 2.730124e+01 2.908392e+01 2.130068e+01 2.043698e+01 2.431015e+00 5.405729e+00 4.513548e+00 1.041323e+01 8.309344e+00 8.321684e+00 4.785838e+00 4.711309e+00 5.530552e+00 4.052605e+00 3.152112e+00 3.351184e+00 2.773066e+00 4.251224e-01 1.169612e+00 7.016977e-01 1.089514e+00 9.514060e-01 1.001252e+00 8.122850e-01 8.756788e-01 1.004284e+00 5.654204e-01 5.950376e-01 6.161752e-01 5.445217e-01
<GCONST> 1.329168e+02
<STATE> 4
<MEAN> 39
 5.862920e+00 -1.735641e+00 3.383887e-01 -8.534496e+00 -7.129807e+00 7.198865e+00 -5.182661e+00 -4.048143e+00 1.873835e+00 -3.086653e+00 9.306494e-01 2.307056e+00 -1.347976e+00 -6.940072e-01 -1.426993e+00 -2.942123e-02 -1.624723e+00 -2.544113e+00 1.001201e+00 -1.193667e+00 4.942380e-01 1.383774e+00 -4.755168e-01 9.100974e-01 -6.882624e-01 -7.729947e-02 -1.429320e-04 5.751466e-01 3.171491e-02 6.048735e-01 6.879292e-01 -1.293463e-01 5.688856e-01 1.043461e-01 -2.975172e-01 1.347283e-02 -1.386492e-01 -1.906869e-01 -3.906532e-02
<VARIANCE> 39
 1.574893e+01 5.092115e+01 7.945720e+01 1.446078e+02 5.302141e+01 1.148108e+02 4.351170e+01 4.565826e+01 6.244216e+01 5.121252e+01 3.310952e+01 4.194803e+01 3.005024e+01 1.748001e+00 4.967768e+00 5.196520e+00 9.579901e+00 1.185513e+01 7.699024e+00 4.648525e+00 5.472803e+00 8.020475e+00 3.827713e+00 3.765359e+00 4.286621e+00 3.280637e+00 2.507857e-01 7.402090e-01 4.348713e-01 1.098215e+00 9.721276e-01 1.065193e+00 7.577831e-01 7.695674e-01 7.826608e-01 7.415684e-01 5.948773e-01 6.115203e-01 4.881892e-01
<GCONST> 1.387443e+02
<TRANSP> 5
 0.000000e+00 1.000000e+00 0.000000e+00 0.000000e+00 0.000000e+00
 0.000000e+00 7.461194e-01 2.538807e-01 0.000000e+00 0.000000e+00
 0.000000e+00 0.000000e+00 5.905708e-01 4.094292e-01 0.000000e+00
 0.000000e+00 0.000000e+00 0.000000e+00 6.483393e-01 3.516608e-01
 0.000000e+00 0.000000e+00 0.000000e+00 0.000000e+00 0.000000e+00
<ENDHMM>
~o
<STREAMINFO> 1 39
<VECSIZE> 39<NULLD><MFCC_D_A_Z><DIAGC>
~h "bh"
<BEGINHMM>
<NUMSTATES> 5
<STATE> 2
<MEAN> 39
 8.656079e+00 4.943847e+00 9.671615e-01 -1.247845e+00 4.291237e-01 6.585022e+00 3.169977e-01 -4.088000e+00 -3.707621e+00 -2.938818e+00 -1.393247e+00 9.503869e-01 -7.359045e-01 1.361103e-01 1.127091e+00 2.747924e-02 1.344295e+00 2.172784e+00 -1.104600e+00 1.504883e+00 5.137483e-01 -6.046039e-01 7.823561e-01 -6.879363e-01 5.450597e-01 -1.484966e-01 -6.119720e-01 -3.104370e-01 -2.579907e-02 -1.099873e-01 7.282266e-03 -3.492612e-01 -1.975559e-01 2.690035e-01 2.747774e-01 1.719022e-01 1.793244e-01 -6.015327e-04 1.410915e-01
<VARIANCE> 39
 2.054581e+01 3.198507e+01 3.666106e+01 8.350420e+01 5.563953e+01 6.542030e+01 6.021020e+01 3.941333e+01 5.016123e+01 3.643673e+01 4.213229e+01 2.419265e+01 2.876562e+01 3.570333e+00 3.690700e+00 2.835368e+00 5.946587e+00 7.274942e+00 7.474394e+00 5.118274e+00 4.956370e+00 4.227707e+00 4.211024e+00 3.332053e+00 2.502127e+00 2.503019e+00 4.355513e-01 6.941636e-01 4.409388e-01 9.702638e-01 1.107983e+00 1.041499e+00 9.207743e-01 7.745374e-01 7.571310e-01 6.283621e-01 6.647772e-01 4.867910e-01 5.231412e-01
<GCONST> 1.337517e+02
<STATE> 3
<MEAN> 39
 1.497383e+00 4.022979e+00 4.982053e+00 7.188881e+00 4.319796e+00 -4.339407e+00 2.667215e+00 9.093772e-01 -5.365562e+00 1.828240e+00 -2.105515e+00 2.124358e+00 5.860983e-01 -5.613674e-01 -4.404370e-01 6.233468e-02 -7.358034e-01 -8.275667e-01 8.755597e-02 -1.585570e-01 4.601389e-01 -2.729709e-02 2.782908e-01 3.147357e-01 -5.838945e-02 4.645174e-01 2.376657e-01 -6.260513e-02 -8.003871e-02 -5.757597e-01 -5.144004e-01 6.648806e-01 -2.454948e-01 -2.080696e-01 1.066173e-01 -2.703787e-01 6.527145e-02 -1.985084e-01 1.517266e-02
<VARIANCE> 39
 2.410881e+01 2.861212e+01 5.370109e+01 3.634786e+01 7.516454e+01 3.799654e+01 3.285553e+01 3.688869e+01 4.191701e+01 2.661929e+01 2.198397e+01 2.149663e+01 1.741704e+01 2.936974e+00 4.317425e+00 3.757783e+00 5.667947e+00 7.789920e+00 5.476982e+00 3.643043e+00 4.718622e+00 5.256221e+00 4.091981e+00 2.825374e+00 2.605039e+00 2.373917e+00 4.465048e-01 9.040270e-01 5.077409e-01 7.448092e-01 1.301783e+00 9.965674e-01 8.195347e-01 7.624235e-01 9.136996e-01 6.763450e-01 5.377536e-01 4.769179e-01 4.090583e-01
<GCONST> 1.301803e+02
<STATE> 4
<MEAN> 39
 4.177979e+00 2.401083e+00 -4.461218e+00 -9.932979e+00 5.956179e+00 1.039030e+01 2.096815e-01 8.392544e-01 2.865342e+00 -3.231561e-01 -6.308924e-01 -1.422520e+00 1.537218e+00 6.445628e-02 -7.696575e-01 -7.152625e-01 -9.482170e-01 -8.388675e-01 6.050816e-01 -5.185328e-01 -3.081954e-01 1.158992e+00 -5.673779e-01 3.804593e-01 -9.519189e-01 -2.643207e-01 3.896582e-02 -1.093872e-01 1.352110e-01 3.820960e-01 -1.940687e-01 -3.031831e-01 -1.199848e-02 -1.416269e-01 -6.567569e-02 -3.505190e-02 8.520065e-03 6.241654e-03 -1.421961e-01
<VARIANCE> 39
 1.387181e+01 4.199572e+01 3.407153e+01 4.939524e+01 8.381483e+01 4.292224e+01 3.583354e+01 3.411351e+01 5.303690e+01 3.115875e+01 2.507071e+01 4.148549e+01 2.248055e+01 1.342122e+00 2.725098e+00 1.617253e+00 3.418857e+00 4.964541e+00 4.551614e+00 2.226301e+00 3.057628e+00 2.596878e+00 2.622518e+00 2.375453e+00 2.378803e+00 1.980768e+00 2.303620e-01 4.320703e-01 3.602706e-01 5.003249e-01 7.090285e-01 6.722376e-01 4.509869e-01 5.790302e-01 5.395314e-01 5.667003e-01 4.552022e-01 4.616680e-01 3.479192e-01
<GCONST> 1.207105e+02
<TRANSP> 5
 0.000000e+00 1.000000e+00 0.000000e+00 0.000000e+00 0.000000e+00
 0.000000e+00 7.511472e-01 2.488528e-01 0.000000e+00 0.000000e+00
 0.000000e+00 0.000000e+00 7.867634e-01 2.132366e-01 0.000000e+00
 0.000000e+00 0.000000e+00 0.000000e+00 8.324375e-01 1.675625e-01
 0.000000e+00 0.000000e+00 0.000000e+00 0.000000e+00 0.000000e+00
<ENDHMM>
~o
<STREAMINFO> 1 39
<VECSIZE> 39<NULLD><MFCC_D_A_Z><DIAGC>
~h "c"
<BEGINHMM>
<NUMSTATES> 5
<STATE> 2
<MEAN> 39
 -8.231505e+00 3.709816e+00 1.042824e+00 2.588516e-01 7.073814e+00 -1.517718e+00 8.922884e-01 2.807122e+00 -1.859170e-01 3.400035e+00 -5.436797e-01 1.816360e+00 -1.982690e+00 -3.972922e+00 -2.469365e-01 -1.080740e-02 -4.600072e-01 5.818375e-01 6.962331e-03 8.358384e-01 3.876501e-01 1.147398e-01 -2.212234e-01 3.487390e-01 3.834282e-01 -8.727545e-02 -5.984180e-02 -1.852011e-01 -1.561853e-01 -6.025786e-02 -3.649929e-01 -1.060372e-01 7.955394e-02 -1.539056e-01 5.053383e-02 -1.788777e-01 3.973671e-02 -1.116920e-03 2.249576e-01
<VARIANCE> 39
 1.139494e+02 2.987323e+01 3.634806e+01 3.402404e+01 3.299455e+01 4.776612e+01 5.888527e+01 4.824005e+01 4.363590e+01 2.722608e+01 2.874324e+01 2.297885e+01 1.610138e+01 9.208862e+00 2.647343e+00 3.040937e+00 3.648153e+00 3.803174e+00 4.645872e+00 4.348240e+00 3.677711e+00 3.760288e+00 2.864377e+00 2.967303e+00 2.264188e+00 1.861982e+00 1.679907e+00 5.816497e-01 5.142615e-01 5.497563e-01 7.016895e-01 8.266308e-01 8.441041e-01 6.493525e-01 5.749099e-01 5.205367e-01 5.581010e-01 4.275856e-01 3.593075e-01
<GCONST> 1.286487e+02
<STATE> 3
<MEAN> 39
 -2.390426e+01 9.507084e-01 4.746211e-01 -1.352971e+00 5.689103e+00 -3.789158e+00 6.075348e+00 4.038547e+00 7.201883e-01 1.548939e+00 3.430045e-01 3.462759e+00 -1.870542e-01 1.424265e+00 -4.765155e-01 2.108183e-01 9.741650e-01 -1.336702e+00 -1.608678e+00 -3.734226e-01 -2.287956e-01 -1.715274e-02 -2.508441e-01 -4.057910e-01 -2.687798e-02 6.084573e-01 2.301740e+00 6.843177e-02 3.965249e-01 3.897431e-01 -4.851766e-01 2.604861e-02 -8.451505e-01 -3.423767e-01 -1.372732e-01 2.908581e-02 -1.259523e-01 -3.396581e-01 -8.027282e-02
<VARIANCE> 39
 1.993682e+01 1.587687e+01 2.973279e+01 2.620255e+01 2.848280e+01 3.126910e+01 2.639843e+01 3.198915e+01 3.464644e+01 2.173009e+01 1.775542e+01 1.629663e+01 1.360502e+01 1.548351e+01 2.135537e+00 4.632686e+00 3.512864e+00 3.398697e+00 3.050382e+00 5.207184e+00 3.550057e+00 3.393112e+00 2.300445e+00 2.110149e+00 2.153548e+00 1.578563e+00 1.075381e+00 4.391974e-01 6.464149e-01 6.889691e-01 5.684701e-01 1.204021e+00 7.298511e-01 7.389777e-01 7.361426e-01 5.513417e-01 5.128968e-01 4.310340e-01 3.438116e-01
<GCONST> 1.220601e+02
<STATE> 4
<MEAN> 39
 -1.583473e+00 -4.328932e-01 3.071170e+00 2.056898e+00 -3.384229e+00 -4.195279e+00 -4.365236e+00 -8.538268e-01 5.242988e-01 5.784845e-01 -1.254442e-01 -5.419093e-01 1.169402e-01 4.042444e+00 -1.128761e+00 -2.534807e-01 -9.676510e-01 -2.377617e+00 2.097281e+00 -1.759890e+00 -1.120727e+00 3.191079e-02 -3.518499e-01 7.641225e-01 -1.239711e+00 -3.223581e-01 -1.061498e+00 -1.187751e-01 -4.000525e-01 -6.254508e-01 3.067450e-01 5.661061e-01 6.284235e-01 2.108165e-01 1.007596e-01 -8.653930e-02 1.338294e-01 8.793858e-02 -3.002246e-02
<VARIANCE> 39
 8.247846e+01 3.353144e+01 7.003799e+01 4.456223e+01 6.583217e+01 8.064246e+01 7.144997e+01 8.280197e+01 8.091003e+01 2.587568e+01 3.190038e+01 2.488236e+01 1.816716e+01 1.058183e+01 3.720115e+00 4.451573e+00 5.428596e+00 5.504844e+00 8.473643e+00 6.795165e+00 6.015317e+00 7.547705e+00 3.661196e+00 3.598249e+00 3.964580e+00 2.255198e+00 1.345778e+00 4.747703e-01 6.928030e-01 8.633087e-01 1.074423e+00 1.641129e+00 1.056886e+00 1.000654e+00 9.029149e-01 6.399219e-01 7.098653e-01 6.607682e-01 5.146761e-01
<GCONST> 1.410262e+02
<TRANSP> 5
 0.000000e+00 1.000000e+00 0.000000e+00 0.000000e+00 0.000000e+00
 0.000000e+00 7.621334e-01 2.378666e-01 0.000000e+00 0.000000e+00
 0.000000e+00 0.000000e+00 7.128342e-01 2.871659e-01 0.000000e+00
 0.000000e+00 0.000000e+00 0.000000e+00 6.941308e-01 3.058692e-01
 0.000000e+00 0.000000e+00 0.000000e+00 0.000000e+00 0.000000e+00
<ENDHMM>
~o
<STREAMINFO> 1 39
<VECSIZE> 39<NULLD><MFCC_D_A_Z><DIAGC>
~h "ch"
<BEGINHMM>
<NUMSTATES> 5
<STATE> 2
<MEAN> 39
 -1.602314e+01 6.223603e+00 -5.996084e-01 1.701164e+00 8.291653e+00 -7.495615e+00 5.496451e+00 2.179402e+00 -3.169495e-01 2.133669e+00 -8.336030e-01 3.692516e+00 -4.055681e-01 -3.940760e+00 -4.125597e-01 -9.020413e-01 -8.947228e-01 7.079824e-01 -1.207361e-01 1.853057e+00 3.339488e-01 -3.509839e-01 -5.346160e-02 4.739173e-01 6.194453e-01 -3.175756e-01 6.096509e-01 -7.230814e-01 9.890705e-02 -5.536824e-02 -6.370686e-01 -1.055083e-01 -2.857076e-01 6.595723e-02 8.027583e-02 -1.296146e-01 -1.849745e-02 -1.391458e-01 2.879416e-01
<VARIANCE> 39
 9.223199e+01 2.596102e+01 2.983629e+01 3.071817e+01 2.717978e+01 5.667661e+01 5.496696e+01 3.443771e+01 3.337616e+01 2.460294e+01 2.399166e+01 2.075856e+01 1.831838e+01 6.582332e+00 4.691453e+00 2.731915e+00 2.625671e+00 4.154338e+00 3.709974e+00 4.100342e+00 3.174176e+00 3.344318e+00 2.882125e+00 2.782084e+00 2.422964e+00 2.286373e+00 1.627702e+00 5.766637e-01 4.612548e-01 4.565007e-01 5.116879e-01 7.445950e-01 6.990301e-01 6.578758e-01 5.547205e-01 5.507159e-01 7.230234e-01 4.423490e-01 3.765109e-01
<GCONST> 1.260308e+02
<STATE> 3
<MEAN> 39
 -2.074923e+01 -2.472796e+00 -2.082943e+00 -1.125604e+00 4.894734e+00 -1.106363e+01 9.951402e+00 5.533107e+00 1.432593e-01 2.206063e+00 -8.783776e-01 5.801250e+00 1.337375e+00 2.597479e+00 -8.270444e-01 9.151577e-01 5.588783e-01 -9.304906e-01 -4.480431e-01 -2.925811e-01 2.244006e-01 1.340578e-01 2.148457e-01 -2.046099e-01 -1.920744e-01 3.706408e-01 1.017222e+00 4.515116e-01 4.250012e-01 2.252317e-01 -8.260827e-02 2.948285e-01 -3.748832e-01 -1.587204e-01 -1.543913e-01 5.964081e-04 9.339128e-02 -2.887524e-01 -5.805377e-02
<VARIANCE> 39
 3.153997e+01 1.705576e+01 2.395016e+01 1.860911e+01 2.618561e+01 2.998781e+01 3.567474e+01 3.371993e+01 2.834797e+01 2.127842e+01 1.858494e+01 1.952939e+01 1.361986e+01 4.835642e+00 2.878087e+00 3.273657e+00 2.057342e+00 2.596475e+00 3.253490e+00 2.262474e+00 2.880618e+00 2.233414e+00 2.144340e+00 1.826159e+00 2.189219e+00 1.371861e+00 4.320128e-01 4.125703e-01 3.215421e-01 4.078434e-01 5.069473e-01 7.005253e-01 4.958838e-01 4.500881e-01 4.603556e-01 4.433094e-01 4.148589e-01 3.970010e-01 2.825749e-01
<GCONST> 1.136004e+02
<STATE> 4
<MEAN> 39
 1.495121e+00 -2.924669e+00 7.038602e+00 1.455652e+00 -3.575553e+00 -8.161236e+00 2.477256e+00 5.079795e+00 -7.864533e-01 1.406685e+00 1.806191e+00 1.011258e+00 2.414880e+00 2.538587e+00 -5.024562e-01 8.790893e-01 -3.039200e-01 -2.235882e+00 8.143194e-01 -1.777331e+00 -2.523327e-01 -1.511673e-01 -7.389060e-01 1.003894e+00 -7.453208e-01 4.611445e-02 -8.873641e-01 -2.424988e-01 -4.160968e-01 -1.996293e-01 9.375133e-02 -4.181696e-02 5.740578e-02 -5.789228e-02 1.769845e-01 -8.201473e-02 -5.269498e-02 1.991224e-01 -5.059623e-02
<VARIANCE> 39
 2.635549e+01 4.228754e+01 6.646667e+01 2.970409e+01 7.693948e+01 7.486000e+01 4.589135e+01 4.856383e+01 4.547462e+01 2.576143e+01 2.908198e+01 2.202193e+01 1.410268e+01 6.522581e+00 4.632852e+00 3.328146e+00 2.505585e+00 4.342786e+00 3.704254e+00 3.524787e+00 2.763594e+00 3.576826e+00 2.585624e+00 2.302987e+00 2.400584e+00 1.531931e+00 5.484344e-01 8.585355e-01 4.599065e-01 4.201865e-01 1.177484e+00 4.973354e-01 6.505286e-01 5.917020e-01 5.482739e-01 5.325884e-01 5.397369e-01 3.592861e-01 2.763977e-01
<GCONST> 1.257243e+02
<TRANSP> 5
 0.000000e+00 1.000000e+00 0.000000e+00 0.000000e+00 0.000000e+00
 0.000000e+00 7.435905e-01 2.564095e-01 0.000000e+00 0.000000e+00
 0.000000e+00 0.000000e+00 8.243380e-01 1.756620e-01 0.000000e+00
 0.000000e+00 0.000000e+00 0.000000e+00 7.993890e-01 2.006110e-01
 0.000000e+00 0.000000e+00 0.000000e+00 0.000000e+00 0.000000e+00
<ENDHMM>
~o
<STREAMINFO> 1 39
<VECSIZE> 39<NULLD><MFCC_D_A_Z><DIAGC>
~h "d"
<BEGINHMM>
<NUMSTATES> 5
<STATE> 2
<MEAN> 39
 6.212723e+00 5.066781e+00 2.899091e+00 -2.773219e-01 2.906632e+00 3.794643e+00 -2.833278e+00 -5.215666e+00 -1.154732e-01 4.012060e-01 -1.026764e+00 -1.776754e+00 2.182115e-01 8.205459e-01 1.347206e+00 9.401271e-01 1.157309e+00 1.934334e+00 -1.040305e+00 8.946601e-01 9.700209e-01 -4.096853e-01 9.723337e-01 -9.338046e-01 -5.903944e-02 -5.592261e-01 -3.537440e-01 -1.762633e-01 -1.536576e-01 8.999894e-02 -2.342776e-01 -4.375126e-01 -9.900160e-02 6.092051e-02 -6.189511e-03 -1.318420e-01 1.830856e-01 1.891771e-01 -9.301561e-02
<VARIANCE> 39
 1.970610e+01 2.089676e+01 3.566949e+01 8.549364e+01 4.604089e+01 8.480766e+01 7.561524e+01 5.725771e+01 4.620806e+01 3.738544e+01 6.058192e+01 2.883730e+01 2.952776e+01 2.532620e+00 2.065145e+00 2.570173e+00 3.369837e+00 5.927716e+00 5.778028e+00 5.159864e+00 6.337508e+00 3.532582e+00 2.945282e+00 3.223711e+00 2.353705e+00 2.447990e+00 5.231823e-01 5.190587e-01 4.236856e-01 5.118160e-01 1.080946e+00 7.585163e-01 1.048294e+00 1.000215e+00 6.526858e-01 5.921447e-01 8.404074e-01 4.565499e-01 5.163710e-01
<GCONST> 1.312146e+02
<STATE> 3
<MEAN> 39
 6.087260e+00 1.015123e+01 4.771845e+00 7.934818e+00 9.115704e+00 -4.921389e+00 1.414500e-01 -1.404860e+00 -1.073374e+00 3.155003e+00 -3.491736e+00 -1.033564e+00 -2.292864e+00 -1.284063e+00 -7.747276e-01 1.860482e-01 2.485499e-01 2.005734e-01 -1.042836e+00 7.979919e-02 1.941678e-01 -2.373200e-01 -3.532375e-01 1.263804e-01 4.338230e-01 8.927959e-02 -3.807654e-01 -9.095522e-01 -1.063560e-01 -5.374421e-01 -1.164124e+00 3.108514e-01 -4.122738e-01 -3.698316e-01 1.469813e-01 -4.411069e-01 3.503379e-01 -3.893218e-02 3.373402e-01
<VARIANCE> 39
 1.607083e+01 2.159181e+01 2.012296e+01 3.786296e+01 2.156508e+01 3.795345e+01 2.561544e+01 2.694738e+01 3.049351e+01 2.050363e+01 2.204235e+01 1.973290e+01 1.784781e+01 2.247222e+00 4.787661e+00 2.027757e+00 4.023045e+00 4.930984e+00 5.173295e+00 4.280715e+00 3.263016e+00 3.430183e+00 3.257750e+00 2.819342e+00 1.979724e+00 2.531603e+00 3.449371e-01 4.298196e-01 4.797702e-01 5.384027e-01 1.229385e+00 6.559218e-01 8.918039e-01 7.969442e-01 7.839065e-01 5.164191e-01 5.586105e-01 3.927376e-01 3.838311e-01
<GCONST> 1.210168e+02
<STATE> 4
<MEAN> 39
 4.395376e-01 -4.700719e-01 3.273504e+00 1.930916e+00 -1.223876e+00 -4.166495e+00 -4.081563e+00 -4.023412e+00 1.011769e+00 -9.379486e-01 -2.896076e-01 -3.008055e-01 9.164308e-01 -3.201047e-01 -1.357353e+00 -3.688653e-01 -1.017288e+00 -3.542111e+00 8.830209e-01 -1.198081e+00 -7.382998e-01 3.256603e-01 -5.497088e-01 1.153122e+00 -9.781291e-02 3.022556e-01 4.578997e-01 4.843082e-01 -2.184651e-02 -5.347952e-02 5.383962e-02 5.961270e-01 1.717380e-01 3.775572e-02 -1.438677e-01 1.119882e-01 -5.137274e-02 -1.552675e-01 -1.939341e-01
<VARIANCE> 39
 1.605604e+01 2.345527e+01 4.965290e+01 7.087185e+01 9.531998e+01 8.830281e+01 7.849640e+01 5.909987e+01 6.883408e+01 3.747028e+01 3.644936e+01 2.546513e+01 2.346094e+01 2.112779e+00 3.860844e+00 5.198160e+00 5.022161e+00 7.870079e+00 6.519356e+00 5.596664e+00 8.811669e+00 7.393271e+00 3.588695e+00 3.783718e+00 3.304647e+00 2.644011e+00 3.365375e-01 5.430964e-01 5.818434e-01 5.456843e-01 1.779392e+00 9.287627e-01 1.241791e+00 1.248563e+00 9.038824e-01 7.278340e-01 6.711823e-01 5.258154e-01 4.588815e-01
<GCONST> 1.369272e+02
<TRANSP> 5
 0.000000e+00 1.000000e+00 0.000000e+00 0.000000e+00 0.000000e+00
 0.000000e+00 6.160963e-01 3.839038e-01 0.000000e+00 0.000000e+00
 0.000000e+00 0.000000e+00 6.794977e-01 3.205023e-01 0.000000e+00
 0.000000e+00 0.000000e+00 0.000000e+00 7.135697e-01 2.864304e-01
 0.000000e+00 0.000000e+00 0.000000e+00 0.000000e+00 0.000000e+00
<ENDHMM>
~o
<STREAMINFO> 1 39
<VECSIZE> 39<NULLD><MFCC_D_A_Z><DIAGC>
~h "dh"
<BEGINHMM>
<NUMSTATES> 5
<STATE> 2
<MEAN> 39
 7.673268e+00 8.931176e+00 3.636876e+00 3.417320e-01 6.539035e+00 3.153950e+00 -3.242602e+00 -4.036890e+00 -1.660252e+00 7.923640e-01 -1.033892e-01 -9.262438e-01 -2.497639e+00 -4.649235e-01 3.230076e-01 7.438383e-01 1.423684e+00 1.766342e+00 -1.375340e+00 1.343829e+00 1.381382e+00 -3.373230e-01 9.321094e-01 -7.178553e-01 2.534794e-01 -2.070948e-01 -6.024677e-01 -5.419011e-01 -2.370816e-01 -2.182832e-01 -2.736281e-01 -2.052463e-01 4.098543e-02 1.974387e-01 1.448725e-01 -1.430257e-01 4.307672e-02 1.257976e-01 2.569056e-01
<VARIANCE> 39
 1.633892e+01 2.925819e+01 2.483130e+01 7.619613e+01 3.835875e+01 6.847794e+01 5.041245e+01 3.779847e+01 3.914828e+01 3.605765e+01 4.282043e+01 2.479821e+01 2.589534e+01 4.431958e+00 4.450891e+00 2.371895e+00 3.580603e+00 4.200121e+00 5.177215e+00 4.492989e+00 5.386312e+00 3.073853e+00 2.959705e+00 3.056477e+00 2.376714e+00 2.269613e+00 5.056010e-01 6.395391e-01 3.956915e-01 6.541154e-01 7.328433e-01 7.321209e-01 9.185183e-01 8.237147e-01 5.724777e-01 5.186356e-01 6.831991e-01 4.565542e-01 4.696509e-01
<GCONST> 1.281729e+02
<STATE> 3
<MEAN> 39
 -2.582401e+00 2.635314e+00 4.799435e+00 4.244367e+00 9.666464e+00 -6.048540e+00 2.822026e+00 3.377626e+00 -1.095297e+00 2.721835e+00 -2.721018e+00 1.579207e+00 1.670431e+00 -7.803637e-01 -3.744606e-01 -6.089379e-01 -2.909433e-01 -9.413740e-01 -5.036519e-01 -4.124511e-01 4.079094e-01 2.890994e-01 5.004948e-01 -9.443278e-02 -5.453566e-02 1.329043e+00 8.454907e-01 5.795051e-01 -2.035572e-01 -2.098735e-01 -6.128950e-01 8.510284e-01 -4.364493e-01 -5.753990e-01 -3.276617e-02 -2.489956e-02 1.547762e-01 -3.276246e-01 -1.226918e-01
<VARIANCE> 39
 2.028710e+01 3.561465e+01 3.444313e+01 3.600015e+01 3.889113e+01 3.977018e+01 5.018432e+01 3.617291e+01 3.489883e+01 2.727393e+01 2.238776e+01 2.083477e+01 2.434272e+01 5.470793e+00 6.824038e+00 5.042764e+00 4.502920e+00 5.202640e+00 6.831956e+00 4.891848e+00 6.840463e+00 5.619868e+00 3.340742e+00 3.127416e+00 3.279268e+00 2.882753e+00 5.748891e-01 9.321162e-01 7.704492e-01 6.812322e-01 8.566222e-01 9.893574e-01 9.816920e-01 1.151035e+00 8.273417e-01 6.738790e-01 5.462385e-01 5.977629e-01 5.875099e-01
<GCONST> 1.330221e+02
<STATE> 4
<MEAN> 39
 2.806651e+00 4.304728e+00 -1.397258e+00 -2.715024e+00 2.643344e+00 3.638675e+00 -1.172988e+00 1.422210e+00 7.767293e-01 1.797814e+00 -1.037640e+00 -1.932154e+00 3.330797e+00 5.976840e-01 -3.825758e-01 -7.107171e-01 -9.174960e-01 -1.340359e+00 9.328976e-01 -2.027135e-01 -3.516392e-01 1.723840e-03 -7.081100e-01 5.878081e-01 -2.050812e-01 -3.302545e-01 -7.761974e-02 -2.731587e-01 1.155887e-01 1.075684e-01 1.963333e-02 -2.223027e-01 -2.342875e-02 -5.646875e-02 -2.070556e-04 -8.549539e-02 6.946786e-02 8.970016e-02 -1.654232e-01
<VARIANCE> 39
 1.227890e+01 3.799027e+01 5.577205e+01 6.878616e+01 7.645802e+01 9.008768e+01 4.783924e+01 7.004568e+01 6.777023e+01 3.526979e+01 4.132372e+01 4.293364e+01 2.166537e+01 7.879923e-01 2.354569e+00 1.800040e+00 1.941803e+00 3.356031e+00 3.707581e+00 3.336788e+00 3.315459e+00 2.798686e+00 2.799797e+00 2.586584e+00 2.497779e+00 1.910764e+00 1.359304e-01 3.846393e-01 3.985983e-01 3.736100e-01 5.969780e-01 5.619839e-01 6.523382e-01 6.559110e-01 5.605907e-01 5.909076e-01 4.719659e-01 4.525344e-01 3.626857e-01
<GCONST> 1.222721e+02
<TRANSP> 5
 0.000000e+00 1.000000e+00 0.000000e+00 0.000000e+00 0.000000e+00
 0.000000e+00 7.908720e-01 2.091279e-01 0.000000e+00 0.000000e+00
 0.000000e+00 0.000000e+00 7.368507e-01 2.631494e-01 0.000000e+00
 0.000000e+00 0.000000e+00 0.000000e+00 8.536513e-01 1.463487e-01
 0.000000e+00 0.000000e+00 0.000000e+00 0.000000e+00 0.000000e+00
<ENDHMM>
~o
<STREAMINFO> 1 39
<VECSIZE> 39<NULLD><MFCC_D_A_Z><DIAGC>
~h "dx"
<BEGINHMM>
<NUMSTATES> 5
<STATE> 2
<MEAN> 39
 8.216066e+00 3.185420e+00 2.727362e+00 7.494339e+00 2.394644e+00 -1.764283e+00 -1.360918e+00 -2.072020e+00 -6.869591e-01 2.003715e+00 -5.403418e+00 -2.002824e+00 1.462906e+00 2.381379e-01 1.300486e+00 4.905175e-01 1.082630e+00 2.192441e+00 -1.240597e+00 3.365228e-01 6.238795e-01 5.081081e-01 5.877679e-01 -6.973110e-01 1.254970e-01 -4.033412e-01 -5.565708e-01 -2.861777e-01 3.204518e-02 -3.206574e-01 -5.218475e-01 -8.602781e-02 -1.627089e-01 -6.394199e-02 -1.084595e-01 -3.187599e-01 4.658068e-01 1.579951e-01 -5.489225e-02
<VARIANCE> 39
 2.347486e+01 3.228336e+01 6.494364e+01 3.862533e+01 7.052608e+01 8.074978e+01 6.471655e+01 8.877208e+01 5.529050e+01 4.075951e+01 5.492572e+01 3.088202e+01 3.599855e+01 3.008366e+00 2.752662e+00 3.071616e+00 2.638012e+00 7.206085e+00 4.824391e+00 5.178306e+00 7.572349e+00 4.589204e+00 3.879151e+00 4.144879e+00 2.876388e+00 2.934341e+00 4.906490e-01 5.807614e-01 4.607560e-01 5.333672e-01 1.559971e+00 8.026346e-01 9.553378e-01 1.140051e+00 9.866316e-01 8.049691e-01 1.153026e+00 5.336004e-01 6.364224e-01
<GCONST> 1.365198e+02
<STATE> 3
<MEAN> 39
 1.338737e+00 6.037093e+00 5.179145e+00 8.966813e+00 7.438498e+00 -7.318467e+00 2.345281e+00 3.231979e-01 -2.783816e+00 1.089292e+00 -4.530621e+00 9.925274e-01 3.965845e-02 -1.928540e+00 -1.132523e+00 3.753046e-01 -8.115919e-01 -8.744889e-01 -7.418311e-01 1.620311e-02 2.135943e-02 -4.582680e-01 -5.849842e-01 9.299874e-01 5.735354e-01 -2.664908e-01 1.737331e-01 -5.038788e-01 4.126731e-02 -3.016167e-01 -1.059561e+00 3.845805e-01 -3.938094e-01 -2.832728e-01 1.159005e-01 -1.019681e-01 2.578630e-01 -2.047882e-01 1.159603e-01
<VARIANCE> 39
 5.301741e+01 3.536235e+01 3.077781e+01 3.601060e+01 3.354827e+01 4.809279e+01 4.491240e+01 4.193792e+01 3.746644e+01 2.456148e+01 2.444560e+01 2.178108e+01 2.061179e+01 4.451962e+00 4.205797e+00 4.772230e+00 3.545951e+00 8.184908e+00 6.456402e+00 5.649243e+00 7.227951e+00 4.856750e+00 3.323768e+00 4.207469e+00 2.556129e+00 2.745236e+00 1.132312e+00 7.166047e-01 6.328602e-01 7.322518e-01 1.139697e+00 1.032976e+00 9.595017e-01 1.000828e+00 8.166152e-01 5.712003e-01 6.499328e-01 4.793046e-01 4.295393e-01
<GCONST> 1.332517e+02
<STATE> 4
<MEAN> 39
 1.442719e+00 -2.078861e+00 4.378668e+00 2.564592e+00 -5.370968e+00 -5.000118e+00 -4.851130e+00 -1.472570e+00 2.404126e-01 -2.370097e-01 1.005443e-01 3.465229e-01 7.865851e-01 1.445678e-01 -9.010873e-01 -3.034063e-01 -1.156512e+00 -2.525336e+00 1.445514e+00 -9.096431e-01 8.541907e-02 5.895134e-01 -1.199033e-01 1.225356e+00 -5.827022e-01 -1.071838e-01 2.756408e-01 4.687144e-01 -2.718030e-01 8.618087e-02 6.318271e-01 5.181036e-01 4.562986e-01 -8.319993e-02 -1.115969e-01 1.149800e-01 -3.822678e-01 -1.783203e-01 2.640134e-02
<VARIANCE> 39
 2.355927e+01 3.714798e+01 7.907537e+01 4.160993e+01 8.559473e+01 9.543449e+01 8.018171e+01 1.001833e+02 7.180604e+01 3.715129e+01 4.653196e+01 3.192918e+01 2.653455e+01 3.251856e+00 4.190166e+00 4.027343e+00 4.366450e+00 8.735126e+00 6.177775e+00 6.639929e+00 7.076504e+00 5.818145e+00 3.908918e+00 5.453526e+00 4.129785e+00 2.553491e+00 5.106764e-01 4.877726e-01 5.778248e-01 5.345485e-01 1.206973e+00 1.100798e+00 1.096889e+00 1.362525e+00 8.908345e-01 7.940575e-01 9.227884e-01 6.600006e-01 5.323520e-01
<GCONST> 1.401629e+02
<TRANSP> 5
 0.000000e+00 1.000000e+00 0.000000e+00 0.000000e+00 0.000000e+00
 0.000000e+00 7.085539e-01 2.914462e-01 0.000000e+00 0.000000e+00
 0.000000e+00 0.000000e+00 6.785220e-01 3.214780e-01 0.000000e+00
 0.000000e+00 0.000000e+00 0.000000e+00 6.402652e-01 3.597348e-01
 0.000000e+00 0.000000e+00 0.000000e+00 0.000000e+00 0.000000e+00
<ENDHMM>
~o
<STREAMINFO> 1 39
<VECSIZE> 39<NULLD><MFCC_D_A_Z><DIAGC>
~h "dxh"
<BEGINHMM>
<NUMSTATES> 5
<STATE> 2
<MEAN> 39
 6.685781e+00 4.393879e+00 5.041829e+00 9.192655e+00 3.228142e+00 -4.962383e+00 -9.142402e-01 -7.335739e-03 -9.793405e-01 1.362931e+00 -4.625504e+00 -1.651057e+00 1.407221e+00 -2.511688e-01 6.674447e-01 -1.061777e-01 5.168673e-01 1.236734e+00 -1.994748e-01 6.277324e-01 -5.451076e-03 5.086231e-01 2.892528e-01 -4.641459e-01 4.202296e-01 -2.095098e-01 -7.040107e-01 -4.375032e-01 -1.616487e-01 -4.975307e-01 -2.858244e-01 1.061252e-01 -1.802845e-02 1.441962e-01 4.034584e-02 -9.368433e-02 2.439345e-01 1.972543e-01 8.325873e-02
<VARIANCE> 39
 2.565228e+01 3.857092e+01 6.746054e+01 4.063625e+01 6.508762e+01 6.288441e+01 4.973396e+01 6.050797e+01 3.829084e+01 3.578220e+01 3.662731e+01 2.285813e+01 2.640878e+01 7.548431e+00 5.182941e+00 3.401915e+00 4.604105e+00 7.410234e+00 4.865396e+00 4.796460e+00 5.564732e+00 4.335336e+00 3.833478e+00 3.696274e+00 3.420742e+00 2.667642e+00 7.822440e-01 7.485794e-01 4.933280e-01 6.219732e-01 1.225277e+00 8.679732e-01 8.488244e-01 1.013814e+00 7.595093e-01 6.881645e-01 7.390741e-01 5.381438e-01 5.534524e-01
<GCONST> 1.356922e+02
<STATE> 3
<MEAN> 39
 -3.404233e+00 -1.458177e+00 2.549000e+00 3.806162e+00 6.868715e+00 -1.280044e+00 2.827415e+00 3.783402e+00 1.696521e+00 3.334109e+00 -3.447692e+00 1.327598e+00 2.860352e+00 -1.710098e-01 -3.587384e-01 -4.607604e-01 -8.029166e-01 9.896183e-02 1.306557e+00 -1.158362e-01 -1.021610e-01 -7.642338e-02 6.389911e-01 5.605148e-01 -3.681731e-01 4.605068e-01 7.987855e-01 4.263695e-01 4.979020e-03 5.327151e-02 -2.635583e-01 1.991272e-01 -1.773046e-01 -3.013678e-01 -3.276950e-01 -1.158468e-01 8.491281e-02 -2.703116e-01 -2.503914e-02
<VARIANCE> 39
 3.107600e+01 3.949635e+01 4.421554e+01 3.106655e+01 6.315617e+01 7.920293e+01 6.809256e+01 8.353699e+01 4.862236e+01 4.041699e+01 4.560486e+01 3.985226e+01 3.214647e+01 6.796575e+00 4.643390e+00 3.464413e+00 3.124694e+00 6.300054e+00 6.664022e+00 5.703085e+00 7.955180e+00 5.051897e+00 4.373740e+00 4.736075e+00 4.176150e+00 3.401029e+00 9.551452e-01 5.414150e-01 4.996090e-01 5.988209e-01 1.022440e+00 1.268365e+00 1.173455e+00 1.238710e+00 9.578394e-01 1.050570e+00 8.418211e-01 9.015697e-01 6.769391e-01
<GCONST> 1.405357e+02
<STATE> 4
<MEAN> 39
 3.721692e+00 2.338408e+00 -1.979136e+00 -2.489950e+00 1.449240e+00 6.377023e+00 8.307273e-01 5.676126e-02 -1.401639e+00 4.367836e-01 7.844592e-01 -2.008168e+00 3.903406e+00 1.004731e+00 5.313671e-02 -7.614291e-01 -1.587950e+00 -2.237121e+00 8.997163e-01 -2.636965e-01 -2.344963e-01 -1.745910e-01 -1.674442e+00 4.181928e-01 -4.830688e-01 -1.230790e-01 -2.446268e-01 -2.876591e-01 1.733208e-01 9.022108e-02 -6.456894e-02 -2.448564e-01 -7.325584e-02 1.809914e-01 2.862322e-01 4.046988e-02 -2.333476e-01 -1.008874e-01 -1.311292e-01
<VARIANCE> 39
 1.525124e+01 5.999055e+01 7.473916e+01 6.991974e+01 1.001419e+02 6.066162e+01 3.079802e+01 5.037617e+01 8.387531e+01 3.884602e+01 3.273850e+01 4.098983e+01 2.221086e+01 9.266865e-01 2.309154e+00 1.826927e+00 2.359032e+00 2.441965e+00 2.672966e+00 3.228051e+00 3.294343e+00 4.856196e+00 2.733576e+00 3.265170e+00 2.500565e+00 2.999092e+00 1.454156e-01 3.096670e-01 3.611261e-01 3.552217e-01 6.351907e-01 4.025539e-01 4.895790e-01 6.367138e-01 6.560946e-01 8.287742e-01 5.871556e-01 5.231146e-01 4.388774e-01
<GCONST> 1.234568e+02
<TRANSP> 5
 0.000000e+00 1.000000e+00 0.000000e+00 0.000000e+00 0.000000e+00
 0.000000e+00 8.421005e-01 1.578996e-01 0.000000e+00 0.000000e+00
 0.000000e+00 0.000000e+00 8.338542e-01 1.661458e-01 0.000000e+00
 0.000000e+00 0.000000e+00 0.000000e+00 8.182716e-01 1.817284e-01
 0.000000e+00 0.000000e+00 0.000000e+00 0.000000e+00 0.000000e+00
<ENDHMM>
~o
<STREAMINFO> 1 39
<VECSIZE> 39<NULLD><MFCC_D_A_Z><DIAGC>
~h "dxq"
<BEGINHMM>
<NUMSTATES> 5
<STATE> 2
<MEAN> 39
 7.972957e+00 -5.365593e-02 -5.191838e+00 -5.746437e+00 -1.485450e+01 8.958910e+00 8.450159e-01 -3.424985e+00 -1.390577e+00 -2.007765e+00 9.837138e-01 -7.735206e-02 3.026696e+00 3.611357e-01 -5.501825e-01 -1.304192e+00 2.008542e+00 2.883942e+00 -1.865149e+00 -9.762911e-01 1.201634e+00 -2.567793e+00 5.112025e-01 1.222601e+00 1.753418e-02 2.134633e-01 -1.335893e-01 -2.855033e-02 3.360924e-02 7.564286e-02 1.202021e+00 -2.642396e-01 -8.790763e-01 1.890061e-01 4.118668e-01 -2.143496e-01 1.183649e-01 -5.505001e-02 -2.905187e-01
<VARIANCE> 39
 9.886009e+00 5.474517e+01 3.528818e+01 9.685486e+01 8.776792e+01 9.230981e+01 6.551447e+01 7.920969e+01 1.104300e+02 5.009853e+01 7.486411e+01 3.428923e+01 3.541763e+01 7.948992e-01 3.320362e+00 2.781376e+00 4.082038e+00 1.396662e+01 5.287809e+00 1.002041e+01 6.635365e+00 9.820811e+00 4.688527e+00 5.805911e+00 2.968707e+00 3.630630e+00 2.095258e-01 3.228422e-01 5.466568e-01 1.025403e+00 2.247688e+00 1.487343e+00 1.554672e+00 1.729694e+00 3.305757e+00 1.087341e+00 1.356581e+00 5.362625e-01 6.949555e-01
<GCONST> 1.430844e+02
<STATE> 3
<MEAN> 39
 8.538957e+00 -2.628759e+00 -8.302446e+00 2.099365e+00 5.291135e+00 1.087921e+00 -1.111760e+01 1.371207e+00 -2.261390e+00 -7.641586e-01 2.504771e+00 -9.801133e-01 5.567284e-01 -1.037133e+00 9.191946e-02 1.348859e+00 3.586911e-01 1.751567e+00 -1.115472e+00 -2.551082e+00 -4.629604e-01 2.473055e+00 -5.606884e-01 -3.462610e-01 -4.451471e-01 -2.674459e-02 -5.648836e-01 3.264020e-03 8.559338e-01 -7.799754e-01 -2.312750e+00 6.330436e-01 1.018697e+00 -6.114227e-01 6.572902e-01 -2.709790e-01 -1.018076e-01 -2.023316e-01 8.020729e-02
<VARIANCE> 39
 1.333238e+01 2.491482e+01 5.882959e+01 5.993520e+01 6.563540e+01 7.800375e+01 8.299509e+01 7.828604e+01 7.758789e+01 5.065844e+01 6.380760e+01 3.577145e+01 3.023600e+01 1.835404e+00 2.830227e+00 5.382774e+00 3.442131e+00 2.146543e+01 6.356900e+00 1.025308e+01 8.107342e+00 1.216441e+01 5.900729e+00 6.035425e+00 4.154607e+00 4.008551e+00 2.150510e-01 3.884215e-01 7.708840e-01 4.670539e-01 1.878171e+00 1.006413e+00 1.884675e+00 1.690549e+00 2.554440e+00 1.091872e+00 1.411929e+00 7.478009e-01 7.608513e-01
<GCONST> 1.442747e+02
<STATE> 4
<MEAN> 39
 2.401474e+00 -2.054950e+00 -1.357988e+00 -4.439900e-01 -3.996828e+00 -4.159197e-01 -8.508746e+00 -2.112070e-01 3.732872e+00 -2.459055e+00 2.868565e+00 -2.296621e+00 1.141714e+00 -9.769938e-01 8.999801e-02 1.161965e+00 -2.567453e-01 -1.634448e+00 -1.668146e-01 1.371745e+00 -7.507999e-02 -6.291465e-02 -1.424441e-01 -8.247733e-03 -4.969364e-02 -3.146834e-01 1.780186e-01 -4.335468e-02 -2.093135e-01 1.095882e-01 2.442324e-01 1.341579e-01 3.557755e-01 1.062406e-01 -4.552198e-01 2.103829e-01 -1.371510e-01 5.465031e-02 -1.036946e-01
<VARIANCE> 39
 1.888012e+01 3.858752e+01 7.380372e+01 8.865155e+01 9.730417e+01 8.823883e+01 7.689388e+01 6.675076e+01 1.093063e+02 5.251065e+01 4.135106e+01 4.562133e+01 2.922178e+01 1.829705e+00 1.681134e+00 3.476163e+00 2.475806e+00 7.154865e+00 4.205716e+00 4.699287e+00 5.531439e+00 6.320190e+00 3.942498e+00 4.460745e+00 3.291026e+00 2.470655e+00 2.789955e-01 2.730321e-01 3.590168e-01 3.919418e-01 1.241162e+00 6.938686e-01 1.081064e+00 8.511123e-01 1.274525e+00 7.548221e-01 7.885929e-01 5.799071e-01 5.190856e-01
<GCONST> 1.347277e+02
<TRANSP> 5
 0.000000e+00 1.000000e+00 0.000000e+00 0.000000e+00 0.000000e+00
 0.000000e+00 6.099602e-01 3.900398e-01 0.000000e+00 0.000000e+00
 0.000000e+00 0.000000e+00 5.848309e-01 4.151690e-01 0.000000e+00
 0.000000e+00 0.000000e+00 0.000000e+00 7.571779e-01 2.428221e-01
 0.000000e+00 0.000000e+00 0.000000e+00 0.000000e+00 0.000000e+00
<ENDHMM>
~o
<STREAMINFO> 1 39
<VECSIZE> 39<NULLD><MFCC_D_A_Z><DIAGC>
~h "ee"
<BEGINHMM>
<NUMSTATES> 5
<STATE> 2
<MEAN> 39
 1.280689e+00 -6.294991e+00 1.085996e+01 2.607133e+00 -1.632598e+01 -9.531318e+00 -4.436006e+00 4.118229e+00 -4.262704e+00 -1.851858e+00 6.917469e+00 -2.981465e-01 2.138961e+00 5.373988e-02 -2.086494e-01 2.205251e-01 -1.116198e-01 -6.932030e-01 -2.124528e-01 -5.159795e-02 4.341910e-01 -1.250129e-01 -2.283133e-01 4.586194e-01 -5.458639e-03 6.327854e-02 -2.285139e-02 3.103473e-01 -2.893465e-01 1.024247e-01 8.867403e-01 1.695029e-01 2.267722e-01 -2.889445e-01 8.480129e-02 2.187373e-01 -4.649966e-01 -6.837809e-02 1.214924e-02
<VARIANCE> 39
 9.072812e+00 1.582393e+01 3.677134e+01 1.883912e+01 2.554588e+01 2.440560e+01 3.698306e+01 4.085310e+01 3.717665e+01 2.098180e+01 2.180046e+01 1.689175e+01 1.561701e+01 8.463390e-01 1.360044e+00 2.016913e+00 1.139164e+00 4.353866e+00 1.825736e+00 3.508310e+00 3.012243e+00 2.804620e+00 1.735338e+00 2.510203e+00 1.504425e+00 1.368117e+00 2.662395e-01 2.679414e-01 3.004010e-01 2.271388e-01 6.110051e-01 4.202750e-01 5.948339e-01 7.795342e-01 4.276276e-01 3.211190e-01 4.034562e-01 3.390570e-01 2.941307e-01
<GCONST> 1.082333e+02
<STATE> 3
<MEAN> 39
 2.630381e+00 -7.380851e+00 6.476410e+00 2.333078e+00 -1.221583e+01 -8.560667e+00 -5.636676e+00 6.871351e+00 -1.154690e-01 -3.549883e+00 2.622457e+00 -2.209954e+00 4.631924e+00 4.600778e-01 1.152767e+00 -5.563800e-01 4.870356e-01 2.517684e+00 6.636409e-02 6.367741e-01 -6.711218e-01 2.397945e-01 7.764224e-01 -1.398546e+00 -2.297333e-01 1.113159e-01 -1.214976e-01 5.819919e-01 -9.293553e-02 8.899449e-02 6.593368e-01 2.589149e-01 5.129102e-01 -5.477736e-01 -1.730401e-01 4.323677e-01 -1.578830e-01 1.525647e-01 -3.629814e-01
<VARIANCE> 39
 8.912411e+00 2.969169e+01 4.827046e+01 2.941250e+01 3.327019e+01 4.592456e+01 5.961060e+01 5.938757e+01 6.607251e+01 3.588837e+01 3.481547e+01 2.661326e+01 2.343990e+01 1.154013e+00 2.285433e+00 2.040050e+00 1.683967e+00 5.092762e+00 3.757937e+00 5.083252e+00 3.897931e+00 3.598011e+00 3.129387e+00 3.694274e+00 2.454705e+00 2.086048e+00 2.825250e-01 2.941130e-01 3.384585e-01 2.872981e-01 6.163892e-01 6.525075e-01 6.952200e-01 1.075876e+00 7.803457e-01 5.167015e-01 5.871794e-01 4.732156e-01 3.589669e-01
<GCONST> 1.220447e+02
<STATE> 4
<MEAN> 39
 -1.755856e+00 2.774946e-02 2.974482e+00 4.805884e+00 1.460924e-01 -8.495854e+00 3.892950e+00 5.758395e+00 -1.445277e+00 2.748186e+00 2.975711e-02 2.220722e+00 1.627944e+00 -5.326385e-01 6.159856e-01 -6.916696e-01 1.799701e-01 1.496385e+00 5.088471e-01 5.776548e-01 -3.758376e-01 1.103979e-01 3.301429e-01 -5.229802e-01 2.310278e-01 -2.865122e-01 -1.499629e-01 -1.800135e-01 -7.948173e-03 -1.239694e-01 -1.737017e-01 1.428185e-01 -9.890313e-02 -5.292821e-02 -3.807190e-02 -1.102783e-01 1.356140e-01 -1.071377e-02 -1.113969e-02
<VARIANCE> 39
 3.629492e+01 2.999682e+01 5.340786e+01 2.675963e+01 6.639840e+01 4.177807e+01 5.549279e+01 4.874121e+01 3.850744e+01 3.135629e+01 3.565330e+01 2.673676e+01 2.250633e+01 2.663126e+00 2.999418e+00 2.248357e+00 1.943598e+00 4.557711e+00 3.207473e+00 3.923689e+00 4.406613e+00 2.789059e+00 2.813606e+00 2.861126e+00 2.225598e+00 1.825930e+00 3.694676e-01 4.007654e-01 3.165996e-01 3.498360e-01 5.631785e-01 5.042059e-01 5.995091e-01 5.731039e-01 5.064766e-01 4.716596e-01 5.327016e-01 3.868550e-01 3.610679e-01
<GCONST> 1.219665e+02
<TRANSP> 5
 0.000000e+00 1.000000e+00 0.000000e+00 0.000000e+00 0.000000e+00
 0.000000e+00 7.895032e-01 2.104968e-01 0.000000e+00 0.000000e+00
 0.000000e+00 0.000000e+00 5.337952e-01 4.662048e-01 0.000000e+00
 0.000000e+00 0.000000e+00 0.000000e+00 7.743567e-01 2.256432e-01
 0.000000e+00 0.000000e+00 0.000000e+00 0.000000e+00 0.000000e+00
<ENDHMM>
~o
<STREAMINFO> 1 39
<VECSIZE> 39<NULLD><MFCC_D_A_Z><DIAGC>
~h "ei"
<BEGINHMM>
<NUMSTATES> 5
<STATE> 2
<MEAN> 39
 6.473318e+00 1.941497e+00 -1.338508e+00 -8.333321e+00 -9.628327e+00 1.369110e+01 -1.123497e+01 -9.923357e+00 -2.754877e+00 -4.140394e-01 3.061790e+00 3.987255e+00 -6.673901e-01 3.760419e-01 -7.813706e-01 -2.435505e-01 6.451942e-01 -1.175559e+00 9.956611e-01 -2.488127e+00 -1.119952e+00 -4.096088e-01 8.323276e-01 1.474338e+00 -6.481363e-01 -4.607604e-01 -4.422501e-01 -2.476372e-01 3.328776e-01 9.802417e-01 6.587235e-01 -1.278193e+00 2.459834e-01 7.177811e-01 1.702825e-01 2.668985e-02 -3.605904e-01 -5.070071e-01 6.694142e-02
<VARIANCE> 39
 9.996858e+00 2.343498e+01 1.749220e+01 5.194488e+01 4.303633e+01 5.761120e+01 3.778482e+01 4.841447e+01 4.257386e+01 4.788657e+01 4.469329e+01 2.753199e+01 2.302572e+01 2.607669e+00 2.643265e+00 1.763347e+00 8.495679e+00 7.863290e+00 1.190552e+01 3.408815e+00 6.385893e+00 4.777641e+00 4.384584e+00 4.151420e+00 4.969746e+00 3.018129e+00 3.111106e-01 3.871493e-01 4.319142e-01 8.302060e-01 1.041495e+00 1.259416e+00 7.369946e-01 1.180278e+00 1.118966e+00 1.146634e+00 1.184142e+00 6.470967e-01 7.064351e-01
<GCONST> 1.332006e+02
<STATE> 3
<MEAN> 39
 3.830711e+00 -4.845241e+00 2.331447e+00 4.713727e+00 -8.824588e+00 1.995618e+00 -2.015470e+01 -5.637286e+00 2.383148e-01 1.716424e+00 2.284934e+00 -4.722377e+00 -2.482817e-01 -1.165262e+00 -7.897081e-01 2.731885e+00 3.231852e+00 -1.239322e+00 -4.757343e+00 9.136615e-01 3.456586e+00 1.741418e-01 -2.862679e+00 -1.577822e+00 -4.232163e-01 1.324871e+00 -8.516848e-02 5.393132e-01 4.150315e-01 -5.100927e-01 -4.229771e-01 2.323512e-01 1.631143e+00 9.833532e-02 -9.889685e-01 -7.453583e-01 2.668746e-01 8.531255e-01 2.297252e-02
<VARIANCE> 39
 8.581692e+00 8.010278e+00 2.452206e+01 2.789709e+01 1.503843e+01 5.097070e+01 2.350091e+01 5.155892e+01 3.088809e+01 3.924694e+01 2.573808e+01 1.935497e+01 2.165814e+01 3.788196e-01 9.001743e-01 1.176743e+00 2.614801e+00 2.409496e+00 2.699509e+00 6.489809e+00 1.953358e+00 4.564510e+00 3.370705e+00 2.659079e+00 3.802150e+00 1.981050e+00 1.215312e-01 1.479114e-01 3.026547e-01 5.181313e-01 5.268607e-01 1.076231e+00 5.787647e-01 1.210235e+00 5.889663e-01 1.357329e+00 7.471181e-01 4.285276e-01 6.106986e-01
<GCONST> 1.141040e+02
<STATE> 4
<MEAN> 39
 5.791456e-01 -8.205099e-01 1.156647e+01 9.602037e+00 -9.722878e+00 -7.677116e+00 -2.733119e+00 7.513543e-01 -7.873683e+00 -4.408943e+00 1.670705e+00 -2.224847e+00 2.857631e-01 -2.741012e-01 9.712684e-01 2.251970e-01 8.052628e-02 1.740194e+00 -4.795312e-01 2.400143e+00 1.682789e-01 -6.261049e-01 6.102263e-01 -3.116251e-01 2.912264e-01 -2.091040e-01 -2.750275e-02 -5.568826e-02 -5.225655e-01 -3.354076e-01 4.319145e-01 4.707443e-01 -3.476832e-01 -3.270702e-01 3.057053e-01 4.529044e-01 -6.875197e-02 -2.263173e-02 -7.489245e-02
<VARIANCE> 39
 1.732043e+01 2.730500e+01 2.679462e+01 2.710854e+01 8.888284e+01 2.568707e+01 5.952746e+01 3.754615e+01 4.056273e+01 4.092995e+01 2.927949e+01 2.345225e+01 1.891160e+01 2.589894e+00 1.425899e+00 3.854620e+00 1.689013e+00 7.072607e+00 2.813519e+00 5.325293e+00 3.649181e+00 5.619223e+00 4.416109e+00 3.049704e+00 2.678071e+00 1.615766e+00 5.151225e-01 3.978099e-01 3.982104e-01 3.914016e-01 1.448339e+00 6.599509e-01 6.785467e-01 8.775200e-01 8.252150e-01 1.100669e+00 6.049951e-01 4.707147e-01 3.826289e-01
<GCONST> 1.253643e+02
<TRANSP> 5
 0.000000e+00 1.000000e+00 0.000000e+00 0.000000e+00 0.000000e+00
 0.000000e+00 8.148154e-01 1.851846e-01 0.000000e+00 0.000000e+00
 0.000000e+00 0.000000e+00 6.878341e-01 3.121659e-01 0.000000e+00
 0.000000e+00 0.000000e+00 0.000000e+00 8.556160e-01 1.443841e-01
 0.000000e+00 0.000000e+00 0.000000e+00 0.000000e+00 0.000000e+00
<ENDHMM>
~o
<STREAMINFO> 1 39
<VECSIZE> 39<NULLD><MFCC_D_A_Z><DIAGC>
~h "g"
<BEGINHMM>
<NUMSTATES> 5
<STATE> 2
<MEAN> 39
 6.551600e+00 4.357092e+00 2.821628e+00 6.375161e-01 -7.355695e-01 2.494161e+00 1.019229e+00 -1.429600e+00 -6.948978e+00 1.024758e+00 -1.523584e+00 -3.258709e+00 1.181589e+00 4.160094e-01 1.036641e+00 3.370312e-02 7.747197e-01 1.368726e+00 -7.631968e-01 8.201724e-01 2.759605e-01 -8.563882e-01 5.252256e-01 -6.613107e-01 1.325496e-01 -2.478753e-01 -3.236054e-01 -2.442540e-01 -2.038063e-01 -1.381909e-01 -6.341271e-02 -9.594943e-02 -1.578319e-01 -3.259710e-02 2.214160e-01 -6.631922e-02 1.112243e-01 1.021291e-01 -3.922794e-03
<VARIANCE> 39
 2.337129e+01 4.202100e+01 5.694450e+01 8.614942e+01 6.851871e+01 9.483479e+01 6.892985e+01 5.978740e+01 5.233873e+01 4.062756e+01 4.203216e+01 3.126184e+01 2.709095e+01 2.696875e+00 2.645766e+00 3.310422e+00 3.993200e+00 7.175488e+00 5.444565e+00 4.980559e+00 6.834661e+00 5.782669e+00 3.459915e+00 3.684540e+00 3.035366e+00 2.507961e+00 3.996789e-01 5.530596e-01 5.197313e-01 6.318414e-01 1.255322e+00 9.013226e-01 9.626285e-01 1.211997e+00 9.141731e-01 6.602177e-01 8.035800e-01 5.732822e-01 5.062160e-01
<GCONST> 1.360739e+02
<STATE> 3
<MEAN> 39
 3.230175e+00 3.743754e+00 -7.710488e-01 2.907042e+00 7.199682e+00 -2.593385e+00 1.896220e+00 1.915775e+00 -9.628906e+00 4.039830e+00 -4.365561e+00 -1.949107e+00 1.045055e+00 -9.839169e-01 -1.114767e+00 -5.481167e-01 -1.275650e+00 -1.010703e+00 1.762743e-01 -7.218724e-01 1.958760e-02 1.904021e-01 1.489753e-01 4.738644e-01 1.743825e-01 3.589495e-01 2.537712e-01 -1.684310e-02 6.171614e-01 -4.510266e-01 -1.543794e+00 6.417202e-01 -3.079774e-01 -7.965602e-01 6.277008e-01 -5.055773e-01 4.805740e-01 -4.805518e-02 3.277385e-02
<VARIANCE> 39
 2.475401e+01 5.080371e+01 8.399939e+01 6.703154e+01 7.287775e+01 6.335976e+01 4.418008e+01 5.723108e+01 4.882502e+01 3.364851e+01 2.832478e+01 2.281545e+01 1.995811e+01 2.052398e+00 4.459224e+00 8.575759e+00 5.727807e+00 1.185232e+01 6.128844e+00 4.327739e+00 8.709880e+00 6.067210e+00 3.999457e+00 3.895507e+00 2.662525e+00 2.130225e+00 3.543062e-01 8.489819e-01 1.200402e+00 8.333683e-01 1.080647e+00 8.736222e-01 7.878737e-01 1.425143e+00 1.197675e+00 7.876999e-01 6.183556e-01 5.864131e-01 4.378804e-01
<GCONST> 1.378587e+02
<STATE> 4
<MEAN> 39
 2.869505e+00 1.481102e+00 3.547220e+00 -2.303633e+00 -8.086627e+00 1.519521e+00 -2.207918e+00 -3.629211e+00 -4.970864e+00 2.643008e-01 1.115123e+00 -1.603620e+00 1.841711e+00 -5.529453e-02 -5.116712e-01 5.154378e-01 -9.582309e-01 -2.697698e+00 1.170094e+00 -1.154559e+00 -9.488700e-01 2.301356e+00 -1.262716e+00 1.030714e+00 8.491936e-02 -2.159190e-01 1.236904e-01 -4.911630e-02 -3.021014e-01 9.781933e-02 5.169136e-01 1.393755e-01 1.407799e-01 2.142587e-01 1.471394e-01 -1.157598e-01 -2.157986e-01 -5.730903e-02 -6.881171e-02
<VARIANCE> 39
 2.011924e+01 4.441752e+01 9.511782e+01 8.528462e+01 6.577644e+01 9.783967e+01 4.678682e+01 5.747142e+01 9.768240e+01 3.882093e+01 3.749471e+01 2.714277e+01 2.552538e+01 1.070204e+00 1.561312e+00 3.709820e+00 3.697046e+00 7.510153e+00 4.700142e+00 3.471291e+00 6.047698e+00 6.442060e+00 3.717366e+00 3.376400e+00 2.902695e+00 2.019013e+00 1.665011e-01 2.690817e-01 4.877618e-01 4.129562e-01 9.313624e-01 6.124445e-01 5.836754e-01 9.014114e-01 1.021341e+00 5.889881e-01 5.338076e-01 3.996750e-01 3.539819e-01
<GCONST> 1.294436e+02
<TRANSP> 5
 0.000000e+00 1.000000e+00 0.000000e+00 0.000000e+00 0.000000e+00
 0.000000e+00 7.846013e-01 2.153988e-01 0.000000e+00 0.000000e+00
 0.000000e+00 0.000000e+00 6.212846e-01 3.787154e-01 0.000000e+00
 0.000000e+00 0.000000e+00 0.000000e+00 6.167324e-01 3.832676e-01
 0.000000e+00 0.000000e+00 0.000000e+00 0.000000e+00 0.000000e+00
<ENDHMM>
~o
<STREAMINFO> 1 39
<VECSIZE> 39<NULLD><MFCC_D_A_Z><DIAGC>
~h "gh"
<BEGINHMM>
<NUMSTATES> 5
<STATE> 2
<MEAN> 39
 5.977461e+00 4.045807e+00 3.170380e+00 3.461930e+00 1.879285e+00 7.472404e-01 -4.959038e-01 -1.000627e+00 -8.540490e+00 1.782395e+00 -1.804651e+00 -3.794138e+00 1.196355e+00 1.154400e-01 5.984982e-01 -1.509264e+00 -2.338861e-01 2.639280e+00 2.919135e-02 6.380607e-01 8.355791e-01 -8.932759e-01 1.066913e+00 -4.242515e-01 2.978559e-01 1.395675e-01 -4.527947e-01 -2.839942e-01 -4.152567e-01 -4.447539e-01 6.749529e-02 4.179759e-02 1.692594e-02 1.356861e-01 1.670508e-01 4.351532e-02 2.092697e-01 2.217373e-01 1.308709e-01
<VARIANCE> 39
 1.823882e+01 3.668509e+01 5.990427e+01 7.028002e+01 8.729180e+01 9.186438e+01 6.593855e+01 6.226740e+01 4.754264e+01 4.400378e+01 3.911263e+01 3.209807e+01 2.642463e+01 3.324729e+00 3.963523e+00 7.080733e+00 4.999206e+00 9.019928e+00 6.410566e+00 4.888326e+00 8.368752e+00 5.672405e+00 4.149786e+00 3.968329e+00 3.347519e+00 2.852862e+00 4.114587e-01 6.337364e-01 7.565482e-01 6.868746e-01 1.471041e+00 1.057712e+00 8.682786e-01 1.295359e+00 9.956567e-01 7.803360e-01 7.923709e-01 5.718280e-01 5.553417e-01
<GCONST> 1.395297e+02
<STATE> 3
<MEAN> 39
 -4.170000e-01 1.881388e+00 -5.569386e+00 -1.554684e+00 1.158246e+01 1.606184e+00 3.063424e+00 4.200505e+00 -7.840445e+00 6.938498e+00 -8.135646e-01 8.211689e-01 4.093599e+00 -3.849070e-01 2.959479e-01 -1.148577e-01 -8.797148e-01 -6.231063e-01 9.132133e-01 5.364589e-01 -1.426615e-01 1.183362e+00 -4.568143e-01 7.865331e-01 5.648728e-01 5.547728e-01 4.500041e-01 3.725341e-01 7.788932e-01 2.053580e-01 -8.578434e-01 1.350999e-01 -4.135447e-02 -4.702368e-01 3.510619e-01 -6.043900e-01 -9.856352e-02 -2.394163e-01 -1.653878e-01
<VARIANCE> 39
 1.848138e+01 2.588188e+01 9.246538e+01 5.024627e+01 6.279192e+01 5.590770e+01 4.265676e+01 4.592849e+01 6.522497e+01 2.976723e+01 3.950644e+01 2.586489e+01 1.990798e+01 2.516132e+00 3.179309e+00 6.756795e+00 4.621200e+00 5.470266e+00 4.323149e+00 3.407310e+00 5.007018e+00 4.812299e+00 4.253650e+00 3.370903e+00 3.325986e+00 2.144454e+00 2.596075e-01 5.481644e-01 1.267112e+00 7.813296e-01 1.023746e+00 8.077503e-01 6.624971e-01 1.067256e+00 9.874828e-01 6.564127e-01 7.519503e-01 5.865787e-01 4.155076e-01
<GCONST> 1.326194e+02
<STATE> 4
<MEAN> 39
 4.552206e+00 6.730381e+00 -4.912661e+00 -9.881913e+00 1.521765e+00 1.014414e+01 2.768998e+00 5.093450e-01 3.919657e-01 -2.112810e+00 1.387320e+00 -3.489372e-01 4.960267e+00 6.500024e-01 -3.841024e-01 -1.491172e-01 -7.574733e-01 -1.956622e+00 6.244522e-01 -4.276807e-01 -6.438342e-01 9.965435e-01 -9.329500e-01 3.463603e-01 -3.655465e-01 -4.124002e-01 -6.169635e-02 -4.307728e-01 -1.558812e-01 2.608370e-01 7.738039e-03 -1.449184e-01 -2.018126e-01 -1.072520e-01 -2.157837e-01 3.065698e-01 1.004390e-01 2.442368e-02 -1.675496e-01
<VARIANCE> 39
 1.169834e+01 3.425704e+01 2.026264e+01 5.278311e+01 6.350584e+01 4.286372e+01 3.961089e+01 4.085558e+01 4.711149e+01 2.956887e+01 3.493670e+01 3.431269e+01 2.172031e+01 9.135683e-01 3.108329e+00 2.270763e+00 2.625273e+00 3.419209e+00 2.693273e+00 2.619166e+00 3.099802e+00 2.815196e+00 3.003093e+00 3.272249e+00 2.089983e+00 1.840803e+00 1.670629e-01 3.268391e-01 4.214691e-01 4.935371e-01 5.640200e-01 4.894929e-01 4.496849e-01 5.746160e-01 5.268836e-01 4.879470e-01 5.892053e-01 4.291329e-01 3.588191e-01
<GCONST> 1.182848e+02
<TRANSP> 5
 0.000000e+00 1.000000e+00 0.000000e+00 0.000000e+00 0.000000e+00
 0.000000e+00 8.206430e-01 1.793570e-01 0.000000e+00 0.000000e+00
 0.000000e+00 0.000000e+00 7.936549e-01 2.063451e-01 0.000000e+00
 0.000000e+00 0.000000e+00 0.000000e+00 8.555837e-01 1.444164e-01
 0.000000e+00 0.000000e+00 0.000000e+00 0.000000e+00 0.000000e+00
<ENDHMM>
~o
<STREAMINFO> 1 39
<VECSIZE> 39<NULLD><MFCC_D_A_Z><DIAGC>
~h "h"
<BEGINHMM>
<NUMSTATES> 5
<STATE> 2
<MEAN> 39
 1.218284e+00 1.350985e+00 2.560597e-01 -1.541250e-01 6.103153e-01 1.213099e+00 -1.567281e+00 3.864077e+00 -1.052900e+00 2.963595e+00 -9.578325e-01 -1.390554e+00 2.604506e+00 4.654074e-02 3.728296e-01 -2.994147e-01 -4.777796e-01 8.730283e-01 8.772054e-01 3.570020e-01 1.941431e-02 -3.501562e-02 4.121829e-01 -8.480281e-02 7.119422e-03 9.523166e-02 3.556109e-03 -4.255968e-02 8.635104e-02 -1.484496e-01 -1.868739e-01 1.044892e-01 5.017295e-02 -3.046192e-01 -4.474618e-02 -2.653823e-01 1.368988e-01 5.367427e-02 -9.424635e-02
<VARIANCE> 39
 2.995839e+01 3.536995e+01 7.430739e+01 7.717838e+01 9.113000e+01 9.025326e+01 7.094707e+01 7.179185e+01 6.659389e+01 4.484864e+01 4.462537e+01 3.521569e+01 3.054707e+01 1.839809e+00 3.463769e+00 4.092935e+00 4.931979e+00 7.315886e+00 6.487845e+00 5.403511e+00 6.574879e+00 5.828069e+00 4.180279e+00 4.424056e+00 3.252622e+00 2.572319e+00 2.871174e-01 4.984510e-01 4.766380e-01 6.340323e-01 9.992664e-01 9.491918e-01 8.938143e-01 9.771318e-01 8.302252e-01 7.718491e-01 8.024668e-01 5.989962e-01 4.855576e-01
<GCONST> 1.374914e+02
<STATE> 3
<MEAN> 39
 3.205455e+00 5.850499e+00 -5.546390e+00 -1.030284e+01 3.763550e+00 1.082168e+01 8.434951e-01 7.249662e-01 1.144419e+00 -1.737361e+00 9.820117e-01 1.168938e+00 1.953392e+00 1.611041e-01 5.775148e-01 8.743130e-02 -1.368021e-02 2.480231e-01 -2.200707e-01 4.098043e-01 6.023010e-02 -1.902759e-01 -2.050626e-01 -1.101411e-01 1.445201e-01 1.580298e-01 1.024711e-01 -2.549373e-01 -4.305246e-02 -2.347097e-02 -3.435169e-01 -9.214776e-02 -2.299688e-01 -1.232693e-01 1.202050e-01 -4.703726e-02 1.076089e-01 -1.487213e-01 -1.163587e-01
<VARIANCE> 39
 2.518045e+01 4.987605e+01 2.789037e+01 4.921347e+01 9.175867e+01 3.956527e+01 3.742064e+01 4.120192e+01 4.753928e+01 3.831676e+01 2.746904e+01 3.438881e+01 3.110512e+01 1.473620e+00 2.024363e+00 1.593643e+00 2.750841e+00 4.777566e+00 2.036995e+00 2.549951e+00 2.576169e+00 2.328250e+00 2.756890e+00 2.184236e+00 2.128892e+00 1.580402e+00 2.091178e-01 3.422848e-01 2.973965e-01 3.357781e-01 5.873386e-01 3.835874e-01 4.192002e-01 4.352624e-01 4.121293e-01 4.032597e-01 3.829740e-01 3.513505e-01 2.770938e-01
<GCONST> 1.167369e+02
<STATE> 4
<MEAN> 39
 6.159622e+00 4.065899e+00 -6.267259e+00 -1.025830e+01 1.180175e-02 9.056729e+00 -8.880233e-01 -1.309459e+00 1.575943e+00 -2.714994e+00 2.725825e+00 -1.241696e+00 3.767385e-01 4.482915e-01 -1.659861e+00 -4.298292e-01 -2.107620e-01 -1.753822e+00 -1.289912e-01 -1.052440e+00 -1.066991e+00 8.465297e-01 -1.721010e-01 6.667107e-01 -6.309049e-01 -8.151022e-01 -3.307332e-01 -4.396715e-01 2.965012e-01 4.129793e-01 8.325877e-02 -1.352718e-01 -2.680175e-01 7.339998e-02 1.812605e-01 2.575863e-01 -1.696460e-01 -7.231907e-02 1.109851e-02
<VARIANCE> 39
 9.425756e+00 4.885768e+01 4.324551e+01 6.231678e+01 6.652171e+01 4.652552e+01 4.411548e+01 4.698708e+01 7.705833e+01 4.526603e+01 2.666165e+01 3.763974e+01 3.235968e+01 1.258001e+00 1.848571e+00 2.022615e+00 2.973769e+00 3.443108e+00 2.831563e+00 3.146378e+00 3.023508e+00 2.671928e+00 3.678658e+00 2.601311e+00 2.584035e+00 1.629418e+00 2.059802e-01 4.363014e-01 3.258793e-01 3.611927e-01 5.915879e-01 4.842736e-01 5.183484e-01 5.854159e-01 5.201089e-01 5.195917e-01 4.180913e-01 4.267764e-01 3.535578e-01
<GCONST> 1.207119e+02
<TRANSP> 5
 0.000000e+00 1.000000e+00 0.000000e+00 0.000000e+00 0.000000e+00
 0.000000e+00 7.698337e-01 2.301662e-01 0.000000e+00 0.000000e+00
 0.000000e+00 0.000000e+00 8.249569e-01 1.750431e-01 0.000000e+00
 0.000000e+00 0.000000e+00 0.000000e+00 6.431233e-01 3.568767e-01
 0.000000e+00 0.000000e+00 0.000000e+00 0.000000e+00 0.000000e+00
<ENDHMM>
~o
<STREAMINFO> 1 39
<VECSIZE> 39<NULLD><MFCC_D_A_Z><DIAGC>
~h "i"
<BEGINHMM>
<NUMSTATES> 5
<STATE> 2
<MEAN> 39
 1.314857e-01 -1.868060e+00 1.402443e+01 6.394685e+00 -1.501063e+01 -5.554502e+00 -1.021036e+00 -3.498823e+00 -9.557112e+00 -4.695446e+00 2.580266e+00 -2.596627e+00 -1.060784e-01 -1.929860e-01 2.614435e-01 1.766101e+00 1.879047e-02 -2.980597e+00 8.860415e-01 -2.404854e-01 -1.070248e+00 -1.359240e+00 -6.244091e-01 9.305775e-01 -7.246583e-01 -1.575128e-01 -1.126375e-01 2.495867e-01 -7.449262e-01 -2.313009e-01 1.146788e+00 3.974124e-01 2.826369e-01 -1.313070e-01 4.646440e-01 4.901827e-01 -4.109672e-01 1.675841e-02 6.839568e-02
<VARIANCE> 39
 1.092151e+01 2.510277e+01 3.931032e+01 3.651862e+01 3.117667e+01 4.018472e+01 5.295007e+01 6.960416e+01 4.279577e+01 2.629477e+01 3.553980e+01 1.992580e+01 2.013967e+01 2.142184e+00 2.151371e+00 3.321205e+00 2.647755e+00 5.416376e+00 4.607285e+00 5.604917e+00 5.372848e+00 4.532187e+00 3.534290e+00 3.012193e+00 2.642288e+00 1.783122e+00 4.515538e-01 4.984125e-01 5.551055e-01 4.525310e-01 1.038178e+00 8.778102e-01 7.809435e-01 1.499096e+00 7.121065e-01 6.015168e-01 6.351177e-01 6.151892e-01 3.540848e-01
<GCONST> 1.266132e+02
<STATE> 3
<MEAN> 39
 -1.620397e+00 1.312144e+00 1.655926e+01 4.829457e+00 -1.619331e+01 -8.753281e-01 -7.891768e-01 -8.438630e+00 -1.048081e+01 -3.886046e+00 1.445321e+00 -4.337897e+00 1.183661e-01 1.854195e-01 2.774662e-01 -3.860359e-01 6.585283e-02 6.054062e-01 -2.586729e-01 2.501648e-01 1.350366e-01 -1.525557e-02 2.479244e-01 -3.004610e-01 1.291783e-01 2.121086e-01 1.563158e-01 1.694177e-02 -4.675572e-01 9.538576e-02 8.672484e-01 -4.181514e-01 2.168253e-01 3.903152e-01 2.509454e-01 2.018504e-01 -1.508348e-01 2.806325e-01 4.093207e-02
<VARIANCE> 39
 9.422454e+00 1.780287e+01 3.173998e+01 4.496267e+01 2.598105e+01 5.028049e+01 2.968683e+01 5.065723e+01 2.867672e+01 2.441487e+01 3.504237e+01 2.197487e+01 1.896028e+01 7.180602e-01 1.183363e+00 1.605717e+00 1.517363e+00 3.193830e+00 3.080595e+00 2.650567e+00 2.926831e+00 2.175555e+00 2.335149e+00 2.116417e+00 1.571291e+00 1.131022e+00 1.812955e-01 2.114175e-01 2.868216e-01 2.875845e-01 7.889150e-01 4.685412e-01 4.574496e-01 5.732133e-01 4.945015e-01 4.402875e-01 4.203241e-01 3.320634e-01 2.254844e-01
<GCONST> 1.096331e+02
<STATE> 4
<MEAN> 39
 -4.494383e-01 2.926847e+00 8.673704e+00 6.966658e+00 -3.117866e+00 -6.253012e+00 3.285877e+00 -1.648164e+00 -7.184697e+00 -2.438522e-02 -1.298684e+00 -3.479060e-01 8.371809e-01 -6.367403e-02 3.494388e-01 -1.519601e+00 1.536065e-02 2.611835e+00 -9.412743e-02 5.141500e-01 6.648932e-01 9.336439e-01 6.699913e-01 -4.675270e-01 6.236436e-01 -3.487703e-02 -2.607798e-01 -1.390854e-01 -4.634649e-02 -1.920277e-01 -8.832831e-02 3.584552e-01 -1.570862e-01 -1.815244e-01 6.262365e-02 -3.254553e-02 5.187559e-02 -8.287510e-02 -4.152514e-02
<VARIANCE> 39
 3.103801e+01 3.176103e+01 5.723729e+01 3.749232e+01 8.583335e+01 4.923199e+01 5.088496e+01 5.499304e+01 4.374895e+01 4.213157e+01 3.192397e+01 2.421306e+01 2.368857e+01 3.579666e+00 2.808545e+00 3.011212e+00 2.634898e+00 5.916090e+00 4.225602e+00 4.303703e+00 5.138978e+00 3.480570e+00 3.363191e+00 2.997549e+00 2.379238e+00 1.862786e+00 4.221484e-01 4.771952e-01 4.370809e-01 4.388445e-01 9.067982e-01 7.148702e-01 7.305919e-01 7.341745e-01 6.550730e-01 6.877409e-01 5.340697e-01 4.041836e-01 3.462458e-01
<GCONST> 1.279023e+02
<TRANSP> 5
 0.000000e+00 1.000000e+00 0.000000e+00 0.000000e+00 0.000000e+00
 0.000000e+00 5.162151e-01 4.837849e-01 0.000000e+00 0.000000e+00
 0.000000e+00 0.000000e+00 7.636984e-01 2.363016e-01 0.000000e+00
 0.000000e+00 0.000000e+00 0.000000e+00 7.571919e-01 2.428081e-01
 0.000000e+00 0.000000e+00 0.000000e+00 0.000000e+00 0.000000e+00
<ENDHMM>
~o
<STREAMINFO> 1 39
<VECSIZE> 39<NULLD><MFCC_D_A_Z><DIAGC>
~h "ii"
<BEGINHMM>
<NUMSTATES> 5
<STATE> 2
<MEAN> 39
 7.253806e-01 -1.553252e+00 1.403696e+01 6.937082e+00 -1.414535e+01 -6.978820e+00 -4.257700e-01 -3.128998e+00 -1.144722e+01 -5.022714e+00 1.813588e+00 -2.331234e+00 9.876226e-01 -1.011558e-01 8.989204e-02 1.610550e+00 5.293639e-02 -3.600123e+00 9.868161e-01 -2.819181e-01 -8.937708e-01 -1.416784e+00 -6.225338e-01 1.129804e+00 -8.085280e-01 -2.073958e-01 -1.636794e-01 2.442150e-01 -7.367201e-01 -2.100782e-01 1.059237e+00 4.791746e-01 2.374859e-01 -2.492539e-01 5.839441e-01 5.258275e-01 -3.381170e-01 -2.777098e-02 8.433860e-03
<VARIANCE> 39
 1.217558e+01 2.824701e+01 3.461172e+01 3.161644e+01 3.285623e+01 3.947811e+01 4.476577e+01 5.907672e+01 3.381566e+01 2.805693e+01 3.329454e+01 2.027766e+01 2.056068e+01 2.680615e+00 2.377508e+00 3.046393e+00 2.683518e+00 4.497944e+00 3.616203e+00 5.176787e+00 5.999456e+00 3.864836e+00 3.612989e+00 3.069256e+00 2.696483e+00 1.820686e+00 4.482626e-01 6.259559e-01 4.391560e-01 4.295055e-01 9.480159e-01 7.837184e-01 7.050799e-01 1.666104e+00 6.722834e-01 5.326036e-01 6.120147e-01 6.212776e-01 3.207027e-01
<GCONST> 1.252781e+02
<STATE> 3
<MEAN> 39
 -1.105386e+00 8.483084e-01 1.618025e+01 5.830388e+00 -1.660003e+01 -2.377754e+00 -2.859072e-01 -7.469646e+00 -1.203679e+01 -3.588126e+00 1.318001e+00 -4.383051e+00 6.574603e-01 1.905044e-01 2.312532e-01 -4.888589e-01 2.021972e-01 5.915705e-01 -3.773735e-01 8.557168e-02 1.226894e-01 2.588691e-01 1.086373e-01 -3.003471e-01 1.284162e-01 2.262743e-01 1.879224e-01 2.629900e-02 -4.680641e-01 7.335076e-02 1.006619e+00 -4.020527e-01 1.028694e-01 3.917460e-01 3.592719e-01 1.438472e-01 -2.437708e-01 2.774827e-01 7.854643e-02
<VARIANCE> 39
 9.247375e+00 1.813867e+01 3.631543e+01 4.199821e+01 2.492123e+01 4.972959e+01 2.872338e+01 5.035662e+01 2.773456e+01 2.707696e+01 3.065627e+01 1.955116e+01 1.943829e+01 6.955186e-01 1.199430e+00 1.559092e+00 1.422138e+00 3.142498e+00 3.061676e+00 2.643612e+00 2.970716e+00 2.292802e+00 2.266728e+00 1.831691e+00 1.447386e+00 1.077946e+00 1.456365e-01 2.092851e-01 2.724519e-01 3.075352e-01 7.445635e-01 4.645921e-01 4.783655e-01 5.696992e-01 4.913291e-01 4.777209e-01 4.411405e-01 3.002852e-01 2.178395e-01
<GCONST> 1.088247e+02
<STATE> 4
<MEAN> 39
 8.772476e-02 2.259792e+00 7.785728e+00 7.291280e+00 -2.972721e+00 -6.775639e+00 2.607877e+00 -1.004520e+00 -6.850903e+00 -4.308830e-01 -1.588264e+00 -2.164689e-01 1.587170e+00 8.749044e-02 3.223925e-01 -1.510514e+00 -9.577580e-02 2.646280e+00 -7.986515e-03 2.226253e-01 6.046149e-01 1.156951e+00 6.508759e-01 -6.335363e-01 5.244973e-01 5.927962e-02 -2.211213e-01 -8.142372e-02 5.264584e-03 -2.229261e-01 -1.146296e-01 3.661603e-01 -9.042761e-02 -2.184297e-01 -1.910117e-02 6.447755e-02 6.667539e-02 -9.242958e-02 -6.805664e-02
<VARIANCE> 39
 2.782115e+01 3.117174e+01 5.683256e+01 3.391185e+01 8.257333e+01 4.447565e+01 5.562796e+01 5.609412e+01 4.431973e+01 4.527192e+01 2.963955e+01 2.347004e+01 2.421876e+01 2.639311e+00 2.394213e+00 2.888186e+00 2.517983e+00 5.789881e+00 3.870198e+00 4.945472e+00 4.637411e+00 3.610268e+00 3.388326e+00 3.056071e+00 2.136044e+00 1.853836e+00 3.352004e-01 4.428856e-01 4.006198e-01 4.439374e-01 9.236627e-01 7.325089e-01 7.621472e-01 7.330254e-01 6.197231e-01 7.326555e-01 5.406623e-01 3.953006e-01 3.517455e-01
<GCONST> 1.266793e+02
<TRANSP> 5
 0.000000e+00 1.000000e+00 0.000000e+00 0.000000e+00 0.000000e+00
 0.000000e+00 5.303416e-01 4.696583e-01 0.000000e+00 0.000000e+00
 0.000000e+00 0.000000e+00 7.696840e-01 2.303160e-01 0.000000e+00
 0.000000e+00 0.000000e+00 0.000000e+00 7.820968e-01 2.179032e-01
 0.000000e+00 0.000000e+00 0.000000e+00 0.000000e+00 0.000000e+00
<ENDHMM>
~o
<STREAMINFO> 1 39
<VECSIZE> 39<NULLD><MFCC_D_A_Z><DIAGC>
~h "j"
<BEGINHMM>
<NUMSTATES> 5
<STATE> 2
<MEAN> 39
 -6.812932e+00 8.182832e+00 5.515517e+00 3.997878e+00 6.817868e+00 -2.850656e+00 1.225393e+00 1.382531e+00 -3.690435e-01 -2.453510e-01 -3.539182e+00 1.313916e+00 -8.730780e-01 -1.845612e+00 4.684554e-01 5.080879e-01 3.040549e-01 2.839258e-01 -7.108493e-01 6.216101e-01 5.134688e-02 -3.762953e-01 -4.089459e-01 1.823598e-01 5.016559e-01 5.176883e-03 5.520968e-01 -4.756269e-01 -1.219018e-01 1.790120e-02 -5.526338e-01 -1.537054e-01 -2.877894e-01 -2.293702e-01 5.880797e-02 -3.198892e-02 7.263097e-02 -8.203469e-02 1.424042e-01
<VARIANCE> 39
 1.120813e+02 3.494963e+01 4.564032e+01 3.232554e+01 3.935240e+01 5.018818e+01 5.492040e+01 4.591703e+01 4.722989e+01 2.814708e+01 3.219193e+01 2.456353e+01 1.826740e+01 9.916962e+00 3.719157e+00 2.912696e+00 2.688016e+00 4.896976e+00 4.952457e+00 4.385731e+00 4.388112e+00 4.176743e+00 2.865337e+00 3.222694e+00 2.284817e+00 1.964291e+00 2.531305e+00 6.300447e-01 4.808729e-01 4.956754e-01 9.167801e-01 9.162506e-01 9.643705e-01 8.401533e-01 6.571286e-01 5.887918e-01 6.656023e-01 4.424018e-01 3.848549e-01
<GCONST> 1.319248e+02
<STATE> 3
<MEAN> 39
 -7.870706e+00 6.201069e+00 8.589055e+00 7.074639e+00 1.162766e+00 -1.072915e+01 6.879556e-01 -1.677779e+00 -2.670936e+00 -3.198100e+00 -3.500366e+00 3.284460e+00 1.107102e+00 3.734257e+00 -2.678402e+00 -3.196111e-01 2.453801e-01 -3.168612e+00 -4.117407e-01 -2.339590e+00 -1.340220e+00 5.489506e-01 2.128918e-01 5.343676e-01 -3.111027e-01 2.387214e-01 6.927396e-01 -4.881582e-01 -4.151743e-01 -6.078447e-01 -2.810076e-01 1.261924e+00 -5.311844e-01 1.011183e-01 4.115354e-01 4.080027e-01 3.769890e-01 -4.594924e-01 -3.202634e-01
<VARIANCE> 39
 4.074486e+01 2.308350e+01 3.157609e+01 2.120984e+01 4.012503e+01 2.958225e+01 3.736568e+01 3.362033e+01 4.958495e+01 2.132461e+01 1.803941e+01 1.952414e+01 1.542791e+01 4.326572e+00 2.781455e+00 3.427660e+00 2.549683e+00 4.949235e+00 5.983186e+00 5.213943e+00 4.483914e+00 4.741893e+00 3.226888e+00 2.916435e+00 2.360424e+00 2.009888e+00 1.445321e+00 5.229828e-01 3.123941e-01 4.573375e-01 8.112618e-01 9.730520e-01 8.795017e-01 7.869743e-01 6.898977e-01 5.779369e-01 4.987514e-01 5.459573e-01 3.834357e-01
<GCONST> 1.253513e+02
<STATE> 4
<MEAN> 39
 2.830597e+00 -3.458163e+00 2.754657e+00 1.283916e+00 -6.856214e+00 -2.199978e+00 -8.877861e+00 -2.110969e+00 3.789817e+00 1.407400e-01 1.187621e+00 -4.064679e-01 -3.435780e-01 1.493177e+00 -1.533520e+00 -1.565582e+00 -2.014730e+00 -1.099355e+00 2.728528e+00 -8.228270e-01 3.293385e-01 5.962242e-01 7.869897e-01 1.076618e+00 -1.208546e+00 -5.740636e-01 -7.679258e-01 6.398199e-01 -1.308347e-02 -1.598439e-01 7.345620e-01 2.303846e-02 7.983860e-01 1.992223e-01 -3.390758e-01 -2.722780e-01 -2.272389e-01 1.180842e-01 9.047938e-02
<VARIANCE> 39
 1.945980e+01 3.085864e+01 5.163721e+01 4.064106e+01 5.456195e+01 6.645827e+01 6.133060e+01 9.916967e+01 7.388015e+01 3.522759e+01 3.497624e+01 2.862024e+01 2.429415e+01 3.167911e+00 3.246676e+00 2.254509e+00 3.696539e+00 4.825802e+00 5.907696e+00 5.948808e+00 4.645136e+00 5.613233e+00 3.757936e+00 4.210057e+00 4.307321e+00 2.231581e+00 3.734047e-01 3.343843e-01 4.103481e-01 5.953267e-01 7.945864e-01 1.102001e+00 9.379736e-01 9.576863e-01 7.052504e-01 7.568864e-01 6.610981e-01 6.723403e-01 5.116658e-01
<GCONST> 1.326274e+02
<TRANSP> 5
 0.000000e+00 1.000000e+00 0.000000e+00 0.000000e+00 0.000000e+00
 0.000000e+00 8.197610e-01 1.802390e-01 0.000000e+00 0.000000e+00
 0.000000e+00 0.000000e+00 5.831016e-01 4.168985e-01 0.000000e+00
 0.000000e+00 0.000000e+00 0.000000e+00 6.603100e-01 3.396900e-01
 0.000000e+00 0.000000e+00 0.000000e+00 0.000000e+00 0.000000e+00
<ENDHMM>
~o
<STREAMINFO> 1 39
<VECSIZE> 39<NULLD><MFCC_D_A_Z><DIAGC>
~h "jh"
<BEGINHMM>
<NUMSTATES> 5
<STATE> 2
<MEAN> 39
 -1.022072e+01 7.965168e+00 5.808297e+00 3.636904e+00 7.654950e+00 -2.013329e+00 1.849492e+00 2.750412e+00 -9.950793e-01 -8.268068e-01 -1.939816e+00 3.069525e+00 -8.403891e-01 -2.275669e+00 -4.471125e-01 1.162606e-01 3.685510e-01 2.136945e-01 -8.459286e-01 1.171721e+00 7.875580e-01 3.182287e-01 -4.858528e-03 3.536721e-01 5.160978e-01 4.974521e-01 9.388805e-01 -5.376446e-01 -2.008370e-01 8.612367e-02 -3.350749e-01 -8.316935e-02 -2.795657e-01 -2.148102e-01 1.667107e-01 2.338359e-01 -7.592742e-02 -2.177067e-01 2.518111e-01
<VARIANCE> 39
 1.069055e+02 2.312446e+01 3.625426e+01 2.617087e+01 2.870519e+01 4.124141e+01 5.604293e+01 4.826950e+01 3.500496e+01 3.091509e+01 2.706557e+01 2.067200e+01 1.663681e+01 1.176354e+01 4.397963e+00 4.478154e+00 3.038989e+00 3.853098e+00 4.278586e+00 5.200558e+00 5.059741e+00 4.553500e+00 3.669473e+00 3.036216e+00 2.367901e+00 2.241727e+00 2.883933e+00 5.961354e-01 6.473518e-01 5.252126e-01 7.490699e-01 7.546999e-01 9.488202e-01 9.541432e-01 7.008041e-01 7.455598e-01 6.817939e-01 4.920240e-01 3.983536e-01
<GCONST> 1.318068e+02
<STATE> 3
<MEAN> 39
 -8.369750e+00 1.332229e+00 4.973747e+00 7.431081e+00 6.862114e+00 -7.159840e+00 3.144472e+00 4.979475e+00 2.560320e+00 2.771006e+00 -2.090318e+00 3.084867e+00 3.645529e+00 3.891906e+00 -1.020143e+00 -3.480839e-01 -1.838801e-02 -3.464186e-01 6.660306e-01 -7.969568e-01 -3.070655e-01 1.896562e-01 1.167162e+00 -5.730709e-01 -1.183589e+00 3.759123e-01 2.394662e-01 3.866262e-01 -9.408195e-02 -7.062797e-01 -9.620652e-02 9.404265e-01 -1.435977e-01 -1.569976e-01 -5.129538e-01 -1.941090e-01 8.059507e-02 -3.131536e-01 -3.694491e-01
<VARIANCE> 39
 4.943100e+01 2.167377e+01 3.589125e+01 2.018334e+01 3.369419e+01 3.006401e+01 3.139630e+01 4.817838e+01 4.822298e+01 2.724013e+01 2.522001e+01 2.060711e+01 1.641613e+01 2.147454e+00 2.817128e+00 2.796600e+00 3.104333e+00 4.934258e+00 6.202882e+00 2.733302e+00 4.121849e+00 5.225275e+00 3.571344e+00 3.985182e+00 2.972317e+00 2.028001e+00 1.277496e+00 3.049614e-01 4.979156e-01 4.196157e-01 7.174829e-01 6.825763e-01 7.091418e-01 7.074241e-01 7.400075e-01 6.069282e-01 6.485264e-01 5.950566e-01 3.585575e-01
<GCONST> 1.249328e+02
<STATE> 4
<MEAN> 39
 4.141937e+00 -3.434424e-01 -1.295500e+00 -2.676150e+00 3.003576e+00 4.787190e+00 6.228243e-01 2.473165e+00 1.058349e+00 1.910064e+00 -1.114015e+00 -3.221222e+00 2.471758e+00 1.028035e+00 -4.432225e-01 -1.105302e+00 -1.525988e+00 -1.689224e+00 1.163282e+00 -4.822406e-01 -6.571320e-01 8.052941e-02 -1.042889e+00 7.425650e-01 -5.467997e-01 -3.921203e-01 -4.547321e-01 -1.371436e-01 1.071746e-01 2.151283e-01 -1.553232e-01 -3.529415e-01 -7.101531e-02 -6.762260e-02 2.423140e-01 -1.438799e-01 1.114842e-01 2.166073e-01 -7.300378e-02
<VARIANCE> 39
 1.638252e+01 4.884375e+01 4.831675e+01 6.128024e+01 8.820666e+01 7.890585e+01 4.477558e+01 6.817477e+01 8.812810e+01 4.068993e+01 4.870514e+01 4.051176e+01 2.492685e+01 1.650891e+00 2.888373e+00 2.090383e+00 3.355823e+00 4.427518e+00 4.152164e+00 3.418457e+00 3.725537e+00 5.088491e+00 3.347418e+00 3.486496e+00 2.861552e+00 2.801939e+00 2.394052e-01 5.520571e-01 4.226416e-01 4.872531e-01 8.183685e-01 5.584062e-01 5.947042e-01 7.303447e-01 7.762681e-01 8.105333e-01 7.511699e-01 4.929809e-01 4.742472e-01
<GCONST> 1.299230e+02
<TRANSP> 5
 0.000000e+00 1.000000e+00 0.000000e+00 0.000000e+00 0.000000e+00
 0.000000e+00 8.103541e-01 1.896460e-01 0.000000e+00 0.000000e+00
 0.000000e+00 0.000000e+00 7.303190e-01 2.696810e-01 0.000000e+00
 0.000000e+00 0.000000e+00 0.000000e+00 8.329493e-01 1.670507e-01
 0.000000e+00 0.000000e+00 0.000000e+00 0.000000e+00 0.000000e+00
<ENDHMM>
~o
<STREAMINFO> 1 39
<VECSIZE> 39<NULLD><MFCC_D_A_Z><DIAGC>
~h "k"
<BEGINHMM>
<NUMSTATES> 5
<STATE> 2
<MEAN> 39
 6.380230e-01 3.985993e+00 -1.915812e+00 2.780794e+00 5.162952e+00 -3.662438e+00 5.220313e+00 4.255093e+00 -2.928986e+00 2.935964e+00 -1.675702e+00 1.227883e+00 -2.972110e-01 -1.276182e+00 -1.166688e+00 -1.246556e+00 -1.790992e-01 1.176404e+00 -6.061038e-01 3.134644e-03 5.680342e-01 -2.395735e-01 5.994053e-01 -4.805053e-01 4.554130e-01 8.128916e-02 -1.297451e-01 -4.284803e-01 -1.492028e-01 -5.192536e-01 -3.537817e-01 1.483549e-01 -4.064777e-01 -1.084132e-01 -2.066424e-01 8.236088e-02 -3.521332e-02 -2.148939e-01 2.396332e-01
<VARIANCE> 39
 3.834220e+01 3.419471e+01 4.341373e+01 6.209527e+01 5.215965e+01 5.785649e+01 3.819532e+01 4.674122e+01 4.796893e+01 3.159641e+01 2.769404e+01 2.551532e+01 2.272233e+01 3.079215e+00 5.724181e+00 5.448779e+00 5.798029e+00 5.878815e+00 5.152310e+00 4.733412e+00 5.105275e+00 4.565534e+00 3.305017e+00 3.042011e+00 2.771472e+00 2.373324e+00 4.412165e-01 7.092348e-01 6.667740e-01 7.650982e-01 8.763685e-01 7.746944e-01 7.763666e-01 8.307272e-01 8.266968e-01 5.967787e-01 5.640412e-01 5.254592e-01 4.495145e-01
<GCONST> 1.325076e+02
<STATE> 3
<MEAN> 39
 -4.640941e+00 -4.412670e+00 -8.866260e+00 -2.913585e+00 8.237256e+00 -4.644863e+00 2.310745e+00 6.262934e+00 -6.506811e+00 7.490385e+00 -4.562740e+00 1.013693e+00 2.092895e+00 2.603753e-01 5.726453e-02 3.661106e-01 -1.554882e+00 -1.586949e+00 6.143117e-01 -1.058468e+00 -8.514666e-01 -3.149491e-01 -3.703893e-02 -5.948371e-02 -5.796539e-01 5.913135e-01 9.442309e-01 1.000667e+00 1.360183e+00 3.291271e-01 -1.377363e+00 5.756775e-01 -4.245356e-02 -8.076749e-01 6.598107e-01 -8.636239e-01 5.559614e-01 -2.651572e-01 -2.541571e-01
<VARIANCE> 39
 3.396719e+01 5.537360e+01 9.094525e+01 6.983099e+01 5.724807e+01 5.766348e+01 5.138695e+01 6.253846e+01 5.136517e+01 3.292904e+01 2.904120e+01 2.565135e+01 2.180911e+01 4.779509e+00 7.183567e+00 1.106967e+01 6.531214e+00 8.755869e+00 5.339551e+00 4.144576e+00 6.704391e+00 7.226385e+00 4.630598e+00 3.541835e+00 3.083896e+00 2.365947e+00 5.737914e-01 8.876028e-01 1.136052e+00 1.111326e+00 1.257111e+00 1.012246e+00 9.310406e-01 1.374242e+00 1.454816e+00 9.058195e-01 7.055200e-01 7.236155e-01 4.875824e-01
<GCONST> 1.419591e+02
<STATE> 4
<MEAN> 39
 1.758683e+00 1.727714e+00 1.279708e+00 -2.992178e+00 -3.510748e+00 -9.011003e-01 -2.169140e-01 -4.793235e-01 -2.994266e+00 2.363436e+00 -1.150515e+00 -1.619222e+00 1.128695e+00 1.402950e+00 4.853305e-01 1.854401e+00 -3.316386e-01 -3.700376e+00 1.843466e+00 -8.753830e-01 -1.535562e+00 1.916070e+00 -2.369103e+00 1.479552e+00 -7.905548e-01 -4.200315e-01 -3.450536e-01 -5.697619e-01 -6.426325e-01 4.009007e-02 4.754683e-01 -2.146097e-03 1.367436e-01 3.280293e-01 2.095651e-01 -1.156647e-01 4.610728e-02 1.867885e-01 -8.568227e-02
<VARIANCE> 39
 2.725516e+01 5.007978e+01 9.570575e+01 7.578402e+01 8.235164e+01 7.955895e+01 4.461554e+01 5.013749e+01 9.515742e+01 3.494638e+01 3.156538e+01 2.525377e+01 1.998690e+01 2.578420e+00 3.641301e+00 6.201704e+00 5.119571e+00 8.859898e+00 6.413870e+00 4.259753e+00 6.701819e+00 8.377481e+00 5.229340e+00 3.699214e+00 3.691367e+00 2.234298e+00 3.185535e-01 4.909805e-01 7.728131e-01 4.991789e-01 1.175140e+00 6.367611e-01 6.101751e-01 7.020196e-01 1.094469e+00 7.607840e-01 5.736951e-01 4.319201e-01 3.819235e-01
<GCONST> 1.358715e+02
<TRANSP> 5
 0.000000e+00 1.000000e+00 0.000000e+00 0.000000e+00 0.000000e+00
 0.000000e+00 7.002802e-01 2.997197e-01 0.000000e+00 0.000000e+00
 0.000000e+00 0.000000e+00 6.256596e-01 3.743403e-01 0.000000e+00
 0.000000e+00 0.000000e+00 0.000000e+00 5.424306e-01 4.575694e-01
 0.000000e+00 0.000000e+00 0.000000e+00 0.000000e+00 0.000000e+00
<ENDHMM>
~o
<STREAMINFO> 1 39
<VECSIZE> 39<NULLD><MFCC_D_A_Z><DIAGC>
~h "kh"
<BEGINHMM>
<NUMSTATES> 5
<STATE> 2
<MEAN> 39
 -1.085105e+00 -5.596445e-01 -4.161719e+00 9.460280e-01 5.648744e+00 -5.082347e+00 4.128358e+00 6.890056e+00 -4.050081e+00 5.231898e+00 -2.975052e+00 8.852009e-01 6.003945e-01 -1.451648e+00 -1.466784e+00 -2.125948e+00 -8.101927e-01 1.629821e+00 -3.511592e-01 -1.851965e-01 2.065951e-01 -3.713755e-01 8.304893e-01 -5.895606e-01 6.415324e-01 3.481497e-01 -1.083804e-01 -1.746837e-01 3.296659e-02 -4.015037e-01 -4.350245e-01 2.580791e-01 -1.844635e-01 -2.404272e-01 6.964209e-02 -1.386570e-01 1.754011e-01 -1.146445e-01 1.656198e-01
<VARIANCE> 39
 3.105352e+01 5.886938e+01 8.434373e+01 7.472892e+01 7.113056e+01 6.087233e+01 4.253950e+01 6.477876e+01 5.379301e+01 3.710552e+01 3.121917e+01 2.862158e+01 2.322927e+01 2.527126e+00 5.427193e+00 5.193130e+00 6.712986e+00 7.034550e+00 4.999158e+00 4.915082e+00 5.342785e+00 5.262572e+00 3.912668e+00 3.449617e+00 3.199883e+00 2.655172e+00 3.931217e-01 1.094542e+00 9.933422e-01 9.688042e-01 1.078388e+00 8.054301e-01 9.519944e-01 9.439773e-01 9.692286e-01 7.127814e-01 6.180142e-01 5.946282e-01 5.089989e-01
<GCONST> 1.379964e+02
<STATE> 3
<MEAN> 39
 -7.779620e+00 -5.221276e+00 -9.170538e+00 -4.458652e+00 7.883154e+00 -2.952902e+00 4.273869e+00 4.770714e+00 -2.084856e+00 6.963719e+00 -3.118178e+00 3.286731e+00 2.145166e+00 5.120606e-01 1.197188e+00 1.310535e+00 8.282213e-02 -4.043317e-01 1.275752e+00 4.358005e-01 -4.348036e-01 1.013021e+00 -8.410611e-01 3.493202e-01 -2.254760e-01 5.804482e-02 8.618236e-01 6.291369e-01 6.908102e-01 3.347899e-01 -4.256631e-01 2.011561e-01 -1.500040e-01 2.130834e-02 3.950703e-02 -4.072749e-01 8.279454e-02 -3.881286e-01 -4.305263e-02
<VARIANCE> 39
 2.475936e+01 3.041012e+01 7.321746e+01 5.080250e+01 5.264732e+01 6.224554e+01 4.147052e+01 4.227081e+01 6.319987e+01 3.264354e+01 3.422561e+01 2.182449e+01 2.060819e+01 3.993357e+00 3.245818e+00 4.426164e+00 4.078837e+00 3.057090e+00 4.246703e+00 2.794256e+00 3.741019e+00 4.342376e+00 3.304453e+00 2.773952e+00 3.122925e+00 2.136038e+00 3.816575e-01 6.581244e-01 8.371932e-01 8.431780e-01 7.830871e-01 8.484861e-01 7.985725e-01 7.121620e-01 8.655197e-01 6.604257e-01 5.778142e-01 5.129123e-01 4.401226e-01
<GCONST> 1.300083e+02
<STATE> 4
<MEAN> 39
 3.166213e+00 1.463255e+00 -1.758905e+00 -3.402669e+00 9.349957e-01 2.653975e+00 9.047319e-01 3.965694e+00 1.846494e+00 -2.534950e-01 -1.496703e+00 -2.827282e+00 2.886112e+00 1.764507e+00 -1.423859e-01 -3.288284e-02 -6.621237e-01 -2.646239e+00 5.879747e-01 -1.390211e+00 -7.256815e-01 6.893493e-01 -1.467385e+00 7.840564e-01 -1.066605e+00 -2.786558e-01 -5.324398e-01 -7.327789e-01 -4.629682e-01 -1.147476e-01 -1.589694e-02 -2.314091e-01 -8.283293e-02 -2.208804e-01 -2.419920e-02 2.680983e-01 8.701049e-02 2.679962e-01 -1.988202e-01
<VARIANCE> 39
 1.858041e+01 5.154987e+01 7.293278e+01 5.978165e+01 8.727444e+01 7.296057e+01 3.948590e+01 4.951783e+01 8.263194e+01 3.624715e+01 3.785714e+01 3.605692e+01 2.173718e+01 2.816453e+00 4.859200e+00 4.222436e+00 3.358727e+00 4.109597e+00 3.254671e+00 3.365783e+00 3.590327e+00 3.376108e+00 3.190106e+00 2.459764e+00 3.094926e+00 2.317016e+00 2.920108e-01 6.663838e-01 8.459744e-01 5.840511e-01 9.911001e-01 5.471874e-01 6.076373e-01 5.778635e-01 6.648346e-01 5.854592e-01 4.819335e-01 4.671649e-01 3.834757e-01
<GCONST> 1.297691e+02
<TRANSP> 5
 0.000000e+00 1.000000e+00 0.000000e+00 0.000000e+00 0.000000e+00
 0.000000e+00 7.698177e-01 2.301823e-01 0.000000e+00 0.000000e+00
 0.000000e+00 0.000000e+00 7.838683e-01 2.161318e-01 0.000000e+00
 0.000000e+00 0.000000e+00 0.000000e+00 7.404701e-01 2.595299e-01
 0.000000e+00 0.000000e+00 0.000000e+00 0.000000e+00 0.000000e+00
<ENDHMM>
~o
<STREAMINFO> 1 39
<VECSIZE> 39<NULLD><MFCC_D_A_Z><DIAGC>
~h "l"
<BEGINHMM>
<NUMSTATES> 5
<STATE> 2
<MEAN> 39
 4.936121e+00 -1.697203e+00 -5.136553e-01 -4.174561e+00 -1.967815e+00 6.055385e+00 -1.008056e+01 -1.364721e+01 3.773471e+00 -4.079655e+00 4.828218e+00 8.589182e-01 -1.122073e+00 7.566251e-02 1.390134e-01 1.091848e+00 7.860604e-01 1.146358e+00 -3.294191e-01 -7.500440e-01 -1.293016e+00 -2.455801e-01 4.470010e-01 -2.404927e-01 -5.689480e-01 -1.134911e-02 -6.894331e-02 1.088665e-01 -5.061382e-02 -1.956075e-01 -2.930989e-01 1.882817e-01 2.582062e-01 4.740198e-01 -2.858068e-02 2.085990e-01 -2.569446e-01 -2.237500e-01 3.737814e-02
<VARIANCE> 39
 1.121697e+01 1.636128e+01 4.274527e+01 7.138294e+01 5.321846e+01 8.328923e+01 6.315373e+01 9.283938e+01 5.182998e+01 6.861984e+01 7.660275e+01 4.988368e+01 2.486216e+01 9.468437e-01 2.276755e+00 3.467509e+00 4.854588e+00 6.430878e+00 4.904382e+00 5.669415e+00 7.680479e+00 5.914547e+00 6.978588e+00 6.016902e+00 4.907184e+00 2.364129e+00 1.218741e-01 3.559021e-01 5.433581e-01 7.181339e-01 1.223256e+00 7.843736e-01 1.001150e+00 1.178514e+00 1.115673e+00 1.336520e+00 1.136183e+00 6.711442e-01 4.343496e-01
<GCONST> 1.357463e+02
<STATE> 3
<MEAN> 39
 2.837547e+00 -2.154889e+00 8.574650e+00 9.794158e-01 -2.357207e+00 3.301095e+00 -9.158048e+00 -1.510175e+01 7.637039e-01 3.517753e+00 -8.622948e-01 -7.679835e+00 9.724396e-01 -1.683320e-02 -3.684721e-01 7.573116e-02 -3.176900e-02 -4.281865e-01 -3.984921e-01 -6.285043e-01 1.393835e+00 3.272870e-01 4.384341e-01 -3.865096e-01 -1.486911e-01 4.217081e-01 -5.588579e-03 -2.384147e-01 -5.930167e-01 -4.432614e-02 -5.392017e-01 -5.066566e-01 2.683062e-01 1.383760e+00 9.309589e-02 -5.885964e-01 2.729354e-01 7.234020e-01 -6.749374e-04
<VARIANCE> 39
 1.168899e+01 1.570729e+01 5.666938e+01 5.215275e+01 2.557777e+01 6.319461e+01 7.420205e+01 6.284255e+01 4.888830e+01 3.545885e+01 5.287605e+01 4.549346e+01 3.879593e+01 9.610052e-01 2.151653e+00 4.551902e+00 3.787320e+00 4.144172e+00 8.880245e+00 6.330902e+00 1.728772e+01 6.574550e+00 5.218617e+00 4.273882e+00 6.145377e+00 3.351341e+00 1.921328e-01 4.386402e-01 4.216125e-01 5.348307e-01 9.569121e-01 8.503686e-01 1.126545e+00 1.777637e+00 8.532704e-01 8.378934e-01 1.041428e+00 8.227287e-01 6.942337e-01
<GCONST> 1.351764e+02
<STATE> 4
<MEAN> 39
 3.142844e+00 -6.181395e-01 3.535137e-01 -1.210381e+00 -1.121937e+00 5.431976e-01 -5.792036e+00 -3.342251e+00 1.476431e+00 2.740541e+00 1.177962e+00 6.763198e-01 8.157570e-01 -4.263147e-01 4.009475e-02 -6.500537e-01 1.334904e-01 -4.692668e-01 -6.832563e-01 1.136147e+00 2.085672e+00 -1.479818e-01 -3.409678e-01 2.044059e-01 6.305257e-01 -1.360701e-01 -1.409307e-01 1.035644e-01 9.698718e-02 -8.387516e-02 3.234577e-02 2.529686e-01 2.221495e-01 -4.929116e-01 -8.713815e-02 -9.641768e-02 4.673057e-02 -1.468899e-01 -6.698176e-02
<VARIANCE> 39
 2.078700e+01 4.634540e+01 5.664994e+01 8.208620e+01 7.967533e+01 9.560064e+01 8.316470e+01 8.240558e+01 5.710258e+01 5.009892e+01 4.667167e+01 4.604268e+01 2.627047e+01 1.682567e+00 2.719449e+00 2.481980e+00 4.132070e+00 6.641957e+00 5.705860e+00 4.048509e+00 7.106409e+00 4.707218e+00 4.410776e+00 5.404840e+00 3.507352e+00 2.340179e+00 2.187968e-01 4.188383e-01 3.016435e-01 5.486609e-01 6.767997e-01 8.050089e-01 8.212489e-01 1.155648e+00 7.233784e-01 7.509638e-01 6.310136e-01 6.032937e-01 4.605980e-01
<GCONST> 1.341319e+02
<TRANSP> 5
 0.000000e+00 1.000000e+00 0.000000e+00 0.000000e+00 0.000000e+00
 0.000000e+00 6.881087e-01 3.118913e-01 0.000000e+00 0.000000e+00
 0.000000e+00 0.000000e+00 6.616803e-01 3.383198e-01 0.000000e+00
 0.000000e+00 0.000000e+00 0.000000e+00 7.227623e-01 2.772377e-01
 0.000000e+00 0.000000e+00 0.000000e+00 0.000000e+00 0.000000e+00
<ENDHMM>
~o
<STREAMINFO> 1 39
<VECSIZE> 39<NULLD><MFCC_D_A_Z><DIAGC>
~h "m"
<BEGINHMM>
<NUMSTATES> 5
<STATE> 2
<MEAN> 39
 6.247962e+00 1.003214e-01 -2.228471e+00 -4.058889e+00 -2.901493e+00 7.019829e+00 -2.916285e-01 -4.005837e+00 -2.798420e+00 -3.660707e+00 2.687186e+00 -1.282619e-01 -1.900128e+00 8.240409e-01 5.385891e-01 1.160775e+00 6.890480e-01 -1.216723e-01 1.971181e+00 2.092477e+00 -2.429171e+00 -2.611013e+00 -1.189256e+00 -4.136956e-01 -9.713478e-01 8.530452e-01 -1.948677e-01 -7.733084e-02 2.921193e-01 9.573676e-02 6.280208e-02 2.015372e-01 1.923976e-01 -2.560407e-01 -1.298210e-01 -3.260283e-01 -2.094636e-01 -2.690435e-01 1.660325e-01
<VARIANCE> 39
 2.979795e+01 3.129262e+01 4.151094e+01 8.125779e+01 7.203979e+01 7.259953e+01 6.728620e+01 6.307485e+01 5.830981e+01 4.595859e+01 5.063975e+01 2.904681e+01 3.400777e+01 2.515078e+00 3.037067e+00 4.231292e+00 5.273764e+00 6.311115e+00 6.381265e+00 6.472097e+00 6.779626e+00 6.797656e+00 4.160317e+00 4.497317e+00 3.411575e+00 3.642438e+00 3.743106e-01 4.229619e-01 4.500046e-01 6.024285e-01 8.384353e-01 7.540919e-01 9.424412e-01 9.362431e-01 8.949119e-01 6.468252e-01 6.760155e-01 5.360331e-01 5.259519e-01
<GCONST> 1.363124e+02
<STATE> 3
<MEAN> 39
 7.387099e+00 9.063691e-02 3.312647e+00 -1.851935e+00 -3.355955e+00 1.482966e+01 5.865652e+00 -1.274433e+01 -1.043897e+01 -1.049656e+01 6.228121e-01 -4.333236e+00 4.357578e-01 -1.152754e-01 2.167057e-02 7.008759e-02 -7.416893e-02 1.423499e-01 -2.305354e-01 -1.317560e-02 1.062107e-01 5.408075e-02 -7.080938e-02 -2.266383e-01 2.014394e-01 -1.014933e-01 -6.854948e-02 -8.813538e-02 -4.542474e-01 -3.671366e-01 -2.209021e-01 -7.319010e-01 -7.849808e-01 9.099072e-01 8.288381e-01 5.121855e-01 2.233290e-01 4.722168e-01 -3.278739e-01
<VARIANCE> 39
 5.468463e+00 1.493560e+01 1.677211e+01 2.575208e+01 3.112762e+01 5.364822e+01 3.232979e+01 4.977627e+01 3.972781e+01 5.079279e+01 4.717823e+01 2.483067e+01 3.226891e+01 3.503524e-01 1.323964e+00 2.103959e+00 2.861991e+00 2.361883e+00 5.124932e+00 4.681809e+00 5.392710e+00 5.382647e+00 4.203643e+00 3.370358e+00 2.799435e+00 2.806038e+00 1.255279e-01 2.575813e-01 3.495449e-01 4.001999e-01 5.931680e-01 5.826838e-01 7.885806e-01 9.242435e-01 9.620385e-01 6.554374e-01 7.309068e-01 5.356197e-01 6.274055e-01
<GCONST> 1.196046e+02
<STATE> 4
<MEAN> 39
 6.533762e+00 -4.421851e-01 -2.466454e+00 -6.358782e+00 -4.285525e+00 6.292013e+00 -2.082203e+00 -2.536797e+00 -2.226041e+00 -5.134236e+00 3.084342e+00 1.226181e+00 -3.846891e+00 -6.263978e-01 -3.645793e-01 -8.877631e-01 -9.029825e-01 -7.700812e-01 -1.213593e+00 -1.818377e+00 2.472670e+00 2.042281e+00 8.506249e-01 6.198369e-01 8.340540e-01 -8.163677e-01 -1.651051e-01 2.511162e-02 2.791779e-01 1.865466e-01 2.304648e-02 3.913837e-01 3.889316e-01 -2.994565e-01 -3.010927e-01 -2.340657e-01 -1.108634e-01 -4.114281e-01 2.513480e-01
<VARIANCE> 39
 1.417793e+01 3.424243e+01 5.020025e+01 7.602740e+01 7.590776e+01 6.811234e+01 5.643390e+01 5.841171e+01 5.579766e+01 3.737566e+01 4.996947e+01 2.317043e+01 4.146392e+01 1.481750e+00 2.174536e+00 3.873853e+00 4.228587e+00 7.755260e+00 4.703403e+00 5.587145e+00 7.570448e+00 6.508693e+00 3.834819e+00 5.085103e+00 4.111634e+00 4.822298e+00 1.769122e-01 3.622478e-01 3.751259e-01 5.933583e-01 8.796957e-01 7.169988e-01 9.120399e-01 1.025815e+00 8.893633e-01 5.662794e-01 7.840008e-01 5.555460e-01 6.108176e-01
<GCONST> 1.335333e+02
<TRANSP> 5
 0.000000e+00 1.000000e+00 0.000000e+00 0.000000e+00 0.000000e+00
 0.000000e+00 6.616668e-01 3.383332e-01 0.000000e+00 0.000000e+00
 0.000000e+00 0.000000e+00 8.079475e-01 1.920525e-01 0.000000e+00
 0.000000e+00 0.000000e+00 0.000000e+00 6.826272e-01 3.173728e-01
 0.000000e+00 0.000000e+00 0.000000e+00 0.000000e+00 0.000000e+00
<ENDHMM>
~o
<STREAMINFO> 1 39
<VECSIZE> 39<NULLD><MFCC_D_A_Z><DIAGC>
~h "mq"
<BEGINHMM>
<NUMSTATES> 5
<STATE> 2
<MEAN> 39
 4.615844e+00 -7.921822e+00 -9.780790e+00 -1.194682e+01 8.176601e-01 1.118632e+01 -7.968950e+00 3.233442e+00 1.152870e+01 -7.507835e+00 5.423794e+00 -4.127465e+00 -1.232432e+01 -6.745912e-02 -5.769480e-02 -6.843606e-02 2.511640e-01 3.583792e-02 -9.634034e-02 -1.203069e-01 5.600625e-02 -2.670807e-02 -1.248511e-02 -1.865068e-01 -1.642514e-01 6.504256e-03 -2.659778e-02 2.084312e-01 2.114350e-01 2.759133e-01 -1.964506e-02 -4.209126e-01 1.681304e-01 -3.740039e-02 -2.049540e-01 4.359297e-01 -2.573074e-01 -8.139310e-02 4.951386e-01
<VARIANCE> 39
 7.420886e+00 1.691147e+01 2.087975e+01 2.219094e+01 2.278296e+01 3.282994e+01 3.484629e+01 3.387762e+01 4.703733e+01 2.291607e+01 2.535405e+01 2.569311e+01 3.254964e+01 3.070527e-01 7.446504e-01 8.694657e-01 1.060568e+00 1.895500e+00 2.152556e+00 1.653724e+00 1.629170e+00 1.707237e+00 3.105333e+00 2.276054e+00 2.197993e+00 2.904073e+00 1.207203e-01 1.648051e-01 1.329298e-01 2.229571e-01 3.121906e-01 5.387339e-01 3.796623e-01 3.464868e-01 4.541916e-01 2.952035e-01 3.917761e-01 4.356106e-01 2.699726e-01
<GCONST> 1.021345e+02
<STATE> 3
<MEAN> 39
 5.621018e+00 -6.255610e+00 -6.456351e+00 -6.842081e+00 -3.323525e+00 6.724305e+00 -6.718018e+00 1.462355e+00 8.904276e+00 -1.470210e+00 1.408333e+00 -8.129850e+00 -3.639341e+00 4.342081e-01 1.310339e+00 1.101751e+00 1.858077e+00 7.054687e-01 -1.924960e+00 1.019328e+00 1.419741e-01 -1.371310e+00 1.709209e+00 -1.026886e+00 -2.496264e-01 1.951063e+00 -1.773757e-01 4.525633e-01 1.120827e-01 1.115842e-01 6.602184e-01 -2.583539e-01 3.022835e-01 2.377808e-01 -3.182632e-01 -2.029820e-01 7.847568e-02 7.111161e-01 -4.221972e-01
<VARIANCE> 39
 8.584566e+00 3.463029e+01 3.194684e+01 3.346120e+01 3.468475e+01 4.928001e+01 4.295268e+01 5.908282e+01 7.785168e+01 2.931726e+01 4.260392e+01 4.107957e+01 3.302555e+01 1.003641e+00 1.992335e+00 1.825352e+00 2.113410e+00 4.829063e+00 4.817670e+00 3.945177e+00 4.145603e+00 4.401219e+00 3.183952e+00 5.292748e+00 3.511240e+00 3.414165e+00 3.581270e-01 3.118011e-01 2.524097e-01 3.754703e-01 5.915024e-01 8.151943e-01 8.557361e-01 7.656321e-01 8.379933e-01 5.533801e-01 7.488189e-01 5.333724e-01 5.077738e-01
<GCONST> 1.250369e+02
<STATE> 4
<MEAN> 39
 3.943540e+00 1.512066e+00 -1.840202e+00 -1.598263e+00 1.721517e+00 1.808811e+00 1.128228e+00 1.926057e+00 1.316364e+00 1.695830e+00 -1.314688e+00 -1.802304e+00 -1.673566e+00 -1.629105e+00 8.751010e-01 5.195367e-01 9.134820e-01 1.615622e+00 -1.277874e+00 9.944494e-01 9.341112e-01 -2.479533e-01 5.517492e-01 -3.384824e-01 9.537722e-01 -1.858666e-01 -5.847270e-01 -3.688458e-01 -9.077786e-02 -1.772032e-01 -2.688788e-01 -6.071156e-02 -2.854942e-01 -6.717169e-02 1.332233e-01 -3.330078e-01 2.591618e-01 3.816732e-03 -9.647445e-02
<VARIANCE> 39
 5.157487e+01 3.316701e+01 4.152154e+01 3.753684e+01 5.613650e+01 5.944254e+01 6.003795e+01 7.042478e+01 6.270568e+01 3.773652e+01 4.549837e+01 4.147365e+01 3.418608e+01 8.122608e+00 3.229380e+00 2.801280e+00 2.812356e+00 4.627518e+00 4.937540e+00 5.669121e+00 5.360710e+00 4.864977e+00 3.411735e+00 3.716165e+00 3.092142e+00 2.777258e+00 1.072103e+00 4.957293e-01 4.516059e-01 4.548023e-01 8.551965e-01 1.032998e+00 8.457911e-01 1.053604e+00 8.870175e-01 6.998695e-01 8.274192e-01 6.170004e-01 7.323553e-01
<GCONST> 1.360109e+02
<TRANSP> 5
 0.000000e+00 1.000000e+00 0.000000e+00 0.000000e+00 0.000000e+00
 0.000000e+00 8.187295e-01 1.812705e-01 0.000000e+00 0.000000e+00
 0.000000e+00 0.000000e+00 5.433851e-01 4.566149e-01 0.000000e+00
 0.000000e+00 0.000000e+00 0.000000e+00 6.449205e-01 3.550794e-01
 0.000000e+00 0.000000e+00 0.000000e+00 0.000000e+00 0.000000e+00
<ENDHMM>
~o
<STREAMINFO> 1 39
<VECSIZE> 39<NULLD><MFCC_D_A_Z><DIAGC>
~h "n"
<BEGINHMM>
<NUMSTATES> 5
<STATE> 2
<MEAN> 39
 6.525093e+00 -1.779371e+00 -1.129243e+00 -1.713701e+00 -4.828349e+00 4.974777e+00 -2.665974e+00 -7.142316e+00 -2.346057e+00 -1.513077e+00 2.510232e+00 -1.844357e+00 1.337391e+00 6.422380e-01 3.432364e-01 1.045113e+00 1.289813e+00 1.678536e-01 1.721983e+00 7.010610e-01 -4.068563e+00 -1.649022e+00 1.680503e-01 -4.644973e-01 -1.565578e-01 2.833137e-01 -1.624285e-01 3.629975e-02 1.870733e-01 -5.330124e-02 -1.010151e-01 -5.890712e-02 1.630822e-02 1.028291e-01 1.008791e-01 -8.908294e-02 -1.174989e-01 1.273993e-01 -1.882865e-01
<VARIANCE> 39
 1.511014e+01 2.725219e+01 4.389375e+01 5.574659e+01 4.373337e+01 7.455148e+01 6.945836e+01 1.029685e+02 5.764701e+01 4.301554e+01 5.622136e+01 3.693814e+01 3.565627e+01 1.801919e+00 2.584254e+00 3.851401e+00 4.090056e+00 4.770081e+00 5.783484e+00 4.932492e+00 9.977388e+00 5.876402e+00 3.941392e+00 4.151853e+00 3.855797e+00 2.849929e+00 2.684721e-01 3.697422e-01 4.908791e-01 5.827906e-01 6.203240e-01 9.102064e-01 7.611887e-01 1.999050e+00 8.366206e-01 6.054050e-01 7.207570e-01 5.666299e-01 4.508107e-01
<GCONST> 1.338794e+02
<STATE> 3
<MEAN> 39
 6.998447e+00 -8.289111e-01 4.106950e+00 2.901475e+00 -4.342092e+00 8.190151e+00 -1.163227e+00 -1.814421e+01 -5.732696e+00 1.374923e-01 7.885160e-01 -9.650983e-01 5.905814e-01 -9.387761e-02 4.451184e-01 6.909166e-02 1.819734e-01 4.726585e-01 -3.152157e-01 1.220123e-01 1.366318e-01 -1.639984e-01 2.509421e-01 -4.317662e-01 1.456475e-01 8.549028e-02 -1.308829e-01 -7.381115e-03 -2.716352e-01 -2.736859e-01 9.291157e-02 -5.069247e-01 -1.182843e-01 1.065765e+00 3.083247e-01 4.624498e-02 6.076956e-02 3.684413e-02 2.384782e-02
<VARIANCE> 39
 6.813812e+00 1.870217e+01 1.813939e+01 2.364124e+01 3.402831e+01 4.842525e+01 4.208214e+01 2.934112e+01 3.155505e+01 6.281738e+01 3.819495e+01 2.308760e+01 2.897686e+01 2.844454e-01 1.101376e+00 1.252857e+00 1.167276e+00 1.462120e+00 2.233905e+00 2.276305e+00 4.548635e+00 2.238569e+00 1.768143e+00 2.382208e+00 1.405276e+00 1.488697e+00 1.054945e-01 2.112336e-01 3.448806e-01 3.366865e-01 4.107174e-01 5.533358e-01 5.020911e-01 1.371600e+00 5.822006e-01 4.367016e-01 4.600893e-01 3.831630e-01 3.137060e-01
<GCONST> 1.084985e+02
<STATE> 4
<MEAN> 39
 3.192134e+00 7.080289e-01 4.861418e-06 1.891341e+00 1.211276e+00 -1.298624e-01 2.028787e-01 -3.245650e+00 -3.574716e+00 8.860375e-01 -1.241372e+00 5.307041e-02 1.747302e+00 -9.521253e-01 -2.344156e-01 -4.904740e-01 -6.149927e-01 3.761285e-01 -1.289162e+00 -1.888648e-01 3.062744e+00 8.478211e-01 -4.815827e-02 3.796819e-01 2.752730e-01 -3.335294e-01 -1.535349e-01 -1.235494e-01 3.748743e-02 -1.042141e-01 -2.617998e-01 2.670923e-01 -2.071078e-02 -9.458369e-02 1.307442e-01 -1.502405e-01 1.899239e-01 -2.379235e-02 -1.728561e-01
<VARIANCE> 39
 3.273317e+01 3.781769e+01 3.861362e+01 4.059927e+01 6.311365e+01 6.464387e+01 7.138641e+01 1.176607e+02 5.639910e+01 4.299809e+01 4.370068e+01 3.254435e+01 2.910046e+01 1.915337e+00 2.543107e+00 3.283308e+00 3.695431e+00 5.052951e+00 5.627706e+00 5.331680e+00 9.289530e+00 4.941833e+00 3.670535e+00 4.391330e+00 3.345131e+00 2.611307e+00 2.970352e-01 4.485830e-01 3.757549e-01 5.299058e-01 6.281892e-01 9.200994e-01 8.801740e-01 1.778683e+00 7.752767e-01 6.030295e-01 7.125834e-01 5.399455e-01 4.395511e-01
<GCONST> 1.335374e+02
<TRANSP> 5
 0.000000e+00 1.000000e+00 0.000000e+00 0.000000e+00 0.000000e+00
 0.000000e+00 6.846231e-01 3.153769e-01 0.000000e+00 0.000000e+00
 0.000000e+00 0.000000e+00 7.878530e-01 2.121470e-01 0.000000e+00
 0.000000e+00 0.000000e+00 0.000000e+00 7.494394e-01 2.505606e-01
 0.000000e+00 0.000000e+00 0.000000e+00 0.000000e+00 0.000000e+00
<ENDHMM>
~o
<STREAMINFO> 1 39
<VECSIZE> 39<NULLD><MFCC_D_A_Z><DIAGC>
~h "ng"
<BEGINHMM>
<NUMSTATES> 5
<STATE> 2
<MEAN> 39
 6.385108e+00 -1.202331e+00 -2.715249e+00 -8.453646e+00 -1.018538e+01 9.762145e+00 -1.923790e+00 -4.236996e+00 -4.616918e+00 -6.146988e+00 7.703388e+00 -2.689773e-01 -2.130746e+00 3.999239e-01 3.978665e-02 1.887179e+00 1.543816e+00 -3.718758e-01 6.196905e-01 4.486728e-01 -3.085131e+00 -2.175857e+00 6.679865e-01 -8.092183e-01 -1.646091e-01 1.421591e+00 8.016697e-02 -2.021224e-01 2.036733e-01 1.861741e-02 2.092046e-01 1.375148e-02 5.992164e-02 -3.759487e-01 4.525887e-01 7.465348e-02 -3.501638e-01 5.847353e-02 -3.341668e-02
<VARIANCE> 39
 7.925424e+00 1.584349e+01 3.571654e+01 3.280247e+01 4.028057e+01 4.363253e+01 3.592441e+01 5.511379e+01 5.461870e+01 4.180064e+01 4.141667e+01 2.075205e+01 2.470722e+01 6.913038e-01 1.146881e+00 3.628485e+00 2.075561e+00 4.381751e+00 3.320570e+00 3.435541e+00 5.776567e+00 4.552545e+00 3.049896e+00 2.776166e+00 2.876273e+00 2.478418e+00 7.005312e-02 1.151172e-01 4.008348e-01 3.536771e-01 3.906747e-01 4.591179e-01 4.473673e-01 9.322267e-01 6.824529e-01 5.424627e-01 5.263864e-01 3.988803e-01 3.991752e-01
<GCONST> 1.165642e+02
<STATE> 3
<MEAN> 39
 7.424096e+00 -1.567806e+00 3.864735e+00 -4.228002e+00 -1.041732e+01 1.084673e+01 4.944442e-01 -1.523794e+01 -8.270497e+00 -4.008310e+00 3.428682e+00 -2.091369e-01 1.284782e+00 1.317424e-01 4.439873e-01 3.803532e-01 6.189810e-01 1.080289e-01 -2.224740e-01 7.695252e-01 -7.473518e-01 -5.347760e-01 5.313197e-01 -9.282095e-01 -1.617253e-01 7.194046e-01 -1.259664e-01 2.361188e-01 -4.013261e-01 -7.841691e-02 1.570410e-01 -3.746800e-01 6.746940e-02 9.769488e-01 1.077873e-01 3.369743e-02 -7.002995e-02 -4.812970e-02 -6.084167e-02
<VARIANCE> 39
 5.645273e+00 1.240583e+01 1.844472e+01 2.086974e+01 3.029118e+01 3.222784e+01 2.465035e+01 3.375305e+01 2.298613e+01 3.867364e+01 4.159032e+01 2.010554e+01 2.024735e+01 2.397283e-01 9.065982e-01 1.323558e+00 1.188451e+00 1.358987e+00 1.436904e+00 1.771360e+00 3.689543e+00 2.029691e+00 1.572598e+00 1.835771e+00 1.449420e+00 1.284700e+00 6.213399e-02 1.122392e-01 2.704526e-01 2.580620e-01 4.119708e-01 4.386343e-01 4.210792e-01 6.528667e-01 4.971378e-01 3.397387e-01 3.880869e-01 3.180489e-01 3.064232e-01
<GCONST> 1.001933e+02
<STATE> 4
<MEAN> 39
 5.894141e+00 1.891582e+00 1.978686e+00 -8.276735e-01 -6.041176e+00 3.940356e+00 4.599854e+00 -6.207310e+00 -9.627737e+00 -1.370007e-01 -1.064858e+00 -1.188624e+00 2.992029e+00 -1.099577e+00 1.860578e-02 -3.569087e-01 6.092655e-01 1.616639e+00 -2.398464e+00 -1.797444e-01 3.399492e+00 3.138848e-01 7.517427e-01 -6.891675e-01 -1.206317e-01 -4.154142e-01 -2.795244e-01 -4.257336e-01 1.306430e-01 -1.705101e-01 -1.933332e-01 6.315026e-03 -6.023033e-01 1.892126e-02 2.920706e-01 -7.922705e-02 4.222141e-01 1.389627e-02 -2.263560e-01
<VARIANCE> 39
