~o
<STREAMINFO> 1 39
<VECSIZE> 39<NULLD><MFCC_D_A_Z><DIAGC>
~h "a"
<BEGINHMM>
<NUMSTATES> 5
<STATE> 2
<NUMMIXES> 2
<MIXTURE> 1 6.144491e-01
<MEAN> 39
 2.804732e+00 -8.359169e+00 -5.979863e+00 -5.545929e+00 1.260597e+00 -2.714133e+00 6.691905e-01 2.181789e+00 7.819448e+00 1.240712e+00 -5.794470e+00 -4.920338e+00 -4.304935e+00 -5.133605e-02 -2.567487e-01 4.893457e-01 2.853135e-01 4.085558e-02 -6.259272e-02 -1.197626e-01 2.018747e-01 -8.059265e-02 -2.496967e-02 -1.528155e-01 4.916260e-02 2.524238e-01 -1.382810e-02 9.084108e-01 6.807296e-01 7.273688e-01 1.056983e-01 1.065224e-01 -6.498556e-01 -3.711786e-01 -8.517637e-01 2.011961e-02 6.539781e-01 2.425731e-01 6.771349e-01
<VARIANCE> 39
 9.087996e+00 1.469548e+01 3.439505e+01 2.004203e+01 3.990140e+01 5.333267e+01 3.628253e+01 4.647732e+01 3.646329e+01 3.033577e+01 3.472925e+01 3.269379e+01 3.009808e+01 8.120476e-01 2.259353e+00 2.206515e+00 2.279315e+00 2.807914e+00 4.610196e+00 4.757872e+00 5.077166e+00 3.213602e+00 2.825437e+00 4.203948e+00 3.171412e+00 5.001290e+00 2.927099e-01 3.480689e-01 3.333753e-01 3.893816e-01 4.718214e-01 7.131678e-01 7.308126e-01 9.033272e-01 6.808359e-01 6.521640e-01 5.856430e-01 5.361073e-01 5.257675e-01
<GCONST> 1.215786e+02
<MIXTURE> 2 3.855509e-01
<MEAN> 39
 4.008541e-01 -3.696793e+00 -9.268470e+00 8.120006e-02 4.992461e+00 3.014598e+00 3.920603e+00 -2.711346e+00 3.509480e+00 1.431914e+00 -3.387844e+00 -5.290298e-01 -1.370732e+00 7.231185e-01 -5.950654e-01 -2.337495e-01 -1.189992e-01 1.768304e-01 2.029538e-01 4.620630e-01 -9.596630e-01 6.664598e-02 -2.623203e-02 -5.632227e-01 -2.278856e-01 -6.969043e-01 -5.788832e-02 1.409618e-01 4.890503e-01 -1.099247e-01 -1.202857e-01 -1.135740e-02 -3.034665e-01 3.175395e-01 3.503383e-03 -1.438279e-01 1.211696e-01 -6.760492e-03 4.451937e-02
<VARIANCE> 39
 4.889970e+01 4.515362e+01 7.680682e+01 3.616888e+01 7.087017e+01 6.977483e+01 7.838571e+01 7.664899e+01 4.812929e+01 4.561763e+01 7.517316e+01 3.833561e+01 4.677493e+01 3.378093e+00 4.534063e+00 5.631241e+00 3.676989e+00 5.129025e+00 5.044526e+00 5.334063e+00 6.983586e+00 4.363861e+00 4.089900e+00 4.963286e+00 3.649170e+00 3.364251e+00 6.950763e-01 7.910640e-01 1.010433e+00 6.683645e-01 8.619261e-01 9.056038e-01 1.061689e+00 1.252966e+00 8.682363e-01 7.716611e-01 9.734848e-01 6.733792e-01 6.938957e-01
<GCONST> 1.414998e+02
<STATE> 3
<NUMMIXES> 2
<MIXTURE> 1 6.602122e-01
<MEAN> 39
 4.224589e+00 -5.809054e+00 -3.168472e+00 -3.178056e+00 9.584566e-01 -2.740249e+00 -2.636222e+00 6.966568e-01 4.821249e+00 2.112356e+00 -2.049895e+00 -4.586768e+00 -2.149056e+00 4.809160e-01 2.119881e+00 1.997047e+00 1.566471e+00 3.430494e-02 -6.784586e-01 -1.169186e+00 -6.965346e-01 -1.421463e+00 1.219631e-01 9.820559e-01 -1.956292e-01 1.291036e+00 -3.032621e-02 5.242945e-01 2.263073e-01 3.230596e-01 7.953610e-02 2.243808e-01 9.338013e-02 -3.965041e-01 -2.929473e-01 -5.201954e-02 -1.427981e-01 1.590317e-01 6.512692e-02
<VARIANCE> 39
 1.799053e+01 2.643085e+01 4.252847e+01 3.304733e+01 5.077542e+01 5.835344e+01 5.417330e+01 6.571442e+01 4.660278e+01 4.249031e+01 5.032059e+01 4.651927e+01 4.800792e+01 1.340933e+00 2.044265e+00 2.320773e+00 2.717863e+00 3.505293e+00 4.412498e+00 4.983319e+00 6.306711e+00 3.841538e+00 4.073406e+00 3.742619e+00 3.001715e+00 3.162725e+00 2.774569e-01 3.360019e-01 3.835636e-01 5.308607e-01 5.898544e-01 7.460834e-01 7.488071e-01 1.054013e+00 6.211384e-01 6.886585e-01 6.487910e-01 6.610966e-01 7.377774e-01
<GCONST> 1.288175e+02
<MIXTURE> 2 3.397879e-01
<MEAN> 39
 2.825583e+00 -1.229177e+01 -8.966676e+00 -4.442229e+00 5.771461e+00 5.280701e+00 5.792081e+00 -3.134241e+00 6.309793e+00 1.038589e+00 -1.157058e+01 7.648161e-02 -7.627268e+00 4.670871e-02 2.214924e-01 6.722417e-01 -7.605293e-02 -3.836534e-01 -7.147822e-01 -1.045422e+00 6.467216e-01 2.244363e-01 8.988971e-02 2.051078e-01 -2.688315e-01 2.736676e-01 1.522165e-01 7.824371e-01 3.715471e-01 2.113522e-01 -9.441656e-02 -6.127222e-01 -5.075595e-01 2.792787e-01 -2.138619e-01 1.522333e-01 7.112376e-01 -4.204246e-01 4.590391e-01
<VARIANCE> 39
 7.015452e+00 9.599857e+00 1.869041e+01 1.842538e+01 2.057236e+01 3.671349e+01 2.131209e+01 4.220672e+01 4.122424e+01 3.894137e+01 3.094529e+01 2.074946e+01 2.567501e+01 5.153270e-01 1.496511e+00 1.272325e+00 1.525595e+00 1.479635e+00 3.456816e+00 2.468297e+00 3.000675e+00 1.958364e+00 2.457007e+00 3.291720e+00 2.636790e+00 2.526227e+00 1.262156e-01 1.989993e-01 2.221624e-01 3.208782e-01 3.251674e-01 3.897919e-01 4.912549e-01 5.824094e-01 4.341563e-01 5.122296e-01 4.610384e-01 3.269184e-01 4.303246e-01
<GCONST> 1.070647e+02
<STATE> 4
<NUMMIXES> 2
<MIXTURE> 1 5.462826e-01
<MEAN> 39
 5.243486e+00 3.670280e-01 -2.117556e+00 -2.651481e-01 5.123929e+00 -1.420331e+00 -1.570256e+00 3.570999e+00 3.628388e+00 1.387070e+00 -2.592710e+00 -4.719543e+00 -4.839035e-01 2.474434e-01 1.654104e+00 7.585985e-01 4.263135e-01 3.430149e-02 4.828077e-01 1.128305e-01 9.418107e-01 -1.624596e-01 -4.279442e-01 -9.470163e-02 3.384971e-02 4.501768e-02 -3.369562e-01 -3.921613e-01 -3.333672e-01 -3.873150e-01 -3.474548e-01 2.214721e-02 1.742838e-01 -1.289810e-01 9.815697e-02 1.226725e-01 1.636055e-02 1.991632e-01 -2.305978e-01
<VARIANCE> 39
 3.467680e+01 3.993592e+01 3.806977e+01 3.236306e+01 4.177132e+01 5.234000e+01 6.212099e+01 6.287535e+01 4.269407e+01 4.320430e+01 5.366571e+01 4.279577e+01 3.858498e+01 3.361213e+00 3.080542e+00 2.330518e+00 2.588775e+00 2.925277e+00 2.726193e+00 3.589842e+00 3.665706e+00 3.111914e+00 3.071368e+00 3.239463e+00 2.487175e+00 2.537048e+00 4.164340e-01 4.111593e-01 3.640281e-01 4.577543e-01 5.170647e-01 6.192995e-01 7.922031e-01 6.972603e-01 6.012560e-01 6.326658e-01 6.950064e-01 4.901826e-01 5.637536e-01
<GCONST> 1.270568e+02
<MIXTURE> 2 4.537174e-01
<MEAN> 39
 4.623521e+00 6.028178e-01 5.141595e+00 4.259145e+00 -2.132112e+00 -5.016806e+00 -4.767111e+00 -9.571250e+00 -4.120854e-01 2.567453e+00 -2.202092e+00 -3.887281e+00 5.112085e-01 -4.299520e-02 2.179765e+00 1.826798e+00 1.715498e+00 -4.684462e-01 -5.631080e-01 -8.989011e-01 -2.287196e+00 -1.372567e+00 5.644590e-01 2.925130e-01 3.532955e-01 1.154707e+00 -2.488504e-02 -3.143572e-01 -5.737157e-01 -4.786144e-01 2.876852e-01 3.751274e-01 2.583841e-01 6.465534e-01 3.051609e-01 -1.756676e-01 -1.532190e-01 -1.031046e-02 -2.462343e-01
<VARIANCE> 39
 1.147780e+01 2.270433e+01 3.246455e+01 3.927025e+01 4.246024e+01 4.178463e+01 5.878556e+01 8.970383e+01 5.794959e+01 4.390323e+01 5.542051e+01 3.773105e+01 3.752988e+01 4.941552e-01 1.651246e+00 2.257072e+00 3.283864e+00 3.457616e+00 3.843771e+00 3.381935e+00 5.308418e+00 4.199741e+00 3.908221e+00 3.178218e+00 3.235508e+00 2.870846e+00 9.314132e-02 2.810192e-01 3.223633e-01 4.797406e-01 5.162181e-01 4.923685e-01 7.643238e-01 9.579880e-01 6.370806e-01 6.112300e-01 6.269622e-01 5.559512e-01 5.278512e-01
<GCONST> 1.231851e+02
<TRANSP> 5
 0.000000e+00 1.000000e+00 0.000000e+00 0.000000e+00 0.000000e+00
 0.000000e+00 4.844279e-01 5.155721e-01 0.000000e+00 0.000000e+00
 0.000000e+00 0.000000e+00 5.693488e-01 4.306512e-01 0.000000e+00
 0.000000e+00 0.000000e+00 0.000000e+00 5.108050e-01 4.891950e-01
 0.000000e+00 0.000000e+00 0.000000e+00 0.000000e+00 0.000000e+00
<ENDHMM>
~o
<STREAMINFO> 1 39
<VECSIZE> 39<NULLD><MFCC_D_A_Z><DIAGC>
~h "aa"
<BEGINHMM>
<NUMSTATES> 5
<STATE> 2
<NUMMIXES> 2
<MIXTURE> 1 6.594976e-01
<MEAN> 39
 3.471172e+00 -1.221013e+01 -1.119145e+01 -5.151572e+00 6.734580e+00 1.028256e+01 6.430401e+00 -6.550338e+00 2.446598e+00 1.948493e+00 -7.996264e+00 1.699979e+00 -8.277289e+00 6.312324e-02 -7.629425e-02 -1.502026e-01 1.050192e-01 -1.421291e-01 2.672693e-01 -2.593185e-02 -3.037576e-01 -3.306783e-02 7.161947e-02 -3.411301e-02 1.778947e-01 -1.434520e-01 5.525280e-02 2.439756e-01 9.941411e-02 -2.206995e-02 -1.065916e-01 -3.834218e-01 -1.231956e-01 2.904925e-01 1.748111e-01 -5.879935e-02 1.225602e-01 -2.637419e-01 6.412932e-02
<VARIANCE> 39
 5.529681e+00 9.721529e+00 1.332757e+01 1.655939e+01 1.675911e+01 3.222595e+01 1.966237e+01 2.446380e+01 3.858627e+01 4.033390e+01 3.416465e+01 2.387147e+01 2.434332e+01 1.933761e-01 4.480905e-01 4.610429e-01 6.354180e-01 7.319959e-01 1.231151e+00 9.834650e-01 1.129879e+00 1.127612e+00 1.132896e+00 1.390401e+00 1.169886e+00 1.132028e+00 3.374053e-02 8.554199e-02 9.205700e-02 1.171339e-01 1.637564e-01 1.878444e-01 1.933566e-01 2.133095e-01 1.924054e-01 1.918714e-01 2.052484e-01 2.138591e-01 2.079362e-01
<GCONST> 8.291257e+01
<MIXTURE> 2 3.405024e-01
<MEAN> 39
 2.646760e+00 -1.000411e+01 -1.048512e+01 -5.740316e+00 5.906697e+00 2.431127e+00 4.728691e+00 -9.835389e-01 4.905005e+00 1.227686e+00 -9.676636e+00 -3.154400e+00 -6.049937e+00 -7.100663e-02 -1.234928e+00 -8.024035e-01 1.632825e-01 8.080144e-01 1.758946e+00 1.114861e+00 -1.349915e+00 -2.844298e-01 1.000814e-02 -9.868733e-01 1.118016e+00 -9.768535e-01 -5.072747e-02 4.932832e-01 5.531107e-01 2.869118e-01 -3.273861e-01 -1.600359e-01 -5.216855e-01 1.728784e-02 -2.952187e-01 5.674865e-02 6.387119e-01 1.734864e-01 3.676189e-01
<VARIANCE> 39
 7.980261e+00 1.469078e+01 2.465871e+01 1.897510e+01 2.802133e+01 3.802759e+01 2.547209e+01 3.634441e+01 3.585033e+01 3.955045e+01 3.305167e+01 2.835435e+01 2.275603e+01 5.980547e-01 1.321847e+00 1.663799e+00 1.456416e+00 2.357201e+00 2.652092e+00 2.574563e+00 2.855978e+00 3.066316e+00 2.556304e+00 2.853920e+00 2.267244e+00 2.378024e+00 1.922681e-01 1.889909e-01 2.517826e-01 3.438584e-01 3.795072e-01 4.867315e-01 4.720473e-01 5.630978e-01 5.358466e-01 5.141370e-01 4.551310e-01 5.063463e-01 4.130595e-01
<GCONST> 1.104701e+02
<STATE> 3
<NUMMIXES> 2
<MIXTURE> 1 5.440516e-01
<MEAN> 39
 4.754236e+00 -5.626792e+00 -1.465212e+01 -3.808610e-01 7.712290e+00 6.155844e+00 1.038684e+01 -6.695806e+00 3.363171e+00 4.366623e-01 -4.292826e+00 -2.083413e+00 -7.327025e+00 -6.303728e-02 8.083951e-01 6.493263e-02 3.806547e-01 1.214723e-01 -5.589832e-02 2.001810e-01 3.190672e-01 -7.545093e-02 8.117538e-03 2.516557e-01 -1.176086e-01 3.486860e-01 -9.103414e-02 5.968046e-02 2.874350e-01 -5.103927e-02 -7.455736e-02 -2.492077e-02 -2.065904e-01 2.424558e-01 5.676156e-02 -1.704456e-02 1.119620e-03 2.664966e-02 1.759346e-01
<VARIANCE> 39
 1.410181e+01 2.572853e+01 2.183191e+01 3.896416e+01 2.853526e+01 3.537376e+01 3.613005e+01 3.082566e+01 4.400085e+01 3.778001e+01 3.732328e+01 3.185342e+01 3.296638e+01 9.662267e-01 1.919532e+00 1.592637e+00 1.783432e+00 1.823126e+00 1.953801e+00 2.192314e+00 2.279974e+00 1.841373e+00 1.817640e+00 2.245764e+00 1.801424e+00 1.978347e+00 1.598352e-01 3.098611e-01 3.002758e-01 3.113608e-01 3.194030e-01 3.273457e-01 4.048943e-01 3.933637e-01 3.270339e-01 3.329682e-01 3.621794e-01 3.242649e-01 3.278913e-01
<GCONST> 1.091264e+02
<MIXTURE> 2 4.559483e-01
<MEAN> 39
 2.788400e+00 -1.242384e+01 -9.885317e+00 -5.224423e+00 5.240061e+00 6.424607e+00 4.219154e+00 -3.390477e+00 5.670895e+00 1.006195e+00 -1.181126e+01 3.384329e-01 -8.028989e+00 1.402806e-01 7.124128e-01 7.653714e-01 -9.843609e-02 -6.836089e-01 -1.525658e+00 -9.606907e-01 1.282105e+00 8.130902e-01 1.749878e-02 4.670051e-01 -8.880524e-01 3.604199e-01 1.736340e-01 6.377727e-01 4.552996e-01 2.044634e-01 -1.757622e-01 -4.916504e-01 -3.337929e-01 2.145338e-01 -2.900037e-01 1.485719e-01 6.611993e-01 -2.992384e-01 4.549809e-01
<VARIANCE> 39
 6.037596e+00 1.006481e+01 2.001125e+01 1.589542e+01 1.857535e+01 3.865712e+01 2.324787e+01 3.560442e+01 3.469402e+01 4.107386e+01 3.046777e+01 2.677357e+01 2.574953e+01 4.159144e-01 6.942300e-01 9.853143e-01 1.161179e+00 1.570758e+00 2.666471e+00 2.014452e+00 2.531752e+00 2.013320e+00 2.742788e+00 2.633415e+00 2.521037e+00 2.891132e+00 5.766000e-02 1.348943e-01 1.737713e-01 2.300601e-01 2.767659e-01 3.512650e-01 4.046861e-01 4.819840e-01 3.936625e-01 4.009767e-01 3.717102e-01 3.461849e-01 3.314981e-01
<GCONST> 1.016318e+02
<STATE> 4
<NUMMIXES> 2
<MIXTURE> 1 5.493358e-01
<MEAN> 39
 3.490256e+00 -4.670051e-01 -5.425603e+00 1.870205e-01 6.083801e+00 2.239791e+00 3.558400e+00 1.662963e+00 3.247222e+00 8.744558e-01 -3.358615e+00 -2.065660e+00 -1.135740e+00 -3.676155e-01 1.533730e+00 1.452309e+00 6.711642e-01 -9.273534e-03 2.364532e-02 -5.810115e-01 8.461433e-01 -4.535014e-01 -6.046965e-01 5.236678e-01 2.660508e-01 1.041905e+00 -2.524678e-01 -3.198514e-01 -2.231477e-01 -1.681629e-01 -9.015434e-02 2.159678e-01 1.335433e-01 -1.385097e-01 8.079377e-02 -1.550586e-02 -1.385018e-01 1.574825e-01 -2.707593e-01
<VARIANCE> 39
 2.665450e+01 2.491731e+01 4.172078e+01 3.231440e+01 3.583190e+01 6.584808e+01 6.001839e+01 6.978602e+01 4.486561e+01 4.369777e+01 4.799237e+01 3.862165e+01 4.258662e+01 2.879388e+00 3.724390e+00 2.988757e+00 3.097023e+00 2.599545e+00 3.395941e+00 4.217795e+00 5.947126e+00 3.570566e+00 3.546274e+00 3.728118e+00 2.888109e+00 3.070802e+00 4.007322e-01 3.769604e-01 4.792955e-01 4.630857e-01 4.550199e-01 7.298478e-01 7.488023e-01 8.895264e-01 5.885620e-01 6.606500e-01 6.788511e-01 5.068169e-01 5.327587e-01
<GCONST> 1.288356e+02
<MIXTURE> 2 4.506642e-01
<MEAN> 39
 3.925621e+00 -8.693925e+00 -6.962946e+00 -5.448481e+00 2.018567e+00 1.043167e+00 1.004535e+00 -2.770775e-03 6.159816e+00 1.952958e+00 -6.865928e+00 -2.707489e+00 -6.530221e+00 6.043150e-01 2.466172e+00 2.189508e+00 1.106802e+00 -7.288876e-01 -1.947456e+00 -1.651553e+00 2.147582e-01 -9.240862e-01 4.351847e-01 2.030391e+00 -8.604023e-01 1.683091e+00 2.736768e-02 5.237231e-01 3.453749e-01 5.108505e-01 2.693965e-01 2.570236e-01 2.967824e-03 -4.649387e-01 -5.514418e-01 -1.332469e-01 1.411663e-03 1.957620e-01 3.671900e-01
<VARIANCE> 39
 1.069637e+01 1.601906e+01 3.596860e+01 2.337221e+01 3.510781e+01 5.636028e+01 3.876349e+01 5.439228e+01 3.758709e+01 5.283150e+01 5.066231e+01 4.234834e+01 4.696778e+01 6.971450e-01 1.321080e+00 1.798956e+00 2.205657e+00 2.670740e+00 3.560423e+00 4.415200e+00 5.123233e+00 3.533475e+00 3.518669e+00 3.226799e+00 3.074369e+00 3.279967e+00 1.679185e-01 2.484202e-01 3.084196e-01 3.454586e-01 4.123642e-01 6.567601e-01 5.271382e-01 7.982227e-01 5.270636e-01 6.787641e-01 6.784264e-01 5.183399e-01 5.448187e-01
<GCONST> 1.203148e+02
<TRANSP> 5
 0.000000e+00 1.000000e+00 0.000000e+00 0.000000e+00 0.000000e+00
 0.000000e+00 8.081684e-01 1.918316e-01 0.000000e+00 0.000000e+00
 0.000000e+00 0.000000e+00 7.359870e-01 2.640130e-01 0.000000e+00
 0.000000e+00 0.000000e+00 0.000000e+00 7.062295e-01 2.937705e-01
 0.000000e+00 0.000000e+00 0.000000e+00 0.000000e+00 0.000000e+00
<ENDHMM>
~o
<STREAMINFO> 1 39
<VECSIZE> 39<NULLD><MFCC_D_A_Z><DIAGC>
~h "b"
<BEGINHMM>
<NUMSTATES> 5
<STATE> 2
<NUMMIXES> 2
<MIXTURE> 1 6.634518e-01
<MEAN> 39
 1.482927e+01 1.067167e+01 4.753881e+00 3.441923e+00 5.496628e+00 7.360582e+00 1.189610e+00 -4.883045e+00 -5.250141e+00 -1.349168e+00 2.017300e+00 -1.907640e+00 -3.175394e+00 8.278419e-01 1.498516e+00 5.674317e-01 3.225415e-02 6.901174e-01 6.180505e-01 5.349690e-01 2.308091e-01 -6.720204e-01 -2.191398e-01 3.295804e-01 2.674772e-01 5.326328e-02 -8.359652e-01 -7.931172e-01 -4.690371e-01 -1.948222e-01 -4.573220e-01 -4.156737e-01 -4.018131e-01 5.910382e-02 3.379726e-01 1.267398e-01 9.948640e-02 1.813774e-01 8.196702e-02
<VARIANCE> 39
 9.724304e+00 2.706485e+01 2.447667e+01 3.170325e+01 2.333803e+01 3.441970e+01 3.156457e+01 2.926636e+01 4.766033e+01 3.040782e+01 4.088461e+01 2.460860e+01 4.553141e+01 2.024912e+00 1.677995e+00 1.462119e+00 1.858235e+00 1.673699e+00 2.154387e+00 2.517071e+00 2.580827e+00 2.478618e+00 2.255732e+00 2.260838e+00 2.092935e+00 2.197765e+00 2.606239e-01 3.434065e-01 2.863127e-01 3.566083e-01 3.666062e-01 3.854685e-01 4.511118e-01 4.702211e-01 5.718690e-01 4.823588e-01 4.716184e-01 3.754967e-01 3.647749e-01
<GCONST> 1.126416e+02
<MIXTURE> 2 3.365481e-01
<MEAN> 39
 3.568732e+00 4.988916e+00 1.698332e+00 6.818910e+00 5.652447e+00 4.028299e+00 -9.939221e-01 -3.955650e+00 -2.610464e+00 2.336080e-01 1.877047e+00 -8.837732e-01 6.506075e-01 1.869680e+00 2.238794e+00 1.445271e+00 9.245638e-01 1.069703e+00 9.883767e-01 3.993713e-01 -8.920057e-01 -1.540788e+00 -2.689334e-01 3.266656e-01 -4.286090e-01 -3.585114e-01 5.383286e-02 7.814348e-02 1.116763e-01 -3.135489e-01 -1.681051e-01 7.616688e-03 1.372072e-01 2.667225e-01 -4.555063e-02 -1.274216e-01 -1.724208e-02 1.507423e-01 5.230043e-02
<VARIANCE> 39
 5.636166e+01 5.112585e+01 4.719291e+01 4.360937e+01 3.291570e+01 3.498726e+01 3.950283e+01 6.246245e+01 5.169356e+01 3.774810e+01 3.157965e+01 3.207410e+01 2.923224e+01 3.620844e+00 3.319716e+00 3.143816e+00 2.976930e+00 3.521971e+00 4.261505e+00 3.766996e+00 5.274493e+00 4.018221e+00 3.496789e+00 3.014004e+00 2.837128e+00 2.255481e+00 5.245649e-01 7.161699e-01 7.530425e-01 6.359866e-01 5.903516e-01 5.665019e-01 5.883808e-01 9.661718e-01 8.259774e-01 6.124677e-01 5.498088e-01 5.156088e-01 4.178455e-01
<GCONST> 1.298376e+02
<STATE> 3
<NUMMIXES> 2
<MIXTURE> 1 6.464640e-01
<MEAN> 39
 1.276919e+01 1.193332e+01 5.028152e+00 4.310813e+00 6.672825e+00 8.168192e+00 8.288641e-01 -4.314969e+00 -7.418173e+00 -2.668797e+00 3.393642e+00 7.773567e-03 -2.027646e+00 -2.290053e+00 -2.737449e+00 -1.846370e+00 -1.186627e+00 -1.625179e+00 -8.645052e-01 -1.164775e+00 2.690993e-01 1.780651e+00 4.611008e-01 7.195722e-01 7.666619e-01 -4.296847e-01 -4.959245e-01 -1.359753e+00 -7.936794e-01 -6.962706e-01 -8.786675e-01 -3.059637e-01 -1.452638e-02 -2.106958e-01 1.092046e+00 3.234501e-01 -8.927629e-02 -1.502459e-01 -4.171149e-01
<VARIANCE> 39
 3.670947e+01 2.773441e+01 2.378003e+01 2.670006e+01 2.248730e+01 3.200865e+01 2.958260e+01 3.694485e+01 3.482969e+01 2.936718e+01 3.114173e+01 2.236532e+01 2.557725e+01 2.409790e+00 3.944505e+00 3.376261e+00 5.365327e+00 3.893630e+00 3.536061e+00 3.756184e+00 4.012385e+00 6.398276e+00 3.798753e+00 3.849884e+00 2.810705e+00 4.467093e+00 7.059173e-01 5.300443e-01 4.876016e-01 5.888586e-01 6.100812e-01 7.621390e-01 7.740220e-01 8.438291e-01 8.817466e-01 6.098509e-01 8.002259e-01 6.079018e-01 6.242911e-01
<GCONST> 1.276680e+02
<MIXTURE> 2 3.535359e-01
<MEAN> 39
 7.621393e+00 -1.337331e+00 -6.670371e+00 -7.020826e+00 -2.638005e+00 8.165737e+00 7.793107e-01 -8.251985e+00 3.447164e+00 1.865132e+00 8.587873e+00 1.759563e+00 -9.091977e+00 -1.258350e+00 -4.696449e+00 -3.276722e+00 -2.951939e+00 -1.794776e+00 1.551139e-01 1.011151e+00 -8.230735e-01 4.211718e+00 1.310719e+00 -6.968353e-01 -1.114753e+00 -2.609091e+00 3.844828e-01 5.031425e-01 7.024036e-01 8.600413e-01 9.059935e-01 -9.099351e-03 2.798848e-01 3.897949e-01 -5.878767e-01 -3.427923e-01 -1.113547e+00 -5.431463e-01 6.598242e-01
<VARIANCE> 39
 8.334001e+00 2.363931e+01 1.920912e+01 2.768581e+01 2.269350e+01 2.935341e+01 4.385664e+01 3.454327e+01 4.128635e+01 3.273051e+01 2.699542e+01 2.980658e+01 3.992867e+01 2.507184e+00 3.684874e+00 2.261460e+00 3.687622e+00 4.029877e+00 4.163534e+00 5.523630e+00 4.620779e+00 5.142370e+00 4.354423e+00 5.999528e+00 3.524294e+00 3.524778e+00 2.425676e-01 5.401346e-01 4.155087e-01 5.931145e-01 5.085014e-01 6.373845e-01 6.435399e-01 7.479737e-01 9.733658e-01 5.322280e-01 5.511257e-01 5.456242e-01 7.849124e-01
<GCONST> 1.250794e+02
<STATE> 4
<NUMMIXES> 2
<MIXTURE> 1 4.532064e-01
<MEAN> 39
 4.632051e+00 1.747049e+00 2.828834e+00 4.550192e+00 -2.820573e+00 -1.917554e+00 -6.458075e+00 -1.161220e+00 -1.155184e+00 -1.870883e+00 2.365553e+00 1.219901e+00 3.570435e-01 -1.332841e+00 -1.733091e+00 4.623763e-02 -1.050332e+00 -3.229299e+00 -1.598878e+00 -3.345707e-01 8.290043e-03 1.362221e-01 -3.210018e-01 2.566487e-01 8.287940e-01 6.874239e-01 4.899161e-01 7.185773e-01 3.709478e-01 -3.614993e-01 2.939194e-01 5.682952e-01 6.508061e-01 -2.561961e-01 -2.780814e-01 1.475493e-01 -7.580945e-02 -3.216852e-01 -3.153180e-01
<VARIANCE> 39
 1.979623e+01 3.665892e+01 4.021637e+01 6.158596e+01 7.837428e+01 7.627888e+01 4.480902e+01 4.536010e+01 6.401513e+01 4.156875e+01 3.090900e+01 3.269463e+01 2.592686e+01 3.528010e+00 6.314391e+00 5.070188e+00 6.596467e+00 7.891506e+00 7.069420e+00 6.389771e+00 8.042435e+00 8.974191e+00 3.806637e+00 5.490282e+00 4.054120e+00 3.968128e+00 3.704605e-01 5.888003e-01 4.948242e-01 8.374091e-01 1.522387e+00 9.777972e-01 7.988805e-01 8.629566e-01 1.020777e+00 7.349783e-01 6.996371e-01 6.417810e-01 5.310354e-01
<GCONST> 1.389398e+02
<MIXTURE> 2 5.467936e-01
<MEAN> 39
 5.134146e+00 -8.676849e+00 -9.435437e+00 -7.393950e+00 3.054726e-01 8.441009e+00 3.925274e+00 -6.350417e+00 7.887293e+00 1.889488e+00 -1.259994e-01 -3.243320e+00 -1.078838e+01 -8.418860e-01 -1.335295e+00 -1.852643e-01 7.983574e-01 7.589798e-01 -7.989975e-01 -1.428334e-01 1.237789e+00 5.157802e-01 3.965269e-02 -2.632798e+00 -1.077013e+00 1.459104e+00 2.384663e-01 1.223487e+00 8.669566e-01 8.063556e-01 2.802299e-01 -2.986969e-01 -5.000719e-01 2.029079e-01 -1.056300e+00 -2.645250e-01 1.888173e-01 3.943951e-01 9.731096e-01
<VARIANCE> 39
 8.323689e+00 2.128997e+01 2.217179e+01 2.858529e+01 3.017385e+01 3.912356e+01 5.406968e+01 3.483063e+01 4.089085e+01 4.102671e+01 4.733992e+01 3.486336e+01 3.652214e+01 4.819543e-01 2.457134e+00 1.839201e+00 1.872448e+00 2.388416e+00 3.772172e+00 3.521835e+00 3.443817e+00 3.827345e+00 2.567873e+00 3.283515e+00 2.817354e+00 3.900793e+00 1.771406e-01 4.472702e-01 3.262985e-01 5.350662e-01 6.203111e-01 5.485688e-01 5.493383e-01 6.911870e-01 8.444296e-01 6.562181e-01 8.180510e-01 5.324234e-01 6.988206e-01
<GCONST> 1.202163e+02
<TRANSP> 5
 0.000000e+00 1.000000e+00 0.000000e+00 0.000000e+00 0.000000e+00
 0.000000e+00 8.061829e-01 1.938171e-01 0.000000e+00 0.000000e+00
 0.000000e+00 0.000000e+00 7.060651e-01 2.939350e-01 0.000000e+00
 0.000000e+00 0.000000e+00 0.000000e+00 6.407340e-01 3.592660e-01
 0.000000e+00 0.000000e+00 0.000000e+00 0.000000e+00 0.000000e+00
<ENDHMM>
~o
<STREAMINFO> 1 39
<VECSIZE> 39<NULLD><MFCC_D_A_Z><DIAGC>
~h "bh"
<BEGINHMM>
<NUMSTATES> 5
<STATE> 2
<NUMMIXES> 2
<MIXTURE> 1 3.949785e-01
<MEAN> 39
 1.327039e+01 8.039268e+00 8.820686e-01 9.616497e-01 3.805346e+00 6.371007e+00 7.891746e-01 -4.245168e+00 -2.506512e+00 -2.597875e+00 -1.088544e+00 -4.016269e+00 -5.486908e+00 -2.832586e-01 1.103415e+00 6.496415e-01 1.107452e-02 -1.499114e-02 -3.893342e-01 1.677794e-03 1.185616e+00 -9.473760e-02 -2.567436e-01 1.761023e-01 3.571240e-01 5.741853e-01 -8.350394e-01 -8.033870e-01 -5.108288e-01 -4.433723e-01 -7.149149e-01 -5.385150e-01 -4.071938e-01 -3.139003e-02 2.251104e-01 2.090633e-01 2.470702e-01 2.095163e-01 8.754005e-02
<VARIANCE> 39
 1.556588e+01 2.444103e+01 3.491162e+01 3.573991e+01 2.612731e+01 4.239144e+01 3.131699e+01 3.726461e+01 4.270060e+01 3.363417e+01 4.270219e+01 2.876562e+01 5.055410e+01 3.182925e+00 3.199400e+00 2.403380e+00 2.865849e+00 2.785113e+00 3.236167e+00 3.575565e+00 3.091305e+00 3.298370e+00 2.631652e+00 2.952098e+00 2.437369e+00 2.935514e+00 2.449511e-01 3.954138e-01 4.589586e-01 4.690925e-01 4.751745e-01 5.779393e-01 4.840070e-01 6.311687e-01 6.044645e-01 5.119839e-01 5.442518e-01 4.107459e-01 4.895688e-01
<GCONST> 1.214556e+02
<MIXTURE> 2 6.050215e-01
<MEAN> 39
 1.895794e+00 5.439565e+00 9.774395e-01 1.151949e+00 1.727124e+00 -3.337632e-01 2.110962e-02 4.943243e+00 2.561056e+00 1.361410e-01 1.992683e+00 1.904384e+00 1.255776e+00 -6.179699e-01 1.799397e-01 -1.280723e-01 -2.594958e-01 -1.055859e-02 -1.444052e-01 -4.213757e-02 1.313342e-01 -1.252645e-01 -4.250597e-03 3.818607e-01 4.812496e-01 4.709485e-02 -1.684519e-02 -3.039964e-01 -1.455456e-01 6.952043e-02 6.377316e-02 2.581346e-01 -1.104038e-01 -3.331175e-01 -2.298039e-01 -1.490048e-01 -1.534785e-02 -8.714066e-02 -9.319793e-02
<VARIANCE> 39
 3.983274e+01 2.965442e+01 2.924117e+01 2.593365e+01 4.563267e+01 5.048054e+01 3.256533e+01 3.194892e+01 3.391449e+01 2.740175e+01 3.363966e+01 2.732001e+01 2.338497e+01 1.384011e+00 1.383432e+00 1.277067e+00 1.554729e+00 1.707550e+00 2.204767e+00 2.031446e+00 2.287460e+00 2.300407e+00 2.019154e+00 1.986331e+00 1.784514e+00 1.628090e+00 1.901321e-01 2.825281e-01 2.901999e-01 3.271916e-01 3.726880e-01 4.421646e-01 4.240194e-01 4.795507e-01 4.415537e-01 4.173051e-01 4.112264e-01 3.597571e-01 3.683342e-01
<GCONST> 1.110925e+02
<STATE> 3
<NUMMIXES> 2
<MIXTURE> 1 5.903142e-01
<MEAN> 39
 1.488776e+00 4.768364e+00 2.203503e-01 7.254958e-01 1.724463e+00 1.961980e+00 -2.871368e+00 9.716203e-01 -2.665720e+00 -3.116442e+00 2.621116e+00 1.309750e+00 -6.910376e-01 5.813226e-02 -2.179790e+00 -2.080062e+00 -1.465727e+00 -1.186630e+00 9.532407e-01 -4.383923e-01 -1.932438e+00 -1.150688e-01 -4.245132e-01 3.077172e-01 -3.959223e-01 -1.608814e+00 5.839871e-01 -4.784486e-01 -6.404864e-01 -7.000353e-01 -3.415477e-01 2.990553e-01 5.409394e-01 -4.890567e-01 5.372947e-01 2.865703e-01 -2.332316e-01 -3.477054e-01 -6.875118e-01
<VARIANCE> 39
 2.947818e+01 2.785325e+01 2.696082e+01 3.072858e+01 3.364045e+01 4.190143e+01 3.735744e+01 3.717275e+01 3.399291e+01 2.978701e+01 2.621368e+01 2.532544e+01 2.314134e+01 5.537017e+00 3.521309e+00 4.642836e+00 5.837798e+00 5.776795e+00 6.408193e+00 5.654298e+00 5.742067e+00 5.734089e+00 4.271152e+00 3.661464e+00 3.515568e+00 7.044140e+00 4.838951e-01 6.780744e-01 5.675770e-01 6.560363e-01 8.949567e-01 8.427634e-01 8.524439e-01 8.601776e-01 7.826741e-01 7.030129e-01 6.000196e-01 5.252407e-01 7.408767e-01
<GCONST> 1.324750e+02
<MIXTURE> 2 4.096858e-01
<MEAN> 39
 6.822524e+00 -4.439400e+00 -1.274819e+01 -1.050821e+01 -1.708937e+00 9.336343e+00 4.319752e+00 -8.911701e+00 2.006126e+00 -1.034379e+00 3.080678e+00 -8.849840e-01 -1.444920e+01 -1.332905e-01 -2.849259e+00 -2.351509e+00 -1.462134e+00 7.625086e-01 1.267910e+00 1.485257e+00 -8.444532e-01 1.335285e+00 1.017275e+00 -1.596104e+00 -1.052003e+00 -1.669197e+00 -4.980965e-01 4.459541e-01 1.029104e+00 1.075849e+00 6.615337e-01 -4.962621e-01 -3.567824e-01 9.932252e-01 -2.128618e-01 1.345710e-01 -5.718032e-01 7.418139e-02 1.507050e+00
<VARIANCE> 39
 9.239007e+00 2.269592e+01 1.882528e+01 1.490947e+01 2.845218e+01 2.455177e+01 3.050927e+01 2.443364e+01 3.009818e+01 2.813323e+01 2.586410e+01 2.556726e+01 2.365854e+01 3.030590e+00 2.089070e+00 3.886451e+00 4.668082e+00 4.455851e+00 3.624783e+00 3.989621e+00 5.290323e+00 4.177978e+00 2.998961e+00 3.643919e+00 2.477813e+00 6.787036e+00 4.395597e-01 3.688480e-01 3.817126e-01 3.963199e-01 6.381587e-01 5.660650e-01 6.440456e-01 6.457080e-01 8.171439e-01 5.418126e-01 5.147278e-01 5.412084e-01 6.342607e-01
<GCONST> 1.212895e+02
<STATE> 4
<NUMMIXES> 2
<MIXTURE> 1 4.394495e-01
<MEAN> 39
 5.987226e+00 -4.552025e-01 -4.009365e+00 -2.703998e+00 -3.251783e+00 2.590059e+00 -4.854394e+00 -4.272184e+00 5.101386e-01 -1.317359e+00 6.861224e-01 -3.771142e+00 -2.312465e+00 5.460671e-02 -3.088372e-01 6.303693e-01 -4.955774e-03 -1.109432e+00 -1.071332e+00 -9.939002e-02 7.042350e-01 4.864609e-01 5.145530e-02 -4.283843e-01 -1.112588e-01 1.182919e+00 -6.242146e-02 5.852693e-01 5.021778e-01 1.294806e-01 3.151471e-01 6.820887e-02 3.968025e-01 2.921376e-01 -2.576530e-01 -8.406101e-02 1.220993e-01 2.578124e-01 7.952773e-02
<VARIANCE> 39
 2.070531e+01 6.141289e+01 4.789881e+01 6.267612e+01 5.864443e+01 8.774467e+01 6.050352e+01 6.798752e+01 5.811198e+01 6.051962e+01 5.806890e+01 3.559115e+01 4.303315e+01 3.114171e+00 4.775994e+00 4.076499e+00 6.403841e+00 9.094327e+00 6.065618e+00 5.957764e+00 7.370669e+00 5.224956e+00 4.281848e+00 5.156077e+00 3.806704e+00 4.557865e+00 5.012671e-01 7.015303e-01 7.562602e-01 1.096376e+00 1.154725e+00 1.031195e+00 1.149896e+00 9.811398e-01 9.132196e-01 8.810901e-01 9.547189e-01 7.162715e-01 9.638311e-01
<GCONST> 1.430456e+02
<MIXTURE> 2 5.605505e-01
<MEAN> 39
 1.945491e+00 -1.021240e+01 -1.436203e+01 -8.517603e+00 6.013176e+00 1.293145e+01 6.820619e+00 -6.868852e+00 7.654761e-01 2.241622e+00 -5.087764e+00 -6.657381e-01 -8.939270e+00 -4.348942e-01 -7.044749e-01 2.720174e-01 9.534113e-01 4.667104e-01 3.199073e-01 7.976053e-02 3.144329e-01 1.177313e-01 9.752930e-01 -1.384854e+00 6.779452e-01 1.442946e+00 2.396988e-01 3.723592e-01 2.972690e-01 1.337268e-01 -5.140823e-01 -2.857885e-01 -1.778128e-01 3.878487e-02 1.355118e-01 -1.561558e-01 3.257033e-01 2.033013e-01 1.072118e-02
<VARIANCE> 39
 5.914277e+00 1.061347e+01 1.076457e+01 1.474777e+01 1.428141e+01 2.287729e+01 1.652579e+01 2.490267e+01 3.006976e+01 2.540020e+01 2.681862e+01 1.954001e+01 2.830238e+01 5.511637e-01 5.445241e-01 7.027830e-01 8.724522e-01 1.832664e+00 1.417840e+00 1.130170e+00 1.484204e+00 1.651681e+00 1.327334e+00 1.775219e+00 1.487225e+00 1.571909e+00 7.565545e-02 1.384079e-01 1.945724e-01 2.208767e-01 2.244616e-01 2.559572e-01 2.542963e-01 2.829828e-01 2.678639e-01 2.540155e-01 3.041578e-01 3.107324e-01 4.292114e-01
<GCONST> 9.183627e+01
<TRANSP> 5
 0.000000e+00 1.000000e+00 0.000000e+00 0.000000e+00 0.000000e+00
 0.000000e+00 8.263309e-01 1.736691e-01 0.000000e+00 0.000000e+00
 0.000000e+00 0.000000e+00 7.593153e-01 2.406848e-01 0.000000e+00
 0.000000e+00 0.000000e+00 0.000000e+00 6.951786e-01 3.048214e-01
 0.000000e+00 0.000000e+00 0.000000e+00 0.000000e+00 0.000000e+00
<ENDHMM>
~o
<STREAMINFO> 1 39
<VECSIZE> 39<NULLD><MFCC_D_A_Z><DIAGC>
~h "c"
<BEGINHMM>
<NUMSTATES> 5
<STATE> 2
<NUMMIXES> 2
<MIXTURE> 1 6.007134e-01
<MEAN> 39
 3.263021e+00 8.233290e+00 5.554104e+00 2.498690e-01 -2.556515e+00 -8.072642e+00 -1.057238e+00 6.522432e+00 2.444189e+00 9.611436e-01 3.099162e+00 2.769362e+00 1.841239e+00 -2.069000e+00 -1.168168e+00 -1.062217e+00 -1.189888e+00 7.236796e-01 1.191802e+00 -5.930248e-01 -2.062739e-01 -5.541525e-02 5.454513e-01 8.066781e-01 7.079714e-01 -1.621276e-01 -1.157893e+00 -7.250935e-01 -1.959780e-01 -2.100787e-01 4.879698e-01 6.445254e-01 -1.598884e-01 -3.342015e-01 -5.186213e-01 -1.578281e-01 6.926412e-02 7.031079e-02 5.635968e-02
<VARIANCE> 39
 1.455144e+01 1.560192e+01 4.143888e+01 2.165989e+01 4.483410e+01 4.477527e+01 3.607858e+01 3.882889e+01 4.304827e+01 2.666427e+01 4.497683e+01 3.163833e+01 2.095357e+01 4.965638e+00 3.542015e+00 2.660124e+00 1.967840e+00 5.170641e+00 4.131240e+00 2.611228e+00 3.177351e+00 3.389311e+00 2.404126e+00 2.916252e+00 1.987999e+00 1.636146e+00 3.725873e-01 3.429804e-01 4.479457e-01 3.896966e-01 7.167875e-01 5.327451e-01 5.133119e-01 5.289094e-01 5.099482e-01 4.717541e-01 5.574987e-01 4.185370e-01 3.100831e-01
<GCONST> 1.200272e+02
<MIXTURE> 2 3.992866e-01
<MEAN> 39
 -1.079999e+01 -1.471305e+00 1.711041e+00 -4.395905e+00 4.631391e+00 1.977268e+00 -3.520392e+00 3.516240e+00 -9.254183e-01 1.354981e+00 5.146690e+00 4.725528e+00 1.328991e+00 -4.783998e+00 -1.966547e+00 -1.352965e+00 -1.521446e+00 5.840638e-01 2.059184e+00 -2.927280e-01 -5.938660e-02 -1.492303e+00 -4.446112e-01 4.595053e-01 4.313069e-01 -5.272746e-03 1.012841e+00 9.025108e-01 4.491357e-01 6.112053e-01 -6.521907e-01 -7.733731e-01 1.957711e-01 2.587372e-01 5.129885e-02 -3.599141e-01 -3.731237e-01 -3.924483e-01 5.280432e-02
<VARIANCE> 39
 2.338136e+01 3.436486e+01 3.331053e+01 2.371586e+01 3.796171e+01 4.635420e+01 3.241971e+01 3.093490e+01 2.833960e+01 2.230966e+01 2.143829e+01 1.845317e+01 1.588089e+01 2.785183e+00 2.871327e+00 3.681523e+00 3.046406e+00 5.777942e+00 4.162278e+00 3.702212e+00 4.296128e+00 3.845950e+00 2.749044e+00 3.744201e+00 2.870846e+00 1.887219e+00 1.136074e+00 6.391870e-01 8.278821e-01 6.170323e-01 7.913451e-01 7.677837e-01 5.628186e-01 6.933545e-01 6.159202e-01 4.813707e-01 5.496355e-01 4.085689e-01 3.362039e-01
<GCONST> 1.241975e+02
<STATE> 3
<NUMMIXES> 2
<MIXTURE> 1 4.206833e-01
<MEAN> 39
 -5.010396e+00 4.914701e+00 8.264144e+00 2.322683e+00 -2.015500e-02 -3.523696e+00 -4.626190e+00 4.128088e+00 -4.853568e+00 -4.226092e+00 1.793805e+00 1.037102e+00 1.766020e+00 5.435802e+00 -3.871596e-01 1.184539e+00 1.833876e+00 -1.855772e+00 -3.220754e+00 -5.867688e-01 -1.656439e+00 9.299113e-01 7.337872e-02 -7.654874e-01 -9.973564e-01 6.393982e-01 -2.878374e-03 -8.422718e-01 -9.673290e-01 -7.432034e-01 1.317618e-01 2.224034e-01 2.139889e-01 -3.064643e-01 6.101688e-01 6.931006e-01 1.976603e-01 6.259038e-02 -8.279485e-02
<VARIANCE> 39
 3.662679e+01 1.868451e+01 2.158920e+01 1.966423e+01 3.833840e+01 5.116730e+01 2.611150e+01 3.123832e+01 3.172042e+01 2.011890e+01 2.173901e+01 1.863510e+01 1.768255e+01 2.013087e+00 3.275739e+00 3.332676e+00 3.272775e+00 4.118716e+00 3.701478e+00 2.971723e+00 3.667305e+00 5.349016e+00 2.951386e+00 3.995235e+00 3.036884e+00 2.351343e+00 1.192740e+00 4.458135e-01 3.621924e-01 4.986576e-01 6.058120e-01 8.620385e-01 5.354533e-01 7.069420e-01 5.575750e-01 4.048215e-01 5.066863e-01 3.833106e-01 4.422072e-01
<GCONST> 1.214689e+02
<MIXTURE> 2 5.793167e-01
<MEAN> 39
 -1.841019e+01 -6.997465e-02 -7.466187e-01 -6.743432e+00 2.130018e+00 2.504324e+00 -2.818108e+00 5.756493e+00 -3.475700e+00 -6.270093e-01 5.715044e+00 4.597228e+00 1.474879e+00 1.280223e+00 1.199203e+00 1.400296e+00 1.520067e+00 -8.795812e-01 -1.137164e+00 -1.790385e-01 2.659624e-01 -4.344512e-01 -1.181391e+00 -7.950618e-01 -8.104843e-01 8.098936e-02 2.607987e+00 3.047686e-01 6.549802e-01 8.631876e-01 -4.015378e-01 -1.159184e+00 -6.832494e-02 -4.330627e-01 6.437250e-01 1.418699e-01 -3.954357e-01 -3.828097e-01 1.005734e-01
<VARIANCE> 39
 1.058114e+01 1.523684e+01 2.277380e+01 2.045325e+01 3.439680e+01 3.558051e+01 2.807881e+01 2.707384e+01 2.322109e+01 2.169616e+01 1.957121e+01 1.751004e+01 1.533012e+01 8.393029e+00 2.336144e+00 3.504586e+00 3.083880e+00 2.737173e+00 4.061486e+00 2.630558e+00 3.287996e+00 3.208518e+00 2.097370e+00 2.414505e+00 2.065307e+00 1.626286e+00 5.606124e-01 6.913080e-01 6.908802e-01 6.631427e-01 8.526077e-01 8.333142e-01 6.268641e-01 7.137936e-01 7.905710e-01 5.818907e-01 7.485920e-01 5.690371e-01 4.086415e-01
<GCONST> 1.199584e+02
<STATE> 4
<NUMMIXES> 2
<MIXTURE> 1 6.079518e-01
<MEAN> 39
 -2.341448e+00 -1.642858e+00 -1.681762e-01 3.644164e+00 2.462569e+00 -9.763687e-01 1.484242e+00 4.717871e+00 4.366084e+00 -8.026596e-01 8.471369e-01 3.635212e+00 4.452468e+00 4.063185e-02 1.827632e-01 -2.075922e-01 1.390860e-01 4.579420e-01 6.635543e-01 1.487300e-01 6.629413e-02 8.967744e-02 5.206896e-03 -2.121082e-01 -8.091461e-02 -1.299563e-01 -6.301897e-02 8.132867e-02 6.420557e-02 -6.506847e-02 -3.368741e-02 -1.677504e-02 -5.336114e-02 -2.279283e-02 -1.191686e-01 -6.692336e-03 2.742396e-02 2.349238e-02 -2.390165e-02
<VARIANCE> 39
 3.909283e+01 3.971209e+01 3.169153e+01 2.329106e+01 3.816169e+01 7.078369e+01 3.911266e+01 3.794742e+01 3.896240e+01 3.533813e+01 3.537431e+01 2.621891e+01 2.235374e+01 1.870306e+00 3.092121e+00 1.777410e+00 1.862209e+00 2.127058e+00 2.674098e+00 2.647387e+00 2.570180e+00 2.442995e+00 2.480825e+00 2.761792e+00 1.838915e+00 1.578693e+00 3.179144e-01 5.381294e-01 3.138593e-01 3.654034e-01 4.000301e-01 4.804257e-01 4.662382e-01 4.898950e-01 4.423781e-01 4.632185e-01 5.219377e-01 3.412526e-01 2.985049e-01
<GCONST> 1.169147e+02
<MIXTURE> 2 3.920482e-01
<MEAN> 39
 2.828351e+00 -2.758251e+00 1.782942e+00 -6.291780e-01 -3.465368e+00 -8.061154e+00 -4.515577e+00 -4.622388e-01 2.736906e+00 1.276142e-01 6.138661e-01 -8.466249e-01 2.378701e+00 1.901552e+00 -1.508986e+00 -1.641559e+00 -7.287108e-01 2.661494e-01 1.847166e-01 7.968150e-01 -1.046155e+00 1.262964e+00 1.082976e+00 -4.122962e-01 -7.579353e-01 -7.643634e-01 -1.265124e+00 2.658423e-01 -2.713013e-01 -3.321880e-01 7.038521e-01 1.208979e+00 4.093279e-01 4.042935e-01 -5.525751e-01 -9.056373e-02 1.644877e-01 3.197949e-01 -3.058804e-01
<VARIANCE> 39
 1.161422e+01 2.430142e+01 4.101976e+01 3.493078e+01 3.441736e+01 4.340809e+01 3.035949e+01 5.010793e+01 5.357306e+01 2.548356e+01 4.620980e+01 2.731490e+01 2.857599e+01 4.250060e+00 3.958523e+00 2.259473e+00 3.868150e+00 4.047302e+00 5.970504e+00 3.747835e+00 5.216650e+00 4.642985e+00 2.585120e+00 5.162678e+00 2.731712e+00 3.590744e+00 3.342832e-01 5.733713e-01 5.728506e-01 6.695899e-01 5.958331e-01 6.072999e-01 6.487818e-01 7.927426e-01 8.865062e-01 6.311874e-01 6.115430e-01 5.962061e-01 5.012679e-01
<GCONST> 1.279228e+02
<TRANSP> 5
 0.000000e+00 1.000000e+00 0.000000e+00 0.000000e+00 0.000000e+00
 0.000000e+00 8.131930e-01 1.868070e-01 0.000000e+00 0.000000e+00
 0.000000e+00 0.000000e+00 7.414805e-01 2.585195e-01 0.000000e+00
 0.000000e+00 0.000000e+00 0.000000e+00 8.237084e-01 1.762916e-01
 0.000000e+00 0.000000e+00 0.000000e+00 0.000000e+00 0.000000e+00
<ENDHMM>
~o
<STREAMINFO> 1 39
<VECSIZE> 39<NULLD><MFCC_D_A_Z><DIAGC>
~h "ch"
<BEGINHMM>
<NUMSTATES> 5
<STATE> 2
<NUMMIXES> 2
<MIXTURE> 1 5.275903e-01
<MEAN> 39
 2.637287e+00 8.316415e+00 5.024116e+00 -5.224844e-01 2.969759e-01 -4.669391e+00 -4.353929e+00 4.847582e+00 2.074325e+00 1.055654e+00 2.769948e+00 1.541679e+00 1.833623e+00 -2.662865e+00 -1.598791e+00 -5.651602e-01 -9.799552e-01 2.317924e-01 1.466316e+00 -4.486224e-01 8.753667e-02 -2.477296e-01 3.599930e-01 7.455570e-01 1.070349e+00 -3.316164e-01 -1.223764e+00 -1.010626e+00 -3.018628e-01 -2.023442e-01 1.240095e-01 6.730542e-01 1.020592e-02 -2.802805e-01 -3.765164e-01 -1.244926e-01 1.495520e-01 6.559792e-02 9.683602e-02
<VARIANCE> 39
 2.412362e+01 1.827337e+01 4.674320e+01 2.398178e+01 3.726538e+01 5.078398e+01 4.598392e+01 5.168199e+01 4.916153e+01 3.171730e+01 4.093362e+01 3.091931e+01 2.383100e+01 5.535283e+00 5.473365e+00 2.931062e+00 2.505236e+00 4.592267e+00 4.563745e+00 3.401820e+00 3.790749e+00 3.937407e+00 2.837368e+00 3.274961e+00 2.246668e+00 2.022883e+00 4.469620e-01 4.700638e-01 5.203151e-01 4.468794e-01 6.476400e-01 6.061605e-01 5.919805e-01 5.907501e-01 5.582571e-01 5.475252e-01 5.619000e-01 4.698766e-01 3.790700e-01
<GCONST> 1.253994e+02
<MIXTURE> 2 4.724098e-01
<MEAN> 39
 -1.198835e+01 -3.534961e+00 2.510071e+00 -3.845340e+00 2.724426e+00 5.486130e+00 -4.991927e+00 2.925469e+00 -1.088303e+00 9.032333e-01 4.756162e+00 4.561739e+00 1.155098e+00 -4.687458e+00 -1.993917e+00 -1.685548e+00 -1.387419e+00 -3.808001e-01 1.911708e+00 2.063200e-01 3.096023e-01 -8.558441e-01 -1.973685e-01 6.630464e-01 6.100321e-01 7.000348e-02 6.454536e-01 7.719297e-01 -9.716704e-02 2.665448e-01 -3.835751e-01 -7.641563e-01 2.757244e-01 3.415315e-01 2.230283e-01 -1.110600e-01 -2.333099e-02 -1.858053e-01 1.611359e-01
<VARIANCE> 39
 2.446748e+01 3.499744e+01 4.021935e+01 2.688738e+01 5.418976e+01 4.602383e+01 3.299209e+01 3.175351e+01 2.819548e+01 2.388529e+01 2.060531e+01 1.782383e+01 1.520976e+01 3.440369e+00 4.059011e+00 3.761157e+00 3.121661e+00 4.898818e+00 4.688385e+00 3.842525e+00 4.215169e+00 4.014060e+00 2.732625e+00 3.460857e+00 2.589588e+00 1.835808e+00 7.812297e-01 6.720110e-01 6.893225e-01 5.718769e-01 9.965538e-01 8.242255e-01 6.072038e-01 6.270910e-01 6.488157e-01 5.238465e-01 5.322360e-01 4.287753e-01 3.500500e-01
<GCONST> 1.252024e+02
<STATE> 3
<NUMMIXES> 2
<MIXTURE> 1 4.099732e-01
<MEAN> 39
 -1.153306e+01 -7.232458e+00 -2.817796e+00 -5.416542e-01 9.893894e-01 2.643005e+00 -1.519526e+00 7.799218e+00 1.760113e+00 -2.231976e+00 3.049959e+00 4.834761e+00 4.709534e+00 4.632482e+00 1.984547e-01 -4.263340e-02 1.856241e+00 2.189505e+00 -5.486855e-02 1.445063e+00 -1.458144e+00 1.329696e-01 -1.455268e-01 -2.150834e+00 -1.724202e+00 -5.304121e-01 7.907145e-01 5.159816e-01 1.678690e-01 -3.252536e-01 -9.219675e-02 1.499400e-01 1.637974e-01 -9.367437e-01 -3.495865e-01 3.463056e-01 -9.074589e-02 -2.967438e-01 -8.072580e-01
<VARIANCE> 39
 2.328136e+01 1.642377e+01 2.606849e+01 2.858148e+01 4.517679e+01 2.943501e+01 3.414521e+01 4.078178e+01 3.228431e+01 2.489103e+01 3.101576e+01 2.338573e+01 1.686660e+01 2.279826e+00 3.777961e+00 3.331490e+00 4.338401e+00 4.389799e+00 3.937342e+00 3.535305e+00 4.021016e+00 3.240503e+00 2.997924e+00 3.600152e+00 2.676133e+00 3.151503e+00 7.214216e-01 3.700794e-01 4.687655e-01 6.826044e-01 1.222970e+00 8.499814e-01 8.096999e-01 6.450968e-01 6.257228e-01 5.925142e-01 6.841279e-01 5.930206e-01 4.971621e-01
<GCONST> 1.251210e+02
<MIXTURE> 2 5.900269e-01
<MEAN> 39
 -1.975617e+01 -2.412740e+00 -1.307394e+00 -6.941998e+00 -8.345960e-01 4.442795e+00 -3.101290e+00 6.733824e+00 -2.026748e+00 3.948143e-01 7.360282e+00 5.508290e+00 1.902557e+00 2.125531e-01 -4.933963e-01 -1.320602e-01 7.486022e-01 -9.298819e-01 -8.862284e-01 5.323212e-01 1.014061e+00 3.694499e-01 -5.968879e-01 5.013419e-02 2.226451e-01 5.623556e-01 1.772586e+00 1.056273e-01 4.194858e-01 7.770973e-01 3.954045e-01 -4.311981e-01 1.143265e-01 -2.677577e-01 2.420262e-01 -1.225140e-01 -6.369671e-01 -3.865831e-01 3.014437e-02
<VARIANCE> 39
 6.859578e+00 1.186190e+01 1.455681e+01 2.056846e+01 3.929003e+01 2.995325e+01 2.596693e+01 2.476676e+01 2.355868e+01 2.063275e+01 1.908752e+01 1.637038e+01 1.403223e+01 4.895195e+00 2.222540e+00 2.499410e+00 2.581401e+00 2.684133e+00 3.008567e+00 2.236272e+00 2.430368e+00 2.572445e+00 2.075735e+00 2.897393e+00 1.970622e+00 1.563863e+00 3.813833e-01 4.437203e-01 3.879256e-01 4.165319e-01 8.559457e-01 5.998038e-01 5.644064e-01 5.863420e-01 5.642640e-01 4.151784e-01 5.926352e-01 4.591221e-01 3.437144e-01
<GCONST> 1.125920e+02
<STATE> 4
<NUMMIXES> 2
<MIXTURE> 1 3.863721e-01
<MEAN> 39
 -5.536497e-01 6.219862e-01 7.993601e+00 4.773230e+00 -3.926693e+00 -4.518555e+00 -8.864298e-01 1.173472e+00 -4.803002e+00 -3.005233e+00 1.605313e+00 -7.915683e-01 1.370194e+00 3.185307e+00 8.862460e-02 8.364609e-01 7.986006e-01 -1.494947e+00 -2.373683e+00 -8.665243e-01 -2.165506e+00 -1.012254e-01 9.507752e-02 -1.586110e-01 -7.035838e-01 -4.805616e-01 -1.107926e+00 -5.019465e-01 -6.203847e-01 -1.057725e+00 -8.761281e-02 2.075960e-01 -3.038585e-01 2.894063e-01 2.321206e-01 2.934747e-01 4.428911e-01 3.446283e-01 1.662976e-02
<VARIANCE> 39
 2.163190e+01 2.159052e+01 2.314386e+01 1.586906e+01 5.390896e+01 4.529351e+01 3.673830e+01 3.857626e+01 2.856029e+01 1.895311e+01 2.415886e+01 2.131998e+01 1.789750e+01 5.180972e+00 2.949610e+00 2.716314e+00 4.246850e+00 2.787400e+00 3.043389e+00 4.501665e+00 4.619400e+00 3.185582e+00 2.318447e+00 3.275800e+00 2.797267e+00 3.213377e+00 3.610822e-01 3.087639e-01 3.254811e-01 3.746867e-01 6.231905e-01 6.484276e-01 6.752741e-01 8.940830e-01 4.341796e-01 3.838499e-01 3.833262e-01 3.507762e-01 4.172108e-01
<GCONST> 1.195555e+02
<MIXTURE> 2 6.136279e-01
<MEAN> 39
 5.872872e+00 -6.251555e+00 -5.598829e+00 6.638482e-01 5.429646e+00 3.871803e+00 5.078353e+00 -1.094103e+00 1.939167e+00 5.411223e-01 -4.360516e+00 -1.490230e-01 -3.640500e+00 2.649036e+00 -5.980694e-01 -1.709598e-01 -1.213510e+00 -1.161563e+00 -6.800307e-02 9.212481e-01 -2.232114e+00 -3.146256e-01 4.268935e-01 -9.595057e-01 -1.366735e-01 -1.939552e+00 -1.184968e+00 -2.431625e-01 2.190441e-01 -3.714649e-01 -6.689007e-01 -5.203400e-02 -5.298670e-01 4.501985e-01 -2.935653e-02 -2.351149e-01 4.948374e-01 4.893275e-01 4.879078e-01
<VARIANCE> 39
 1.568756e+01 4.511735e+01 2.197120e+01 2.674078e+01 4.315398e+01 4.258475e+01 3.076593e+01 8.077103e+01 2.707665e+01 2.536365e+01 6.802795e+01 2.551118e+01 2.801348e+01 5.135293e+00 3.788489e+00 2.573170e+00 3.536852e+00 4.683283e+00 3.187011e+00 5.035331e+00 4.170336e+00 3.571687e+00 3.701446e+00 5.325145e+00 3.049399e+00 3.546778e+00 2.951965e-01 4.893673e-01 3.326791e-01 7.172126e-01 1.130529e+00 6.031061e-01 5.165352e-01 6.452857e-01 5.500268e-01 4.854136e-01 5.518313e-01 4.663152e-01 5.639225e-01
<GCONST> 1.267324e+02
<TRANSP> 5
 0.000000e+00 1.000000e+00 0.000000e+00 0.000000e+00 0.000000e+00
 0.000000e+00 8.094276e-01 1.905725e-01 0.000000e+00 0.000000e+00
 0.000000e+00 0.000000e+00 8.239775e-01 1.760225e-01 0.000000e+00
 0.000000e+00 0.000000e+00 0.000000e+00 7.104793e-01 2.895207e-01
 0.000000e+00 0.000000e+00 0.000000e+00 0.000000e+00 0.000000e+00
<ENDHMM>
~o
<STREAMINFO> 1 39
<VECSIZE> 39<NULLD><MFCC_D_A_Z><DIAGC>
~h "d"
<BEGINHMM>
<NUMSTATES> 5
<STATE> 2
<NUMMIXES> 2
<MIXTURE> 1 4.224114e-01
<MEAN> 39
 8.005675e+00 1.302426e+01 1.001827e+01 9.271106e+00 7.149637e-01 -4.659363e+00 -3.068293e+00 -2.417138e+00 -6.016763e-01 -2.910732e-01 -3.256651e+00 -3.652419e+00 3.428474e+00 1.363283e+00 7.551506e-01 1.788567e-01 -7.251669e-02 1.090831e+00 8.173635e-01 -7.641530e-02 2.017769e+00 8.703105e-01 -3.706674e-01 -1.070700e-01 -1.677769e-01 -5.269390e-01 -7.075768e-01 -8.810416e-01 -3.639926e-01 -4.928403e-01 1.170103e-01 -1.931873e-02 -5.197022e-02 -1.077750e-01 -2.095544e-01 6.304469e-03 3.980399e-01 3.956285e-01 -1.228744e-01
<VARIANCE> 39
 1.447328e+01 1.560405e+01 1.858025e+01 1.796232e+01 2.537033e+01 4.659370e+01 3.148511e+01 1.087675e+02 3.824837e+01 3.304749e+01 3.247884e+01 2.721903e+01 2.157596e+01 1.818973e+00 1.930345e+00 1.560989e+00 1.785349e+00 2.339235e+00 2.603020e+00 2.373185e+00 5.331853e+00 3.802661e+00 2.485752e+00 2.680712e+00 2.369022e+00 1.792964e+00 5.685493e-01 3.839580e-01 3.265827e-01 3.360613e-01 4.508958e-01 6.911215e-01 5.747754e-01 1.321982e+00 9.144413e-01 4.911241e-01 4.969088e-01 4.436207e-01 4.111097e-01
<GCONST> 1.180498e+02
<MIXTURE> 2 5.775886e-01
<MEAN> 39
 9.409419e+00 1.004090e+01 3.010639e+00 3.047053e+00 8.414835e+00 -1.355607e+00 -3.997585e+00 2.337060e-01 4.523184e+00 5.224257e-01 -5.217818e+00 -6.533875e+00 1.189482e+00 1.607815e+00 1.932997e+00 1.342494e+00 8.503946e-01 1.791294e-01 3.286052e-01 1.762546e-01 9.845494e-01 3.497877e-01 -4.938054e-01 -6.398070e-01 1.526839e-01 -2.392280e-01 -7.590287e-01 -8.057728e-01 -1.830596e-01 -2.542444e-01 -4.178834e-01 -1.881345e-01 -1.963299e-02 -6.654564e-02 -3.676402e-01 -2.451169e-02 4.402974e-01 4.474159e-01 3.964175e-02
<VARIANCE> 39
 3.111342e+01 2.698131e+01 2.248733e+01 2.667490e+01 2.316916e+01 4.278397e+01 4.254960e+01 3.929593e+01 3.754089e+01 2.983677e+01 4.449325e+01 2.910822e+01 2.726565e+01 2.156183e+00 1.939352e+00 1.496631e+00 1.938084e+00 2.213640e+00 2.848906e+00 2.759068e+00 3.538854e+00 2.968739e+00 2.632592e+00 2.574965e+00 2.123210e+00 1.921635e+00 7.208161e-01 4.521130e-01 3.437324e-01 4.094658e-01 4.490122e-01 5.650643e-01 5.976827e-01 6.569290e-01 7.053573e-01 5.673279e-01 6.415557e-01 4.257739e-01 4.623265e-01
<GCONST> 1.192711e+02
<STATE> 3
<NUMMIXES> 2
<MIXTURE> 1 4.728369e-01
<MEAN> 39
 1.193900e+01 1.353950e+01 7.503514e+00 6.011906e+00 5.814567e+00 -2.215333e+00 -3.921242e+00 2.238839e+00 3.913947e+00 -4.335647e-01 -4.947882e+00 -4.537825e+00 1.392202e+00 -2.819136e+00 -2.055976e+00 9.406623e-02 -3.436379e-01 2.099733e-01 1.248575e-01 3.480237e-01 4.495358e-01 -1.600905e+00 -8.730062e-01 1.698873e+00 1.819231e+00 -3.182158e-01 -1.170297e+00 -1.072675e+00 -5.492951e-01 -5.672202e-01 -8.035136e-01 -6.501369e-01 -9.542660e-02 -7.342171e-01 -5.428014e-01 1.095796e-01 6.312825e-01 2.239772e-01 2.669456e-01
<VARIANCE> 39
 1.530896e+01 1.757441e+01 2.402542e+01 2.420027e+01 2.586076e+01 4.021111e+01 3.201088e+01 4.317271e+01 3.218443e+01 2.563851e+01 3.029907e+01 2.358949e+01 2.113382e+01 2.354756e+00 3.005193e+00 3.107517e+00 2.986018e+00 3.700489e+00 5.113091e+00 3.666319e+00 6.300527e+00 4.981438e+00 3.204315e+00 3.749684e+00 2.604271e+00 2.549194e+00 4.025607e-01 3.918703e-01 5.440013e-01 4.553652e-01 5.529055e-01 6.773252e-01 6.310766e-01 7.375697e-01 1.177364e+00 5.734179e-01 6.650294e-01 4.749220e-01 4.055238e-01
<GCONST> 1.229665e+02
<MIXTURE> 2 5.271632e-01
<MEAN> 39
 -7.581577e-01 3.883584e+00 6.505121e+00 4.502866e+00 6.621759e+00 -9.737245e-01 -2.672195e+00 1.399392e+00 -3.438494e+00 -3.637085e+00 1.481922e+00 1.406924e+00 3.164256e-01 -2.386892e+00 -2.375367e+00 -1.303373e+00 -1.708152e+00 -2.231533e+00 -2.079955e+00 -5.409102e-01 -1.016416e+00 -9.894016e-01 7.580352e-03 1.731419e+00 8.816633e-01 7.905554e-01 7.144468e-01 2.371396e-01 -3.464864e-01 -4.911781e-01 -8.620370e-01 -4.280432e-01 -7.425813e-02 -3.686203e-01 5.476930e-01 5.566884e-01 -3.609839e-01 -6.903666e-01 1.887191e-01
<VARIANCE> 39
 1.641288e+01 2.593415e+01 3.223809e+01 2.683224e+01 3.377781e+01 5.184382e+01 4.062599e+01 3.110348e+01 3.312440e+01 2.564232e+01 2.467157e+01 2.265677e+01 2.151779e+01 3.943547e+00 3.358865e+00 5.426332e+00 4.226814e+00 4.376570e+00 5.405420e+00 4.402262e+00 6.510621e+00 1.077185e+01 3.873349e+00 5.397769e+00 3.497343e+00 2.693401e+00 4.827654e-01 8.173071e-01 8.398297e-01 6.628742e-01 7.925884e-01 1.070713e+00 8.456994e-01 8.968760e-01 9.372459e-01 6.643106e-01 8.204824e-01 5.625877e-01 6.325136e-01
<GCONST> 1.314771e+02
<STATE> 4
<NUMMIXES> 2
<MIXTURE> 1 4.985227e-01
<MEAN> 39
 3.099345e+00 -1.714556e+00 -6.175117e+00 -5.356466e+00 1.898425e+00 -4.619260e+00 -4.922710e+00 -8.028465e-01 9.626255e+00 3.028638e+00 -4.020350e+00 -4.565254e+00 1.227058e+00 2.858272e-01 -2.035655e+00 -2.396272e+00 -1.725232e+00 -3.583103e-01 9.489982e-01 1.476040e+00 -2.893024e-01 1.089309e+00 5.820689e-01 -1.392014e+00 -7.766382e-01 -1.243753e+00 2.324047e-01 4.768627e-01 7.533242e-01 8.229681e-01 4.707171e-01 7.280837e-01 4.824371e-01 -8.610597e-03 -9.086311e-01 -3.081797e-01 -5.173551e-02 2.559794e-01 -3.309103e-01
<VARIANCE> 39
 7.645039e+00 2.385158e+01 3.340219e+01 2.129101e+01 2.481186e+01 4.419332e+01 5.214228e+01 4.788659e+01 3.380423e+01 3.009529e+01 4.880227e+01 2.659618e+01 2.758910e+01 1.597051e+00 3.837586e+00 4.429385e+00 4.873168e+00 3.627857e+00 4.464201e+00 4.382004e+00 4.578336e+00 6.601543e+00 3.150384e+00 4.437466e+00 2.905605e+00 2.822090e+00 3.616537e-01 3.163033e-01 4.114756e-01 4.313485e-01 4.813925e-01 6.163207e-01 8.201786e-01 8.349992e-01 6.989380e-01 5.031452e-01 7.765657e-01 6.211310e-01 5.007604e-01
<GCONST> 1.250249e+02
<MIXTURE> 2 5.014774e-01
<MEAN> 39
 -1.361305e+00 5.049264e+00 8.533547e+00 2.334806e+00 -6.922042e+00 -1.292231e+01 -3.406223e+00 -1.988105e+00 -8.762243e+00 -2.339914e+00 6.172670e+00 4.041719e-01 4.780689e+00 -5.096652e-01 -5.057683e-01 8.249178e-01 -1.223295e+00 -3.284041e+00 -1.442699e+00 -5.026820e-01 -6.179798e-01 -8.907357e-01 1.155403e+00 1.055863e+00 -6.565163e-01 6.378016e-01 6.139065e-01 2.873149e-01 8.487208e-02 1.179098e-01 7.360409e-01 1.069144e+00 6.127676e-02 4.325000e-01 7.226321e-01 3.020583e-01 -7.437975e-01 -3.655472e-01 -3.512228e-01
<VARIANCE> 39
 6.809850e+00 1.600311e+01 2.427563e+01 2.120741e+01 2.664176e+01 2.409813e+01 2.365750e+01 3.098395e+01 5.131116e+01 2.772057e+01 2.165907e+01 2.532199e+01 1.851724e+01 1.502124e+00 2.159788e+00 2.248103e+00 2.064201e+00 3.829610e+00 5.856987e+00 2.510863e+00 3.639933e+00 4.487115e+00 2.423248e+00 2.848772e+00 2.616467e+00 2.891797e+00 3.135391e-01 2.528202e-01 3.000461e-01 3.703904e-01 5.229251e-01 5.459034e-01 4.722518e-01 5.379331e-01 6.071116e-01 4.768462e-01 4.349998e-01 4.854479e-01 4.231304e-01
<GCONST> 1.146409e+02
<TRANSP> 5
 0.000000e+00 1.000000e+00 0.000000e+00 0.000000e+00 0.000000e+00
 0.000000e+00 6.625896e-01 3.374104e-01 0.000000e+00 0.000000e+00
 0.000000e+00 0.000000e+00 7.066495e-01 2.933504e-01 0.000000e+00
 0.000000e+00 0.000000e+00 0.000000e+00 6.444280e-01 3.555720e-01
 0.000000e+00 0.000000e+00 0.000000e+00 0.000000e+00 0.000000e+00
<ENDHMM>
~o
<STREAMINFO> 1 39
<VECSIZE> 39<NULLD><MFCC_D_A_Z><DIAGC>
~h "dh"
<BEGINHMM>
<NUMSTATES> 5
<STATE> 2
<NUMMIXES> 2
<MIXTURE> 1 7.781385e-01
<MEAN> 39
 1.191918e+01 1.158949e+01 4.378035e+00 2.470480e+00 6.649341e+00 -8.112587e-01 -3.571724e+00 7.690670e-01 5.748589e+00 -3.108547e-01 -6.519579e+00 -6.649459e+00 -3.785247e-01 -6.944640e-01 1.948684e-01 8.356202e-01 4.971691e-01 1.415076e-01 2.497644e-01 1.926324e-01 9.993770e-01 -8.217404e-01 -4.742719e-01 5.182585e-01 9.334489e-01 -2.532730e-01 -1.042411e+00 -1.023309e+00 -4.827954e-01 -4.652952e-01 -5.505930e-01 -4.192303e-01 -2.497857e-01 -4.188482e-01 -4.538598e-01 -9.292043e-03 5.364659e-01 3.806572e-01 2.175011e-01
<VARIANCE> 39
 1.719758e+01 1.852669e+01 3.077094e+01 2.652113e+01 2.843857e+01 4.900970e+01 3.685019e+01 4.411427e+01 3.848403e+01 2.984668e+01 4.150150e+01 2.463332e+01 2.779377e+01 6.323703e+00 5.113334e+00 2.065094e+00 2.350489e+00 2.761389e+00 3.384526e+00 2.997923e+00 3.845057e+00 4.722187e+00 2.726799e+00 4.035560e+00 2.724418e+00 2.254046e+00 4.088575e-01 3.502756e-01 4.025501e-01 4.195495e-01 5.743833e-01 6.410158e-01 6.035630e-01 6.789510e-01 7.333370e-01 5.457506e-01 5.430503e-01 4.466181e-01 4.226579e-01
<GCONST> 1.227745e+02
<MIXTURE> 2 2.218615e-01
<MEAN> 39
 -2.070145e+00 5.091046e+00 1.715012e+00 2.350411e+00 4.353276e+00 -2.129105e+00 -9.229059e-01 4.078074e+00 1.076939e+00 -8.094522e-01 2.502982e+00 2.601306e+00 1.519724e+00 -1.230735e+00 -2.325068e+00 -1.001316e+00 -7.571203e-01 1.471001e-01 1.219280e-01 -2.472768e-01 -5.244265e-01 -3.058916e-01 -1.294966e-01 -3.179465e-01 -2.598054e-01 -1.953347e-01 5.385100e-01 -3.788880e-01 -5.126222e-01 -6.117000e-01 -2.406324e-01 -1.028177e-01 -1.854753e-01 -4.440293e-01 2.293326e-01 2.024656e-01 -5.444304e-01 -7.197303e-01 -1.477209e-01
<VARIANCE> 39
 3.921102e+01 4.738237e+01 3.272047e+01 3.955015e+01 3.784673e+01 5.581208e+01 3.839928e+01 4.233756e+01 3.532955e+01 2.851210e+01 2.957392e+01 2.481625e+01 2.086754e+01 4.381968e+00 3.752701e+00 4.620919e+00 4.147027e+00 3.846150e+00 4.968095e+00 4.220776e+00 4.537490e+00 4.074342e+00 3.697889e+00 4.234353e+00 4.613416e+00 2.484871e+00 6.872596e-01 7.314842e-01 7.300178e-01 8.040181e-01 6.968755e-01 9.779401e-01 8.246830e-01 7.390828e-01 8.801598e-01 7.673234e-01 7.197806e-01 5.030596e-01 4.675210e-01
<GCONST> 1.319534e+02
<STATE> 3
<NUMMIXES> 2
<MIXTURE> 1 5.370489e-01
<MEAN> 39
 -1.346133e+00 2.241604e+00 6.453096e+00 2.663394e+00 6.234320e+00 3.441792e-01 -3.548655e+00 2.070012e+00 -3.508125e+00 -4.572934e+00 4.730317e-01 2.962718e-01 -9.862214e-01 -2.485250e+00 -2.240602e+00 -1.312123e+00 -1.564952e+00 -2.417570e+00 -2.287082e+00 -1.616210e+00 -1.357196e+00 -1.237218e+00 -4.472819e-01 1.585968e+00 9.089252e-01 1.358398e+00 9.662217e-01 3.888963e-01 -6.550847e-01 -5.859737e-01 -7.461180e-01 -4.448604e-01 -2.287870e-01 -5.990067e-01 8.577897e-01 5.299976e-01 -3.637043e-01 -6.846897e-01 3.159146e-01
<VARIANCE> 39
 2.310932e+01 3.740105e+01 3.243510e+01 2.698718e+01 3.241220e+01 4.935879e+01 4.509520e+01 3.280256e+01 3.166145e+01 2.515743e+01 2.577954e+01 2.512581e+01 2.361364e+01 4.254319e+00 3.371420e+00 5.416611e+00 4.478559e+00 4.137039e+00 5.625680e+00 5.170980e+00 6.595159e+00 9.517175e+00 3.775778e+00 4.830699e+00 4.166102e+00 3.115457e+00 4.883238e-01 8.227220e-01 9.337364e-01 6.547996e-01 7.918826e-01 9.543414e-01 9.286239e-01 9.128273e-01 1.032379e+00 6.286303e-01 7.474610e-01 5.993767e-01 6.183293e-01
<GCONST> 1.328898e+02
<MIXTURE> 2 4.629510e-01
<MEAN> 39
 2.244003e+00 1.179593e+00 -4.257144e+00 -5.259574e+00 2.903305e-01 -7.577668e+00 -1.010103e+01 -2.042678e+00 6.018301e+00 5.308439e-01 -2.385832e+00 -3.679187e+00 4.379450e+00 9.018632e-01 -1.639114e+00 -2.953644e+00 -2.324523e+00 -1.449604e+00 -7.521444e-01 -4.031912e-01 -1.096442e+00 2.347713e+00 1.130432e+00 -1.009531e+00 -1.518953e+00 2.373873e-01 6.383302e-01 4.623658e-01 5.660304e-01 6.709404e-01 6.590209e-01 1.092368e+00 9.743430e-01 2.669437e-01 -2.499881e-01 2.296127e-02 -2.821012e-01 -1.512504e-01 -6.728838e-01
<VARIANCE> 39
 7.868408e+00 1.366327e+01 3.112620e+01 2.021793e+01 2.449182e+01 3.800286e+01 4.060063e+01 3.816439e+01 3.778187e+01 3.406569e+01 2.948016e+01 2.869982e+01 2.475508e+01 2.985224e+00 4.213729e+00 4.699008e+00 4.025312e+00 3.834065e+00 5.500411e+00 5.338167e+00 5.177002e+00 4.685232e+00 3.308535e+00 5.311883e+00 3.607971e+00 4.369209e+00 4.499222e-01 3.785408e-01 5.581500e-01 5.706837e-01 6.057092e-01 5.973867e-01 7.329916e-01 7.725021e-01 8.129965e-01 5.488133e-01 5.797119e-01 7.639448e-01 4.422128e-01
<GCONST> 1.261623e+02
<STATE> 4
<NUMMIXES> 2
<MIXTURE> 1 7.164155e-01
<MEAN> 39
 3.087245e+00 -1.328973e+00 -5.564770e+00 -4.499343e+00 2.000571e+00 -2.740719e+00 -5.329121e+00 -1.225997e+00 6.894343e+00 1.801883e+00 -3.165161e+00 -4.440687e+00 1.865717e+00 3.249382e-01 -4.561169e-01 -1.550534e-01 2.561837e-01 7.228976e-01 1.553442e+00 1.450267e+00 1.620473e-01 -4.442722e-01 9.979211e-02 -4.454569e-01 5.891357e-02 -8.385152e-01 -1.909944e-01 3.216405e-01 6.587415e-01 5.526885e-01 2.568013e-01 2.194533e-01 2.137763e-01 2.256354e-01 -6.106704e-01 -2.018768e-01 1.906879e-01 5.288638e-01 -5.582050e-02
<VARIANCE> 39
 1.243806e+01 3.831559e+01 4.958839e+01 4.030193e+01 3.469532e+01 5.289662e+01 6.170100e+01 6.223689e+01 3.944400e+01 4.268220e+01 5.339141e+01 4.140445e+01 4.569032e+01 1.607497e+00 4.525358e+00 3.270163e+00 3.623785e+00 2.874023e+00 3.218157e+00 3.805113e+00 4.388065e+00 3.193684e+00 2.791656e+00 3.827754e+00 2.945682e+00 2.634554e+00 3.214237e-01 4.363703e-01 6.322359e-01 7.177970e-01 6.523667e-01 6.923639e-01 7.714851e-01 9.290458e-01 7.285271e-01 5.604550e-01 7.121186e-01 6.455986e-01 5.181227e-01
<GCONST> 1.290269e+02
<MIXTURE> 2 2.835844e-01
<MEAN> 39
 -1.947308e+00 5.538485e+00 8.083283e+00 1.741601e+00 -9.011353e+00 -1.229935e+01 -4.319403e+00 -4.372297e+00 -1.077527e+01 -3.949328e+00 5.100677e+00 -9.417744e-01 3.447801e+00 -3.564597e-01 -6.854576e-02 8.536888e-01 -1.147865e+00 -2.997729e+00 -1.203191e+00 -6.714925e-01 -8.216535e-01 -1.201958e+00 1.171117e+00 7.701339e-01 -8.836648e-01 8.655512e-01 6.056145e-01 1.838578e-01 6.613761e-03 7.893308e-03 9.660518e-01 1.132538e+00 2.225538e-01 7.168865e-01 1.099419e+00 4.223843e-01 -7.805173e-01 -3.274222e-01 -2.720588e-01
<VARIANCE> 39
 6.751236e+00 1.757343e+01 2.315473e+01 2.275807e+01 2.906973e+01 2.974240e+01 2.927397e+01 3.858413e+01 4.983390e+01 3.021613e+01 1.923642e+01 3.284702e+01 2.692027e+01 1.876041e+00 2.399083e+00 3.088983e+00 2.657423e+00 5.081641e+00 6.617123e+00 2.934054e+00 4.639355e+00 5.327770e+00 2.614134e+00 2.891399e+00 2.925756e+00 3.267442e+00 3.610653e-01 3.390273e-01 3.951191e-01 5.480782e-01 6.281512e-01 6.128080e-01 5.597089e-01 6.148926e-01 7.178690e-01 5.742520e-01 5.350636e-01 6.489247e-01 4.985276e-01
<GCONST> 1.209681e+02
<TRANSP> 5
 0.000000e+00 1.000000e+00 0.000000e+00 0.000000e+00 0.000000e+00
 0.000000e+00 7.485893e-01 2.514108e-01 0.000000e+00 0.000000e+00
 0.000000e+00 0.000000e+00 6.237294e-01 3.762706e-01 0.000000e+00
 0.000000e+00 0.000000e+00 0.000000e+00 6.224089e-01 3.775912e-01
 0.000000e+00 0.000000e+00 0.000000e+00 0.000000e+00 0.000000e+00
<ENDHMM>
~o
<STREAMINFO> 1 39
<VECSIZE> 39<NULLD><MFCC_D_A_Z><DIAGC>
~h "dx"
<BEGINHMM>
<NUMSTATES> 5
<STATE> 2
<NUMMIXES> 2
<MIXTURE> 1 5.079331e-01
<MEAN> 39
 6.728981e+00 3.534153e+00 6.294364e+00 1.070934e+01 7.092805e-01 -4.704920e+00 -3.288080e+00 -3.381725e-02 -4.441252e-01 -2.529007e+00 -5.252704e+00 1.791275e+00 1.394566e+00 1.332805e+00 1.789530e+00 1.325515e+00 9.777140e-01 9.439276e-01 2.744048e-01 -2.354854e-01 9.833698e-01 1.720789e-01 -1.039573e+00 -1.371267e-02 -7.950622e-01 -1.965996e-02 -5.526325e-02 -3.418832e-01 -1.536190e-01 -6.403183e-01 -6.686272e-02 2.394241e-01 1.900749e-01 2.236730e-01 2.607745e-01 1.599476e-01 2.814667e-02 -4.107259e-02 -1.281207e-01
<VARIANCE> 39
 2.460561e+01 9.848300e+01 3.761070e+01 2.803874e+01 5.181686e+01 4.261252e+01 3.876261e+01 1.000016e+02 4.950763e+01 4.108384e+01 4.336512e+01 3.692045e+01 3.075176e+01 2.095320e+00 5.211082e+00 2.782990e+00 3.012007e+00 2.870386e+00 4.394493e+00 3.111820e+00 7.793126e+00 4.391476e+00 4.386590e+00 3.945849e+00 2.945312e+00 2.442093e+00 4.401807e-01 1.117213e+00 5.504536e-01 6.125956e-01 7.706079e-01 8.349134e-01 6.551965e-01 1.323252e+00 8.559043e-01 8.024747e-01 8.443108e-01 6.670878e-01 4.996102e-01
<GCONST> 1.333352e+02
<MIXTURE> 2 4.920669e-01
<MEAN> 39
 1.418973e+01 5.345011e+00 9.854340e+00 9.656012e+00 -1.238742e+00 -3.979490e+00 -9.295316e-01 7.956614e+00 3.038201e+00 -4.687345e+00 -7.640882e+00 -6.373140e-01 -5.062726e-01 8.130059e-01 2.236996e+00 5.499744e-01 7.532896e-02 7.538513e-01 1.704166e-01 1.189690e-01 -1.347354e-01 6.544095e-01 -2.143064e-01 -9.275755e-02 -3.313556e-01 2.710801e-01 -8.503702e-01 -7.586876e-01 -2.389855e-01 -4.985949e-01 -3.781098e-02 2.638383e-02 -1.930145e-01 -3.853367e-01 -2.576526e-01 3.267004e-01 4.451340e-01 1.663317e-01 1.133189e-01
<VARIANCE> 39
 7.349418e+00 3.395637e+01 2.515798e+01 2.084901e+01 2.764153e+01 3.147371e+01 2.627560e+01 2.841787e+01 2.856471e+01 2.099510e+01 4.352526e+01 2.055020e+01 1.956380e+01 1.427189e+00 1.359128e+00 1.158940e+00 1.202859e+00 1.541101e+00 1.657119e+00 1.851809e+00 2.808265e+00 2.250312e+00 2.030844e+00 2.499031e+00 1.682617e+00 1.681183e+00 3.095849e-01 3.805016e-01 2.661518e-01 3.671104e-01 2.749987e-01 4.717303e-01 3.598576e-01 4.970989e-01 5.412997e-01 4.532167e-01 5.107885e-01 3.258280e-01 3.083743e-01
<GCONST> 1.074635e+02
<STATE> 3
<NUMMIXES> 2
<MIXTURE> 1 5.599387e-01
<MEAN> 39
 1.360200e+01 1.015562e+01 9.807495e+00 1.069622e+01 2.333737e+00 -3.426744e+00 -3.176258e+00 4.204961e+00 3.792032e+00 -3.352877e+00 -6.509523e+00 -1.947298e+00 1.614853e+00 -2.599389e+00 -2.208860e+00 5.108987e-01 -2.365700e+00 1.011393e-01 2.836116e-01 -1.933871e-01 -1.697517e-01 -6.796972e-01 2.835230e-01 1.898247e+00 3.794649e-01 1.122713e-01 -1.078007e+00 -1.260199e+00 -5.317347e-01 -1.083177e+00 -8.445898e-01 -5.290878e-01 -4.693198e-02 -5.121402e-01 -5.743583e-01 2.226504e-01 7.204658e-01 1.307472e-01 1.103849e-02
<VARIANCE> 39
 1.265619e+01 2.255972e+01 2.227308e+01 1.848971e+01 3.224496e+01 2.872030e+01 3.108050e+01 4.109093e+01 3.334439e+01 2.386160e+01 2.609607e+01 2.039357e+01 2.049370e+01 3.165437e+00 4.529248e+00 3.619193e+00 3.820282e+00 4.328574e+00 5.528628e+00 3.404121e+00 6.876230e+00 5.901165e+00 3.312723e+00 4.430684e+00 2.615405e+00 2.472471e+00 3.584869e-01 4.473728e-01 5.846341e-01 4.415289e-01 5.468437e-01 8.817876e-01 6.766702e-01 9.434218e-01 1.191867e+00 5.932679e-01 8.283962e-01 4.744860e-01 4.711635e-01
<GCONST> 1.248619e+02
<MIXTURE> 2 4.400613e-01
<MEAN> 39
 1.105693e+00 -8.552712e-01 1.238623e+01 2.136466e+00 2.415521e+00 -1.309161e+00 -3.109096e+00 2.164111e+00 -2.514653e+00 -4.074049e+00 1.854628e+00 1.802421e+00 -1.182059e-01 -2.920107e+00 -2.948170e+00 -1.036617e+00 -3.498117e+00 -2.165092e+00 -1.901509e+00 -6.654428e-01 -9.389525e-01 -1.227352e+00 5.870219e-01 2.533146e+00 -3.719931e-02 6.180744e-01 6.827587e-01 4.095120e-01 -7.962695e-01 2.187901e-01 -6.201529e-01 -4.629573e-01 5.125134e-02 -1.409795e-01 1.883540e-01 2.435448e-01 -5.474932e-01 -5.026771e-01 9.461071e-02
<VARIANCE> 39
 1.610056e+01 2.762758e+01 3.457897e+01 4.037667e+01 4.631640e+01 5.630275e+01 3.588575e+01 3.577184e+01 4.073576e+01 2.883468e+01 3.192657e+01 2.502058e+01 2.159387e+01 3.061058e+00 4.369206e+00 5.004951e+00 3.778242e+00 4.780419e+00 6.152295e+00 4.179290e+00 7.170594e+00 1.163885e+01 3.897689e+00 6.757054e+00 3.024064e+00 3.030241e+00 4.508823e-01 8.081768e-01 6.103725e-01 8.430186e-01 9.036834e-01 1.130246e+00 7.099854e-01 1.006282e+00 9.395478e-01 6.215488e-01 8.051779e-01 5.334962e-01 5.460092e-01
<GCONST> 1.331423e+02
<STATE> 4
<NUMMIXES> 2
<MIXTURE> 1 4.194907e-01
<MEAN> 39
 -4.281110e-01 6.568736e-01 1.194432e+01 -3.110840e+00 -1.005710e+01 -1.208594e+01 -4.216925e+00 -5.755080e-01 -1.019675e+01 -2.273543e+00 8.098076e+00 -2.929614e+00 3.439741e+00 -7.160066e-01 -3.975662e-02 -5.973956e-01 -8.316825e-01 -2.353004e+00 -1.250657e+00 -2.889728e-01 -5.563485e-01 -1.598272e+00 7.458916e-01 7.341472e-01 -1.226034e+00 4.716004e-01 7.842906e-01 6.136044e-01 -1.473127e-01 8.737039e-01 7.902710e-01 9.500259e-01 1.690117e-01 3.655909e-01 7.802545e-01 2.020244e-02 -1.147309e+00 -5.019059e-02 -1.806353e-01
<VARIANCE> 39
 7.077974e+00 2.060422e+01 2.666889e+01 2.305692e+01 2.042560e+01 3.249446e+01 2.345895e+01 3.903735e+01 5.937059e+01 2.913239e+01 2.419011e+01 2.626988e+01 2.220164e+01 1.778266e+00 2.836942e+00 1.957724e+00 2.826408e+00 4.431340e+00 5.637157e+00 2.571564e+00 3.393647e+00 4.414520e+00 2.613988e+00 4.303856e+00 2.476226e+00 2.926600e+00 2.681060e-01 3.548020e-01 2.841475e-01 3.309212e-01 4.860149e-01 5.410025e-01 3.923547e-01 5.238358e-01 6.479710e-01 4.772501e-01 5.065762e-01 4.988205e-01 3.862521e-01
<GCONST> 1.168733e+02
<MIXTURE> 2 5.805092e-01
<MEAN> 39
 3.850832e+00 -4.904489e+00 -9.642678e-01 -2.246533e+00 -1.012307e+00 -5.710584e+00 -3.865722e+00 1.397480e+00 6.810637e+00 5.198122e-01 -3.389178e+00 -3.232514e+00 2.122200e+00 -1.040253e-01 -8.615351e-01 -2.510609e+00 -9.225070e-01 2.648660e-01 1.087785e+00 8.765913e-01 -7.276680e-01 5.918790e-01 7.109351e-01 -1.036120e+00 -6.928243e-01 -8.538290e-01 4.602474e-01 8.508819e-01 5.272318e-01 8.825164e-01 4.772501e-01 6.183887e-01 2.614677e-01 -1.258687e-01 -5.928978e-01 -2.455810e-01 -2.334763e-01 2.747920e-01 -3.827866e-01
<VARIANCE> 39
 1.163806e+01 3.279370e+01 3.739534e+01 3.576054e+01 3.936286e+01 4.250932e+01 5.747364e+01 4.938400e+01 4.585686e+01 2.866173e+01 5.947499e+01 2.754953e+01 2.918303e+01 2.737704e+00 7.463111e+00 5.499156e+00 7.298360e+00 4.301874e+00 5.137861e+00 4.908535e+00 5.482849e+00 5.402869e+00 3.493908e+00 6.220848e+00 2.807060e+00 3.444752e+00 4.022249e-01 5.301901e-01 6.436929e-01 7.941843e-01 6.814448e-01 7.521587e-01 7.815291e-01 1.008215e+00 8.184801e-01 6.493674e-01 9.453261e-01 5.812023e-01 5.694537e-01
<GCONST> 1.333653e+02
<TRANSP> 5
 0.000000e+00 1.000000e+00 0.000000e+00 0.000000e+00 0.000000e+00
 0.000000e+00 7.500796e-01 2.499204e-01 0.000000e+00 0.000000e+00
 0.000000e+00 0.000000e+00 6.908941e-01 3.091059e-01 0.000000e+00
 0.000000e+00 0.000000e+00 0.000000e+00 6.646810e-01 3.353190e-01
 0.000000e+00 0.000000e+00 0.000000e+00 0.000000e+00 0.000000e+00
<ENDHMM>
~o
<STREAMINFO> 1 39
<VECSIZE> 39<NULLD><MFCC_D_A_Z><DIAGC>
~h "dxh"
<BEGINHMM>
<NUMSTATES> 5
<STATE> 2
<NUMMIXES> 2
<MIXTURE> 1 5.140517e-01
<MEAN> 39
 1.342891e+01 6.312944e+00 6.468368e+00 9.906526e+00 1.229150e+00 -5.090245e+00 -3.933767e+00 5.363437e+00 3.401410e+00 -4.515962e+00 -8.037383e+00 -2.149854e+00 -8.586032e-01 -9.828158e-01 2.074280e-01 1.113851e+00 -9.578368e-01 7.734705e-02 2.762484e-01 2.247879e-01 2.232298e-01 -1.324604e-01 7.211468e-02 8.215824e-01 -6.153031e-02 1.411221e-01 -9.632303e-01 -9.521728e-01 -4.988123e-01 -1.000846e+00 -5.580315e-01 -1.808201e-01 -1.154724e-01 -5.533928e-01 -4.821693e-01 2.463614e-01 6.628947e-01 1.280370e-01 6.902344e-02
<VARIANCE> 39
 1.471755e+01 3.396972e+01 3.163104e+01 1.858614e+01 3.373194e+01 3.330117e+01 3.696870e+01 4.388314e+01 3.795068e+01 2.960434e+01 3.586629e+01 2.295397e+01 2.676319e+01 5.162701e+00 6.561078e+00 2.592991e+00 4.660659e+00 3.458966e+00 3.929047e+00 2.964590e+00 5.383775e+00 4.671154e+00 3.458920e+00 4.291706e+00 2.744926e+00 2.627011e+00 3.529966e-01 5.221516e-01 4.511003e-01 5.456170e-01 7.415900e-01 9.746131e-01 5.785876e-01 8.375171e-01 1.018897e+00 7.136483e-01 7.424828e-01 5.532317e-01 4.751022e-01
<GCONST> 1.272224e+02
<MIXTURE> 2 4.859483e-01
<MEAN> 39
 1.283922e+00 3.435709e+00 1.570310e+00 2.879483e+00 4.273795e-01 -1.330558e+00 -2.936825e-01 6.092912e+00 3.496790e+00 7.406852e-01 1.518530e+00 3.148393e+00 1.799620e+00 -6.959842e-01 -1.591685e-01 -9.499538e-03 -4.978322e-01 4.249587e-01 2.818715e-01 9.397128e-02 -1.666714e-02 -9.343280e-02 -7.286330e-02 3.925682e-01 2.446194e-01 -2.553646e-02 4.805488e-02 -4.517166e-01 3.632624e-02 -9.610349e-03 5.026328e-02 -1.293929e-02 -1.536822e-01 -2.077147e-01 -1.326659e-01 -1.784327e-01 -1.510191e-01 -2.257503e-01 9.491896e-03
<VARIANCE> 39
 3.997980e+01 3.929137e+01 3.147570e+01 2.513389e+01 5.615578e+01 5.040110e+01 3.112717e+01 3.402160e+01 3.206213e+01 3.265976e+01 3.936007e+01 2.524087e+01 2.362108e+01 1.841794e+00 4.324206e+00 2.395337e+00 2.745947e+00 3.191520e+00 2.978817e+00 2.521266e+00 2.921261e+00 2.714994e+00 2.744955e+00 2.497298e+00 2.165523e+00 1.835031e+00 2.769673e-01 5.938156e-01 4.340735e-01 4.865089e-01 6.174270e-01 5.676668e-01 4.966836e-01 6.099833e-01 5.165399e-01 4.579249e-01 5.702497e-01 4.426957e-01 3.391542e-01
<GCONST> 1.206492e+02
<STATE> 3
<NUMMIXES> 2
<MIXTURE> 1 6.997567e-01
<MEAN> 39
 -6.557280e-01 -2.585708e+00 7.992428e+00 2.781747e+00 2.302158e+00 3.557004e-01 -3.143797e+00 2.807259e+00 -7.071701e-01 -4.531600e+00 -4.710106e-02 1.651775e+00 -1.134025e+00 -1.124004e+00 -2.646086e+00 -7.634653e-01 -2.609978e+00 -1.429362e+00 -1.284261e+00 -1.248006e+00 -1.504674e+00 -7.564409e-01 -3.428287e-01 7.932848e-01 -1.083330e+00 4.278122e-01 6.977551e-01 3.699224e-01 -9.084944e-01 -3.581511e-01 -4.782998e-01 -4.744649e-01 -2.485944e-02 -3.491487e-01 2.035269e-01 3.665833e-01 -2.223792e-01 -5.128391e-01 1.260349e-01
<VARIANCE> 39
 2.683989e+01 3.781181e+01 4.954589e+01 5.257263e+01 4.759373e+01 4.638573e+01 4.592682e+01 4.641136e+01 4.379078e+01 3.715101e+01 3.323648e+01 2.800389e+01 2.202976e+01 7.958040e+00 4.016510e+00 5.327140e+00 5.952608e+00 7.295312e+00 5.960377e+00 4.851516e+00 6.893724e+00 7.700392e+00 4.588248e+00 1.001771e+01 4.623960e+00 3.082412e+00 4.900059e-01 8.122512e-01 6.995316e-01 1.081105e+00 1.070756e+00 1.313117e+00 9.543978e-01 1.032244e+00 9.346443e-01 7.641089e-01 1.006418e+00 6.322233e-01 5.709850e-01
<GCONST> 1.396575e+02
<MIXTURE> 2 3.002433e-01
<MEAN> 39
 2.554978e-01 -1.646047e+00 8.029101e+00 -4.556119e+00 -7.967904e+00 -1.265263e+01 -5.208920e+00 1.618064e+00 -6.171962e+00 -4.424842e+00 4.501925e+00 -1.654090e+00 2.589694e+00 -1.822316e+00 -1.386239e+00 -1.589322e+00 -2.476506e+00 -3.277005e+00 -2.799422e+00 -5.924035e-01 -6.293637e-01 -1.809347e+00 7.453302e-01 2.242096e+00 -1.256842e+00 1.101360e+00 9.828360e-01 9.164162e-01 -2.311624e-01 1.188476e+00 5.124390e-01 7.318264e-01 1.962446e-01 1.458237e-01 6.098267e-01 3.372549e-01 -9.914439e-01 -3.850263e-01 -2.407858e-01
<VARIANCE> 39
 6.517103e+00 1.295955e+01 3.177186e+01 1.733386e+01 3.437126e+01 2.250121e+01 2.858713e+01 2.504794e+01 5.648275e+01 2.742157e+01 3.436319e+01 2.260065e+01 2.073841e+01 3.382338e+00 4.192310e+00 3.628127e+00 3.916276e+00 4.626598e+00 4.456087e+00 3.430588e+00 3.627026e+00 7.080969e+00 3.468983e+00 5.160603e+00 3.106987e+00 3.145523e+00 2.345301e-01 2.603463e-01 4.267260e-01 3.782161e-01 6.948931e-01 7.462381e-01 4.812105e-01 6.692950e-01 6.773705e-01 6.830576e-01 5.628295e-01 4.688926e-01 3.839401e-01
<GCONST> 1.211867e+02
<STATE> 4
<NUMMIXES> 2
<MIXTURE> 1 6.201057e-01
<MEAN> 39
 3.129426e+00 -8.343810e-01 2.253465e+00 -9.247693e-01 -4.349003e+00 -6.268209e+00 -8.971582e+00 -3.612280e+00 -9.614126e-01 -1.145784e+00 2.606140e+00 -5.125438e+00 2.833056e+00 3.795385e-01 1.122768e+00 -6.051934e-01 -4.933249e-01 -2.309784e-01 6.400090e-01 -5.013332e-03 -1.337946e+00 -3.474105e-01 5.195200e-01 5.755913e-01 -8.665758e-01 1.807140e-01 2.914146e-01 5.348423e-01 4.022092e-01 4.258273e-01 4.763889e-01 5.419032e-01 6.058364e-01 4.875134e-01 7.442288e-02 -1.562551e-01 -5.015571e-01 3.875425e-01 -2.662543e-01
<VARIANCE> 39
 2.145898e+01 2.934586e+01 5.750877e+01 4.700090e+01 7.333464e+01 6.180843e+01 5.728503e+01 6.964091e+01 7.790319e+01 4.156290e+01 5.883903e+01 2.835453e+01 3.138144e+01 2.287910e+00 3.187417e+00 3.556245e+00 8.124488e+00 6.044423e+00 5.821507e+00 4.741319e+00 6.860166e+00 4.103010e+00 3.725948e+00 5.204713e+00 3.539277e+00 3.537249e+00 5.187056e-01 5.580440e-01 5.850005e-01 1.043541e+00 9.947754e-01 8.673775e-01 9.189627e-01 1.034657e+00 1.018731e+00 8.046521e-01 9.001935e-01 5.983309e-01 5.858862e-01
<GCONST> 1.376973e+02
<MIXTURE> 2 3.798943e-01
<MEAN> 39
 3.685796e+00 -8.464564e+00 -6.186100e+00 -8.525218e+00 1.094393e+00 -6.143891e+00 -1.846599e+00 2.051870e+00 7.082905e+00 -7.639130e-01 -8.255440e+00 -7.458247e+00 7.445025e-01 5.096784e-01 -2.147680e+00 -3.379079e+00 -1.082447e+00 5.211489e-01 8.018522e-01 1.501382e+00 -8.848290e-01 6.323910e-01 1.063571e+00 -2.596104e+00 -9.938206e-01 -1.338127e+00 -1.991069e-01 6.455407e-01 6.372607e-01 1.148565e+00 3.724714e-01 1.004979e+00 4.323238e-01 -1.356328e-01 -6.223748e-01 1.034513e-02 3.726157e-01 1.152547e+00 -4.937567e-01
<VARIANCE> 39
 6.833253e+00 1.682340e+01 2.400577e+01 1.781504e+01 3.047462e+01 2.692915e+01 2.839250e+01 1.970263e+01 1.782021e+01 2.214920e+01 2.516619e+01 1.936226e+01 1.871786e+01 2.570573e+00 2.228987e+00 3.349875e+00 3.728236e+00 3.335213e+00 4.884330e+00 3.561545e+00 3.179892e+00 4.221769e+00 2.829337e+00 3.250962e+00 5.099348e+00 2.592463e+00 5.598683e-01 4.080776e-01 6.055104e-01 4.493938e-01 6.274397e-01 5.512088e-01 6.635453e-01 6.303422e-01 4.857581e-01 5.663028e-01 6.749898e-01 5.519541e-01 4.340199e-01
<GCONST> 1.185186e+02
<TRANSP> 5
 0.000000e+00 1.000000e+00 0.000000e+00 0.000000e+00 0.000000e+00
 0.000000e+00 8.016444e-01 1.983556e-01 0.000000e+00 0.000000e+00
 0.000000e+00 0.000000e+00 5.688131e-01 4.311869e-01 0.000000e+00
 0.000000e+00 0.000000e+00 0.000000e+00 5.511287e-01 4.488713e-01
 0.000000e+00 0.000000e+00 0.000000e+00 0.000000e+00 0.000000e+00
<ENDHMM>
~o
<STREAMINFO> 1 39
<VECSIZE> 39<NULLD><MFCC_D_A_Z><DIAGC>
~h "dxq"
<BEGINHMM>
<NUMSTATES> 5
<STATE> 2
<NUMMIXES> 2
<MIXTURE> 1 3.553682e-01
<MEAN> 39
 1.227017e+01 -6.656420e+00 -9.564839e+00 1.155165e+01 -4.150531e+00 4.075032e+00 -1.118433e+01 -1.175082e+01 5.827405e+00 -3.257880e+00 7.233431e+00 -3.422453e+00 3.832112e-01 -1.054878e+00 2.485296e-01 2.066073e+00 7.737876e-01 2.619037e+00 -9.481873e-01 -2.497607e+00 1.773276e+00 7.075797e-01 1.366759e+00 -3.723805e+00 -6.924335e-01 7.686207e-01 -5.874062e-01 4.780277e-01 8.808398e-01 -1.966776e+00 -6.623691e-01 1.448483e-03 1.149982e+00 7.274798e-01 -7.822013e-01 1.063345e-03 2.305551e-01 1.759728e-01 -1.035508e-01
<VARIANCE> 39
 8.400819e+00 1.484630e+01 3.803402e+01 3.365758e+01 6.620896e+01 3.874069e+01 5.748410e+01 6.966451e+01 4.225192e+01 4.578121e+01 7.591486e+01 3.502608e+01 3.163912e+01 1.435633e+00 1.320199e+00 6.222390e+00 1.101505e+01 5.893550e+00 4.823983e+00 6.795108e+00 9.777340e+00 5.631880e+00 4.025771e+00 6.798056e+00 4.536356e+00 3.364527e+00 1.675001e-01 2.391226e-01 7.213274e-01 9.790731e-01 1.888145e+00 7.978172e-01 1.477090e+00 1.342087e+00 8.970069e-01 8.849573e-01 2.403906e+00 8.885683e-01 8.832391e-01
<GCONST> 1.368168e+02
<MIXTURE> 2 6.446319e-01
<MEAN> 39
 7.170865e+00 -1.134105e+01 2.214617e+00 5.941183e+00 -1.032339e+01 -4.217339e+00 -9.151384e+00 2.167841e+00 1.596183e+00 1.822182e+00 4.871593e-01 -4.585658e+00 2.509279e+00 -4.898306e-02 1.374564e+00 1.468231e+00 7.725809e-01 1.439564e+00 -7.625926e-01 -6.800988e-02 -2.350083e-01 -1.291498e+00 -9.671590e-01 4.865516e-02 4.446965e-01 2.464357e-01 -4.210791e-01 4.125612e-01 -1.899317e-01 -9.971644e-01 8.083615e-01 8.210353e-02 5.579401e-01 1.982090e-01 -1.015545e-01 -7.760455e-02 -2.606115e-01 2.755397e-01 -4.679020e-01
<VARIANCE> 39
 7.859811e+00 1.552305e+01 5.287411e+01 2.580849e+01 2.974684e+01 4.920728e+01 3.452784e+01 4.437414e+01 5.811462e+01 7.175819e+01 4.294501e+01 3.022013e+01 3.161861e+01 7.213676e-01 2.023681e+00 3.263818e+00 3.078407e+00 3.429516e+00 3.988834e+00 3.920115e+00 4.029687e+00 4.128217e+00 4.375034e+00 5.641219e+00 2.991447e+00 2.999494e+00 1.252858e-01 3.010322e-01 4.913880e-01 8.111017e-01 7.869135e-01 5.641078e-01 6.180124e-01 8.968964e-01 8.150249e-01 8.514912e-01 7.425066e-01 5.372502e-01 5.507677e-01
<GCONST> 1.246799e+02
<STATE> 3
<NUMMIXES> 2
<MIXTURE> 1 5.621464e-01
<MEAN> 39
 5.448129e+00 -5.015128e+00 9.037729e+00 7.132525e+00 -3.552078e+00 -3.677782e+00 -5.965143e+00 3.190358e+00 -1.621171e+00 -4.370595e+00 -1.655681e+00 -1.042851e+00 2.525666e-01 -1.584662e+00 1.840610e+00 1.395946e+00 -2.621240e+00 1.637809e-01 -1.719636e+00 1.122799e+00 3.712240e-01 -1.989691e+00 2.987602e-01 5.168824e-01 7.999508e-01 -2.215720e-01 -2.754725e-01 9.831455e-03 -7.710038e-01 -9.490393e-01 -7.824131e-01 -2.264329e-01 9.856867e-04 -2.671871e-01 -6.431234e-02 6.490486e-01 6.635202e-01 -3.482058e-01 1.522465e-01
<VARIANCE> 39
 1.133574e+01 1.435877e+01 2.604844e+01 3.514724e+01 3.137397e+01 3.538033e+01 3.227298e+01 3.367109e+01 4.160999e+01 3.237523e+01 3.088524e+01 2.613837e+01 2.914401e+01 1.415018e+00 1.326778e+00 5.113071e+00 3.441238e+00 6.947328e+00 5.056785e+00 3.829520e+00 6.684965e+00 6.774520e+00 4.175529e+00 4.687258e+00 3.226155e+00 4.074129e+00 2.685775e-01 3.158120e-01 4.626046e-01 7.024779e-01 7.202294e-01 8.242212e-01 8.947727e-01 1.055000e+00 8.959696e-01 7.171914e-01 8.993354e-01 5.933226e-01 8.460351e-01
<GCONST> 1.272182e+02
<MIXTURE> 2 4.378537e-01
<MEAN> 39
 6.381648e+00 -7.224868e+00 -5.928990e-01 1.214907e+00 -1.294633e+00 2.355529e-01 -1.092628e+01 -2.214147e-01 2.634779e+00 1.202845e+00 7.118300e-01 -4.839385e+00 -1.143137e+00 -1.225157e+00 5.745038e-01 -4.056525e-01 -4.240596e+00 2.523994e+00 -7.334558e-01 9.766940e-01 2.253884e+00 3.131368e-01 2.060183e-01 -1.772801e+00 -3.903622e-01 -1.304587e-01 2.197802e-02 -2.250945e-01 -9.701700e-01 -2.613569e-01 -1.065612e-01 1.535734e-01 1.121547e+00 -2.475253e-01 3.284501e-01 1.081508e-01 -4.214221e-01 8.126473e-02 -1.707218e-01
<VARIANCE> 39
 6.922098e+00 1.336837e+01 2.918421e+01 5.181268e+01 2.467641e+01 3.420323e+01 3.068489e+01 5.650566e+01 4.168695e+01 4.187074e+01 3.667226e+01 2.437900e+01 2.682587e+01 8.763090e-01 1.750104e+00 4.667793e+00 3.377647e+00 5.344387e+00 3.558578e+00 5.106036e+00 4.520933e+00 3.932757e+00 4.345987e+00 7.138037e+00 3.412357e+00 3.492590e+00 1.705004e-01 3.526978e-01 4.058463e-01 1.266776e+00 5.377777e-01 4.960921e-01 5.599160e-01 1.102332e+00 8.399785e-01 9.210836e-01 1.442707e+00 6.355393e-01 5.126999e-01
<GCONST> 1.255327e+02
<STATE> 4
<NUMMIXES> 2
<MIXTURE> 1 5.339845e-01
<MEAN> 39
 4.587247e+00 -4.950346e+00 -5.857972e+00 -5.274370e+00 3.074059e+00 -2.200320e+00 -5.194957e+00 6.925742e-01 4.802117e+00 3.408323e+00 -4.018631e+00 -6.163885e+00 -7.991096e-02 -1.995217e-01 9.473256e-01 -9.313650e-01 -4.349092e-01 1.242387e+00 2.850754e-01 1.842990e+00 -1.454456e-01 1.511315e-01 1.142763e-01 -1.150301e+00 3.034256e-01 -3.326164e-01 2.640186e-01 1.664241e-02 2.864323e-01 1.086029e+00 -4.981814e-01 3.180423e-01 -3.436301e-03 -4.534912e-01 -2.007923e-01 -2.471262e-01 2.333468e-01 3.136993e-01 -1.829842e-01
<VARIANCE> 39
 1.118770e+01 4.933469e+01 3.804102e+01 3.570071e+01 4.032092e+01 5.511258e+01 5.261543e+01 6.294905e+01 3.998923e+01 3.558005e+01 7.225368e+01 3.206658e+01 3.626254e+01 1.538187e+00 3.317204e+00 4.565156e+00 6.268320e+00 3.315424e+00 3.355607e+00 4.187483e+00 4.957748e+00 4.070183e+00 3.546917e+00 5.814280e+00 3.645025e+00 3.130879e+00 2.439276e-01 2.816645e-01 5.100437e-01 8.949856e-01 7.224723e-01 6.133330e-01 7.547308e-01 9.216859e-01 6.829956e-01 5.567557e-01 7.913901e-01 5.172250e-01 5.358851e-01
<GCONST> 1.297830e+02
<MIXTURE> 2 4.660154e-01
<MEAN> 39
 7.004882e-01 -1.583714e+00 8.416124e+00 -1.633399e+00 -9.076208e+00 -1.207392e+01 -4.641433e+00 3.069795e+00 -8.434783e+00 5.973285e-02 3.984113e+00 -1.558348e+00 2.688267e+00 -1.243986e+00 1.634863e+00 -5.796055e-02 -1.369913e+00 -1.081993e+00 -8.541495e-01 5.940400e-01 -5.407082e-01 -1.626289e+00 7.319283e-01 1.060281e+00 -4.902201e-01 7.370973e-02 3.938630e-01 -1.386728e-01 -2.860889e-01 7.079775e-01 1.756342e-01 7.780488e-01 -2.074212e-01 -2.391712e-01 6.127107e-01 -1.123567e-01 -3.473274e-01 -2.792490e-01 -6.210534e-02
<VARIANCE> 39
 8.910028e+00 2.303124e+01 3.411185e+01 2.818527e+01 4.056744e+01 3.235886e+01 3.011114e+01 5.312873e+01 6.572067e+01 3.237785e+01 3.799420e+01 3.106400e+01 3.161707e+01 1.286520e+00 1.444730e+00 2.301214e+00 3.942756e+00 3.580856e+00 4.677636e+00 3.343982e+00 4.380885e+00 5.358007e+00 3.345564e+00 3.490995e+00 2.724758e+00 3.960514e+00 1.703201e-01 1.800128e-01 5.021988e-01 5.331637e-01 7.380514e-01 5.902745e-01 5.023040e-01 7.514700e-01 7.126761e-01 5.967815e-01 7.201561e-01 5.322957e-01 6.166869e-01
<GCONST> 1.225555e+02
<TRANSP> 5
 0.000000e+00 1.000000e+00 0.000000e+00 0.000000e+00 0.000000e+00
 0.000000e+00 5.264082e-01 4.735918e-01 0.000000e+00 0.000000e+00
 0.000000e+00 0.000000e+00 4.598761e-01 5.401239e-01 0.000000e+00
 0.000000e+00 0.000000e+00 0.000000e+00 6.498215e-01 3.501785e-01
 0.000000e+00 0.000000e+00 0.000000e+00 0.000000e+00 0.000000e+00
<ENDHMM>
~o
<STREAMINFO> 1 39
<VECSIZE> 39<NULLD><MFCC_D_A_Z><DIAGC>
~h "ee"
<BEGINHMM>
<NUMSTATES> 5
<STATE> 2
<NUMMIXES> 2
<MIXTURE> 1 6.624535e-01
<MEAN> 39
 -1.632784e+00 -9.466143e-01 1.080309e+01 -9.588678e-01 -1.296730e+01 -1.069648e+01 -4.658246e-01 2.757079e+00 -5.891324e+00 3.346752e+00 7.992506e+00 2.041271e+00 -4.074728e-01 1.017985e-01 -2.452024e-03 -1.740322e-01 1.613858e-01 -3.276158e-01 -1.192388e-02 2.145582e-01 -6.170122e-02 8.162314e-02 1.726260e-01 -2.587587e-02 4.380427e-02 -5.064917e-06 1.348857e-01 4.631212e-02 -1.413225e-01 1.901541e-01 2.366227e-01 9.261693e-03 -2.589097e-02 9.380476e-03 6.448239e-02 -1.124135e-01 -1.964992e-01 2.994667e-03 1.434394e-01
<VARIANCE> 39
 5.334522e+00 9.350414e+00 1.444698e+01 1.431688e+01 1.496249e+01 1.861597e+01 1.872034e+01 2.172950e+01 2.310331e+01 1.626685e+01 1.939714e+01 2.077995e+01 1.700176e+01 2.192446e-01 4.819228e-01 6.178606e-01 6.905742e-01 8.437890e-01 8.466340e-01 8.317195e-01 1.053210e+00 1.061824e+00 8.526648e-01 9.394727e-01 8.555921e-01 6.669525e-01 4.453207e-02 8.801944e-02 1.029150e-01 1.273181e-01 1.660828e-01 1.672375e-01 1.944359e-01 1.721414e-01 1.832533e-01 1.585307e-01 1.748325e-01 1.444277e-01 1.396974e-01
<GCONST> 7.698406e+01
<MIXTURE> 2 3.375465e-01
<MEAN> 39
 -1.028121e+00 -1.314103e+00 7.875324e+00 -2.010905e+00 -1.089486e+01 -1.287108e+01 -1.856413e+00 3.138970e+00 -5.339311e+00 -4.471377e-01 5.299919e+00 7.901497e-01 -1.273666e-01 -5.528346e-01 -4.384988e-01 3.063346e-01 -1.012751e+00 -1.372242e+00 -3.305983e-01 5.550436e-01 3.704467e-01 -1.255065e-01 6.170512e-01 7.646790e-01 -4.006805e-02 -8.374912e-01 3.925259e-02 2.024426e-01 -2.488344e-01 4.035394e-01 7.930660e-01 6.998747e-01 -7.598592e-02 -1.214125e-01 2.079114e-01 5.171799e-02 -3.366396e-01 -8.557193e-02 1.193368e-01
<VARIANCE> 39
 6.914231e+00 1.310088e+01 2.540856e+01 2.421219e+01 2.096309e+01 2.510160e+01 2.154616e+01 2.503049e+01 3.068509e+01 2.347138e+01 2.797637e+01 2.534048e+01 2.124400e+01 5.853760e-01 1.205773e+00 1.550663e+00 1.519348e+00 2.001847e+00 2.123710e+00 2.155978e+00 1.944591e+00 2.229973e+00 1.676198e+00 1.760782e+00 1.481693e+00 1.249313e+00 2.826834e-01 2.537914e-01 2.894526e-01 3.693703e-01 3.635516e-01 5.996979e-01 4.711680e-01 6.918836e-01 3.865597e-01 3.604926e-01 3.956503e-01 3.823368e-01 4.241024e-01
<GCONST> 1.050183e+02
<STATE> 3
<NUMMIXES> 2
<MIXTURE> 1 4.060042e-01
<MEAN> 39
 2.248769e-01 3.291375e+00 7.439444e+00 6.736054e+00 -1.450441e+01 -8.157835e+00 4.322460e+00 -3.268987e-01 -4.064793e+00 4.602166e+00 4.798285e+00 4.373161e+00 2.056735e-01 -1.952437e-01 2.006951e-01 -5.151737e-01 5.967170e-01 4.668506e-01 5.416958e-01 5.157382e-01 2.085353e-01 5.368276e-01 -2.408976e-01 -4.852916e-01 1.841129e-01 3.725590e-02 -9.156546e-02 -1.529146e-01 -3.431401e-03 -2.002002e-01 2.986050e-01 1.005694e-01 -1.055723e-01 1.824726e-01 7.007392e-02 -1.059759e-01 -1.028169e-04 -4.335612e-02 5.549584e-02
<VARIANCE> 39
 1.037927e+01 1.513842e+01 1.727526e+01 2.368265e+01 2.979084e+01 3.483616e+01 3.278975e+01 2.788697e+01 2.902636e+01 2.386556e+01 3.523919e+01 2.320142e+01 2.424536e+01 8.389135e-01 1.712166e+00 1.069996e+00 1.834858e+00 2.198570e+00 1.858440e+00 1.856415e+00 1.941264e+00 1.646400e+00 1.690895e+00 1.936225e+00 1.325107e+00 1.250977e+00 1.607164e-01 2.499581e-01 1.880663e-01 2.939480e-01 3.886947e-01 3.199106e-01 3.401081e-01 3.039022e-01 3.040966e-01 3.147767e-01 3.587567e-01 2.474507e-01 2.268983e-01
<GCONST> 1.021476e+02
<MIXTURE> 2 5.939959e-01
<MEAN> 39
 -8.816860e-01 -2.598137e+00 5.424932e+00 -2.891910e+00 -1.127725e+01 -1.363518e+01 -9.071146e-01 4.875961e+00 -4.597955e+00 -3.104319e-01 3.634128e+00 -4.469618e-01 -7.380439e-01 6.990759e-01 4.179689e-02 -5.918479e-01 9.840736e-01 1.224251e+00 3.531692e-01 -3.129557e-01 1.883870e-02 5.696382e-01 -4.408922e-02 -8.481195e-01 -9.246523e-02 8.044977e-01 2.733686e-01 3.723194e-01 4.159101e-02 4.436883e-01 6.052878e-01 4.628016e-01 -1.818718e-01 -2.536123e-01 7.301699e-02 5.420188e-03 -2.057523e-01 -7.422474e-02 2.281884e-01
<VARIANCE> 39
 7.338601e+00 1.238722e+01 3.008956e+01 2.057767e+01 2.196909e+01 2.259215e+01 2.539810e+01 2.265081e+01 3.727299e+01 2.710911e+01 3.352200e+01 2.578557e+01 2.126219e+01 6.543570e-01 1.205561e+00 2.006180e+00 1.664679e+00 2.438974e+00 2.165995e+00 2.637548e+00 2.344146e+00 3.403696e+00 2.020330e+00 2.543610e+00 1.841969e+00 2.038323e+00 1.128364e-01 2.210450e-01 2.645890e-01 2.531871e-01 3.928809e-01 3.543270e-01 4.218747e-01 5.153543e-01 4.817367e-01 3.629015e-01 3.810517e-01 3.191126e-01 3.606319e-01
<GCONST> 1.057912e+02
<STATE> 4
<NUMMIXES> 2
<MIXTURE> 1 4.332752e-01
<MEAN> 39
 -3.629003e+00 -2.926661e+00 2.945194e-01 4.751789e+00 1.164313e+00 2.882037e+00 5.836977e+00 6.288079e+00 3.310302e+00 -1.536400e+00 5.258918e-01 5.870692e+00 2.339843e+00 -1.863230e-01 -2.788444e-01 -5.111073e-01 -2.187426e-01 1.054498e+00 5.395033e-01 -2.298900e-01 1.280076e-01 3.151951e-01 -2.311677e-01 -2.381170e-01 -5.348618e-02 1.952243e-01 3.303536e-02 6.656892e-02 4.456594e-02 -1.501531e-02 -9.605921e-02 -1.192837e-01 -1.035893e-01 -1.406041e-01 -1.175432e-01 5.953113e-02 3.282152e-02 -8.399626e-02 -4.255084e-02
<VARIANCE> 39
 1.985616e+01 4.313066e+01 2.603777e+01 2.069032e+01 5.267727e+01 3.561731e+01 3.921669e+01 2.724875e+01 3.194990e+01 4.072520e+01 3.674921e+01 2.219392e+01 2.220855e+01 1.288922e+00 3.108356e+00 1.694593e+00 1.750623e+00 3.625954e+00 2.797977e+00 2.863336e+00 2.627091e+00 2.428301e+00 2.826446e+00 2.933150e+00 1.900165e+00 1.568802e+00 2.189485e-01 5.478148e-01 2.907769e-01 3.265302e-01 5.047033e-01 4.352389e-01 5.557781e-01 4.739122e-01 4.627674e-01 4.899594e-01 5.559346e-01 3.493621e-01 2.995345e-01
<GCONST> 1.154573e+02
<MIXTURE> 2 5.667249e-01
<MEAN> 39
 3.136662e+00 1.059923e+00 4.640864e+00 3.526678e+00 -3.915916e+00 -8.901116e+00 -2.515192e+00 3.326375e+00 -1.928102e+00 4.283160e-01 1.487381e+00 -9.421185e-01 2.642412e+00 8.891685e-01 1.533873e+00 -5.342724e-02 8.062615e-01 1.965677e+00 1.478944e+00 -1.158089e-01 -3.565941e-01 4.111871e-01 8.772969e-02 -4.124637e-01 -3.327891e-01 1.019261e-01 -3.114255e-01 5.555016e-02 5.763328e-02 -3.667180e-01 -3.145167e-01 4.030187e-02 2.074492e-01 -1.249591e-02 -1.305417e-01 3.276327e-02 2.675984e-01 1.853683e-01 -2.971342e-01
<VARIANCE> 39
 1.669981e+01 3.084938e+01 4.753102e+01 2.891298e+01 4.497582e+01 4.300608e+01 4.519026e+01 5.081758e+01 5.484126e+01 3.515569e+01 4.260440e+01 3.142352e+01 3.177316e+01 2.118361e+00 2.464325e+00 2.839891e+00 3.641459e+00 4.934794e+00 4.219598e+00 3.627625e+00 6.058149e+00 4.099216e+00 3.142639e+00 3.421649e+00 2.467638e+00 2.880543e+00 3.125348e-01 5.064530e-01 4.416753e-01 4.632931e-01 7.617421e-01 7.269779e-01 6.327879e-01 7.801137e-01 7.711582e-01 5.992097e-01 5.761825e-01 4.580682e-01 4.853292e-01
<GCONST> 1.269844e+02
<TRANSP> 5
 0.000000e+00 1.000000e+00 0.000000e+00 0.000000e+00 0.000000e+00
 0.000000e+00 8.197712e-01 1.802289e-01 0.000000e+00 0.000000e+00
 0.000000e+00 0.000000e+00 7.679836e-01 2.320165e-01 0.000000e+00
 0.000000e+00 0.000000e+00 0.000000e+00 7.853549e-01 2.146451e-01
 0.000000e+00 0.000000e+00 0.000000e+00 0.000000e+00 0.000000e+00
<ENDHMM>
~o
<STREAMINFO> 1 39
<VECSIZE> 39<NULLD><MFCC_D_A_Z><DIAGC>
~h "ei"
<BEGINHMM>
<NUMSTATES> 5
<STATE> 2
<NUMMIXES> 2
<MIXTURE> 1 5.606441e-01
<MEAN> 39
 2.495103e+00 -6.403567e+00 -1.536014e-01 1.548041e+00 -3.525290e+00 -3.552460e+00 9.573533e+00 8.388590e+00 8.452885e+00 -3.693912e+00 -6.153722e+00 5.888483e+00 -6.082969e+00 -1.179274e-01 -1.440845e+00 6.276337e-01 -1.204343e+00 -1.658303e+00 -4.741343e-01 -1.086924e+00 3.627045e-01 1.082011e+00 -1.067055e+00 -2.858967e-01 -6.646437e-02 -1.334289e+00 -3.538099e-01 1.315720e-01 2.139948e-01 3.177227e-02 3.021707e-01 3.748995e-01 6.355962e-02 2.467328e-02 -3.555753e-02 7.702871e-02 2.423237e-01 1.629900e-01 3.508970e-01
<VARIANCE> 39
 3.199396e+00 1.468616e+01 1.387938e+01 1.031820e+01 1.543689e+01 1.465405e+01 1.589464e+01 1.271010e+01 1.495929e+01 1.456013e+01 1.699374e+01 9.807260e+00 1.186765e+01 5.155291e-01 1.073076e+00 1.405096e+00 9.525390e-01 1.229970e+00 1.510904e+00 1.266097e+00 1.079199e+00 1.185421e+00 1.240741e+00 1.525978e+00 1.058509e+00 1.012646e+00 7.812183e-02 2.841783e-01 2.939675e-01 1.892606e-01 1.898077e-01 2.338018e-01 2.935675e-01 2.104144e-01 2.370894e-01 2.373433e-01 2.100731e-01 1.651742e-01 1.791403e-01
<GCONST> 8.514969e+01
<MIXTURE> 2 4.393559e-01
<MEAN> 39
 1.482826e+00 -9.605834e+00 1.449034e-01 -1.226101e+00 -5.107095e+00 -2.707424e+00 2.806322e+00 7.945257e+00 8.381117e+00 -5.609670e+00 -8.136431e+00 3.739875e+00 -6.945384e+00 -1.112492e+00 -1.466042e+00 -4.640649e-01 -1.399291e+00 -7.810578e-01 7.889861e-01 2.047429e+00 2.310310e+00 3.332050e-01 -1.748087e+00 -1.899225e+00 1.147002e+00 -6.311327e-02 1.476094e-01 9.163994e-01 4.893755e-01 6.875660e-01 5.373442e-01 -1.336443e-01 -5.856057e-01 -1.159772e+00 -8.835226e-01 3.840949e-01 8.549791e-01 -2.616494e-01 9.652956e-02
<VARIANCE> 39
 7.467729e+00 1.044179e+01 1.534576e+01 1.593052e+01 1.574347e+01 2.701693e+01 2.395383e+01 2.427461e+01 2.312418e+01 3.296862e+01 2.486586e+01 1.584817e+01 1.482246e+01 7.817766e-01 2.432682e+00 2.217991e+00 2.810344e+00 2.472264e+00 2.156915e+00 2.702367e+00 7.168554e+00 3.721154e+00 2.366495e+00 4.541138e+00 1.632258e+00 2.463351e+00 1.740465e-01 2.068786e-01 2.627482e-01 2.765484e-01 3.026234e-01 6.231372e-01 5.976023e-01 7.578347e-01 4.734699e-01 4.765793e-01 5.899587e-01 3.406335e-01 5.029400e-01
<GCONST> 1.092636e+02
<STATE> 3
<NUMMIXES> 2
<MIXTURE> 1 4.285494e-01
<MEAN> 39
 2.468225e+00 -3.048600e+00 -2.356085e+00 3.439408e+00 -6.756178e+00 -7.631352e+00 1.286727e+01 6.971793e+00 1.008878e+01 -3.294716e+00 -4.706209e+00 5.735497e+00 -5.509326e+00 1.024682e-04 5.580776e-01 -2.181094e-01 7.334613e-01 1.009538e-01 -1.826353e-01 5.207161e-01 -1.518264e-01 2.542292e-02 2.660573e-02 3.457845e-02 -2.731264e-01 2.700275e-01 -1.229854e-01 -1.218262e-01 1.349171e-01 3.346980e-03 2.538788e-02 1.886450e-01 -1.553195e-01 7.529734e-02 6.028286e-03 -8.909240e-02 1.900513e-02 -8.305409e-02 3.203315e-02
<VARIANCE> 39
 4.766443e+00 1.736357e+01 1.292453e+01 1.302806e+01 1.963835e+01 1.618436e+01 2.034195e+01 1.831354e+01 2.201004e+01 1.994731e+01 2.305881e+01 1.437415e+01 1.191381e+01 4.747558e-01 1.342218e+00 9.298789e-01 9.821469e-01 1.045859e+00 1.308375e+00 1.393599e+00 1.320895e+00 1.164068e+00 1.251713e+00 1.269257e+00 9.886691e-01 7.453519e-01 6.433647e-02 2.069831e-01 1.564212e-01 1.706075e-01 1.914733e-01 1.877033e-01 2.571737e-01 2.573039e-01 2.183993e-01 2.135328e-01 2.376339e-01 1.754285e-01 1.372152e-01
<GCONST> 8.574620e+01
<MIXTURE> 2 5.714505e-01
<MEAN> 39
 1.092084e-01 -9.837797e+00 9.288742e-01 -2.129836e+00 -6.210771e+00 -2.432173e+00 6.410645e+00 8.985970e+00 8.895403e+00 -7.528488e+00 -7.009820e+00 6.174517e+00 -7.598043e+00 1.874213e-02 9.996562e-02 -1.710077e-01 5.635655e-02 -1.798707e-01 -2.595579e-01 1.267886e-01 -1.102844e-01 -3.079620e-02 9.942757e-02 8.183523e-02 -1.479422e-02 7.853662e-02 1.378721e-01 2.721387e-01 -1.059324e-01 2.198234e-01 9.242505e-02 -1.826315e-01 3.902883e-02 -1.242734e-01 -1.009885e-01 2.354298e-01 6.898410e-02 -1.109367e-01 1.410137e-01
<VARIANCE> 39
 3.993074e+00 1.047592e+01 1.410974e+01 8.748271e+00 1.552376e+01 1.650264e+01 1.633228e+01 1.626223e+01 2.597360e+01 2.037884e+01 2.797396e+01 1.391235e+01 1.097530e+01 2.194284e-01 6.177527e-01 7.494460e-01 7.224758e-01 7.203824e-01 9.892617e-01 9.642247e-01 9.085979e-01 8.961216e-01 8.775235e-01 1.046398e+00 7.639851e-01 6.031781e-01 3.689457e-02 1.212893e-01 1.352295e-01 1.363797e-01 1.375373e-01 1.622565e-01 2.592325e-01 2.043138e-01 1.707264e-01 1.726225e-01 2.005765e-01 1.393120e-01 1.377371e-01
<GCONST> 7.670578e+01
<STATE> 4
<NUMMIXES> 2
<MIXTURE> 1 5.977950e-01
<MEAN> 39
 5.209535e-02 -4.382362e+00 -1.199675e+00 4.760207e+00 -4.607023e+00 -4.123699e+00 8.838493e+00 7.848837e+00 7.682799e+00 -4.509511e+00 -5.128935e+00 3.049721e+00 -2.666514e+00 8.884820e-02 9.387844e-01 3.708413e-01 1.438788e-01 7.730225e-01 1.715630e-01 -9.900258e-01 1.432274e-01 -5.896739e-01 6.396382e-01 5.479682e-01 -7.123291e-01 7.858296e-01 2.097992e-02 3.077294e-01 1.181412e-01 -2.054671e-01 2.888983e-01 1.701747e-01 -2.232873e-01 -6.163298e-02 -1.677414e-01 1.568849e-01 1.661775e-01 -2.775707e-02 4.244526e-02
<VARIANCE> 39
 1.521624e+01 2.996520e+01 3.115667e+01 4.612986e+01 3.650645e+01 4.357660e+01 5.555646e+01 3.872024e+01 4.667080e+01 3.545290e+01 4.166211e+01 3.109873e+01 2.770544e+01 1.085080e+00 2.592485e+00 1.648098e+00 2.871724e+00 2.562613e+00 2.940122e+00 3.265267e+00 4.200855e+00 2.915825e+00 3.014574e+00 2.715716e+00 2.174223e+00 2.129822e+00 2.320050e-01 3.357113e-01 2.804761e-01 5.436447e-01 3.847780e-01 4.674378e-01 5.418335e-01 7.042113e-01 5.135809e-01 5.476441e-01 5.006806e-01 4.025168e-01 3.737671e-01
<GCONST> 1.189812e+02
<MIXTURE> 2 4.022050e-01
<MEAN> 39
 -3.444836e+00 1.585944e+00 4.035722e-02 2.500183e+00 3.366839e+00 1.779964e+00 4.381436e+00 8.508110e+00 4.214774e+00 2.095971e-02 8.554837e-01 1.485202e+00 2.943968e-01 -1.162468e+00 8.773907e-02 4.195540e-02 -4.290747e-01 9.035381e-01 1.038524e+00 -5.966860e-01 -5.675918e-01 -9.027449e-01 2.333290e-01 6.296642e-01 3.953572e-01 3.654826e-01 -1.329364e-01 -3.369217e-01 -1.992251e-01 2.050444e-01 -2.941093e-01 -1.327375e-01 2.962250e-01 -7.442946e-02 1.403173e-01 -2.586263e-01 -1.524360e-01 1.716898e-01 -2.000396e-02
<VARIANCE> 39
 3.805709e+01 2.878246e+01 2.210063e+01 1.990123e+01 2.710246e+01 3.335522e+01 3.596185e+01 5.261973e+01 3.810472e+01 3.190414e+01 2.496656e+01 2.659916e+01 1.915976e+01 3.065834e+00 2.955262e+00 1.945986e+00 2.474792e+00 2.561746e+00 2.646145e+00 3.508442e+00 4.644054e+00 3.459960e+00 3.279074e+00 2.439240e+00 2.269224e+00 1.673701e+00 4.967701e-01 4.427997e-01 3.236067e-01 3.944245e-01 4.111349e-01 4.416062e-01 6.082584e-01 1.002795e+00 6.425169e-01 5.577808e-01 4.293712e-01 4.278192e-01 3.172462e-01
<GCONST> 1.191624e+02
<TRANSP> 5
 0.000000e+00 1.000000e+00 0.000000e+00 0.000000e+00 0.000000e+00
 0.000000e+00 6.441532e-01 3.558469e-01 0.000000e+00 0.000000e+00
 0.000000e+00 0.000000e+00 9.025657e-01 9.743427e-02 0.000000e+00
 0.000000e+00 0.000000e+00 0.000000e+00 8.778304e-01 1.221696e-01
 0.000000e+00 0.000000e+00 0.000000e+00 0.000000e+00 0.000000e+00
<ENDHMM>
~o
<STREAMINFO> 1 39
<VECSIZE> 39<NULLD><MFCC_D_A_Z><DIAGC>
~h "f"
<BEGINHMM>
<NUMSTATES> 5
<STATE> 2
<NUMMIXES> 2
<MIXTURE> 1 3.311964e-01
<MEAN> 39
 8.153140e+00 -1.978130e+00 -1.050548e+01 -4.766968e+00 2.545837e+00 1.029713e+01 7.161616e+00 -4.527572e+00 1.573448e+00 4.674522e+00 2.385457e-01 8.380917e-01 -9.640923e+00 -1.563078e+00 2.509007e+00 2.495262e+00 1.244843e+00 8.633845e-01 7.341154e-02 -3.731723e-01 3.591928e+00 -1.124957e-01 -1.308857e+00 1.283035e+00 -3.806419e-01 1.448336e+00 -1.506280e+00 -2.636271e-01 3.848421e-01 1.427222e-01 8.875001e-02 -4.031118e-01 -5.522552e-01 9.794431e-01 1.441401e-01 -5.139600e-01 -4.390019e-01 -3.693203e-01 6.809511e-01
<VARIANCE> 39
 6.956788e+00 2.276932e+01 2.290604e+01 1.851352e+01 2.413339e+01 2.533052e+01 3.233476e+01 2.826359e+01 2.732031e+01 2.561038e+01 2.931916e+01 2.480277e+01 3.450135e+01 3.908828e+00 1.457551e+00 2.229690e+00 1.544229e+00 2.334677e+00 2.577237e+00 3.130682e+00 4.208951e+00 2.962309e+00 3.150709e+00 3.035481e+00 2.904141e+00 3.692221e+00 1.701983e-01 5.281150e-01 4.475958e-01 3.118892e-01 5.168990e-01 4.733475e-01 4.056258e-01 6.418934e-01 5.593116e-01 4.382584e-01 3.992297e-01 5.044731e-01 5.470531e-01
<GCONST> 1.150288e+02
<MIXTURE> 2 6.688036e-01
<MEAN> 39
 -4.005406e+00 1.941448e+00 -6.509706e-01 5.777999e-01 4.292341e+00 6.951634e+00 1.356377e+00 7.648580e+00 1.830950e+00 -1.495160e+00 4.611394e-01 -1.124698e+00 -2.493410e+00 -4.025352e+00 -4.840389e-01 6.984588e-01 7.696988e-01 -1.489035e-01 -6.632908e-01 -8.773143e-01 2.133383e+00 5.307425e-01 -4.640714e-01 4.041171e-01 3.763293e-01 6.408522e-01 1.593364e-01 -7.851132e-01 -7.311491e-01 -2.983042e-01 -4.065773e-01 -1.916168e-01 -7.051717e-02 -8.371492e-01 2.745494e-02 4.655616e-01 1.415735e-01 3.282382e-01 -2.953324e-02
<VARIANCE> 39
 2.596174e+01 1.661359e+01 2.157971e+01 2.218403e+01 1.813142e+01 2.841313e+01 3.325263e+01 2.705958e+01 2.614246e+01 2.214283e+01 2.051087e+01 2.081562e+01 1.991866e+01 2.045022e+00 2.761395e+00 2.531897e+00 2.112620e+00 2.281871e+00 2.627630e+00 2.415704e+00 4.436746e+00 2.470115e+00 2.952081e+00 2.167982e+00 2.414240e+00 2.491862e+00 5.897380e-01 3.543437e-01 3.276416e-01 3.406526e-01 4.929118e-01 4.641452e-01 4.553527e-01 6.677472e-01 4.536380e-01 4.778068e-01 4.415132e-01 4.333462e-01 4.444006e-01
<GCONST> 1.140797e+02
<STATE> 3
<NUMMIXES> 2
<MIXTURE> 1 6.289846e-01
<MEAN> 39
 -1.262008e+01 -3.265941e+00 -2.885192e+00 2.038758e+00 3.417934e+00 4.705300e+00 -1.283784e+00 7.565094e+00 2.473481e+00 4.877923e-01 4.035390e+00 3.116004e+00 4.045841e-01 -1.001723e+00 -1.239312e+00 -6.114766e-01 -1.619782e-01 1.986053e-01 6.310678e-02 -2.478521e-01 -1.507843e-01 3.839846e-02 2.117401e-01 5.661102e-01 7.745371e-01 6.195142e-01 8.534769e-01 6.347206e-02 9.531086e-02 -9.959973e-02 1.605040e-01 1.314656e-01 1.472435e-01 -2.393812e-01 -8.416149e-02 -1.245349e-01 -1.981557e-01 -1.244237e-01 -4.745247e-02
<VARIANCE> 39
 1.388731e+01 2.096526e+01 1.692849e+01 1.807936e+01 2.112672e+01 2.344859e+01 2.814457e+01 2.844053e+01 2.855376e+01 2.357800e+01 2.133635e+01 2.080251e+01 1.935463e+01 1.802313e+00 1.664239e+00 1.427008e+00 1.452576e+00 1.866783e+00 2.187565e+00 2.167969e+00 2.168675e+00 1.953414e+00 2.021536e+00 1.947405e+00 1.800168e+00 1.524241e+00 3.342679e-01 3.133737e-01 2.807900e-01 3.148585e-01 3.694272e-01 4.382340e-01 3.833969e-01 5.010164e-01 4.171945e-01 4.341384e-01 3.907512e-01 3.403843e-01 3.156829e-01
<GCONST> 1.063359e+02
<MIXTURE> 2 3.710154e-01
<MEAN> 39
 -1.133225e+01 -8.355972e+00 -3.923974e+00 1.037580e+00 5.173586e+00 6.011642e+00 -1.382211e+00 6.810162e+00 2.671712e+00 -2.267480e-01 4.223447e+00 5.107696e+00 2.423875e+00 2.670087e+00 2.226544e-01 3.258562e-01 -2.006625e-02 2.258748e-01 1.375736e-01 4.154004e-01 -8.641248e-01 -1.396575e-01 -6.256387e-01 -8.907963e-01 -6.681852e-01 -5.669107e-01 1.066789e+00 8.945904e-01 2.140481e-01 6.193702e-02 -4.873147e-01 -2.982822e-01 2.589877e-01 -4.578614e-01 -1.690050e-01 2.688724e-02 -2.878865e-01 -4.997502e-01 -6.011758e-01
<VARIANCE> 39
 2.105681e+01 1.225545e+01 1.954030e+01 2.137437e+01 2.326028e+01 3.619911e+01 2.904314e+01 2.483429e+01 2.808689e+01 2.327727e+01 2.357259e+01 1.988566e+01 2.196503e+01 4.418044e+00 2.879113e+00 2.691336e+00 3.082091e+00 2.343124e+00 4.120397e+00 3.240620e+00 3.033460e+00 3.506152e+00 2.817018e+00 2.439927e+00 2.229629e+00 2.720633e+00 5.249717e-01 3.059761e-01 3.772473e-01 3.743105e-01 5.260692e-01 5.589108e-01 6.283637e-01 6.001850e-01 7.209046e-01 6.259606e-01 5.212907e-01 4.633365e-01 5.064675e-01
<GCONST> 1.176186e+02
<STATE> 4
<NUMMIXES> 2
<MIXTURE> 1 6.169159e-01
<MEAN> 39
 -2.682608e-01 -1.504573e+00 1.406075e-01 2.949768e+00 2.864729e+00 3.929307e+00 -2.206664e-01 3.026502e+00 8.743427e-01 -1.909161e+00 6.133940e-01 6.796016e-01 -3.064529e-01 3.150688e+00 1.702243e+00 8.424929e-01 -2.212608e-01 -1.896202e+00 -1.130434e+00 3.721485e-01 -1.865133e+00 -9.896886e-01 2.003885e-02 -1.730366e-01 -7.968332e-01 -8.355042e-01 -6.232214e-01 -1.832700e-01 -1.737880e-01 -2.997952e-01 -3.222688e-01 -1.187813e-01 -5.036586e-02 -5.660660e-02 -1.809797e-02 3.399544e-01 2.886342e-01 1.412975e-01 6.923611e-02
<VARIANCE> 39
 4.445289e+01 3.526570e+01 4.853653e+01 4.908972e+01 6.492787e+01 8.131924e+01 5.060801e+01 4.993805e+01 6.645270e+01 3.613020e+01 3.470826e+01 2.650840e+01 2.497772e+01 6.228013e+00 3.348768e+00 4.532087e+00 3.462294e+00 6.694669e+00 4.473326e+00 6.009050e+00 6.345484e+00 7.547249e+00 4.071890e+00 3.878763e+00 3.218249e+00 4.375469e+00 8.247723e-01 5.116121e-01 5.046251e-01 7.089884e-01 9.504552e-01 8.325217e-01 6.943237e-01 8.090469e-01 9.375341e-01 7.775817e-01 6.572768e-01 5.017667e-01 5.114905e-01
<GCONST> 1.365027e+02
<MIXTURE> 2 3.830841e-01
<MEAN> 39
 7.225614e+00 -5.088590e+00 -1.021847e+01 -3.611809e+00 1.795853e+00 5.788272e+00 6.482502e+00 -4.844097e+00 3.090076e+00 2.582386e+00 -1.382350e+00 -3.675546e-01 -9.888607e+00 7.790775e-01 -8.926181e-01 -5.006879e-01 -4.852444e-01 -7.734923e-01 -9.230333e-01 -9.820320e-02 -7.251188e-01 6.348903e-01 1.008816e+00 -1.469152e+00 -6.611848e-01 -6.131541e-01 -1.233644e+00 -2.159899e-01 5.548034e-01 1.809702e-01 2.782074e-01 1.620957e-02 -8.346958e-01 8.460872e-01 4.018031e-02 -2.558842e-01 5.698640e-02 1.098583e-01 1.120504e+00
<VARIANCE> 39
 9.758293e+00 2.344724e+01 2.396996e+01 2.689128e+01 3.010137e+01 5.206041e+01 3.601585e+01 3.933877e+01 3.649711e+01 3.448288e+01 3.561548e+01 2.852989e+01 3.589827e+01 4.775620e+00 2.030955e+00 2.883261e+00 2.287698e+00 3.403263e+00 3.271907e+00 4.886675e+00 5.126500e+00 3.800400e+00 3.783240e+00 3.458536e+00 3.180142e+00 6.793110e+00 5.537099e-01 5.755156e-01 3.428492e-01 4.381975e-01 5.393460e-01 5.586865e-01 5.902968e-01 7.137316e-01 6.795465e-01 6.357195e-01 6.197533e-01 5.704088e-01 7.119809e-01
<GCONST> 1.252809e+02
<TRANSP> 5
 0.000000e+00 1.000000e+00 0.000000e+00 0.000000e+00 0.000000e+00
 0.000000e+00 7.304637e-01 2.695362e-01 0.000000e+00 0.000000e+00
 0.000000e+00 0.000000e+00 8.543754e-01 1.456246e-01 0.000000e+00
