~o
<STREAMINFO> 1 39
<VECSIZE> 39<NULLD><MFCC_D_A_Z><DIAGC>
~h "a"
<BEGINHMM>
<NUMSTATES> 5
<STATE> 2
<NUMMIXES> 2
<MIXTURE> 1 5.483921e-01
<MEAN> 39
 5.053861e+00 -6.504751e+00 9.760991e-01 -4.414135e+00 -1.366990e+00 -6.362058e-01 -1.107918e+01 3.801751e+00 2.594088e+00 2.463741e+00 5.042689e-01 -5.300682e+00 4.506852e+00 6.185542e-01 2.283663e-01 5.160131e-01 3.091629e-01 2.077192e-01 6.034361e-01 -3.666825e-01 -7.866192e-01 -6.358357e-01 4.896014e-01 -2.074259e-01 -2.582241e-01 6.360543e-03 -4.862100e-01 9.072352e-01 1.298949e-01 7.691794e-01 3.514546e-01 -8.823614e-02 9.948370e-01 -5.641979e-01 -3.381209e-01 -1.106390e-01 -2.566314e-01 4.088455e-01 -3.899342e-01
<VARIANCE> 39
 1.362246e+01 3.429404e+01 5.726892e+01 4.250516e+01 4.548399e+01 7.930563e+01 6.382217e+01 8.890953e+01 5.454139e+01 6.767554e+01 5.097324e+01 4.178725e+01 3.761232e+01 1.927232e+00 3.718414e+00 3.009295e+00 3.968014e+00 3.926302e+00 4.942824e+00 5.079304e+00 6.042587e+00 3.963368e+00 4.153265e+00 3.893582e+00 4.081303e+00 2.751889e+00 5.948587e-01 5.578294e-01 5.936077e-01 5.977057e-01 8.607361e-01 7.417499e-01 1.106024e+00 1.264567e+00 8.311393e-01 1.082242e+00 9.259263e-01 5.905707e-01 5.881955e-01
<GCONST> 1.358858e+02
<MIXTURE> 2 4.516080e-01
<MEAN> 39
 6.495154e-01 -7.730985e+00 1.665078e+00 -6.058315e+00 -6.148435e+00 -1.004341e+01 -2.654181e-01 4.177385e+00 -3.000639e+00 1.032886e+00 -5.379461e+00 3.585280e+00 -4.697773e+00 4.839995e-01 -6.864652e-02 4.644414e-01 1.709137e-01 4.032704e-01 3.294908e-01 -1.394550e-01 -3.088526e-01 -6.884148e-01 -3.057572e-01 -4.874262e-01 -1.840556e-01 -2.029758e-01 -4.955785e-03 9.551089e-01 1.364675e-01 9.490506e-01 4.953379e-01 6.146482e-01 -5.753449e-02 -6.844549e-01 2.560447e-01 -3.837442e-01 5.609903e-01 -4.281491e-01 4.495616e-01
<VARIANCE> 39
 1.144337e+01 2.216417e+01 4.234568e+01 2.725846e+01 6.007145e+01 3.409185e+01 4.968484e+01 4.229692e+01 3.910279e+01 5.876028e+01 4.135680e+01 2.947661e+01 3.524884e+01 1.150931e+00 3.253561e+00 2.800735e+00 4.133305e+00 4.255424e+00 2.895338e+00 3.447024e+00 4.096223e+00 3.516515e+00 4.231060e+00 4.561646e+00 3.251720e+00 3.074698e+00 3.618070e-01 3.576235e-01 3.610948e-01 4.675432e-01 6.965456e-01 5.408704e-01 7.210034e-01 7.564769e-01 5.948868e-01 8.328874e-01 8.353295e-01 5.478054e-01 4.519606e-01
<GCONST> 1.257110e+02
<STATE> 3
<NUMMIXES> 2
<MIXTURE> 1 5.848845e-01
<MEAN> 39
 4.474629e+00 -1.831051e+00 1.620438e+00 -1.878819e+00 -1.478145e+00 -3.049713e+00 -7.487533e+00 -3.474783e+00 -1.398240e+00 2.018619e+00 -1.494873e+00 1.889125e-01 6.128035e-01 2.190320e-01 2.400961e+00 7.080516e-01 2.097928e+00 1.094581e+00 8.177213e-01 1.192141e+00 -1.646544e+00 -5.820181e-01 -7.343884e-01 -2.023878e-01 -2.037895e-01 -6.271928e-02 -4.199255e-01 2.646344e-01 -1.320975e-01 2.324165e-01 5.762680e-02 5.083118e-02 5.845723e-01 3.596970e-01 2.754366e-01 -1.748769e-01 2.377886e-02 -8.596709e-02 -3.175596e-02
<VARIANCE> 39
 2.100936e+01 2.697184e+01 6.623683e+01 5.340443e+01 6.565623e+01 1.001378e+02 5.355698e+01 6.167878e+01 5.711427e+01 8.017064e+01 6.215407e+01 5.642213e+01 4.840667e+01 3.353482e+00 2.641870e+00 3.144345e+00 4.034462e+00 4.367054e+00 4.624006e+00 5.275461e+00 6.664061e+00 4.600996e+00 6.313349e+00 5.244786e+00 4.940719e+00 3.487847e+00 5.216771e-01 4.015127e-01 4.859935e-01 5.178230e-01 7.583050e-01 8.378044e-01 7.081094e-01 8.003291e-01 7.052414e-01 9.334906e-01 8.182676e-01 6.657126e-01 5.668540e-01
<GCONST> 1.371556e+02
<MIXTURE> 2 4.151156e-01
<MEAN> 39
 6.978098e-01 -1.182084e+01 2.343720e+00 -8.551885e+00 -1.911467e+00 -8.463528e-01 1.561110e+00 4.500786e+00 -7.261520e+00 -1.618121e+00 -5.681712e+00 -1.939527e+00 -4.876360e+00 6.722885e-01 1.179756e+00 5.913993e-01 1.198803e+00 -9.498801e-01 9.794582e-02 -3.982952e-01 -1.409346e+00 -3.108088e-01 -4.894551e-01 6.331081e-01 1.451459e-01 -4.077310e-01 2.678037e-01 7.538779e-01 -1.064059e-01 6.567003e-01 -6.294490e-02 -3.976549e-02 -1.253306e-01 -5.649161e-01 2.455748e-01 -1.396348e-01 2.923656e-01 2.329285e-01 1.439234e-01
<VARIANCE> 39
 1.166872e+01 3.069008e+01 5.874202e+01 3.303239e+01 8.894447e+01 4.720697e+01 4.458664e+01 3.487274e+01 4.626756e+01 4.064661e+01 3.252404e+01 2.735847e+01 3.105501e+01 1.298058e+00 3.025835e+00 1.368809e+00 3.536659e+00 2.772702e+00 2.501038e+00 2.450808e+00 3.610118e+00 1.843070e+00 2.479625e+00 2.582657e+00 2.307402e+00 1.920277e+00 1.469926e-01 3.172853e-01 3.525916e-01 4.027663e-01 4.417191e-01 3.419928e-01 4.271807e-01 4.880126e-01 3.838201e-01 3.811071e-01 4.316276e-01 3.491024e-01 2.971700e-01
<GCONST> 1.161019e+02
<STATE> 4
<NUMMIXES> 2
<MIXTURE> 1 3.893876e-01
<MEAN> 39
 -1.480670e+00 6.042399e+00 7.383835e-01 5.450461e+00 3.669472e+00 -2.935535e+00 2.737405e-02 7.250264e-01 2.092420e+00 -1.333425e+00 3.788321e-01 4.075850e-01 3.662681e-01 -2.787469e+00 8.207710e-01 -7.015983e-01 1.067681e+00 1.118664e+00 1.083040e+00 2.207495e+00 1.324761e+00 9.207938e-01 3.520817e-01 1.227302e+00 2.966030e-01 5.452748e-02 -2.174366e-01 -9.231437e-01 -3.002887e-01 -7.193617e-01 -4.900346e-01 -7.914700e-02 -3.485029e-01 1.565272e-01 8.459222e-02 3.996571e-01 1.309212e-01 1.263022e-01 8.353426e-02
<VARIANCE> 39
 5.749076e+01 2.850042e+01 3.890734e+01 3.093887e+01 4.690064e+01 5.269887e+01 4.449014e+01 4.530410e+01 4.053128e+01 4.515096e+01 3.828148e+01 3.435269e+01 2.931630e+01 5.861999e+00 4.036545e+00 3.415280e+00 3.839475e+00 4.301604e+00 5.213544e+00 4.710398e+00 3.930495e+00 4.272355e+00 4.755754e+00 4.643936e+00 4.112681e+00 4.416946e+00 7.696491e-01 4.504462e-01 4.382190e-01 4.380549e-01 6.052005e-01 6.341951e-01 7.679388e-01 7.986911e-01 6.947486e-01 7.558028e-01 6.281980e-01 6.823521e-01 4.860049e-01
<GCONST> 1.325089e+02
<MIXTURE> 2 6.106124e-01
<MEAN> 39
 7.336896e+00 1.861676e+00 5.287009e+00 3.567433e+00 -3.626703e+00 -8.122472e-01 -3.373356e+00 -7.130562e+00 -4.412330e+00 -8.123322e-01 -3.266294e+00 -1.845000e+00 -1.589099e+00 8.051609e-01 2.390080e+00 1.205783e-01 1.889297e+00 8.820847e-02 5.870695e-01 8.054631e-01 -1.447657e+00 3.276599e-01 -6.319012e-01 -2.350470e-01 -1.079022e-01 1.338599e-01 -4.342350e-01 -3.860126e-01 -3.581345e-01 -5.822830e-01 5.729663e-02 -1.939851e-01 3.284144e-03 7.852089e-01 3.809000e-01 1.397674e-01 1.467816e-01 8.791446e-02 1.223412e-01
<VARIANCE> 39
 1.921622e+01 2.369003e+01 4.408643e+01 4.944041e+01 6.850724e+01 7.224971e+01 5.624497e+01 4.947404e+01 5.290760e+01 8.189704e+01 5.932557e+01 5.977285e+01 4.682953e+01 1.497708e+00 2.778966e+00 2.649821e+00 3.260339e+00 4.156914e+00 3.577378e+00 3.675663e+00 6.812029e+00 3.324309e+00 4.904839e+00 4.392238e+00 3.250177e+00 2.505608e+00 2.572293e-01 3.335328e-01 3.447110e-01 4.802152e-01 7.019947e-01 5.919422e-01 5.984238e-01 6.883571e-01 6.007935e-01 8.351755e-01 6.927853e-01 6.867273e-01 4.845452e-01
<GCONST> 1.300115e+02
<TRANSP> 5
 0.000000e+00 1.000000e+00 0.000000e+00 0.000000e+00 0.000000e+00
 0.000000e+00 5.392353e-01 4.607647e-01 0.000000e+00 0.000000e+00
 0.000000e+00 0.000000e+00 5.319249e-01 4.680751e-01 0.000000e+00
 0.000000e+00 0.000000e+00 0.000000e+00 5.126492e-01 4.873509e-01
 0.000000e+00 0.000000e+00 0.000000e+00 0.000000e+00 0.000000e+00
<ENDHMM>
~o
<STREAMINFO> 1 39
<VECSIZE> 39<NULLD><MFCC_D_A_Z><DIAGC>
~h "aa"
<BEGINHMM>
<NUMSTATES> 5
<STATE> 2
<NUMMIXES> 2
<MIXTURE> 1 6.141251e-01
<MEAN> 39
 7.270829e+00 -3.220157e+00 -7.805300e+00 -1.840749e+01 -4.606791e+00 1.611848e+01 -8.153811e-01 -2.091644e-01 1.741070e+00 -6.193295e+00 4.150499e+00 -6.960955e-01 -3.655366e+00 -4.460273e-02 -8.422519e-02 -1.456176e-01 3.052552e-01 2.326573e-01 2.605264e-02 4.802660e-02 -2.203471e-01 -1.997226e-01 1.317606e-01 -1.563110e-02 -3.247952e-02 -6.505080e-02 -4.439123e-02 9.100400e-02 1.716272e-01 5.863608e-01 1.102546e-01 -3.952462e-01 -2.155761e-01 -1.593082e-01 -1.035999e-01 4.284891e-01 -1.440624e-01 -6.058328e-02 1.345148e-01
<VARIANCE> 39
 9.844294e+00 2.829679e+01 3.072223e+01 6.447340e+01 5.770481e+01 3.536276e+01 4.834401e+01 5.837106e+01 6.604139e+01 5.690657e+01 4.448939e+01 3.593684e+01 3.169304e+01 4.363572e-01 1.341267e+00 1.296719e+00 2.877957e+00 1.774749e+00 1.979588e+00 2.403439e+00 2.797958e+00 2.231092e+00 3.594847e+00 1.955164e+00 2.051485e+00 1.491900e+00 1.035062e-01 2.069123e-01 2.827784e-01 4.684414e-01 3.620667e-01 4.158621e-01 3.833617e-01 4.828833e-01 4.365686e-01 4.643373e-01 3.773985e-01 3.494700e-01 2.909732e-01
<GCONST> 1.130423e+02
<MIXTURE> 2 3.858749e-01
<MEAN> 39
 4.605569e+00 -5.984358e+00 -7.826191e+00 -1.233587e+01 9.346077e-01 6.631969e+00 -6.198217e+00 1.504131e+00 1.939420e+00 2.194314e+00 -1.175911e+00 -4.180759e+00 -2.247747e+00 2.272204e-01 -7.332788e-01 -8.375365e-01 -1.748427e+00 7.048244e-01 1.863557e+00 5.292718e-02 1.084961e-01 -3.558394e-02 -4.815087e-01 2.100535e-01 -6.535285e-01 -3.207791e-01 -2.578168e-01 4.468866e-01 4.024203e-01 6.544116e-01 5.976640e-02 -2.555882e-01 3.758660e-01 -2.058026e-01 -1.465473e-01 -4.299078e-01 1.930777e-01 3.414357e-01 1.352726e-01
<VARIANCE> 39
 1.904648e+01 3.883688e+01 3.408190e+01 6.426398e+01 7.318270e+01 9.486868e+01 6.896779e+01 5.984575e+01 6.363155e+01 6.177084e+01 7.410300e+01 4.353809e+01 2.974108e+01 1.985436e+00 3.367109e+00 3.398715e+00 8.363666e+00 5.471530e+00 8.005302e+00 5.196695e+00 4.966826e+00 5.753356e+00 6.054685e+00 5.449283e+00 4.048367e+00 3.213358e+00 4.628471e-01 4.968076e-01 4.580950e-01 9.355084e-01 8.438939e-01 1.140154e+00 1.062441e+00 9.855293e-01 9.296897e-01 9.785045e-01 1.109062e+00 6.884609e-01 5.153517e-01
<GCONST> 1.396465e+02
<STATE> 3
<NUMMIXES> 2
<MIXTURE> 1 5.312042e-01
<MEAN> 39
 2.867968e+00 -1.104673e+01 -9.937478e+00 -1.545671e+01 9.259892e+00 1.058070e+01 -6.639149e+00 2.546926e+00 -5.297910e-02 -4.909225e-01 -2.009434e+00 -8.265185e+00 -2.113428e+00 -7.571208e-02 -2.229257e-01 7.245282e-02 4.316757e-01 1.097868e-02 -1.227605e-01 -2.270314e-01 -6.066148e-02 -4.253420e-03 9.746479e-02 -2.910760e-01 1.837432e-02 1.035941e-01 7.707816e-02 1.907288e-01 1.472362e-01 3.972222e-01 -3.820724e-01 -5.330132e-01 4.480338e-02 2.432933e-02 7.552586e-02 9.684709e-02 -1.800313e-01 2.120162e-01 2.753583e-02
<VARIANCE> 39
 9.809110e+00 2.173472e+01 1.642022e+01 4.263327e+01 6.480843e+01 3.765877e+01 4.563052e+01 2.521785e+01 8.650214e+01 3.846399e+01 4.654091e+01 3.041575e+01 2.808742e+01 3.367933e-01 9.237812e-01 6.274042e-01 1.725760e+00 1.720847e+00 2.700501e+00 1.682587e+00 1.429064e+00 1.960514e+00 1.909402e+00 2.800686e+00 1.568509e+00 1.229267e+00 6.086452e-02 1.226887e-01 1.277393e-01 2.728644e-01 2.778223e-01 3.211695e-01 3.111445e-01 2.933262e-01 3.337133e-01 3.177396e-01 4.229611e-01 2.530868e-01 2.474800e-01
<GCONST> 1.025320e+02
<MIXTURE> 2 4.687958e-01
<MEAN> 39
 5.394416e+00 -6.714312e+00 -7.452417e+00 -1.060118e+01 6.272193e-01 8.234591e+00 -7.758124e+00 -7.566761e-01 1.605933e+00 2.637389e+00 -7.356296e-01 -4.802256e+00 -1.653695e+00 -6.280526e-02 1.128499e+00 1.024357e+00 2.762683e+00 2.005079e-01 -2.440364e+00 3.761393e-02 -4.883185e-01 -3.207226e-01 4.913523e-01 -1.012251e+00 5.708933e-01 5.231637e-01 -1.423653e-01 6.072930e-01 2.509583e-01 4.316060e-01 1.106005e-01 -2.860805e-01 4.990340e-01 -8.843821e-02 -2.126010e-01 -4.759651e-01 1.104091e-01 3.481641e-01 -8.719577e-02
<VARIANCE> 39
 1.727159e+01 3.988688e+01 3.333304e+01 4.444995e+01 7.626397e+01 7.227371e+01 7.617226e+01 5.104118e+01 7.184334e+01 5.365808e+01 7.454576e+01 4.428762e+01 3.276168e+01 1.496349e+00 3.075360e+00 2.369773e+00 3.996087e+00 6.418499e+00 3.941948e+00 4.868017e+00 5.834921e+00 4.321094e+00 4.974873e+00 4.287124e+00 3.463952e+00 2.741478e+00 3.278704e-01 3.826831e-01 3.853788e-01 6.489472e-01 7.926314e-01 7.176114e-01 9.355258e-01 8.506347e-01 7.097178e-01 7.643798e-01 9.116587e-01 6.201490e-01 5.341299e-01
<GCONST> 1.333052e+02
<STATE> 4
<NUMMIXES> 2
<MIXTURE> 1 7.092594e-01
<MEAN> 39
 3.840178e+00 3.196895e+00 -3.282361e+00 -5.445324e-01 2.812966e+00 1.375750e+00 -2.873466e+00 -4.167081e+00 -6.789270e-01 -7.061110e-02 -9.584137e-01 8.295923e-02 -1.494178e+00 -1.748847e+00 1.782016e+00 6.625097e-01 2.183337e+00 1.044686e+00 -8.312167e-01 1.497148e+00 1.309237e-01 -2.875673e-02 -1.831454e-01 1.110354e-01 2.430866e-01 2.493976e-01 -4.254593e-01 -5.528716e-01 -2.575802e-01 -5.691065e-01 -2.467596e-01 3.925048e-01 8.081618e-02 5.041841e-01 2.302580e-01 2.085839e-01 2.005113e-01 -1.509230e-01 2.963035e-02
<VARIANCE> 39
 4.624435e+01 3.901894e+01 3.853772e+01 6.877779e+01 5.722850e+01 9.507519e+01 7.130801e+01 6.511962e+01 5.722434e+01 6.953777e+01 4.668782e+01 3.615982e+01 2.884190e+01 5.649320e+00 5.785892e+00 3.608702e+00 5.383322e+00 4.938618e+00 7.479872e+00 7.279903e+00 7.178405e+00 5.148423e+00 5.128592e+00 5.416035e+00 3.537119e+00 2.893976e+00 5.403676e-01 6.036565e-01 4.818062e-01 9.008567e-01 8.001789e-01 9.614546e-01 9.634674e-01 9.337391e-01 8.397159e-01 1.128819e+00 6.989311e-01 6.378511e-01 5.086467e-01
<GCONST> 1.406325e+02
<MIXTURE> 2 2.907406e-01
<MEAN> 39
 3.259400e+00 -9.758595e+00 -6.258029e+00 -2.750731e+00 -9.069153e-01 -7.318064e+00 -4.893353e+00 4.480719e+00 -1.514933e+00 -1.585511e+00 -8.271623e+00 -9.524193e-01 -2.022087e+00 7.361972e-01 2.644681e+00 1.664067e+00 3.623708e+00 -1.957305e+00 -2.243630e+00 6.513162e-01 -9.075529e-01 -6.678987e-01 -2.298034e+00 1.595393e+00 1.287941e+00 -5.287060e-01 -8.960832e-02 7.807013e-01 1.264328e-01 -6.537560e-02 6.905091e-01 1.124320e+00 9.983850e-03 -6.964844e-01 -6.869598e-02 -1.084997e-01 5.562548e-01 -3.421856e-01 1.011254e-01
<VARIANCE> 39
 1.564840e+01 2.956883e+01 2.707806e+01 4.584954e+01 5.245108e+01 4.795286e+01 5.089079e+01 3.369562e+01 5.468143e+01 5.993390e+01 5.169041e+01 4.600158e+01 3.943933e+01 1.824360e+00 2.825871e+00 1.761765e+00 3.433568e+00 5.924700e+00 5.239869e+00 4.300736e+00 5.359687e+00 3.691606e+00 5.518007e+00 3.907018e+00 4.175570e+00 3.383761e+00 3.676783e-01 3.975599e-01 3.278832e-01 7.899529e-01 9.657287e-01 8.482863e-01 8.207049e-01 6.649512e-01 7.944945e-01 9.384156e-01 1.045556e+00 7.233387e-01 7.286911e-01
<GCONST> 1.318289e+02
<TRANSP> 5
 0.000000e+00 1.000000e+00 0.000000e+00 0.000000e+00 0.000000e+00
 0.000000e+00 7.811543e-01 2.188458e-01 0.000000e+00 0.000000e+00
 0.000000e+00 0.000000e+00 7.667900e-01 2.332100e-01 0.000000e+00
 0.000000e+00 0.000000e+00 0.000000e+00 6.720819e-01 3.279181e-01
 0.000000e+00 0.000000e+00 0.000000e+00 0.000000e+00 0.000000e+00
<ENDHMM>
~o
<STREAMINFO> 1 39
<VECSIZE> 39<NULLD><MFCC_D_A_Z><DIAGC>
~h "ae"
<BEGINHMM>
<NUMSTATES> 5
<STATE> 2
<NUMMIXES> 2
<MIXTURE> 1 3.687871e-01
<MEAN> 39
 3.960053e+00 -1.459152e+01 -2.871986e+00 -5.336451e+00 -5.779066e+00 2.714420e+00 -2.036792e+00 1.329499e+01 8.306911e+00 -6.098170e+00 -4.300530e+00 -7.418621e+00 2.435062e+00 1.328260e-01 -1.448326e+00 -1.621058e-01 -5.921167e-01 -4.609232e-01 1.042921e+00 1.756832e-01 5.418844e-01 7.020489e-01 -1.564834e+00 -2.582098e-01 -9.272652e-01 6.273735e-02 -3.225799e-01 8.325710e-01 1.750452e-01 4.824045e-01 5.080339e-01 -3.592631e-01 1.298165e-01 -7.233280e-01 -5.030775e-01 4.404069e-01 2.051098e-01 5.002599e-01 -5.839506e-02
<VARIANCE> 39
 8.285378e+00 2.180490e+01 2.875197e+01 2.819210e+01 3.520023e+01 4.264944e+01 4.060733e+01 4.267576e+01 3.132908e+01 2.935148e+01 2.948042e+01 2.309165e+01 1.686339e+01 1.238871e+00 2.030532e+00 2.503349e+00 1.529009e+00 3.229174e+00 2.118401e+00 4.025086e+00 3.137863e+00 2.735379e+00 2.713621e+00 2.349565e+00 1.994640e+00 1.556759e+00 2.723202e-01 4.712609e-01 3.625927e-01 3.344299e-01 4.516941e-01 4.070254e-01 5.566742e-01 6.224976e-01 5.151436e-01 4.074645e-01 4.123532e-01 3.233519e-01 2.540650e-01
<GCONST> 1.133685e+02
<MIXTURE> 2 6.312130e-01
<MEAN> 39
 3.474389e-01 -8.088803e+00 -3.176000e+00 -4.486931e+00 1.081206e+00 -1.019539e+00 1.880495e+00 6.221686e+00 -1.635377e-01 -8.039943e-01 -5.435158e+00 -6.088129e-01 -1.030317e-01 3.287820e-01 -1.855488e+00 -4.332289e-01 -6.856177e-01 1.898898e-01 1.010893e+00 -3.535349e-01 9.433523e-01 -5.953880e-02 -6.571625e-01 -6.074616e-01 -4.950515e-01 2.762773e-01 -1.884129e-02 3.222309e-01 2.336499e-01 3.624974e-01 -4.844943e-02 7.568860e-02 -2.242680e-01 -2.701637e-01 1.457742e-01 -6.951001e-02 3.611720e-01 -7.184559e-02 9.676658e-02
<VARIANCE> 39
 2.591724e+01 7.201428e+01 4.396769e+01 6.071279e+01 7.207555e+01 6.787659e+01 6.571828e+01 7.969660e+01 5.344423e+01 4.090843e+01 4.922744e+01 3.645731e+01 3.946047e+01 2.312505e+00 6.188717e+00 2.735844e+00 4.519888e+00 6.146738e+00 4.492299e+00 4.953184e+00 5.763724e+00 4.872957e+00 3.832488e+00 3.727314e+00 3.343246e+00 2.563942e+00 4.253680e-01 9.080285e-01 4.734575e-01 8.643727e-01 8.211003e-01 7.252400e-01 8.766418e-01 9.945474e-01 7.270822e-01 6.374604e-01 8.056189e-01 5.457862e-01 5.585166e-01
<GCONST> 1.365794e+02
<STATE> 3
<NUMMIXES> 2
<MIXTURE> 1 3.703564e-01
<MEAN> 39
 3.304397e+00 -1.569799e+01 -3.279975e+00 -5.168306e+00 -6.565417e+00 4.696218e+00 -1.586517e+00 1.222420e+01 9.315372e+00 -9.747446e+00 -3.489733e+00 -6.990345e+00 1.529242e+00 6.800131e-02 2.705581e-01 6.721086e-02 1.954058e-01 -2.083446e-01 -5.000882e-01 -2.452770e-01 8.837382e-02 -1.356169e-01 3.536533e-01 2.655854e-01 4.321972e-02 -1.222220e-02 1.273887e-01 3.290100e-01 1.425763e-01 1.044264e-01 1.140548e-01 -3.044567e-01 -2.009051e-01 -1.534926e-01 -2.948090e-01 5.650098e-01 6.221356e-02 1.038005e-01 6.962461e-02
<VARIANCE> 39
 6.177701e+00 1.639480e+01 3.059743e+01 3.438393e+01 3.296992e+01 3.404967e+01 3.588656e+01 6.542166e+01 2.771721e+01 2.167427e+01 2.586307e+01 2.153425e+01 1.874815e+01 3.030121e-01 5.937750e-01 8.314671e-01 6.814651e-01 1.012557e+00 1.321752e+00 1.518761e+00 1.351377e+00 1.350891e+00 1.877736e+00 1.137101e+00 1.021930e+00 9.904882e-01 6.319675e-02 1.390052e-01 1.631764e-01 1.445282e-01 2.283716e-01 2.328414e-01 2.736599e-01 4.802046e-01 2.729037e-01 2.643401e-01 2.404712e-01 2.346899e-01 2.019236e-01
<GCONST> 9.293935e+01
<MIXTURE> 2 6.296436e-01
<MEAN> 39
 3.177381e-01 -1.523105e+01 -5.019036e+00 -6.351597e+00 5.719689e+00 2.301127e+00 -9.077863e-01 6.626095e+00 -3.517874e+00 -2.603659e+00 -6.186192e+00 -1.955866e+00 -3.330307e-02 1.055344e-01 2.312011e-01 1.767770e-01 1.833963e-01 -2.777992e-01 -2.493499e-01 1.614863e-01 -2.757130e-01 -1.554885e-01 5.005565e-02 -2.067369e-02 -1.388428e-02 -1.973655e-01 1.147264e-01 4.964293e-01 1.691825e-01 1.982032e-01 -3.307315e-01 -2.564406e-01 7.212947e-02 -2.672231e-01 1.165044e-01 3.630102e-02 1.174536e-01 2.140485e-02 -1.490084e-01
<VARIANCE> 39
 1.570308e+01 4.067526e+01 2.991481e+01 3.556380e+01 5.304610e+01 5.332922e+01 7.634547e+01 3.586940e+01 5.038122e+01 3.174752e+01 3.637477e+01 4.787479e+01 3.194927e+01 6.384863e-01 1.773155e+00 1.122231e+00 1.405983e+00 2.932559e+00 2.114595e+00 3.185369e+00 1.822284e+00 1.759286e+00 1.995210e+00 1.856285e+00 1.860977e+00 1.950669e+00 1.249834e-01 2.730447e-01 1.944235e-01 3.488865e-01 3.119929e-01 2.952023e-01 5.195231e-01 3.878758e-01 3.256148e-01 3.342860e-01 3.856915e-01 3.391097e-01 2.972552e-01
<GCONST> 1.110800e+02
<STATE> 4
<NUMMIXES> 2
<MIXTURE> 1 4.563502e-01
<MEAN> 39
 2.879566e+00 1.639074e-01 -8.204029e-01 3.065155e+00 5.685281e-01 -3.858828e+00 2.907740e+00 2.039260e+00 3.052280e-01 -2.455383e+00 -3.730892e+00 -1.414923e+00 -1.277146e+00 -1.204928e+00 2.333985e+00 1.819867e-01 1.762497e+00 7.756897e-01 4.928792e-01 9.274718e-01 -4.471250e-01 2.500913e-01 -1.920976e-01 6.508743e-01 3.555692e-01 1.672997e-01 -5.707458e-01 -6.144252e-01 -3.004589e-01 -4.495945e-01 -8.367714e-03 2.695252e-01 -8.470922e-03 4.266656e-01 1.818010e-01 2.003267e-01 1.910812e-01 -1.110608e-02 1.209304e-01
<VARIANCE> 39
 4.402643e+01 3.171888e+01 4.938513e+01 3.779353e+01 5.826856e+01 5.467838e+01 6.057919e+01 7.380019e+01 6.054209e+01 5.290322e+01 3.854158e+01 3.553954e+01 3.769186e+01 6.317936e+00 4.686373e+00 3.008588e+00 4.666175e+00 4.003378e+00 4.487013e+00 4.981750e+00 5.815993e+00 4.213634e+00 4.794529e+00 4.686302e+00 3.544674e+00 3.608930e+00 6.313124e-01 4.833061e-01 4.607846e-01 5.692144e-01 7.614368e-01 7.627478e-01 7.567475e-01 8.193678e-01 6.719365e-01 8.116480e-01 6.410459e-01 5.353168e-01 5.467775e-01
<GCONST> 1.354038e+02
<MIXTURE> 2 5.436498e-01
<MEAN> 39
 4.385862e+00 -1.120508e+01 -7.963867e-01 -4.206836e+00 -4.988140e+00 -2.287130e+00 -2.428090e+00 7.025501e+00 1.252918e+00 -8.648356e-01 -3.138255e+00 -4.590974e+00 -1.960926e-01 9.644307e-01 2.557405e+00 1.197980e+00 1.671489e+00 -9.400394e-03 -6.131843e-01 -4.432509e-01 -2.684274e+00 -9.149889e-01 8.978879e-01 4.426938e-01 3.966723e-01 -5.459150e-02 -9.379148e-02 5.440031e-01 4.631804e-02 4.705566e-01 3.498194e-01 4.152693e-01 2.569808e-01 -5.609515e-01 -5.114179e-02 -3.741309e-01 -1.055631e-01 1.411977e-01 5.618835e-02
<VARIANCE> 39
 1.452928e+01 2.480552e+01 4.830134e+01 3.345322e+01 5.621785e+01 5.689149e+01 7.916025e+01 8.623075e+01 7.948804e+01 4.691254e+01 4.423080e+01 4.377556e+01 5.227531e+01 9.939000e-01 2.287756e+00 2.241973e+00 2.731084e+00 4.836672e+00 4.760255e+00 4.529116e+00 9.108785e+00 4.200411e+00 5.135489e+00 3.894923e+00 3.072899e+00 2.951050e+00 2.824389e-01 3.424322e-01 4.095004e-01 4.319133e-01 6.924253e-01 6.198103e-01 8.936562e-01 1.317522e+00 6.841704e-01 6.636426e-01 6.457284e-01 5.316730e-01 6.045891e-01
<GCONST> 1.306127e+02
<TRANSP> 5
 0.000000e+00 1.000000e+00 0.000000e+00 0.000000e+00 0.000000e+00
 0.000000e+00 6.319395e-01 3.680605e-01 0.000000e+00 0.000000e+00
 0.000000e+00 0.000000e+00 8.087890e-01 1.912110e-01 0.000000e+00
 0.000000e+00 0.000000e+00 0.000000e+00 7.802945e-01 2.197054e-01
 0.000000e+00 0.000000e+00 0.000000e+00 0.000000e+00 0.000000e+00
<ENDHMM>
~o
<STREAMINFO> 1 39
<VECSIZE> 39<NULLD><MFCC_D_A_Z><DIAGC>
~h "ah"
<BEGINHMM>
<NUMSTATES> 5
<STATE> 2
<NUMMIXES> 2
<MIXTURE> 1 5.244819e-01
<MEAN> 39
 4.797431e+00 -5.270861e+00 -7.402624e+00 -1.238454e+01 -1.794174e-01 6.900776e+00 -5.703294e+00 8.074468e-01 3.448608e+00 1.506102e+00 2.309696e-01 -2.891823e+00 -2.481299e+00 6.383208e-01 -8.709097e-01 -4.036069e-01 -1.221735e+00 6.852503e-02 1.425816e+00 -1.846377e-01 -2.211185e-02 1.745152e-01 -3.823388e-01 -7.683754e-02 -5.578943e-01 -3.273165e-01 -4.911859e-01 4.838530e-01 4.267258e-01 8.636985e-01 2.169472e-01 -3.748163e-01 4.559252e-01 -1.572340e-01 -2.290090e-01 -2.671356e-01 1.161398e-01 2.855551e-01 1.732462e-01
<VARIANCE> 39
 2.439099e+01 4.041600e+01 3.485546e+01 7.712124e+01 5.697366e+01 1.126136e+02 6.309312e+01 5.509554e+01 5.892852e+01 6.901807e+01 6.601998e+01 5.584779e+01 3.402996e+01 2.546497e+00 4.409091e+00 3.223243e+00 9.837297e+00 5.415057e+00 7.562366e+00 4.771569e+00 4.624222e+00 4.860288e+00 5.055364e+00 5.019702e+00 4.474450e+00 2.820303e+00 7.568389e-01 6.566524e-01 5.626423e-01 1.313595e+00 8.801231e-01 1.312343e+00 1.126508e+00 9.570890e-01 9.291041e-01 1.032285e+00 1.147106e+00 8.404508e-01 6.103354e-01
<GCONST> 1.421152e+02
<MIXTURE> 2 4.755181e-01
<MEAN> 39
 8.900256e-01 -1.462163e+01 -7.667462e+00 -1.112529e+01 9.498977e+00 1.622896e+00 -6.672389e+00 6.311574e+00 -2.241434e+00 -6.995893e-01 -1.004184e+01 -4.236973e+00 -6.610563e-01 1.161473e-01 -6.100485e-03 2.866639e-01 6.219151e-01 -3.090301e-01 -3.017344e-01 2.901595e-02 -2.705014e-01 -3.493060e-01 -2.504818e-01 7.259413e-02 3.164498e-02 -3.611722e-02 2.385814e-01 8.334079e-01 3.435231e-01 6.581265e-01 -8.157620e-01 -4.448625e-01 2.792233e-01 -4.951899e-01 -8.117319e-02 -1.460524e-01 6.517624e-01 2.681976e-01 -1.976590e-01
<VARIANCE> 39
 1.204311e+01 1.959684e+01 1.750140e+01 1.983830e+01 4.965682e+01 5.364264e+01 4.696337e+01 2.285720e+01 4.449361e+01 3.979982e+01 3.976961e+01 4.106163e+01 2.707659e+01 9.230781e-01 2.532081e+00 1.594494e+00 2.859694e+00 6.714062e+00 5.870981e+00 4.584248e+00 2.864465e+00 2.603427e+00 2.624396e+00 4.183492e+00 3.742672e+00 2.929281e+00 1.332282e-01 2.410167e-01 1.982647e-01 5.098188e-01 5.228004e-01 5.725036e-01 6.890409e-01 5.721489e-01 4.930820e-01 4.895427e-01 8.241853e-01 5.136886e-01 5.243264e-01
<GCONST> 1.196020e+02
<STATE> 3
<NUMMIXES> 2
<MIXTURE> 1 5.754312e-01
<MEAN> 39
 6.013525e+00 -6.198587e+00 -5.944347e+00 -8.596050e+00 -8.024992e-01 3.698079e+00 -5.911658e+00 8.527626e-01 1.829352e+00 8.203464e-01 -1.301824e+00 -3.472720e+00 -2.429720e+00 2.590581e-01 2.414453e+00 1.450573e+00 2.898265e+00 -1.326755e-01 -1.248557e+00 9.439950e-01 -1.447080e+00 -1.261143e+00 -4.037233e-01 1.479762e-01 9.697324e-01 1.575781e-01 -3.703016e-01 4.148564e-01 2.442203e-01 5.296916e-01 3.588331e-01 8.119243e-02 3.277532e-01 -1.987899e-01 -4.662886e-02 -2.213261e-01 -2.401440e-02 -1.141649e-02 7.194683e-02
<VARIANCE> 39
 1.709371e+01 3.865759e+01 3.242844e+01 5.744521e+01 5.567286e+01 1.103517e+02 5.364643e+01 5.493440e+01 7.072122e+01 5.731638e+01 6.136388e+01 6.201408e+01 3.763799e+01 2.232392e+00 2.283592e+00 2.845820e+00 3.626048e+00 6.246379e+00 5.048092e+00 4.445498e+00 5.712905e+00 4.295424e+00 5.202991e+00 5.836833e+00 3.526815e+00 3.766154e+00 5.863394e-01 4.963239e-01 4.222710e-01 8.494210e-01 7.785813e-01 1.072453e+00 8.680866e-01 1.108345e+00 7.090567e-01 7.321104e-01 7.112683e-01 7.775722e-01 6.753572e-01
<GCONST> 1.365786e+02
<MIXTURE> 2 4.245688e-01
<MEAN> 39
 5.335473e+00 -8.973148e+00 -8.266380e+00 -1.505518e+01 8.977475e-01 1.278495e+01 -6.221692e+00 2.061020e+00 8.015898e+00 -3.335918e+00 2.838459e+00 -8.397290e+00 -4.221432e+00 1.402879e-01 3.673377e-01 9.602313e-02 4.718217e-01 -2.287481e-01 -4.451649e-01 -1.131413e-01 -1.400840e-01 -8.732017e-02 2.588705e-01 -8.850211e-02 5.076172e-02 1.892420e-01 6.092173e-02 4.520491e-01 2.851691e-01 4.580794e-01 -8.927636e-02 -4.324303e-01 7.758635e-02 -1.364495e-01 -3.962316e-01 3.197205e-01 -1.796662e-01 4.068252e-01 2.126449e-01
<VARIANCE> 39
 1.025620e+01 1.954791e+01 2.461078e+01 7.526494e+01 3.548657e+01 4.123146e+01 3.673800e+01 3.473457e+01 6.706629e+01 4.586445e+01 4.127534e+01 3.621793e+01 2.820223e+01 4.748538e-01 1.136929e+00 1.258876e+00 1.936918e+00 1.564693e+00 2.589530e+00 1.938430e+00 1.983134e+00 2.062358e+00 2.280329e+00 2.032137e+00 2.241995e+00 1.786969e+00 1.108655e-01 2.135320e-01 2.762748e-01 3.475246e-01 3.389920e-01 3.624050e-01 3.806001e-01 4.854806e-01 4.136039e-01 3.642252e-01 3.792474e-01 3.662153e-01 2.986442e-01
<GCONST> 1.093409e+02
<STATE> 4
<NUMMIXES> 2
<MIXTURE> 1 5.433230e-01
<MEAN> 39
 1.306584e+00 4.228961e+00 -4.013528e+00 -1.161937e-01 4.596459e+00 1.462889e+00 1.830600e+00 -2.307018e-01 1.349734e+00 -3.088463e-01 -1.022954e+00 1.863295e-01 -2.665723e+00 -2.941948e+00 8.609157e-01 5.146740e-01 2.615474e+00 1.090003e+00 -1.126111e+00 1.712124e+00 1.161501e+00 1.099448e-01 -4.946464e-02 4.814226e-01 1.222542e-01 1.931775e-01 -3.531761e-01 -7.250559e-01 -1.674581e-01 -6.162609e-01 -3.875540e-01 1.516637e-01 -3.464145e-01 2.333434e-01 2.566990e-01 2.804350e-01 1.817178e-01 -7.233974e-02 1.519803e-01
<VARIANCE> 39
 6.467081e+01 2.643026e+01 2.896784e+01 5.978695e+01 3.609517e+01 6.496401e+01 4.150047e+01 4.715269e+01 3.846605e+01 4.331018e+01 3.130896e+01 4.100482e+01 2.491723e+01 6.191052e+00 4.262116e+00 3.078764e+00 6.819897e+00 4.193984e+00 7.245191e+00 4.590990e+00 4.045413e+00 4.484971e+00 4.746419e+00 3.902331e+00 3.579782e+00 2.962839e+00 9.426585e-01 5.097267e-01 4.817946e-01 9.010006e-01 6.595052e-01 8.439262e-01 7.830606e-01 8.349407e-01 6.599106e-01 7.964064e-01 5.364718e-01 6.023144e-01 4.468678e-01
<GCONST> 1.339857e+02
<MIXTURE> 2 4.566770e-01
<MEAN> 39
 7.353996e+00 -2.019882e+00 1.419662e+00 1.924479e+00 -3.206940e+00 1.359088e+00 -4.998720e+00 -7.263255e+00 -6.036524e+00 -2.717776e+00 -1.489115e+00 -2.327822e+00 -1.220467e+00 4.539450e-01 2.446030e+00 1.460732e+00 2.321365e+00 -3.921417e-01 -2.537895e-02 3.971762e-01 -2.163284e+00 -4.627798e-01 -4.782721e-01 -2.691206e-01 5.098107e-01 6.144349e-01 -3.076451e-01 -2.704028e-01 -5.487415e-01 -7.075633e-01 4.070648e-01 2.210415e-01 6.968307e-02 7.338108e-01 6.483008e-01 1.993050e-01 -1.312160e-01 -1.797857e-01 -1.745912e-02
<VARIANCE> 39
 1.023232e+01 2.549606e+01 3.321666e+01 4.548183e+01 5.280648e+01 1.085874e+02 4.692984e+01 6.139249e+01 5.404176e+01 7.452236e+01 6.386874e+01 4.703330e+01 4.005005e+01 1.202448e+00 2.625512e+00 2.707869e+00 3.391412e+00 4.955998e+00 4.577994e+00 3.593673e+00 5.971750e+00 5.017462e+00 5.349639e+00 5.385001e+00 3.861434e+00 3.025253e+00 2.333295e-01 3.482695e-01 3.129924e-01 5.115766e-01 6.879719e-01 8.383875e-01 6.195540e-01 7.892028e-01 6.892989e-01 8.363634e-01 7.524488e-01 6.239425e-01 6.611815e-01
<GCONST> 1.308389e+02
<TRANSP> 5
 0.000000e+00 1.000000e+00 0.000000e+00 0.000000e+00 0.000000e+00
 0.000000e+00 6.700208e-01 3.299792e-01 0.000000e+00 0.000000e+00
 0.000000e+00 0.000000e+00 7.052789e-01 2.947211e-01 0.000000e+00
 0.000000e+00 0.000000e+00 0.000000e+00 6.514278e-01 3.485723e-01
 0.000000e+00 0.000000e+00 0.000000e+00 0.000000e+00 0.000000e+00
<ENDHMM>
~o
<STREAMINFO> 1 39
<VECSIZE> 39<NULLD><MFCC_D_A_Z><DIAGC>
~h "ao"
<BEGINHMM>
<NUMSTATES> 5
<STATE> 2
<NUMMIXES> 2
<MIXTURE> 1 4.622017e-01
<MEAN> 39
 8.313779e+00 -7.290145e-01 -5.642384e+00 -2.034306e+01 -9.515670e+00 1.697217e+01 -3.293014e+00 -2.259252e+00 3.101957e+00 -4.446704e+00 5.086350e+00 1.031642e+00 -1.901404e-01 1.699069e-01 -2.048006e-01 -7.517633e-02 -1.687079e+00 -7.255018e-01 1.105347e+00 3.345893e-01 1.980830e-01 7.593815e-01 -1.455698e+00 3.756868e-01 -4.569490e-03 -2.362276e-02 -5.058624e-01 1.707188e-01 4.607399e-02 1.050213e+00 7.647042e-01 -9.029804e-01 1.635676e-01 6.587337e-02 -1.768193e-01 2.205463e-01 -2.653803e-01 1.358885e-02 -6.277493e-02
<VARIANCE> 39
 8.690804e+00 2.606150e+01 2.703524e+01 6.171231e+01 4.521629e+01 2.890689e+01 4.407780e+01 4.914548e+01 4.809475e+01 5.664125e+01 3.524332e+01 3.042990e+01 2.471825e+01 8.471987e-01 1.687513e+00 1.847697e+00 3.325858e+00 3.144771e+00 2.699735e+00 3.684756e+00 2.736964e+00 3.109494e+00 3.789542e+00 2.770346e+00 2.383461e+00 1.772547e+00 3.684784e-01 2.874937e-01 3.629779e-01 7.607536e-01 5.405455e-01 5.067185e-01 6.165673e-01 5.082942e-01 5.619910e-01 6.711617e-01 4.432192e-01 4.356118e-01 3.310458e-01
<GCONST> 1.193085e+02
<MIXTURE> 2 5.377983e-01
<MEAN> 39
 4.256972e+00 -1.381289e+00 -7.553514e+00 -1.341951e+01 1.182618e+00 4.991866e+00 -4.435360e+00 1.688222e-02 -2.603820e-01 5.145358e+00 -6.636094e-01 -1.051663e+00 -2.234697e+00 8.641437e-01 -3.191591e-01 -6.617862e-01 -3.042165e+00 -2.204366e-02 2.082731e+00 2.882147e-01 1.336233e-01 -3.974345e-01 -4.615006e-01 7.297343e-02 -1.113956e-01 -3.877156e-01 -3.118117e-01 7.115120e-02 4.278150e-01 5.888890e-01 -2.847749e-02 -5.923802e-02 2.333350e-01 7.097664e-02 1.420273e-01 -6.365941e-01 3.401640e-01 1.114473e-01 2.491969e-01
<VARIANCE> 39
 2.452509e+01 4.009243e+01 4.161427e+01 1.075036e+02 5.722791e+01 7.652678e+01 6.572990e+01 5.777290e+01 5.934786e+01 6.592431e+01 5.706984e+01 4.240620e+01 2.614065e+01 2.804432e+00 2.717953e+00 2.969951e+00 1.071342e+01 6.120386e+00 7.055734e+00 5.188056e+00 4.793668e+00 5.531487e+00 6.471129e+00 4.919691e+00 3.496145e+00 2.519793e+00 6.067293e-01 4.223601e-01 5.112109e-01 1.708132e+00 7.184212e-01 9.280147e-01 1.076081e+00 9.561720e-01 9.601221e-01 1.113452e+00 1.006653e+00 6.223224e-01 4.833414e-01
<GCONST> 1.397430e+02
<STATE> 3
<NUMMIXES> 2
<MIXTURE> 1 7.045034e-01
<MEAN> 39
 7.062069e+00 5.918700e-01 -6.709672e+00 -2.286173e+01 -4.681557e+00 1.365957e+01 -1.051000e+00 1.388617e+00 9.531416e-01 -6.572825e+00 3.002672e+00 6.267626e-02 -1.051512e+00 -8.043016e-02 2.124098e-02 -1.656468e-01 2.598616e-01 1.538646e-01 -1.629546e-02 2.885461e-02 -3.070014e-01 -2.190751e-01 -6.096441e-02 5.498974e-02 1.001291e-01 -1.323720e-02 -1.108218e-02 -5.137264e-02 -1.988677e-02 4.404673e-01 5.169967e-02 -1.274353e-01 -1.577810e-01 -2.356448e-01 -8.479041e-02 3.389416e-01 -1.787314e-02 -2.412687e-02 4.951478e-03
<VARIANCE> 39
 9.760092e+00 3.425521e+01 2.917469e+01 5.228274e+01 9.312531e+01 4.323821e+01 3.776034e+01 5.547048e+01 7.760629e+01 6.200905e+01 3.760013e+01 4.529914e+01 2.990450e+01 3.209145e-01 8.972773e-01 9.724076e-01 1.535913e+00 1.171494e+00 1.323649e+00 1.516899e+00 2.082291e+00 1.583590e+00 2.067134e+00 1.453207e+00 1.425562e+00 1.151014e+00 5.684902e-02 1.285215e-01 1.656278e-01 2.993462e-01 2.156669e-01 2.625169e-01 2.796809e-01 3.171791e-01 3.318210e-01 3.391447e-01 2.943551e-01 2.515835e-01 2.118763e-01
<GCONST> 1.033279e+02
<MIXTURE> 2 2.954966e-01
<MEAN> 39
 3.910504e+00 -7.796709e+00 -1.116660e+01 -1.837657e+01 7.862625e+00 8.649174e+00 -6.846520e+00 5.001348e-01 -3.294434e+00 3.547410e+00 -2.058694e+00 -5.901523e+00 -3.390970e+00 -1.053751e-01 -4.191960e-01 1.961301e-01 1.850752e+00 -3.010523e-01 -1.046055e+00 -4.739721e-01 -1.726023e-01 4.689614e-01 4.123860e-01 -9.063286e-01 -1.012048e-01 1.583710e-01 -9.966985e-03 3.184657e-01 3.458712e-01 8.416681e-01 -4.609882e-01 -7.535823e-01 2.088344e-01 1.893804e-01 1.464733e-01 -4.574001e-01 -1.802700e-02 2.631162e-01 1.934503e-01
<VARIANCE> 39
 1.320149e+01 2.526850e+01 2.015645e+01 4.728143e+01 4.212984e+01 4.412362e+01 3.764168e+01 2.722569e+01 5.091215e+01 6.248207e+01 5.662486e+01 3.143764e+01 2.500120e+01 8.265363e-01 1.739549e+00 1.196058e+00 6.035714e+00 3.253308e+00 6.330836e+00 2.823358e+00 3.263802e+00 4.191670e+00 4.841893e+00 5.500000e+00 2.680098e+00 1.921417e+00 2.345861e-01 2.301506e-01 2.181758e-01 4.497827e-01 4.386376e-01 5.364575e-01 4.900512e-01 5.409548e-01 5.857264e-01 8.820158e-01 9.298782e-01 4.589542e-01 3.763572e-01
<GCONST> 1.210108e+02
<STATE> 4
<NUMMIXES> 2
<MIXTURE> 1 4.764261e-01
<MEAN> 39
 8.211427e+00 1.516112e-01 -7.233406e+00 -1.335121e+01 -8.457966e+00 1.426175e+01 -4.135263e+00 -6.207645e+00 -6.325664e-01 -3.178509e+00 6.777238e+00 2.099886e+00 8.379403e-03 1.193436e-01 -1.918760e-01 2.111199e-01 2.923795e+00 1.303146e+00 -1.506408e+00 -8.376971e-01 -6.525549e-01 -8.193029e-01 1.114307e+00 1.822272e-01 -3.533099e-01 -5.865452e-02 -1.155710e-01 1.140649e-01 2.624910e-01 3.287835e-01 5.451961e-01 -5.492630e-01 6.909148e-02 3.037530e-01 1.770226e-01 -4.616470e-02 -4.217303e-01 -4.544643e-02 -1.052540e-01
<VARIANCE> 39
 1.074180e+01 3.590377e+01 3.436306e+01 6.472392e+01 5.681820e+01 4.082213e+01 6.958187e+01 6.182397e+01 6.412734e+01 8.155630e+01 5.739202e+01 4.189945e+01 3.786085e+01 7.764972e-01 2.245714e+00 2.822902e+00 4.438171e+00 5.347604e+00 4.265059e+00 5.333209e+00 5.766435e+00 5.262039e+00 5.135452e+00 5.237400e+00 3.727396e+00 3.137085e+00 2.250472e-01 3.524548e-01 3.955643e-01 8.113575e-01 7.557093e-01 7.218359e-01 1.032150e+00 9.438818e-01 9.254085e-01 9.762735e-01 9.167157e-01 6.800449e-01 5.405113e-01
<GCONST> 1.329929e+02
<MIXTURE> 2 5.235740e-01
<MEAN> 39
 4.898228e+00 -2.826317e+00 -6.562191e+00 -2.629298e+00 1.583430e+00 -6.105045e-01 -5.527544e+00 -1.119742e+00 1.232919e-01 1.263153e+00 -1.734895e+00 -2.447729e-01 -1.713615e+00 -6.758242e-01 1.051304e+00 1.433154e+00 3.036489e+00 3.729323e-01 -2.100430e+00 7.250719e-01 2.224107e-01 2.764225e-01 -1.138730e+00 -8.829224e-02 5.616714e-01 2.020455e-01 -3.269889e-01 1.586198e-01 1.810305e-01 -5.461860e-01 -9.059167e-02 6.346679e-01 3.327571e-01 4.254769e-03 -7.538481e-02 -1.795341e-01 3.439239e-01 -5.991803e-02 1.036430e-01
<VARIANCE> 39
 2.990988e+01 5.087597e+01 4.116328e+01 6.642408e+01 5.425349e+01 8.607876e+01 7.729816e+01 5.976701e+01 5.916853e+01 7.895611e+01 7.639162e+01 4.843037e+01 3.392605e+01 4.211329e+00 3.932321e+00 3.038215e+00 6.780629e+00 8.340005e+00 7.231557e+00 6.308633e+00 6.197917e+00 5.276979e+00 7.297261e+00 6.320409e+00 4.685481e+00 3.233941e+00 5.562873e-01 6.914136e-01 5.430449e-01 1.008148e+00 1.124153e+00 1.091480e+00 1.163267e+00 1.103343e+00 1.057376e+00 1.279603e+00 1.079298e+00 8.322757e-01 6.061954e-01
<GCONST> 1.443964e+02
<TRANSP> 5
 0.000000e+00 1.000000e+00 0.000000e+00 0.000000e+00 0.000000e+00
 0.000000e+00 6.225257e-01 3.774743e-01 0.000000e+00 0.000000e+00
 0.000000e+00 0.000000e+00 8.409801e-01 1.590200e-01 0.000000e+00
 0.000000e+00 0.000000e+00 0.000000e+00 7.666268e-01 2.333732e-01
 0.000000e+00 0.000000e+00 0.000000e+00 0.000000e+00 0.000000e+00
<ENDHMM>
~o
<STREAMINFO> 1 39
<VECSIZE> 39<NULLD><MFCC_D_A_Z><DIAGC>
~h "aw"
<BEGINHMM>
<NUMSTATES> 5
<STATE> 2
<NUMMIXES> 2
<MIXTURE> 1 5.991459e-01
<MEAN> 39
 3.684160e+00 -1.056003e+01 -9.714204e+00 -1.509655e+01 7.519516e+00 1.381620e+01 -5.351459e+00 1.291555e+00 1.968857e+00 -1.509263e+00 1.332532e+00 -8.233691e+00 -3.520006e+00 2.654040e-01 7.071716e-01 -1.975086e-01 -8.584659e-01 -2.689741e-01 5.828297e-01 3.034597e-01 -3.414159e-01 -7.620247e-01 -2.018716e-01 1.010868e+00 5.177402e-01 -6.812146e-01 9.485932e-02 3.159845e-01 1.202505e-01 1.857148e-01 -4.020125e-01 -4.087402e-01 1.082437e-01 5.699136e-02 -1.403115e-01 7.503808e-02 -1.731071e-01 3.918380e-01 1.140724e-01
<VARIANCE> 39
 1.265914e+01 1.772137e+01 1.830936e+01 4.552330e+01 6.422591e+01 3.376893e+01 4.458288e+01 3.216263e+01 7.480492e+01 4.318407e+01 4.883543e+01 2.672247e+01 3.067229e+01 4.078535e-01 1.044067e+00 7.537994e-01 1.200774e+00 1.577787e+00 1.574530e+00 1.565711e+00 1.554049e+00 1.743104e+00 1.881337e+00 1.991275e+00 2.065082e+00 1.454242e+00 6.108987e-02 1.490735e-01 1.363361e-01 2.179844e-01 2.351070e-01 2.694748e-01 3.137069e-01 2.770378e-01 3.038085e-01 2.970170e-01 3.441315e-01 2.795333e-01 2.747613e-01
<GCONST> 1.018105e+02
<MIXTURE> 2 4.008541e-01
<MEAN> 39
 1.808758e+00 -1.099260e+01 -8.069874e+00 -1.059576e+01 5.837843e+00 4.931213e+00 -3.487616e+00 4.934706e+00 3.112488e+00 4.852736e-01 -6.151289e+00 -4.748731e+00 -6.956478e-01 2.043970e-01 -9.674802e-01 -1.016372e+00 -1.468608e+00 1.283313e+00 2.379018e+00 -5.421832e-01 -5.158340e-01 1.132250e-02 -8.372816e-02 2.073961e-01 -1.229373e+00 -8.440553e-02 -5.130358e-02 5.644531e-01 3.472218e-01 3.272179e-01 -1.339159e-01 -8.555439e-02 9.583693e-02 -4.067436e-01 -2.241118e-01 -6.195322e-02 6.321650e-01 2.018264e-01 -1.327551e-01
<VARIANCE> 39
 2.194819e+01 3.248130e+01 2.696588e+01 4.338359e+01 6.545776e+01 7.918012e+01 5.051303e+01 4.676662e+01 5.940687e+01 4.284023e+01 5.814488e+01 4.651543e+01 2.800653e+01 1.565377e+00 3.009642e+00 2.394785e+00 3.250612e+00 4.634114e+00 3.673539e+00 4.452706e+00 4.071465e+00 3.611338e+00 3.785123e+00 5.221255e+00 3.046561e+00 3.041168e+00 3.989910e-01 4.344640e-01 3.415691e-01 6.463047e-01 7.595595e-01 8.273553e-01 7.739155e-01 8.971682e-01 7.065026e-01 5.605254e-01 8.559492e-01 7.101336e-01 5.787557e-01
<GCONST> 1.304736e+02
<STATE> 3
<NUMMIXES> 2
<MIXTURE> 1 5.658778e-01
<MEAN> 39
 8.139720e+00 1.764603e-01 -6.365694e+00 -1.731223e+01 -6.910557e+00 1.457954e+01 -2.123748e+00 -1.850435e+00 3.974358e-01 -6.183704e+00 5.587393e+00 2.277096e+00 -2.651307e+00 1.737705e-01 8.914315e-01 4.924787e-01 5.677621e-01 -7.881660e-01 -3.974684e-01 -4.362505e-02 -4.252988e-01 -7.321419e-01 -3.252975e-02 -4.622310e-01 6.297945e-01 7.531140e-01 -7.219928e-02 -1.363610e-01 2.590594e-02 2.936233e-01 2.610461e-01 -8.942441e-02 -1.114129e-01 -1.223903e-01 2.120618e-02 1.804004e-01 -6.536971e-02 -2.346024e-01 -3.225610e-02
<VARIANCE> 39
 8.454567e+00 3.174435e+01 3.227060e+01 5.212066e+01 4.550856e+01 4.291453e+01 3.488768e+01 5.283492e+01 4.755775e+01 4.817619e+01 3.998072e+01 2.906608e+01 3.786391e+01 3.600730e-01 1.502886e+00 1.086012e+00 1.662694e+00 2.407431e+00 1.602708e+00 1.682244e+00 2.364729e+00 1.994487e+00 2.181864e+00 2.078482e+00 2.537994e+00 1.576992e+00 5.336571e-02 1.721684e-01 1.846771e-01 2.564509e-01 3.288768e-01 2.957633e-01 2.648411e-01 3.715148e-01 3.096368e-01 3.418282e-01 4.355122e-01 3.662823e-01 2.784488e-01
<GCONST> 1.067708e+02
<MIXTURE> 2 4.341222e-01
<MEAN> 39
 5.077227e+00 -5.636271e+00 -1.068852e+01 -1.683648e+01 5.924089e+00 9.233344e+00 -3.999087e+00 1.067793e+00 -5.749170e+00 3.044477e+00 -1.228732e+00 -5.208830e+00 -4.810578e+00 6.661528e-01 1.082021e+00 2.520843e-01 1.330469e+00 -1.989698e+00 -1.108796e+00 -1.408167e-01 -1.028230e+00 -8.566754e-02 5.882297e-01 6.987420e-02 9.130895e-01 1.381834e-03 3.369131e-02 4.209220e-02 1.902640e-01 7.973756e-01 -1.173049e-01 -2.561773e-01 -2.076410e-01 -3.445896e-01 2.743413e-01 -2.307240e-01 -1.151816e-02 9.577008e-02 2.653765e-01
<VARIANCE> 39
 1.153847e+01 2.225390e+01 2.302136e+01 3.886014e+01 3.736580e+01 4.668208e+01 4.313378e+01 3.076036e+01 6.271043e+01 6.616444e+01 4.251342e+01 3.935623e+01 2.958994e+01 5.165077e-01 1.261245e+00 1.147110e+00 3.628663e+00 1.972962e+00 2.338759e+00 2.614841e+00 2.968688e+00 3.137471e+00 2.738312e+00 2.845520e+00 2.641840e+00 2.240315e+00 8.655835e-02 2.101678e-01 1.836347e-01 3.227735e-01 3.819750e-01 3.788088e-01 3.591664e-01 4.437824e-01 4.652657e-01 6.162072e-01 4.889767e-01 4.380016e-01 3.869495e-01
<GCONST> 1.130260e+02
<STATE> 4
<NUMMIXES> 2
<MIXTURE> 1 6.450046e-01
<MEAN> 39
 8.241460e+00 -8.243588e-02 -6.854900e+00 -7.226924e+00 -4.077849e+00 7.940478e+00 -5.809242e+00 -7.625975e+00 -3.923928e+00 2.990287e-01 2.119392e+00 7.460252e-01 -1.563620e+00 1.781711e-01 8.321295e-01 9.414151e-01 2.908511e+00 6.265647e-01 -1.429841e+00 -4.176297e-01 -1.201110e+00 2.025856e-01 -1.307163e-01 -1.676368e-01 2.010489e-01 -6.391817e-02 -2.698259e-01 9.510775e-02 2.061332e-01 2.661864e-02 5.385830e-01 -1.110686e-01 3.225327e-01 4.777330e-01 2.132339e-01 -1.685653e-01 -2.498158e-01 -2.035967e-01 -5.635528e-02
<VARIANCE> 39
 1.447740e+01 3.912928e+01 4.524860e+01 6.566308e+01 5.660547e+01 8.005559e+01 5.648816e+01 6.767672e+01 5.461401e+01 9.376839e+01 6.204557e+01 5.138924e+01 4.914814e+01 1.175467e+00 2.871502e+00 2.635695e+00 4.449886e+00 6.637216e+00 4.075121e+00 4.425200e+00 5.866491e+00 4.726449e+00 6.887530e+00 4.955356e+00 4.377156e+00 3.383105e+00 2.525186e-01 4.493943e-01 4.384464e-01 7.563295e-01 9.595417e-01 7.633391e-01 8.886341e-01 1.041376e+00 8.501172e-01 9.975719e-01 8.006003e-01 7.037613e-01 6.712168e-01
<GCONST> 1.363895e+02
<MIXTURE> 2 3.549955e-01
<MEAN> 39
 4.512043e+00 4.097819e+00 -2.838174e+00 3.152440e+00 4.790699e+00 1.247747e+00 -2.350485e+00 -4.828801e+00 -4.316244e-01 2.250752e-01 -9.957403e-02 -6.890149e-01 -2.402519e+00 -2.233444e+00 5.242307e-01 1.013750e+00 1.469495e+00 7.835611e-01 -8.457453e-01 1.950119e+00 1.946092e+00 8.779929e-01 -5.163513e-01 -8.849219e-02 1.121440e-01 5.783797e-01 -4.633670e-01 -3.896188e-01 -2.601974e-01 -8.416511e-01 -5.570036e-01 3.801604e-01 1.069648e-01 3.615618e-01 -1.117488e-02 2.355132e-01 2.565457e-01 1.995507e-01 1.599729e-01
<VARIANCE> 39
 5.821465e+01 3.424582e+01 2.886377e+01 4.981440e+01 3.860352e+01 6.531846e+01 7.144765e+01 6.003276e+01 4.132169e+01 4.946861e+01 4.066000e+01 3.725936e+01 2.569191e+01 5.359989e+00 5.166632e+00 3.790205e+00 5.720074e+00 5.300609e+00 6.377223e+00 5.816883e+00 5.596882e+00 4.690756e+00 6.095260e+00 4.417692e+00 3.407968e+00 3.119403e+00 7.617697e-01 6.461757e-01 5.171760e-01 8.128144e-01 8.556724e-01 9.214770e-01 1.306285e+00 1.121485e+00 8.321095e-01 1.168502e+00 7.295838e-01 6.279404e-01 5.482199e-01
<GCONST> 1.386969e+02
<TRANSP> 5
 0.000000e+00 1.000000e+00 0.000000e+00 0.000000e+00 0.000000e+00
 0.000000e+00 8.573050e-01 1.426950e-01 0.000000e+00 0.000000e+00
 0.000000e+00 0.000000e+00 8.271090e-01 1.728910e-01 0.000000e+00
 0.000000e+00 0.000000e+00 0.000000e+00 8.134349e-01 1.865651e-01
 0.000000e+00 0.000000e+00 0.000000e+00 0.000000e+00 0.000000e+00
<ENDHMM>
~o
<STREAMINFO> 1 39
<VECSIZE> 39<NULLD><MFCC_D_A_Z><DIAGC>
~h "ax"
<BEGINHMM>
<NUMSTATES> 5
<STATE> 2
<NUMMIXES> 2
<MIXTURE> 1 6.894857e-01
<MEAN> 39
 -3.343825e+00 3.178461e+00 -4.323619e+00 6.752519e+00 8.844137e+00 -2.954913e+00 5.711380e+00 4.927815e+00 1.887634e-01 1.837655e+00 -1.008299e+00 2.759853e+00 -3.219078e-01 -7.875255e-02 7.445707e-02 3.762071e-02 9.881635e-02 6.028631e-02 5.097670e-02 7.440887e-02 -3.685357e-02 -4.820738e-02 8.884195e-03 2.062644e-02 2.087010e-02 -1.633078e-02 1.382913e-02 -5.883487e-02 2.513286e-02 -7.938076e-02 -5.719940e-02 1.983458e-02 -3.676718e-02 -1.730035e-02 2.140706e-02 9.866298e-03 -2.190178e-02 -1.384697e-02 2.305765e-02
<VARIANCE> 39
 4.915611e+00 2.168901e+01 1.457028e+01 1.343749e+01 1.456450e+01 1.834311e+01 2.179284e+01 3.116299e+01 2.452329e+01 2.092164e+01 2.095633e+01 1.731556e+01 1.408862e+01 2.637295e-01 7.377415e-01 8.793967e-01 1.074998e+00 1.225415e+00 1.493293e+00 1.740606e+00 1.903736e+00 1.808419e+00 1.736392e+00 1.784232e+00 1.491700e+00 1.299619e+00 5.579477e-02 1.443458e-01 1.660261e-01 2.167674e-01 2.425012e-01 2.981798e-01 3.427947e-01 3.625113e-01 3.508270e-01 3.406433e-01 3.489993e-01 2.977034e-01 2.593568e-01
<GCONST> 9.240974e+01
<MIXTURE> 2 3.105142e-01
<MEAN> 39
 2.500616e+00 -1.999629e+00 3.922114e+00 1.844849e-01 -5.430142e+00 -2.653536e+00 -2.327753e+00 -9.357300e-01 -8.662865e-01 3.693068e-04 6.186344e-02 -1.114504e+00 1.593619e+00 2.208688e-01 4.743196e-01 -3.352342e-01 7.012006e-02 6.080717e-01 2.589223e-01 2.876310e-01 -4.012255e-02 2.369776e-02 8.336259e-02 -2.032458e-01 5.082185e-03 -1.106744e-01 -1.983150e-01 2.077725e-01 -1.309819e-01 1.886294e-01 4.248386e-01 -4.864665e-02 1.578136e-01 -4.898034e-02 3.104454e-02 4.050288e-02 -6.812736e-02 6.510016e-02 -6.984903e-02
<VARIANCE> 39
 2.621787e+01 3.869402e+01 7.780631e+01 4.288979e+01 9.365797e+01 8.340197e+01 7.277222e+01 1.050784e+02 8.881530e+01 4.597891e+01 4.383537e+01 3.299163e+01 2.512611e+01 1.785192e+00 3.045916e+00 2.637619e+00 2.940778e+00 5.374062e+00 4.941226e+00 5.052145e+00 6.095863e+00 4.633033e+00 2.735286e+00 3.361779e+00 2.653334e+00 2.114928e+00 4.371660e-01 4.621083e-01 4.764399e-01 4.538349e-01 8.939630e-01 8.621209e-01 8.186839e-01 1.282950e+00 9.279985e-01 5.617800e-01 6.417414e-01 5.030463e-01 4.064682e-01
<GCONST> 1.333337e+02
<STATE> 3
<NUMMIXES> 2
<MIXTURE> 1 3.926187e-01
<MEAN> 39
 -1.954223e+00 3.168926e+00 -8.921742e-01 3.403595e+00 5.122324e+00 -3.924328e+00 2.121438e+00 5.260280e-01 -3.007193e-01 2.111783e+00 -2.614233e+00 1.384431e+00 2.085021e-01 8.991507e-02 -9.682567e-01 -1.037900e-02 -9.750664e-01 -5.226620e-01 4.017318e-01 -9.015508e-01 1.205137e-01 5.250284e-01 -1.899382e-01 7.602502e-02 -4.679487e-01 6.388763e-03 2.879107e-01 -4.619080e-01 1.047942e-01 -5.143246e-01 -6.133639e-01 5.036114e-01 -5.429870e-01 2.075850e-02 2.266237e-01 -1.242955e-01 2.042135e-01 -2.707026e-01 4.415456e-02
<VARIANCE> 39
 5.692461e+01 4.847992e+01 4.161477e+01 4.903529e+01 4.390239e+01 5.809811e+01 5.298372e+01 6.594856e+01 4.149615e+01 2.798535e+01 2.934757e+01 2.552465e+01 2.129051e+01 7.207533e+00 7.578631e+00 4.556726e+00 7.344334e+00 7.334495e+00 8.406030e+00 8.362818e+00 7.799830e+00 5.961318e+00 3.397102e+00 3.504965e+00 3.332181e+00 2.548161e+00 9.021055e-01 9.646724e-01 6.660292e-01 8.759938e-01 8.682650e-01 1.104132e+00 9.483145e-01 1.119194e+00 9.446627e-01 5.953259e-01 6.196904e-01 5.382177e-01 4.554891e-01
<GCONST> 1.390498e+02
<MIXTURE> 2 6.073813e-01
<MEAN> 39
 6.348097e+00 -6.655572e+00 1.424110e-01 -7.349374e+00 -5.398475e+00 6.315410e+00 -1.031820e+01 -3.205142e-01 4.136515e+00 -1.751139e-01 1.323374e+00 -4.869364e+00 1.190083e+00 5.077969e-01 6.109771e-02 2.173303e-01 -3.040166e-01 -1.529286e-02 1.042500e+00 7.571122e-02 -8.298817e-01 -2.800834e-01 3.658089e-02 1.327742e-01 -2.576932e-01 -1.453371e-01 -2.838598e-01 4.635705e-01 1.852688e-02 4.970522e-01 3.979980e-01 -4.330967e-01 6.151443e-01 -1.897545e-01 -2.698922e-01 2.561676e-02 -1.537018e-01 2.831525e-01 -9.080510e-02
<VARIANCE> 39
 1.160852e+01 3.987201e+01 4.433469e+01 5.979301e+01 4.246932e+01 9.488679e+01 5.454221e+01 1.340454e+02 9.727826e+01 5.556156e+01 4.476062e+01 4.000108e+01 3.362996e+01 1.422380e+00 4.057898e+00 2.742643e+00 5.002374e+00 5.163917e+00 8.148669e+00 6.725853e+00 1.387315e+01 8.154040e+00 4.517276e+00 3.989950e+00 4.040485e+00 3.046602e+00 3.158551e-01 5.036195e-01 5.191273e-01 6.320316e-01 7.773591e-01 1.262127e+00 9.557142e-01 2.295770e+00 1.331456e+00 7.582762e-01 7.051240e-01 6.687254e-01 5.843181e-01
<GCONST> 1.391789e+02
<STATE> 4
<NUMMIXES> 2
<MIXTURE> 1 3.810357e-01
<MEAN> 39
 1.129279e+00 2.324596e+00 -1.720904e+00 5.678765e-01 2.950837e+00 -3.878410e+00 2.853638e-01 1.716558e+00 3.190317e+00 3.488647e+00 -2.773535e+00 -2.472758e-01 -6.686443e-01 -9.430232e-01 8.505660e-01 -1.850373e-01 8.150209e-01 5.197512e-01 -4.495032e-01 1.149471e+00 -1.098342e-01 -3.845589e-01 2.123364e-02 -1.438157e-02 3.608551e-01 -2.763757e-01 -1.825810e-01 -3.664874e-01 2.526248e-02 -1.999095e-01 -2.725054e-01 2.135807e-01 -2.592022e-01 -7.259629e-03 -5.653831e-02 -1.147110e-01 2.001573e-01 -5.557093e-02 8.506499e-02
<VARIANCE> 39
 6.596944e+01 3.958030e+01 4.429072e+01 4.744587e+01 4.794766e+01 7.289235e+01 5.820856e+01 7.317409e+01 5.973287e+01 3.727986e+01 3.370021e+01 2.996865e+01 2.598190e+01 4.541002e+00 4.061385e+00 2.599010e+00 3.264759e+00 4.124814e+00 4.601496e+00 4.935950e+00 4.880831e+00 3.803022e+00 2.716446e+00 2.838432e+00 2.350290e+00 2.116883e+00 6.130887e-01 5.625495e-01 3.924650e-01 5.044577e-01 6.655765e-01 7.021493e-01 7.996767e-01 7.920421e-01 6.905620e-01 4.850819e-01 5.229471e-01 4.374080e-01 3.906854e-01
<GCONST> 1.303454e+02
<MIXTURE> 2 6.189644e-01
<MEAN> 39
 6.610962e+00 -5.055029e+00 3.189612e-01 -7.379641e+00 -5.260641e+00 9.127915e+00 -6.954496e+00 -5.738236e+00 2.991197e+00 -1.238270e+00 2.066740e+00 -3.870266e+00 -6.034617e-01 6.507885e-02 5.756603e-01 3.157196e-02 2.142380e-01 2.707590e-01 -1.347250e-01 2.164101e-01 -2.527686e-01 -4.240558e-01 1.014063e-01 -1.356662e-01 2.335446e-01 5.640123e-02 -4.835891e-02 1.578708e-01 -4.624943e-02 1.525635e-01 1.756506e-01 -3.183129e-01 7.791363e-02 1.995017e-01 -6.310354e-02 1.163963e-01 -1.284985e-01 8.871900e-02 7.510129e-02
<VARIANCE> 39
 1.061814e+01 4.406361e+01 4.471889e+01 7.285965e+01 4.499088e+01 6.547813e+01 4.971063e+01 1.643523e+02 8.755170e+01 6.383210e+01 4.595951e+01 3.999653e+01 3.016166e+01 3.798990e-01 1.137115e+00 1.090914e+00 1.553354e+00 1.630771e+00 1.925343e+00 2.039391e+00 3.525953e+00 2.541916e+00 1.941685e+00 2.319506e+00 1.718520e+00 1.588749e+00 8.764740e-02 1.941022e-01 2.103785e-01 2.518963e-01 3.160126e-01 3.953850e-01 3.981735e-01 9.025584e-01 5.036507e-01 3.415816e-01 3.876562e-01 3.284674e-01 2.999558e-01
<GCONST> 1.135699e+02
<TRANSP> 5
 0.000000e+00 1.000000e+00 0.000000e+00 0.000000e+00 0.000000e+00
 0.000000e+00 8.492489e-01 1.507511e-01 0.000000e+00 0.000000e+00
 0.000000e+00 0.000000e+00 7.982022e-01 2.017978e-01 0.000000e+00
 0.000000e+00 0.000000e+00 0.000000e+00 8.005706e-01 1.994294e-01
 0.000000e+00 0.000000e+00 0.000000e+00 0.000000e+00 0.000000e+00
<ENDHMM>
~o
<STREAMINFO> 1 39
<VECSIZE> 39<NULLD><MFCC_D_A_Z><DIAGC>
~h "ay"
<BEGINHMM>
<NUMSTATES> 5
<STATE> 2
<NUMMIXES> 2
<MIXTURE> 1 6.307478e-01
<MEAN> 39
 3.019864e+00 -1.376516e+01 -7.622199e+00 -8.925593e+00 4.123440e+00 8.769904e+00 -2.406832e+00 4.944228e+00 6.788856e+00 -3.272695e+00 -4.924828e+00 -9.116452e+00 3.736893e-01 -3.065429e-01 -3.295099e-01 5.661685e-01 1.034134e+00 -7.331756e-01 -1.363766e+00 4.605591e-01 1.084504e+00 1.227655e-01 -6.307182e-01 -6.796108e-01 3.805774e-01 5.847650e-01 4.584236e-02 3.429273e-01 3.614389e-01 8.544302e-02 -5.285439e-01 -5.150335e-01 1.552881e-01 1.076022e-01 -3.124583e-01 1.884847e-01 2.467520e-01 4.370533e-01 -1.715237e-01
<VARIANCE> 39
 1.120548e+01 2.120582e+01 2.136273e+01 3.459156e+01 4.603582e+01 4.537522e+01 5.255436e+01 4.894975e+01 7.544705e+01 4.773453e+01 4.522236e+01 4.534600e+01 2.689606e+01 3.554036e-01 9.001468e-01 1.325745e+00 1.553610e+00 2.504087e+00 3.595939e+00 2.271696e+00 2.852171e+00 2.028024e+00 1.926592e+00 2.116434e+00 2.169581e+00 1.637827e+00 6.148373e-02 1.833066e-01 1.956694e-01 2.453730e-01 3.016793e-01 2.832493e-01 5.037727e-01 4.702024e-01 4.716538e-01 3.359928e-01 4.917183e-01 4.487894e-01 3.493888e-01
<GCONST> 1.095601e+02
<MIXTURE> 2 3.692522e-01
<MEAN> 39
 2.830945e+00 -1.158606e+01 -7.085183e+00 -1.057843e+01 6.163449e+00 6.907609e+00 -2.475334e+00 4.168130e+00 2.422420e+00 -8.154163e-01 -4.153564e+00 -4.558805e+00 -1.252465e+00 -5.205469e-02 -2.145543e+00 -2.969908e-01 -5.794874e-01 2.699767e-01 6.952986e-01 2.946771e-02 6.167762e-01 2.511217e-01 -7.833863e-01 -8.694503e-01 -8.807435e-01 1.789223e-01 -2.929313e-01 6.570454e-01 4.943344e-01 7.923770e-01 -3.929462e-01 -4.941905e-01 2.750923e-01 -2.085803e-01 -8.913869e-02 -7.464416e-02 2.476377e-01 2.572988e-01 1.787488e-01
<VARIANCE> 39
 2.060416e+01 4.698463e+01 2.982222e+01 4.844117e+01 6.021810e+01 9.316645e+01 6.255414e+01 5.199548e+01 6.707095e+01 4.993773e+01 6.126205e+01 5.491549e+01 3.731353e+01 2.004921e+00 4.211296e+00 2.941514e+00 5.997883e+00 4.813988e+00 7.067482e+00 5.906095e+00 4.486106e+00 6.306178e+00 3.799429e+00 4.385195e+00 4.445172e+00 2.934551e+00 4.553548e-01 6.410288e-01 4.556875e-01 8.528551e-01 8.465332e-01 9.715059e-01 1.032533e+00 9.338967e-01 8.543615e-01 6.986364e-01 1.014695e+00 7.496395e-01 6.826141e-01
<GCONST> 1.378554e+02
<STATE> 3
<NUMMIXES> 2
<MIXTURE> 1 3.996897e-01
<MEAN> 39
 -2.015777e+00 -1.362039e+01 -2.330962e-01 -9.656011e+00 -3.505269e+00 -2.738860e+00 6.671096e+00 5.255123e+00 -7.419786e+00 6.421438e-01 -9.452016e+00 4.188020e-01 -5.228735e+00 -3.072517e-01 1.847742e+00 1.347713e+00 -4.527637e-01 -2.882076e+00 -3.587451e-01 1.092627e+00 -1.909321e+00 2.449144e-01 1.376805e+00 6.421375e-01 -7.437540e-01 -9.397390e-01 1.642975e-01 3.564885e-01 7.471063e-02 9.745748e-02 1.639848e-01 1.295295e-01 -8.027410e-01 -4.762286e-01 4.705234e-01 3.883371e-02 1.227205e-01 -3.380616e-02 4.005832e-01
<VARIANCE> 39
 9.319690e+00 2.293480e+01 1.703350e+01 1.435021e+01 4.933124e+01 2.220099e+01 3.447837e+01 2.707452e+01 2.947262e+01 3.716135e+01 1.957216e+01 2.073018e+01 1.996838e+01 4.711973e-01 1.561819e+00 8.910309e-01 9.588615e-01 2.467337e+00 1.631964e+00 4.415296e+00 2.362521e+00 2.538468e+00 1.991928e+00 1.940964e+00 1.570902e+00 2.470714e+00 8.396062e-02 2.689050e-01 1.219747e-01 2.578695e-01 5.464963e-01 3.096333e-01 5.475349e-01 3.843124e-01 3.570520e-01 5.016130e-01 3.163985e-01 5.073152e-01 4.307483e-01
<GCONST> 1.043142e+02
<MIXTURE> 2 6.003103e-01
<MEAN> 39
 2.694306e+00 -1.231668e+01 -9.197792e-01 -3.412660e+00 -5.823591e+00 -3.467556e+00 8.747625e-01 1.189940e+01 6.263555e+00 -4.106193e+00 -3.807729e+00 -4.080148e+00 7.681189e-01 -2.640708e-01 9.950047e-01 2.272793e+00 8.561452e-01 -2.361393e+00 -2.553749e+00 6.633914e-01 2.337918e-01 -2.077378e+00 4.920790e-01 1.916187e+00 1.667330e+00 -5.064882e-01 2.470146e-02 3.693030e-01 1.676253e-01 -1.568971e-01 1.585475e-01 4.972072e-01 -2.292782e-01 -9.214486e-01 -5.028561e-01 3.104881e-01 4.922234e-01 -2.361939e-01 -7.066210e-02
<VARIANCE> 39
 8.433144e+00 2.301922e+01 3.573907e+01 2.275148e+01 6.258585e+01 4.453233e+01 5.249530e+01 4.591655e+01 5.394249e+01 4.281605e+01 4.997217e+01 3.174881e+01 1.937840e+01 4.453399e-01 1.210626e+00 1.865058e+00 1.532113e+00 2.554603e+00 3.096479e+00 4.121861e+00 4.182645e+00 3.786553e+00 2.742549e+00 3.661291e+00 2.567995e+00 2.091122e+00 7.185606e-02 2.335878e-01 2.604675e-01 2.358413e-01 4.752923e-01 4.868042e-01 4.562684e-01 5.808240e-01 5.607457e-01 4.292330e-01 7.497878e-01 4.806860e-01 4.319434e-01
<GCONST> 1.151587e+02
<STATE> 4
<NUMMIXES> 2
<MIXTURE> 1 4.019100e-01
<MEAN> 39
 1.546390e+00 2.069034e+00 7.553445e+00 4.285818e+00 -5.755273e+00 -6.114240e+00 2.684964e+00 -1.235661e+00 -4.753443e+00 -5.952975e-01 8.236269e-02 -9.454802e-01 4.294467e-01 -3.710621e-01 1.374226e+00 -1.490528e+00 1.189970e+00 2.231361e+00 6.315470e-01 7.980123e-01 2.596930e-01 1.054660e+00 -1.846953e-01 -4.965524e-01 8.642887e-02 -1.745216e-01 -3.901877e-01 -3.360843e-01 -3.291236e-01 -4.265702e-01 8.245416e-03 1.380920e-01 1.681925e-03 3.072148e-01 2.975908e-01 1.801192e-01 8.678554e-02 3.403426e-02 -4.311291e-02
<VARIANCE> 39
 3.442790e+01 3.557823e+01 4.982086e+01 3.095358e+01 6.351902e+01 5.522939e+01 5.908887e+01 6.593865e+01 5.223481e+01 3.921511e+01 4.051950e+01 3.170741e+01 2.718674e+01 4.626932e+00 3.956408e+00 3.359282e+00 4.336328e+00 4.290779e+00 3.820710e+00 4.687317e+00 6.644454e+00 4.149649e+00 4.310809e+00 4.556329e+00 3.329047e+00 2.490221e+00 5.036474e-01 5.414456e-01 5.972303e-01 4.548988e-01 8.528441e-01 6.886346e-01 8.092510e-01 9.363230e-01 8.895790e-01 6.278472e-01 6.089515e-01 5.281919e-01 4.274931e-01
<GCONST> 1.330036e+02
<MIXTURE> 2 5.980900e-01
<MEAN> 39
 4.055376e-01 -5.009048e+00 9.170715e+00 -4.550793e+00 -1.322960e+01 -5.842579e+00 3.548501e-01 1.249546e-02 -4.282033e+00 1.639253e+00 1.111128e+00 -9.957360e-01 -5.650409e-01 3.762423e-01 1.493909e+00 1.127405e+00 1.081678e+00 6.535536e-02 1.479176e-01 -8.793671e-01 -1.920455e+00 -1.056288e+00 -1.568274e-01 4.353709e-01 4.012576e-02 6.243322e-01 1.623414e-01 2.606031e-02 -5.520384e-01 3.361115e-01 7.512506e-01 2.994722e-01 1.793962e-01 2.017547e-01 2.986414e-01 -3.101499e-01 -4.749615e-01 -1.798692e-01 8.102305e-03
<VARIANCE> 39
 1.363708e+01 2.943695e+01 4.658638e+01 4.165554e+01 4.368007e+01 4.852607e+01 5.601243e+01 9.162263e+01 5.099030e+01 5.361706e+01 6.961847e+01 3.061381e+01 2.990673e+01 1.050967e+00 1.699083e+00 2.568184e+00 2.401978e+00 3.028231e+00 2.661903e+00 3.424192e+00 4.080857e+00 4.639568e+00 3.518452e+00 3.504480e+00 2.455330e+00 1.830447e+00 1.647735e-01 2.867861e-01 3.246484e-01 3.549664e-01 4.952120e-01 5.608261e-01 6.584300e-01 8.794639e-01 7.354650e-01 5.604884e-01 7.263198e-01 5.348349e-01 4.001836e-01
<GCONST> 1.233063e+02
<TRANSP> 5
 0.000000e+00 1.000000e+00 0.000000e+00 0.000000e+00 0.000000e+00
 0.000000e+00 8.202371e-01 1.797629e-01 0.000000e+00 0.000000e+00
 0.000000e+00 0.000000e+00 7.614633e-01 2.385367e-01 0.000000e+00
 0.000000e+00 0.000000e+00 0.000000e+00 8.417922e-01 1.582078e-01
 0.000000e+00 0.000000e+00 0.000000e+00 0.000000e+00 0.000000e+00
<ENDHMM>
~o
<STREAMINFO> 1 39
<VECSIZE> 39<NULLD><MFCC_D_A_Z><DIAGC>
~h "b"
<BEGINHMM>
<NUMSTATES> 5
<STATE> 2
<NUMMIXES> 2
<MIXTURE> 1 7.420123e-01
<MEAN> 39
 1.240669e+01 1.049237e+01 1.460320e+00 4.931356e+00 5.788364e+00 5.967504e+00 7.352934e-01 -8.227576e+00 -2.788750e+00 -2.835807e-01 -1.795322e+00 -3.301585e+00 -4.125620e+00 -1.707011e-01 7.800981e-01 4.556568e-02 3.326724e-01 5.602130e-01 -1.938755e-01 4.486622e-01 9.477181e-02 -2.525139e-01 -1.378561e-01 2.244459e-01 2.081222e-01 -1.177267e-01 -6.688646e-01 -7.438693e-01 4.329433e-02 -2.599722e-01 -3.225675e-01 -4.637008e-01 -2.350797e-01 4.253974e-01 1.205417e-01 4.487988e-02 9.286421e-02 2.468729e-01 2.583495e-01
<VARIANCE> 39
 8.121463e+00 1.952980e+01 1.533688e+01 2.328339e+01 2.306481e+01 3.861089e+01 3.371463e+01 3.150869e+01 4.581409e+01 3.605376e+01 2.827193e+01 4.388932e+01 2.711134e+01 1.783892e+00 2.044822e+00 1.292544e+00 1.831334e+00 1.886390e+00 2.561715e+00 2.328864e+00 2.783963e+00 2.528294e+00 2.595063e+00 2.248870e+00 2.130986e+00 1.794482e+00 2.573429e-01 5.336071e-01 3.023170e-01 4.381190e-01 4.722621e-01 4.721663e-01 5.467695e-01 5.376046e-01 5.756592e-01 5.894278e-01 4.872331e-01 4.720228e-01 3.780520e-01
<GCONST> 1.135927e+02
<MIXTURE> 2 2.579877e-01
<MEAN> 39
 2.038985e+00 7.122252e+00 1.240387e+00 4.741183e+00 5.156908e+00 -3.871428e-01 2.850145e+00 -8.629451e-01 -9.475619e-01 2.805687e-01 -3.836409e-01 1.535246e+00 -9.137942e-01 2.929174e-01 2.365658e-01 2.923587e-01 2.665344e-01 2.044191e-01 1.565348e-01 -8.571313e-03 -4.283235e-01 -4.435732e-01 -8.042087e-04 5.476570e-02 -5.463495e-02 -7.773220e-02 1.049131e-01 -3.183044e-01 -8.420201e-02 -2.601012e-01 -1.640972e-01 7.410978e-02 -2.149030e-01 -1.495519e-01 -1.797684e-02 7.324302e-02 5.227025e-03 -7.277388e-02 -5.148184e-02
<VARIANCE> 39
 3.215459e+01 4.609110e+01 3.418727e+01 4.952161e+01 4.602443e+01 4.294735e+01 4.153603e+01 4.655925e+01 4.517669e+01 3.449380e+01 3.178528e+01 2.719215e+01 2.372828e+01 3.117312e+00 3.471983e+00 1.942251e+00 2.511715e+00 2.728432e+00 3.211300e+00 3.177083e+00 3.952278e+00 2.886000e+00 2.678615e+00 2.511221e+00 2.239159e+00 1.997046e+00 3.687945e-01 6.048048e-01 4.143027e-01 5.634722e-01 5.709215e-01 5.351101e-01 6.144987e-01 5.971676e-01 5.246838e-01 5.431229e-01 5.019781e-01 3.851903e-01 3.543590e-01
<GCONST> 1.229004e+02
<STATE> 3
<NUMMIXES> 2
<MIXTURE> 1 4.961590e-01
<MEAN> 39
 1.010174e+01 1.213623e+01 2.336746e+00 6.039228e+00 6.623183e+00 4.563493e+00 1.976449e+00 -6.617361e+00 -4.022419e+00 -2.452667e+00 -1.562802e+00 -2.651491e+00 -3.543931e+00 -2.330974e+00 -3.265235e+00 -5.352773e-02 -1.212412e+00 -1.002032e+00 -1.917746e+00 -1.016561e+00 1.309669e+00 6.557496e-01 5.606714e-01 4.711217e-01 6.982903e-01 6.124010e-01 -3.162521e-01 -1.561958e+00 -4.750798e-02 -9.635766e-01 -1.084832e+00 -2.170197e-01 -7.633685e-01 3.174221e-01 3.593902e-01 5.082453e-01 8.378053e-02 5.562289e-02 2.529664e-01
<VARIANCE> 39
 1.620477e+01 1.557491e+01 1.639041e+01 2.311274e+01 2.186767e+01 3.603697e+01 3.291013e+01 3.281600e+01 3.879631e+01 3.220852e+01 2.604737e+01 4.513610e+01 2.466999e+01 2.154630e+00 3.382470e+00 3.149118e+00 5.581187e+00 3.990284e+00 3.741680e+00 3.886790e+00 3.708360e+00 4.381353e+00 4.966819e+00 3.485242e+00 3.024914e+00 2.513848e+00 4.124094e-01 3.763909e-01 8.602115e-01 7.948756e-01 8.459038e-01 8.814526e-01 7.084816e-01 8.895715e-01 1.128433e+00 9.452128e-01 8.565059e-01 7.905198e-01 5.117150e-01
<GCONST> 1.267933e+02
<MIXTURE> 2 5.038410e-01
<MEAN> 39
 1.268738e+00 1.867197e-01 1.813877e+00 5.045415e+00 4.021717e+00 -2.984008e+00 -1.159639e+00 -1.984246e+00 -6.513377e-02 -6.119883e-01 -6.250639e-02 -5.786301e-01 -1.123943e+00 -8.646691e-01 -4.282069e+00 3.054447e-01 -2.376688e+00 -3.210584e+00 -1.208299e+00 -2.431861e+00 5.946962e-01 3.358603e-01 9.755582e-01 6.932231e-01 5.108305e-01 9.436342e-01 7.055209e-01 2.716824e-01 1.114770e-01 -5.777925e-01 -6.680701e-01 7.290443e-01 -1.388566e-01 -1.520809e-01 -1.433001e-01 1.157954e-01 -9.562206e-02 -2.252279e-01 -4.220900e-02
<VARIANCE> 39
 2.429683e+01 2.663880e+01 2.762984e+01 4.022911e+01 3.586179e+01 4.455352e+01 4.247522e+01 3.504705e+01 3.270979e+01 3.084696e+01 2.798787e+01 2.861473e+01 2.228861e+01 5.028726e+00 4.607579e+00 7.851779e+00 8.788619e+00 6.702851e+00 7.591596e+00 5.359380e+00 6.590385e+00 8.479733e+00 7.555616e+00 5.763755e+00 5.102841e+00 3.441506e+00 5.613767e-01 7.751718e-01 6.054826e-01 7.964713e-01 9.532265e-01 9.093044e-01 8.701350e-01 8.798581e-01 8.432286e-01 7.476393e-01 9.654039e-01 6.291823e-01 5.074150e-01
<GCONST> 1.365905e+02
<STATE> 4
<NUMMIXES> 2
<MIXTURE> 1 3.581373e-01
<MEAN> 39
 1.210033e+00 -5.467705e+00 1.372249e+01 2.606192e+00 -1.167885e+01 -6.381692e+00 -5.346508e+00 -2.115004e+00 -8.081783e+00 -8.960712e-01 2.005628e+00 -5.482363e-01 4.207454e-01 -9.179987e-01 -6.032109e-01 2.137567e+00 -1.642557e+00 -3.163296e+00 5.725097e-01 -8.264558e-02 -6.936198e-01 -1.527255e+00 4.805498e-01 1.647176e-01 1.030274e-01 2.251668e-01 3.549280e-01 1.327726e+00 -8.234756e-01 1.182155e-01 1.257641e+00 7.650326e-01 5.454053e-01 -3.495831e-01 5.846812e-01 7.793494e-02 -4.750301e-01 -3.533645e-01 -3.363407e-01
<VARIANCE> 39
 1.533392e+01 2.166939e+01 4.882766e+01 4.996902e+01 4.676974e+01 4.438869e+01 4.194252e+01 5.161122e+01 6.116212e+01 7.715558e+01 5.656712e+01 2.757837e+01 2.603609e+01 2.423579e+00 4.696551e+00 4.442361e+00 4.322847e+00 8.841692e+00 5.355494e+00 4.578617e+00 5.443034e+00 5.625489e+00 6.830858e+00 6.833628e+00 4.008434e+00 2.716053e+00 3.487767e-01 5.320609e-01 5.539426e-01 6.705401e-01 9.130746e-01 9.415212e-01 8.779727e-01 9.716796e-01 1.185136e+00 1.282898e+00 7.777972e-01 6.321358e-01 4.818472e-01
<GCONST> 1.360853e+02
<MIXTURE> 2 6.418628e-01
<MEAN> 39
 6.318086e+00 -6.475858e+00 -4.625334e+00 -1.106917e+01 -1.871133e+00 5.462420e+00 -7.318954e+00 -1.165052e+00 4.009062e+00 5.444246e+00 -9.788064e-01 -2.875403e+00 -8.927243e-01 -2.182805e-01 -2.299736e+00 -7.991848e-01 -2.067150e+00 -1.029853e+00 4.668165e-01 -7.904995e-01 1.702805e+00 1.176647e+00 2.381781e-01 -8.080536e-01 -6.126146e-01 2.830195e-01 -4.227301e-02 9.354830e-01 4.713120e-01 1.170861e+00 4.896444e-01 -7.668211e-02 8.313386e-01 -9.025026e-02 -5.504831e-01 -8.519131e-01 -6.757577e-02 4.341406e-02 -9.572501e-02
<VARIANCE> 39
 1.243343e+01 4.286647e+01 2.839639e+01 7.897018e+01 5.119419e+01 1.081998e+02 4.775777e+01 6.189254e+01 5.020247e+01 5.951922e+01 7.398567e+01 4.853444e+01 2.894009e+01 2.161407e+00 5.771534e+00 2.856093e+00 1.002287e+01 6.085381e+00 6.861575e+00 6.255652e+00 5.347752e+00 5.794086e+00 6.598849e+00 6.128590e+00 5.784457e+00 3.013608e+00 3.083380e-01 5.149786e-01 3.931352e-01 9.288861e-01 8.729268e-01 1.038944e+00 7.104371e-01 9.695894e-01 7.765075e-01 8.663521e-01 1.208488e+00 8.391967e-01 5.569210e-01
<GCONST> 1.389852e+02
<TRANSP> 5
 0.000000e+00 1.000000e+00 0.000000e+00 0.000000e+00 0.000000e+00
 0.000000e+00 7.301975e-01 2.698024e-01 0.000000e+00 0.000000e+00
 0.000000e+00 0.000000e+00 6.503912e-01 3.496088e-01 0.000000e+00
 0.000000e+00 0.000000e+00 0.000000e+00 6.463911e-01 3.536089e-01
 0.000000e+00 0.000000e+00 0.000000e+00 0.000000e+00 0.000000e+00
<ENDHMM>
~o
<STREAMINFO> 1 39
<VECSIZE> 39<NULLD><MFCC_D_A_Z><DIAGC>
~h "ch"
<BEGINHMM>
<NUMSTATES> 5
<STATE> 2
<NUMMIXES> 2
<MIXTURE> 1 4.537717e-01
<MEAN> 39
 -5.995866e+00 4.912183e+00 2.221446e+00 1.330843e+00 5.107317e+00 -2.209735e+00 6.382763e-01 4.911860e+00 2.309323e+00 1.808267e+00 1.318366e+00 5.373366e-02 2.321655e-01 -3.948969e+00 -7.544683e-01 -3.353249e-01 -1.178762e+00 1.144395e+00 1.367552e+00 3.580666e-01 8.016287e-01 5.596149e-01 8.345659e-01 1.269180e+00 2.673930e-01 4.439868e-02 -7.361310e-01 -4.849524e-01 9.435672e-03 -4.410885e-01 -5.706381e-01 1.276454e-01 -4.540946e-02 -3.446495e-01 -2.836682e-01 -2.997564e-01 1.320556e-01 -9.923912e-02 -1.983448e-02
<VARIANCE> 39
 5.492017e+01 2.897453e+01 4.848215e+01 4.060804e+01 3.947901e+01 4.141311e+01 4.301490e+01 4.020662e+01 4.732472e+01 4.001445e+01 3.462195e+01 2.722020e+01 2.518120e+01 6.217919e+00 4.306420e+00 3.932270e+00 3.110086e+00 5.131045e+00 3.642126e+00 4.165610e+00 4.226085e+00 5.599357e+00 5.042599e+00 2.900466e+00 2.470511e+00 2.793607e+00 1.069746e+00 7.862688e-01 6.341057e-01 6.456223e-01 8.643569e-01 6.155533e-01 7.277216e-01 6.290024e-01 7.825782e-01 7.947794e-01 5.027257e-01 5.232356e-01 4.530907e-01
<GCONST> 1.319545e+02
<MIXTURE> 2 5.462283e-01
<MEAN> 39
 -2.007377e+01 1.820147e+00 2.612203e+00 -2.655352e+00 6.794977e+00 2.444840e+00 1.255107e+00 4.475030e+00 1.842881e+00 1.655286e+00 4.946554e+00 -1.797256e-01 6.319168e-01 -4.067946e+00 -5.063685e-01 -2.415806e-01 -1.231282e+00 -4.826372e-01 8.311071e-01 8.235215e-01 4.218584e-02 1.766638e-01 -1.013303e-01 1.165286e+00 2.225033e-01 -7.622050e-03 9.405859e-01 1.885830e-01 -5.103752e-03 3.626118e-01 -6.310579e-01 -5.080888e-01 2.455332e-01 -8.680421e-02 -9.767409e-02 -1.923490e-01 -2.098558e-01 1.692528e-01 -1.644304e-02
<VARIANCE> 39
 2.807138e+01 3.700176e+01 2.831567e+01 2.450266e+01 2.758436e+01 3.153749e+01 2.579729e+01 2.666804e+01 2.869258e+01 2.489398e+01 2.674939e+01 1.896261e+01 2.176000e+01 4.365360e+00 3.472888e+00 2.827136e+00 2.300226e+00 2.691373e+00 2.531732e+00 2.749835e+00 2.735051e+00 2.887478e+00 3.455484e+00 2.245643e+00 1.957597e+00 1.438534e+00 7.981899e-01 7.658963e-01 5.475684e-01 4.282921e-01 6.065800e-01 4.954102e-01 5.364936e-01 5.596637e-01 6.141056e-01 5.203256e-01 4.133709e-01 3.511933e-01 3.693089e-01
<GCONST> 1.186053e+02
<STATE> 3
<NUMMIXES> 2
<MIXTURE> 1 5.946103e-01
<MEAN> 39
 -2.486344e+01 -1.671727e+00 1.440958e+00 -5.352725e+00 8.332780e-01 -1.324583e+00 3.803166e+00 3.395860e+00 1.790392e+00 -1.971254e+00 3.165423e+00 4.327565e+00 -6.817353e-01 1.155121e+00 -1.478275e-01 2.709093e-01 9.073385e-01 -9.307535e-01 -1.186007e+00 3.846935e-02 3.455052e-01 1.381764e-01 -3.208869e-01 -4.555667e-01 4.696522e-01 5.130460e-01 1.602590e+00 1.879337e-01 2.370336e-01 5.735894e-01 2.186365e-02 -2.496334e-01 -4.605235e-01 -7.131512e-02 8.553179e-03 1.356998e-01 -2.469485e-01 -2.851591e-01 1.201367e-01
<VARIANCE> 39
 1.673998e+01 1.480641e+01 2.341557e+01 2.165169e+01 3.017372e+01 2.775437e+01 2.435493e+01 3.125098e+01 2.782317e+01 2.386476e+01 1.986451e+01 1.801002e+01 1.338044e+01 7.360193e+00 1.704860e+00 2.656939e+00 2.811101e+00 2.304589e+00 2.570021e+00 2.411484e+00 2.320318e+00 2.550608e+00 2.118888e+00 2.017235e+00 1.723218e+00 1.392751e+00 8.442326e-01 3.480007e-01 5.259334e-01 4.552385e-01 5.078655e-01 5.260865e-01 5.205943e-01 5.409113e-01 4.967991e-01 4.802185e-01 4.118683e-01 3.805189e-01 2.772193e-01
<GCONST> 1.132504e+02
<MIXTURE> 2 4.053896e-01
<MEAN> 39
 -2.673262e+01 4.802057e+00 3.950992e+00 3.834976e-01 3.303211e+00 5.514675e+00 7.564854e+00 8.800555e+00 3.883874e+00 3.891484e+00 1.371326e+01 -1.276445e+00 2.870919e+00 8.355918e-01 -5.789430e-01 2.461303e-01 2.757748e-01 -1.534544e+00 -8.793124e-01 1.844467e-01 -2.623809e-01 -5.708954e-01 -7.853833e-01 1.532693e-01 2.765997e-01 -4.874849e-01 1.478299e+00 -2.785287e-01 1.509840e-01 9.284148e-02 -2.082349e-01 -5.114427e-01 -6.469069e-01 -5.238559e-01 -2.953026e-01 -4.264947e-01 -7.750189e-01 -2.811020e-02 -1.002337e-01
<VARIANCE> 39
 8.527245e+00 1.419089e+01 1.962746e+01 1.517385e+01 2.917629e+01 1.883199e+01 1.973087e+01 2.158024e+01 2.010629e+01 2.387237e+01 2.022032e+01 1.502036e+01 1.326119e+01 7.640109e+00 1.562938e+00 1.910875e+00 1.742360e+00 3.125525e+00 3.026936e+00 3.708993e+00 4.059341e+00 3.235775e+00 2.944089e+00 3.540270e+00 1.735302e+00 1.414247e+00 6.745641e-01 3.306886e-01 3.404197e-01 4.176973e-01 5.180625e-01 4.678572e-01 5.853473e-01 5.704103e-01 5.147388e-01 5.446111e-01 6.158509e-01 3.496449e-01 3.123613e-01
<GCONST> 1.121289e+02
<STATE> 4
<NUMMIXES> 2
<MIXTURE> 1 5.656737e-01
<MEAN> 39
 -1.086834e+01 1.324930e+00 2.355387e+00 3.542660e+00 2.449697e+00 -3.327646e+00 2.906252e+00 4.900968e+00 2.247913e+00 -1.065758e+00 1.663379e+00 2.764991e+00 1.287847e+00 3.810273e+00 1.424055e-01 4.085581e-01 8.498726e-01 -4.003355e-01 -2.488691e-01 -9.863654e-01 -1.051751e+00 -3.369219e-01 -8.609275e-02 -6.379646e-01 -6.283079e-01 1.664349e-01 3.153976e-02 -1.949489e-01 -1.368288e-01 -4.800144e-01 -1.653049e-01 3.530948e-01 -1.728729e-01 -2.425694e-01 -8.520601e-02 1.126899e-01 1.115719e-01 -1.887324e-01 -9.635092e-02
<VARIANCE> 39
 6.221860e+01 3.731501e+01 4.190098e+01 3.241699e+01 4.192628e+01 4.714838e+01 3.934279e+01 4.356716e+01 5.049420e+01 3.500489e+01 5.159735e+01 2.638989e+01 2.003446e+01 9.814916e+00 3.041336e+00 3.735409e+00 3.555222e+00 5.585407e+00 4.573120e+00 5.126349e+00 4.860258e+00 4.168371e+00 3.793208e+00 3.704868e+00 2.445472e+00 2.357746e+00 8.354607e-01 6.555149e-01 5.079561e-01 5.879847e-01 6.596435e-01 7.977922e-01 7.027861e-01 7.897084e-01 7.420005e-01 6.729777e-01 6.405861e-01 5.400724e-01 4.036364e-01
<GCONST> 1.319246e+02
<MIXTURE> 2 4.343263e-01
<MEAN> 39
 8.219461e-01 -3.739647e+00 6.047619e+00 -1.695637e+00 -9.309655e+00 -6.697551e+00 -4.661247e+00 -8.995187e-01 -1.952651e+00 -2.454831e+00 9.772146e-01 -9.102378e-01 7.922251e-01 3.122304e+00 -1.918689e+00 -4.182167e-01 -1.370785e+00 -1.230738e+00 1.971223e-01 -1.573374e+00 -2.793718e-01 8.990749e-02 5.299506e-01 -1.199974e+00 -6.933110e-01 -1.815271e-01 -1.490600e+00 1.801270e-01 -4.264209e-01 -1.642899e-01 9.235402e-01 7.450132e-01 7.150701e-01 4.629150e-01 3.408650e-01 3.892831e-01 1.840488e-01 1.118529e-01 -7.259745e-03
<VARIANCE> 39
 2.610464e+01 3.123022e+01 4.741464e+01 3.737995e+01 4.465573e+01 3.905117e+01 4.096206e+01 6.263312e+01 5.981785e+01 4.305782e+01 4.117813e+01 2.749611e+01 3.717073e+01 6.675614e+00 2.715480e+00 3.278331e+00 2.928890e+00 6.533382e+00 6.559585e+00 5.518799e+00 6.339995e+00 5.089945e+00 5.002214e+00 7.219743e+00 4.407216e+00 3.297196e+00 4.089099e-01 5.750738e-01 4.720787e-01 7.190346e-01 6.538852e-01 7.153470e-01 6.954618e-01 1.035370e+00 8.302341e-01 7.800767e-01 8.183735e-01 5.369960e-01 5.624851e-01
<GCONST> 1.345902e+02
<TRANSP> 5
 0.000000e+00 1.000000e+00 0.000000e+00 0.000000e+00 0.000000e+00
 0.000000e+00 7.602873e-01 2.397126e-01 0.000000e+00 0.000000e+00
 0.000000e+00 0.000000e+00 7.730997e-01 2.269003e-01 0.000000e+00
 0.000000e+00 0.000000e+00 0.000000e+00 7.921162e-01 2.078838e-01
 0.000000e+00 0.000000e+00 0.000000e+00 0.000000e+00 0.000000e+00
<ENDHMM>
~o
<STREAMINFO> 1 39
<VECSIZE> 39<NULLD><MFCC_D_A_Z><DIAGC>
~h "d"
<BEGINHMM>
<NUMSTATES> 5
<STATE> 2
<NUMMIXES> 2
<MIXTURE> 1 2.879826e-01
<MEAN> 39
 6.018124e+00 -6.828205e-01 5.905206e+00 9.488162e-01 -6.321963e+00 1.800163e+00 -2.540622e+00 -5.261608e+00 -2.257093e+00 -1.188928e+00 -1.926624e+00 -2.293071e+00 8.164056e-01 2.015294e-01 9.579123e-01 -1.097419e-01 5.327703e-01 5.981321e-01 -1.410892e-01 4.421792e-01 1.609751e-01 -2.413237e-02 -5.290516e-02 -4.839787e-01 9.018866e-02 8.537821e-02 -9.511276e-02 5.257200e-02 -1.007112e-01 9.574028e-02 2.521340e-01 -1.749811e-01 3.922448e-02 1.546209e-01 1.993288e-02 1.934824e-02 8.825166e-04 3.697341e-02 -2.263586e-02
<VARIANCE> 39
 2.939435e+01 6.373271e+01 6.638489e+01 6.297828e+01 6.755981e+01 7.876763e+01 5.897918e+01 1.248795e+02 6.245526e+01 5.309513e+01 5.152565e+01 3.275471e+01 3.939193e+01 6.458356e-01 1.773154e+00 1.306663e+00 1.822226e+00 2.504668e+00 2.278720e+00 2.509132e+00 3.875619e+00 2.413319e+00 2.205291e+00 2.643797e+00 1.727942e+00 1.759203e+00 1.631460e-01 2.744879e-01 2.231105e-01 3.019567e-01 4.511718e-01 4.185982e-01 4.566209e-01 6.883982e-01 4.347428e-01 3.853733e-01 4.495251e-01 3.213754e-01 3.320684e-01
<GCONST> 1.195704e+02
<MIXTURE> 2 7.120174e-01
<MEAN> 39
 7.258744e+00 4.675097e+00 5.214855e+00 7.703378e+00 -1.118639e+00 -1.489024e+00 1.705471e-01 -3.384557e+00 -2.689269e+00 -4.839198e+00 -3.517073e+00 -3.466182e+00 -2.158742e+00 -1.347103e+00 4.809703e-01 -2.503754e-01 -2.009341e-01 1.569574e+00 -3.510380e-01 6.523133e-01 1.142517e+00 6.213203e-01 -4.679986e-02 3.115143e-01 7.149694e-02 1.942122e-01 -7.169014e-01 -7.930220e-01 -1.946885e-01 -8.363085e-01 -4.064037e-01 -1.765643e-01 -2.938299e-01 1.773194e-01 1.344954e-01 5.674358e-01 3.876652e-01 4.067205e-01 2.131477e-01
<VARIANCE> 39
 3.344692e+01 3.386631e+01 3.521134e+01 3.247970e+01 6.654130e+01 4.891896e+01 5.014982e+01 6.271608e+01 5.710593e+01 6.678498e+01 3.805655e+01 3.275308e+01 3.313678e+01 6.450092e+00 7.551004e+00 4.056651e+00 6.440286e+00 5.740308e+00 6.308619e+00 5.034842e+00 6.231133e+00 5.278965e+00 7.052866e+00 5.132257e+00 4.256121e+00 3.701294e+00 6.798139e-01 7.136257e-01 5.569500e-01 7.776671e-01 1.116246e+00 8.455122e-01 9.403727e-01 1.108627e+00 1.010874e+00 1.331764e+00 8.300052e-01 7.091770e-01 6.964786e-01
<GCONST> 1.407915e+02
<STATE> 3
<NUMMIXES> 2
<MIXTURE> 1 4.423607e-01
<MEAN> 39
 7.443898e+00 9.314078e+00 5.299837e+00 1.018249e+01 2.731146e+00 -3.919103e+00 9.311761e-01 -1.088031e-01 2.776307e-01 -2.636916e+00 -4.684247e+00 -1.506867e+00 9.640981e-02 -1.443177e+00 -7.423528e-02 -5.634382e-01 -4.810968e-01 1.036968e+00 1.414496e-01 4.498293e-01 3.790869e-01 -1.498346e-02 3.165092e-01 6.876205e-01 5.054565e-01 -9.194778e-02 -5.585034e-01 -8.539795e-01 -2.057897e-02 -6.195500e-01 -3.718430e-01 -3.008463e-02 -7.508528e-02 -9.678820e-02 -1.767402e-01 2.159208e-01 3.710891e-01 1.832074e-01 2.407907e-02
<VARIANCE> 39
 2.175618e+01 1.941996e+01 1.978697e+01 2.055403e+01 4.557566e+01 3.847458e+01 3.295403e+01 3.860687e+01 3.294172e+01 3.581496e+01 3.361637e+01 2.421129e+01 2.143608e+01 3.981764e+00 5.148566e+00 2.159828e+00 3.804496e+00 3.371595e+00 3.133344e+00 3.328692e+00 3.712389e+00 3.857300e+00 2.892231e+00 3.025400e+00 2.348969e+00 2.213293e+00 4.540986e-01 4.195370e-01 3.434037e-01 4.500778e-01 6.002646e-01 5.357047e-01 5.957307e-01 6.088363e-01 5.580577e-01 5.416250e-01 4.765437e-01 4.005500e-01 3.901810e-01
<GCONST> 1.208876e+02
<MIXTURE> 2 5.576393e-01
<MEAN> 39
 -5.412436e+00 -6.572682e-01 3.782161e+00 1.246165e+00 3.332862e+00 -4.829934e+00 2.412899e+00 1.541319e+00 -1.849315e+00 -1.668001e+00 9.711286e-01 1.393883e+00 -5.631676e-01 -1.938553e+00 -1.736897e+00 -4.295421e-03 -1.526961e+00 -8.770662e-01 -1.183253e+00 -5.964799e-01 6.920427e-01 3.274346e-01 6.373903e-01 9.404303e-01 9.573587e-01 6.882797e-01 1.112684e+00 3.194491e-01 5.891969e-02 3.995749e-01 -6.772580e-01 2.434723e-01 -4.631235e-01 -3.234905e-01 2.278494e-01 9.964778e-02 -3.759581e-01 -2.255998e-01 1.458749e-01
<VARIANCE> 39
 4.806835e+01 4.640704e+01 4.676653e+01 4.665157e+01 5.279216e+01 6.462581e+01 5.127448e+01 5.230460e+01 4.398073e+01 3.171376e+01 3.730936e+01 3.659500e+01 2.447114e+01 8.408164e+00 5.212187e+00 5.348599e+00 5.916308e+00 7.227604e+00 5.433804e+00 6.791288e+00 7.476875e+00 5.959636e+00 6.318875e+00 4.768993e+00 3.741919e+00 3.426313e+00 8.601587e-01 8.810978e-01 8.041863e-01 8.756366e-01 1.065433e+00 1.139261e+00 9.434006e-01 1.035080e+00 9.296456e-01 8.547959e-01 8.685504e-01 7.982674e-01 6.199315e-01
<GCONST> 1.418039e+02
<STATE> 4
<NUMMIXES> 2
<MIXTURE> 1 5.149435e-01
<MEAN> 39
 -3.233247e+00 3.789144e+00 -1.264835e+00 5.715974e+00 5.942632e+00 -1.851026e+00 4.699969e+00 4.078241e+00 2.004563e+00 6.389359e-01 -1.812938e-01 2.336929e+00 9.228703e-01 -2.758578e-01 8.321530e-02 -3.969117e-01 3.300821e-02 2.105922e-01 3.208825e-01 2.015432e-01 -9.913620e-02 3.628399e-02 1.504928e-01 1.887426e-01 5.500267e-02 -3.870390e-02 1.834940e-01 -1.548638e-01 1.329304e-01 -1.338371e-01 -2.241578e-01 -4.877239e-02 -1.731535e-01 -1.528614e-01 -1.247841e-01 -5.314906e-02 -3.857004e-02 -5.711975e-02 -2.431053e-02
<VARIANCE> 39
 6.242506e+01 3.571636e+01 2.959621e+01 2.803456e+01 2.985429e+01 4.014903e+01 3.152588e+01 4.462244e+01 3.461377e+01 2.609504e+01 3.800662e+01 2.370427e+01 1.926846e+01 2.950480e+00 2.710949e+00 2.075508e+00 2.080991e+00 2.386006e+00 2.400252e+00 2.660463e+00 3.307382e+00 2.798172e+00 2.204952e+00 2.402357e+00 1.868073e+00 1.658509e+00 5.408188e-01 5.016614e-01 3.612719e-01 4.078465e-01 4.598512e-01 4.433847e-01 4.890784e-01 5.958110e-01 5.199503e-01 4.330903e-01 4.562304e-01 3.689365e-01 3.264987e-01
<GCONST> 1.178681e+02
<MIXTURE> 2 4.850565e-01
<MEAN> 39
 1.173838e+00 -2.931334e+00 3.617499e+00 -9.833268e-01 -4.043695e+00 -5.880617e+00 -3.954570e+00 1.151529e+00 7.852002e-01 7.702689e-01 -6.870367e-01 9.798193e-01 1.634598e+00 5.447911e-01 -4.031259e-01 -5.227082e-01 -6.086261e-01 -8.296291e-01 7.209154e-01 -4.775036e-01 8.138935e-02 4.853328e-01 6.291007e-01 -2.822627e-01 -2.244397e-01 3.944362e-02 7.988019e-02 4.847743e-01 -1.958746e-01 3.257290e-01 4.439297e-01 5.168926e-01 4.217469e-01 -1.810485e-01 -2.091036e-01 -2.435433e-01 -1.676923e-01 -1.914897e-01 -2.466058e-01
<VARIANCE> 39
 2.796797e+01 4.437344e+01 6.825224e+01 5.816304e+01 6.500577e+01 7.000236e+01 7.884388e+01 9.468800e+01 6.952735e+01 6.248660e+01 5.705153e+01 4.612905e+01 4.467162e+01 3.574978e+00 4.874406e+00 4.496209e+00 5.561889e+00 7.122871e+00 5.629820e+00 6.858448e+00 6.770970e+00 5.265663e+00 5.975655e+00 5.819023e+00 4.532782e+00 3.499666e+00 6.353383e-01 7.310475e-01 6.424670e-01 8.888888e-01 9.596819e-01 1.000096e+00 1.193395e+00 1.262241e+00 1.006008e+00 1.147037e+00 9.648919e-01 7.918035e-01 7.288340e-01
<GCONST> 1.446597e+02
<TRANSP> 5
 0.000000e+00 1.000000e+00 0.000000e+00 0.000000e+00 0.000000e+00
 0.000000e+00 5.291131e-01 4.708869e-01 0.000000e+00 0.000000e+00
 0.000000e+00 0.000000e+00 6.102009e-01 3.897991e-01 0.000000e+00
 0.000000e+00 0.000000e+00 0.000000e+00 7.076180e-01 2.923820e-01
 0.000000e+00 0.000000e+00 0.000000e+00 0.000000e+00 0.000000e+00
<ENDHMM>
~o
<STREAMINFO> 1 39
<VECSIZE> 39<NULLD><MFCC_D_A_Z><DIAGC>
~h "dh"
<BEGINHMM>
<NUMSTATES> 5
<STATE> 2
<NUMMIXES> 2
<MIXTURE> 1 5.704569e-01
<MEAN> 39
 6.709588e+00 1.161810e+01 3.682127e+00 7.638721e+00 5.211663e+00 -1.999682e+00 2.099934e-01 -2.022128e+00 1.592042e-01 -2.698645e+00 -4.906645e+00 -3.395525e+00 -1.791826e+00 -1.170432e+00 -9.570888e-01 -2.294957e-01 -3.279987e-01 1.611544e-01 -8.339571e-01 -9.172119e-02 1.082348e-01 4.972497e-02 -1.839862e-01 5.666265e-01 5.567322e-02 -3.503230e-02 -6.303192e-01 -1.165752e+00 -2.818011e-01 -6.316633e-01 -6.494927e-01 -2.708040e-01 -2.415117e-01 1.445705e-01 2.656138e-01 3.019962e-01 4.925829e-01 4.226556e-01 2.526756e-01
<VARIANCE> 39
 3.075313e+01 1.820018e+01 1.657284e+01 2.276887e+01 4.194598e+01 2.957006e+01 3.413506e+01 3.083385e+01 2.831998e+01 4.764032e+01 2.687840e+01 2.750265e+01 2.101799e+01 5.840989e+00 5.184394e+00 2.004715e+00 3.125084e+00 4.025013e+00 4.252861e+00 4.456649e+00 3.524882e+00 3.317509e+00 3.581979e+00 3.988565e+00 3.290693e+00 2.488012e+00 6.955847e-01 4.441200e-01 4.081929e-01 5.112064e-01 9.758129e-01 6.460051e-01 9.577819e-01 7.104901e-01 7.609461e-01 8.576053e-01 5.901301e-01 5.702831e-01 5.207368e-01
<GCONST> 1.259228e+02
<MIXTURE> 2 4.295431e-01
<MEAN> 39
 -1.916310e+00 2.441397e+00 1.125465e+00 2.487570e+00 1.239691e+00 -2.296807e+00 4.682251e-01 -3.246408e+00 -9.782854e-02 -2.361059e+00 1.596797e+00 -1.432450e+00 -6.840021e-01 -9.365866e-01 -1.892475e+00 -3.909103e-01 -1.554340e+00 -1.526454e+00 -1.931987e+00 -9.801808e-01 -3.387395e-02 1.098820e-01 9.694183e-01 3.190310e-01 9.559307e-01 -2.465873e-01 5.727023e-01 -1.225204e-01 5.285391e-02 -3.063018e-01 -5.562041e-01 -7.064600e-02 -3.314570e-01 2.467016e-01 1.280306e-02 2.564349e-01 -4.500460e-01 2.356428e-01 -4.999226e-02
<VARIANCE> 39
 3.477456e+01 2.797265e+01 4.213400e+01 4.753600e+01 6.441112e+01 6.958996e+01 4.752741e+01 5.729036e+01 4.008536e+01 4.069171e+01 4.481829e+01 3.820160e+01 2.602940e+01 4.920713e+00 5.210360e+00 3.304302e+00 5.494587e+00 6.580863e+00 6.043078e+00 5.215147e+00 6.292483e+00 4.740105e+00 6.693746e+00 5.044672e+00 4.163714e+00 3.846430e+00 5.660435e-01 4.676336e-01 5.407866e-01 6.407579e-01 1.066634e+00 9.627981e-01 8.869322e-01 9.136930e-01 7.442732e-01 7.635225e-01 9.965425e-01 7.067171e-01 5.176544e-01
<GCONST> 1.375982e+02
<STATE> 3
<NUMMIXES> 2
<MIXTURE> 1 3.937085e-01
<MEAN> 39
 -3.927428e+00 1.162348e+00 -5.952792e-01 3.387278e+00 5.213467e+00 -5.586672e+00 3.069649e+00 2.160003e-01 -2.597061e-01 -2.451245e+00 -1.463988e+00 1.303742e+00 -2.389365e-02 3.062677e-02 -2.685701e+00 -2.205676e-01 -1.256674e+00 -2.544203e+00 -1.116751e+00 -2.404774e+00 2.490327e-01 1.437323e+00 -2.037344e-01 1.242282e+00 1.287068e-01 1.632977e+00 1.028119e+00 1.944972e-01 2.937195e-01 -1.854172e-01 -7.413492e-01 4.126193e-01 -9.404437e-01 -2.477105e-02 4.745583e-01 4.533151e-01 1.372626e-01 -3.908712e-01 1.043428e-01
<VARIANCE> 39
 2.572069e+01 2.630964e+01 3.053660e+01 2.592838e+01 3.484562e+01 3.367358e+01 3.882169e+01 2.977286e+01 2.605228e+01 2.439888e+01 2.086287e+01 1.874615e+01 1.788312e+01 5.739996e+00 5.048950e+00 4.495907e+00 3.953591e+00 6.740609e+00 4.760745e+00 7.387393e+00 4.727340e+00 6.061773e+00 3.511037e+00 4.134364e+00 3.003036e+00 2.724671e+00 6.774166e-01 6.141722e-01 7.102054e-01 6.221905e-01 8.595439e-01 1.048277e+00 1.013168e+00 8.365334e-01 8.292598e-01 5.957946e-01 5.822816e-01 4.756888e-01 4.631668e-01
<GCONST> 1.294199e+02
<MIXTURE> 2 6.062915e-01
<MEAN> 39
 1.582206e+00 -2.181195e+00 8.035805e-01 -5.870845e-01 -5.631599e+00 -8.934916e+00 -7.983745e+00 -1.681298e+00 5.013753e+00 -5.182639e-01 9.496057e-01 8.916326e-01 1.502416e+00 9.223911e-01 -2.326595e+00 -1.714367e-02 -2.239084e+00 -2.989066e+00 -5.128588e-01 -2.466077e+00 1.229368e+00 1.139379e+00 1.503185e+00 1.370885e-01 4.081795e-01 1.879598e-01 3.100011e-01 6.223379e-01 1.608297e-01 2.914967e-01 7.208204e-01 9.474816e-01 6.916249e-01 1.775374e-01 -5.190042e-01 6.639013e-02 -4.953253e-01 -3.587596e-01 -3.235273e-01
<VARIANCE> 39
 1.187179e+01 1.714490e+01 3.393014e+01 2.895219e+01 4.257613e+01 4.307926e+01 5.293600e+01 4.312292e+01 5.362136e+01 3.684004e+01 3.078543e+01 3.576685e+01 4.153890e+01 3.242810e+00 2.734217e+00 4.038351e+00 3.477926e+00 4.440340e+00 6.168952e+00 6.905639e+00 5.757687e+00 6.527304e+00 4.805484e+00 6.400785e+00 5.075438e+00 4.265681e+00 5.773366e-01 3.767408e-01 3.663699e-01 4.296649e-01 6.609622e-01 5.933890e-01 7.795217e-01 8.059954e-01 7.796260e-01 6.721340e-01 6.092360e-01 5.937760e-01 6.359695e-01
<GCONST> 1.307538e+02
<STATE> 4
<NUMMIXES> 2
<MIXTURE> 1 2.622434e-01
<MEAN> 39
 -2.964568e+00 2.006396e+00 -4.125344e+00 5.874939e+00 8.533930e+00 -3.089037e+00 5.016016e+00 4.906685e+00 4.265970e-01 1.735471e+00 -1.067839e+00 2.767917e+00 -1.927732e-01 -4.910897e-02 9.636161e-02 3.992916e-02 1.184087e-01 6.692243e-02 9.563181e-02 1.022815e-01 -5.860706e-02 -5.342999e-02 3.707091e-02 -1.114824e-02 -2.105003e-02 1.839292e-02 3.044403e-02 -2.033482e-02 3.531072e-02 -5.152566e-02 -5.514735e-02 2.532842e-02 -9.956679e-03 -4.688898e-02 1.089789e-02 7.981787e-03 -3.050417e-02 -2.355474e-02 2.206901e-02
<VARIANCE> 39
 6.700506e+00 3.007424e+01 1.594456e+01 1.628120e+01 1.619377e+01 1.930755e+01 2.459391e+01 3.570717e+01 2.564266e+01 2.241559e+01 2.242782e+01 1.786957e+01 1.482125e+01 2.869865e-01 8.984895e-01 9.241633e-01 1.065532e+00 1.247018e+00 1.501083e+00 1.780744e+00 1.944956e+00 1.821940e+00 1.795963e+00 1.854266e+00 1.465534e+00 1.343532e+00 6.926576e-02 1.578002e-01 1.662806e-01 2.055655e-01 2.416114e-01 2.888703e-01 3.378969e-01 3.585815e-01 3.452204e-01 3.497978e-01 3.652088e-01 2.874293e-01 2.631357e-01
<GCONST> 9.471931e+01
<MIXTURE> 2 7.377567e-01
<MEAN> 39
 1.726401e+00 -4.887751e+00 1.795064e-01 -4.344640e+00 -5.481218e+00 -6.006955e+00 -7.623992e+00 2.157288e+00 3.861493e+00 2.770140e+00 -1.500119e+00 -2.467846e-03 -1.769758e-01 5.177385e-01 -3.170363e-01 1.571730e-01 -4.989099e-01 2.765803e-01 9.308044e-01 1.413195e-01 2.776370e-01 -6.010062e-01 7.274769e-01 -5.158526e-01 -3.152382e-01 -1.952043e-01 -1.115251e-01 8.477629e-01 9.166352e-02 7.989407e-01 8.778163e-01 3.331825e-01 7.844517e-01 -4.505929e-01 -3.634647e-01 -4.899349e-01 2.262436e-02 -1.537745e-01 -4.270586e-02
<VARIANCE> 39
 2.010353e+01 2.810521e+01 4.482922e+01 3.704359e+01 5.300867e+01 6.681998e+01 7.769071e+01 6.408940e+01 6.685976e+01 4.955218e+01 4.834844e+01 4.585115e+01 5.016665e+01 1.647852e+00 3.055212e+00 2.269703e+00 3.410618e+00 4.163071e+00 3.895371e+00 4.537881e+00 4.936283e+00 3.656751e+00 3.502254e+00 3.861634e+00 3.210121e+00 2.450271e+00 5.543098e-01 4.671600e-01 5.188647e-01 5.721774e-01 7.482530e-01 9.146360e-01 1.234291e+00 1.015830e+00 1.033625e+00 8.155780e-01 9.217557e-01 8.380240e-01 7.656672e-01
<GCONST> 1.339463e+02
<TRANSP> 5
 0.000000e+00 1.000000e+00 0.000000e+00 0.000000e+00 0.000000e+00
 0.000000e+00 6.332675e-01 3.667325e-01 0.000000e+00 0.000000e+00
 0.000000e+00 0.000000e+00 5.412583e-01 4.587417e-01 0.000000e+00
 0.000000e+00 0.000000e+00 0.000000e+00 6.446741e-01 3.553259e-01
 0.000000e+00 0.000000e+00 0.000000e+00 0.000000e+00 0.000000e+00
<ENDHMM>
~o
<STREAMINFO> 1 39
<VECSIZE> 39<NULLD><MFCC_D_A_Z><DIAGC>
~h "eh"
<BEGINHMM>
<NUMSTATES> 5
<STATE> 2
<NUMMIXES> 2
<MIXTURE> 1 6.043297e-01
<MEAN> 39
 3.085478e+00 -8.129840e+00 4.854353e+00 1.488589e-01 -1.106198e+01 -7.930636e+00 -2.992644e+00 5.642398e+00 1.903637e+00 -1.779473e+00 4.255691e+00 -1.326337e+00 2.227164e+00 1.113761e-01 -1.274314e+00 5.547006e-01 -7.051665e-01 -1.815495e+00 5.530639e-02 2.070318e-01 1.255437e+00 -1.654579e-01 -3.511533e-01 8.077814e-01 -5.008466e-01 -2.820727e-01 -4.409838e-01 6.296424e-01 -2.569962e-01 1.347201e-01 8.392588e-01 3.188083e-01 3.669760e-01 -4.091825e-01 -2.725404e-01 1.944184e-01 -3.822470e-01 4.885479e-02 -1.635107e-01
<VARIANCE> 39
 1.831828e+01 3.425634e+01 5.138039e+01 2.875812e+01 6.570808e+01 4.691541e+01 5.876040e+01 5.917623e+01 5.177617e+01 3.578788e+01 4.517974e+01 2.707330e+01 2.190352e+01 1.793549e+00 3.211830e+00 3.028401e+00 2.119400e+00 5.127094e+00 3.122341e+00 4.691595e+00 4.747976e+00 3.618641e+00 2.937503e+00 3.372688e+00 2.250641e+00 2.037348e+00 6.910962e-01 5.312954e-01 5.319675e-01 4.307096e-01 8.858221e-01 6.441648e-01 8.773311e-01 1.049528e+00 6.931819e-01 5.540231e-01 6.738914e-01 4.758883e-01 3.778510e-01
<GCONST> 1.277276e+02
<MIXTURE> 2 3.956703e-01
<MEAN> 39
 -1.185069e+00 -8.370608e+00 4.079336e+00 -9.986752e+00 -1.065445e+01 -9.476731e+00 3.708727e+00 2.984649e+00 -3.069356e+00 5.999674e+00 -4.567960e+00 1.273286e+00 -7.118043e+00 -4.187052e-01 -1.174931e+00 1.318925e-01 -1.813276e+00 -5.376837e-01 6.602083e-01 1.822221e+00 9.388699e-01 -6.901215e-01 7.851069e-01 -9.560483e-01 -6.280168e-01 -1.141412e+00 -4.439707e-02 6.794152e-01 -1.535621e-01 9.304529e-01 6.793875e-01 6.707076e-01 -2.331414e-01 -4.695668e-01 2.786597e-01 -5.042831e-01 3.882322e-01 -3.099471e-01 6.415845e-01
<VARIANCE> 39
 1.046830e+01 1.690576e+01 2.599947e+01 2.123514e+01 2.222534e+01 2.201437e+01 2.670991e+01 4.360261e+01 3.094818e+01 3.933512e+01 2.729864e+01 2.541972e+01 2.727646e+01 9.201160e-01 1.467156e+00 1.685441e+00 2.369034e+00 2.343785e+00 2.297710e+00 2.455141e+00 3.109885e+00 2.629775e+00 3.033950e+00 3.077911e+00 2.006117e+00 2.397384e+00 3.167919e-01 2.232732e-01 2.701128e-01 3.276723e-01 4.137475e-01 5.124817e-01 6.514194e-01 7.252648e-01 4.525383e-01 6.540483e-01 5.988190e-01 4.735953e-01 4.258037e-01
<GCONST> 1.128397e+02
<STATE> 3
<NUMMIXES> 2
<MIXTURE> 1 6.049177e-01
<MEAN> 39
 2.233655e+00 -9.513694e+00 5.217319e+00 -1.411473e+00 -1.209799e+01 -6.875793e+00 -6.737911e-01 8.179441e+00 6.229190e-01 -1.429714e+00 3.477501e+00 -2.468428e+00 9.216507e-01 7.292669e-02 2.121537e-01 -2.356954e-01 2.866126e-02 4.117113e-01 9.950874e-02 1.613336e-03 5.918447e-02 -1.497885e-01 6.112373e-02 -4.755394e-01 -1.470831e-01 2.060605e-01 1.064793e-01 3.120724e-01 -2.641122e-02 2.080262e-01 4.479795e-01 3.235175e-02 -1.931773e-01 -4.154754e-01 -2.037616e-02 1.302355e-01 -2.236175e-01 5.034603e-02 1.274632e-01
<VARIANCE> 39
 9.855418e+00 2.409805e+01 5.783348e+01 2.417459e+01 7.001711e+01 3.971189e+01 5.229496e+01 6.876154e+01 5.448874e+01 3.497889e+01 5.004947e+01 2.599412e+01 1.720332e+01 4.845265e-01 1.081403e+00 1.482816e+00 1.163330e+00 1.902920e+00 1.675939e+00 2.660832e+00 2.381334e+00 2.498734e+00 1.665552e+00 1.832773e+00 1.453158e+00 1.307495e+00 1.091335e-01 2.413538e-01 2.456861e-01 2.201846e-01 4.385896e-01 3.364008e-01 4.453137e-01 6.335756e-01 3.770289e-01 3.490193e-01 4.163425e-01 2.735528e-01 2.356768e-01
<GCONST> 1.082770e+02
<MIXTURE> 2 3.950824e-01
<MEAN> 39
 -1.894251e+00 -9.279996e+00 4.330266e+00 -1.210624e+01 -1.095653e+01 -5.337701e+00 6.103508e+00 1.610138e+00 -4.269830e+00 6.088233e+00 -6.207644e+00 -1.137643e+00 -6.837143e+00 4.145776e-01 2.096968e-01 3.603135e-01 5.871325e-01 2.106399e-02 1.912641e-01 -4.807498e-01 -6.357024e-01 -2.814736e-01 -5.468765e-01 2.422542e-01 2.377226e-01 1.486675e-01 2.886705e-01 4.604039e-01 8.882542e-02 6.702589e-01 1.680221e-01 -1.198463e-01 -4.844090e-01 -4.057629e-01 1.016806e-01 -4.181930e-01 2.967961e-01 1.809975e-01 2.297281e-01
<VARIANCE> 39
 9.458720e+00 1.438611e+01 2.643247e+01 1.881445e+01 2.334353e+01 2.573982e+01 2.686147e+01 3.120218e+01 3.088535e+01 3.442293e+01 2.074924e+01 2.212548e+01 1.949764e+01 7.539248e-01 1.148966e+00 1.635019e+00 2.002837e+00 1.621600e+00 2.077879e+00 2.477333e+00 2.663378e+00 1.839359e+00 2.231629e+00 2.037159e+00 1.697681e+00 1.681255e+00 1.201809e-01 1.900806e-01 2.340710e-01 3.010476e-01 3.050268e-01 3.185017e-01 4.013465e-01 3.785307e-01 3.333736e-01 3.867832e-01 3.227620e-01 3.390245e-01 3.003447e-01
<GCONST> 1.032031e+02
<STATE> 4
<NUMMIXES> 2
<MIXTURE> 1 5.957293e-01
<MEAN> 39
 2.102129e+00 -8.938435e-01 5.339443e+00 1.125773e+00 -6.051697e+00 -6.637037e+00 1.609140e+00 -1.560739e+00 -2.862007e+00 -5.047690e-01 -1.162090e+00 8.159297e-01 -1.945865e+00 -1.041342e-01 2.255074e+00 -3.659119e-01 1.909761e+00 1.444980e+00 6.630950e-01 1.882118e-01 -9.202963e-01 2.463550e-01 -9.302627e-01 2.719444e-01 1.525346e-01 1.814584e-01 -3.612695e-01 -2.174880e-01 -2.994283e-01 -2.625262e-01 -1.298467e-02 1.822717e-01 8.219916e-02 3.789409e-01 1.861110e-01 1.382353e-01 1.167993e-01 -1.324544e-01 7.493729e-02
<VARIANCE> 39
 3.267699e+01 4.080506e+01 5.263676e+01 5.497219e+01 7.315403e+01 5.629697e+01 4.558310e+01 6.613181e+01 5.348883e+01 4.928079e+01 4.089681e+01 3.644136e+01 4.030876e+01 5.395515e+00 3.852367e+00 3.223587e+00 4.488347e+00 4.619068e+00 3.756290e+00 5.030584e+00 5.608080e+00 3.642748e+00 5.456888e+00 4.513506e+00 3.671405e+00 3.331696e+00 5.281029e-01 7.107769e-01 4.654143e-01 6.175075e-01 8.757727e-01 6.609157e-01 7.288814e-01 7.878382e-01 6.453702e-01 7.564809e-01 6.686797e-01 5.937924e-01 4.909063e-01
<GCONST> 1.352776e+02
<MIXTURE> 2 4.042706e-01
<MEAN> 39
 5.181609e+00 -8.047623e+00 3.613004e+00 -6.485466e-01 -6.677639e+00 -5.156672e+00 -6.939210e+00 4.522023e+00 9.000954e-01 -2.652056e-01 1.577797e-01 -3.881695e+00 4.204714e+00 8.840983e-01 1.832881e+00 7.509674e-02 1.253992e+00 1.866849e+00 1.178542e+00 -6.985263e-01 -3.521980e+00 -4.697231e-01 9.498988e-01 -9.552727e-01 -4.337956e-01 3.002318e-01 -1.480974e-01 4.550510e-01 5.298841e-02 1.386724e-01 -8.496997e-02 1.711380e-01 5.292293e-01 -4.631679e-01 -8.452186e-02 7.861517e-02 2.687111e-02 1.422933e-01 -4.253828e-01
<VARIANCE> 39
 9.899031e+00 2.061748e+01 4.668131e+01 3.307051e+01 5.232812e+01 5.784340e+01 5.777023e+01 9.273695e+01 6.699795e+01 4.771261e+01 4.762887e+01 3.723177e+01 2.660455e+01 9.228209e-01 1.952787e+00 2.677648e+00 3.114788e+00 4.128489e+00 5.159086e+00 5.443540e+00 7.692021e+00 4.369472e+00 3.742015e+00 5.267333e+00 3.230556e+00 3.109485e+00 1.900650e-01 3.284255e-01 3.523198e-01 4.065717e-01 6.724058e-01 7.005708e-01 6.825035e-01 1.562991e+00 8.104065e-01 6.087660e-01 6.889837e-01 5.143451e-01 4.098834e-01
<GCONST> 1.279960e+02
<TRANSP> 5
 0.000000e+00 1.000000e+00 0.000000e+00 0.000000e+00 0.000000e+00
 0.000000e+00 4.648696e-01 5.351304e-01 0.000000e+00 0.000000e+00
 0.000000e+00 0.000000e+00 7.900670e-01 2.099330e-01 0.000000e+00
 0.000000e+00 0.000000e+00 0.000000e+00 7.228527e-01 2.771473e-01
 0.000000e+00 0.000000e+00 0.000000e+00 0.000000e+00 0.000000e+00
<ENDHMM>
~o
<STREAMINFO> 1 39
<VECSIZE> 39<NULLD><MFCC_D_A_Z><DIAGC>
~h "er"
<BEGINHMM>
<NUMSTATES> 5
<STATE> 2
<NUMMIXES> 2
<MIXTURE> 1 2.749433e-01
<MEAN> 39
 4.234860e+00 -6.720925e+00 -3.328796e+00 -6.878563e+00 -1.989609e+00 -1.538736e+00 -8.622318e+00 3.476449e+00 5.378829e+00 4.672776e+00 -2.442876e+00 -1.998568e+00 -1.341702e-01 2.516108e-01 -8.564462e-01 -4.432835e-01 -6.033802e-01 5.779935e-02 5.229324e-01 -7.564489e-01 7.047584e-01 7.012457e-01 4.997149e-01 -6.892408e-01 -7.301982e-01 -4.969757e-02 -4.113865e-01 4.480880e-01 1.273996e-01 3.988521e-01 4.161135e-01 8.321098e-02 5.272236e-01 -2.080423e-01 -1.961592e-01 -3.134396e-01 1.496410e-01 3.085118e-02 7.051310e-03
<VARIANCE> 39
 2.036686e+01 2.610251e+01 4.715068e+01 4.537152e+01 5.767073e+01 9.170691e+01 6.759395e+01 6.230572e+01 6.051789e+01 6.455132e+01 6.643874e+01 5.200270e+01 4.402507e+01 1.430240e+00 2.318802e+00 2.737678e+00 3.257580e+00 4.468919e+00 4.300774e+00 4.131146e+00 4.343228e+00 3.819031e+00 3.820949e+00 4.347353e+00 3.119216e+00 2.595469e+00 5.482752e-01 4.655244e-01 4.757776e-01 5.908011e-01 7.629891e-01 8.240327e-01 9.099531e-01 8.352802e-01 7.590921e-01 7.244467e-01 8.606151e-01 6.728572e-01 5.674809e-01
<GCONST> 1.331306e+02
<MIXTURE> 2 7.250566e-01
<MEAN> 39
 4.054266e+00 -7.456874e+00 -4.665571e+00 -9.093007e+00 -1.804434e-01 1.731967e+00 -8.900266e+00 4.854053e+00 8.576285e+00 5.391371e+00 -3.262177e+00 -5.513810e+00 -1.313327e+00 -6.282368e-02 -7.910356e-02 -1.872402e-01 4.835942e-02 2.449933e-01 -2.016170e-02 -6.642470e-02 2.140158e-01 2.005513e-01 -7.652056e-03 -2.702883e-01 -2.740546e-01 5.131507e-02 3.592362e-02 1.521807e-01 1.248422e-01 2.030787e-01 -4.723208e-03 -1.175421e-01 -1.215675e-03 -1.405029e-01 -1.983579e-01 -9.126347e-02 8.603730e-02 1.718336e-01 9.658841e-02
<VARIANCE> 39
 1.155835e+01 1.928847e+01 3.674605e+01 3.707833e+01 6.509666e+01 6.782156e+01 5.342521e+01 5.218429e+01 5.215229e+01 6.518781e+01 5.433091e+01 3.818642e+01 2.809832e+01 3.537245e-01 7.069184e-01 7.853842e-01 1.106322e+00 1.284126e+00 1.684511e+00 1.654095e+00 1.708148e+00 1.843776e+00 1.781179e+00 1.635968e+00 1.490518e+00 1.206859e+00 6.280867e-02 1.162667e-01 1.434764e-01 1.742092e-01 2.370342e-01 2.247489e-01 2.945803e-01 2.924438e-01 3.018457e-01 3.053444e-01 2.745033e-01 2.346494e-01 1.970087e-01
<GCONST> 1.015400e+02
<STATE> 3
<NUMMIXES> 2
<MIXTURE> 1 5.356777e-01
<MEAN> 39
 2.119821e+00 -7.582611e+00 -6.030906e+00 -7.286702e+00 5.412475e-01 -5.159091e+00 -4.542002e+00 5.082398e+00 4.083691e+00 4.702859e+00 -9.047230e+00 -5.220796e-01 -1.739326e+00 1.793727e-01 7.856359e-01 7.408445e-01 1.789921e+00 -6.698754e-01 -6.559184e-01 6.482807e-01 -6.703050e-01 -8.293049e-01 -1.262256e+00 1.003074e+00 6.931524e-01 -6.166043e-03 3.262998e-02 4.779555e-01 2.764916e-01 5.163343e-01 7.575657e-02 1.773656e-01 7.483023e-02 -3.501385e-01 -2.518603e-01 -3.743443e-01 5.520201e-01 -1.311115e-01 -1.791472e-03
<VARIANCE> 39
 1.496645e+01 2.649154e+01 3.450400e+01 3.399593e+01 6.951031e+01 5.506855e+01 4.731328e+01 3.845373e+01 6.593697e+01 8.098215e+01 4.124671e+01 4.169450e+01 3.456729e+01 1.027029e+00 1.878474e+00 2.087212e+00 2.872371e+00 4.540511e+00 3.717970e+00 3.501645e+00 3.424027e+00 3.496837e+00 3.640323e+00 4.228113e+00 3.032603e+00 2.700108e+00 2.084622e-01 3.257240e-01 2.730700e-01 3.881444e-01 6.440685e-01 5.494950e-01 5.517302e-01 5.558929e-01 6.246005e-01 6.467388e-01 6.561219e-01 5.282392e-01 5.029183e-01
<GCONST> 1.240979e+02
<MIXTURE> 2 4.643223e-01
<MEAN> 39
 6.579384e+00 -6.984299e+00 -1.339040e+00 -4.107366e+00 -3.340061e+00 1.339615e+00 -1.673110e+01 3.926387e+00 7.461917e+00 2.772896e+00 1.797815e+00 -6.122880e+00 3.477262e+00 5.340905e-02 1.427316e+00 5.901526e-01 1.115000e+00 1.455477e+00 -7.312928e-01 7.294115e-01 -9.593893e-01 -9.749734e-01 -1.162880e-01 -5.522336e-01 8.970333e-01 5.978576e-02 -3.093750e-01 5.415140e-01 2.030217e-02 2.084970e-01 3.927415e-01 -1.463550e-01 1.021175e+00 -2.787117e-01 -1.873796e-01 -4.704099e-02 -2.855882e-01 3.089141e-01 -4.078147e-01
<VARIANCE> 39
 1.049728e+01 2.437971e+01 4.453834e+01 3.126882e+01 4.696399e+01 5.931835e+01 4.718399e+01 6.988526e+01 5.105932e+01 4.780301e+01 3.838052e+01 3.612565e+01 3.530851e+01 1.413821e+00 2.252521e+00 2.559127e+00 2.521081e+00 4.063744e+00 4.754900e+00 6.292290e+00 6.150057e+00 4.627162e+00 3.958365e+00 3.761513e+00 3.194415e+00 3.120656e+00 3.394716e-01 3.605224e-01 3.803913e-01 4.288688e-01 6.933054e-01 6.341716e-01 7.868623e-01 9.844092e-01 7.568107e-01 6.626332e-01 5.826249e-01 5.520378e-01 5.065095e-01
<GCONST> 1.277692e+02
<STATE> 4
<NUMMIXES> 2
<MIXTURE> 1 4.343644e-01
<MEAN> 39
 -2.138121e+00 3.234903e+00 -2.906490e+00 3.072691e+00 7.090612e+00 -2.962633e+00 2.298816e+00 4.046135e+00 3.819247e+00 2.831759e+00 -2.229686e+00 8.847523e-01 5.697851e-02 -9.925995e-01 2.286837e-01 -4.227607e-02 4.688543e-01 1.207927e-01 1.655319e-01 1.119153e+00 2.013123e-01 -4.093570e-01 -1.979177e-01 4.725182e-01 3.903714e-01 -2.298198e-02 9.355929e-02 -4.009142e-01 -7.574934e-02 -3.348250e-01 -2.989010e-01 6.551530e-02 -3.660281e-01 2.412952e-02 1.090096e-02 2.081523e-02 3.467489e-02 -7.035907e-02 6.156947e-02
<VARIANCE> 39
 4.553749e+01 3.211147e+01 2.940874e+01 3.194162e+01 3.688000e+01 4.758643e+01 4.268390e+01 3.904211e+01 4.182251e+01 3.135767e+01 3.587400e+01 2.301039e+01 2.066435e+01 4.103690e+00 2.898011e+00 2.484709e+00 2.861126e+00 3.116514e+00 3.247583e+00 4.572981e+00 3.489451e+00 3.950339e+00 3.457712e+00 2.897863e+00 2.246349e+00 2.224570e+00 4.247630e-01 5.169283e-01 4.315192e-01 4.904526e-01 5.847496e-01 5.532949e-01 6.336241e-01 5.677246e-01 6.236278e-01 5.371987e-01 5.172166e-01 4.112034e-01 3.727593e-01
<GCONST> 1.235830e+02
<MIXTURE> 2 5.656356e-01
<MEAN> 39
 4.960804e+00 -4.556266e-01 -1.967209e-01 2.013508e+00 -1.855718e-02 -4.254229e+00 -5.001505e+00 -2.016037e+00 -3.124548e-01 -1.492152e+00 -1.527049e+00 -7.266963e-01 -1.172089e+00 -7.682068e-01 2.235234e+00 8.328648e-01 1.805746e+00 1.071180e+00 4.464295e-01 1.704139e+00 -6.521543e-01 -5.345787e-01 -9.501979e-01 4.581483e-01 -9.179958e-02 -6.464702e-02 -5.037937e-01 -2.298666e-01 -2.600642e-01 -4.308939e-01 -4.816021e-02 3.117364e-01 1.181049e-01 5.128934e-01 3.825689e-01 4.066345e-01 4.461253e-03 -1.016382e-01 1.346864e-01
<VARIANCE> 39
 2.856154e+01 4.039648e+01 5.011411e+01 5.454683e+01 8.755386e+01 9.197107e+01 5.523652e+01 5.793253e+01 6.386178e+01 7.073633e+01 4.833242e+01 4.612986e+01 3.877162e+01 4.906148e+00 3.919259e+00 3.042117e+00 4.912217e+00 5.444400e+00 5.392134e+00 5.989321e+00 5.893073e+00 5.206084e+00 5.845922e+00 5.254673e+00 4.381489e+00 3.619331e+00 4.795161e-01 6.078857e-01 4.119819e-01 7.220808e-01 1.033001e+00 9.495944e-01 8.207693e-01 8.838930e-01 8.977046e-01 9.561606e-01 8.538849e-01 7.527766e-01 6.093097e-01
<GCONST> 1.400558e+02
<TRANSP> 5
 0.000000e+00 1.000000e+00 0.000000e+00 0.000000e+00 0.000000e+00
 0.000000e+00 8.343915e-01 1.656085e-01 0.000000e+00 0.000000e+00
 0.000000e+00 0.000000e+00 6.885048e-01 3.114952e-01 0.000000e+00
