~o
<STREAMINFO> 1 39
<VECSIZE> 39<NULLD><MFCC_D_A_Z><DIAGC>
~h "a"
<BEGINHMM>
<NUMSTATES> 5
<STATE> 2
<MEAN> 39
 1.783767e+00 -2.436325e+00 5.380673e-01 -1.623449e+00 -1.048283e+00 1.021113e+00 6.282323e-01 -3.129659e+00 -1.656510e+00 -2.137634e-01 1.321499e+00 2.293049e-01 -1.017492e-01 2.185222e+00 -3.251760e-01 -2.180942e+00 -1.670598e+00 -9.163377e-01 -3.279361e+00 -5.369023e-01 4.176411e-01 -1.687202e+00 -8.426083e-01 1.099097e+00 7.836304e-02 -1.355462e+00 -7.826266e-02 8.507457e-02 -4.168777e-01 -2.435659e-01 7.477458e-02 -3.596519e-01 -7.315134e-02 3.287564e-01 3.105218e-02 -3.120530e-02 1.057602e-01 1.332917e-02 -2.096898e-01
<VARIANCE> 39
 3.116125e+01 3.276577e+01 4.176966e+01 4.189561e+01 3.737719e+01 7.941180e+01 5.408126e+01 6.048036e+01 5.111644e+01 5.075597e+01 3.311210e+01 3.291199e+01 2.872264e+01 6.224993e+00 5.595817e+00 3.746271e+00 4.863582e+00 3.852872e+00 6.696358e+00 5.470968e+00 4.394598e+00 6.122514e+00 6.933405e+00 4.486658e+00 3.411334e+00 3.743053e+00 6.244571e-01 7.199447e-01 5.554959e-01 6.860564e-01 5.411959e-01 1.485419e+00 8.026631e-01 6.582292e-01 8.520565e-01 7.734357e-01 6.124879e-01 4.535179e-01 5.918754e-01
<GCONST> 1.362112e+02
<STATE> 3
<MEAN> 39
 6.541904e+00 -4.104122e+00 -8.670575e+00 -7.614830e+00 -3.357283e+00 -4.706755e+00 2.918941e+00 3.587646e+00 -3.142798e+00 -3.957271e+00 3.079722e+00 1.651204e+00 -3.882096e+00 7.082141e-01 -4.021527e-01 -1.493207e+00 -9.398652e-01 -3.230507e-02 -1.264172e+00 -2.003233e-01 4.926118e-01 -4.438303e-01 -2.049126e-01 6.886746e-01 1.943077e-01 -6.987279e-01 -4.605949e-01 2.818504e-01 6.083575e-01 4.661340e-01 3.040911e-01 6.883682e-01 -8.647857e-02 -2.775537e-01 3.295664e-01 3.060859e-01 -2.371957e-01 -1.028105e-01 3.153215e-01
<VARIANCE> 39
 1.011359e+01 1.971767e+01 4.324472e+01 3.480526e+01 3.875189e+01 3.915205e+01 5.942884e+01 7.568868e+01 4.662122e+01 5.230845e+01 3.523318e+01 2.864557e+01 2.338591e+01 1.614041e+00 2.200571e+00 2.959059e+00 2.675823e+00 2.749382e+00 5.496774e+00 3.686328e+00 3.757689e+00 3.555351e+00 3.833552e+00 3.132754e+00 2.288933e+00 2.245271e+00 3.854117e-01 3.901907e-01 3.879342e-01 4.643816e-01 5.133961e-01 9.281481e-01 6.595870e-01 6.239457e-01 6.986184e-01 7.977325e-01 5.720944e-01 4.390216e-01 4.451733e-01
<GCONST> 1.239520e+02
<STATE> 4
<MEAN> 39
 4.611833e+00 -2.928340e+00 -5.823662e+00 -6.259791e+00 -1.707314e+00 -6.362947e+00 -1.902213e+00 -2.148448e+00 -4.116344e+00 -3.803353e-01 4.662948e+00 1.659178e-01 -4.093599e+00 -2.713926e-01 8.189939e-01 5.449945e-01 4.520006e-01 3.251244e-01 3.670520e-01 -2.291323e-01 -3.559354e-01 1.013484e-01 3.429291e-01 -2.417839e-01 -4.287302e-02 3.297367e-01 -2.765173e-01 3.954217e-01 6.528122e-01 5.916167e-01 1.660174e-01 8.692233e-01 2.296880e-01 -6.959137e-02 1.978370e-01 -4.454451e-02 -5.043721e-01 -5.753893e-02 3.636382e-01
<VARIANCE> 39
 1.476246e+01 2.581593e+01 3.656111e+01 3.882287e+01 4.357375e+01 4.968624e+01 5.277485e+01 5.435188e+01 4.828149e+01 4.680616e+01 3.154142e+01 3.391386e+01 2.564054e+01 1.258546e+00 2.044579e+00 2.997361e+00 2.413991e+00 2.363470e+00 5.031017e+00 3.476744e+00 3.461574e+00 3.450245e+00 3.724611e+00 2.414681e+00 2.427999e+00 1.952339e+00 2.528059e-01 4.368166e-01 5.533431e-01 5.061408e-01 5.066554e-01 1.092499e+00 6.439155e-01 5.560976e-01 8.318392e-01 7.043520e-01 5.664861e-01 4.738254e-01 4.080327e-01
<GCONST> 1.235003e+02
<TRANSP> 5
 0.000000e+00 1.000000e+00 0.000000e+00 0.000000e+00 0.000000e+00
 0.000000e+00 3.525065e-01 6.474934e-01 0.000000e+00 0.000000e+00
 0.000000e+00 0.000000e+00 5.594684e-01 4.405315e-01 0.000000e+00
 0.000000e+00 0.000000e+00 0.000000e+00 5.461940e-01 4.538060e-01
 0.000000e+00 0.000000e+00 0.000000e+00 0.000000e+00 0.000000e+00
<ENDHMM>
~o
<STREAMINFO> 1 39
<VECSIZE> 39<NULLD><MFCC_D_A_Z><DIAGC>
~h "aa"
<BEGINHMM>
<NUMSTATES> 5
<STATE> 2
<MEAN> 39
 4.568645e+00 -3.249712e+00 -5.093450e+00 -5.741966e+00 -3.429685e+00 -3.946470e+00 2.060927e+00 1.697577e+00 -8.152441e-01 -1.267333e-01 3.069408e+00 -1.254279e-01 -3.764826e+00 1.466642e+00 -7.643691e-01 -2.581406e+00 -1.896827e+00 -6.829929e-01 -1.351235e+00 7.256450e-01 1.403842e+00 -2.653877e-01 -6.763009e-01 3.739645e-01 1.423775e-01 -1.394374e+00 -2.646390e-01 -4.566848e-02 9.441710e-03 2.326340e-01 3.433973e-01 6.048855e-01 1.480369e-01 1.447694e-01 2.314795e-01 -1.696524e-01 -2.787115e-01 1.109298e-01 1.563591e-01
<VARIANCE> 39
 2.102663e+01 2.419520e+01 4.280736e+01 4.352384e+01 4.303584e+01 7.223458e+01 5.785606e+01 7.000531e+01 3.843761e+01 6.071394e+01 3.986659e+01 3.101789e+01 3.212446e+01 3.236281e+00 2.709824e+00 2.323030e+00 3.193387e+00 2.984370e+00 8.373528e+00 4.665264e+00 3.204535e+00 4.457713e+00 5.313381e+00 3.837290e+00 2.755006e+00 2.823101e+00 4.476640e-01 4.643659e-01 6.076205e-01 6.949396e-01 5.401983e-01 1.303843e+00 6.796186e-01 6.049404e-01 6.752723e-01 8.538294e-01 5.843764e-01 3.876852e-01 5.938834e-01
<GCONST> 1.305631e+02
<STATE> 3
<MEAN> 39
 7.892267e+00 -5.796915e+00 -1.326978e+01 -9.353868e+00 -2.937037e+00 -1.841359e+00 6.690984e+00 8.546010e+00 6.209227e-01 -6.578413e+00 1.433988e-01 2.726326e+00 -5.320481e+00 1.309224e-01 -2.511947e-01 -4.633116e-01 1.591825e-02 4.160476e-01 3.375677e-01 -1.936675e-01 8.124066e-02 2.368757e-01 -3.529932e-01 -1.586515e-01 2.696573e-01 1.561504e-02 -1.172079e-01 1.858567e-01 3.726638e-01 1.626579e-01 1.386627e-02 -1.246202e-01 -3.289009e-01 -3.704278e-01 -6.220351e-02 3.307913e-01 1.491874e-01 -1.840436e-01 6.139518e-02
<VARIANCE> 39
 6.195013e+00 1.117954e+01 1.348489e+01 2.196900e+01 2.962732e+01 2.332843e+01 3.455015e+01 4.958089e+01 3.581808e+01 5.117583e+01 3.729951e+01 2.387444e+01 2.009055e+01 2.933989e-01 6.940938e-01 9.271134e-01 7.468295e-01 1.231492e+00 1.524923e+00 1.808078e+00 1.881529e+00 1.453875e+00 2.252633e+00 1.459701e+00 1.355671e+00 1.068114e+00 6.479145e-02 1.118546e-01 1.725267e-01 1.760110e-01 1.904132e-01 3.318791e-01 2.537353e-01 2.597710e-01 3.010003e-01 3.334681e-01 2.473609e-01 2.371763e-01 2.263386e-01
<GCONST> 9.420377e+01
<STATE> 4
<MEAN> 39
 6.237547e+00 -5.320595e+00 -1.114587e+01 -8.581545e+00 -1.743679e+00 -2.307076e+00 9.900565e-01 2.693648e+00 1.090865e+00 -2.254745e+00 2.114896e+00 7.618156e-01 -6.150745e+00 -6.536465e-01 9.039387e-01 1.548553e+00 7.896236e-01 2.619931e-01 -3.211757e-01 -1.234020e+00 -1.679149e+00 -2.597899e-01 1.660457e+00 6.675515e-01 -6.607505e-01 3.623343e-01 -1.826908e-01 3.240190e-01 5.499209e-01 4.299001e-01 4.897809e-02 1.819770e-01 8.954522e-02 -1.372265e-01 -1.798165e-01 -4.197224e-02 -1.670346e-01 1.329565e-02 2.806269e-01
<VARIANCE> 39
 1.377582e+01 2.478895e+01 2.939948e+01 2.671572e+01 3.833398e+01 3.301624e+01 4.130139e+01 5.634875e+01 3.447984e+01 5.294475e+01 3.562229e+01 2.712526e+01 2.737169e+01 1.185664e+00 1.761408e+00 2.373355e+00 1.640034e+00 2.043567e+00 3.835327e+00 2.787263e+00 3.034483e+00 3.386081e+00 2.909578e+00 2.279786e+00 2.132787e+00 2.074630e+00 1.954653e-01 3.818534e-01 4.639818e-01 3.087125e-01 3.627391e-01 7.428901e-01 4.371826e-01 4.997868e-01 5.849615e-01 6.044369e-01 4.190635e-01 3.480282e-01 3.428453e-01
<GCONST> 1.162477e+02
<TRANSP> 5
 0.000000e+00 1.000000e+00 0.000000e+00 0.000000e+00 0.000000e+00
 0.000000e+00 7.502615e-01 2.497385e-01 0.000000e+00 0.000000e+00
 0.000000e+00 0.000000e+00 8.422524e-01 1.577476e-01 0.000000e+00
 0.000000e+00 0.000000e+00 0.000000e+00 6.132107e-01 3.867894e-01
 0.000000e+00 0.000000e+00 0.000000e+00 0.000000e+00 0.000000e+00
<ENDHMM>
~o
<STREAMINFO> 1 39
<VECSIZE> 39<NULLD><MFCC_D_A_Z><DIAGC>
~h "ai"
<BEGINHMM>
<NUMSTATES> 5
<STATE> 2
<MEAN> 39
 5.105288e+00 -4.518906e+00 -6.889744e+00 -7.167399e+00 -3.960626e+00 -1.075723e+00 4.081203e+00 3.031577e+00 -1.499940e-01 -1.248879e+00 3.622099e+00 1.449372e+00 -3.138794e+00 1.685637e+00 -5.874867e-01 -1.731132e+00 -4.830833e-01 4.883647e-02 -2.222874e+00 -1.015204e+00 5.140812e-01 -3.438226e-01 -1.591092e-01 5.865530e-01 -3.761905e-01 -1.652899e+00 -5.380687e-01 4.195451e-03 3.684602e-01 3.010656e-01 3.614118e-01 2.885960e-01 -2.662900e-01 -2.756766e-01 3.961810e-01 4.732390e-01 -4.831697e-02 -1.204786e-01 1.528762e-01
<VARIANCE> 39
 3.081811e+01 2.554178e+01 6.205936e+01 3.338754e+01 3.460907e+01 6.889755e+01 4.642711e+01 6.483981e+01 3.340606e+01 4.788363e+01 3.365213e+01 2.714862e+01 3.482202e+01 4.857110e+00 3.365454e+00 4.151446e+00 3.018196e+00 4.021602e+00 8.644645e+00 3.743725e+00 4.269867e+00 4.451571e+00 5.107331e+00 3.319142e+00 2.813754e+00 3.328867e+00 5.686605e-01 5.980957e-01 8.734505e-01 5.433898e-01 6.447436e-01 1.536916e+00 5.787266e-01 7.117817e-01 6.562563e-01 6.520975e-01 5.038502e-01 4.551054e-01 6.870662e-01
<GCONST> 1.323003e+02
<STATE> 3
<MEAN> 39
 5.303292e+00 -6.105175e+00 -4.948734e+00 -3.469320e+00 1.045702e-02 -9.656472e+00 -5.907349e+00 -1.004114e+00 2.032135e+00 4.133428e+00 5.288888e+00 -2.415049e+00 -6.126205e+00 -7.419118e-01 4.680322e-01 2.091651e+00 1.829214e+00 6.570859e-01 -1.991773e+00 -1.894693e+00 -8.165969e-01 -2.435567e-01 -3.142085e-01 -7.781480e-01 -6.222304e-01 6.326168e-01 -1.138993e-01 1.841093e-01 3.058378e-01 2.953520e-01 -3.623351e-02 6.345616e-02 2.187800e-01 2.215061e-01 -3.126094e-01 -7.366137e-01 -4.164738e-01 1.303467e-01 2.824836e-01
<VARIANCE> 39
 8.492824e+00 1.038841e+01 3.062459e+01 3.210588e+01 3.067302e+01 3.526626e+01 3.538711e+01 2.380167e+01 2.252720e+01 3.111721e+01 2.693416e+01 2.146592e+01 1.757955e+01 3.648998e-01 6.557625e-01 1.335977e+00 1.350486e+00 1.436960e+00 2.063442e+00 1.844607e+00 2.171845e+00 2.136268e+00 4.782594e+00 2.077514e+00 1.556509e+00 1.594792e+00 7.203981e-02 1.128327e-01 2.933146e-01 1.870825e-01 2.466685e-01 5.475161e-01 3.537114e-01 3.368150e-01 3.156250e-01 4.243123e-01 2.903444e-01 2.618885e-01 2.728925e-01
<GCONST> 1.004183e+02
<STATE> 4
<MEAN> 39
 -4.933270e-02 -2.139326e+00 7.418021e+00 7.941628e+00 2.518459e+00 -1.287671e+01 -1.006667e+01 -1.551381e+00 -1.122277e+00 -6.317365e+00 -4.349451e+00 -3.651617e+00 -1.394997e+00 -4.879382e-01 6.370534e-01 6.866723e-01 6.606630e-01 2.347783e-01 1.415860e+00 5.859014e-01 -2.487786e-02 -8.178944e-02 -4.130281e-01 -8.024162e-01 -8.231279e-02 3.352444e-01 7.256228e-02 4.217799e-02 -3.229315e-01 -4.061822e-01 -1.163441e-01 6.289222e-01 3.558623e-01 -1.142059e-01 1.758839e-01 5.438728e-01 2.915567e-01 5.394386e-02 -1.195651e-01
<VARIANCE> 39
 1.290216e+01 2.171982e+01 2.544394e+01 3.041593e+01 3.503234e+01 5.436203e+01 2.896464e+01 2.220368e+01 2.645248e+01 3.750576e+01 2.542944e+01 2.255441e+01 1.711402e+01 9.779021e-01 2.063722e+00 2.996112e+00 2.953649e+00 1.745564e+00 4.984934e+00 2.536429e+00 2.083228e+00 2.609092e+00 6.239610e+00 2.645574e+00 1.880152e+00 1.590479e+00 1.672753e-01 4.389000e-01 3.053409e-01 3.554199e-01 3.216337e-01 6.678417e-01 4.460743e-01 3.801980e-01 4.454372e-01 7.349659e-01 4.132655e-01 3.635325e-01 3.041702e-01
<GCONST> 1.132959e+02
<TRANSP> 5
 0.000000e+00 1.000000e+00 0.000000e+00 0.000000e+00 0.000000e+00
 0.000000e+00 8.172811e-01 1.827189e-01 0.000000e+00 0.000000e+00
 0.000000e+00 0.000000e+00 8.133860e-01 1.866141e-01 0.000000e+00
 0.000000e+00 0.000000e+00 0.000000e+00 8.569585e-01 1.430415e-01
 0.000000e+00 0.000000e+00 0.000000e+00 0.000000e+00 0.000000e+00
<ENDHMM>
~o
<STREAMINFO> 1 39
<VECSIZE> 39<NULLD><MFCC_D_A_Z><DIAGC>
~h "au"
<BEGINHMM>
<NUMSTATES> 5
<STATE> 2
<MEAN> 39
 9.651304e-01 -5.017711e+00 -2.318508e+00 -8.403522e+00 -4.582757e+00 4.042396e-01 5.439770e+00 2.261202e+00 -7.177141e-01 -3.391751e-01 3.774638e+00 1.747506e+00 -1.362464e+00 3.487703e+00 5.639094e-01 -3.013603e+00 -7.484757e-01 -1.830468e+00 -2.951956e+00 9.392078e-01 2.167864e+00 -1.553239e+00 -2.273715e+00 -1.803550e-01 -2.413979e-01 -1.901689e+00 -6.515274e-01 6.350673e-02 2.090839e-01 -2.683299e-02 2.058812e-01 1.777726e-01 -2.025558e-03 3.289153e-01 4.861001e-01 4.400159e-02 -2.059300e-01 -9.248599e-03 2.307759e-01
<VARIANCE> 39
 7.434936e+01 2.646812e+01 6.639594e+01 2.710631e+01 4.431873e+01 7.914219e+01 4.132433e+01 5.357122e+01 5.562336e+01 5.770731e+01 2.858059e+01 2.350383e+01 4.620610e+01 8.774318e+00 4.602236e+00 2.740127e+00 4.848468e+00 3.492654e+00 5.667837e+00 3.338774e+00 3.237911e+00 7.130639e+00 4.735942e+00 2.907178e+00 2.295810e+00 3.912854e+00 9.605064e-01 5.713528e-01 7.376424e-01 6.576812e-01 7.380687e-01 1.184021e+00 5.659156e-01 6.048971e-01 1.365180e+00 1.171118e+00 3.859665e-01 3.988142e-01 8.643793e-01
<GCONST> 1.353946e+02
<STATE> 3
<MEAN> 39
 7.561849e+00 9.095790e-01 -6.663064e+00 -1.037311e+01 -1.193960e+01 -1.045274e+01 8.837092e+00 1.333292e+01 -6.182036e-01 -6.122138e+00 1.826628e-01 -1.050226e-01 -3.452024e+00 -5.032389e-03 1.356435e+00 1.107311e+00 7.243127e-02 -9.847182e-01 -1.131911e+00 -7.700156e-02 2.924800e-01 -8.725531e-02 9.649931e-02 -2.765087e-01 -6.333249e-01 3.783480e-03 -1.756751e-01 1.635759e-01 4.197361e-01 1.335129e-01 8.046791e-02 1.829711e-01 -1.782278e-01 -4.680685e-01 -1.923561e-01 1.766942e-01 1.282195e-01 -1.358515e-01 -3.406459e-02
<VARIANCE> 39
 4.163865e+00 2.321453e+01 2.849541e+01 1.456989e+01 2.556085e+01 2.438042e+01 1.967164e+01 2.359885e+01 2.569975e+01 2.287764e+01 2.665686e+01 2.158328e+01 2.272560e+01 3.310225e-01 9.533293e-01 1.635129e+00 8.014090e-01 1.548417e+00 1.669192e+00 1.637413e+00 2.515761e+00 1.970595e+00 1.708977e+00 1.575849e+00 1.449402e+00 1.498625e+00 6.420826e-02 1.615126e-01 2.335625e-01 1.455911e-01 2.900833e-01 3.959591e-01 2.953210e-01 1.998570e-01 3.325306e-01 3.376902e-01 2.956223e-01 2.600215e-01 3.326425e-01
<GCONST> 9.583749e+01
<STATE> 4
<MEAN> 39
 5.131381e+00 7.995807e+00 2.779183e+00 -8.722583e+00 -1.220443e+01 -1.133957e+01 4.509408e+00 6.371766e+00 -6.899135e+00 -6.954288e+00 -1.472391e+00 -4.684570e+00 -3.541949e+00 -4.774128e-01 -1.660456e-01 4.880148e-01 8.845001e-01 1.754056e+00 1.735828e+00 -5.084170e-01 -1.132636e+00 -5.826635e-01 -2.200622e-01 -4.804362e-01 6.299767e-02 5.937297e-01 -5.733763e-02 -3.579074e-01 -2.627351e-01 2.232020e-01 3.736836e-01 4.188874e-01 2.821882e-02 -1.871226e-02 2.888739e-01 1.456876e-01 -3.620738e-02 1.977253e-01 1.670514e-01
<VARIANCE> 39
 4.554372e+00 2.820351e+01 2.323577e+01 2.790281e+01 5.405111e+01 5.387531e+01 3.444788e+01 3.663389e+01 4.255370e+01 4.215116e+01 2.740505e+01 2.536749e+01 2.471838e+01 4.091120e-01 2.861844e+00 1.851319e+00 3.408949e+00 3.300164e+00 4.241069e+00 3.602454e+00 2.873803e+00 3.931550e+00 4.831764e+00 3.313379e+00 3.173515e+00 2.675486e+00 8.480270e-02 5.511982e-01 3.491517e-01 5.313233e-01 5.753963e-01 7.661649e-01 7.206709e-01 6.335024e-01 7.642773e-01 1.029575e+00 6.659834e-01 6.268834e-01 5.285954e-01
<GCONST> 1.205236e+02
<TRANSP> 5
 0.000000e+00 1.000000e+00 0.000000e+00 0.000000e+00 0.000000e+00
 0.000000e+00 7.794536e-01 2.205464e-01 0.000000e+00 0.000000e+00
 0.000000e+00 0.000000e+00 8.690721e-01 1.309279e-01 0.000000e+00
 0.000000e+00 0.000000e+00 0.000000e+00 8.554685e-01 1.445315e-01
 0.000000e+00 0.000000e+00 0.000000e+00 0.000000e+00 0.000000e+00
<ENDHMM>
~o
<STREAMINFO> 1 39
<VECSIZE> 39<NULLD><MFCC_D_A_Z><DIAGC>
~h "b"
<BEGINHMM>
<NUMSTATES> 5
<STATE> 2
<MEAN> 39
 1.156113e+00 4.567098e+00 -2.668247e+00 -1.675284e-01 -5.203874e-01 5.657829e-02 2.975964e+00 3.382689e+00 1.881013e-01 -1.328447e+00 -2.218196e+00 -1.551454e-01 -7.722614e-02 4.549295e-01 2.837366e+00 8.266837e-01 1.445387e+00 5.465667e-01 1.372360e+00 1.155190e+00 3.783495e-01 7.769611e-01 4.074325e-01 -1.204521e+00 -2.294437e-02 -5.638454e-02 5.096065e-02 4.400130e-01 4.214324e-01 4.129252e-01 1.542220e-01 1.553796e-01 1.282118e-01 -1.130778e-01 3.348902e-01 2.163689e-01 -1.935539e-01 6.697778e-02 -2.655118e-02
<VARIANCE> 39
 8.901439e+01 4.684233e+01 4.266555e+01 6.967720e+01 5.317035e+01 8.461111e+01 5.229152e+01 5.265862e+01 8.403911e+01 7.898894e+01 3.581206e+01 4.313255e+01 3.270570e+01 2.784892e+00 4.369460e+00 3.334408e+00 4.159144e+00 3.559702e+00 6.160007e+00 4.633211e+00 3.670222e+00 4.633653e+00 5.706842e+00 3.298219e+00 3.308637e+00 3.055314e+00 6.680688e-01 7.469457e-01 4.543326e-01 6.695290e-01 5.834444e-01 9.806307e-01 5.712996e-01 6.751220e-01 7.885280e-01 8.244300e-01 5.886795e-01 5.203795e-01 4.194234e-01
<GCONST> 1.359256e+02
<STATE> 3
<MEAN> 39
 2.790961e+00 1.821762e+01 4.272486e+00 8.165617e+00 2.874671e+00 4.469568e+00 7.261527e+00 4.639295e+00 6.449049e+00 2.191239e+00 -7.301915e+00 2.325487e-01 2.335702e-01 -6.673806e-02 2.732937e-01 8.232637e-01 4.610790e-01 1.817426e-01 5.826378e-01 5.287936e-01 -3.643273e-01 4.147830e-01 5.768396e-01 3.251204e-02 3.600330e-01 5.218354e-01 -5.127848e-02 -1.367460e+00 -4.485139e-01 -8.131887e-01 -3.695298e-01 -4.293284e-01 -3.081710e-01 -1.156735e-01 -6.561361e-01 -2.998928e-01 5.677439e-01 -1.727731e-03 1.312492e-01
<VARIANCE> 39
 1.300642e+01 1.841235e+01 1.925336e+01 2.767533e+01 2.268643e+01 2.144997e+01 2.585387e+01 3.987127e+01 2.896030e+01 2.735862e+01 2.100905e+01 3.512912e+01 2.225822e+01 3.042284e+00 7.958272e+00 1.751855e+00 3.265872e+00 2.125147e+00 3.118166e+00 2.332774e+00 3.719467e+00 3.572828e+00 2.515339e+00 2.695763e+00 2.110229e+00 1.621301e+00 3.458405e-01 7.086064e-01 3.607531e-01 6.290271e-01 5.951296e-01 8.063912e-01 5.752110e-01 6.754351e-01 6.456084e-01 6.717783e-01 5.126078e-01 5.892129e-01 3.858248e-01
<GCONST> 1.187875e+02
<STATE> 4
<MEAN> 39
 2.584831e+00 6.729697e+00 3.501197e+00 2.143703e+00 -1.093185e-01 4.739911e+00 6.622360e+00 2.682712e+00 1.991317e+00 2.982194e-01 -3.346122e+00 2.135375e-01 2.413043e+00 8.928197e-01 -3.574914e+00 -1.619831e+00 -3.184194e+00 -2.244849e+00 -2.695436e+00 -4.609527e-01 1.955308e-01 -2.635436e+00 -1.494574e+00 2.047749e+00 6.062820e-01 2.542357e-01 2.567303e-01 2.299260e-01 -3.885374e-01 -2.460587e-01 -2.211574e-01 -9.128284e-01 -2.228975e-01 3.380675e-01 -2.938319e-01 -2.775403e-01 2.052885e-01 -3.437027e-02 -4.653628e-01
<VARIANCE> 39
 1.993418e+01 6.088384e+01 2.491086e+01 4.740192e+01 4.977884e+01 6.544514e+01 2.316234e+01 3.735535e+01 4.711205e+01 3.835624e+01 2.494442e+01 2.499999e+01 1.926871e+01 1.478116e+00 5.830532e+00 3.028326e+00 4.990060e+00 5.664433e+00 6.076924e+00 4.282178e+00 4.775483e+00 4.307099e+00 4.010171e+00 3.318250e+00 4.397224e+00 2.930800e+00 3.444858e-01 1.324884e+00 5.814654e-01 1.048927e+00 9.926392e-01 1.487135e+00 5.464735e-01 7.445549e-01 9.159271e-01 8.277856e-01 5.993783e-01 4.717674e-01 3.422903e-01
<GCONST> 1.312280e+02
<TRANSP> 5
 0.000000e+00 1.000000e+00 0.000000e+00 0.000000e+00 0.000000e+00
 0.000000e+00 6.883327e-01 3.116673e-01 0.000000e+00 0.000000e+00
 0.000000e+00 0.000000e+00 7.473148e-01 2.526852e-01 0.000000e+00
 0.000000e+00 0.000000e+00 0.000000e+00 5.594842e-01 4.405158e-01
 0.000000e+00 0.000000e+00 0.000000e+00 0.000000e+00 0.000000e+00
<ENDHMM>
~o
<STREAMINFO> 1 39
<VECSIZE> 39<NULLD><MFCC_D_A_Z><DIAGC>
~h "bh"
<BEGINHMM>
<NUMSTATES> 5
<STATE> 2
<MEAN> 39
 5.262719e+00 2.843226e+00 -4.528257e+00 -1.731555e+00 -7.656907e-01 -3.634938e+00 2.245996e+00 4.091582e+00 -3.275439e+00 -3.216859e+00 -3.192599e-01 1.875577e-01 -7.389086e-02 -1.332558e-02 3.059305e+00 8.783543e-01 1.634684e+00 5.747699e-01 2.131804e+00 1.645177e+00 1.890387e-01 9.438547e-01 8.276476e-01 -1.087519e+00 5.004970e-01 7.444085e-01 -3.479026e-01 4.812440e-01 4.504948e-01 5.076771e-01 2.476167e-01 4.991526e-01 1.709468e-01 -1.663062e-01 6.192540e-01 3.833754e-01 -2.687534e-01 7.628045e-02 -7.534094e-03
<VARIANCE> 39
 3.713182e+01 4.668859e+01 4.293193e+01 6.760218e+01 6.731114e+01 6.145105e+01 5.201543e+01 5.450582e+01 5.467019e+01 5.058895e+01 3.424881e+01 3.113616e+01 2.742487e+01 1.432627e+00 3.947619e+00 3.204783e+00 4.367712e+00 4.051820e+00 5.276659e+00 4.070016e+00 3.295089e+00 4.744705e+00 4.555302e+00 3.083762e+00 2.680956e+00 2.657478e+00 3.666030e-01 8.119214e-01 3.879948e-01 5.751985e-01 5.560665e-01 8.198635e-01 6.431024e-01 5.175927e-01 6.768504e-01 6.907269e-01 5.477120e-01 4.263497e-01 3.785367e-01
<GCONST> 1.300040e+02
<STATE> 3
<MEAN> 39
 -5.877346e-01 1.602514e+01 3.522069e+00 7.424706e+00 3.696173e+00 6.957610e+00 7.802078e+00 3.234304e+00 6.217058e+00 3.459586e+00 -5.945259e+00 1.407762e+00 2.100584e+00 -1.132019e+00 -9.021532e-01 8.334696e-01 3.179730e-01 2.081330e-01 1.282691e+00 2.189866e-01 -5.622858e-01 1.055040e+00 9.799677e-01 4.242647e-01 4.191635e-01 5.827513e-01 1.024894e-01 -1.574016e+00 -4.679759e-01 -6.331425e-01 -2.975706e-01 -3.110519e-01 -1.723307e-01 1.189014e-01 -3.137010e-01 -1.743764e-01 6.316404e-01 3.416904e-02 7.003602e-02
<VARIANCE> 39
 3.847844e+01 3.161087e+01 2.625206e+01 2.738411e+01 2.656777e+01 2.535946e+01 2.350075e+01 3.513066e+01 2.902128e+01 2.742623e+01 2.560077e+01 3.386596e+01 2.030620e+01 4.718238e+00 1.527259e+01 2.572148e+00 3.588001e+00 2.929487e+00 3.835410e+00 2.841615e+00 3.540769e+00 3.744215e+00 3.838009e+00 4.533995e+00 3.090645e+00 2.400139e+00 7.768449e-01 1.229556e+00 4.549213e-01 5.997323e-01 6.712391e-01 7.522055e-01 7.480208e-01 8.461683e-01 5.907276e-01 6.389886e-01 5.486604e-01 5.704105e-01 4.380437e-01
<GCONST> 1.270044e+02
<STATE> 4
<MEAN> 39
 -1.731454e+00 -6.680127e+00 -1.157749e+00 1.126134e-01 -1.519355e+00 9.778882e+00 1.249730e+01 6.546460e+00 8.422687e+00 4.825629e+00 2.534021e+00 4.847195e+00 3.897413e+00 8.973997e-01 -1.617813e+00 -7.054874e-01 -6.308070e-01 -5.951653e-01 -1.360458e+00 7.708322e-02 5.506401e-01 -6.810388e-01 -9.057385e-01 1.871918e-01 -2.441843e-01 -8.134322e-01 3.396292e-01 1.058219e+00 9.532727e-02 1.502950e-01 5.974666e-02 -7.192047e-01 -4.812688e-01 -1.193857e-01 -4.271920e-01 -4.570155e-01 -4.948672e-01 -3.468944e-01 -3.866846e-01
<VARIANCE> 39
 1.786378e+01 4.155372e+01 3.446860e+01 4.274032e+01 5.731993e+01 3.775594e+01 7.475787e+01 6.375231e+01 2.840616e+01 3.562923e+01 2.471725e+01 2.240342e+01 2.537016e+01 1.552427e+00 1.228905e+01 4.010961e+00 5.072680e+00 5.578184e+00 6.029643e+00 9.150105e+00 6.065119e+00 4.235594e+00 4.187863e+00 4.976088e+00 3.652003e+00 3.045414e+00 3.161701e-01 9.634280e-01 6.880760e-01 7.203625e-01 8.518178e-01 8.943835e-01 1.328885e+00 1.158441e+00 6.895325e-01 6.749635e-01 6.775243e-01 5.218650e-01 5.374371e-01
<GCONST> 1.344272e+02
<TRANSP> 5
 0.000000e+00 1.000000e+00 0.000000e+00 0.000000e+00 0.000000e+00
 0.000000e+00 6.731696e-01 3.268305e-01 0.000000e+00 0.000000e+00
 0.000000e+00 0.000000e+00 8.018216e-01 1.981784e-01 0.000000e+00
 0.000000e+00 0.000000e+00 0.000000e+00 8.150347e-01 1.849653e-01
 0.000000e+00 0.000000e+00 0.000000e+00 0.000000e+00 0.000000e+00
<ENDHMM>
~o
<STREAMINFO> 1 39
<VECSIZE> 39<NULLD><MFCC_D_A_Z><DIAGC>
~h "c"
<BEGINHMM>
<NUMSTATES> 5
<STATE> 2
<MEAN> 39
 -6.906381e+00 3.981617e+00 9.276806e+00 7.445122e+00 1.922282e+00 5.804635e+00 -6.406159e-01 -4.903963e+00 3.920715e+00 4.441660e+00 -2.442804e+00 3.441366e-02 1.018082e+00 -1.819707e+00 -9.613932e-01 3.434058e-03 -2.446680e-01 -6.381043e-01 1.379371e+00 1.272646e+00 1.371520e-01 9.804914e-01 5.925636e-01 2.219569e-01 6.374786e-01 7.041357e-01 -1.213001e-01 -1.041528e+00 4.740960e-02 -4.602225e-01 -2.259853e-01 4.734675e-04 8.132802e-02 9.256066e-02 2.568429e-02 -1.490850e-01 2.740287e-01 -1.079902e-01 1.263621e-01
<VARIANCE> 39
 4.319934e+01 6.228616e+01 5.412140e+01 4.287397e+01 3.031348e+01 5.694066e+01 4.410246e+01 3.531602e+01 4.413130e+01 4.165713e+01 2.993431e+01 3.397273e+01 2.072781e+01 1.702163e+00 1.713551e+01 6.516903e+00 4.325652e+00 3.216259e+00 5.449303e+00 3.061638e+00 3.190521e+00 3.356834e+00 3.720841e+00 2.904102e+00 2.887908e+00 2.212980e+00 3.370443e-01 2.319927e+00 1.275372e+00 7.540327e-01 6.327437e-01 1.382069e+00 6.588207e-01 5.288114e-01 7.394038e-01 7.735564e-01 5.011929e-01 6.911514e-01 4.584236e-01
<GCONST> 1.330298e+02
<STATE> 3
<MEAN> 39
 -1.561022e+01 -1.502694e+01 1.151726e+01 -2.528835e-01 -3.981972e+00 1.027006e+01 4.347195e+00 -3.001508e+00 8.148057e+00 4.573875e+00 2.216705e+00 1.553481e-01 5.554606e+00 -1.032710e+00 -2.759891e+00 1.725225e+00 -1.173319e+00 -5.484151e-01 2.578402e-01 -3.945515e-01 -5.805034e-01 5.705474e-01 6.311511e-01 9.561778e-01 -2.854682e-01 2.715872e-01 1.264587e+00 1.969459e+00 -5.000172e-01 8.739939e-01 6.969220e-01 -8.828058e-01 -8.497667e-01 -3.017503e-01 -6.712269e-01 -1.868051e-01 -4.722095e-01 -1.055751e-01 -7.132227e-01
<VARIANCE> 39
 5.792043e+01 6.264213e+01 4.155183e+01 4.292273e+01 3.690033e+01 5.013542e+01 3.814597e+01 4.330519e+01 3.339182e+01 3.056117e+01 2.920563e+01 2.388872e+01 2.496824e+01 5.364594e+00 1.628045e+01 3.188740e+00 5.967628e+00 4.916875e+00 6.409554e+00 4.668982e+00 3.150022e+00 3.594837e+00 3.844462e+00 3.128974e+00 3.107126e+00 3.362030e+00 1.504810e+00 1.640262e+00 1.202151e+00 9.156164e-01 6.930474e-01 1.378302e+00 9.317915e-01 6.334395e-01 7.474116e-01 8.305888e-01 6.667877e-01 5.184867e-01 6.333175e-01
<GCONST> 1.370845e+02
<STATE> 4
<MEAN> 39
 -7.897724e+00 -9.434618e+00 1.089705e+01 2.229187e+00 -1.289579e+00 4.436107e+00 -2.119381e+00 -6.926733e+00 3.670290e+00 3.793775e+00 1.695087e+00 -1.657530e+00 6.203104e-01 3.120840e+00 2.852983e+00 -1.511738e+00 1.063573e+00 7.063457e-01 -2.155670e+00 -1.728706e+00 -3.794243e-01 -1.701389e+00 -1.126998e+00 -5.979086e-01 -7.997361e-02 -1.391928e+00 4.214313e-01 6.490338e-01 -8.568259e-01 -1.298562e-02 -3.097684e-02 -5.335748e-01 1.283992e-01 4.518810e-01 -3.847324e-01 -4.950754e-01 -1.194813e-01 1.581247e-01 -7.476468e-02
<VARIANCE> 39
 7.984499e+01 7.827358e+01 6.012481e+01 3.203396e+01 3.321018e+01 8.044713e+01 4.356298e+01 3.270960e+01 5.447221e+01 5.173579e+01 3.611855e+01 3.324788e+01 3.422800e+01 1.365484e+01 6.256153e+00 4.655245e+00 3.897408e+00 3.031904e+00 1.407821e+01 6.863777e+00 2.701471e+00 6.394338e+00 6.291214e+00 3.911000e+00 3.837430e+00 4.522011e+00 1.591337e+00 1.457012e+00 1.074553e+00 7.037497e-01 5.615348e-01 1.499791e+00 8.737684e-01 5.274319e-01 9.019768e-01 9.698359e-01 5.817675e-01 4.696449e-01 5.839288e-01
<GCONST> 1.412785e+02
<TRANSP> 5
 0.000000e+00 1.000000e+00 0.000000e+00 0.000000e+00 0.000000e+00
 0.000000e+00 7.302958e-01 2.697042e-01 0.000000e+00 0.000000e+00
 0.000000e+00 0.000000e+00 5.957571e-01 4.042429e-01 0.000000e+00
 0.000000e+00 0.000000e+00 0.000000e+00 4.957606e-01 5.042394e-01
 0.000000e+00 0.000000e+00 0.000000e+00 0.000000e+00 0.000000e+00
<ENDHMM>
~o
<STREAMINFO> 1 39
<VECSIZE> 39<NULLD><MFCC_D_A_Z><DIAGC>
~h "ch"
<BEGINHMM>
<NUMSTATES> 5
<STATE> 2
<MEAN> 39
 -7.337357e+00 7.696800e+00 2.697584e+00 2.900776e+00 6.860375e-01 6.557132e+00 2.267946e+00 -2.626470e+00 6.465486e+00 5.834393e+00 -2.703424e+00 2.508024e+00 4.377910e-01 -1.692824e+00 -5.312674e-01 3.079947e-02 1.340345e-01 -4.651040e-01 1.139248e+00 9.421374e-01 8.875480e-02 1.091533e+00 5.637792e-01 -1.435063e-02 6.434078e-01 6.578284e-01 -5.550691e-02 -9.931155e-01 1.189959e-01 -3.310847e-01 -2.340833e-01 -1.318333e-01 -4.724824e-02 -5.988647e-03 -1.178131e-01 -1.984811e-01 2.643920e-01 -1.587125e-01 7.901003e-02
<VARIANCE> 39
 3.598908e+01 3.409011e+01 5.575965e+01 4.014769e+01 2.437964e+01 3.921375e+01 4.552992e+01 4.559149e+01 4.571456e+01 5.111613e+01 2.812927e+01 2.953043e+01 2.084150e+01 1.049341e+00 1.458840e+01 5.026512e+00 2.713469e+00 2.807173e+00 3.813301e+00 2.926493e+00 2.858976e+00 2.684649e+00 3.041746e+00 2.574431e+00 2.506769e+00 2.027856e+00 1.926464e-01 1.301911e+00 1.259412e+00 4.188373e-01 4.760418e-01 8.952633e-01 5.828642e-01 5.723071e-01 4.891595e-01 4.700066e-01 4.498936e-01 4.830460e-01 4.626931e-01
<GCONST> 1.252869e+02
<STATE> 3
<MEAN> 39
 -1.957857e+01 -1.709595e+01 1.050394e+01 -2.838490e+00 -6.921257e+00 1.230742e+01 5.625702e+00 -4.099212e+00 1.061724e+01 6.686625e+00 3.622714e+00 2.053404e+00 8.187532e+00 -8.127844e-01 -3.168750e+00 1.498013e+00 -8.886861e-01 -6.865152e-01 -2.524984e-01 -5.760657e-01 -7.291665e-01 1.995225e-01 5.339900e-01 1.136411e+00 -5.895738e-01 4.996634e-01 1.172473e+00 1.689697e+00 -7.267124e-01 6.408681e-01 6.234992e-01 -8.884428e-01 -4.239700e-01 -5.775566e-02 -4.338645e-01 -4.417336e-02 -4.513271e-01 -1.435826e-01 -8.097937e-01
<VARIANCE> 39
 2.852795e+01 3.219769e+01 3.287672e+01 2.702814e+01 2.344025e+01 3.116155e+01 2.160608e+01 3.168166e+01 2.574000e+01 2.668213e+01 1.951615e+01 1.560391e+01 2.105596e+01 5.783815e+00 1.212793e+01 5.789999e+00 3.996680e+00 4.141136e+00 3.996576e+00 2.661091e+00 2.772904e+00 2.344716e+00 3.030735e+00 2.423183e+00 2.460023e+00 4.094871e+00 1.116431e+00 1.084743e+00 9.349783e-01 5.773115e-01 5.756272e-01 8.563961e-01 6.122813e-01 5.588442e-01 6.948047e-01 8.092673e-01 4.752535e-01 4.627884e-01 5.831891e-01
<GCONST> 1.262289e+02
<STATE> 4
<MEAN> 39
 -1.101770e+01 -1.472609e+01 8.159488e+00 9.252322e-01 -3.547348e+00 4.598722e+00 7.859436e-01 -6.179696e+00 8.537851e+00 7.634562e+00 3.217952e+00 -9.909588e-01 2.893730e+00 5.019847e+00 2.893825e+00 -1.672124e+00 1.858988e+00 1.033984e+00 -4.258048e+00 -2.358835e+00 -5.331546e-01 -2.840961e+00 -2.267688e+00 -1.422880e+00 -1.477825e+00 -3.093018e+00 5.002750e-01 6.574132e-01 -5.545405e-01 -1.377680e-01 -1.237245e-01 -6.911908e-01 -1.192352e-01 2.713245e-01 -6.911561e-01 -6.982613e-01 -2.267882e-01 -1.747105e-02 -2.968546e-01
<VARIANCE> 39
 6.931264e+01 4.446473e+01 3.839629e+01 3.655928e+01 2.624778e+01 6.899684e+01 3.795808e+01 3.188338e+01 3.369138e+01 4.698355e+01 3.391288e+01 2.385582e+01 4.403802e+01 3.006371e+00 2.889388e+00 3.469788e+00 3.317582e+00 2.463403e+00 6.412509e+00 4.510587e+00 3.436761e+00 3.973379e+00 3.936590e+00 2.940244e+00 2.223890e+00 2.382886e+00 1.279067e+00 1.126527e+00 9.146005e-01 9.135096e-01 5.318643e-01 1.319640e+00 7.645441e-01 5.224416e-01 6.410620e-01 8.620968e-01 6.411372e-01 4.731735e-01 7.402518e-01
<GCONST> 1.318346e+02
<TRANSP> 5
 0.000000e+00 1.000000e+00 0.000000e+00 0.000000e+00 0.000000e+00
 0.000000e+00 8.779553e-01 1.220447e-01 0.000000e+00 0.000000e+00
 0.000000e+00 0.000000e+00 7.711014e-01 2.288986e-01 0.000000e+00
 0.000000e+00 0.000000e+00 0.000000e+00 6.087602e-01 3.912399e-01
 0.000000e+00 0.000000e+00 0.000000e+00 0.000000e+00 0.000000e+00
<ENDHMM>
~o
<STREAMINFO> 1 39
<VECSIZE> 39<NULLD><MFCC_D_A_Z><DIAGC>
~h "d"
<BEGINHMM>
<NUMSTATES> 5
<STATE> 2
<MEAN> 39
 3.397097e+00 1.990014e+00 7.083519e-01 -3.940805e+00 -2.595301e-01 1.203706e+00 -3.639656e-01 -2.097178e+00 -5.756590e+00 -4.484288e+00 4.093184e-01 -1.510060e-01 -5.547228e-01 -3.161665e-01 2.444269e+00 1.257065e+00 1.570232e+00 1.211565e+00 2.414034e+00 7.672277e-01 -6.837082e-01 4.452472e-01 1.264867e+00 -2.180228e-01 6.874551e-01 7.001691e-01 -6.877258e-02 4.288388e-01 1.323582e-02 5.712958e-01 6.346272e-02 1.328465e-01 2.957152e-01 1.107628e-01 5.303180e-01 4.522733e-01 -1.264775e-01 2.054320e-01 1.682307e-02
<VARIANCE> 39
 1.849565e+01 3.566010e+01 5.038912e+01 7.184890e+01 6.381646e+01 4.395511e+01 6.064941e+01 5.139088e+01 5.468611e+01 4.247073e+01 4.224523e+01 3.513258e+01 2.736827e+01 8.035148e-01 3.945194e+00 2.741821e+00 4.649187e+00 3.006592e+00 4.049818e+00 3.575586e+00 3.886807e+00 4.501130e+00 4.527847e+00 3.434131e+00 2.658676e+00 2.383949e+00 1.998407e-01 9.516478e-01 3.809295e-01 6.679755e-01 5.800532e-01 8.093444e-01 6.338123e-01 6.056209e-01 7.170263e-01 6.993320e-01 6.423867e-01 4.638108e-01 4.006374e-01
<GCONST> 1.280766e+02
<STATE> 3
<MEAN> 39
 1.799421e+00 1.568049e+01 4.859652e+00 6.807487e+00 4.263263e+00 7.627712e+00 3.574915e+00 -3.996829e+00 -5.193865e-02 3.762181e+00 -8.603225e-01 3.947874e+00 1.501880e+00 -5.124050e-01 4.374418e-01 6.746283e-01 1.125474e+00 4.000721e-01 7.827945e-01 3.413004e-01 -5.060808e-01 1.099796e+00 1.142782e+00 -8.666359e-02 2.506243e-01 1.668561e-01 -1.542388e-01 -1.525005e+00 -1.064826e-01 -6.778480e-01 -2.942984e-01 -4.799151e-01 -4.422376e-01 6.262656e-02 -7.751368e-02 -4.488075e-01 5.637651e-02 -4.232756e-01 -1.244596e-01
<VARIANCE> 39
 1.905408e+01 3.507815e+01 2.351099e+01 3.499975e+01 2.667427e+01 2.179333e+01 3.239433e+01 3.165784e+01 3.419603e+01 3.704735e+01 3.249646e+01 2.839159e+01 2.656254e+01 2.393841e+00 1.332196e+01 2.247797e+00 4.030104e+00 2.894551e+00 2.874771e+00 3.247056e+00 2.931830e+00 4.020246e+00 3.930899e+00 2.795677e+00 3.319960e+00 1.997354e+00 3.179876e-01 1.236822e+00 4.325546e-01 6.391664e-01 5.404941e-01 8.309333e-01 6.570823e-01 5.735245e-01 6.630528e-01 6.882098e-01 6.925689e-01 5.748058e-01 4.678822e-01
<GCONST> 1.247021e+02
<STATE> 4
<MEAN> 39
 -2.409466e+00 1.419062e+00 6.669045e+00 3.959185e+00 3.008812e+00 9.669328e+00 2.083289e+00 -3.977717e+00 3.749627e+00 3.334865e+00 -1.308832e+00 7.220867e-01 1.999817e+00 -2.353479e-01 -4.012939e+00 2.439201e-02 -1.468678e+00 -6.075450e-01 -1.403299e+00 -1.736502e+00 -5.450997e-01 -3.389005e-02 -8.434350e-01 3.063622e-01 -8.438529e-01 -4.251828e-01 5.611767e-01 4.886763e-01 -3.604058e-01 -3.125691e-01 -1.374937e-01 -1.280687e+00 -5.717608e-01 -4.872594e-02 -9.486821e-01 -6.737216e-01 9.952070e-02 -8.365547e-02 -4.137971e-01
<VARIANCE> 39
 2.538223e+01 1.289361e+02 3.122871e+01 4.520934e+01 3.253035e+01 2.989125e+01 3.853768e+01 3.158470e+01 5.000135e+01 3.146068e+01 2.735723e+01 2.777206e+01 2.150493e+01 2.470853e+00 1.156955e+01 3.193528e+00 5.800927e+00 4.427174e+00 6.936478e+00 5.348619e+00 3.537251e+00 6.110391e+00 5.147025e+00 5.079909e+00 3.975883e+00 3.054590e+00 4.048225e-01 2.835565e+00 6.645842e-01 1.087596e+00 7.067441e-01 9.435051e-01 9.130849e-01 7.691169e-01 9.359171e-01 7.717748e-01 7.076816e-01 5.746213e-01 4.537173e-01
<GCONST> 1.353160e+02
<TRANSP> 5
 0.000000e+00 1.000000e+00 0.000000e+00 0.000000e+00 0.000000e+00
 0.000000e+00 6.358214e-01 3.641786e-01 0.000000e+00 0.000000e+00
 0.000000e+00 0.000000e+00 6.993550e-01 3.006451e-01 0.000000e+00
 0.000000e+00 0.000000e+00 0.000000e+00 4.950594e-01 5.049406e-01
 0.000000e+00 0.000000e+00 0.000000e+00 0.000000e+00 0.000000e+00
<ENDHMM>
~o
<STREAMINFO> 1 39
<VECSIZE> 39<NULLD><MFCC_D_A_Z><DIAGC>
~h "dh"
<BEGINHMM>
<NUMSTATES> 5
<STATE> 2
<MEAN> 39
 3.835078e+00 2.337475e+00 4.347136e-01 -3.159004e+00 7.348956e-01 1.380717e+00 -1.135198e-01 -1.867423e+00 -4.926137e+00 -3.214718e+00 2.201675e+00 1.178457e+00 -3.379878e-01 -4.447714e-01 2.644175e+00 1.526787e+00 1.698291e+00 1.196852e+00 2.574363e+00 7.983940e-01 -9.879562e-01 3.308822e-01 1.329635e+00 -2.839484e-01 5.308664e-01 6.705475e-01 -1.644756e-01 2.086961e-01 -6.550483e-02 4.385143e-01 -1.500187e-02 1.728916e-01 3.476835e-01 2.940655e-01 5.622027e-01 3.558491e-01 -2.204172e-01 7.806099e-02 4.646189e-03
<VARIANCE> 39
 1.534442e+01 5.004517e+01 4.866020e+01 6.353849e+01 6.216949e+01 4.556382e+01 6.470372e+01 3.882801e+01 5.018384e+01 4.567291e+01 4.073374e+01 3.310589e+01 2.708810e+01 8.149323e-01 3.771148e+00 2.503961e+00 4.008843e+00 2.645636e+00 3.900766e+00 3.512555e+00 3.799296e+00 4.352060e+00 3.643957e+00 3.133692e+00 2.166365e+00 1.940045e+00 2.041956e-01 1.187553e+00 3.308372e-01 6.295952e-01 5.723796e-01 7.888308e-01 5.780976e-01 5.384696e-01 7.038841e-01 6.500010e-01 5.566106e-01 3.883042e-01 3.880095e-01
<GCONST> 1.258661e+02
<STATE> 3
<MEAN> 39
 2.148528e-01 1.494072e+01 5.110443e+00 7.041783e+00 4.846870e+00 9.192198e+00 4.342983e+00 -3.722355e+00 8.963301e-01 4.551184e+00 -4.012622e-01 4.228580e+00 1.637282e+00 -1.579059e+00 -1.584438e+00 3.543040e-01 2.003717e-01 -1.404962e-01 8.819432e-01 1.767849e-01 5.111358e-02 1.903537e+00 1.098277e+00 -1.620566e-01 -1.637063e-01 4.006539e-01 -1.881861e-01 -1.952055e+00 -2.528415e-01 -9.750097e-01 -4.110614e-01 -4.957845e-01 -4.668793e-01 1.352297e-01 7.567862e-02 -3.518123e-01 3.418944e-01 -3.043841e-01 3.502271e-02
<VARIANCE> 39
 2.908959e+01 3.602814e+01 2.559126e+01 3.219047e+01 2.935853e+01 2.028093e+01 3.055005e+01 2.516313e+01 3.427972e+01 2.894731e+01 2.869303e+01 2.612860e+01 2.026592e+01 3.036181e+00 1.930440e+01 2.481811e+00 5.991899e+00 3.553258e+00 2.980556e+00 3.495697e+00 2.920673e+00 4.302841e+00 3.637274e+00 2.877437e+00 2.950829e+00 2.457484e+00 5.025705e-01 1.266343e+00 4.468956e-01 6.427910e-01 6.180445e-01 6.991143e-01 5.937188e-01 5.365212e-01 7.621374e-01 5.733952e-01 6.481541e-01 5.487285e-01 4.722316e-01
<GCONST> 1.258565e+02
<STATE> 4
<MEAN> 39
 -5.972733e+00 -7.670051e+00 4.331191e+00 -3.014317e-01 1.401662e+00 9.398578e+00 4.440471e+00 -1.463979e+00 8.317405e+00 6.195169e+00 3.130749e+00 2.105794e+00 2.534234e+00 4.063864e-01 -1.797236e+00 -2.371360e-02 -4.914394e-01 -2.930016e-01 -1.397150e+00 -4.999618e-01 -9.258085e-02 -4.149970e-01 -8.813726e-01 1.534628e-01 -4.016132e-01 -8.666538e-01 6.420467e-01 1.151134e+00 -8.499027e-02 2.765073e-01 6.529971e-02 -7.279220e-01 -2.396875e-01 -8.355070e-02 -8.590760e-01 -6.081870e-01 -2.897481e-01 -6.217952e-02 -3.977029e-01
<VARIANCE> 39
 3.031539e+01 4.146783e+01 3.356215e+01 3.186526e+01 3.295597e+01 3.724652e+01 5.854392e+01 2.660239e+01 4.337255e+01 3.258638e+01 3.167799e+01 2.170344e+01 3.137390e+01 3.649535e+00 1.367602e+01 3.621206e+00 6.129890e+00 3.857936e+00 5.039395e+00 6.047044e+00 2.835696e+00 7.039329e+00 5.189190e+00 4.843607e+00 2.879336e+00 3.891173e+00 4.088028e-01 1.410649e+00 5.756613e-01 1.059103e+00 7.073451e-01 7.932190e-01 1.030774e+00 5.342749e-01 9.149256e-01 7.338064e-01 6.753437e-01 5.361076e-01 7.258527e-01
<GCONST> 1.339420e+02
<TRANSP> 5
 0.000000e+00 1.000000e+00 0.000000e+00 0.000000e+00 0.000000e+00
 0.000000e+00 6.432351e-01 3.567649e-01 0.000000e+00 0.000000e+00
 0.000000e+00 0.000000e+00 7.157710e-01 2.842290e-01 0.000000e+00
 0.000000e+00 0.000000e+00 0.000000e+00 7.728580e-01 2.271421e-01
 0.000000e+00 0.000000e+00 0.000000e+00 0.000000e+00 0.000000e+00
<ENDHMM>
~o
<STREAMINFO> 1 39
<VECSIZE> 39<NULLD><MFCC_D_A_Z><DIAGC>
~h "dx"
<BEGINHMM>
<NUMSTATES> 5
<STATE> 2
<MEAN> 39
 5.061400e+00 1.392957e+00 -5.137343e+00 2.623734e+00 7.849324e+00 -5.131571e+00 -5.957870e+00 -3.869151e+00 -3.876131e+00 1.320589e+00 -7.542985e-01 -4.717294e+00 -1.245953e+00 -1.002849e-01 1.687228e+00 4.600419e-01 9.549325e-01 1.490311e+00 3.235176e+00 6.327639e-01 -1.250917e+00 1.302442e+00 1.698090e+00 -7.999894e-01 7.263852e-01 6.003522e-01 -1.339304e-01 1.802504e-01 3.854980e-01 2.092491e-01 -4.873103e-01 4.497436e-01 5.613227e-01 1.687956e-01 3.257982e-01 1.371519e-01 2.414510e-01 4.914601e-01 -6.914883e-02
<VARIANCE> 39
 1.925607e+01 4.074602e+01 6.286143e+01 8.539010e+01 3.761692e+01 8.531818e+01 3.766954e+01 5.458547e+01 4.251660e+01 5.687217e+01 5.664470e+01 2.915874e+01 2.617941e+01 6.684258e-01 4.228224e+00 4.196582e+00 3.829960e+00 3.545586e+00 7.581422e+00 5.196653e+00 4.486994e+00 4.136471e+00 3.592288e+00 3.600153e+00 3.742020e+00 2.191624e+00 1.732993e-01 1.129781e+00 5.502797e-01 5.409316e-01 6.924035e-01 1.430308e+00 6.765940e-01 6.464908e-01 6.014957e-01 7.643349e-01 9.391646e-01 5.315317e-01 4.935780e-01
<GCONST> 1.315818e+02
<STATE> 3
<MEAN> 39
 1.826329e+00 1.169974e+01 6.507923e-01 8.075327e+00 8.686735e+00 6.641307e+00 -4.995216e-01 -6.080842e+00 2.561023e+00 6.420908e+00 -9.887075e-01 2.059593e+00 -2.141409e-01 -7.862725e-01 -8.802184e-01 1.051056e+00 5.201346e-01 -9.646152e-01 8.492993e-01 1.102042e+00 -1.905704e-01 1.071953e+00 6.236826e-01 5.600741e-01 8.896278e-01 3.631074e-01 -4.153946e-02 -1.494310e+00 -1.553810e-01 -5.384306e-01 -4.532468e-01 -1.083806e+00 -3.966692e-01 2.718599e-01 -3.327810e-01 -4.394991e-01 2.709954e-01 -5.262311e-01 -8.003189e-02
<VARIANCE> 39
 3.241894e+01 4.510125e+01 3.614268e+01 4.811916e+01 4.108173e+01 3.366869e+01 3.883317e+01 3.037609e+01 4.071937e+01 5.123109e+01 3.581646e+01 3.448953e+01 2.106979e+01 3.368591e+00 1.678321e+01 4.014135e+00 4.320348e+00 4.585170e+00 5.715886e+00 4.945830e+00 3.550572e+00 3.863805e+00 4.801723e+00 3.868667e+00 4.528528e+00 3.059551e+00 4.438038e-01 1.669877e+00 6.592686e-01 6.739618e-01 8.948848e-01 1.251756e+00 9.712241e-01 7.046602e-01 8.212340e-01 9.946707e-01 9.391296e-01 8.948957e-01 5.985483e-01
<GCONST> 1.361970e+02
<STATE> 4
<MEAN> 39
 -8.590526e-01 -5.915568e+00 2.401314e+00 5.316962e+00 3.247304e+00 3.827123e+00 1.998125e+00 -4.366392e+00 4.054842e+00 5.699691e+00 1.904757e+00 -7.437454e-01 8.835146e-01 1.266591e-01 -2.348762e+00 -1.907811e-01 -1.287466e+00 -1.010154e+00 -2.485460e+00 -8.959786e-01 5.832053e-01 -8.661460e-01 -1.102100e+00 6.759065e-01 -6.454753e-01 -6.077798e-01 3.386418e-01 1.056206e+00 -1.805414e-01 -2.516059e-01 7.415000e-02 -7.410058e-01 -6.566783e-01 1.134714e-01 -7.104386e-01 -7.219101e-01 -2.861705e-01 -1.313657e-01 -4.185476e-01
<VARIANCE> 39
 2.727304e+01 6.488405e+01 3.170799e+01 3.980134e+01 3.948327e+01 6.615057e+01 4.972349e+01 3.460570e+01 6.224153e+01 5.335993e+01 4.889824e+01 2.910558e+01 2.836480e+01 1.995793e+00 1.291160e+01 4.332369e+00 5.560610e+00 5.917607e+00 8.072831e+00 6.029329e+00 3.479857e+00 6.309037e+00 8.602763e+00 6.187184e+00 4.376047e+00 4.545589e+00 3.056445e-01 1.412045e+00 6.052374e-01 6.709313e-01 9.490236e-01 1.504846e+00 1.079359e+00 6.177541e-01 9.967929e-01 1.026270e+00 8.996714e-01 7.146763e-01 8.110073e-01
<GCONST> 1.400574e+02
<TRANSP> 5
 0.000000e+00 1.000000e+00 0.000000e+00 0.000000e+00 0.000000e+00
 0.000000e+00 5.684817e-01 4.315183e-01 0.000000e+00 0.000000e+00
 0.000000e+00 0.000000e+00 6.615874e-01 3.384126e-01 0.000000e+00
 0.000000e+00 0.000000e+00 0.000000e+00 5.483106e-01 4.516894e-01
 0.000000e+00 0.000000e+00 0.000000e+00 0.000000e+00 0.000000e+00
<ENDHMM>
~o
<STREAMINFO> 1 39
<VECSIZE> 39<NULLD><MFCC_D_A_Z><DIAGC>
~h "dxh"
<BEGINHMM>
<NUMSTATES> 5
<STATE> 2
<MEAN> 39
 6.244966e+00 9.454657e+00 -4.293850e+00 -6.226096e+00 4.040703e+00 -8.459802e-01 -1.680331e+00 3.927197e+00 -1.539711e+00 -2.449118e+00 -7.831014e+00 -3.914407e+00 -8.113751e-01 -2.939837e-01 9.776673e-01 -2.344972e-01 1.064523e+00 1.256291e+00 4.115324e+00 2.181061e+00 -1.722239e+00 4.664586e-01 1.621288e+00 -1.143958e-01 1.073846e+00 9.485725e-01 -4.105037e-01 -3.250469e-01 5.357584e-01 6.290054e-01 -3.647596e-01 -2.169066e-01 2.004936e-01 -1.442731e-01 2.573513e-01 1.455786e-01 7.351809e-01 4.908785e-01 -1.461451e-01
<VARIANCE> 39
 6.770413e+00 5.791623e+01 2.246965e+01 9.853195e+01 4.903074e+01 1.092705e+02 7.267599e+01 8.876058e+01 4.978642e+01 5.670315e+01 3.550881e+01 3.920864e+01 2.146784e+01 1.186209e+00 5.449603e+00 3.348320e+00 7.016829e+00 2.805681e+00 5.890977e+00 7.480026e+00 5.029612e+00 5.953102e+00 3.320554e+00 4.819124e+00 6.455812e+00 2.239667e+00 2.181628e-01 1.603354e+00 4.111585e-01 8.562782e-01 5.964168e-01 2.021202e+00 2.132783e+00 8.046990e-01 1.181730e+00 6.750945e-01 5.497106e-01 1.129451e+00 4.927080e-01
<GCONST> 1.368663e+02
<STATE> 3
<MEAN> 39
 -1.071492e+00 1.465161e+01 1.712722e+00 9.423175e+00 9.853285e+00 7.702259e+00 1.841470e+00 -4.885390e+00 5.860860e+00 9.039436e+00 -2.749526e+00 3.420927e+00 1.647891e-01 -1.499685e+00 -1.605102e+00 8.305793e-01 2.761417e-01 -7.033492e-01 6.070943e-01 5.017238e-01 -3.865602e-01 5.778586e-01 6.385103e-01 1.077073e+00 3.049700e-01 2.543025e-01 1.378925e-01 -1.433336e+00 -1.270742e-01 -3.808857e-01 -2.803752e-01 -6.154130e-01 -3.368696e-01 1.855825e-01 -2.283362e-01 -2.605738e-01 2.145835e-01 -4.504505e-01 4.348980e-02
<VARIANCE> 39
 4.368625e+01 3.262590e+01 2.872733e+01 4.555343e+01 4.692223e+01 3.359752e+01 5.279207e+01 3.868790e+01 5.533530e+01 5.236229e+01 3.508990e+01 2.353407e+01 2.545011e+01 2.271229e+00 2.085441e+01 2.302099e+00 3.845045e+00 3.817028e+00 3.503487e+00 3.655184e+00 3.229831e+00 3.824757e+00 4.294791e+00 4.880187e+00 3.321351e+00 2.437687e+00 4.555935e-01 1.132339e+00 4.678672e-01 5.721382e-01 5.807838e-01 1.095398e+00 7.321861e-01 6.802599e-01 7.656029e-01 6.144445e-01 7.768887e-01 4.831480e-01 5.005189e-01
<GCONST> 1.310462e+02
<STATE> 4
<MEAN> 39
 -4.107669e+00 -1.159353e+01 7.616862e-01 2.144463e+00 3.037730e+00 6.184247e+00 5.477838e+00 -1.434973e+00 5.635870e+00 6.765894e+00 4.781197e+00 1.048385e+00 9.297005e-01 4.143302e-01 -1.375711e+00 1.651992e-01 -2.293123e-01 -4.697479e-01 -1.931544e+00 -8.464020e-01 2.273164e-01 -6.475559e-01 -1.086731e+00 1.217191e-01 -6.002789e-01 -6.684819e-01 3.834207e-01 1.301233e+00 -1.651917e-01 -1.927961e-01 -1.097298e-02 -4.501346e-01 -2.752482e-01 1.206521e-01 -5.789590e-01 -7.520878e-01 -6.556904e-01 -1.371001e-01 -3.518230e-01
<VARIANCE> 39
 2.515461e+01 3.556985e+01 4.139990e+01 3.525974e+01 4.066936e+01 5.631813e+01 4.660432e+01 3.796418e+01 5.229679e+01 4.746605e+01 3.893638e+01 3.488384e+01 4.359425e+01 2.446316e+00 1.701432e+01 3.251265e+00 3.499306e+00 4.169968e+00 6.149058e+00 4.504389e+00 3.150398e+00 6.439061e+00 8.857831e+00 9.166842e+00 3.759842e+00 4.697150e+00 3.861407e-01 1.797065e+00 4.357665e-01 6.516688e-01 7.425205e-01 1.169451e+00 8.375775e-01 6.599521e-01 1.115471e+00 9.679370e-01 1.019557e+00 7.045613e-01 9.252359e-01
<GCONST> 1.382780e+02
<TRANSP> 5
 0.000000e+00 1.000000e+00 0.000000e+00 0.000000e+00 0.000000e+00
 0.000000e+00 6.974182e-01 3.025818e-01 0.000000e+00 0.000000e+00
 0.000000e+00 0.000000e+00 7.698407e-01 2.301593e-01 0.000000e+00
 0.000000e+00 0.000000e+00 0.000000e+00 8.070846e-01 1.929154e-01
 0.000000e+00 0.000000e+00 0.000000e+00 0.000000e+00 0.000000e+00
<ENDHMM>
~o
<STREAMINFO> 1 39
<VECSIZE> 39<NULLD><MFCC_D_A_Z><DIAGC>
~h "e"
<BEGINHMM>
<NUMSTATES> 5
<STATE> 2
<MEAN> 39
 -1.961299e-02 -1.969770e+00 2.087797e+00 4.506698e+00 3.230992e+00 -3.211390e+00 -4.236535e+00 -4.434381e+00 -9.286598e-01 1.973095e+00 8.720066e-01 -1.422710e+00 7.065251e-01 1.293237e+00 -1.278613e+00 -5.289702e-01 -7.303967e-02 1.435749e-01 -4.564914e+00 -2.375396e+00 3.044125e-02 -1.190348e+00 -6.554786e-01 6.484352e-01 -1.011155e+00 -8.364194e-01 -5.027597e-03 3.203875e-01 -1.253306e-01 -1.937375e-01 -1.363199e-02 -3.090864e-01 -2.024437e-01 2.499891e-01 6.149663e-02 -1.961932e-01 -1.575681e-01 4.605392e-02 -1.320497e-01
<VARIANCE> 39
 5.019772e+01 4.040829e+01 4.376168e+01 3.367014e+01 3.403291e+01 1.068855e+02 5.590371e+01 4.152169e+01 5.935379e+01 5.007567e+01 3.443436e+01 3.810125e+01 2.732046e+01 5.255762e+00 5.847426e+00 3.944660e+00 3.810673e+00 4.192924e+00 8.525776e+00 5.458603e+00 3.652300e+00 6.628356e+00 6.942068e+00 3.809530e+00 3.318205e+00 2.978986e+00 7.883303e-01 9.472128e-01 5.852073e-01 6.390238e-01 5.934901e-01 2.650242e+00 1.244992e+00 6.828076e-01 1.147476e+00 1.086818e+00 6.900069e-01 6.280544e-01 5.513889e-01
<GCONST> 1.389867e+02
<STATE> 3
<MEAN> 39
 2.247452e+00 -4.143168e+00 2.540958e+00 3.289605e+00 2.283269e+00 -1.562804e+01 -1.167402e+01 -2.562274e+00 -1.672233e+00 -2.878172e+00 -2.501576e-02 -3.170800e+00 -2.305699e+00 1.358464e-02 7.208852e-02 1.771563e-02 -2.950434e-02 1.085186e-01 -2.572746e-01 -3.242854e-01 2.239336e-01 2.238020e-01 -1.899429e-01 -1.173685e-01 1.940670e-01 -1.104772e-01 -1.040495e-01 2.606536e-01 1.036457e-01 1.277716e-01 9.283773e-02 9.571796e-01 4.122140e-01 -1.163143e-01 7.141433e-02 1.859212e-01 -6.036758e-02 1.357112e-01 1.489153e-01
<VARIANCE> 39
 7.197626e+00 1.371735e+01 2.178057e+01 2.909939e+01 3.644519e+01 3.070923e+01 2.483213e+01 2.118695e+01 2.680166e+01 3.615328e+01 2.315537e+01 1.757553e+01 1.524264e+01 5.040946e-01 9.751878e-01 1.212209e+00 1.337664e+00 1.495300e+00 4.236753e+00 1.924407e+00 1.548804e+00 1.891993e+00 2.230568e+00 1.593468e+00 1.238233e+00 1.032140e+00 1.414139e-01 2.612385e-01 2.256858e-01 2.634566e-01 2.826454e-01 7.288271e-01 4.002214e-01 2.885871e-01 4.942971e-01 4.377483e-01 3.172991e-01 2.855651e-01 2.313379e-01
<GCONST> 1.012239e+02
<STATE> 4
<MEAN> 39
 -8.071385e-01 1.390559e+00 2.333307e+00 6.382268e+00 3.592063e+00 -6.595836e+00 -8.618019e+00 -4.459994e+00 1.057763e+00 1.913945e+00 -6.776088e-01 4.615459e-01 1.774366e-01 -1.297401e+00 1.640600e+00 1.445580e-01 4.622771e-01 5.825115e-03 2.490016e+00 1.201863e+00 -3.339865e-01 8.810974e-01 1.268282e+00 -1.378098e-01 9.822109e-01 6.814833e-01 -2.080956e-01 5.026865e-03 2.197230e-02 -1.119396e-01 -1.320896e-01 1.784015e-01 3.025216e-01 1.149432e-01 5.549577e-02 -4.939032e-02 -2.238605e-02 -1.925642e-02 3.303207e-02
<VARIANCE> 39
 3.541900e+01 5.021710e+01 3.788819e+01 3.585154e+01 3.865533e+01 7.694405e+01 3.674751e+01 3.225065e+01 4.319846e+01 5.264317e+01 2.955577e+01 3.255539e+01 2.702160e+01 2.319109e+00 3.025170e+00 2.551502e+00 2.463022e+00 2.726477e+00 6.143907e+00 3.105287e+00 2.528723e+00 3.576100e+00 3.409662e+00 2.229658e+00 2.299281e+00 2.099378e+00 3.895268e-01 7.779242e-01 4.589446e-01 4.655110e-01 4.632525e-01 1.231885e+00 5.610386e-01 4.851823e-01 6.136004e-01 6.285425e-01 4.483445e-01 4.644420e-01 3.919484e-01
<GCONST> 1.248298e+02
<TRANSP> 5
 0.000000e+00 1.000000e+00 0.000000e+00 0.000000e+00 0.000000e+00
 0.000000e+00 6.742972e-01 3.257028e-01 0.000000e+00 0.000000e+00
 0.000000e+00 0.000000e+00 8.125885e-01 1.874115e-01 0.000000e+00
 0.000000e+00 0.000000e+00 0.000000e+00 6.097860e-01 3.902141e-01
 0.000000e+00 0.000000e+00 0.000000e+00 0.000000e+00 0.000000e+00
<ENDHMM>
~o
<STREAMINFO> 1 39
<VECSIZE> 39<NULLD><MFCC_D_A_Z><DIAGC>
~h "ee"
<BEGINHMM>
<NUMSTATES> 5
<STATE> 2
<MEAN> 39
 2.838957e-01 -2.526647e+00 4.679738e+00 5.301080e+00 2.803267e+00 -5.136033e+00 -6.519973e+00 -3.845417e+00 -4.888692e-01 -1.195771e+00 -1.263309e+00 -2.569722e+00 -4.805504e-01 1.285892e+00 -6.396227e-01 -3.764690e-01 3.165504e-01 7.051475e-02 -4.587226e+00 -2.257207e+00 1.238631e-01 -1.096427e+00 -9.787133e-01 1.500527e-01 -6.714011e-01 -9.366547e-01 -2.478278e-01 1.397664e-01 -6.676092e-02 -1.218268e-01 -1.137068e-01 8.613048e-04 2.240800e-01 2.808534e-01 1.632632e-01 4.994883e-02 2.269339e-02 1.672870e-01 1.043231e-01
<VARIANCE> 39
 3.660833e+01 3.564600e+01 3.616772e+01 3.367109e+01 3.164292e+01 1.144591e+02 4.880835e+01 3.565522e+01 4.700371e+01 4.959261e+01 2.787512e+01 2.878704e+01 2.580957e+01 4.678146e+00 6.331335e+00 3.119744e+00 3.234686e+00 2.913927e+00 6.305923e+00 4.497838e+00 3.397510e+00 5.521238e+00 6.767634e+00 3.393575e+00 2.863708e+00 2.576196e+00 6.740026e-01 9.361334e-01 5.169750e-01 5.327489e-01 4.414960e-01 2.295269e+00 1.039085e+00 5.460752e-01 9.034520e-01 9.759738e-01 5.974607e-01 5.045916e-01 4.973491e-01
<GCONST> 1.331570e+02
<STATE> 3
<MEAN> 39
 1.973025e+00 -4.065541e+00 4.000964e+00 4.942978e+00 1.594022e+00 -1.691237e+01 -1.056426e+01 -1.571461e+00 -1.393386e+00 -4.058658e+00 -1.262989e+00 -2.767187e+00 -2.023002e+00 -4.164080e-03 -6.380954e-02 -1.821163e-01 -2.054499e-01 -1.098809e-02 -1.317125e-01 -5.810574e-02 -8.822533e-03 1.572037e-01 6.398213e-02 4.960971e-02 2.930162e-02 -6.424989e-02 -3.168042e-02 8.965317e-02 3.405056e-02 2.697526e-02 7.790410e-02 5.733434e-01 1.616079e-01 -1.631427e-01 9.270145e-03 1.190752e-01 -2.773258e-02 -2.527993e-02 3.565137e-02
<VARIANCE> 39
 6.689946e+00 1.135325e+01 2.078398e+01 2.936188e+01 3.250684e+01 2.599678e+01 2.172289e+01 2.178795e+01 2.448219e+01 4.065686e+01 2.029618e+01 1.614774e+01 1.360629e+01 2.156777e-01 4.421198e-01 8.431535e-01 1.043161e+00 9.561478e-01 1.723303e+00 1.066797e+00 1.136477e+00 1.201253e+00 1.478305e+00 1.002521e+00 9.252207e-01 7.371441e-01 5.834267e-02 1.105831e-01 1.378472e-01 1.694391e-01 1.703230e-01 4.156355e-01 2.575846e-01 1.883988e-01 2.996780e-01 2.742092e-01 1.831132e-01 1.766444e-01 1.573417e-01
<GCONST> 8.678038e+01
<STATE> 4
<MEAN> 39
 7.573794e-01 -3.061236e+00 3.827228e+00 5.799773e+00 1.969995e+00 -1.150532e+01 -9.895978e+00 -4.075770e+00 -1.230883e-01 -1.951093e+00 -1.859356e+00 -2.936598e+00 -1.711102e+00 -9.218969e-01 6.835476e-01 5.694631e-01 2.898419e-01 2.867936e-01 3.129120e+00 1.137420e+00 -7.136167e-01 5.436921e-01 1.272227e+00 1.154522e-02 3.830923e-01 6.284004e-01 -3.725635e-01 5.897031e-02 1.519295e-01 -7.263985e-02 -7.161784e-02 6.635620e-01 4.517103e-01 1.269535e-02 1.255216e-01 2.387013e-01 9.623579e-02 2.093063e-01 1.796367e-01
<VARIANCE> 39
 1.932501e+01 2.370126e+01 4.388701e+01 5.077591e+01 3.740332e+01 6.108842e+01 3.299388e+01 3.271159e+01 3.594063e+01 5.223108e+01 2.894203e+01 2.740018e+01 2.637393e+01 2.663097e+00 3.146098e+00 4.033160e+00 2.503809e+00 2.052076e+00 5.420961e+00 2.810284e+00 2.429030e+00 3.716420e+00 3.317227e+00 2.055416e+00 1.974051e+00 2.074952e+00 3.664669e-01 6.701397e-01 6.253834e-01 5.507064e-01 3.611236e-01 9.872960e-01 4.686606e-01 4.481059e-01 5.811697e-01 7.112774e-01 3.972728e-01 3.521470e-01 3.677236e-01
<GCONST> 1.222147e+02
<TRANSP> 5
 0.000000e+00 1.000000e+00 0.000000e+00 0.000000e+00 0.000000e+00
 0.000000e+00 7.453166e-01 2.546834e-01 0.000000e+00 0.000000e+00
 0.000000e+00 0.000000e+00 8.639449e-01 1.360551e-01 0.000000e+00
 0.000000e+00 0.000000e+00 0.000000e+00 6.042747e-01 3.957253e-01
 0.000000e+00 0.000000e+00 0.000000e+00 0.000000e+00 0.000000e+00
<ENDHMM>
~o
<STREAMINFO> 1 39
<VECSIZE> 39<NULLD><MFCC_D_A_Z><DIAGC>
~h "g"
<BEGINHMM>
<NUMSTATES> 5
<STATE> 2
<MEAN> 39
 3.938655e+00 3.159532e+00 3.089764e-01 -5.040774e+00 -4.058420e+00 -2.734417e+00 1.670199e+00 2.097473e+00 -5.397809e+00 -5.270010e+00 -5.773117e-01 -2.824034e+00 -1.038533e+00 -7.201548e-01 1.724029e+00 1.641308e+00 1.010242e+00 1.059617e+00 2.116131e+00 4.471128e-01 -9.740325e-01 -1.985737e-01 7.616680e-01 -3.597159e-01 -2.296211e-01 8.531802e-01 -1.420453e-01 3.030650e-02 -9.084289e-02 1.952240e-01 2.928490e-01 3.573452e-01 7.534459e-02 -1.550114e-01 2.858086e-01 2.060175e-01 -1.077646e-01 3.590612e-01 1.433333e-01
<VARIANCE> 39
 2.012721e+01 5.002090e+01 5.528663e+01 5.381116e+01 5.208434e+01 5.138749e+01 6.695895e+01 5.980198e+01 6.101870e+01 5.320856e+01 4.171097e+01 4.521315e+01 2.763010e+01 6.983566e-01 3.364869e+00 3.099375e+00 2.090559e+00 3.077408e+00 4.682077e+00 3.350516e+00 3.858589e+00 4.224091e+00 3.240756e+00 2.731742e+00 2.839997e+00 2.385994e+00 1.801769e-01 8.602029e-01 5.552943e-01 4.893488e-01 5.470074e-01 1.016957e+00 6.510993e-01 7.187948e-01 7.759624e-01 6.519142e-01 6.230034e-01 5.260839e-01 4.501722e-01
<GCONST> 1.281006e+02
<STATE> 3
<MEAN> 39
 -3.476039e-01 1.302762e+01 5.982587e+00 4.941520e+00 3.224212e+00 4.681857e+00 1.284998e+00 -2.332364e+00 1.157071e+00 1.686162e+00 -3.900311e+00 1.256222e+00 2.805134e+00 -6.451915e-01 -4.589515e-01 4.147472e-01 4.014404e-01 2.795373e-01 1.238243e+00 3.134990e-01 -8.591225e-01 7.766123e-01 8.816115e-01 8.121196e-02 2.313194e-01 4.132007e-01 3.974570e-02 -1.203267e+00 -3.631633e-01 -5.727553e-01 -3.943640e-01 -3.877721e-01 -9.717286e-02 7.422417e-02 -2.179517e-01 -2.209504e-01 3.967559e-01 -2.173978e-01 -1.210016e-01
<VARIANCE> 39
 2.879325e+01 5.159427e+01 2.585054e+01 6.723157e+01 3.233715e+01 3.269517e+01 4.137566e+01 4.244640e+01 5.032536e+01 4.422879e+01 2.873211e+01 3.501173e+01 1.920839e+01 3.515653e+00 1.306231e+01 3.177897e+00 6.441478e+00 3.154323e+00 6.207171e+00 4.463869e+00 4.175164e+00 4.313450e+00 4.399378e+00 3.821516e+00 3.746087e+00 2.381053e+00 4.654713e-01 1.238950e+00 5.703180e-01 7.529506e-01 5.165036e-01 1.136014e+00 7.174752e-01 6.596810e-01 6.911680e-01 7.045416e-01 5.675812e-01 5.748309e-01 4.705253e-01
<GCONST> 1.323998e+02
<STATE> 4
<MEAN> 39
 -2.338565e+00 -8.123877e-01 4.389431e+00 -1.904675e+00 2.376895e-01 8.379193e+00 2.376614e+00 -4.700901e+00 -2.224710e-01 9.793180e-01 -3.290448e-01 -1.414340e+00 3.401459e+00 5.607085e-01 -2.176152e+00 -2.573740e-01 -8.848215e-01 -9.364316e-01 -2.015673e+00 -1.211150e+00 -3.276828e-01 -1.198251e+00 -8.530545e-01 8.968686e-01 -1.598040e-01 -4.937653e-01 6.297238e-01 8.493925e-01 -8.627484e-02 2.001429e-01 -1.663220e-01 -1.384376e+00 -4.719495e-01 4.270588e-01 -4.195652e-01 -4.697530e-01 -1.573906e-01 -8.394741e-03 -4.612921e-01
<VARIANCE> 39
 2.944394e+01 5.911872e+01 3.334166e+01 6.611038e+01 5.330996e+01 7.324534e+01 5.815991e+01 5.472322e+01 5.935439e+01 4.708838e+01 3.047094e+01 2.980690e+01 2.386845e+01 2.790493e+00 8.254420e+00 3.681447e+00 6.085354e+00 3.784337e+00 1.017084e+01 5.739480e+00 4.260571e+00 4.685214e+00 4.057803e+00 4.007923e+00 3.552170e+00 2.977954e+00 4.742473e-01 1.352445e+00 7.200350e-01 8.366143e-01 7.439245e-01 1.788623e+00 1.207724e+00 8.340200e-01 8.977643e-01 9.529006e-01 7.131744e-01 5.725535e-01 4.982508e-01
<GCONST> 1.384713e+02
<TRANSP> 5
 0.000000e+00 1.000000e+00 0.000000e+00 0.000000e+00 0.000000e+00
 0.000000e+00 6.685539e-01 3.314461e-01 0.000000e+00 0.000000e+00
 0.000000e+00 0.000000e+00 6.925916e-01 3.074084e-01 0.000000e+00
 0.000000e+00 0.000000e+00 0.000000e+00 5.993833e-01 4.006167e-01
 0.000000e+00 0.000000e+00 0.000000e+00 0.000000e+00 0.000000e+00
<ENDHMM>
~o
<STREAMINFO> 1 39
<VECSIZE> 39<NULLD><MFCC_D_A_Z><DIAGC>
~h "gh"
<BEGINHMM>
<NUMSTATES> 5
<STATE> 2
<MEAN> 39
 5.148530e-01 8.465772e+00 5.157647e+00 3.515200e+00 1.232271e+00 3.414965e+00 7.207896e-01 1.405634e-01 1.217526e+00 -7.399814e-01 -2.890394e+00 -5.724977e-02 2.183807e+00 -1.567491e+00 -7.515682e-01 -1.421664e-01 -3.231249e-01 3.611187e-01 2.395056e+00 1.423343e+00 -1.285398e+00 3.959678e-01 1.436887e+00 8.382315e-01 3.411933e-01 6.396174e-01 -8.680478e-02 -9.647034e-01 -5.959623e-01 -7.043548e-01 -1.904452e-01 1.371926e-01 1.842732e-01 -9.171961e-02 -2.438170e-02 1.627161e-01 4.660690e-01 1.519314e-01 3.878246e-02
<VARIANCE> 39
 3.454198e+01 7.113493e+01 4.552591e+01 5.320352e+01 4.414603e+01 6.394138e+01 6.863850e+01 5.647263e+01 5.005611e+01 4.358147e+01 3.476850e+01 3.269062e+01 2.232961e+01 2.634115e+00 1.629157e+01 6.946097e+00 6.600174e+00 3.550479e+00 5.734091e+00 5.222078e+00 4.726049e+00 4.275512e+00 3.840109e+00 5.137822e+00 3.094620e+00 2.381022e+00 4.486336e-01 1.945194e+00 8.146802e-01 9.013875e-01 6.346017e-01 1.026256e+00 9.128560e-01 7.710533e-01 7.693717e-01 7.023036e-01 8.092784e-01 5.994340e-01 4.223070e-01
<GCONST> 1.381242e+02
<STATE> 3
<MEAN> 39
 -6.513834e+00 -8.199142e+00 -2.543060e+00 -8.635783e+00 -1.444851e+00 1.390020e+01 7.032501e+00 -4.991701e+00 3.560267e+00 6.534840e+00 7.340836e+00 3.960704e+00 7.016862e+00 9.270325e-02 -2.434828e+00 -5.635747e-01 -8.554958e-01 -4.499340e-01 -1.972364e-01 6.710640e-01 1.072483e-01 3.402815e-01 8.514762e-01 1.451665e+00 1.119325e+00 1.796052e-01 7.190712e-01 1.267286e+00 6.702245e-01 1.239243e+00 2.015003e-01 -1.190883e+00 -2.398362e-01 7.539216e-01 -7.262328e-02 -6.134781e-01 -9.307078e-01 -3.850637e-01 -6.667672e-01
<VARIANCE> 39
 2.098145e+01 4.191750e+01 2.278773e+01 4.050444e+01 5.560455e+01 5.004512e+01 3.964291e+01 4.980825e+01 3.275117e+01 2.260961e+01 3.141213e+01 3.003774e+01 2.667755e+01 2.298079e+00 7.402249e+00 4.669397e+00 9.740808e+00 3.979510e+00 6.136380e+00 4.526885e+00 5.227192e+00 3.417549e+00 2.891258e+00 5.991510e+00 3.225020e+00 3.297792e+00 3.830040e-01 9.182955e-01 7.585329e-01 8.598927e-01 7.206763e-01 1.279291e+00 9.148066e-01 8.557379e-01 7.559842e-01 5.133998e-01 7.356905e-01 7.932228e-01 6.003928e-01
<GCONST> 1.332064e+02
<STATE> 4
<MEAN> 39
 -1.644642e+00 -7.613946e+00 -3.351407e-01 -8.300450e-01 -4.963958e-01 6.748007e+00 1.090200e+01 4.685621e-01 3.623486e+00 4.481329e+00 4.050888e+00 3.186028e+00 1.392073e+00 2.107450e+00 1.646387e+00 -5.220874e-01 1.360687e+00 -7.413360e-02 -4.005438e+00 -2.667857e-01 1.212910e+00 -1.779083e+00 -1.717092e+00 -1.296403e+00 -1.637719e+00 -2.267745e+00 2.683090e-01 4.832339e-01 -4.982539e-01 -5.993524e-01 -1.134620e-01 -5.436404e-01 -8.935576e-01 -3.551443e-01 -5.512876e-01 -2.896425e-01 -1.145927e-02 -3.130293e-01 1.939457e-02
<VARIANCE> 39
 2.019544e+01 3.545576e+01 3.887410e+01 3.538062e+01 4.845937e+01 6.924243e+01 7.199720e+01 5.338388e+01 4.052665e+01 3.743625e+01 3.491560e+01 3.086064e+01 2.475027e+01 1.156709e+00 3.059608e+00 4.586121e+00 3.571224e+00 3.388810e+00 5.643398e+00 6.482981e+00 3.520305e+00 3.511638e+00 3.283984e+00 3.072839e+00 2.592455e+00 2.679118e+00 2.221908e-01 6.170744e-01 5.508662e-01 5.963712e-01 5.217519e-01 1.347868e+00 9.245590e-01 8.557100e-01 8.335842e-01 6.233910e-01 5.744849e-01 6.377642e-01 4.974807e-01
<GCONST> 1.289668e+02
<TRANSP> 5
 0.000000e+00 1.000000e+00 0.000000e+00 0.000000e+00 0.000000e+00
 0.000000e+00 8.221701e-01 1.778299e-01 0.000000e+00 0.000000e+00
 0.000000e+00 0.000000e+00 7.398582e-01 2.601418e-01 0.000000e+00
 0.000000e+00 0.000000e+00 0.000000e+00 6.408787e-01 3.591213e-01
 0.000000e+00 0.000000e+00 0.000000e+00 0.000000e+00 0.000000e+00
<ENDHMM>
~o
<STREAMINFO> 1 39
<VECSIZE> 39<NULLD><MFCC_D_A_Z><DIAGC>
~h "h"
<BEGINHMM>
<NUMSTATES> 5
<STATE> 2
<MEAN> 39
 3.448906e+00 -1.886664e+00 -1.724114e+00 -2.374644e+00 -1.785554e+00 -3.630042e+00 3.686801e+00 4.320588e+00 9.211533e-01 -3.458933e+00 1.255551e+00 4.186364e-02 -3.355433e+00 -9.171914e-01 -8.039028e-01 7.926036e-01 1.224559e+00 5.785633e-01 2.421632e+00 1.909816e+00 2.737114e-01 1.185630e+00 1.204029e+00 4.208957e-01 5.617834e-01 6.969051e-01 -2.931387e-01 -4.072653e-01 1.272532e-02 -6.963597e-03 -6.876065e-02 5.527574e-01 2.927910e-01 -1.005271e-01 1.608223e-01 3.698635e-01 -2.809303e-02 6.576388e-02 2.462139e-01
<VARIANCE> 39
 2.255515e+01 3.626498e+01 7.420152e+01 5.956032e+01 5.966008e+01 7.508738e+01 9.532285e+01 6.218967e+01 4.057801e+01 6.223262e+01 3.851796e+01 3.220358e+01 2.651670e+01 1.109517e+00 2.340264e+00 2.663558e+00 2.651446e+00 2.507260e+00 5.391894e+00 3.861151e+00 2.712035e+00 3.228307e+00 3.787117e+00 2.435850e+00 1.740797e+00 2.343000e+00 2.391451e-01 3.471049e-01 5.671137e-01 6.008859e-01 4.883772e-01 8.395047e-01 5.822057e-01 4.082104e-01 6.063800e-01 6.311018e-01 4.227411e-01 3.163412e-01 4.063992e-01
<GCONST> 1.250022e+02
<STATE> 3
<MEAN> 39
 -3.882190e+00 -1.127399e+01 -3.056843e+00 -2.340867e+00 -3.657577e+00 9.907706e+00 1.341738e+01 4.326063e+00 5.388654e+00 4.606471e+00 3.319881e+00 4.023335e+00 2.908919e+00 -3.840783e-01 -1.187425e+00 -3.164427e-01 -2.988091e-01 -5.506396e-01 6.337870e-01 4.977550e-01 -1.753095e-01 6.399203e-02 1.945090e-01 2.953851e-02 2.698707e-01 8.819264e-02 5.002142e-01 7.316964e-01 5.517935e-02 -7.937890e-03 5.201920e-02 -9.417496e-01 -7.141130e-01 -8.357096e-02 -4.814587e-01 -6.998488e-01 -3.012212e-01 -2.562850e-01 -4.607548e-01
<VARIANCE> 39
 2.657243e+01 6.100133e+01 5.536321e+01 4.940432e+01 5.325039e+01 5.195665e+01 8.318501e+01 4.346962e+01 3.430418e+01 3.768369e+01 2.482301e+01 2.672517e+01 2.814323e+01 2.257104e+00 4.764825e+00 2.464185e+00 2.994053e+00 3.142556e+00 4.195400e+00 4.099652e+00 2.318444e+00 3.173186e+00 4.311547e+00 2.285109e+00 1.794945e+00 2.519953e+00 2.740671e-01 5.953265e-01 4.363956e-01 6.097586e-01 5.450366e-01 7.361028e-01 6.718155e-01 4.498316e-01 6.622123e-01 5.902322e-01 3.974175e-01 3.067403e-01 3.895092e-01
<GCONST> 1.250223e+02
<STATE> 4
<MEAN> 39
 -5.845855e-01 -7.310612e+00 -5.442173e-01 1.415283e-03 -2.469962e+00 4.345366e+00 8.760400e+00 2.375521e+00 2.673322e+00 -4.959777e-01 5.029444e-02 1.247370e+00 -2.286503e+00 1.640557e+00 2.072210e+00 1.920819e-02 -3.100055e-01 -2.185742e-01 -3.090007e+00 -2.656520e+00 -7.941526e-01 -1.688632e+00 -2.181280e+00 -1.088695e+00 -8.489605e-01 -1.543482e+00 2.859562e-01 1.884823e-01 -3.214529e-01 -5.270402e-01 -2.264974e-01 -6.714617e-01 -5.468036e-01 -8.480322e-03 -2.133761e-01 -2.008499e-01 7.033627e-02 -1.315151e-01 -2.322835e-02
<VARIANCE> 39
 2.096186e+01 4.246102e+01 5.358789e+01 4.946865e+01 4.908318e+01 7.741554e+01 9.970560e+01 4.696003e+01 3.683416e+01 4.555209e+01 3.236863e+01 3.036334e+01 2.601625e+01 1.693933e+00 2.975085e+00 2.556411e+00 3.602905e+00 2.877388e+00 4.463065e+00 4.666181e+00 2.992347e+00 3.622065e+00 3.902656e+00 2.892131e+00 2.205431e+00 2.609197e+00 2.244820e-01 4.269306e-01 2.787841e-01 3.578232e-01 3.408701e-01 9.032086e-01 7.413927e-01 4.353571e-01 6.494400e-01 6.489679e-01 4.456427e-01 3.730009e-01 3.966419e-01
<GCONST> 1.245651e+02
<TRANSP> 5
 0.000000e+00 1.000000e+00 0.000000e+00 0.000000e+00 0.000000e+00
 0.000000e+00 7.436997e-01 2.563004e-01 0.000000e+00 0.000000e+00
 0.000000e+00 0.000000e+00 7.638946e-01 2.361054e-01 0.000000e+00
 0.000000e+00 0.000000e+00 0.000000e+00 5.386945e-01 4.613055e-01
 0.000000e+00 0.000000e+00 0.000000e+00 0.000000e+00 0.000000e+00
<ENDHMM>
~o
<STREAMINFO> 1 39
<VECSIZE> 39<NULLD><MFCC_D_A_Z><DIAGC>
~h "hq"
<BEGINHMM>
<NUMSTATES> 5
<STATE> 2
<MEAN> 39
 4.492705e+00 -1.614433e+00 -2.017716e-01 -2.495738e+00 -7.954122e-01 -3.346023e+00 -3.985173e+00 -2.398206e+00 -7.112758e+00 -4.099402e+00 2.582901e+00 -2.682350e+00 -5.974169e+00 2.588587e-01 -7.410799e-01 -1.871686e+00 -2.034009e+00 -1.559497e+00 -3.054511e+00 -1.331838e-01 7.542185e-03 -1.107828e+00 3.543385e-01 8.421274e-01 -3.661569e-01 -1.386134e+00 -8.806343e-02 3.812302e-01 8.068053e-02 -1.135191e-01 4.458228e-03 -3.345003e-04 2.551461e-01 -9.205937e-02 -1.478131e-02 1.784433e-01 -2.269767e-01 7.281078e-02 3.927516e-01
<VARIANCE> 39
 1.107699e+01 4.417747e+01 5.734702e+01 2.777213e+01 3.792756e+01 9.062069e+01 3.257869e+01 4.745981e+01 4.700601e+01 4.517851e+01 3.901530e+01 2.680247e+01 3.212409e+01 7.846715e-01 5.189565e+00 3.760482e+00 2.735163e+00 2.434717e+00 7.798612e+00 3.478374e+00 4.474141e+00 4.575442e+00 3.761535e+00 3.296411e+00 2.816303e+00 3.265196e+00 2.325473e-01 1.007442e+00 1.218065e+00 9.873967e-01 7.261636e-01 3.669590e+00 6.670090e-01 6.873019e-01 1.554566e+00 1.424128e+00 9.727687e-01 6.094283e-01 6.183883e-01
<GCONST> 1.332178e+02
<STATE> 3
<MEAN> 39
 4.593800e+00 1.791657e+00 -7.632066e-01 -8.813827e+00 -4.764137e+00 -8.362264e+00 -1.603615e+00 1.580100e-01 -7.160694e+00 -2.339873e+00 1.670485e+00 -4.110827e+00 -6.771302e+00 -6.167638e-01 1.720022e+00 8.592084e-01 6.860869e-02 -1.026321e-01 1.575811e+00 2.790104e-01 -8.448204e-01 1.401627e+00 1.592922e+00 -4.447529e-02 4.506228e-01 7.184678e-01 -6.784906e-01 1.313306e-01 5.516784e-01 9.206308e-01 4.255163e-01 1.298243e+00 1.784116e-01 -4.878882e-01 7.725358e-01 4.611571e-01 -2.261236e-01 4.851406e-01 6.938068e-01
<VARIANCE> 39
 6.374605e+00 6.740559e+01 1.076909e+02 2.294076e+01 2.857422e+01 3.068694e+01 3.492037e+01 9.377155e+01 3.388568e+01 4.972237e+01 2.413536e+01 2.092215e+01 2.182800e+01 7.859300e-01 3.103467e+00 2.588129e+00 3.328043e+00 2.369345e+00 5.649055e+00 2.989690e+00 3.063096e+00 3.202825e+00 6.460608e+00 3.563169e+00 2.891092e+00 3.969530e+00 1.959511e-01 4.748485e-01 1.079530e+00 3.685177e-01 3.162626e-01 9.216635e-01 4.812564e-01 8.049061e-01 4.950090e-01 1.205705e+00 6.453599e-01 3.914553e-01 4.910167e-01
<GCONST> 1.236734e+02
<STATE> 4
<MEAN> 39
 -4.729295e+00 1.026308e+01 3.363234e-01 -5.325323e-01 -1.895882e+00 2.426584e+00 1.773425e+00 -2.867155e+00 4.310577e+00 5.941884e+00 -2.518799e+00 1.276523e+00 -9.242156e-01 -2.182356e+00 1.431168e-01 2.203844e-01 1.090723e+00 6.131976e-01 1.625641e+00 4.926807e-01 -5.918096e-01 1.625714e+00 1.039524e+00 -5.955782e-01 8.098270e-01 7.997799e-01 -2.281777e-02 -6.461903e-01 2.262657e-02 -3.485674e-01 -1.519631e-02 -4.492417e-02 7.831734e-02 2.677139e-01 -2.681676e-01 -2.692229e-01 2.288434e-01 -1.744097e-01 -5.701912e-02
<VARIANCE> 39
 3.841130e+01 4.788543e+01 4.291505e+01 3.214626e+01 2.403802e+01 2.785471e+01 2.687850e+01 3.158224e+01 5.741832e+01 4.055647e+01 2.958714e+01 2.718357e+01 2.232222e+01 8.725293e-01 3.704310e+00 4.463160e+00 2.471127e+00 1.717192e+00 3.204994e+00 1.507975e+00 2.964255e+00 3.370273e+00 2.248740e+00 2.425162e+00 1.944640e+00 1.725564e+00 5.264557e-01 3.771183e-01 4.357657e-01 5.194570e-01 4.342659e-01 7.237847e-01 3.356797e-01 3.814729e-01 6.414733e-01 5.018275e-01 4.461908e-01 3.465577e-01 4.134136e-01
<GCONST> 1.179228e+02
<TRANSP> 5
 0.000000e+00 1.000000e+00 0.000000e+00 0.000000e+00 0.000000e+00
 0.000000e+00 5.964776e-01 4.035224e-01 0.000000e+00 0.000000e+00
 0.000000e+00 0.000000e+00 6.639096e-01 3.360904e-01 0.000000e+00
 0.000000e+00 0.000000e+00 0.000000e+00 7.524378e-01 2.475622e-01
 0.000000e+00 0.000000e+00 0.000000e+00 0.000000e+00 0.000000e+00
<ENDHMM>
~o
<STREAMINFO> 1 39
<VECSIZE> 39<NULLD><MFCC_D_A_Z><DIAGC>
~h "i"
<BEGINHMM>
<NUMSTATES> 5
<STATE> 2
<MEAN> 39
 -2.592322e+00 -3.208488e+00 7.078577e+00 5.433257e+00 3.261331e+00 4.157074e+00 -1.850411e+00 -4.071874e+00 2.739806e+00 1.367428e+00 -1.626097e+00 -1.752385e+00 1.128201e+00 1.081193e+00 -1.066083e+00 9.115758e-01 1.154462e+00 7.447592e-01 -2.901491e+00 -2.396096e+00 -4.291402e-01 -1.166304e+00 -1.741655e+00 -8.187333e-01 -1.642316e+00 -1.017049e+00 2.062381e-01 5.508942e-01 -2.188112e-01 9.755635e-02 1.054091e-01 -1.068550e+00 -4.710440e-01 2.818175e-01 -5.008444e-01 -5.290818e-01 -1.640408e-01 -1.065898e-01 -2.557592e-01
<VARIANCE> 39
 4.462721e+01 5.759002e+01 3.852772e+01 4.561884e+01 3.273035e+01 6.864175e+01 4.085501e+01 4.261685e+01 6.204216e+01 5.245570e+01 3.244160e+01 3.163883e+01 2.726606e+01 5.024453e+00 7.065407e+00 3.572575e+00 3.993096e+00 3.331373e+00 6.645366e+00 4.999924e+00 3.431629e+00 5.490190e+00 6.548048e+00 4.277514e+00 3.468743e+00 3.104671e+00 3.987916e-01 1.325502e+00 5.206320e-01 7.020175e-01 5.787067e-01 1.038432e+00 7.866213e-01 7.786958e-01 9.487715e-01 9.181421e-01 6.276256e-01 5.523207e-01 4.790734e-01
<GCONST> 1.355099e+02
<STATE> 3
<MEAN> 39
 8.111982e-01 -3.048781e+00 6.619170e+00 8.223590e+00 5.168252e+00 -7.654134e+00 -8.975903e+00 -3.930638e+00 -3.204239e+00 -4.565661e+00 -3.760323e+00 -6.437850e+00 -2.662787e+00 6.306711e-01 7.942798e-02 3.014619e-01 9.075734e-01 4.125280e-01 -3.455215e+00 -1.887340e+00 7.770651e-01 -1.188813e+00 -1.982016e+00 -7.491333e-01 -9.441648e-01 -6.916667e-01 -3.613452e-01 3.016713e-01 -3.069089e-02 -3.042664e-01 -3.028453e-01 9.527465e-01 7.535691e-01 1.800784e-01 4.698047e-01 4.687563e-01 1.451900e-01 6.009322e-01 4.176280e-01
<VARIANCE> 39
 1.044238e+01 1.633337e+01 3.554908e+01 4.334904e+01 3.034012e+01 4.730408e+01 2.945365e+01 3.750284e+01 3.771812e+01 3.602391e+01 3.446673e+01 2.629102e+01 2.103575e+01 2.539199e+00 3.078229e+00 2.956205e+00 2.808291e+00 2.578210e+00 6.097119e+00 3.463105e+00 3.605902e+00 4.980791e+00 5.509745e+00 3.090259e+00 2.930556e+00 2.330557e+00 4.056191e-01 5.625333e-01 5.140240e-01 4.774390e-01 4.276015e-01 1.106612e+00 7.372134e-01 5.478815e-01 7.591336e-01 9.380509e-01 6.503082e-01 4.830216e-01 4.109578e-01
<GCONST> 1.243925e+02
<STATE> 4
<MEAN> 39
 -1.080500e+00 -1.828306e+00 9.335161e+00 1.032096e+01 3.931155e+00 -9.243810e+00 -8.829960e+00 -7.302783e-01 -1.442740e+00 -7.328098e+00 -5.940508e+00 -3.744949e+00 -1.237902e+00 -3.691873e-01 6.858011e-01 -1.161085e-02 -9.160514e-02 -1.459371e-01 9.188119e-01 4.829068e-01 -2.979931e-01 3.924570e-01 6.531262e-01 2.344623e-04 4.675309e-01 3.338062e-01 -1.351527e-01 1.813687e-01 -1.752986e-01 -2.452606e-01 -7.774489e-02 9.574681e-01 5.512011e-01 -2.417562e-01 2.106214e-01 6.266568e-01 2.252971e-01 1.705619e-01 1.048117e-01
<VARIANCE> 39
 1.615847e+01 2.668093e+01 3.176707e+01 4.158865e+01 3.306274e+01 4.790191e+01 3.173732e+01 3.904110e+01 3.088197e+01 4.432482e+01 2.679486e+01 3.354206e+01 2.394991e+01 1.314528e+00 2.329566e+00 2.779305e+00 2.372159e+00 1.941367e+00 5.553909e+00 2.925469e+00 2.905162e+00 2.871686e+00 4.562907e+00 2.056237e+00 2.087099e+00 1.679728e+00 2.570051e-01 5.179667e-01 4.383610e-01 4.529040e-01 4.071477e-01 1.005098e+00 6.013004e-01 5.367941e-01 6.146489e-01 7.989154e-01 4.235843e-01 4.689493e-01 3.531938e-01
<GCONST> 1.196636e+02
<TRANSP> 5
 0.000000e+00 1.000000e+00 0.000000e+00 0.000000e+00 0.000000e+00
 0.000000e+00 3.860796e-01 6.139205e-01 0.000000e+00 0.000000e+00
 0.000000e+00 0.000000e+00 4.436018e-01 5.563982e-01 0.000000e+00
 0.000000e+00 0.000000e+00 0.000000e+00 6.755068e-01 3.244932e-01
 0.000000e+00 0.000000e+00 0.000000e+00 0.000000e+00 0.000000e+00
<ENDHMM>
~o
<STREAMINFO> 1 39
<VECSIZE> 39<NULLD><MFCC_D_A_Z><DIAGC>
~h "ii"
<BEGINHMM>
<NUMSTATES> 5
<STATE> 2
<MEAN> 39
 -2.076014e+00 -3.104824e+00 9.834238e+00 9.362975e+00 3.282492e+00 -9.714268e-01 -4.600877e+00 -3.613181e+00 1.617206e+00 -2.638087e+00 -5.663788e+00 -4.415426e+00 -1.185525e-01 1.032396e+00 -2.794988e-01 6.697697e-01 1.721996e+00 1.939970e-01 -3.853905e+00 -1.638307e+00 9.305988e-01 -1.260677e+00 -2.426118e+00 -1.284163e+00 -9.522569e-01 -7.505555e-01 -1.434121e-01 2.114426e-01 -1.396860e-01 -1.405568e-01 -1.708565e-01 -1.607922e-01 2.501688e-01 4.496347e-01 -8.159873e-02 -1.746630e-01 1.577612e-01 2.539996e-01 6.351554e-02
<VARIANCE> 39
 3.647278e+01 4.167007e+01 5.022809e+01 4.426555e+01 3.542130e+01 8.996408e+01 4.248040e+01 4.552361e+01 5.254216e+01 5.547738e+01 3.383121e+01 3.469861e+01 2.763191e+01 4.032608e+00 5.674445e+00 4.133978e+00 2.900165e+00 3.021133e+00 5.178531e+00 3.965508e+00 4.409418e+00 4.550068e+00 6.335977e+00 3.338305e+00 3.260110e+00 2.705565e+00 6.022984e-01 9.421545e-01 6.224384e-01 6.947651e-01 5.046560e-01 1.781097e+00 7.865061e-01 6.731790e-01 8.452125e-01 1.196084e+00 6.591371e-01 5.358298e-01 4.392322e-01
<GCONST> 1.346788e+02
<STATE> 3
<MEAN> 39
 -8.261445e-01 -3.454102e+00 1.192808e+01 1.240196e+01 9.936614e-01 -1.195130e+01 -7.005715e+00 1.729012e+00 -2.478283e+00 -1.140823e+01 -8.522224e+00 -4.325643e+00 -1.821463e+00 8.159711e-03 -4.259157e-02 -1.369822e-01 -1.776682e-01 -1.814976e-01 -3.256097e-01 -2.364517e-01 1.870660e-03 -1.321449e-01 -3.126724e-01 -4.283091e-02 1.454313e-01 -2.818472e-02 -2.017335e-03 3.273465e-02 -1.729800e-01 -1.915293e-01 1.032569e-01 4.809696e-01 2.449887e-02 -3.596891e-01 1.650433e-01 4.380982e-01 1.251203e-01 -2.147938e-02 5.504093e-02
<VARIANCE> 39
 6.168686e+00 1.301060e+01 2.791602e+01 2.652269e+01 2.950779e+01 2.786398e+01 2.313242e+01 2.646511e+01 2.077044e+01 2.495896e+01 2.460923e+01 2.552801e+01 2.471763e+01 2.345323e-01 4.932724e-01 1.134876e+00 1.074700e+00 1.085846e+00 1.466786e+00 1.288161e+00 1.653986e+00 1.191496e+00 1.617345e+00 1.044042e+00 1.050263e+00 9.299731e-01 7.720017e-02 1.295520e-01 1.637678e-01 1.957743e-01 1.906004e-01 4.358774e-01 2.680742e-01 2.723639e-01 2.648633e-01 3.279549e-01 2.218664e-01 2.175452e-01 1.905991e-01
<GCONST> 9.135675e+01
<STATE> 4
<MEAN> 39
 -1.008860e+00 -2.635646e+00 8.098274e+00 1.007539e+01 2.268350e+00 -9.089937e+00 -8.888332e+00 -2.832728e+00 -1.195307e+00 -7.462381e+00 -7.317568e+00 -4.363233e+00 -1.503962e+00 -2.437521e-01 8.146262e-01 -9.745592e-01 -9.009800e-01 4.609809e-01 2.358428e+00 6.132126e-01 -1.172571e+00 4.694639e-01 2.043426e+00 8.646632e-01 1.827475e-01 2.011205e-01 -1.716837e-01 1.675149e-01 2.403458e-02 -1.285192e-01 -9.142124e-02 6.373238e-01 5.336437e-01 6.098463e-02 1.652444e-02 2.342577e-01 1.409969e-01 1.538683e-01 2.939838e-02
<VARIANCE> 39
 1.835739e+01 2.571918e+01 4.027110e+01 3.996157e+01 3.431634e+01 6.131353e+01 3.582468e+01 3.320625e+01 3.318039e+01 4.575061e+01 3.138029e+01 3.241907e+01 2.643879e+01 1.922512e+00 2.771654e+00 2.695943e+00 2.315122e+00 1.955978e+00 4.822976e+00 3.135369e+00 2.701188e+00 3.283892e+00 3.105464e+00 2.334879e+00 2.428748e+00 2.037690e+00 2.461085e-01 5.595866e-01 4.190335e-01 4.402021e-01 3.616243e-01 9.218903e-01 5.321257e-01 4.902791e-01 5.358797e-01 6.771231e-01 4.620607e-01 4.437479e-01 3.468250e-01
<GCONST> 1.203581e+02
<TRANSP> 5
 0.000000e+00 1.000000e+00 0.000000e+00 0.000000e+00 0.000000e+00
 0.000000e+00 7.566968e-01 2.433032e-01 0.000000e+00 0.000000e+00
 0.000000e+00 0.000000e+00 8.553759e-01 1.446241e-01 0.000000e+00
 0.000000e+00 0.000000e+00 0.000000e+00 6.310244e-01 3.689756e-01
 0.000000e+00 0.000000e+00 0.000000e+00 0.000000e+00 0.000000e+00
<ENDHMM>
~o
<STREAMINFO> 1 39
<VECSIZE> 39<NULLD><MFCC_D_A_Z><DIAGC>
~h "j"
<BEGINHMM>
<NUMSTATES> 5
<STATE> 2
<MEAN> 39
 1.172331e+00 -1.433739e+00 2.109338e+00 8.056909e-02 7.485512e-01 -2.799633e-01 -4.083731e+00 -4.645346e+00 -7.990234e-02 1.764852e+00 6.641719e-01 -2.347143e+00 -2.163177e+00 -6.986458e-01 1.994020e+00 2.314407e+00 1.902046e+00 5.274404e-01 1.787617e+00 2.335435e-01 -1.119599e+00 8.306517e-01 1.237693e+00 -6.799747e-01 9.025096e-02 4.998299e-01 -4.156061e-02 4.940022e-01 1.431712e-02 1.526364e-01 -3.300234e-02 3.320222e-01 4.568231e-01 2.539933e-01 3.243132e-01 1.065697e-01 -1.140009e-01 2.591383e-01 5.028449e-02
<VARIANCE> 39
 3.526310e+01 3.989209e+01 7.151931e+01 5.625869e+01 3.520813e+01 6.591071e+01 4.256311e+01 5.225346e+01 5.150906e+01 5.939198e+01 4.373638e+01 3.027113e+01 3.501666e+01 1.444115e+00 5.319149e+00 4.001495e+00 3.516905e+00 2.885639e+00 6.917729e+00 4.486613e+00 4.126293e+00 4.776066e+00 4.459176e+00 3.280932e+00 2.810978e+00 2.707166e+00 3.617096e-01 9.601493e-01 8.662756e-01 5.462564e-01 5.201263e-01 1.201668e+00 6.536864e-01 7.642108e-01 7.438627e-01 7.241479e-01 5.940877e-01 4.459172e-01 4.237831e-01
<GCONST> 1.325491e+02
<STATE> 3
<MEAN> 39
 -1.878525e+00 1.230450e+01 8.260672e+00 1.005367e+01 4.180877e+00 6.718771e+00 3.846719e-01 -4.580159e+00 5.779282e+00 7.068031e+00 -2.325372e+00 1.510260e+00 8.232412e-01 -1.121136e+00 -1.164877e+00 1.334602e+00 2.852100e-01 -4.975044e-01 1.358491e+00 1.362059e+00 9.177159e-02 8.981532e-01 2.158206e-01 4.016472e-02 1.488461e-01 6.258344e-01 -5.084513e-01 -1.753063e+00 1.738609e-01 -6.879165e-01 -3.844560e-01 -4.855005e-02 9.212561e-03 8.765914e-03 -1.587768e-01 -4.346285e-01 1.598721e-01 -3.456661e-01 1.037340e-01
<VARIANCE> 39
 3.588290e+01 6.237788e+01 3.430886e+01 3.732963e+01 2.637616e+01 3.689456e+01 3.049336e+01 3.220402e+01 2.744579e+01 3.420985e+01 2.620582e+01 2.195290e+01 1.867635e+01 6.958046e+00 2.210631e+01 4.664622e+00 4.986592e+00 3.634773e+00 5.810624e+00 4.596904e+00 3.224960e+00 2.965635e+00 4.614876e+00 2.697334e+00 2.927261e+00 2.485240e+00 8.964663e-01 2.049051e+00 7.518695e-01 6.952123e-01 6.422046e-01 1.179483e+00 8.372503e-01 5.973354e-01 5.703443e-01 7.545445e-01 5.260059e-01 5.284901e-01 4.717724e-01
<GCONST> 1.320791e+02
<STATE> 4
<MEAN> 39
 -1.012494e+01 -9.771048e+00 1.613908e+01 4.230491e+00 -1.626189e+00 9.320572e+00 2.435030e+00 -6.355402e+00 6.476257e+00 3.050963e+00 -1.786133e+00 -2.880790e+00 3.046443e+00 5.406549e-01 -1.524774e+00 -1.653126e-01 -2.901792e-01 -3.281911e-01 -2.461199e+00 -1.854308e+00 -6.433399e-01 -1.021928e+00 -1.210623e+00 -2.644297e-01 -9.329128e-01 -4.918039e-01 1.250080e+00 1.469370e+00 -9.960930e-01 3.544455e-01 3.486456e-01 -1.225110e+00 -7.015904e-01 9.158740e-02 -6.188087e-01 -2.406596e-01 -1.152185e-01 8.116490e-02 -4.418761e-01
<VARIANCE> 39
 6.143897e+01 4.418532e+01 5.340757e+01 3.038300e+01 3.381483e+01 9.628793e+01 6.354484e+01 4.141106e+01 3.691393e+01 3.034095e+01 2.674663e+01 2.206999e+01 2.444127e+01 1.338235e+01 1.731429e+01 9.519448e+00 4.888703e+00 3.628068e+00 1.200216e+01 6.488185e+00 3.374086e+00 4.237889e+00 3.710618e+00 3.869928e+00 2.420388e+00 2.927775e+00 1.687542e+00 1.967607e+00 1.250831e+00 8.355683e-01 6.357015e-01 2.000564e+00 1.712397e+00 8.706115e-01 7.037212e-01 7.640181e-01 7.502609e-01 5.072379e-01 5.301967e-01
<GCONST> 1.414121e+02
<TRANSP> 5
 0.000000e+00 1.000000e+00 0.000000e+00 0.000000e+00 0.000000e+00
 0.000000e+00 6.788563e-01 3.211437e-01 0.000000e+00 0.000000e+00
 0.000000e+00 0.000000e+00 7.640375e-01 2.359625e-01 0.000000e+00
 0.000000e+00 0.000000e+00 0.000000e+00 7.714406e-01 2.285595e-01
 0.000000e+00 0.000000e+00 0.000000e+00 0.000000e+00 0.000000e+00
<ENDHMM>
~o
<STREAMINFO> 1 39
<VECSIZE> 39<NULLD><MFCC_D_A_Z><DIAGC>
~h "k"
<BEGINHMM>
<NUMSTATES> 5
<STATE> 2
<MEAN> 39
 -2.538622e+00 4.132572e+00 3.637848e+00 3.732642e+00 1.548606e-01 3.665484e-01 2.807170e-01 -1.597383e+00 5.815513e-01 1.181816e+00 -1.874686e+00 7.136093e-01 1.953830e+00 -1.419200e+00 6.018906e-01 2.440142e-01 1.840688e-01 4.925253e-02 1.862639e+00 9.787381e-01 -4.905325e-01 7.675208e-01 1.294805e+00 5.210491e-02 5.186628e-01 6.658849e-01 3.560470e-02 -6.029610e-01 -2.484072e-01 -3.738858e-01 -7.338756e-02 1.400113e-02 4.264034e-02 3.984683e-02 -5.765940e-02 -1.081113e-01 2.393739e-01 -3.625440e-03 -4.579969e-02
<VARIANCE> 39
 4.761132e+01 4.932181e+01 5.475390e+01 9.062299e+01 4.278382e+01 6.327964e+01 5.436646e+01 4.873426e+01 6.555382e+01 5.943361e+01 4.212818e+01 3.705955e+01 2.646386e+01 1.576408e+00 6.778708e+00 3.841185e+00 3.358140e+00 2.840946e+00 4.865417e+00 3.051899e+00 3.355731e+00 3.898885e+00 3.850432e+00 2.764258e+00 2.743801e+00 2.263050e+00 3.901170e-01 1.221291e+00 6.487432e-01 6.460328e-01 5.896321e-01 1.103867e+00 5.689631e-01 7.096483e-01 8.241096e-01 7.651045e-01 5.417783e-01 5.554097e-01 5.143690e-01
<GCONST> 1.327870e+02
<STATE> 3
<MEAN> 39
 -9.712718e+00 5.603506e+00 3.238692e+00 5.109742e+00 1.301211e+00 6.377419e+00 3.744927e+00 -2.406138e+00 4.882817e+00 6.010086e+00 -2.042559e+00 2.714576e+00 3.388872e+00 -7.038080e-01 -2.451000e+00 -9.970974e-01 -1.780126e+00 -4.925088e-01 1.215735e+00 1.147926e+00 9.982484e-02 -1.869986e-02 3.976023e-01 1.323919e+00 9.362542e-02 6.814526e-01 7.465854e-01 -8.271772e-01 -7.962754e-02 -6.137738e-01 -3.526266e-01 -5.671893e-01 -2.533865e-01 1.994731e-01 -4.856424e-01 -5.928220e-01 3.170399e-01 -1.626157e-01 -6.438980e-03
<VARIANCE> 39
 4.152935e+01 5.284551e+01 3.955357e+01 7.004047e+01 3.438784e+01 4.430632e+01 4.289397e+01 4.329797e+01 4.907615e+01 4.362613e+01 3.233881e+01 3.418865e+01 2.187066e+01 2.704040e+00 1.098214e+01 3.410270e+00 6.722836e+00 4.691786e+00 5.756661e+00 3.860178e+00 4.523110e+00 4.099454e+00 3.636729e+00 3.585861e+00 3.361213e+00 3.068631e+00 3.458048e-01 1.412873e+00 7.143990e-01 8.304839e-01 6.852640e-01 1.179559e+00 6.824204e-01 7.159803e-01 6.694811e-01 6.127468e-01 5.679023e-01 5.590860e-01 5.624710e-01
<GCONST> 1.341265e+02
<STATE> 4
<MEAN> 39
 -7.115570e+00 -4.517329e+00 1.545117e+00 -2.468227e+00 -2.839663e+00 6.291574e+00 4.710714e+00 -1.462289e+00 2.641310e+00 3.574149e+00 2.465948e+00 2.330979e+00 5.037514e+00 1.576673e+00 -6.279442e-01 1.957810e-01 -6.314279e-01 -4.766667e-01 -1.484883e+00 -7.762226e-01 2.207523e-01 -9.979963e-01 -1.143989e+00 2.245570e-01 -4.329237e-01 -7.757543e-01 5.951729e-01 7.664385e-01 1.695112e-02 4.924829e-01 2.122488e-01 -9.496448e-01 -5.576777e-01 1.301756e-01 -2.651309e-01 -3.915548e-01 -4.408893e-01 -2.016025e-01 -5.438603e-01
<VARIANCE> 39
 4.010550e+01 8.896251e+01 5.186058e+01 1.127578e+02 5.627122e+01 9.282878e+01 6.177169e+01 4.885602e+01 4.696389e+01 5.085263e+01 4.399255e+01 3.650204e+01 3.711641e+01 4.714071e+00 1.023851e+01 4.761607e+00 7.323460e+00 5.239917e+00 9.349777e+00 5.807540e+00 3.731181e+00 4.013320e+00 4.428711e+00 4.839200e+00 3.522514e+00 4.809826e+00 6.428540e-01 2.362056e+00 1.004016e+00 1.400688e+00 1.078003e+00 1.756452e+00 1.048757e+00 7.871503e-01 8.037553e-01 8.468403e-01 9.176987e-01 6.576636e-01 9.139554e-01
<GCONST> 1.457837e+02
<TRANSP> 5
 0.000000e+00 1.000000e+00 0.000000e+00 0.000000e+00 0.000000e+00
 0.000000e+00 5.204660e-01 4.795340e-01 0.000000e+00 0.000000e+00
 0.000000e+00 0.000000e+00 3.211476e-01 6.788524e-01 0.000000e+00
 0.000000e+00 0.000000e+00 0.000000e+00 6.149532e-01 3.850468e-01
 0.000000e+00 0.000000e+00 0.000000e+00 0.000000e+00 0.000000e+00
<ENDHMM>
~o
<STREAMINFO> 1 39
<VECSIZE> 39<NULLD><MFCC_D_A_Z><DIAGC>
~h "kh"
<BEGINHMM>
<NUMSTATES> 5
<STATE> 2
<MEAN> 39
 -5.331397e+00 8.727825e+00 3.735427e+00 5.589432e-01 -1.593337e+00 2.578991e+00 1.446669e+00 -2.039782e-01 5.252577e+00 6.689573e+00 3.186814e-01 7.014437e-01 -9.951335e-03 -1.723133e+00 -1.386062e+00 -6.218128e-01 6.092980e-02 3.234941e-01 2.065291e+00 1.149333e+00 -3.115111e-01 7.732589e-01 8.195532e-01 2.379539e-01 5.362942e-01 1.208789e+00 2.275050e-01 -8.649604e-01 -2.180505e-01 -3.787753e-01 -1.780644e-01 -1.172982e-01 4.209182e-02 9.488270e-02 -2.212807e-01 -3.844296e-01 1.670606e-01 5.465434e-02 2.235145e-01
<VARIANCE> 39
 5.544527e+01 5.940611e+01 3.729896e+01 6.239274e+01 5.345385e+01 5.678352e+01 4.103798e+01 4.579950e+01 4.922585e+01 4.797820e+01 4.203588e+01 4.007321e+01 3.410190e+01 1.879343e+00 1.070019e+01 4.713297e+00 6.069397e+00 3.500919e+00 4.739288e+00 3.046881e+00 3.453706e+00 4.660173e+00 4.549812e+00 3.768090e+00 2.790927e+00 2.497997e+00 5.072582e-01 1.020005e+00 7.057807e-01 8.133770e-01 7.303217e-01 8.895440e-01 5.355681e-01 6.848249e-01 9.009905e-01 6.753924e-01 7.180806e-01 6.005934e-01 4.812530e-01
<GCONST> 1.349345e+02
<STATE> 3
<MEAN> 39
 -9.611026e+00 -1.191497e+01 1.126172e-01 -4.385152e+00 -3.845078e+00 9.725622e+00 6.977746e+00 -8.044774e-01 5.633957e+00 5.540450e+00 4.236217e+00 3.745888e+00 9.281322e+00 6.328163e-01 -2.353541e+00 5.110747e-01 -3.126626e-01 -4.558982e-01 -1.993917e-01 3.778328e-01 1.327355e-01 -2.947950e-02 -2.051535e-01 7.433562e-01 6.744973e-01 5.097577e-01 4.034825e-01 1.293677e+00 4.929866e-01 8.174381e-01 3.275517e-01 -8.875677e-01 -5.090238e-01 7.888063e-02 -5.309252e-02 -1.953548e-01 -5.551430e-01 -2.770769e-01 -9.337989e-01
<VARIANCE> 39
 2.704420e+01 5.508892e+01 4.137957e+01 7.989513e+01 4.515538e+01 5.582990e+01 3.869020e+01 3.617912e+01 3.087643e+01 3.699704e+01 2.360692e+01 2.650461e+01 2.429498e+01 1.624392e+00 8.733917e+00 4.178246e+00 6.823674e+00 4.695810e+00 4.624687e+00 3.392841e+00 3.569192e+00 3.580998e+00 3.475357e+00 3.676313e+00 3.233008e+00 5.016019e+00 3.609264e-01 9.695962e-01 8.461642e-01 9.430176e-01 8.493516e-01 1.065140e+00 6.836170e-01 6.478009e-01 7.244641e-01 8.550373e-01 6.229394e-01 7.054938e-01 7.271686e-01
<GCONST> 1.332075e+02
<STATE> 4
<MEAN> 39
 -5.658224e+00 -1.041311e+01 4.246284e+00 5.855393e-01 -1.355623e+00 4.481145e+00 5.508794e+00 -1.305496e-01 5.448619e+00 3.024330e+00 1.740281e+00 2.608562e+00 2.710946e+00 2.279238e+00 2.159020e+00 3.474388e-01 1.028839e+00 3.264259e-01 -4.168031e+00 -2.141415e+00 7.631941e-02 -1.776145e+00 -2.599302e+00 -1.506938e+00 -1.824691e+00 -3.285508e+00 3.496866e-01 4.970780e-01 -6.123096e-01 -6.447465e-01 -3.423845e-01 -6.906251e-01 -6.409220e-01 -2.469432e-01 -6.054224e-01 -3.585775e-01 1.885928e-02 -3.627571e-01 -1.212223e-01
<VARIANCE> 39
 2.796979e+01 3.247559e+01 3.060104e+01 4.843003e+01 4.341614e+01 6.815364e+01 5.360902e+01 3.125076e+01 4.589204e+01 5.037243e+01 2.979970e+01 2.795326e+01 4.442950e+01 1.126324e+00 2.163984e+00 2.858947e+00 3.267697e+00 3.978570e+00 3.753325e+00 4.766176e+00 2.792891e+00 2.925105e+00 2.951859e+00 2.935120e+00 2.339884e+00 2.801875e+00 2.476508e-01 5.871356e-01 3.648366e-01 5.805980e-01 5.129821e-01 1.174390e+00 7.048551e-01 5.830178e-01 6.140026e-01 8.037478e-01 5.835983e-01 6.145498e-01 1.011422e+00
<GCONST> 1.264050e+02
<TRANSP> 5
 0.000000e+00 1.000000e+00 0.000000e+00 0.000000e+00 0.000000e+00
 0.000000e+00 8.247231e-01 1.752769e-01 0.000000e+00 0.000000e+00
 0.000000e+00 0.000000e+00 7.603161e-01 2.396839e-01 0.000000e+00
 0.000000e+00 0.000000e+00 0.000000e+00 5.684437e-01 4.315563e-01
 0.000000e+00 0.000000e+00 0.000000e+00 0.000000e+00 0.000000e+00
<ENDHMM>
~o
<STREAMINFO> 1 39
<VECSIZE> 39<NULLD><MFCC_D_A_Z><DIAGC>
~h "l"
<BEGINHMM>
<NUMSTATES> 5
<STATE> 2
<MEAN> 39
 2.378926e+00 -3.463227e+00 2.545804e+00 1.638253e+00 2.465576e+00 -5.866475e+00 -7.485822e+00 -5.149835e+00 -2.883026e+00 -2.110801e+00 -2.162083e-01 -3.094594e+00 -2.053448e+00 4.603662e-02 2.277880e-01 9.597446e-01 1.505687e+00 4.204779e-01 7.819761e-01 6.846439e-01 -9.482020e-01 -1.282856e+00 6.121587e-03 -4.201393e-01 1.397900e-02 1.323224e-01 -9.028088e-02 1.171051e-01 2.435483e-01 3.332164e-01 -5.258326e-02 3.626686e-01 6.320306e-01 3.202465e-01 -2.496821e-01 -2.576982e-01 -1.280666e-01 2.276434e-01 -6.850125e-02
<VARIANCE> 39
 1.218095e+01 1.743078e+01 4.644029e+01 5.839393e+01 3.960594e+01 4.436245e+01 3.526515e+01 4.313413e+01 3.933094e+01 4.530224e+01 4.560205e+01 3.059358e+01 2.580964e+01 8.526414e-01 1.650674e+00 3.292498e+00 4.347932e+00 2.982029e+00 4.896374e+00 4.447945e+00 3.908285e+00 4.977541e+00 4.733782e+00 3.266864e+00 2.283422e+00 2.516809e+00 1.472007e-01 2.708727e-01 3.651476e-01 4.729447e-01 4.585059e-01 9.261206e-01 6.038705e-01 6.346376e-01 8.216631e-01 8.537977e-01 6.031402e-01 4.417576e-01 4.327805e-01
<GCONST> 1.230395e+02
<STATE> 3
<MEAN> 39
 1.981617e+00 -1.982130e+00 7.314867e+00 8.135382e+00 3.663560e+00 -3.279767e+00 -2.105003e+00 -5.065756e+00 -9.559177e+00 -4.597568e+00 -1.675208e+00 -2.232315e+00 -3.417159e+00 -6.039836e-02 2.607333e-01 4.017391e-01 7.218263e-01 6.625362e-02 3.888654e-01 6.431757e-01 1.533898e-01 -6.702327e-01 -4.788470e-01 -1.542413e-01 4.645691e-01 -1.443475e-01 -2.528321e-02 -3.295580e-02 -5.040725e-01 -6.032366e-01 -1.253820e-01 -1.875976e-01 -4.820667e-01 -5.424692e-02 6.674480e-01 3.440985e-01 1.803174e-01 -2.118881e-02 1.578456e-01
<VARIANCE> 39
 5.842301e+00 1.165495e+01 2.603195e+01 3.880053e+01 3.616281e+01 2.969280e+01 2.579683e+01 4.423394e+01 4.391092e+01 3.335370e+01 3.917994e+01 2.833975e+01 2.847460e+01 4.892403e-01 1.158048e+00 2.452257e+00 2.973858e+00 1.914561e+00 2.891276e+00 2.786272e+00 2.917313e+00 4.042785e+00 3.101087e+00 3.116357e+00 2.065813e+00 2.128168e+00 1.234683e-01 2.923872e-01 5.319968e-01 6.781307e-01 4.145699e-01 6.994330e-01 5.398049e-01 6.161701e-01 8.726668e-01 7.793117e-01 6.756451e-01 4.498457e-01 4.281773e-01
<GCONST> 1.157522e+02
<STATE> 4
<MEAN> 39
 -1.180108e+00 1.153820e+00 5.405252e+00 7.763264e+00 3.270933e+00 8.302380e-01 -2.074940e+00 -6.494876e+00 -4.625119e+00 -2.271055e+00 -2.716892e+00 6.273052e-01 -1.179524e+00 -9.821780e-01 6.326200e-01 -8.584985e-01 -5.516073e-01 -1.609934e-01 5.103948e-01 -2.173248e-02 -1.425279e-01 1.765385e+00 1.641048e+00 3.303479e-01 3.242448e-01 5.734852e-01 -1.266551e-02 -1.454372e-01 -3.415264e-01 -4.794902e-01 -1.273191e-01 -2.611622e-01 -6.225115e-02 2.348188e-01 1.941945e-01 2.351694e-01 2.900778e-01 -1.403452e-01 -1.010904e-01
<VARIANCE> 39
 3.126777e+01 4.159393e+01 3.302344e+01 3.530999e+01 3.608112e+01 4.993129e+01 3.549946e+01 4.899981e+01 5.384202e+01 4.858080e+01 3.705721e+01 3.406750e+01 3.422936e+01 2.839171e+00 3.838003e+00 4.250060e+00 4.533971e+00 2.687620e+00 5.378101e+00 4.051229e+00 3.702433e+00 4.946508e+00 4.261103e+00 4.328448e+00 3.181825e+00 2.521128e+00 3.600064e-01 6.353467e-01 6.551801e-01 6.924371e-01 4.855674e-01 7.767850e-01 7.362939e-01 7.133368e-01 1.001722e+00 9.044043e-01 6.533267e-01 5.100648e-01 4.993403e-01
<GCONST> 1.309549e+02
<TRANSP> 5
 0.000000e+00 1.000000e+00 0.000000e+00 0.000000e+00 0.000000e+00
 0.000000e+00 6.369352e-01 3.630649e-01 0.000000e+00 0.000000e+00
 0.000000e+00 0.000000e+00 6.838612e-01 3.161388e-01 0.000000e+00
 0.000000e+00 0.000000e+00 0.000000e+00 5.925115e-01 4.074886e-01
 0.000000e+00 0.000000e+00 0.000000e+00 0.000000e+00 0.000000e+00
<ENDHMM>
~o
<STREAMINFO> 1 39
<VECSIZE> 39<NULLD><MFCC_D_A_Z><DIAGC>
~h "ln"
<BEGINHMM>
<NUMSTATES> 5
<STATE> 2
<MEAN> 39
 7.256454e+00 -1.384143e+00 -9.285776e+00 -4.852234e+00 1.778944e+00 -9.051177e+00 -4.039077e+00 1.659522e+00 -3.500179e+00 -4.576098e+00 2.190358e+00 4.289159e+00 1.143512e+00 1.813558e-01 -2.210990e-01 -7.790520e-01 2.590533e-01 1.514675e+00 7.653923e-01 -1.571430e+00 -1.943062e+00 5.346684e-01 3.371828e-01 -1.307842e+00 4.132330e-01 4.497952e-01 -2.656598e-01 3.567190e-01 8.595406e-01 1.887013e-01 2.380658e-02 8.769529e-01 6.327135e-02 -7.206467e-01 -3.325197e-01 1.657673e-01 -2.690682e-01 -4.461887e-01 -1.434607e-01
<VARIANCE> 39
 5.478426e+00 2.257199e+01 2.273528e+01 3.154395e+01 3.146363e+01 2.302355e+01 3.472087e+01 4.110304e+01 4.506137e+01 4.512019e+01 6.018253e+01 2.421422e+01 2.733835e+01 4.899787e-01 1.303942e+00 3.111478e+00 1.463341e+00 1.947457e+00 6.480715e+00 3.525005e+00 6.416504e+00 4.222231e+00 2.778356e+00 3.151100e+00 3.054439e+00 1.902830e+00 8.288280e-02 1.798775e-01 2.631989e-01 2.405321e-01 3.718149e-01 6.599666e-01 7.647674e-01 6.731482e-01 9.112268e-01 5.595105e-01 1.010572e+00 4.733175e-01 5.118919e-01
<GCONST> 1.161054e+02
<STATE> 3
<MEAN> 39
 5.826893e+00 8.146241e-01 -5.220527e+00 -3.709760e+00 5.963734e+00 -4.705817e-01 -8.348030e+00 -9.920994e+00 -6.624074e+00 -3.314020e+00 -3.093823e+00 8.464022e-01 -7.701801e-01 -5.912573e-01 6.141731e-01 1.150564e+00 9.712191e-01 1.907772e-01 1.480843e+00 4.425108e-01 -1.070248e+00 -6.986922e-01 1.246595e-01 -2.795629e-01 -4.711776e-03 -3.334898e-01 -2.537536e-01 1.745677e-01 1.023934e-01 2.581412e-01 -3.484510e-01 -2.633066e-01 3.795644e-01 7.929789e-01 5.535591e-01 3.199981e-02 1.372685e-01 2.743521e-01 1.525449e-01
<VARIANCE> 39
 5.968462e+00 2.647886e+01 2.084110e+01 5.096352e+01 3.921112e+01 6.117611e+01 6.113303e+01 4.510368e+01 4.965836e+01 4.045656e+01 3.919542e+01 2.656529e+01 3.125144e+01 5.883119e-01 1.819087e+00 1.946589e+00 2.064068e+00 2.440098e+00 4.938914e+00 4.047247e+00 7.079975e+00 4.981863e+00 3.614476e+00 3.665184e+00 3.058788e+00 2.631864e+00 1.301892e-01 2.766202e-01 3.487413e-01 3.703316e-01 3.951659e-01 8.742147e-01 6.406250e-01 7.989811e-01 9.875668e-01 6.223289e-01 6.354268e-01 4.971992e-01 5.465532e-01
<GCONST> 1.216404e+02
<STATE> 4
<MEAN> 39
 -3.028558e+00 5.658051e+00 -4.421493e-01 3.270786e+00 2.837430e+00 4.128593e+00 -1.516570e+00 -6.067062e+00 1.157947e-01 3.481231e-01 -3.884377e+00 5.250537e+00 2.183529e+00 -2.256865e+00 6.630231e-01 5.232909e-01 9.862362e-01 -4.890434e-01 9.311479e-01 1.403931e+00 7.071349e-01 1.837499e+00 1.686969e+00 3.359779e-01 3.539284e-01 5.103145e-01 2.353783e-02 -3.487084e-01 -2.251658e-01 -3.077852e-01 2.645911e-02 -1.056777e-01 -1.628977e-02 6.921825e-02 -5.524391e-02 8.783211e-02 1.918521e-01 -1.961282e-01 -9.232209e-02
<VARIANCE> 39
 4.320779e+01 4.737743e+01 3.882721e+01 3.859793e+01 3.095514e+01 5.019597e+01 6.823587e+01 6.373366e+01 6.276008e+01 6.685319e+01 4.566754e+01 3.284289e+01 2.926632e+01 1.922580e+00 4.221697e+00 3.342100e+00 3.206006e+00 2.786664e+00 4.147451e+00 4.215327e+00 5.610117e+00 4.915238e+00 3.928960e+00 4.082979e+00 2.958684e+00 2.550382e+00 4.421902e-01 8.353392e-01 5.953521e-01 4.883930e-01 4.974227e-01 7.212971e-01 7.404972e-01 9.939789e-01 1.022814e+00 9.302602e-01 7.510999e-01 5.444334e-01 4.726849e-01
<GCONST> 1.325800e+02
<TRANSP> 5
 0.000000e+00 1.000000e+00 0.000000e+00 0.000000e+00 0.000000e+00
 0.000000e+00 6.982560e-01 3.017440e-01 0.000000e+00 0.000000e+00
 0.000000e+00 0.000000e+00 7.945791e-01 2.054209e-01 0.000000e+00
 0.000000e+00 0.000000e+00 0.000000e+00 7.896363e-01 2.103638e-01
 0.000000e+00 0.000000e+00 0.000000e+00 0.000000e+00 0.000000e+00
<ENDHMM>
~o
<STREAMINFO> 1 39
<VECSIZE> 39<NULLD><MFCC_D_A_Z><DIAGC>
~h "lw"
<BEGINHMM>
<NUMSTATES> 5
<STATE> 2
<MEAN> 39
 3.459370e+00 -3.613162e+00 1.652416e-01 -1.280509e+00 -6.479477e-01 -6.380329e+00 -6.964335e+00 -6.567932e+00 -6.902261e+00 -2.820287e+00 4.160764e-01 -2.797290e+00 -2.749657e+00 1.869297e-02 3.656396e-01 7.909447e-01 1.614660e+00 5.973592e-01 4.254907e-01 1.025030e+00 -8.657351e-01 -2.106159e+00 -3.162589e-01 1.069488e-02 -1.154331e-01 -7.377642e-02 -1.405331e-02 7.498866e-02 1.621335e-01 2.927652e-01 2.266453e-01 2.600501e-01 2.923635e-01 3.352048e-01 1.014459e-01 -1.866106e-01 -1.687127e-01 1.584201e-01 -1.545514e-01
<VARIANCE> 39
 9.941668e+00 2.068905e+01 4.395682e+01 4.407479e+01 3.667395e+01 4.283678e+01 3.185084e+01 4.426602e+01 6.176549e+01 4.050374e+01 4.451754e+01 2.748594e+01 2.130790e+01 4.553229e-01 1.206471e+00 2.746979e+00 2.515173e+00 2.397239e+00 3.617613e+00 3.694018e+00 4.371083e+00 3.499862e+00 3.778887e+00 3.177914e+00 2.003049e+00 2.522500e+00 6.246918e-02 1.574686e-01 3.139800e-01 4.328654e-01 3.330517e-01 6.217389e-01 7.837885e-01 5.569099e-01 9.281607e-01 6.133521e-01 6.815760e-01 3.693730e-01 4.396803e-01
<GCONST> 1.170253e+02
<STATE> 3
<MEAN> 39
 2.777044e+00 -2.598917e+00 4.402160e+00 6.239746e+00 3.349437e+00 -5.329762e+00 -3.165388e+00 -5.080195e+00 -1.148048e+01 -7.282891e+00 -2.591392e+00 -3.184192e+00 -4.632092e+00 -2.926454e-01 6.987836e-01 4.636465e-01 1.218057e+00 1.170078e+00 1.843391e+00 4.446885e-01 1.808204e-01 1.415692e+00 3.576125e-01 -1.287651e+00 3.817320e-01 4.294939e-01 -4.069823e-01 4.156431e-01 -3.956298e-01 -5.378021e-01 -1.167415e-01 6.368231e-01 -1.735397e-01 -2.273438e-01 1.133155e+00 8.227133e-01 7.237955e-02 2.114941e-01 4.194203e-01
<VARIANCE> 39
 5.352014e+00 1.394234e+01 2.610430e+01 2.284181e+01 3.311515e+01 3.165360e+01 4.250549e+01 3.769330e+01 3.525888e+01 4.081666e+01 4.709113e+01 4.238272e+01 4.111991e+01 7.979436e-01 2.525974e+00 3.438143e+00 3.380799e+00 2.580179e+00 4.134739e+00 3.912621e+00 2.918625e+00 6.310894e+00 5.321118e+00 3.098831e+00 3.624090e+00 3.470422e+00 2.587930e-01 3.906526e-01 5.343364e-01 3.963478e-01 5.952412e-01 4.942728e-01 7.539676e-01 8.065321e-01 8.491840e-01 8.151927e-01 7.777070e-01 5.830148e-01 6.481418e-01
<GCONST> 1.232777e+02
<STATE> 4
<MEAN> 39
 -3.299368e+00 3.253959e+00 4.130841e+00 6.684151e+00 5.599215e+00 7.286588e+00 1.701507e-01 -8.183432e+00 -3.210089e-01 1.657948e+00 -5.016070e+00 1.185264e+00 -2.901450e-01 -2.194913e+00 2.041467e+00 -6.655043e-01 -7.136888e-02 -1.776737e-01 1.566596e+00 9.966684e-01 -1.917134e-01 2.034910e+00 1.670717e+00 -2.132548e-01 9.444913e-01 4.702986e-01 -1.497892e-01 -2.176960e-01 -4.317632e-02 -1.309073e-01 -3.167902e-01 -6.454321e-01 -5.209284e-03 3.174940e-01 -2.212718e-01 -2.725233e-01 1.282597e-01 -1.350240e-01 -8.825753e-02
<VARIANCE> 39
 3.350572e+01 5.697613e+01 4.606796e+01 3.533698e+01 2.779383e+01 4.582581e+01 4.370267e+01 3.890049e+01 3.921983e+01 3.514748e+01 3.251700e+01 4.216285e+01 2.787463e+01 1.583611e+00 3.322376e+00 3.535742e+00 2.493855e+00 2.715735e+00 6.950251e+00 3.707300e+00 4.404066e+00 3.507638e+00 2.999245e+00 2.535624e+00 2.963547e+00 2.759155e+00 3.452139e-01 8.631019e-01 9.350368e-01 6.119353e-01 5.146352e-01 9.586765e-01 6.721126e-01 6.540989e-01 6.753704e-01 3.583123e-01 5.635201e-01 5.041036e-01 5.456802e-01
<GCONST> 1.273668e+02
<TRANSP> 5
 0.000000e+00 1.000000e+00 0.000000e+00 0.000000e+00 0.000000e+00
 0.000000e+00 7.705508e-01 2.294491e-01 0.000000e+00 0.000000e+00
 0.000000e+00 0.000000e+00 6.778178e-01 3.221822e-01 0.000000e+00
 0.000000e+00 0.000000e+00 0.000000e+00 6.953169e-01 3.046831e-01
 0.000000e+00 0.000000e+00 0.000000e+00 0.000000e+00 0.000000e+00
<ENDHMM>
~o
<STREAMINFO> 1 39
<VECSIZE> 39<NULLD><MFCC_D_A_Z><DIAGC>
~h "lx"
<BEGINHMM>
<NUMSTATES> 5
<STATE> 2
<MEAN> 39
 7.406823e+00 1.610906e+00 -9.004880e+00 -6.629735e+00 3.243932e+00 -5.086732e+00 -4.050228e+00 1.325676e+00 -3.029136e+00 -5.050451e+00 -1.949336e+00 9.812081e-01 7.773717e-01 1.335704e-01 1.499420e-01 -6.203229e-02 -2.269673e-01 1.028108e+00 1.977033e+00 -1.221255e-01 -2.271865e+00 -4.299772e-01 6.528153e-01 -5.175318e-01 2.672506e-01 9.090845e-02 -2.980273e-01 4.813943e-02 8.729678e-01 3.543948e-01 -2.158867e-01 7.323360e-01 6.493971e-01 -5.227129e-01 -5.940766e-01 -4.972797e-02 2.830027e-04 -4.724264e-02 -1.200464e-01
<VARIANCE> 39
 6.854552e+00 4.100385e+01 4.009065e+01 4.616888e+01 3.563742e+01 6.330766e+01 3.703687e+01 7.340160e+01 6.132103e+01 4.978136e+01 6.276203e+01 3.563190e+01 3.172094e+01 6.299894e-01 1.645195e+00 4.174082e+00 2.404586e+00 2.555832e+00 8.194639e+00 4.633902e+00 6.031075e+00 6.283772e+00 3.623826e+00 4.218615e+00 2.653347e+00 2.532226e+00 1.273598e-01 3.235522e-01 5.448856e-01 3.721482e-01 5.016732e-01 1.420255e+00 8.774494e-01 1.227883e+00 1.175371e+00 8.552958e-01 9.432188e-01 6.369281e-01 4.985546e-01
<GCONST> 1.285965e+02
<STATE> 3
<MEAN> 39
 6.362897e+00 3.604885e+00 -4.136248e+00 -6.612807e+00 4.641408e+00 6.604150e+00 1.157737e+00 -8.764466e+00 -9.773060e+00 -4.254697e+00 -2.698684e+00 1.353209e+00 -9.565530e-01 -5.350114e-01 -2.561931e-01 1.805448e+00 1.352551e+00 4.584309e-02 1.376024e+00 1.697696e+00 -1.768562e+00 -2.494288e+00 -3.430857e-01 5.243699e-01 5.394458e-01 -4.671063e-01 -2.050524e-02 -2.916282e-01 -8.640653e-02 2.687230e-01 -3.536367e-01 -1.283297e+00 -4.127915e-01 1.032084e+00 6.402634e-01 -1.167383e-01 9.002192e-02 -1.113742e-01 1.745332e-01
<VARIANCE> 39
 6.456998e+00 3.442334e+01 3.169823e+01 4.867149e+01 3.688236e+01 6.366904e+01 4.969103e+01 5.334457e+01 5.869202e+01 4.747045e+01 5.161860e+01 3.215469e+01 3.270044e+01 4.295350e-01 2.141100e+00 4.010919e+00 2.656044e+00 2.870600e+00 8.647164e+00 4.930672e+00 6.495259e+00 6.261627e+00 4.785211e+00 5.513481e+00 3.623776e+00 3.002658e+00 6.937628e-02 2.890736e-01 4.313126e-01 5.076713e-01 6.254582e-01 1.006485e+00 9.989193e-01 1.073696e+00 1.466233e+00 9.365023e-01 1.006193e+00 6.466438e-01 5.809440e-01
<GCONST> 1.288787e+02
<STATE> 4
<MEAN> 39
 4.733037e+00 2.668418e-01 4.585920e-02 -6.112689e-01 2.835312e+00 1.008394e+00 1.888318e+00 -6.850651e+00 -1.149768e+01 -5.954820e+00 -2.078114e+00 2.357300e+00 -4.345323e-01 -1.637496e-01 -1.064852e+00 5.832044e-02 2.772447e-01 -1.063950e+00 -1.696681e+00 -7.139614e-01 1.271720e+00 1.493681e+00 7.252570e-03 3.722400e-01 -1.341702e-02 4.340065e-01 1.233932e-01 -1.196855e-01 -6.778641e-01 -6.220451e-01 -1.748002e-01 -5.094002e-01 -6.332638e-01 5.583156e-01 9.585083e-01 2.335449e-01 2.646461e-01 -1.612207e-01 -1.425941e-01
<VARIANCE> 39
 9.133577e+00 2.594720e+01 3.851997e+01 5.475689e+01 4.055199e+01 5.983738e+01 4.533855e+01 4.881073e+01 5.956395e+01 4.151702e+01 4.282426e+01 3.086124e+01 3.539236e+01 4.861338e-01 1.734045e+00 3.269393e+00 4.450199e+00 3.280043e+00 5.040842e+00 4.700565e+00 5.798708e+00 7.252872e+00 4.252934e+00 4.020891e+00 3.461080e+00 2.809103e+00 7.364620e-02 3.243298e-01 5.948009e-01 5.341312e-01 6.309199e-01 1.303119e+00 1.203255e+00 1.027098e+00 1.462662e+00 8.980584e-01 8.737366e-01 6.663241e-01 7.131576e-01
<GCONST> 1.291029e+02
<TRANSP> 5
