~o
<STREAMINFO> 1 39
<VECSIZE> 39<NULLD><MFCC_D_A_Z><DIAGC>
~h "a"
<BEGINHMM>
<NUMSTATES> 5
<STATE> 2
<MEAN> 39
 3.436546e+00 -5.846498e+00 -5.780811e+00 -6.381568e+00 -1.460066e+00 -2.685340e+00 -2.383321e+00 2.784018e+00 8.733161e+00 -4.633913e-01 -1.332104e+00 -5.342310e+00 -3.603441e-01 5.988655e-01 7.967641e-01 4.758049e-01 8.215835e-01 4.695242e-01 3.986205e-03 -1.699880e-02 -8.434376e-01 -8.463750e-01 1.775030e-01 2.094781e-01 3.441629e-01 8.326881e-02 -9.869751e-02 7.317457e-01 6.137128e-01 9.291419e-01 3.097481e-01 1.753762e-01 5.826514e-02 -3.587742e-01 -1.076323e+00 1.066804e-01 6.330015e-02 4.976034e-01 9.309138e-02
<VARIANCE> 39
 1.448944e+01 2.240517e+01 3.294913e+01 3.404396e+01 6.319377e+01 6.380540e+01 5.246257e+01 6.475465e+01 5.167213e+01 4.349577e+01 4.734280e+01 4.251461e+01 3.922998e+01 1.928332e+00 4.666326e+00 3.555684e+00 5.214555e+00 5.071054e+00 4.397931e+00 4.192304e+00 6.396965e+00 8.391779e+00 3.818947e+00 4.406137e+00 4.447293e+00 3.249457e+00 6.115241e-01 4.427429e-01 4.397425e-01 6.404240e-01 8.886058e-01 7.651825e-01 8.362848e-01 9.573393e-01 1.061574e+00 7.540046e-01 7.926105e-01 7.369267e-01 8.170989e-01
<GCONST> 1.348972e+02
<STATE> 3
<MEAN> 39
 6.783564e+00 2.102552e+00 -2.445896e-01 2.793841e+00 2.177174e+00 -2.735067e+00 -2.833337e+00 -2.011626e+00 -2.166940e-01 8.836935e-01 -1.650336e+00 -1.545838e+00 8.161757e-01 -3.472841e-01 1.977697e+00 1.684271e+00 2.916397e+00 1.612346e+00 7.945765e-01 7.700990e-01 -5.420976e-01 -2.670099e+00 -1.550970e-01 -3.263683e-01 9.084819e-01 1.854100e-01 -7.847693e-01 -5.479053e-01 -2.400035e-01 -4.638097e-01 -3.250763e-01 1.807708e-01 1.947809e-01 4.855263e-01 4.327817e-01 -5.167222e-02 9.889147e-02 -9.787241e-02 -1.435233e-01
<VARIANCE> 39
 3.086782e+01 4.196760e+01 4.318743e+01 5.331807e+01 6.470258e+01 6.664706e+01 5.336917e+01 8.125459e+01 8.242577e+01 4.751958e+01 5.078094e+01 3.744558e+01 3.151862e+01 5.589850e+00 3.347550e+00 2.596688e+00 4.000494e+00 5.598364e+00 3.868812e+00 4.548197e+00 6.441064e+00 6.090361e+00 3.706539e+00 3.753034e+00 3.646268e+00 4.092325e+00 7.202865e-01 5.646338e-01 6.084657e-01 1.024369e+00 8.374062e-01 8.488855e-01 8.193828e-01 1.009232e+00 1.254476e+00 7.024432e-01 7.779873e-01 6.753978e-01 5.868392e-01
<GCONST> 1.382619e+02
<STATE> 4
<MEAN> 39
 -1.789047e+00 2.727494e+00 -3.329711e-01 4.522591e+00 5.652206e+00 6.496220e-01 2.046948e+00 2.826142e+00 -1.770275e+00 1.094040e+00 -1.153134e+00 8.482682e-01 6.523344e-01 -1.075961e+00 -6.213883e-01 -3.625813e-01 -5.677364e-01 -6.436197e-01 1.788399e-01 1.156573e-01 -6.816873e-02 1.374892e-01 4.252401e-02 4.821698e-01 1.150155e-01 -1.086156e-01 3.075629e-01 -4.272696e-01 -3.052168e-01 -6.265987e-01 -4.814644e-01 -2.326265e-01 -3.181608e-01 -9.625608e-02 5.534581e-01 3.015904e-03 1.225280e-02 -2.803289e-01 -5.124160e-03
<VARIANCE> 39
 7.635017e+01 4.834153e+01 4.351587e+01 5.306717e+01 6.370082e+01 5.241718e+01 5.291910e+01 8.063923e+01 5.778452e+01 3.766359e+01 3.501693e+01 3.590765e+01 2.269052e+01 7.731992e+00 3.555053e+00 4.222699e+00 6.223756e+00 5.137705e+00 5.131102e+00 5.168579e+00 5.576092e+00 6.247972e+00 3.532394e+00 3.306288e+00 3.928499e+00 2.544156e+00 9.134051e-01 7.485749e-01 7.860916e-01 1.091774e+00 1.010845e+00 8.291574e-01 8.195528e-01 1.020797e+00 1.222152e+00 6.650298e-01 6.399651e-01 7.255708e-01 5.495084e-01
<GCONST> 1.393984e+02
<TRANSP> 5
 0.000000e+00 1.000000e+00 0.000000e+00 0.000000e+00 0.000000e+00
 0.000000e+00 6.410277e-01 3.589723e-01 0.000000e+00 0.000000e+00
 0.000000e+00 0.000000e+00 4.990387e-01 5.009613e-01 0.000000e+00
 0.000000e+00 0.000000e+00 0.000000e+00 6.266630e-01 3.733370e-01
 0.000000e+00 0.000000e+00 0.000000e+00 0.000000e+00 0.000000e+00
<ENDHMM>
~o
<STREAMINFO> 1 39
<VECSIZE> 39<NULLD><MFCC_D_A_Z><DIAGC>
~h "aa"
<BEGINHMM>
<NUMSTATES> 5
<STATE> 2
<MEAN> 39
 2.649782e+00 -5.600837e+00 -8.370423e+00 -8.336012e+00 6.266242e+00 5.122731e+00 1.223378e+00 1.408665e+00 4.885256e+00 -2.413856e+00 -6.567742e-01 -4.816236e+00 -1.755260e+00 -9.564785e-02 -1.002853e+00 -7.421220e-01 -1.530463e+00 1.206570e+00 1.006023e+00 4.193999e-01 -8.889320e-01 2.638355e-01 -7.702316e-01 2.778136e-01 -7.045766e-01 -4.496939e-01 -1.311212e-01 2.165421e-01 3.155513e-01 3.051398e-01 -3.915487e-02 -1.023782e-01 -8.197383e-02 -1.101311e-01 -2.909579e-01 1.058100e-01 6.153570e-02 1.888734e-01 1.010255e-01
<VARIANCE> 39
 2.022228e+01 3.143625e+01 3.285139e+01 5.422440e+01 6.228996e+01 6.117737e+01 5.197681e+01 5.497906e+01 5.414445e+01 4.175668e+01 4.848337e+01 4.331458e+01 2.921768e+01 1.874822e+00 2.529703e+00 3.151112e+00 4.124213e+00 3.821733e+00 3.609789e+00 3.790849e+00 4.840229e+00 4.383316e+00 3.321025e+00 3.081093e+00 3.310622e+00 2.272504e+00 4.711327e-01 4.203608e-01 5.069439e-01 7.868096e-01 7.691727e-01 6.615862e-01 6.987898e-01 8.824191e-01 8.783190e-01 6.230636e-01 6.086977e-01 6.463328e-01 4.446808e-01
<GCONST> 1.300014e+02
<STATE> 3
<MEAN> 39
 2.610836e+00 -7.861310e+00 -1.004898e+01 -1.149383e+01 7.535459e+00 6.866978e+00 1.934539e-01 -2.346621e+00 5.868254e+00 -4.914223e+00 -6.887597e-01 -6.663719e+00 -3.124563e+00 -2.268047e-02 -1.373561e-02 -6.601474e-02 1.763035e-01 7.629511e-02 -1.691651e-01 1.867774e-02 -1.757228e-03 6.423879e-03 -2.765356e-02 -1.078448e-01 -2.176007e-01 1.962807e-01 7.752306e-02 9.922668e-02 8.009356e-02 1.937170e-01 -2.499948e-01 -2.267618e-01 -6.184693e-02 1.922039e-01 4.318447e-02 1.237750e-01 -3.790135e-02 1.470585e-02 6.755073e-02
<VARIANCE> 39
 6.839664e+00 1.140198e+01 2.490080e+01 2.768150e+01 4.057987e+01 3.806682e+01 3.476467e+01 3.150840e+01 2.994978e+01 2.920752e+01 3.528916e+01 2.609737e+01 2.398461e+01 2.413263e-01 4.031885e-01 6.281556e-01 1.001896e+00 1.276336e+00 1.656870e+00 1.184642e+00 1.640828e+00 1.210370e+00 1.137337e+00 1.235846e+00 1.063585e+00 9.976692e-01 4.314977e-02 8.179990e-02 1.154328e-01 1.500333e-01 1.899454e-01 2.290116e-01 2.270635e-01 2.572968e-01 2.210103e-01 2.153035e-01 2.001599e-01 2.046329e-01 1.623462e-01
<GCONST> 8.916281e+01
<STATE> 4
<MEAN> 39
 3.560833e+00 -6.411151e+00 -9.105478e+00 -7.330123e+00 4.823443e+00 1.578268e+00 8.098717e-01 1.616951e+00 6.184300e+00 -2.796675e+00 -1.734273e+00 -8.278938e+00 -1.957562e-01 5.702649e-01 1.297930e+00 1.063661e+00 1.775069e+00 -1.316890e+00 -1.386467e+00 -4.321506e-01 5.380623e-01 -3.734238e-01 1.090930e+00 2.832407e-02 6.658217e-01 3.237708e-01 3.897647e-02 4.017487e-01 4.855652e-01 4.321540e-01 9.253813e-02 1.650442e-01 -1.500853e-01 -3.853229e-01 -5.057880e-01 2.103872e-01 1.112501e-01 4.316144e-01 -4.960769e-02
<VARIANCE> 39
 1.054934e+01 1.995049e+01 3.204683e+01 3.914906e+01 5.872762e+01 5.423681e+01 4.461482e+01 4.596011e+01 3.878492e+01 3.746272e+01 4.145376e+01 3.542055e+01 3.572402e+01 1.121104e+00 2.018527e+00 2.806605e+00 2.867156e+00 4.012492e+00 4.078689e+00 3.560138e+00 4.552877e+00 4.139621e+00 3.364145e+00 3.353915e+00 3.509444e+00 2.530127e+00 2.957199e-01 3.032171e-01 3.398124e-01 5.308259e-01 6.972895e-01 6.737939e-01 5.786840e-01 8.469567e-01 6.795900e-01 6.058849e-01 5.520055e-01 5.416682e-01 5.087680e-01
<GCONST> 1.241494e+02
<TRANSP> 5
 0.000000e+00 1.000000e+00 0.000000e+00 0.000000e+00 0.000000e+00
 0.000000e+00 6.812708e-01 3.187293e-01 0.000000e+00 0.000000e+00
 0.000000e+00 0.000000e+00 8.762698e-01 1.237302e-01 0.000000e+00
 0.000000e+00 0.000000e+00 0.000000e+00 7.360460e-01 2.639540e-01
 0.000000e+00 0.000000e+00 0.000000e+00 0.000000e+00 0.000000e+00
<ENDHMM>
~o
<STREAMINFO> 1 39
<VECSIZE> 39<NULLD><MFCC_D_A_Z><DIAGC>
~h "ag"
<BEGINHMM>
<NUMSTATES> 5
<STATE> 2
<MEAN> 39
 -5.411266e-01 5.493156e+00 -9.032001e-01 1.716553e+00 3.484084e+00 1.399742e+00 1.673952e+00 -1.123308e+00 -6.289654e+00 7.431943e-01 5.460333e-01 3.018265e+00 -7.401077e-01 -1.351884e+00 -2.227927e-01 9.508536e-01 1.353033e+00 6.498623e-01 -1.057179e+00 -7.945327e-02 8.970544e-01 -7.421868e-02 8.497426e-02 -4.152893e-01 -3.645987e-01 -1.217153e-01 8.622136e-02 -4.258038e-01 1.457640e-01 -4.023811e-01 -1.144684e+00 -2.562293e-01 -4.321472e-01 -4.748542e-01 4.236885e-01 -1.307875e-01 1.813793e-01 6.015199e-02 -1.187305e-01
<VARIANCE> 39
 1.620450e+02 3.385113e+01 4.725163e+01 4.872055e+01 6.740223e+01 4.814712e+01 3.873663e+01 6.896301e+01 5.656292e+01 3.245624e+01 2.643578e+01 2.713367e+01 1.745501e+01 9.386086e+00 4.974334e+00 4.878451e+00 4.061168e+00 1.017713e+01 5.774496e+00 6.433190e+00 5.691289e+00 6.966012e+00 3.869659e+00 2.633115e+00 2.576349e+00 2.146054e+00 2.048270e+00 8.985374e-01 6.672029e-01 6.630601e-01 1.457754e+00 8.604545e-01 8.676582e-01 1.247988e+00 1.303619e+00 7.782413e-01 5.590672e-01 4.814888e-01 4.084001e-01
<GCONST> 1.393377e+02
<STATE> 3
<MEAN> 39
 3.376901e+00 -1.351131e+00 6.383133e+00 3.259016e+00 -1.024531e+01 -6.225407e+00 -4.300617e+00 -6.141187e+00 -4.735515e+00 -2.624059e+00 2.564242e-01 1.168430e+00 -3.610399e+00 4.711664e-02 -5.281868e-01 2.309858e+00 -2.841090e-02 -3.386819e+00 -4.661184e-01 9.281359e-02 -1.230133e+00 -3.523985e-01 -8.643417e-01 8.786512e-02 -1.841684e-02 -7.458408e-01 -4.016876e-01 5.913379e-01 -1.795390e-01 -5.032617e-01 4.696317e-01 7.799370e-01 4.299034e-01 2.134713e-02 -1.006817e-01 3.497473e-01 1.307201e-01 1.220218e-01 1.798512e-01
<VARIANCE> 39
 4.185155e+01 4.324214e+01 6.647907e+01 3.766703e+01 1.347237e+02 5.780140e+01 4.460289e+01 3.902925e+01 5.083825e+01 4.074765e+01 3.404539e+01 2.679584e+01 2.683660e+01 5.001126e+00 5.523758e+00 6.534099e+00 3.804675e+00 1.902907e+01 6.797706e+00 5.122343e+00 8.421133e+00 5.676392e+00 4.719118e+00 3.335446e+00 2.710399e+00 3.153359e+00 1.044742e+00 1.033238e+00 8.393267e-01 6.085121e-01 2.595571e+00 1.165534e+00 1.166332e+00 1.131498e+00 1.368811e+00 8.752060e-01 6.354931e-01 5.719163e-01 5.616758e-01
<GCONST> 1.423456e+02
<STATE> 4
<MEAN> 39
 -4.332652e-01 4.161228e+00 1.389395e+01 -5.389199e-01 -1.380762e+01 -2.965392e+00 -2.277126e+00 -1.144649e+01 -5.521438e+00 -5.823256e-01 -7.849113e-01 1.353630e+00 -1.837962e+00 -3.813691e-01 1.027261e+00 -2.632394e-01 2.389215e-01 1.544677e+00 1.493818e-01 2.660834e-01 7.759706e-01 -5.272752e-02 6.456601e-01 -1.809952e-01 9.401660e-02 6.121583e-01 -5.745262e-02 -1.638998e-01 -3.699933e-01 1.707091e-01 3.856654e-01 -6.630544e-02 -1.981715e-02 3.543217e-01 1.471201e-01 6.472124e-02 2.901475e-02 6.598067e-02 2.777591e-02
<VARIANCE> 39
 3.310492e+01 3.353771e+01 9.841040e+01 3.405825e+01 1.000987e+02 4.287877e+01 2.736283e+01 5.944515e+01 3.280042e+01 3.185337e+01 2.895058e+01 2.373330e+01 3.078238e+01 3.798971e+00 2.772537e+00 2.902291e+00 3.856048e+00 5.383802e+00 3.528777e+00 2.432218e+00 4.662812e+00 2.748265e+00 2.473403e+00 2.220722e+00 2.321978e+00 2.203694e+00 6.227634e-01 5.688087e-01 6.298357e-01 5.918427e-01 1.544158e+00 6.754032e-01 5.833210e-01 7.895718e-01 6.192462e-01 5.270999e-01 4.490905e-01 4.392784e-01 5.469882e-01
<GCONST> 1.278619e+02
<TRANSP> 5
 0.000000e+00 1.000000e+00 0.000000e+00 0.000000e+00 0.000000e+00
 0.000000e+00 6.809064e-01 3.190936e-01 0.000000e+00 0.000000e+00
 0.000000e+00 0.000000e+00 5.404525e-01 4.595475e-01 0.000000e+00
 0.000000e+00 0.000000e+00 0.000000e+00 7.448088e-01 2.551912e-01
 0.000000e+00 0.000000e+00 0.000000e+00 0.000000e+00 0.000000e+00
<ENDHMM>
~o
<STREAMINFO> 1 39
<VECSIZE> 39<NULLD><MFCC_D_A_Z><DIAGC>
~h "ax"
<BEGINHMM>
<NUMSTATES> 5
<STATE> 2
<MEAN> 39
 -1.323045e+00 -9.720233e+00 -8.649549e+00 -7.931585e+00 7.645950e+00 8.196076e+00 4.438799e+00 1.871949e-01 2.215923e+00 -3.682983e+00 -5.624546e-01 -1.706842e+00 5.973723e-01 1.596587e-01 -6.402159e-01 -6.271093e-01 -1.226700e+00 1.059485e+00 1.048242e+00 2.165530e-01 -1.190609e+00 -5.174574e-01 -5.077254e-01 1.928491e-01 1.227214e-01 -1.211393e-01 -6.682284e-03 4.029691e-01 1.987677e-01 3.426441e-01 -3.098951e-01 -2.490237e-01 -4.200069e-01 2.190656e-01 -2.187774e-02 5.046015e-01 -5.964027e-02 1.383976e-01 6.279960e-02
<VARIANCE> 39
 5.065955e+01 2.306306e+01 1.657418e+01 4.295089e+01 1.623142e+01 6.372370e+01 3.822051e+01 6.454910e+01 2.123253e+01 2.880669e+01 4.153402e+01 7.899406e+01 4.230460e+01 3.030710e+00 2.147813e+00 1.532329e+00 2.096443e+00 2.892709e+00 3.197188e+00 2.393090e+00 2.617054e+00 2.246147e+00 3.746421e+00 2.468869e+00 2.171023e+00 1.808812e+00 6.148493e-01 4.711914e-01 3.178112e-01 3.694934e-01 5.383108e-01 5.030684e-01 7.650158e-01 6.507677e-01 3.937325e-01 5.083758e-01 4.600267e-01 4.247936e-01 4.429377e-01
<GCONST> 1.203785e+02
<STATE> 3
<MEAN> 39
 1.486564e+00 -8.967684e+00 -1.088904e+01 -1.566778e+01 7.227099e+00 1.168937e+01 4.561645e+00 -7.602804e+00 4.608230e+00 -3.790415e+00 -7.507725e-01 -4.657449e+00 -2.981827e+00 -1.914186e-01 -4.527704e-02 -1.648284e-01 2.230964e-01 -2.828665e-01 -8.435442e-01 -9.230912e-01 5.262633e-01 1.374706e-01 -5.439451e-02 3.049192e-01 -3.067631e-01 -3.547913e-01 1.701700e-01 1.889094e-01 2.649349e-02 4.150538e-01 -1.805653e-01 -4.331971e-01 -2.119096e-02 3.580765e-01 -6.512319e-03 4.933159e-02 8.147968e-02 -1.028278e-01 -2.635968e-02
<VARIANCE> 39
 7.754240e+00 9.222072e+00 1.894569e+01 3.110287e+01 1.040970e+01 5.178436e+01 3.521115e+01 3.372519e+01 1.406778e+01 3.740477e+01 6.382389e+01 2.850899e+01 2.468055e+01 4.048265e-01 5.977705e-01 8.581097e-01 1.789910e+00 1.137598e+00 2.387128e+00 6.889746e-01 1.595609e+00 9.718550e-01 1.349246e+00 2.222156e+00 1.116873e+00 1.202686e+00 5.608892e-02 1.459829e-01 1.911154e-01 2.068577e-01 3.140651e-01 2.703179e-01 2.559989e-01 3.487948e-01 2.169290e-01 3.532766e-01 2.765547e-01 3.170125e-01 2.735751e-01
<GCONST> 9.492513e+01
<STATE> 4
<MEAN> 39
 2.843499e+00 -6.173561e+00 -1.002414e+01 -7.292959e+00 3.064331e+00 -6.264734e-01 -1.314912e+00 3.712264e+00 2.126742e+00 -2.804080e+00 1.059760e+00 -7.722643e+00 -2.407644e+00 6.287990e-01 2.013849e+00 1.530862e+00 2.258193e+00 -1.026452e+00 -1.885805e+00 -6.524545e-01 8.432328e-01 -1.223752e+00 9.094192e-01 4.329497e-02 4.671604e-01 5.560450e-01 -3.426717e-02 2.611513e-01 5.276114e-01 3.277240e-01 1.677022e-01 4.299819e-01 1.735918e-01 -4.625114e-01 -3.665415e-01 1.990290e-01 -2.874888e-01 4.522779e-01 2.705546e-01
<VARIANCE> 39
 7.681988e+00 3.136001e+01 3.970433e+01 3.061471e+01 3.664209e+01 6.004413e+01 3.669986e+01 5.531929e+01 2.876563e+01 4.028310e+01 6.421357e+01 3.286877e+01 4.060328e+01 5.153078e-01 2.496192e+00 4.443400e+00 1.724351e+00 3.839972e+00 5.277011e+00 3.998585e+00 2.879931e+00 3.069303e+00 3.348364e+00 3.363159e+00 5.558461e+00 2.425244e+00 8.805642e-02 7.631723e-01 5.131928e-01 1.957941e-01 1.088030e+00 1.015890e+00 9.006343e-01 4.876786e-01 6.744339e-01 6.943221e-01 8.417701e-01 7.866897e-01 4.967247e-01
<GCONST> 1.242840e+02
<TRANSP> 5
 0.000000e+00 1.000000e+00 0.000000e+00 0.000000e+00 0.000000e+00
 0.000000e+00 7.280869e-01 2.719131e-01 0.000000e+00 0.000000e+00
 0.000000e+00 0.000000e+00 8.269623e-01 1.730377e-01 0.000000e+00
 0.000000e+00 0.000000e+00 0.000000e+00 7.576717e-01 2.423283e-01
 0.000000e+00 0.000000e+00 0.000000e+00 0.000000e+00 0.000000e+00
<ENDHMM>
~o
<STREAMINFO> 1 39
<VECSIZE> 39<NULLD><MFCC_D_A_Z><DIAGC>
~h "b"
<BEGINHMM>
<NUMSTATES> 5
<STATE> 2
<MEAN> 39
 -8.152717e-01 -9.234595e-01 -1.941146e+00 1.263746e+00 4.439646e+00 1.721850e+00 2.585565e+00 3.809494e+00 -1.471403e+00 7.988549e-01 -1.962668e-01 3.429599e+00 2.116327e-01 9.990213e-01 8.803441e-01 6.769273e-01 5.580457e-01 5.482612e-01 6.542248e-01 1.912554e-02 -6.742070e-01 -7.788461e-01 1.581814e-01 2.387042e-01 3.961305e-02 -2.978460e-01 1.572747e-01 1.072862e-01 6.887398e-02 1.285782e-02 6.761677e-02 9.537386e-02 -9.656963e-02 -8.916005e-02 -8.835766e-02 -6.328142e-02 -3.603748e-02 -4.095223e-02 -2.089332e-02
<VARIANCE> 39
 6.207513e+01 5.451345e+01 4.178776e+01 5.734859e+01 4.169637e+01 4.465858e+01 4.300501e+01 7.368839e+01 6.086793e+01 3.405331e+01 3.141361e+01 4.150803e+01 2.834002e+01 4.429535e+00 3.801258e+00 3.197884e+00 3.450941e+00 3.261690e+00 3.383941e+00 2.996559e+00 4.155885e+00 4.652119e+00 2.713007e+00 2.646440e+00 2.757989e+00 2.088918e+00 5.587066e-01 5.693262e-01 4.885077e-01 6.763169e-01 5.362793e-01 4.944697e-01 5.646360e-01 6.964203e-01 8.501859e-01 5.166541e-01 5.188969e-01 4.564160e-01 3.613869e-01
<GCONST> 1.289436e+02
<STATE> 3
<MEAN> 39
 1.629970e+01 8.586656e+00 5.263441e+00 2.697125e+00 7.782248e+00 1.218263e+01 -1.337255e+00 -8.940455e+00 -8.296885e+00 4.979341e-01 2.141681e+00 -7.411648e-02 -4.767844e+00 -2.551747e-01 1.494778e-01 -2.024753e-01 -6.274180e-01 -2.198981e-01 1.836993e-01 -3.646921e-01 -5.250099e-02 5.447011e-01 1.552314e-02 1.669716e-01 2.080633e-02 -9.459626e-02 -9.525552e-01 -6.329185e-01 -5.686440e-01 -5.584831e-01 -7.779277e-01 -5.805913e-01 2.382591e-02 3.285194e-01 8.770112e-01 1.619584e-01 6.804205e-02 -1.433484e-01 1.490813e-01
<VARIANCE> 39
 1.223153e+01 1.912111e+01 1.909279e+01 2.483181e+01 3.757684e+01 3.559058e+01 3.519142e+01 2.468956e+01 3.853168e+01 2.911550e+01 2.930844e+01 2.239657e+01 2.616948e+01 5.919964e+00 3.701971e+00 3.491987e+00 4.949067e+00 5.753787e+00 5.058401e+00 2.959000e+00 3.656307e+00 7.751976e+00 2.775986e+00 2.814094e+00 2.348560e+00 2.257431e+00 4.459026e-01 5.158470e-01 4.773951e-01 6.671607e-01 7.639048e-01 6.108387e-01 5.748034e-01 6.468763e-01 1.129344e+00 5.590912e-01 5.350316e-01 5.788349e-01 4.092502e-01
<GCONST> 1.246033e+02
<STATE> 4
<MEAN> 39
 5.283672e+00 8.186874e-02 -4.114707e+00 -8.099609e+00 -2.765363e+00 6.674091e+00 -1.864414e+00 -6.823180e+00 4.796699e+00 3.082047e+00 4.245105e+00 -2.778590e+00 -3.639025e+00 -1.893105e+00 -1.950297e+00 -1.773901e+00 -1.940325e+00 -1.738161e+00 -8.990068e-01 3.762001e-02 9.606056e-01 3.388412e+00 1.279405e-01 -1.849658e-01 -1.300119e+00 4.360816e-01 5.960841e-01 4.959483e-01 6.469211e-01 7.151635e-01 7.092682e-01 3.243437e-01 7.014436e-02 5.461019e-02 -8.197426e-01 -4.292216e-01 -3.671763e-01 2.059215e-01 1.831263e-01
<VARIANCE> 39
 1.400694e+01 3.820656e+01 4.460122e+01 7.500080e+01 5.094019e+01 4.942357e+01 4.180549e+01 4.472173e+01 6.839791e+01 3.455844e+01 3.730716e+01 4.370583e+01 2.333868e+01 2.404500e+00 4.039315e+00 4.770273e+00 7.189987e+00 8.136032e+00 4.976100e+00 3.729290e+00 5.039729e+00 7.961073e+00 4.342130e+00 5.020386e+00 4.531639e+00 2.766461e+00 2.505762e-01 5.609582e-01 5.467806e-01 9.012690e-01 8.490453e-01 7.310557e-01 5.395390e-01 7.589394e-01 1.445188e+00 5.868382e-01 6.414335e-01 8.770982e-01 4.890783e-01
<GCONST> 1.343878e+02
<TRANSP> 5
 0.000000e+00 1.000000e+00 0.000000e+00 0.000000e+00 0.000000e+00
 0.000000e+00 8.198239e-01 1.801761e-01 0.000000e+00 0.000000e+00
 0.000000e+00 0.000000e+00 8.161075e-01 1.838925e-01 0.000000e+00
 0.000000e+00 0.000000e+00 0.000000e+00 6.760974e-01 3.239026e-01
 0.000000e+00 0.000000e+00 0.000000e+00 0.000000e+00 0.000000e+00
<ENDHMM>
~o
<STREAMINFO> 1 39
<VECSIZE> 39<NULLD><MFCC_D_A_Z><DIAGC>
~h "bh"
<BEGINHMM>
<NUMSTATES> 5
<STATE> 2
<MEAN> 39
 -1.104436e+00 -9.866997e-01 -2.190173e+00 1.289309e+00 5.151449e+00 1.201121e+00 2.555114e+00 4.128062e+00 -8.012357e-01 3.133654e-01 -3.245105e-01 3.171189e+00 -4.838438e-02 9.450739e-01 7.751796e-01 6.793159e-01 5.315637e-01 4.541330e-01 5.222421e-01 -1.355432e-01 -6.719187e-01 -6.365637e-01 2.337612e-01 3.273673e-01 -1.154093e-01 -4.836523e-01 1.641483e-01 1.000452e-01 5.814854e-02 6.606346e-02 7.570574e-02 6.572125e-02 -1.241104e-01 -9.421811e-02 -1.110802e-01 -8.088456e-03 8.380836e-03 -3.644152e-02 -2.821484e-02
<VARIANCE> 39
 5.326530e+01 5.326674e+01 4.189228e+01 5.897762e+01 3.630639e+01 4.634509e+01 3.981186e+01 6.976720e+01 5.460576e+01 3.270868e+01 3.039569e+01 4.687979e+01 2.745408e+01 4.736844e+00 3.922781e+00 3.287982e+00 3.356708e+00 3.521119e+00 3.361442e+00 3.057344e+00 4.092129e+00 4.564195e+00 2.701467e+00 2.446085e+00 2.768970e+00 2.263586e+00 6.851330e-01 6.084739e-01 4.748950e-01 6.155277e-01 5.560289e-01 5.023103e-01 5.837074e-01 7.049989e-01 7.862345e-01 5.106301e-01 4.852668e-01 4.230584e-01 3.734387e-01
<GCONST> 1.286737e+02
<STATE> 3
<MEAN> 39
 1.624171e+01 8.025992e+00 6.118556e+00 4.239022e+00 8.366179e+00 1.025177e+01 -3.618104e+00 -8.878052e+00 -6.942500e+00 2.241465e+00 4.244092e+00 -1.841566e+00 -6.903267e+00 -4.503594e-01 6.905730e-01 1.300911e-02 2.600853e-01 5.209579e-01 -5.624077e-02 6.101550e-02 7.940665e-01 2.576490e-01 3.662126e-01 1.051489e-01 2.602090e-01 3.865618e-01 -1.291588e+00 -4.942170e-01 -4.911151e-01 -3.552557e-01 -6.506399e-01 -6.118061e-01 4.722057e-01 7.576361e-01 8.545431e-01 4.329205e-03 -1.905675e-01 8.648942e-02 5.864909e-01
<VARIANCE> 39
 1.279969e+01 2.182792e+01 2.153535e+01 2.680199e+01 3.464294e+01 3.035557e+01 3.140173e+01 2.602242e+01 4.317049e+01 2.958432e+01 2.266106e+01 2.625984e+01 2.559863e+01 9.067211e+00 3.443099e+00 3.414714e+00 4.569000e+00 5.325312e+00 5.784710e+00 4.210117e+00 6.284598e+00 8.458604e+00 2.886243e+00 2.698414e+00 2.769327e+00 3.948437e+00 6.062922e-01 5.346483e-01 4.942481e-01 5.964022e-01 7.755359e-01 7.521977e-01 6.677437e-01 7.359955e-01 1.228170e+00 5.901936e-01 5.158157e-01 5.485195e-01 5.178357e-01
<GCONST> 1.277471e+02
<STATE> 4
<MEAN> 39
 2.848197e+00 3.212220e+00 -2.694979e+00 -2.252994e+00 5.043969e+00 6.833172e+00 4.874174e+00 8.420241e-02 4.390297e+00 1.786044e+00 2.781510e+00 -2.053787e+00 1.247716e+00 -8.209837e-01 -1.218942e+00 -1.128110e+00 -1.586693e+00 -9.502701e-01 -1.595997e-02 6.358015e-01 1.129746e-01 1.358908e+00 -4.785676e-01 1.615982e-01 -4.947664e-01 2.566237e-01 5.772321e-01 -1.855423e-02 3.011927e-01 -6.259147e-02 -5.864260e-02 2.073696e-01 -4.271796e-01 -5.604847e-01 -4.717893e-01 -1.571868e-01 1.474185e-01 -6.730517e-03 -3.743536e-01
<VARIANCE> 39
 1.827203e+01 3.292479e+01 6.077243e+01 6.453207e+01 4.637953e+01 4.675803e+01 3.874854e+01 3.973193e+01 4.633819e+01 2.957232e+01 3.099275e+01 4.247069e+01 2.778744e+01 5.691460e+00 2.834814e+00 4.332758e+00 3.696362e+00 5.875200e+00 4.033928e+00 5.408399e+00 6.095855e+00 6.130775e+00 3.117730e+00 3.613538e+00 3.701362e+00 5.331037e+00 6.959298e-01 5.824344e-01 7.151678e-01 8.387600e-01 9.815320e-01 8.436285e-01 7.347553e-01 8.086003e-01 9.347191e-01 6.160179e-01 6.038521e-01 7.898267e-01 8.370180e-01
<GCONST> 1.349413e+02
<TRANSP> 5
 0.000000e+00 1.000000e+00 0.000000e+00 0.000000e+00 0.000000e+00
 0.000000e+00 8.267994e-01 1.732006e-01 0.000000e+00 0.000000e+00
 0.000000e+00 0.000000e+00 7.909575e-01 2.090425e-01 0.000000e+00
 0.000000e+00 0.000000e+00 0.000000e+00 8.404765e-01 1.595235e-01
 0.000000e+00 0.000000e+00 0.000000e+00 0.000000e+00 0.000000e+00
<ENDHMM>
~o
<STREAMINFO> 1 39
<VECSIZE> 39<NULLD><MFCC_D_A_Z><DIAGC>
~h "c"
<BEGINHMM>
<NUMSTATES> 5
<STATE> 2
<MEAN> 39
 -1.154289e-01 7.374990e+00 3.355009e+00 7.390510e+00 5.918125e+00 -3.069242e+00 2.759696e+00 4.296088e+00 -4.102320e+00 1.254496e+00 -2.382279e+00 2.274109e+00 3.500049e-01 -2.248896e+00 1.444705e-01 -1.177851e-01 2.918058e-02 1.642593e+00 9.564520e-01 9.703206e-01 6.568688e-01 -4.114376e-01 6.046311e-01 2.341428e-01 4.056403e-01 3.925786e-03 -8.531338e-01 -5.068274e-01 -3.081155e-01 -8.695582e-01 -4.683388e-01 -2.990996e-02 -2.557269e-01 -1.021932e-01 2.253532e-01 4.350160e-03 2.717545e-01 -1.601606e-02 -3.265203e-02
<VARIANCE> 39
 5.848456e+01 3.899807e+01 4.431476e+01 3.994831e+01 5.507270e+01 6.848928e+01 4.925581e+01 5.716709e+01 6.534688e+01 3.002630e+01 2.823118e+01 2.921708e+01 2.259228e+01 9.384377e+00 5.086757e+00 3.778843e+00 7.725208e+00 5.597974e+00 5.065842e+00 4.345315e+00 4.193886e+00 4.820518e+00 2.894655e+00 2.964867e+00 3.247442e+00 2.178861e+00 1.216066e+00 7.004235e-01 4.906048e-01 1.027601e+00 1.064851e+00 1.341575e+00 9.197477e-01 6.518124e-01 8.476672e-01 5.473960e-01 5.183553e-01 6.226745e-01 4.023465e-01
<GCONST> 1.358384e+02
<STATE> 3
<MEAN> 39
 -1.907142e+01 5.156061e+00 1.396854e+00 -2.086277e+00 6.910629e+00 -2.709068e+00 2.008446e+00 6.532347e+00 -4.577900e+00 3.625426e+00 1.132634e+00 4.469999e+00 2.402927e-02 2.593739e-02 -4.078196e-01 2.564271e-01 -1.295279e+00 -2.423660e+00 -1.588605e+00 -1.500440e+00 -1.020341e-01 5.823907e-01 -9.757910e-01 6.509300e-02 3.811951e-01 -1.607268e-01 2.367827e+00 -1.486272e-01 4.219010e-01 6.851434e-01 -1.083341e+00 -2.425406e-01 -3.328491e-01 -5.011016e-01 4.980597e-01 -5.791923e-01 -2.497205e-01 -2.701167e-01 -2.075453e-02
<VARIANCE> 39
 4.406733e+01 2.276333e+01 2.835126e+01 2.890210e+01 2.703714e+01 3.289022e+01 3.396914e+01 3.129528e+01 2.370124e+01 2.368480e+01 1.973227e+01 1.713896e+01 1.362209e+01 2.725538e+01 2.670681e+00 5.627097e+00 5.854980e+00 6.472756e+00 3.969145e+00 3.776145e+00 5.615092e+00 5.235607e+00 3.895837e+00 2.920637e+00 2.093012e+00 1.644707e+00 1.985059e+00 7.342486e-01 8.150584e-01 7.158881e-01 8.114134e-01 9.119453e-01 7.980900e-01 8.934543e-01 1.023402e+00 5.966834e-01 5.663673e-01 4.794314e-01 3.787517e-01
<GCONST> 1.296586e+02
<STATE> 4
<MEAN> 39
 2.476058e-01 -7.720892e-01 2.403658e+00 -2.044942e+00 -9.028768e+00 -8.124310e+00 -3.842968e+00 3.185718e+00 4.163730e+00 -3.611534e+00 -5.201184e-01 2.528810e+00 -3.744397e-01 2.855621e+00 -1.823407e+00 -5.783288e-01 -1.232694e-01 -2.183645e+00 1.718343e-01 -9.164049e-02 -7.496075e-01 1.865350e+00 -8.179166e-01 8.117864e-02 -9.848922e-01 2.059240e-02 -1.091029e+00 3.030968e-01 -2.773197e-01 3.496851e-02 1.274973e+00 5.027398e-01 4.511445e-01 1.643770e-01 -5.522183e-01 4.982989e-01 3.908679e-02 -1.020099e-01 8.795194e-02
<VARIANCE> 39
 1.610755e+01 4.032481e+01 6.304348e+01 3.243558e+01 6.737793e+01 3.964305e+01 4.194557e+01 7.143086e+01 7.887428e+01 2.565664e+01 3.076146e+01 2.516563e+01 2.101101e+01 9.648383e+00 3.490779e+00 4.147292e+00 2.431827e+00 1.136516e+01 3.736118e+00 3.972979e+00 5.379652e+00 6.329439e+00 3.186695e+00 3.211327e+00 3.135390e+00 2.251897e+00 8.167302e-01 7.249719e-01 7.480758e-01 4.859555e-01 1.065405e+00 6.200713e-01 7.210162e-01 8.542439e-01 1.185306e+00 4.845595e-01 5.205829e-01 4.708932e-01 3.805719e-01
<GCONST> 1.323838e+02
<TRANSP> 5
 0.000000e+00 1.000000e+00 0.000000e+00 0.000000e+00 0.000000e+00
 0.000000e+00 7.511556e-01 2.488444e-01 0.000000e+00 0.000000e+00
 0.000000e+00 0.000000e+00 7.164189e-01 2.835811e-01 0.000000e+00
 0.000000e+00 0.000000e+00 0.000000e+00 7.012485e-01 2.987515e-01
 0.000000e+00 0.000000e+00 0.000000e+00 0.000000e+00 0.000000e+00
<ENDHMM>
~o
<STREAMINFO> 1 39
<VECSIZE> 39<NULLD><MFCC_D_A_Z><DIAGC>
~h "ch"
<BEGINHMM>
<NUMSTATES> 5
<STATE> 2
<MEAN> 39
 -6.037785e+00 6.395360e+00 2.823525e+00 7.439834e+00 8.570325e+00 3.449549e+00 7.994978e+00 8.153866e+00 -3.360495e+00 3.371042e+00 6.458478e-02 3.009827e+00 1.011805e-03 -2.196784e+00 -5.994037e-01 -7.248555e-01 -1.754192e+00 1.275720e-01 -1.718492e-01 -2.426279e-01 -2.287614e-01 -2.075492e-01 5.677370e-01 3.818558e-01 4.985546e-02 3.999931e-02 -3.204915e-01 -7.193565e-02 2.596738e-02 -3.771850e-01 -1.896448e-01 -5.800767e-01 -4.114770e-01 1.726209e-02 -6.871689e-02 -6.303093e-02 6.280949e-02 1.436636e-01 7.378908e-02
<VARIANCE> 39
 2.770630e+01 1.933967e+01 1.919672e+01 3.003021e+01 2.091590e+01 2.690464e+01 2.199845e+01 2.525630e+01 2.063657e+01 2.039647e+01 1.696267e+01 1.566879e+01 1.309163e+01 3.396756e+00 1.397565e+00 1.573754e+00 3.217627e+00 1.973626e+00 4.555109e+00 3.178747e+00 2.627981e+00 2.170919e+00 1.981732e+00 1.696281e+00 1.588144e+00 1.283965e+00 4.997716e-01 2.473027e-01 2.748481e-01 4.606569e-01 4.189675e-01 5.126203e-01 4.469027e-01 5.537006e-01 4.235292e-01 3.835303e-01 3.389718e-01 3.198982e-01 2.478993e-01
<GCONST> 1.088406e+02
<STATE> 3
<MEAN> 39
 -2.165420e+01 2.195549e+00 -4.689960e-01 -5.310233e+00 5.828393e+00 -4.470880e+00 1.815002e+00 9.928756e+00 -4.041121e+00 4.607072e+00 3.557660e+00 6.290343e+00 1.114688e+00 2.630795e-01 -1.211153e+00 -1.485619e-01 -5.797996e-01 -1.635361e+00 -1.122427e+00 -6.573485e-01 1.462530e+00 1.033671e+00 -1.020982e+00 2.377340e-01 7.637937e-01 4.215704e-01 2.110959e+00 -1.000632e-01 2.115847e-01 1.032932e+00 -3.475518e-01 4.784919e-01 3.485565e-01 -1.853276e-01 6.117105e-01 -4.961205e-01 -4.011890e-01 -4.387857e-01 1.931217e-02
<VARIANCE> 39
 1.521403e+01 1.589555e+01 1.368145e+01 1.212004e+01 2.686736e+01 2.276933e+01 2.506828e+01 3.343834e+01 2.283919e+01 1.859310e+01 1.626171e+01 1.775663e+01 1.315091e+01 1.812378e+01 1.587836e+00 1.996874e+00 5.354134e+00 2.599712e+00 3.038296e+00 2.801461e+00 3.032491e+00 3.404716e+00 2.670043e+00 2.610532e+00 2.164123e+00 1.372314e+00 1.011949e+00 3.346620e-01 3.612446e-01 4.328277e-01 6.377423e-01 5.305957e-01 4.971475e-01 1.137315e+00 5.265367e-01 4.324588e-01 4.546436e-01 6.567603e-01 3.077119e-01
<GCONST> 1.154488e+02
<STATE> 4
<MEAN> 39
 -1.163722e+00 -3.752734e+00 -8.788229e-01 -5.604982e-01 -2.449276e+00 -4.580463e+00 1.487064e+00 9.196089e+00 7.150390e+00 -3.333003e+00 -7.338957e-02 1.189768e+00 1.781955e+00 3.404391e+00 -1.017531e+00 -5.054687e-01 4.441540e-02 -1.208127e+00 -1.103305e-01 -6.508324e-01 -1.953801e+00 2.308805e+00 -8.194429e-01 -6.189184e-01 -1.979360e+00 -3.569762e-01 -9.675168e-01 2.708779e-01 -3.574717e-02 -3.823149e-01 4.819542e-01 -8.168123e-02 -2.453036e-01 -4.257224e-01 -4.953525e-01 5.162987e-01 1.487409e-01 7.880633e-02 -9.421986e-02
<VARIANCE> 39
 4.762178e+01 2.752185e+01 2.767787e+01 2.300830e+01 5.730961e+01 3.045992e+01 3.479232e+01 3.951960e+01 5.300871e+01 2.301668e+01 2.235873e+01 3.995860e+01 2.253247e+01 9.669806e+00 2.642323e+00 2.755343e+00 4.468503e+00 5.843800e+00 3.351279e+00 3.572864e+00 3.112523e+00 4.203106e+00 3.433274e+00 2.538332e+00 3.837198e+00 3.107659e+00 1.168959e+00 6.384458e-01 5.006312e-01 8.788322e-01 8.789216e-01 5.554816e-01 5.408771e-01 6.964025e-01 9.428357e-01 4.787356e-01 4.444916e-01 9.438553e-01 5.840647e-01
<GCONST> 1.292251e+02
<TRANSP> 5
 0.000000e+00 1.000000e+00 0.000000e+00 0.000000e+00 0.000000e+00
 0.000000e+00 8.379005e-01 1.620995e-01 0.000000e+00 0.000000e+00
 0.000000e+00 0.000000e+00 7.770036e-01 2.229965e-01 0.000000e+00
 0.000000e+00 0.000000e+00 0.000000e+00 7.855719e-01 2.144281e-01
 0.000000e+00 0.000000e+00 0.000000e+00 0.000000e+00 0.000000e+00
<ENDHMM>
~o
<STREAMINFO> 1 39
<VECSIZE> 39<NULLD><MFCC_D_A_Z><DIAGC>
~h "d"
<BEGINHMM>
<NUMSTATES> 5
<STATE> 2
<MEAN> 39
 1.400801e+00 -1.326150e+00 -3.650936e+00 -1.563598e+00 -1.054977e+00 -4.533389e+00 -4.727708e+00 1.522188e+00 6.832093e+00 9.103435e-01 -3.493544e+00 -2.215123e-01 1.534524e+00 8.613667e-01 6.506613e-01 2.923393e-01 4.681666e-01 5.190043e-01 4.090915e-02 -4.648335e-01 -1.817306e-01 3.541977e-01 1.290465e-01 -3.170856e-01 -2.521075e-01 8.744688e-02 2.262089e-01 3.430321e-01 3.765570e-01 3.628187e-01 3.910162e-01 3.059934e-01 1.518174e-01 -1.944853e-01 -5.411772e-01 -2.076199e-02 5.734463e-02 -8.679783e-02 -2.037345e-01
<VARIANCE> 39
 3.029093e+01 3.400304e+01 5.176832e+01 4.515707e+01 5.492682e+01 3.894897e+01 6.029580e+01 6.727613e+01 8.174096e+01 3.957925e+01 2.851533e+01 5.244682e+01 2.296845e+01 3.026471e+00 4.949968e+00 4.132188e+00 6.441707e+00 5.192307e+00 3.036840e+00 3.668159e+00 5.584273e+00 6.354237e+00 2.833224e+00 2.518245e+00 3.225080e+00 2.066795e+00 5.016060e-01 4.140481e-01 3.991345e-01 6.336761e-01 6.826238e-01 5.306571e-01 6.177052e-01 7.910134e-01 9.123808e-01 5.692476e-01 4.344212e-01 5.675242e-01 3.840208e-01
<GCONST> 1.306606e+02
<STATE> 3
<MEAN> 39
 1.301157e+01 1.080723e+01 6.305811e+00 6.502248e+00 2.910138e+00 -1.578509e+00 -5.587608e+00 -1.475157e+00 3.487607e+00 1.908677e+00 -5.718864e+00 -4.492785e+00 -1.455634e+00 -2.103994e-01 6.775522e-01 6.821615e-01 4.509462e-01 6.210769e-01 5.580075e-02 4.608771e-01 4.548635e-01 -7.660314e-01 -9.006515e-02 -1.243297e-01 1.341808e-02 -3.238581e-01 -9.732801e-01 -6.395854e-01 -3.271842e-01 -4.775638e-01 -6.287414e-01 -2.008882e-01 1.321555e-01 2.298272e-03 2.037085e-02 -1.712536e-01 3.451200e-01 4.239726e-01 1.126316e-01
<VARIANCE> 39
 2.903429e+01 3.552813e+01 4.332323e+01 3.252103e+01 4.607310e+01 3.483038e+01 4.113895e+01 6.452320e+01 4.944323e+01 3.813809e+01 2.544138e+01 2.499069e+01 2.142003e+01 7.437274e+00 3.016519e+00 2.855224e+00 3.058474e+00 4.430483e+00 2.690448e+00 3.126702e+00 3.849643e+00 5.168040e+00 2.701452e+00 2.640273e+00 3.231853e+00 1.897930e+00 7.510437e-01 5.773983e-01 4.574482e-01 7.459263e-01 1.139844e+00 4.974677e-01 5.739462e-01 1.041474e+00 1.042459e+00 4.588906e-01 4.905968e-01 5.038249e-01 3.801854e-01
<GCONST> 1.277626e+02
<STATE> 4
<MEAN> 39
 4.057455e-01 5.388284e+00 3.709078e+00 3.983858e+00 4.507173e-01 -3.838955e+00 -4.050607e+00 -1.935635e+00 2.659084e-01 3.434967e-01 -2.332410e+00 6.350563e-01 -4.967628e-01 -2.057770e+00 -2.087514e+00 -5.666283e-01 -1.547068e+00 -3.017962e+00 -4.649067e-01 -1.393139e-01 -5.167993e-01 8.603813e-01 -9.083101e-01 1.276631e+00 1.248791e+00 2.990263e-01 7.264708e-01 -1.708653e-01 2.052370e-02 -3.329821e-01 -5.284463e-01 1.761499e-01 -2.013954e-01 -7.617506e-02 5.694414e-01 -1.948142e-02 7.140679e-02 -3.230237e-01 -2.754277e-02
<VARIANCE> 39
 2.807878e+01 3.855779e+01 6.268592e+01 4.669832e+01 6.740980e+01 4.016539e+01 4.992759e+01 5.216389e+01 8.050983e+01 3.274018e+01 2.681397e+01 2.989828e+01 2.206338e+01 6.050152e+00 3.531625e+00 5.460743e+00 4.541558e+00 8.427841e+00 4.077857e+00 4.470459e+00 9.336356e+00 1.002728e+01 2.960043e+00 4.243006e+00 3.777696e+00 2.821266e+00 8.264438e-01 6.982179e-01 7.434863e-01 7.395034e-01 1.590247e+00 7.010467e-01 8.920453e-01 1.179694e+00 1.466636e+00 5.883064e-01 5.945698e-01 6.477843e-01 4.429434e-01
<GCONST> 1.379117e+02
<TRANSP> 5
 0.000000e+00 1.000000e+00 0.000000e+00 0.000000e+00 0.000000e+00
 0.000000e+00 7.280498e-01 2.719503e-01 0.000000e+00 0.000000e+00
 0.000000e+00 0.000000e+00 7.429079e-01 2.570921e-01 0.000000e+00
 0.000000e+00 0.000000e+00 0.000000e+00 5.591909e-01 4.408091e-01
 0.000000e+00 0.000000e+00 0.000000e+00 0.000000e+00 0.000000e+00
<ENDHMM>
~o
<STREAMINFO> 1 39
<VECSIZE> 39<NULLD><MFCC_D_A_Z><DIAGC>
~h "dh"
<BEGINHMM>
<NUMSTATES> 5
<STATE> 2
<MEAN> 39
 1.881099e+00 1.429565e-01 -2.687888e+00 -1.154256e+00 3.335250e+00 -1.026355e+00 -2.945696e+00 5.967869e-01 5.090331e+00 1.018369e+00 -2.247860e+00 -1.439509e+00 6.583992e-01 1.025384e+00 1.131568e+00 8.067515e-01 9.299657e-01 4.794185e-01 6.947206e-02 -4.907879e-01 -4.034448e-01 1.016638e-01 2.963501e-01 -3.196227e-01 -3.059717e-01 -3.208381e-02 1.473575e-01 1.324422e-01 2.397614e-01 1.775455e-01 1.302704e-01 1.730461e-01 1.270566e-01 2.929993e-02 -2.248225e-01 -7.944544e-02 -4.984551e-02 -1.794961e-02 -1.121159e-01
<VARIANCE> 39
 4.552860e+01 5.629659e+01 5.042460e+01 5.664661e+01 5.463412e+01 4.722181e+01 6.721270e+01 7.734904e+01 6.709278e+01 4.051589e+01 2.748063e+01 5.637995e+01 2.737230e+01 3.724560e+00 4.230660e+00 3.940074e+00 5.483679e+00 4.181996e+00 3.368531e+00 3.471267e+00 4.913591e+00 4.479732e+00 2.813173e+00 2.401084e+00 3.392517e+00 2.328466e+00 6.448014e-01 4.899173e-01 4.596812e-01 6.251679e-01 6.318094e-01 6.266845e-01 6.929191e-01 8.824255e-01 7.665267e-01 5.556502e-01 4.449117e-01 6.134747e-01 4.516882e-01
<GCONST> 1.324823e+02
<STATE> 3
<MEAN> 39
 1.484750e+01 1.209128e+01 8.122696e+00 5.917551e+00 4.694427e+00 1.492007e+00 -7.071582e+00 -2.848832e+00 4.911775e+00 3.576615e+00 -5.452463e+00 -6.471172e+00 -2.545235e+00 -8.706259e-01 3.205491e-01 3.996634e-01 4.890980e-01 2.363353e-01 -2.313648e-01 9.516077e-01 1.326155e+00 -5.934501e-01 -2.512630e-01 -3.375692e-02 6.061099e-01 2.107939e-01 -1.065127e+00 -4.725176e-01 -4.957272e-01 -3.188406e-01 -2.969807e-01 -2.387235e-01 3.489740e-01 2.435673e-01 -1.048264e-01 -1.149895e-01 3.648157e-01 5.809965e-01 2.355707e-01
<VARIANCE> 39
 1.943289e+01 1.778698e+01 2.587775e+01 2.166687e+01 3.410691e+01 3.101984e+01 3.094649e+01 6.071440e+01 3.852704e+01 3.814890e+01 2.532920e+01 2.267646e+01 2.324492e+01 7.871309e+00 2.383222e+00 2.933353e+00 2.114865e+00 3.085815e+00 2.831805e+00 3.834248e+00 3.456600e+00 4.995638e+00 2.357339e+00 2.854020e+00 3.772189e+00 2.115011e+00 7.976924e-01 3.319006e-01 3.989504e-01 5.077015e-01 6.800877e-01 4.665353e-01 5.782970e-01 8.825927e-01 8.115523e-01 4.561788e-01 4.545411e-01 5.347304e-01 4.029411e-01
<GCONST> 1.221836e+02
<STATE> 4
<MEAN> 39
 -1.333665e+00 7.243971e+00 1.841066e+00 3.777506e+00 4.195411e+00 -7.094225e-01 1.601439e+00 5.134562e+00 2.479715e+00 9.664296e-01 -1.326441e+00 2.575488e+00 2.596691e+00 -1.102640e+00 -1.143547e+00 -1.307932e+00 -1.228785e+00 -9.553214e-01 2.612771e-01 8.489915e-01 4.069017e-01 6.381469e-01 -6.970727e-01 6.898087e-01 4.204251e-01 5.255792e-01 8.325776e-01 -1.544980e-01 1.001638e-01 -2.299097e-01 -2.341273e-01 1.995200e-01 -4.360016e-01 -6.055831e-01 2.083642e-01 -2.143158e-02 -3.923051e-02 -6.322283e-01 -3.174823e-01
<VARIANCE> 39
 2.497115e+01 2.781007e+01 6.463514e+01 3.457113e+01 5.308989e+01 3.633612e+01 4.542532e+01 4.838478e+01 7.177206e+01 2.946423e+01 3.233821e+01 3.109754e+01 2.553876e+01 8.457393e+00 3.062919e+00 4.574721e+00 3.056650e+00 6.787691e+00 4.459856e+00 5.472920e+00 8.660983e+00 6.528313e+00 3.375499e+00 3.876901e+00 6.773729e+00 3.806621e+00 9.745578e-01 5.433185e-01 7.466053e-01 5.879657e-01 1.161759e+00 8.857270e-01 8.518723e-01 1.149610e+00 1.434360e+00 6.159833e-01 6.822672e-01 8.624898e-01 6.321748e-01
<GCONST> 1.372969e+02
<TRANSP> 5
 0.000000e+00 1.000000e+00 0.000000e+00 0.000000e+00 0.000000e+00
 0.000000e+00 7.244867e-01 2.755133e-01 0.000000e+00 0.000000e+00
 0.000000e+00 0.000000e+00 7.831841e-01 2.168160e-01 0.000000e+00
 0.000000e+00 0.000000e+00 0.000000e+00 7.842249e-01 2.157751e-01
 0.000000e+00 0.000000e+00 0.000000e+00 0.000000e+00 0.000000e+00
<ENDHMM>
~o
<STREAMINFO> 1 39
<VECSIZE> 39<NULLD><MFCC_D_A_Z><DIAGC>
~h "dx"
<BEGINHMM>
<NUMSTATES> 5
<STATE> 2
<MEAN> 39
 8.773333e+00 -3.838906e-01 9.425817e+00 9.948173e+00 -1.438288e+01 -2.669929e+00 -3.133648e+00 -5.703749e+00 -4.796984e+00 -3.638642e+00 -2.272157e+00 6.101468e+00 -2.471735e+00 1.126681e+00 6.300583e-01 3.206281e-01 1.092565e+00 1.864805e+00 -7.029275e-01 5.035381e-01 1.244410e+00 -4.391317e-01 4.906102e-01 -1.570754e+00 -3.912163e-02 6.612402e-01 -1.685875e-01 1.591970e-02 1.020944e-01 -4.291404e-01 4.592471e-01 -5.897140e-02 -1.091372e-01 3.482843e-01 5.333094e-01 8.588713e-02 -1.105375e-01 -5.106577e-01 1.378258e-01
<VARIANCE> 39
 1.935727e+01 5.362577e+01 7.802232e+01 3.131585e+01 9.821538e+01 5.649192e+01 4.471470e+01 8.015211e+01 4.747408e+01 4.291253e+01 3.628771e+01 2.596860e+01 2.540364e+01 1.176484e+00 1.715271e+00 3.350534e+00 2.535505e+00 6.196518e+00 2.554557e+00 3.469624e+00 4.129239e+00 4.715858e+00 3.013470e+00 3.181906e+00 3.186954e+00 2.006851e+00 3.098839e-01 3.868288e-01 3.941150e-01 6.699919e-01 1.001879e+00 6.085536e-01 6.985726e-01 8.087837e-01 8.526804e-01 6.204413e-01 6.008596e-01 5.025223e-01 4.034370e-01
<GCONST> 1.276037e+02
<STATE> 3
<MEAN> 39
 1.260480e+01 3.210021e+00 1.090980e+01 1.170293e+01 -3.362730e+00 -4.390417e+00 -3.543648e+00 -5.223692e-01 -1.543739e+00 -4.885176e-01 -8.719466e+00 1.119272e+00 4.431563e-01 -1.479727e+00 -6.336418e-01 7.511294e-03 -2.051249e+00 7.987556e-02 -4.661179e-01 -9.562711e-01 1.700863e+00 1.707556e+00 2.905003e-01 3.756075e-01 -7.675159e-01 2.230470e-01 -1.036112e+00 -6.526772e-01 -7.081499e-01 -1.055818e+00 -1.514214e+00 2.273342e-01 -5.968015e-02 -3.062732e-01 3.327292e-01 -3.716157e-01 1.038831e+00 3.701595e-01 -3.647231e-01
<VARIANCE> 39
 2.193374e+01 3.542430e+01 4.604662e+01 3.258046e+01 5.252763e+01 3.594190e+01 5.237021e+01 4.285373e+01 6.091387e+01 3.695090e+01 2.816083e+01 2.870457e+01 2.218178e+01 3.610303e+00 4.533067e+00 6.646632e+00 5.643030e+00 9.359468e+00 4.803407e+00 4.298826e+00 8.140645e+00 7.411709e+00 4.692801e+00 6.028903e+00 4.197612e+00 2.681926e+00 4.174612e-01 4.812956e-01 6.194113e-01 7.522597e-01 1.009898e+00 6.659051e-01 1.147305e+00 1.449451e+00 1.682389e+00 8.859464e-01 8.267103e-01 6.933370e-01 5.018806e-01
<GCONST> 1.368626e+02
<STATE> 4
<MEAN> 39
 1.871314e+00 -4.993982e+00 3.215501e+00 -1.009320e+00 -1.361950e+01 -4.957069e+00 -4.558938e+00 3.261778e+00 5.415146e+00 -2.528743e+00 -1.763625e+00 2.224714e+00 -1.031798e+00 -1.537480e+00 -5.624921e-01 -1.645053e+00 -1.762298e+00 -1.256193e+00 2.892173e-01 5.822466e-01 -4.496099e-01 1.106867e+00 -6.982735e-01 1.235144e+00 -3.002786e-01 -3.890855e-01 6.476796e-01 6.051069e-01 2.917485e-01 8.143262e-01 7.118903e-01 1.847482e-01 2.236365e-01 -6.753723e-01 -6.722990e-01 1.525104e-01 -3.074894e-01 -1.022152e-01 4.177171e-02
<VARIANCE> 39
 1.156000e+01 2.376418e+01 1.011951e+02 3.286810e+01 6.792116e+01 3.477687e+01 4.065604e+01 8.211778e+01 1.002184e+02 3.005178e+01 4.962323e+01 3.061114e+01 2.011868e+01 3.159359e+00 4.114156e+00 6.085724e+00 5.171092e+00 9.554183e+00 3.488151e+00 4.470355e+00 8.690657e+00 8.762234e+00 3.723472e+00 5.038011e+00 4.050306e+00 2.459900e+00 2.916363e-01 4.437738e-01 8.764389e-01 5.476782e-01 1.155917e+00 6.148225e-01 9.535020e-01 1.265159e+00 1.238887e+00 8.000764e-01 8.044188e-01 6.362068e-01 4.587589e-01
<GCONST> 1.358112e+02
<TRANSP> 5
 0.000000e+00 1.000000e+00 0.000000e+00 0.000000e+00 0.000000e+00
 0.000000e+00 6.964521e-01 3.035479e-01 0.000000e+00 0.000000e+00
 0.000000e+00 0.000000e+00 6.363913e-01 3.636087e-01 0.000000e+00
 0.000000e+00 0.000000e+00 0.000000e+00 7.128888e-01 2.871112e-01
 0.000000e+00 0.000000e+00 0.000000e+00 0.000000e+00 0.000000e+00
<ENDHMM>
~o
<STREAMINFO> 1 39
<VECSIZE> 39<NULLD><MFCC_D_A_Z><DIAGC>
~h "dxh"
<BEGINHMM>
<NUMSTATES> 5
<STATE> 2
<MEAN> 39
 1.057048e+01 -3.456200e+00 -7.683248e+00 8.336596e+00 -1.297889e+01 -2.352600e-01 -8.149572e+00 -4.136561e+00 -3.418713e+00 -3.772310e-01 2.275515e+00 9.887644e+00 -3.050264e+00 1.219797e+00 -6.592944e-01 2.911196e-02 3.462700e+00 5.178712e+00 -1.018834e+00 -3.550459e+00 2.146203e+00 1.187831e+00 6.840736e-01 -1.758274e+00 -5.113019e-01 -3.045754e-01 -1.100994e-01 7.190316e-01 1.180232e+00 -6.562974e-01 7.597648e-01 4.051308e-01 2.982216e-01 -3.992768e-03 8.624485e-01 5.069487e-02 -7.570845e-01 -1.204262e+00 5.218970e-01
<VARIANCE> 39
 1.458741e+01 4.187570e+01 7.120139e+01 5.249242e+01 5.536153e+01 8.378741e+01 1.057118e+02 1.039452e+02 6.515279e+01 4.512941e+01 4.565025e+01 3.438620e+01 3.452191e+01 8.119056e-01 2.819988e+00 4.462482e+00 3.380617e+00 1.094982e+01 5.056788e+00 1.033714e+01 5.905770e+00 1.034063e+01 4.837839e+00 7.187459e+00 8.413325e+00 4.460951e+00 2.949975e-01 2.457400e-01 5.995370e-01 8.232644e-01 2.191060e+00 7.020648e-01 2.635255e+00 1.282647e+00 1.558288e+00 8.130397e-01 1.392710e+00 8.411497e-01 7.151447e-01
<GCONST> 1.425072e+02
<STATE> 3
<MEAN> 39
 1.200061e+01 -4.640278e-01 5.147133e+00 1.371684e+01 1.353682e+00 -2.196797e+00 -9.219237e+00 2.281650e+00 2.761501e+00 4.001085e-01 -5.382266e+00 1.264254e+00 -1.120634e+00 -1.729896e+00 1.785722e+00 1.698945e+00 -1.772541e+00 2.228941e-01 2.780495e-01 1.202362e+00 1.959779e+00 1.197587e+00 2.064885e-02 3.349422e-01 -1.076224e+00 5.578330e-01 -9.195023e-01 2.086256e-01 -8.604020e-01 -1.067392e+00 -1.314966e+00 1.191682e-01 9.911305e-01 9.686910e-02 1.077534e-01 -2.626479e-01 6.706891e-01 5.970135e-01 9.550634e-02
<VARIANCE> 39
 3.028859e+01 2.889778e+01 9.131954e+01 3.950723e+01 9.039780e+01 5.711123e+01 8.471605e+01 6.488379e+01 4.500693e+01 6.015740e+01 3.303326e+01 4.069681e+01 2.067819e+01 5.608115e+00 2.878021e+00 7.490032e+00 6.741071e+00 1.382867e+01 4.077679e+00 5.712400e+00 8.694448e+00 5.448263e+00 5.749176e+00 4.787041e+00 5.620587e+00 2.187312e+00 6.170920e-01 4.519596e-01 1.209904e+00 1.309475e+00 2.746782e+00 7.465389e-01 1.439218e+00 1.277360e+00 1.123492e+00 1.139552e+00 9.803079e-01 9.199881e-01 4.562807e-01
<GCONST> 1.439698e+02
<STATE> 4
<MEAN> 39
 1.283834e+00 2.116549e+00 -3.951321e+00 1.121160e+00 -3.729594e-02 3.757076e-01 1.548438e+00 7.927760e+00 8.692778e+00 -8.414394e-01 -2.477404e+00 -3.187700e-01 1.856840e+00 -4.617169e-01 -6.713685e-01 -1.510639e+00 -1.564845e+00 7.446340e-02 2.179120e-01 1.039214e+00 -8.835381e-01 4.260477e-01 -8.657570e-02 1.166517e-01 -8.103805e-01 -2.634588e-01 4.735297e-01 -4.424386e-01 1.324257e-01 2.668531e-01 4.281399e-02 -9.528619e-02 -5.866476e-01 -6.855887e-01 -3.751076e-01 1.276577e-01 -4.699679e-02 -9.423610e-02 -2.586181e-01
<VARIANCE> 39
 1.371491e+01 3.701277e+01 4.257864e+01 3.500784e+01 5.524414e+01 4.358609e+01 4.763208e+01 4.439973e+01 3.557088e+01 2.537831e+01 2.471968e+01 4.750746e+01 2.346103e+01 3.417647e+00 5.259380e+00 3.398292e+00 4.255202e+00 5.821229e+00 3.402535e+00 7.294757e+00 6.273731e+00 3.907147e+00 2.749947e+00 2.669022e+00 3.632460e+00 3.320432e+00 6.157218e-01 1.041631e+00 7.372958e-01 8.029928e-01 1.355152e+00 6.160219e-01 8.163527e-01 1.010350e+00 6.294194e-01 5.771989e-01 5.137811e-01 7.341221e-01 5.353527e-01
<GCONST> 1.319485e+02
<TRANSP> 5
 0.000000e+00 1.000000e+00 0.000000e+00 0.000000e+00 0.000000e+00
 0.000000e+00 6.191335e-01 3.808664e-01 0.000000e+00 0.000000e+00
 0.000000e+00 0.000000e+00 7.367832e-01 2.632168e-01 0.000000e+00
 0.000000e+00 0.000000e+00 0.000000e+00 8.367979e-01 1.632021e-01
 0.000000e+00 0.000000e+00 0.000000e+00 0.000000e+00 0.000000e+00
<ENDHMM>
~o
<STREAMINFO> 1 39
<VECSIZE> 39<NULLD><MFCC_D_A_Z><DIAGC>
~h "dxq"
<BEGINHMM>
<NUMSTATES> 5
<STATE> 2
<MEAN> 39
 1.057048e+01 -3.456200e+00 -7.683248e+00 8.336596e+00 -1.297889e+01 -2.352600e-01 -8.149572e+00 -4.136561e+00 -3.418713e+00 -3.772310e-01 2.275515e+00 9.887644e+00 -3.050264e+00 1.219797e+00 -6.592944e-01 2.911196e-02 3.462700e+00 5.178712e+00 -1.018834e+00 -3.550459e+00 2.146203e+00 1.187831e+00 6.840736e-01 -1.758274e+00 -5.113019e-01 -3.045754e-01 -1.100994e-01 7.190316e-01 1.180232e+00 -6.562974e-01 7.597648e-01 4.051308e-01 2.982216e-01 -3.992768e-03 8.624485e-01 5.069487e-02 -7.570845e-01 -1.204262e+00 5.218970e-01
<VARIANCE> 39
 1.458741e+01 4.187570e+01 7.120139e+01 5.249242e+01 5.536153e+01 8.378741e+01 1.057118e+02 1.039452e+02 6.515279e+01 4.512941e+01 4.565025e+01 3.438620e+01 3.452191e+01 8.119056e-01 2.819988e+00 4.462482e+00 3.380617e+00 1.094982e+01 5.056788e+00 1.033714e+01 5.905770e+00 1.034063e+01 4.837839e+00 7.187459e+00 8.413325e+00 4.460951e+00 2.949975e-01 2.457400e-01 5.995370e-01 8.232644e-01 2.191060e+00 7.020648e-01 2.635255e+00 1.282647e+00 1.558288e+00 8.130397e-01 1.392710e+00 8.411497e-01 7.151447e-01
<GCONST> 1.425072e+02
<STATE> 3
<MEAN> 39
 1.200061e+01 -4.640278e-01 5.147133e+00 1.371684e+01 1.353682e+00 -2.196797e+00 -9.219237e+00 2.281650e+00 2.761501e+00 4.001085e-01 -5.382266e+00 1.264254e+00 -1.120634e+00 -1.729896e+00 1.785722e+00 1.698945e+00 -1.772541e+00 2.228941e-01 2.780495e-01 1.202362e+00 1.959779e+00 1.197587e+00 2.064885e-02 3.349422e-01 -1.076224e+00 5.578330e-01 -9.195023e-01 2.086256e-01 -8.604020e-01 -1.067392e+00 -1.314966e+00 1.191682e-01 9.911305e-01 9.686910e-02 1.077534e-01 -2.626479e-01 6.706891e-01 5.970135e-01 9.550634e-02
<VARIANCE> 39
 3.028859e+01 2.889778e+01 9.131954e+01 3.950723e+01 9.039780e+01 5.711123e+01 8.471605e+01 6.488379e+01 4.500693e+01 6.015740e+01 3.303326e+01 4.069681e+01 2.067819e+01 5.608115e+00 2.878021e+00 7.490032e+00 6.741071e+00 1.382867e+01 4.077679e+00 5.712400e+00 8.694448e+00 5.448263e+00 5.749176e+00 4.787041e+00 5.620587e+00 2.187312e+00 6.170920e-01 4.519596e-01 1.209904e+00 1.309475e+00 2.746782e+00 7.465389e-01 1.439218e+00 1.277360e+00 1.123492e+00 1.139552e+00 9.803079e-01 9.199881e-01 4.562807e-01
<GCONST> 1.439698e+02
<STATE> 4
<MEAN> 39
 1.283834e+00 2.116549e+00 -3.951321e+00 1.121160e+00 -3.729594e-02 3.757076e-01 1.548438e+00 7.927760e+00 8.692778e+00 -8.414394e-01 -2.477404e+00 -3.187700e-01 1.856840e+00 -4.617169e-01 -6.713685e-01 -1.510639e+00 -1.564845e+00 7.446340e-02 2.179120e-01 1.039214e+00 -8.835381e-01 4.260477e-01 -8.657570e-02 1.166517e-01 -8.103805e-01 -2.634588e-01 4.735297e-01 -4.424386e-01 1.324257e-01 2.668531e-01 4.281399e-02 -9.528619e-02 -5.866476e-01 -6.855887e-01 -3.751076e-01 1.276577e-01 -4.699679e-02 -9.423610e-02 -2.586181e-01
<VARIANCE> 39
 1.371491e+01 3.701277e+01 4.257864e+01 3.500784e+01 5.524414e+01 4.358609e+01 4.763208e+01 4.439973e+01 3.557088e+01 2.537831e+01 2.471968e+01 4.750746e+01 2.346103e+01 3.417647e+00 5.259380e+00 3.398292e+00 4.255202e+00 5.821229e+00 3.402535e+00 7.294757e+00 6.273731e+00 3.907147e+00 2.749947e+00 2.669022e+00 3.632460e+00 3.320432e+00 6.157218e-01 1.041631e+00 7.372958e-01 8.029928e-01 1.355152e+00 6.160219e-01 8.163527e-01 1.010350e+00 6.294194e-01 5.771989e-01 5.137811e-01 7.341221e-01 5.353527e-01
<GCONST> 1.319485e+02
<TRANSP> 5
 0.000000e+00 1.000000e+00 0.000000e+00 0.000000e+00 0.000000e+00
 0.000000e+00 6.191335e-01 3.808664e-01 0.000000e+00 0.000000e+00
 0.000000e+00 0.000000e+00 7.367832e-01 2.632168e-01 0.000000e+00
 0.000000e+00 0.000000e+00 0.000000e+00 8.367979e-01 1.632021e-01
 0.000000e+00 0.000000e+00 0.000000e+00 0.000000e+00 0.000000e+00
<ENDHMM>
~o
<STREAMINFO> 1 39
<VECSIZE> 39<NULLD><MFCC_D_A_Z><DIAGC>
~h "e"
<BEGINHMM>
<NUMSTATES> 5
<STATE> 2
<MEAN> 39
 -4.841203e+00 4.656881e+00 3.282963e-01 3.865876e+00 7.003256e+00 1.439838e+00 5.208380e+00 8.316651e+00 -3.852229e+00 4.716633e+00 7.056451e-01 2.515419e+00 8.309484e-01 -4.387698e-01 -1.429680e+00 -7.610849e-01 -8.469072e-01 -1.075158e+00 -6.426378e-01 -7.880024e-01 6.249232e-01 3.055128e-01 -6.365901e-01 -4.041077e-01 -3.374759e-01 -5.108663e-01 2.979499e-01 -4.227294e-01 3.481567e-01 7.939653e-02 -1.066401e+00 -7.449315e-01 -7.724830e-01 -5.617114e-01 1.422143e-01 -1.558574e-01 1.071953e-02 9.038156e-02 -5.537087e-04
<VARIANCE> 39
 4.820343e+01 2.216451e+01 2.004764e+01 1.460763e+01 2.343485e+01 1.679422e+01 1.263825e+01 1.656901e+01 1.346154e+01 7.037764e+00 1.608723e+01 1.270193e+01 6.975218e+00 3.854685e+00 2.614224e+00 2.535660e+00 1.011169e+00 8.025707e+00 2.713969e+00 4.009164e+00 2.652660e+00 7.373056e-01 2.096601e+00 2.289608e+00 2.360280e+00 9.999841e-01 8.739293e-01 4.437786e-01 5.610362e-01 2.122369e-01 1.123099e+00 2.256815e-01 4.694321e-01 6.186836e-01 3.460374e-01 2.736028e-01 7.425718e-01 4.994332e-01 1.799079e-01
<GCONST> 1.075346e+02
<STATE> 3
<MEAN> 39
 -1.363208e+00 -3.353230e+00 5.826675e+00 1.210696e+00 -1.236575e+01 -7.480463e+00 -3.775492e+00 4.101285e+00 -2.559978e-01 -1.433044e+00 2.247694e+00 3.566524e+00 -1.258298e+00 5.343589e-01 -7.812306e-01 2.282211e+00 1.385246e-01 -5.395303e+00 -1.471594e+00 -2.042497e+00 -2.865178e+00 6.565741e-01 -6.776737e-01 1.394505e+00 1.254164e+00 -9.541989e-01 -1.961166e-01 4.757406e-01 4.748408e-02 -1.016337e-01 7.342397e-01 8.219376e-01 2.713518e-01 -2.504510e-02 -1.466972e-01 2.618390e-01 -1.441199e-01 -2.412453e-01 2.928582e-02
<VARIANCE> 39
 7.910003e+00 1.986465e+01 4.203177e+01 5.410570e+01 1.389654e+02 1.298059e+01 2.699197e+01 1.093635e+02 3.269276e+01 1.025489e+01 4.569853e+01 3.136895e+01 1.420097e+01 3.880377e+00 2.629577e+00 5.195095e+00 1.874867e+00 9.463568e+00 4.735582e+00 2.032804e+00 5.886581e+00 6.441126e+00 1.278296e+00 4.639245e+00 2.367048e+00 1.617281e+00 6.191131e-01 4.134069e-01 4.210837e-01 4.911267e-01 2.409944e+00 2.934873e-01 1.558177e-01 1.936281e+00 6.155528e-01 3.928767e-01 1.125683e+00 9.581033e-01 4.474454e-01
<GCONST> 1.249250e+02
<STATE> 4
<MEAN> 39
 -7.343066e-01 -3.966684e+00 1.030726e+01 2.161020e+00 -2.245798e+01 -4.334738e+00 -7.963298e+00 -5.276893e+00 1.099218e-02 -2.983556e+00 4.050043e+00 3.644684e+00 -2.588105e+00 6.900707e-01 -1.431004e-02 -1.343609e+00 -8.428619e-01 1.379526e+00 1.087490e+00 -8.564507e-01 -1.018654e+00 8.884224e-01 2.718936e-01 -6.223411e-01 -1.018755e+00 2.314224e-02 2.031887e-01 2.508499e-01 -3.970708e-01 -2.822325e-01 7.445704e-01 1.276656e-01 1.417176e-01 -2.230077e-01 1.425776e-01 2.796172e-01 -2.051557e-01 6.757187e-02 1.989267e-01
<VARIANCE> 39
 6.633746e+00 7.740346e+00 7.345952e+01 8.374149e+00 5.611314e+01 2.845505e+01 2.755758e+01 3.229143e+01 4.133043e+01 3.820828e+01 1.564431e+01 1.564661e+01 5.500143e+00 8.217944e-01 1.234771e+00 4.359473e+00 3.766371e+00 5.809644e+00 3.456671e+00 3.694005e+00 3.400433e+00 4.922845e+00 4.253863e+00 2.415702e+00 1.931928e+00 7.955248e-01 1.417536e-01 4.073571e-01 1.041724e+00 3.974751e-01 1.421926e+00 8.534803e-01 7.920652e-01 1.016492e+00 1.026353e+00 1.141032e+00 7.614446e-01 8.023628e-01 3.768359e-01
<GCONST> 1.184039e+02
<TRANSP> 5
 0.000000e+00 1.000000e+00 0.000000e+00 0.000000e+00 0.000000e+00
 0.000000e+00 7.777792e-01 2.222207e-01 0.000000e+00 0.000000e+00
 0.000000e+00 0.000000e+00 7.139279e-01 2.860721e-01 0.000000e+00
 0.000000e+00 0.000000e+00 0.000000e+00 7.779942e-01 2.220058e-01
 0.000000e+00 0.000000e+00 0.000000e+00 0.000000e+00 0.000000e+00
<ENDHMM>
~o
<STREAMINFO> 1 39
<VECSIZE> 39<NULLD><MFCC_D_A_Z><DIAGC>
~h "ee"
<BEGINHMM>
<NUMSTATES> 5
<STATE> 2
<MEAN> 39
 -1.453430e+00 -6.855510e-01 1.016307e+01 1.148549e+00 -1.435505e+01 -4.598716e+00 -1.716986e-02 -4.565321e-01 -1.181022e+00 -1.195437e+00 6.035973e+00 3.234833e+00 -1.676625e+00 5.928940e-04 -5.606170e-01 1.819535e+00 -9.895412e-01 -3.311568e+00 -4.780891e-01 -2.594995e-01 -1.263344e+00 3.377364e-01 -4.356584e-01 1.861054e+00 -1.549585e-01 -4.944861e-01 -6.984153e-02 1.663717e-01 -2.171871e-01 -3.425570e-02 6.332524e-01 1.951436e-01 6.404359e-02 8.432374e-03 1.070732e-02 2.442183e-01 -2.015008e-01 -1.744457e-01 5.923239e-02
<VARIANCE> 39
 2.222682e+01 3.583699e+01 5.932195e+01 2.953347e+01 1.135142e+02 4.211759e+01 3.741337e+01 6.274866e+01 3.067573e+01 3.293588e+01 3.741079e+01 2.404432e+01 1.983997e+01 2.686181e+00 2.420976e+00 3.618497e+00 2.524274e+00 9.108530e+00 3.376041e+00 3.983753e+00 4.662686e+00 3.352257e+00 3.130362e+00 3.176031e+00 2.253365e+00 1.741602e+00 6.053930e-01 4.451425e-01 7.165675e-01 4.444662e-01 1.744086e+00 6.448852e-01 6.000029e-01 9.623573e-01 6.093931e-01 5.675771e-01 6.565151e-01 4.306392e-01 3.319454e-01
<GCONST> 1.277580e+02
<STATE> 3
<MEAN> 39
 -1.358076e+00 -2.292754e+00 1.434373e+01 -3.336106e+00 -2.210260e+01 -5.568893e+00 -5.025341e-01 -4.482852e+00 7.755970e-01 -1.312820e+00 9.759496e+00 1.195752e+00 -3.320661e+00 3.200782e-02 -5.722946e-02 -2.944780e-01 -1.238248e-01 -1.751160e-02 -1.809603e-01 1.838311e-01 1.350448e-01 1.743294e-01 1.554393e-02 -3.025123e-02 -5.118358e-02 2.141381e-02 1.057245e-01 5.059433e-02 -1.788582e-01 1.642084e-01 2.510327e-01 -3.406054e-02 -5.092302e-02 1.491701e-01 -2.722287e-02 -1.836975e-02 -2.096257e-01 6.297147e-02 9.763984e-02
<VARIANCE> 39
 7.735795e+00 1.535386e+01 2.905654e+01 1.684384e+01 1.849832e+01 2.516461e+01 1.999405e+01 3.051755e+01 1.956253e+01 2.075044e+01 2.267432e+01 2.098769e+01 1.687169e+01 3.701522e-01 6.817452e-01 1.037341e+00 7.961981e-01 8.483356e-01 9.377348e-01 9.457579e-01 1.408450e+00 1.030163e+00 1.014068e+00 1.000141e+00 7.986107e-01 7.338758e-01 6.902768e-02 1.239634e-01 1.635949e-01 1.539749e-01 2.222786e-01 1.728785e-01 2.195637e-01 2.086286e-01 1.937337e-01 1.807479e-01 2.034668e-01 1.481050e-01 1.397626e-01
<GCONST> 8.459434e+01
<STATE> 4
<MEAN> 39
 4.828625e-01 -3.894847e-01 7.560680e+00 8.125718e-01 -1.176122e+01 -4.858457e+00 1.417022e+00 6.617420e-01 -3.658800e-01 -1.494578e-02 3.791290e+00 2.587837e+00 -4.140249e-01 2.197511e-01 6.973142e-01 -9.546762e-01 1.067165e+00 2.659739e+00 7.026873e-01 -6.412125e-02 3.426272e-01 -5.025870e-01 3.431638e-01 -1.297667e+00 1.328271e-01 4.083726e-01 -1.956674e-01 1.179161e-02 -3.090774e-02 -1.043134e-03 2.081781e-01 2.281637e-01 3.776775e-02 -1.159838e-01 -9.988834e-02 1.339143e-01 2.588243e-02 -6.597589e-02 -8.516680e-02
<VARIANCE> 39
 2.780124e+01 4.543099e+01 5.002028e+01 4.451134e+01 1.061743e+02 5.079255e+01 5.260678e+01 4.791387e+01 4.972824e+01 4.495785e+01 4.524913e+01 2.770523e+01 2.223158e+01 3.624420e+00 3.401699e+00 2.697784e+00 3.595076e+00 6.255373e+00 4.069143e+00 4.143493e+00 4.533831e+00 4.481170e+00 3.543989e+00 3.448724e+00 2.368113e+00 2.005052e+00 5.415729e-01 6.506428e-01 4.944456e-01 7.042505e-01 1.255368e+00 7.403000e-01 7.124342e-01 7.614782e-01 9.420666e-01 7.103831e-01 6.485935e-01 4.190947e-01 3.641878e-01
<GCONST> 1.319171e+02
<TRANSP> 5
 0.000000e+00 1.000000e+00 0.000000e+00 0.000000e+00 0.000000e+00
 0.000000e+00 7.254787e-01 2.745213e-01 0.000000e+00 0.000000e+00
 0.000000e+00 0.000000e+00 8.965469e-01 1.034531e-01 0.000000e+00
 0.000000e+00 0.000000e+00 0.000000e+00 8.431780e-01 1.568220e-01
 0.000000e+00 0.000000e+00 0.000000e+00 0.000000e+00 0.000000e+00
<ENDHMM>
~o
<STREAMINFO> 1 39
<VECSIZE> 39<NULLD><MFCC_D_A_Z><DIAGC>
~h "ei"
<BEGINHMM>
<NUMSTATES> 5
<STATE> 2
<MEAN> 39
 -3.391641e-01 -5.355265e+00 8.221511e+00 -3.743587e+00 -1.687535e+01 -7.724588e+00 -1.947792e+00 2.151500e+00 2.968386e+00 -4.424414e+00 6.002418e+00 1.862495e+00 -2.490196e+00 -7.859297e-01 1.085643e+00 2.612084e+00 -2.272179e-01 -1.936796e+00 1.572896e-01 -7.490394e-02 -2.693419e+00 -1.698371e+00 -5.670533e-02 1.442988e+00 4.208590e-01 -5.536456e-01 2.299772e-03 4.962514e-01 -3.666863e-02 1.275464e-01 6.692788e-01 5.417039e-01 -2.852292e-01 -7.057740e-01 -2.600940e-01 2.053770e-01 -4.730388e-01 -2.398916e-01 1.039669e-01
<VARIANCE> 39
 8.930324e+00 2.090222e+01 4.240456e+01 1.589897e+01 3.845781e+01 2.907613e+01 2.700777e+01 6.196976e+01 4.654789e+01 2.571557e+01 4.175874e+01 2.506943e+01 2.058692e+01 5.387854e-01 1.880856e+00 2.137190e+00 1.555479e+00 3.513295e+00 2.868229e+00 2.815756e+00 5.332331e+00 3.767088e+00 2.549712e+00 3.611889e+00 3.025354e+00 1.686914e+00 2.001112e-01 2.940286e-01 4.282481e-01 2.796965e-01 4.939090e-01 4.125316e-01 4.628929e-01 1.166081e+00 1.050462e+00 5.707921e-01 8.312583e-01 5.230941e-01 3.798113e-01
<GCONST> 1.168634e+02
<STATE> 3
<MEAN> 39
 -3.099631e+00 6.097467e+00 1.842313e+01 -3.234730e+00 -1.434533e+01 -6.085743e-01 -4.469468e+00 -1.318017e+01 -2.339595e+00 -3.186479e+00 2.257426e+00 1.456820e+00 -2.536672e+00 4.758173e-03 4.619514e-01 2.106455e-01 1.224786e-01 2.242648e-01 2.506933e-01 -4.235908e-03 -5.149315e-01 -1.887551e-01 1.460317e-01 -5.405346e-01 -5.805628e-02 1.020202e-01 9.725424e-02 -1.049351e-01 -2.229366e-01 1.113729e-01 1.125782e-01 -1.272558e-01 8.294598e-02 3.209305e-01 4.838134e-02 6.018603e-02 5.567788e-03 4.013926e-02 4.724233e-02
<VARIANCE> 39
 9.099242e+00 2.980020e+01 3.072046e+01 2.837871e+01 6.588187e+01 2.974582e+01 2.036681e+01 4.319607e+01 2.336343e+01 2.873370e+01 3.387901e+01 2.365860e+01 2.068027e+01 5.681496e-01 1.716682e+00 1.456311e+00 1.197569e+00 4.502069e+00 1.601512e+00 1.452536e+00 3.207240e+00 1.677140e+00 2.136093e+00 1.613112e+00 1.540880e+00 1.552303e+00 1.310151e-01 2.342480e-01 2.819196e-01 2.351411e-01 8.221592e-01 2.667920e-01 2.824857e-01 5.475550e-01 3.552797e-01 3.737891e-01 3.015620e-01 2.923245e-01 2.701074e-01
<GCONST> 1.059698e+02
<STATE> 4
<MEAN> 39
 -3.562685e-01 5.889038e+00 1.140987e+01 2.004897e+00 -8.943473e+00 -2.225442e+00 -1.360520e+00 -7.200934e+00 -4.727248e+00 -1.096972e-01 -3.178311e-01 2.060099e+00 -7.707531e-01 4.760859e-01 -2.047461e-01 -2.202244e+00 1.127670e+00 2.473751e+00 1.438218e-01 6.278495e-01 1.926099e+00 -7.055253e-02 4.681237e-01 -3.661123e-01 1.019650e-01 1.731489e-01 -1.460339e-01 -2.007971e-01 -1.648017e-01 -2.976367e-01 2.421162e-02 1.177402e-01 -6.663095e-02 1.351600e-02 1.847435e-01 -4.083321e-02 3.241601e-02 -5.892953e-02 -6.486964e-02
<VARIANCE> 39
 4.365234e+01 4.469941e+01 7.434133e+01 5.316412e+01 1.109252e+02 5.013051e+01 4.472754e+01 8.710414e+01 4.452428e+01 4.044482e+01 3.834473e+01 2.941817e+01 2.718374e+01 5.539757e+00 3.800212e+00 4.000906e+00 4.365560e+00 7.956803e+00 5.186377e+00 4.119598e+00 7.238319e+00 4.741444e+00 3.567594e+00 3.999683e+00 3.063344e+00 2.471671e+00 7.327634e-01 6.177000e-01 7.435373e-01 7.548711e-01 1.763813e+00 1.041548e+00 7.196856e-01 1.270444e+00 8.724536e-01 6.636080e-01 6.719207e-01 5.706367e-01 4.722404e-01
<GCONST> 1.384078e+02
<TRANSP> 5
 0.000000e+00 1.000000e+00 0.000000e+00 0.000000e+00 0.000000e+00
 0.000000e+00 7.660082e-01 2.339918e-01 0.000000e+00 0.000000e+00
 0.000000e+00 0.000000e+00 9.220651e-01 7.793493e-02 0.000000e+00
 0.000000e+00 0.000000e+00 0.000000e+00 8.052676e-01 1.947324e-01
 0.000000e+00 0.000000e+00 0.000000e+00 0.000000e+00 0.000000e+00
<ENDHMM>
~o
<STREAMINFO> 1 39
<VECSIZE> 39<NULLD><MFCC_D_A_Z><DIAGC>
~h "f"
<BEGINHMM>
<NUMSTATES> 5
<STATE> 2
<MEAN> 39
 -5.544135e+00 4.175779e+00 -3.320572e-01 6.024626e+00 8.778064e+00 4.977494e+00 5.658194e+00 5.874516e+00 -3.345596e+00 1.733229e-01 -2.734603e+00 3.022535e+00 9.041882e-01 -1.102528e+00 -5.353068e-01 -8.239809e-01 -2.393952e-01 1.476682e-01 -8.475061e-01 2.010212e-02 1.396632e+00 3.183285e-01 1.094923e+00 6.712900e-01 1.021953e-02 -2.399392e-01 2.770461e-01 -6.128251e-01 -1.995405e-01 -7.058470e-01 -7.134905e-01 -3.191899e-01 -3.753545e-01 -2.483494e-01 3.687690e-01 -6.005663e-02 4.668225e-01 6.765208e-02 1.006821e-01
<VARIANCE> 39
 5.673101e+01 1.690147e+01 2.403554e+01 1.975713e+01 2.180848e+01 6.066244e+01 4.919065e+01 5.021696e+01 3.057626e+01 3.016846e+01 3.851084e+01 2.216499e+01 2.722892e+01 5.422895e+00 3.166942e+00 3.539984e+00 4.584558e+00 4.689989e+00 4.202361e+00 3.932971e+00 4.425315e+00 4.373344e+00 2.389761e+00 3.679241e+00 2.281266e+00 1.731755e+00 1.192183e+00 3.637929e-01 3.883355e-01 6.200180e-01 6.601369e-01 7.862519e-01 6.236842e-01 8.048908e-01 6.779753e-01 6.852114e-01 6.443417e-01 4.594259e-01 3.536117e-01
<GCONST> 1.264500e+02
<STATE> 3
<MEAN> 39
 -8.539207e+00 -3.702897e+00 -3.282879e+00 1.277733e+00 5.218546e+00 -1.847736e+00 2.959287e+00 8.800091e+00 -2.058356e-01 7.165148e-01 1.029033e+00 6.666061e+00 1.436498e+00 -2.473206e-01 -4.364276e-01 -1.374543e-01 -1.773667e-01 -2.343479e-01 -2.256291e-01 -7.988536e-02 -7.848232e-03 3.416337e-01 1.956519e-01 7.999359e-02 -8.222610e-02 1.246986e-01 2.686656e-01 1.808092e-01 1.583320e-01 8.017115e-02 1.325592e-02 1.456639e-01 6.191966e-02 -1.794149e-01 -1.050696e-01 -9.480973e-02 -1.357416e-01 -1.552641e-01 -3.901066e-02
<VARIANCE> 39
 3.425183e+01 1.291838e+01 1.506053e+01 1.405221e+01 2.410399e+01 2.599244e+01 2.988895e+01 2.617075e+01 2.804727e+01 4.120679e+01 1.746393e+01 2.548229e+01 1.249630e+01 1.345627e+00 2.376616e+00 1.416910e+00 1.418649e+00 1.507447e+00 2.079246e+00 1.895425e+00 2.386425e+00 3.799747e+00 2.159811e+00 1.760494e+00 1.555016e+00 1.316038e+00 5.887708e-01 3.780335e-01 3.574151e-01 1.987460e-01 3.170194e-01 4.428751e-01 4.568278e-01 4.770891e-01 7.217701e-01 4.769832e-01 3.667138e-01 3.062553e-01 2.726860e-01
<GCONST> 1.076158e+02
<STATE> 4
<MEAN> 39
 -3.820636e+00 -2.510437e+00 -3.348961e+00 5.012392e-01 1.312351e+00 -8.641646e-01 1.536922e+00 4.745032e+00 1.049161e+00 3.358218e+00 3.702050e-01 -1.395689e+00 1.031205e-01 2.973491e+00 4.441950e-02 9.699425e-01 -7.009598e-01 -1.918871e+00 5.697868e-01 -5.145816e-01 -1.821024e+00 6.259935e-01 -1.134508e+00 1.542023e-01 -1.416302e+00 -8.443391e-01 -1.507619e-01 9.169011e-02 3.173175e-01 8.173572e-02 -3.658910e-01 8.418006e-02 -2.554583e-01 -3.587631e-01 -8.365527e-02 -2.046704e-01 1.952570e-01 2.845508e-01 -1.702505e-01
<VARIANCE> 39
 9.471777e+01 3.452917e+01 8.175398e+01 4.069442e+01 4.629512e+01 3.895327e+01 3.637741e+01 4.254910e+01 3.420383e+01 2.898127e+01 1.835942e+01 4.337656e+01 2.059358e+01 9.707917e+00 4.928689e+00 8.900711e+00 3.800168e+00 6.511328e+00 4.121623e+00 5.539027e+00 6.786063e+00 6.033456e+00 4.057060e+00 2.046008e+00 3.576721e+00 2.175985e+00 2.077747e+00 1.110972e+00 8.597398e-01 5.956823e-01 1.335155e+00 7.631206e-01 1.015103e+00 1.236961e+00 1.061691e+00 6.900513e-01 4.583719e-01 9.985121e-01 3.527392e-01
<GCONST> 1.378760e+02
<TRANSP> 5
 0.000000e+00 1.000000e+00 0.000000e+00 0.000000e+00 0.000000e+00
 0.000000e+00 7.223046e-01 2.776954e-01 0.000000e+00 0.000000e+00
 0.000000e+00 0.000000e+00 8.797118e-01 1.202882e-01 0.000000e+00
 0.000000e+00 0.000000e+00 0.000000e+00 7.591432e-01 2.408568e-01
 0.000000e+00 0.000000e+00 0.000000e+00 0.000000e+00 0.000000e+00
<ENDHMM>
~o
<STREAMINFO> 1 39
<VECSIZE> 39<NULLD><MFCC_D_A_Z><DIAGC>
~h "g"
<BEGINHMM>
<NUMSTATES> 5
<STATE> 2
<MEAN> 39
 3.941189e+00 -7.831528e-01 1.732452e+00 1.321608e+00 -5.677810e-01 -4.208661e+00 -3.281731e+00 7.341928e-01 1.087880e+00 3.708979e-01 1.750495e+00 -4.619234e+00 1.728360e+00 1.548597e+00 1.931549e+00 2.141290e+00 2.096933e+00 2.114150e-01 -8.506073e-01 -8.404180e-01 -2.794785e-01 -1.504100e+00 4.157780e-01 -1.448902e-01 1.021249e-01 2.181180e-01 1.140825e-01 8.910298e-02 2.556502e-02 -5.000126e-02 4.088892e-02 2.412922e-01 1.976758e-01 5.301871e-02 -3.828203e-02 -1.259175e-01 -3.759906e-01 6.780905e-02 -1.675137e-01
<VARIANCE> 39
 3.445590e+01 3.943783e+01 5.832633e+01 5.499158e+01 7.974305e+01 6.040786e+01 5.618053e+01 7.546964e+01 8.646707e+01 4.101403e+01 5.515427e+01 5.858421e+01 3.207023e+01 3.393505e+00 2.782286e+00 3.553928e+00 4.133483e+00 5.946111e+00 4.772464e+00 4.841871e+00 4.662339e+00 5.833825e+00 3.460370e+00 4.893786e+00 3.658301e+00 3.071467e+00 7.125617e-01 5.836740e-01 6.665875e-01 8.436207e-01 1.202001e+00 8.825217e-01 8.832876e-01 9.526761e-01 1.390046e+00 6.853016e-01 8.815417e-01 6.616696e-01 6.108582e-01
<GCONST> 1.392792e+02
<STATE> 3
<MEAN> 39
 1.357809e+01 1.062381e+01 1.266082e+01 7.917296e+00 -5.150305e+00 -5.821724e+00 -1.246730e+00 4.646528e-01 -4.426473e+00 2.834888e+00 -3.424226e+00 -4.714101e+00 -1.047521e+00 -6.982174e-01 7.531182e-02 -1.717968e-01 -4.425048e-02 5.094156e-01 -1.988608e-01 -3.450141e-02 8.234603e-01 -1.141081e-01 -2.492678e-01 -9.545701e-02 2.895387e-01 -1.573621e-01 -9.760594e-01 -7.994852e-01 -7.596015e-01 -5.578448e-01 -7.411769e-02 8.303902e-02 -1.166722e-01 -5.544513e-02 4.369749e-01 -1.854616e-01 4.539604e-01 2.437432e-01 1.685715e-01
<VARIANCE> 39
 1.889744e+01 3.148788e+01 3.569375e+01 2.334569e+01 4.351964e+01 3.770480e+01 3.864869e+01 4.856140e+01 3.985590e+01 3.271817e+01 3.034775e+01 2.524030e+01 2.380937e+01 6.958288e+00 4.552394e+00 5.076640e+00 2.818281e+00 7.018211e+00 3.680625e+00 3.769646e+00 4.222819e+00 4.204732e+00 3.220069e+00 2.986562e+00 2.961939e+00 2.352490e+00 5.873185e-01 5.732547e-01 5.908424e-01 6.797829e-01 1.211441e+00 5.765990e-01 7.157192e-01 8.821157e-01 1.118286e+00 5.827641e-01 5.413334e-01 5.358935e-01 3.958259e-01
<GCONST> 1.290805e+02
<STATE> 4
<MEAN> 39
 9.528458e-01 -6.030283e-01 2.505380e+00 2.364929e+00 -4.181538e+00 -7.333969e+00 -4.033192e+00 1.956256e+00 1.117414e+00 -1.031965e-01 1.777668e+00 -1.878948e+00 1.588161e+00 -1.051195e+00 -1.637219e+00 -1.604237e+00 -1.913096e+00 -1.859563e+00 6.405877e-02 6.439475e-01 -1.681911e-01 2.506130e+00 -3.555542e-01 5.511544e-01 5.256971e-02 -6.185265e-02 7.840431e-01 3.390710e-01 2.446419e-01 7.003863e-02 -4.522987e-02 3.183153e-01 1.907516e-01 -2.389344e-01 -7.262194e-02 1.400117e-01 -3.311094e-01 -2.346305e-01 -1.589977e-01
<VARIANCE> 39
 1.581646e+01 3.271314e+01 4.863446e+01 4.586576e+01 9.983422e+01 5.762885e+01 4.080953e+01 6.042462e+01 8.620941e+01 2.406880e+01 3.442785e+01 3.672214e+01 2.385227e+01 4.312212e+00 2.866883e+00 3.264678e+00 2.887573e+00 8.127719e+00 4.599413e+00 6.170310e+00 6.557796e+00 6.619879e+00 3.243326e+00 4.782161e+00 4.114128e+00 2.656885e+00 4.656710e-01 5.304895e-01 5.704052e-01 8.565049e-01 2.795739e+00 7.171335e-01 1.073996e+00 1.157783e+00 1.825442e+00 6.088133e-01 7.645262e-01 6.510169e-01 4.694672e-01
<GCONST> 1.366095e+02
<TRANSP> 5
 0.000000e+00 1.000000e+00 0.000000e+00 0.000000e+00 0.000000e+00
 0.000000e+00 6.490363e-01 3.509637e-01 0.000000e+00 0.000000e+00
 0.000000e+00 0.000000e+00 7.553824e-01 2.446177e-01 0.000000e+00
 0.000000e+00 0.000000e+00 0.000000e+00 7.351754e-01 2.648245e-01
 0.000000e+00 0.000000e+00 0.000000e+00 0.000000e+00 0.000000e+00
<ENDHMM>
~o
<STREAMINFO> 1 39
<VECSIZE> 39<NULLD><MFCC_D_A_Z><DIAGC>
~h "gh"
<BEGINHMM>
<NUMSTATES> 5
<STATE> 2
<MEAN> 39
 1.018818e+01 6.984418e+00 1.033056e+01 5.473501e+00 -5.113023e+00 -5.366020e+00 -9.757298e-01 6.547168e-01 -1.566246e+00 2.279767e+00 -2.314480e+00 -5.037052e+00 -7.091280e-01 1.236542e+00 1.219071e+00 1.024236e+00 1.000577e+00 -9.234838e-02 -5.039473e-01 2.681798e-01 7.496539e-01 -3.990348e-01 1.495734e-01 -2.090370e-01 -2.595536e-01 -1.133432e-02 -4.219726e-01 -2.877215e-01 -3.620110e-01 -1.747977e-01 1.661042e-01 2.153026e-01 7.186770e-03 4.644446e-02 -2.246609e-03 -8.660278e-02 5.308359e-02 2.426108e-01 1.498227e-02
<VARIANCE> 39
 5.630652e+01 4.925200e+01 6.711530e+01 4.013453e+01 7.755080e+01 4.984776e+01 5.057341e+01 4.728208e+01 4.774151e+01 3.317125e+01 3.667695e+01 3.753125e+01 2.914376e+01 4.321986e+00 2.759820e+00 4.143213e+00 3.226183e+00 4.859396e+00 3.264538e+00 3.276604e+00 4.076334e+00 4.752257e+00 2.938688e+00 3.272148e+00 2.991605e+00 2.214945e+00 1.072148e+00 5.391794e-01 7.958578e-01 5.753615e-01 1.054973e+00 6.497327e-01 7.167062e-01 6.712349e-01 8.405549e-01 5.930578e-01 6.985355e-01 5.251601e-01 4.611416e-01
<GCONST> 1.327393e+02
<STATE> 3
<MEAN> 39
 8.289658e+00 8.083986e+00 1.021459e+01 8.994284e+00 1.349309e-01 -4.620942e+00 -1.214017e+00 4.378128e+00 -5.657294e+00 1.913602e+00 -2.020399e+00 -2.861441e+00 -1.022445e-02 -3.786512e+00 -1.819970e+00 -3.124968e+00 -6.841959e-01 2.804409e+00 4.276464e-01 -7.801468e-01 1.621142e+00 1.115372e-01 -3.667046e-01 1.248987e+00 1.882308e+00 1.139222e+00 -3.546891e-01 -2.440752e-01 -5.773003e-01 -5.058737e-01 -4.111446e-01 1.680894e-01 2.027815e-01 -3.000863e-01 6.379860e-01 5.366458e-02 3.194341e-01 2.476156e-01 2.514203e-01
<VARIANCE> 39
 6.787685e+01 4.550844e+01 5.468687e+01 3.005313e+01 8.979784e+01 5.413926e+01 4.522467e+01 4.431936e+01 3.800814e+01 2.962582e+01 2.757194e+01 3.137465e+01 2.628276e+01 3.400946e+00 3.642263e+00 3.982351e+00 3.065377e+00 6.679320e+00 4.805405e+00 4.732283e+00 6.122572e+00 7.552262e+00 3.566651e+00 3.422407e+00 3.408254e+00 2.580025e+00 1.659308e+00 9.449197e-01 9.627829e-01 4.894263e-01 1.807441e+00 7.636092e-01 1.126423e+00 8.611513e-01 1.150856e+00 5.913079e-01 7.322256e-01 7.014785e-01 4.543792e-01
<GCONST> 1.369685e+02
<STATE> 4
<MEAN> 39
 1.801248e+00 2.960052e+00 -1.920669e+00 2.076174e+00 1.574997e+00 -7.311696e-01 1.446576e+00 7.043440e+00 1.753579e+00 2.859757e-01 1.498585e+00 1.144905e+00 3.422541e+00 1.028966e-01 -9.431124e-01 -1.160530e+00 -1.122387e+00 -1.328526e+00 5.501351e-01 6.056144e-01 -1.314086e-01 1.537414e+00 -5.653964e-01 -7.345121e-02 7.362084e-02 -4.064501e-01 5.086352e-01 -6.985266e-02 5.473011e-01 1.525090e-01 -4.966293e-01 -1.364585e-01 -2.593862e-01 -3.834319e-01 -1.990222e-01 -2.519787e-03 -2.180116e-01 -2.263422e-01 -2.939342e-01
<VARIANCE> 39
 2.024705e+01 5.857793e+01 4.618042e+01 3.905679e+01 6.985088e+01 7.180633e+01 4.554871e+01 7.882432e+01 5.565821e+01 3.066932e+01 3.520730e+01 4.309119e+01 2.817187e+01 3.149478e+00 5.040934e+00 4.200247e+00 3.281727e+00 7.135931e+00 4.577358e+00 6.586008e+00 5.954175e+00 5.368907e+00 2.998740e+00 3.812681e+00 3.889629e+00 3.649698e+00 7.694760e-01 1.057044e+00 7.368346e-01 7.306702e-01 1.389280e+00 9.457729e-01 1.313845e+00 1.146701e+00 1.203118e+00 6.359118e-01 8.529083e-01 8.083630e-01 6.639474e-01
<GCONST> 1.391866e+02
<TRANSP> 5
 0.000000e+00 1.000000e+00 0.000000e+00 0.000000e+00 0.000000e+00
 0.000000e+00 8.226898e-01 1.773103e-01 0.000000e+00 0.000000e+00
 0.000000e+00 0.000000e+00 5.791983e-01 4.208017e-01 0.000000e+00
 0.000000e+00 0.000000e+00 0.000000e+00 8.005836e-01 1.994164e-01
 0.000000e+00 0.000000e+00 0.000000e+00 0.000000e+00 0.000000e+00
<ENDHMM>
~o
<STREAMINFO> 1 39
<VECSIZE> 39<NULLD><MFCC_D_A_Z><DIAGC>
~h "h"
<BEGINHMM>
<NUMSTATES> 5
<STATE> 2
<MEAN> 39
 -1.705138e+00 1.357235e+00 1.803415e-01 2.962838e+00 6.666701e+00 4.320361e+00 4.625560e+00 3.080559e+00 -1.119911e+00 2.163551e-01 3.343379e-01 2.194036e+00 2.460003e+00 4.177554e-01 -2.269612e-01 -2.661100e-01 -5.503662e-01 -1.924216e-01 -9.771957e-02 -7.929115e-02 -5.513815e-01 1.720239e-02 -3.881395e-01 1.340650e-01 -4.484480e-01 -1.709324e-01 2.225691e-01 -4.115627e-01 -3.376073e-01 -5.730793e-01 -3.525025e-01 -1.691091e-01 -2.386604e-01 -2.131230e-01 1.971210e-01 -2.020561e-01 6.390678e-02 -2.992505e-01 -1.989499e-01
<VARIANCE> 39
 4.693227e+01 4.575637e+01 5.926582e+01 4.343235e+01 6.232522e+01 5.178558e+01 3.609571e+01 7.662544e+01 6.014064e+01 3.644508e+01 3.029960e+01 3.217709e+01 2.360733e+01 2.973422e+00 3.515879e+00 4.233450e+00 4.574950e+00 4.201186e+00 3.275681e+00 2.895838e+00 4.852429e+00 3.421124e+00 3.155245e+00 2.349680e+00 3.193477e+00 2.346660e+00 4.710903e-01 7.874321e-01 7.358007e-01 8.008366e-01 9.283529e-01 6.500895e-01 5.605862e-01 9.160854e-01 6.631129e-01 5.818474e-01 4.618917e-01 5.408180e-01 4.590907e-01
<GCONST> 1.309563e+02
<STATE> 3
<MEAN> 39
 4.633650e+00 -7.748218e-01 -4.719910e+00 -5.037742e+00 4.060790e+00 3.875235e+00 3.036671e+00 -1.720419e+00 2.544619e+00 -4.306408e+00 2.264664e+00 -3.441705e+00 -6.824498e-01 4.878633e-01 -2.009410e+00 -1.463223e+00 -2.438918e+00 -7.348670e-01 -8.792822e-02 -7.590071e-01 -6.836290e-01 1.364272e+00 -1.067941e+00 3.901971e-01 -1.291950e+00 -9.917053e-01 -4.498972e-01 -1.107433e-01 4.710545e-01 3.154622e-01 3.208611e-02 1.220499e-01 -1.630747e-01 3.703347e-02 -9.446743e-02 2.064813e-01 -8.996215e-02 2.317650e-01 1.464206e-01
<VARIANCE> 39
 1.892424e+01 5.188297e+01 8.196049e+01 4.863692e+01 1.000962e+02 5.505671e+01 3.839711e+01 5.466332e+01 5.744893e+01 3.766312e+01 4.186669e+01 3.595241e+01 3.148465e+01 2.631956e+00 3.356016e+00 4.438435e+00 5.233127e+00 7.005673e+00 3.909349e+00 2.894356e+00 5.540925e+00 5.080977e+00 2.989924e+00 3.289351e+00 3.164914e+00 3.015677e+00 3.062657e-01 6.384669e-01 6.942585e-01 8.304812e-01 8.218182e-01 5.017592e-01 5.418458e-01 7.476535e-01 7.133458e-01 4.913862e-01 4.702979e-01 4.721783e-01 5.079523e-01
<GCONST> 1.319403e+02
<STATE> 4
<MEAN> 39
 2.546446e+00 -5.182690e+00 -6.911646e+00 -8.011971e+00 7.902014e+00 5.281531e+00 1.793111e+00 -1.157609e+00 4.721030e+00 -5.451892e+00 1.820721e+00 -5.550145e+00 -5.307386e-01 -1.622260e-01 6.484467e-02 2.847182e-01 1.074367e-01 -4.300891e-01 -2.188355e-01 -3.838190e-01 -6.483423e-02 -1.213868e-02 1.869398e-01 -6.449720e-02 1.159049e-01 -3.467532e-02 -4.327446e-03 3.538602e-01 2.407882e-01 3.530630e-01 -2.957406e-02 -3.999110e-02 3.836710e-02 -9.581717e-03 -2.462737e-01 1.718499e-01 -1.839455e-02 2.473685e-01 6.143736e-02
<VARIANCE> 39
 1.235701e+01 3.872985e+01 4.210786e+01 4.400383e+01 8.727209e+01 6.021108e+01 3.636422e+01 4.514827e+01 3.427447e+01 3.336376e+01 4.500004e+01 4.163171e+01 3.260435e+01 1.110295e+00 3.925275e+00 2.458566e+00 4.151746e+00 3.491957e+00 2.536671e+00 2.599009e+00 2.623661e+00 2.330364e+00 2.245144e+00 2.103640e+00 2.720757e+00 1.883469e+00 2.615830e-01 7.088845e-01 4.981013e-01 8.571106e-01 5.608744e-01 4.231950e-01 4.346875e-01 4.955163e-01 5.066957e-01 4.338541e-01 3.946635e-01 5.700176e-01 3.893101e-01
<GCONST> 1.218738e+02
<TRANSP> 5
 0.000000e+00 1.000000e+00 0.000000e+00 0.000000e+00 0.000000e+00
 0.000000e+00 7.299857e-01 2.700143e-01 0.000000e+00 0.000000e+00
 0.000000e+00 0.000000e+00 4.714407e-01 5.285593e-01 0.000000e+00
 0.000000e+00 0.000000e+00 0.000000e+00 7.957294e-01 2.042706e-01
 0.000000e+00 0.000000e+00 0.000000e+00 0.000000e+00 0.000000e+00
<ENDHMM>
~o
<STREAMINFO> 1 39
<VECSIZE> 39<NULLD><MFCC_D_A_Z><DIAGC>
~h "hq"
<BEGINHMM>
<NUMSTATES> 5
<STATE> 2
<MEAN> 39
 2.654257e+00 -1.693333e+00 -7.578178e+00 -3.114623e+00 8.687508e+00 1.209815e+00 3.956168e+00 2.836765e+00 4.434688e+00 -1.962449e+00 -1.937860e+00 -5.223547e+00 2.864845e+00 2.144651e-01 -2.817003e-01 -6.317175e-01 -3.006936e-01 3.668951e-01 3.157950e-01 3.212235e-01 -2.885705e-01 8.946310e-02 -2.692143e-01 9.674700e-02 -3.245326e-01 -1.928214e-01 -1.013722e-01 -1.928604e-01 6.310483e-02 -9.382813e-02 -1.730039e-01 7.017432e-03 -1.611700e-01 -6.158070e-02 3.682349e-02 -5.793258e-03 -4.876026e-02 -3.708571e-02 -1.041988e-01
<VARIANCE> 39
 1.288742e+01 2.999804e+01 3.470971e+01 4.322904e+01 4.537226e+01 3.845773e+01 4.890023e+01 3.580823e+01 3.702800e+01 3.083232e+01 2.832691e+01 3.607885e+01 2.619695e+01 1.401036e+00 4.682288e+00 3.947516e+00 5.445597e+00 3.396469e+00 2.571031e+00 2.775763e+00 2.519903e+00 3.268992e+00 2.161501e+00 1.886176e+00 4.035006e+00 1.934590e+00 3.716601e-01 7.906616e-01 8.686075e-01 1.014618e+00 5.962044e-01 4.945609e-01 4.914542e-01 4.482664e-01 6.496308e-01 4.073794e-01 3.552031e-01 7.744652e-01 3.176183e-01
<GCONST> 1.229698e+02
<STATE> 3
<MEAN> 39
 2.658552e+00 -7.451822e+00 -1.041105e+01 -8.706285e+00 6.302122e+00 3.958586e+00 1.548805e+00 -1.028215e+00 7.261199e+00 -3.806349e+00 -3.190167e+00 -8.075309e+00 -5.509740e-01 -9.270667e-02 -1.843473e-01 7.555921e-02 -2.003567e-01 -2.625969e-01 -8.376635e-02 -1.728302e-01 1.095183e-01 6.183499e-02 9.020028e-02 -1.449293e-01 -1.371999e-01 1.147694e-01 7.231499e-02 2.683089e-01 4.082591e-02 1.674405e-01 2.816714e-02 -9.911498e-02 7.442370e-02 9.758154e-02 -9.699891e-02 9.414516e-02 3.770115e-02 8.996347e-02 9.162424e-02
<VARIANCE> 39
 7.179861e+00 1.304977e+01 2.613070e+01 1.965864e+01 3.512254e+01 3.329401e+01 3.157969e+01 2.818745e+01 2.582355e+01 2.183614e+01 2.565334e+01 2.441122e+01 2.263545e+01 4.958732e-01 1.119918e+00 1.020629e+00 1.168021e+00 1.191498e+00 1.399472e+00 1.214320e+00 1.249557e+00 1.180091e+00 9.913217e-01 9.452121e-01 9.399388e-01 8.947418e-01 8.033159e-02 1.794055e-01 2.219414e-01 2.080451e-01 2.068651e-01 2.236875e-01 2.267045e-01 2.102591e-01 2.147575e-01 1.823761e-01 1.685869e-01 1.976170e-01 1.468025e-01
<GCONST> 9.065970e+01
<STATE> 4
<MEAN> 39
 -1.149778e+00 -3.553151e+00 -6.919037e+00 -3.188882e-01 6.496041e+00 5.786042e-01 4.777682e+00 5.181784e+00 1.588857e+00 -1.855749e-01 -2.991941e+00 -8.021646e-01 3.330377e+00 -1.402746e-01 5.904102e-01 5.558476e-01 6.610835e-01 -1.271046e-01 -1.005598e-01 1.900967e-02 2.017446e-01 -3.963191e-01 4.301696e-01 2.015635e-01 6.870050e-01 -8.536028e-02 -3.351665e-02 7.268883e-02 1.384095e-01 7.964432e-02 2.924154e-02 5.869236e-02 -3.775495e-02 -8.355631e-02 -8.305745e-02 -4.513884e-03 6.739651e-02 9.469034e-02 -6.771234e-02
<VARIANCE> 39
 3.078125e+01 2.973811e+01 3.879113e+01 5.301059e+01 4.830109e+01 4.967076e+01 4.774469e+01 5.135826e+01 4.592819e+01 3.625302e+01 3.805695e+01 8.246443e+01 3.249275e+01 1.607516e+00 3.036425e+00 2.561015e+00 3.496648e+00 3.298706e+00 3.691145e+00 3.314402e+00 3.429883e+00 3.154652e+00 2.931625e+00 2.935514e+00 3.222821e+00 2.324975e+00 3.108225e-01 5.264177e-01 4.460082e-01 6.654019e-01 5.938591e-01 6.366363e-01 5.877709e-01 6.153366e-01 6.114232e-01 5.337833e-01 5.216984e-01 5.637875e-01 4.271142e-01
<GCONST> 1.264772e+02
<TRANSP> 5
 0.000000e+00 1.000000e+00 0.000000e+00 0.000000e+00 0.000000e+00
 0.000000e+00 8.742309e-01 1.257692e-01 0.000000e+00 0.000000e+00
 0.000000e+00 0.000000e+00 8.876626e-01 1.123374e-01 0.000000e+00
 0.000000e+00 0.000000e+00 0.000000e+00 8.831787e-01 1.168213e-01
 0.000000e+00 0.000000e+00 0.000000e+00 0.000000e+00 0.000000e+00
<ENDHMM>
~o
<STREAMINFO> 1 39
<VECSIZE> 39<NULLD><MFCC_D_A_Z><DIAGC>
~h "i"
<BEGINHMM>
<NUMSTATES> 5
<STATE> 2
<MEAN> 39
 -9.030818e-01 4.024583e+00 1.162333e+01 5.446002e+00 -8.701603e+00 -2.286880e+00 -2.112918e-01 -4.259536e+00 -3.777236e+00 -1.528733e+00 2.069931e+00 3.229497e+00 -1.938181e+00 -2.032131e-01 2.009144e-02 1.361259e+00 -2.583006e-01 -1.719934e+00 1.143862e-01 -2.638412e-01 -1.126722e+00 -7.063710e-02 -4.569515e-01 6.073620e-01 3.226252e-02 -2.457831e-01 -3.575095e-02 6.324247e-02 -1.939352e-01 -1.217172e-01 3.762845e-01 1.301108e-01 -2.922205e-02 8.184598e-02 1.231264e-01 1.670783e-01 -1.756629e-01 -1.157244e-01 1.149713e-01
<VARIANCE> 39
 3.732586e+01 3.994066e+01 7.037804e+01 3.759836e+01 1.464984e+02 4.290830e+01 4.216792e+01 7.823143e+01 3.471417e+01 3.453356e+01 3.459067e+01 2.436845e+01 2.439945e+01 5.360700e+00 3.775433e+00 8.529850e+00 4.350147e+00 1.538462e+01 4.277096e+00 4.668665e+00 9.266415e+00 4.101202e+00 3.476825e+00 3.384720e+00 2.574265e+00 2.213030e+00 1.103710e+00 8.079339e-01 1.450019e+00 7.725381e-01 3.086455e+00 8.753882e-01 7.973939e-01 1.591833e+00 7.557004e-01 6.972673e-01 7.329181e-01 5.195177e-01 4.265905e-01
<GCONST> 1.396981e+02
<STATE> 3
<MEAN> 39
 -2.640524e+00 6.043523e+00 1.985440e+01 -3.972104e-01 -1.508919e+01 4.426390e-02 -4.333706e+00 -1.230930e+01 -2.544459e+00 -2.210817e+00 2.201065e+00 1.764786e+00 -1.091587e+00 9.574740e-02 4.966003e-01 -2.337474e-01 7.499035e-02 7.605489e-01 -5.263391e-02 1.657383e-01 1.411116e-01 1.008596e-02 3.273129e-01 -4.750165e-01 6.111233e-02 4.006144e-01 9.182566e-02 5.978509e-02 -5.422298e-01 3.494256e-01 7.495861e-01 -6.142261e-02 2.402636e-01 5.312077e-01 -8.331250e-02 2.042862e-01 -2.448364e-01 4.432647e-02 7.479858e-02
<VARIANCE> 39
 1.154372e+01 3.556772e+01 4.217237e+01 2.818003e+01 4.573512e+01 3.803008e+01 2.209260e+01 4.000900e+01 2.563732e+01 2.864660e+01 3.592242e+01 2.154935e+01 2.602402e+01 1.286753e+00 2.226530e+00 2.439268e+00 2.433484e+00 3.778615e+00 2.010505e+00 2.094009e+00 3.074636e+00 2.126218e+00 2.073334e+00 2.006800e+00 1.691874e+00 1.441221e+00 3.366096e-01 3.990864e-01 5.470486e-01 4.138995e-01 1.172962e+00 4.334812e-01 4.252735e-01 6.889853e-01 4.508926e-01 4.407001e-01 5.310125e-01 3.328145e-01 3.109699e-01
<GCONST> 1.154117e+02
<STATE> 4
<MEAN> 39
 -8.112079e-01 5.136553e+00 8.927498e+00 5.000733e+00 -4.093873e+00 -2.056986e+00 6.134302e-01 -2.489463e+00 -3.770577e+00 6.995844e-01 -2.981808e-01 3.198646e+00 4.834919e-01 -7.774868e-02 -2.531932e-01 -1.854551e+00 3.208500e-01 2.108270e+00 2.132856e-01 6.340830e-01 1.460782e+00 1.384684e-01 6.555030e-01 -5.615465e-01 -1.969898e-01 1.672347e-01 -1.483594e-01 -2.619118e-01 -7.729674e-02 -2.733444e-01 -2.553002e-01 7.538004e-02 -1.076208e-01 -5.413391e-02 1.251867e-01 -7.029150e-02 1.163091e-01 -1.079986e-01 -6.146437e-02
<VARIANCE> 39
 4.845529e+01 4.714451e+01 6.267052e+01 4.409843e+01 9.729553e+01 5.577094e+01 4.663124e+01 6.753782e+01 4.718512e+01 3.885822e+01 3.265153e+01 2.740229e+01 2.622487e+01 6.179694e+00 4.933398e+00 3.951968e+00 5.505550e+00 9.872712e+00 4.690433e+00 4.567506e+00 6.013595e+00 5.726920e+00 3.392340e+00 3.919292e+00 2.937634e+00 2.299087e+00 9.303304e-01 8.015538e-01 7.161664e-01 7.960997e-01 1.504683e+00 9.069481e-01 7.708429e-01 8.894563e-01 9.889912e-01 6.283938e-01 6.265923e-01 5.583876e-01 4.343835e-01
<GCONST> 1.381734e+02
<TRANSP> 5
 0.000000e+00 1.000000e+00 0.000000e+00 0.000000e+00 0.000000e+00
 0.000000e+00 7.528575e-01 2.471425e-01 0.000000e+00 0.000000e+00
 0.000000e+00 0.000000e+00 7.836056e-01 2.163944e-01 0.000000e+00
 0.000000e+00 0.000000e+00 0.000000e+00 7.573187e-01 2.426814e-01
 0.000000e+00 0.000000e+00 0.000000e+00 0.000000e+00 0.000000e+00
<ENDHMM>
~o
<STREAMINFO> 1 39
<VECSIZE> 39<NULLD><MFCC_D_A_Z><DIAGC>
~h "ii"
<BEGINHMM>
<NUMSTATES> 5
<STATE> 2
<MEAN> 39
 -1.912294e+00 3.702077e+00 1.848658e+01 2.638637e+00 -1.597796e+01 -8.042941e-01 -3.848143e+00 -1.055592e+01 -4.381310e+00 -3.059028e+00 2.543775e+00 2.952257e+00 -3.797017e+00 -3.364122e-02 1.594260e-01 2.314448e+00 -1.339116e+00 -2.294977e+00 1.081688e+00 -8.240647e-01 -2.667974e+00 7.878748e-01 -7.197190e-01 2.039847e-01 -3.236849e-01 -6.410487e-01 -2.009446e-01 2.060644e-01 -7.260268e-01 8.880078e-03 9.969351e-01 -6.091956e-02 2.151607e-01 4.388435e-01 2.177536e-01 2.565213e-01 -3.131623e-01 -6.521409e-02 2.013059e-01
<VARIANCE> 39
 1.499716e+01 3.305404e+01 4.254581e+01 3.358236e+01 5.180273e+01 3.873341e+01 2.767543e+01 4.729644e+01 2.773760e+01 2.726398e+01 2.732169e+01 2.151034e+01 2.196128e+01 3.627804e+00 2.654998e+00 5.351138e+00 2.744619e+00 8.196355e+00 3.240295e+00 3.848363e+00 4.586588e+00 3.286901e+00 2.794855e+00 2.559007e+00 2.113631e+00 2.118616e+00 7.547004e-01 4.254826e-01 7.057055e-01 4.800764e-01 9.667423e-01 7.270662e-01 6.072830e-01 9.748467e-01 7.247972e-01 4.766414e-01 4.382348e-01 4.023333e-01 3.733304e-01
<GCONST> 1.249027e+02
<STATE> 3
<MEAN> 39
 -3.336760e+00 6.672111e+00 2.073903e+01 -2.832991e+00 -1.450005e+01 1.206578e+00 -4.689781e+00 -1.561646e+01 -1.529924e+00 -2.754783e+00 1.599681e-01 1.192471e+00 -3.932909e+00 -1.542441e-02 1.683575e-01 -6.827100e-02 -1.551458e-01 1.329543e-01 -1.848956e-01 1.659097e-01 -1.535684e-01 -6.634455e-02 2.182505e-01 -1.672480e-01 6.779907e-03 2.665282e-01 1.200596e-01 -1.071343e-01 -2.161714e-01 2.287543e-01 -1.610081e-02 -1.532074e-01 7.947247e-02 2.614999e-01 -1.273996e-01 6.033392e-02 7.249647e-02 6.425426e-02 7.899696e-02
<VARIANCE> 39
 1.033659e+01 2.017244e+01 3.382190e+01 3.080143e+01 2.971076e+01 2.970460e+01 1.915690e+01 2.789862e+01 2.203547e+01 2.833649e+01 2.948010e+01 2.254447e+01 2.376709e+01 2.922355e-01 6.776261e-01 8.533967e-01 9.278222e-01 1.172912e+00 9.966735e-01 9.476245e-01 1.199254e+00 1.203761e+00 1.137765e+00 1.171709e+00 9.582374e-01 8.963966e-01 6.380143e-02 1.136939e-01 1.764612e-01 1.978763e-01 2.525013e-01 2.102725e-01 1.952097e-01 2.891372e-01 2.512578e-01 2.267529e-01 2.054024e-01 1.825165e-01 1.591380e-01
<GCONST> 8.980839e+01
<STATE> 4
<MEAN> 39
 -1.598201e-01 6.295568e+00 1.386718e+01 3.466007e+00 -9.654271e+00 -1.600252e+00 -6.792530e-01 -8.307687e+00 -4.544642e+00 2.193104e-01 -2.838051e-01 2.472062e+00 -4.472138e-01 5.431148e-01 -3.729119e-01 -2.054426e+00 1.073609e+00 1.926580e+00 -2.307826e-01 6.339403e-01 2.193788e+00 -2.320533e-01 3.264713e-01 -5.940377e-02 1.398183e-01 2.193875e-01 -1.256096e-01 -1.245330e-01 -1.887064e-01 -1.688538e-01 2.040108e-01 1.357691e-01 -7.775102e-02 1.538887e-01 1.896892e-01 -3.607409e-02 -6.192908e-02 -5.304879e-02 -5.690835e-02
<VARIANCE> 39
 2.714008e+01 4.345041e+01 5.488239e+01 5.930867e+01 1.171680e+02 4.814021e+01 3.933014e+01 8.136208e+01 3.482384e+01 3.155934e+01 3.397919e+01 2.550713e+01 2.636711e+01 3.729825e+00 3.425708e+00 2.931729e+00 4.644579e+00 7.860082e+00 4.504855e+00 3.558476e+00 4.603192e+00 4.091187e+00 2.997780e+00 3.253404e+00 2.433223e+00 2.002650e+00 6.305043e-01 5.819243e-01 5.940592e-01 7.590964e-01 1.677683e+00 9.046159e-01 6.239911e-01 9.423412e-01 7.429354e-01 5.534583e-01 6.176577e-01 4.652078e-01 3.662083e-01
<GCONST> 1.323242e+02
<TRANSP> 5
 0.000000e+00 1.000000e+00 0.000000e+00 0.000000e+00 0.000000e+00
 0.000000e+00 7.188587e-01 2.811413e-01 0.000000e+00 0.000000e+00
 0.000000e+00 0.000000e+00 8.846666e-01 1.153334e-01 0.000000e+00
 0.000000e+00 0.000000e+00 0.000000e+00 8.233120e-01 1.766880e-01
 0.000000e+00 0.000000e+00 0.000000e+00 0.000000e+00 0.000000e+00
<ENDHMM>
~o
<STREAMINFO> 1 39
<VECSIZE> 39<NULLD><MFCC_D_A_Z><DIAGC>
~h "j"
<BEGINHMM>
<NUMSTATES> 5
<STATE> 2
<MEAN> 39
 2.459254e-01 -2.855080e+00 -2.499615e+00 -1.427219e+00 -3.063312e-01 -7.022546e+00 -3.268427e-01 5.810112e+00 3.750242e+00 -1.203406e+00 -1.653466e+00 1.386372e-01 1.944614e+00 5.874876e-01 1.353185e+00 1.164276e+00 1.331715e+00 -8.614717e-02 -1.007571e+00 -6.023141e-01 2.059742e-01 -1.642354e-01 1.876766e-01 -3.399770e-01 1.006917e+00 2.147631e-01 2.023709e-01 4.677037e-01 3.150039e-01 3.010772e-01 4.350896e-01 5.042570e-01 4.176170e-02 -2.960213e-01 -3.596043e-01 -6.506585e-02 -1.602965e-01 4.815970e-03 -1.518344e-01
<VARIANCE> 39
 2.476284e+01 3.196209e+01 5.095925e+01 3.144074e+01 6.023060e+01 6.292391e+01 5.796021e+01 4.478631e+01 6.153693e+01 3.657277e+01 2.999679e+01 7.463477e+01 2.377107e+01 1.953954e+00 5.030562e+00 4.183939e+00 4.450053e+00 5.282578e+00 6.016474e+00 3.995527e+00 4.064925e+00 4.921019e+00 3.236420e+00 3.125625e+00 5.180054e+00 2.238106e+00 4.425801e-01 3.816182e-01 4.230665e-01 4.408081e-01 7.727351e-01 8.937017e-01 7.124844e-01 6.644755e-01 8.401693e-01 6.176034e-01 5.195808e-01 8.834725e-01 4.395150e-01
<GCONST> 1.314146e+02
<STATE> 3
<MEAN> 39
 9.964277e+00 1.163217e+01 1.073353e+01 8.292400e+00 5.484773e-01 -4.521715e+00 -1.860388e+00 3.630283e+00 1.302361e+00 -1.608875e+00 -6.194537e+00 2.028072e+00 -1.289018e+00 -6.560566e-01 1.493191e+00 9.711916e-01 3.351640e-01 8.737518e-01 5.982171e-01 5.230765e-01 1.114236e-01 -7.712769e-01 2.247712e-01 -2.048934e-01 -1.111256e-01 -4.970528e-01 -9.807603e-01 -5.295483e-01 -5.124409e-01 -6.054872e-01 -7.326802e-02 -1.462351e-01 2.642451e-02 3.031373e-02 -4.219013e-02 1.714399e-01 4.042971e-01 1.831571e-02 1.282393e-01
<VARIANCE> 39
 4.705423e+01 3.464291e+01 4.385206e+01 2.581847e+01 4.955748e+01 4.452964e+01 4.224813e+01 3.505711e+01 5.051834e+01 3.304930e+01 2.750242e+01 2.479808e+01 2.437648e+01 1.408255e+01 3.773873e+00 3.859720e+00 3.384345e+00 6.064609e+00 3.918055e+00 3.444310e+00 3.512692e+00 5.431711e+00 3.288508e+00 3.152232e+00 2.830101e+00 2.042615e+00 1.334927e+00 6.362679e-01 5.028616e-01 7.319732e-01 1.137034e+00 7.336743e-01 6.961060e-01 6.423572e-01 9.808773e-01 5.631446e-01 5.146238e-01 5.426840e-01 3.930211e-01
<GCONST> 1.312818e+02
<STATE> 4
<MEAN> 39
 -5.287896e+00 8.373039e+00 7.021941e+00 2.017565e+00 1.541843e+00 -6.911222e+00 -3.365092e+00 3.646759e+00 -6.483135e-01 6.034082e-01 -1.701698e+00 4.581893e+00 7.707515e-01 7.256751e-02 -2.350869e+00 -9.516872e-01 -1.412055e+00 -2.342952e+00 -2.086781e-01 -7.401746e-01 3.025018e-03 1.631195e+00 -4.895954e-01 8.222100e-01 -7.102776e-02 2.555232e-01 1.082444e+00 -4.518946e-01 -1.400697e-01 3.759031e-02 -4.693014e-01 3.071527e-01 1.116552e-01 -6.781088e-02 5.402071e-01 -2.696400e-01 -1.400025e-01 -5.017020e-01 -1.443717e-01
<VARIANCE> 39
 6.560755e+01 6.509917e+01 4.442273e+01 2.726161e+01 9.314735e+01 4.301666e+01 4.943355e+01 3.478402e+01 8.360852e+01 2.510342e+01 2.355054e+01 3.009435e+01 2.025513e+01 1.504030e+01 5.642379e+00 3.966241e+00 2.791819e+00 1.061345e+01 4.411721e+00 4.365379e+00 4.340137e+00 1.021068e+01 3.116532e+00 2.603010e+00 5.222190e+00 2.295054e+00 2.302241e+00 1.307876e+00 6.621114e-01 5.150756e-01 3.177401e+00 8.429047e-01 1.034391e+00 6.777910e-01 2.220692e+00 5.922052e-01 5.451993e-01 8.330457e-01 4.601380e-01
<GCONST> 1.400017e+02
<TRANSP> 5
 0.000000e+00 1.000000e+00 0.000000e+00 0.000000e+00 0.000000e+00
 0.000000e+00 7.789997e-01 2.210003e-01 0.000000e+00 0.000000e+00
 0.000000e+00 0.000000e+00 7.721164e-01 2.278837e-01 0.000000e+00
 0.000000e+00 0.000000e+00 0.000000e+00 7.367114e-01 2.632886e-01
 0.000000e+00 0.000000e+00 0.000000e+00 0.000000e+00 0.000000e+00
<ENDHMM>
~o
<STREAMINFO> 1 39
<VECSIZE> 39<NULLD><MFCC_D_A_Z><DIAGC>
~h "jh"
<BEGINHMM>
<NUMSTATES> 5
<STATE> 2
<MEAN> 39
 -5.677368e+00 -5.237094e+00 -4.701925e+00 1.147537e+00 2.147393e+00 -5.042338e+00 5.166592e+00 8.612560e+00 -4.270163e-01 5.974691e-01 1.069330e-01 7.898973e+00 2.056298e+00 -4.429418e-02 6.036098e-02 1.219664e-01 2.178773e-03 -2.286747e-01 -5.680485e-01 -1.065802e-01 9.740084e-02 -1.529097e-01 -2.085454e-02 1.798271e-01 4.099540e-01 2.847587e-02 3.529129e-02 1.917392e-01 1.172202e-01 1.182225e-01 1.395838e-01 1.288885e-01 2.037033e-02 -2.757989e-02 -3.290736e-02 3.328900e-02 -3.496522e-02 -7.629985e-02 1.899445e-02
<VARIANCE> 39
 2.203626e+01 1.155464e+01 1.843022e+01 2.054937e+01 2.812265e+01 3.305743e+01 2.278378e+01 3.535594e+01 3.530161e+01 2.945746e+01 2.531327e+01 3.682999e+01 1.785971e+01 7.736356e-01 1.317980e+00 9.183722e-01 1.177025e+00 1.568374e+00 1.881772e+00 1.734158e+00 2.106819e+00 1.948442e+00 2.028607e+00 1.474912e+00 2.266298e+00 1.755630e+00 9.997055e-02 2.676713e-01 2.208141e-01 2.477739e-01 2.849393e-01 3.197494e-01 3.419682e-01 4.203830e-01 3.961489e-01 4.033095e-01 3.122278e-01 5.230971e-01 3.249021e-01
<GCONST> 1.033343e+02
<STATE> 3
<MEAN> 39
 -2.560932e+00 4.481669e+00 1.589982e+00 6.005093e+00 4.318410e+00 -2.649013e+00 4.794209e+00 7.523116e+00 -2.392293e+00 1.201176e+00 -2.378577e-02 4.850554e+00 1.388104e+00 1.280778e+00 2.118493e+00 1.915264e+00 1.447844e+00 5.875061e-01 5.803117e-01 -4.273925e-01 -4.928029e-01 -1.701905e-01 -2.300886e-01 -8.582488e-01 -7.900481e-01 -6.063088e-01 6.254933e-01 -4.117374e-02 1.604613e-01 -3.228756e-02 -3.461554e-01 -1.556317e-01 -1.122994e-01 -6.045538e-02 2.011039e-01 -3.492761e-01 -2.661333e-01 -6.141452e-02 -2.391298e-01
<VARIANCE> 39
 2.563923e+01 3.845739e+01 2.633545e+01 3.149811e+01 5.767192e+01 8.340904e+01 5.448846e+01 2.225667e+01 4.577294e+01 3.220810e+01 2.827565e+01 4.609063e+01 2.032836e+01 5.281890e+00 3.122577e+00 2.918018e+00 2.813461e+00 4.550466e+00 6.761140e+00 3.985566e+00 2.506445e+00 3.527699e+00 3.950562e+00 2.548173e+00 5.461034e+00 1.941328e+00 6.272681e-01 5.033650e-01 3.487688e-01 5.275794e-01 9.206979e-01 1.551200e+00 7.393560e-01 5.396866e-01 7.354956e-01 5.316876e-01 4.295191e-01 9.784722e-01 3.607924e-01
<GCONST> 1.286854e+02
<STATE> 4
<MEAN> 39
 1.265622e+01 1.216371e+01 1.417860e+01 9.632176e+00 -1.833859e+00 -4.167710e+00 -5.599483e-01 6.641750e+00 2.618203e+00 -4.198000e+00 -6.748548e+00 3.412887e+00 -4.628914e+00 2.783235e-01 4.310166e-01 1.038382e+00 -2.634024e-01 -2.136241e-01 5.068989e-01 2.715022e-01 1.924715e-01 3.246578e-01 1.167288e-01 8.729172e-02 -9.893144e-03 -3.529581e-01 -1.190477e+00 -3.083846e-01 -6.477446e-01 -3.552679e-01 5.900553e-01 1.910411e-01 2.741662e-01 2.170403e-02 -3.528776e-01 4.127042e-01 4.067842e-01 -4.908777e-02 3.290342e-01
<VARIANCE> 39
 3.891809e+01 1.955281e+01 2.353885e+01 2.068561e+01 3.246312e+01 4.143859e+01 2.993447e+01 3.134966e+01 4.072223e+01 3.631790e+01 2.640324e+01 2.012110e+01 2.613851e+01 9.552648e+00 2.691663e+00 2.918880e+00 2.441936e+00 5.367280e+00 4.940802e+00 2.814132e+00 2.911807e+00 5.338475e+00 3.566250e+00 2.686890e+00 1.730610e+00 2.175550e+00 1.281137e+00 4.941905e-01 3.991346e-01 4.909216e-01 9.139439e-01 8.132411e-01 5.279537e-01 6.289508e-01 9.380987e-01 5.782575e-01 4.592538e-01 3.144559e-01 3.721506e-01
<GCONST> 1.242177e+02
<TRANSP> 5
 0.000000e+00 1.000000e+00 0.000000e+00 0.000000e+00 0.000000e+00
 0.000000e+00 9.040348e-01 9.596521e-02 0.000000e+00 0.000000e+00
 0.000000e+00 0.000000e+00 8.177862e-01 1.822138e-01 0.000000e+00
 0.000000e+00 0.000000e+00 0.000000e+00 8.495519e-01 1.504481e-01
 0.000000e+00 0.000000e+00 0.000000e+00 0.000000e+00 0.000000e+00
<ENDHMM>
~o
<STREAMINFO> 1 39
<VECSIZE> 39<NULLD><MFCC_D_A_Z><DIAGC>
~h "k"
<BEGINHMM>
<NUMSTATES> 5
<STATE> 2
<MEAN> 39
 -1.402481e+00 5.647267e+00 4.313692e+00 8.026774e+00 6.904712e+00 7.798513e-01 3.999452e+00 4.726183e+00 -5.571450e+00 2.759644e+00 -1.441322e+00 1.695473e+00 1.182466e+00 -1.542637e+00 -9.795751e-01 -9.293207e-01 -5.049106e-02 1.245653e+00 2.850432e-01 -9.329851e-02 1.142747e+00 -1.198191e-02 1.413012e-01 -2.357902e-02 4.585959e-01 6.000250e-03 -5.529222e-02 -5.895526e-01 -4.140649e-01 -8.106621e-01 -7.414885e-01 -4.161355e-01 -5.537611e-01 -1.623473e-01 3.544689e-01 -6.101346e-02 1.739418e-01 -1.205814e-01 4.555862e-02
<VARIANCE> 39
 5.067338e+01 3.300867e+01 4.918241e+01 3.561582e+01 5.248684e+01 5.711828e+01 4.926459e+01 5.465972e+01 4.955790e+01 3.041383e+01 3.042304e+01 3.185362e+01 2.087465e+01 4.056518e+00 6.280837e+00 5.887648e+00 7.227115e+00 6.810427e+00 5.845915e+00 6.139428e+00 5.668721e+00 4.844842e+00 3.327563e+00 3.350066e+00 2.918039e+00 2.282435e+00 9.566515e-01 7.840757e-01 7.311313e-01 9.616740e-01 1.173113e+00 1.218395e+00 1.142656e+00 9.636360e-01 9.091330e-01 6.210657e-01 6.792519e-01 5.938666e-01 4.538065e-01
<GCONST> 1.373566e+02
<STATE> 3
<MEAN> 39
 -7.540883e+00 -3.735843e+00 -2.961462e+00 2.683993e-01 6.781435e+00 -3.854337e+00 -3.748379e+00 7.858029e+00 -4.967077e+00 3.315999e+00 -1.086783e+00 2.347114e+00 2.292264e+00 7.643810e-01 -8.665628e-01 -8.668372e-01 -2.194710e+00 -2.792266e+00 -1.973286e+00 -1.938364e+00 -9.802672e-01 1.355644e+00 -3.259018e-01 6.007158e-01 -8.523595e-01 8.474305e-02 1.027965e+00 8.197731e-01 8.163841e-01 3.626179e-01 -1.018839e+00 3.084606e-01 7.085263e-01 -8.995129e-01 5.104266e-01 -2.744892e-01 1.830273e-01 -4.108345e-01 -3.026443e-01
<VARIANCE> 39
 3.340145e+01 4.359777e+01 5.894162e+01 5.476098e+01 4.079807e+01 5.996530e+01 5.363515e+01 4.483814e+01 3.884672e+01 3.080898e+01 2.624770e+01 3.006386e+01 2.259420e+01 6.483234e+00 5.846490e+00 7.073393e+00 5.859759e+00 7.026707e+00 5.381894e+00 5.408891e+00 7.085557e+00 6.215855e+00 3.461821e+00 3.350395e+00 3.803267e+00 2.460957e+00 7.939322e-01 8.223693e-01 9.290494e-01 1.282850e+00 1.402527e+00 1.165254e+00 1.267564e+00 1.248430e+00 1.019949e+00 6.936175e-01 6.617315e-01 7.354811e-01 5.377481e-01
<GCONST> 1.396696e+02
<STATE> 4
<MEAN> 39
 1.499225e+00 -2.367197e+00 -1.959143e+00 -2.215270e+00 -5.758916e+00 -6.462043e+00 -1.912238e+00 2.036297e+00 3.889618e+00 9.915251e-01 1.312655e+00 -3.795093e+00 5.630915e-01 1.186066e+00 -3.221231e-01 -6.511029e-02 -9.438911e-01 -1.550403e+00 9.708382e-01 1.108538e+00 -1.299426e+00 1.769022e+00 -6.859100e-01 3.493938e-01 -1.043600e+00 -6.785718e-01 -4.383229e-01 8.938650e-02 1.293945e-02 4.596850e-01 1.153501e+00 6.420128e-01 2.059294e-01 2.384451e-01 -6.821353e-01 4.723459e-02 -2.804288e-01 4.411076e-01 4.583344e-02
<VARIANCE> 39
 3.216340e+01 3.823652e+01 6.467656e+01 3.765944e+01 6.471517e+01 6.060064e+01 4.169901e+01 6.014169e+01 5.869392e+01 3.063270e+01 3.172912e+01 5.091303e+01 2.310695e+01 3.630440e+00 3.170007e+00 4.381313e+00 4.580311e+00 1.156752e+01 4.773940e+00 5.617195e+00 6.022708e+00 6.632582e+00 3.349012e+00 3.732660e+00 4.323982e+00 2.895114e+00 3.794195e-01 6.896281e-01 6.542199e-01 6.839439e-01 1.039506e+00 8.958710e-01 1.128765e+00 9.334508e-01 1.128259e+00 6.425081e-01 6.182018e-01 6.718361e-01 5.191663e-01
<GCONST> 1.366133e+02
<TRANSP> 5
 0.000000e+00 1.000000e+00 0.000000e+00 0.000000e+00 0.000000e+00
 0.000000e+00 7.741663e-01 2.258336e-01 0.000000e+00 0.000000e+00
 0.000000e+00 0.000000e+00 5.938928e-01 4.061073e-01 0.000000e+00
 0.000000e+00 0.000000e+00 0.000000e+00 6.461810e-01 3.538190e-01
 0.000000e+00 0.000000e+00 0.000000e+00 0.000000e+00 0.000000e+00
<ENDHMM>
~o
<STREAMINFO> 1 39
<VECSIZE> 39<NULLD><MFCC_D_A_Z><DIAGC>
~h "kh"
<BEGINHMM>
<NUMSTATES> 5
<STATE> 2
<MEAN> 39
 2.793113e+00 8.574778e+00 6.098435e+00 7.493322e+00 6.675074e+00 2.247421e+00 3.051827e+00 1.818099e+00 -8.076746e+00 2.974170e+00 -9.441292e-01 5.214460e-01 9.416253e-01 -2.361883e+00 -1.342283e+00 -7.310104e-01 2.796999e-01 2.045228e+00 -1.738366e-01 3.478623e-02 1.642799e+00 4.631138e-01 6.815622e-01 -3.324336e-01 9.533411e-01 -4.163312e-02 -7.006487e-01 -9.730076e-01 -7.955795e-01 -1.010611e+00 -6.100164e-01 -2.870125e-01 -5.068023e-01 8.073332e-02 7.582586e-01 -5.446108e-02 2.825216e-01 -2.931862e-02 -4.372425e-05
<VARIANCE> 39
 6.747565e+01 3.382772e+01 4.909666e+01 3.554748e+01 5.694687e+01 7.496764e+01 5.469593e+01 6.306137e+01 6.106538e+01 3.667880e+01 3.323938e+01 3.303505e+01 2.413852e+01 6.852890e+00 9.237213e+00 7.586353e+00 8.053740e+00 7.475461e+00 6.662894e+00 7.258852e+00 6.185514e+00 6.550548e+00 4.679006e+00 4.229919e+00 3.730736e+00 2.584126e+00 1.326728e+00 9.830710e-01 7.383041e-01 8.243783e-01 1.101206e+00 1.239616e+00 1.161765e+00 1.075037e+00 1.185146e+00 8.179723e-01 7.564473e-01 8.054576e-01 5.141287e-01
<GCONST> 1.434939e+02
<STATE> 3
<MEAN> 39
 -1.067424e+01 -4.027853e+00 -3.493326e+00 -2.264632e+00 7.131526e+00 -2.475654e+00 -2.725264e+00 7.731542e+00 -9.151089e-01 6.161456e+00 8.682832e-01 3.552011e+00 1.601422e+00 -2.699152e-01 -3.069287e-01 -6.990172e-01 -8.093256e-01 -8.740854e-01 -6.645168e-01 -1.421357e-01 3.961790e-01 1.323436e+00 -1.553028e-01 9.317200e-02 -4.539205e-01 2.112687e-01 1.357529e+00 9.997678e-01 7.897515e-01 6.466442e-01 -5.287815e-01 3.915642e-01 7.656921e-01 -6.089818e-01 -2.305941e-01 -6.336249e-01 -5.179754e-02 -5.379366e-01 -7.710876e-02
<VARIANCE> 39
 3.534557e+01 2.454119e+01 5.575053e+01 4.451104e+01 5.301431e+01 4.032499e+01 5.218422e+01 5.814175e+01 3.677082e+01 3.176022e+01 2.755134e+01 3.094001e+01 2.096075e+01 7.378126e+00 7.108994e+00 7.248297e+00 6.656551e+00 4.328614e+00 5.858289e+00 7.623818e+00 5.816181e+00 5.234684e+00 4.546368e+00 3.049124e+00 3.779952e+00 2.062179e+00 5.983089e-01 9.573463e-01 8.614284e-01 8.902268e-01 9.128934e-01 9.448392e-01 1.195248e+00 1.179476e+00 8.765117e-01 7.726426e-01 6.769928e-01 6.361288e-01 4.717219e-01
<GCONST> 1.373868e+02
<STATE> 4
<MEAN> 39
 1.041546e+00 -1.799368e-01 -2.720177e+00 2.370701e-01 1.915534e+00 -1.545224e+00 2.997157e+00 4.816287e+00 2.387603e+00 -6.609958e-01 3.802134e-01 -4.585577e+00 1.235723e+00 2.239234e+00 -5.798022e-01 -1.447982e-01 -7.608170e-01 -2.404624e+00 -1.267820e-01 6.482062e-01 -1.597290e+00 9.782711e-01 -1.559686e+00 4.118791e-01 -1.412900e+00 -8.436024e-01 -5.196883e-01 -6.199930e-01 -1.883307e-01 -3.143895e-01 4.232538e-02 -8.318507e-02 -6.007509e-01 -1.035577e-01 -3.893464e-02 3.089086e-01 7.753558e-02 4.397912e-01 -1.515673e-01
<VARIANCE> 39
 3.067197e+01 3.928728e+01 7.800465e+01 3.212869e+01 1.044202e+02 3.965855e+01 3.830159e+01 5.243447e+01 4.017572e+01 2.818552e+01 2.957246e+01 4.181846e+01 2.630313e+01 4.266994e+00 5.030532e+00 4.459255e+00 5.750051e+00 6.625196e+00 3.428404e+00 5.666134e+00 4.333258e+00 3.725938e+00 3.359087e+00 3.433432e+00 3.891088e+00 2.827342e+00 6.186165e-01 9.070638e-01 8.702133e-01 9.238915e-01 1.082059e+00 6.327552e-01 8.064858e-01 7.282924e-01 7.741496e-01 6.040623e-01 5.761083e-01 6.443852e-01 5.374272e-01
<GCONST> 1.346679e+02
