~o
<STREAMINFO> 1 39
<VECSIZE> 39<NULLD><MFCC_D_A_Z><DIAGC>
~h "a"
<BEGINHMM>
<NUMSTATES> 5
<STATE> 2
<MEAN> 39
 1.033463e+00 -1.277192e+00 -6.580020e-01 -1.347181e+00 -1.370526e+00 -5.215927e-01 -1.714815e+00 -9.283507e-01 8.748716e-01 -4.327851e-01 3.287840e-01 -1.131250e+00 -5.974229e-02 1.027477e-01 7.323144e-02 1.002414e-01 -5.718197e-02 -1.505437e-01 5.299276e-02 5.116367e-03 -7.475271e-02 -2.654176e-02 -4.860983e-02 5.858253e-02 -4.463201e-02 2.301253e-02 -4.542875e-02 7.318863e-02 3.673948e-02 4.825260e-02 6.313582e-02 5.789856e-02 8.557394e-02 1.074467e-02 -5.095911e-02 1.187057e-02 -2.520621e-02 2.494320e-02 3.836113e-03
<VARIANCE> 39
 6.195334e+01 6.427708e+01 7.250616e+01 7.831464e+01 7.666542e+01 9.957462e+01 6.696043e+01 9.340518e+01 7.726066e+01 4.287272e+01 5.299080e+01 4.378360e+01 3.620049e+01 4.041961e+00 4.192482e+00 3.931741e+00 5.399012e+00 5.856245e+00 5.987998e+00 4.819701e+00 6.601057e+00 5.777827e+00 3.732616e+00 4.332658e+00 3.572087e+00 3.083738e+00 6.288434e-01 6.314815e-01 5.837946e-01 8.496257e-01 1.000381e+00 1.019702e+00 8.381429e-01 1.128342e+00 9.791215e-01 6.861741e-01 7.584089e-01 6.561357e-01 5.651742e-01
<GCONST> 1.422487e+02
<STATE> 3
<MEAN> 39
 -3.760602e-01 8.464806e-01 4.492761e-01 6.951581e-01 4.499166e-01 6.489657e-01 1.256596e+00 4.946427e-01 -5.035852e-01 -1.100151e-04 -1.311839e-01 5.099449e-01 -2.305040e-02 -8.881050e-02 8.734102e-02 -1.215222e-02 1.139933e-01 1.732621e-01 7.544132e-02 1.245298e-01 6.563415e-02 -5.777638e-02 6.051394e-02 -7.500578e-02 2.843223e-02 4.537402e-03 -3.816151e-03 -4.701108e-02 -3.226120e-02 1.053694e-02 1.401470e-02 -6.987456e-02 -4.818621e-02 2.688181e-02 1.360592e-02 1.373311e-02 -7.642882e-03 5.203572e-03 8.886550e-06
<VARIANCE> 39
 7.533018e+01 5.518290e+01 6.956734e+01 6.761389e+01 7.806872e+01 8.416252e+01 4.849004e+01 8.318440e+01 5.228464e+01 3.416681e+01 4.343216e+01 3.463581e+01 2.707419e+01 2.344246e+00 2.357320e+00 2.089509e+00 2.717395e+00 3.230434e+00 3.293442e+00 2.743697e+00 3.579108e+00 2.930176e+00 2.252230e+00 2.453845e+00 2.091558e+00 1.801134e+00 4.609738e-01 4.095190e-01 3.774311e-01 5.247471e-01 6.234293e-01 5.892778e-01 5.140758e-01 6.739303e-01 5.502173e-01 4.368037e-01 4.727719e-01 3.988710e-01 3.374871e-01
<GCONST> 1.263393e+02
<STATE> 4
<MEAN> 39
 -5.605807e-01 1.756293e-01 2.241571e-01 -5.123827e-03 6.342959e-02 -8.057944e-01 -3.144014e-01 -2.206588e-01 -2.886281e-01 3.995997e-03 -2.028910e-01 -8.691121e-02 5.393552e-02 -7.575789e-03 -1.848255e-01 -1.140232e-01 -1.214358e-01 -8.287094e-02 -1.676541e-01 -1.913195e-01 -7.193332e-03 6.700927e-02 -1.961721e-02 2.887679e-02 1.324947e-02 -2.838939e-02 5.685879e-02 -9.037914e-03 1.459578e-03 -5.104066e-02 -8.917671e-02 3.372611e-02 -1.507647e-02 -5.147524e-02 3.708674e-02 -2.698753e-02 4.007655e-02 -3.210197e-02 -9.637591e-03
<VARIANCE> 39
 8.330602e+01 6.371011e+01 7.545470e+01 7.193960e+01 7.603203e+01 9.310139e+01 6.067390e+01 8.718251e+01 6.617326e+01 3.993154e+01 4.712223e+01 3.908503e+01 3.086756e+01 6.025045e+00 4.624939e+00 4.420928e+00 5.483711e+00 5.899332e+00 6.053082e+00 4.742830e+00 6.338292e+00 5.019083e+00 3.509228e+00 3.905821e+00 3.384928e+00 2.705592e+00 8.885707e-01 7.357077e-01 6.412584e-01 8.466129e-01 1.001588e+00 1.004257e+00 8.135289e-01 1.084806e+00 8.719832e-01 6.470703e-01 7.067634e-01 6.091180e-01 4.849105e-01
<GCONST> 1.417655e+02
<TRANSP> 5
 0.000000e+00 1.000000e+00 0.000000e+00 0.000000e+00 0.000000e+00
 0.000000e+00 3.730029e-01 6.269971e-01 0.000000e+00 0.000000e+00
 0.000000e+00 0.000000e+00 4.623718e-01 5.376282e-01 0.000000e+00
 0.000000e+00 0.000000e+00 0.000000e+00 3.060541e-01 6.939458e-01
 0.000000e+00 0.000000e+00 0.000000e+00 0.000000e+00 0.000000e+00
<ENDHMM>
~o
<STREAMINFO> 1 39
<VECSIZE> 39<NULLD><MFCC_D_A_Z><DIAGC>
~h "aa"
<BEGINHMM>
<NUMSTATES> 5
<STATE> 2
<MEAN> 39
 -1.285970e+00 1.122659e+00 3.121918e-01 1.735021e+00 1.640338e+00 1.125439e+00 2.279850e+00 1.498829e+00 -6.853312e-01 3.602881e-01 -3.627347e-01 1.222462e+00 -5.283974e-02 -3.796576e-02 1.342296e-02 -6.653212e-02 7.852320e-02 1.066246e-01 7.891837e-02 7.003470e-02 6.426146e-02 -2.376970e-02 5.851142e-02 -4.659237e-02 -4.604513e-03 9.526393e-03 9.941454e-03 -3.682475e-02 -1.876968e-02 -1.992517e-02 -1.304693e-02 -3.001609e-02 -4.216331e-02 2.318758e-03 1.090545e-02 -4.809354e-03 -7.888767e-03 -1.580762e-02 9.450387e-03
<VARIANCE> 39
 7.356547e+01 4.679722e+01 6.257969e+01 5.835926e+01 7.339997e+01 7.751364e+01 4.341816e+01 7.410736e+01 4.574020e+01 3.187974e+01 4.070694e+01 3.013087e+01 2.339557e+01 2.229036e+00 2.016816e+00 1.931993e+00 2.458041e+00 2.893490e+00 2.887491e+00 2.516395e+00 3.230419e+00 2.631565e+00 2.045209e+00 2.221710e+00 1.847674e+00 1.591664e+00 3.857831e-01 3.369510e-01 3.247318e-01 4.378112e-01 5.222083e-01 5.203782e-01 4.567639e-01 5.765596e-01 4.783468e-01 3.922622e-01 4.162413e-01 3.525952e-01 2.969345e-01
<GCONST> 1.217012e+02
<STATE> 3
<MEAN> 39
 2.700917e+00 -2.247937e+00 -2.998723e+00 -3.560420e+00 -1.175302e+00 1.967636e+00 -2.547753e+00 -2.126480e+00 1.780063e+00 -6.153533e-02 1.129426e-01 -2.544831e+00 2.780132e-01 1.070249e-01 9.557711e-04 2.701601e-02 1.918948e-03 -6.213183e-03 -6.039017e-02 -1.132457e-01 3.697066e-02 3.652794e-02 2.758169e-03 -4.246521e-02 -5.670540e-02 7.191994e-02 -7.319631e-02 1.029146e-01 1.286610e-01 1.023809e-01 4.512274e-02 -8.204867e-02 7.641432e-02 3.692973e-02 -8.219869e-02 -2.623102e-02 4.200712e-04 8.546596e-02 -1.503584e-02
<VARIANCE> 39
 4.576269e+01 6.620246e+01 5.564089e+01 8.494507e+01 6.853122e+01 8.912636e+01 7.071764e+01 1.019684e+02 9.119449e+01 4.724739e+01 5.583754e+01 4.567207e+01 4.437549e+01 3.138097e+00 4.097985e+00 3.792687e+00 6.448372e+00 5.646958e+00 6.455117e+00 5.016155e+00 6.986011e+00 6.603281e+00 3.959825e+00 4.464476e+00 3.953219e+00 3.549227e+00 5.527539e-01 6.233460e-01 5.772442e-01 9.913212e-01 1.006936e+00 1.049858e+00 9.065003e-01 1.258307e+00 1.124558e+00 7.491748e-01 8.236706e-01 7.206891e-01 6.527520e-01
<GCONST> 1.435088e+02
<STATE> 4
<MEAN> 39
 -1.814636e+00 1.247848e+00 3.076404e+00 1.484923e+00 -9.898374e-01 -3.789284e+00 -1.664189e-01 1.409222e-02 -1.379417e+00 -7.619372e-01 5.086098e-01 7.432226e-01 -2.310327e-01 -1.086046e-01 -2.942647e-02 7.850308e-02 -9.311321e-02 -1.239503e-01 -4.913097e-02 3.801696e-02 -1.136458e-01 -4.145982e-02 -7.441272e-02 9.886004e-02 6.596541e-02 -9.739800e-02 7.073491e-02 -7.632082e-02 -1.220737e-01 -9.365691e-02 -5.315070e-02 1.271174e-01 -4.781139e-02 -5.357569e-02 8.906034e-02 2.929999e-02 1.181277e-02 -8.235708e-02 6.874519e-03
<VARIANCE> 39
 9.531731e+01 6.253326e+01 8.139386e+01 5.639632e+01 8.380055e+01 9.658601e+01 5.606513e+01 7.840971e+01 5.469490e+01 3.884978e+01 4.860422e+01 3.298732e+01 2.574889e+01 7.462548e+00 4.969837e+00 4.622405e+00 4.352635e+00 6.438047e+00 5.773683e+00 4.729955e+00 6.211904e+00 4.386335e+00 3.414945e+00 3.990643e+00 3.082559e+00 2.334875e+00 1.073330e+00 8.099422e-01 6.574386e-01 7.378545e-01 1.088581e+00 1.022390e+00 7.871546e-01 1.021408e+00 7.627136e-01 6.143057e-01 7.214265e-01 5.535468e-01 4.234415e-01
<GCONST> 1.406441e+02
<TRANSP> 5
 0.000000e+00 1.000000e+00 0.000000e+00 0.000000e+00 0.000000e+00
 0.000000e+00 6.605731e-01 3.394269e-01 0.000000e+00 0.000000e+00
 0.000000e+00 0.000000e+00 6.501327e-01 3.498673e-01 0.000000e+00
 0.000000e+00 0.000000e+00 0.000000e+00 5.901805e-01 4.098196e-01
 0.000000e+00 0.000000e+00 0.000000e+00 0.000000e+00 0.000000e+00
<ENDHMM>
~o
<STREAMINFO> 1 39
<VECSIZE> 39<NULLD><MFCC_D_A_Z><DIAGC>
~h "b"
<BEGINHMM>
<NUMSTATES> 5
<STATE> 2
<MEAN> 39
 -1.144445e+00 1.425140e+00 5.490667e-01 2.291323e+00 1.717199e+00 1.108552e+00 2.375634e+00 1.751295e+00 -1.027221e+00 5.718474e-01 -2.179947e-01 1.528993e+00 -1.001655e-01 -4.106193e-02 8.304808e-02 -4.108613e-02 1.412305e-01 1.609032e-01 8.898101e-02 1.179038e-01 7.993114e-02 -3.420622e-02 6.390303e-02 -6.611606e-02 1.300127e-02 5.605073e-03 -1.230371e-02 -3.232333e-02 -1.989645e-02 -1.170022e-02 -7.130989e-04 -2.517303e-02 -2.504107e-02 5.804395e-03 1.883729e-02 -7.412987e-03 -1.256425e-02 -6.381973e-03 5.857273e-03
<VARIANCE> 39
 7.177655e+01 4.253561e+01 6.265783e+01 5.247076e+01 7.265899e+01 7.534612e+01 3.963803e+01 7.104375e+01 4.060415e+01 2.959560e+01 3.966065e+01 2.755601e+01 2.147329e+01 1.896437e+00 1.796334e+00 1.725985e+00 2.107287e+00 2.683003e+00 2.572251e+00 2.213185e+00 2.990232e+00 2.364288e+00 1.836561e+00 2.058427e+00 1.651111e+00 1.427047e+00 3.507392e-01 3.007787e-01 2.922917e-01 3.822813e-01 4.757114e-01 4.678827e-01 4.065036e-01 5.130267e-01 4.333849e-01 3.519256e-01 3.857679e-01 3.163235e-01 2.694076e-01
<GCONST> 1.180844e+02
<STATE> 3
<MEAN> 39
 -2.000778e+00 1.595863e+00 1.081219e+00 1.517857e+00 1.271150e+00 -2.199124e+00 -3.945746e-02 9.391441e-02 -1.494798e+00 5.081143e-01 -6.378220e-01 1.006942e+00 8.983503e-02 -3.591393e-02 -2.466988e-01 -7.065637e-02 -3.633267e-01 -2.934276e-01 -2.180464e-01 -1.934170e-01 -1.672643e-01 1.131618e-01 -1.941975e-01 7.086362e-02 5.347963e-02 -7.573613e-02 1.211004e-01 -8.196535e-02 -5.795369e-02 -1.840789e-01 -2.172083e-01 1.174242e-01 -5.138417e-02 -9.355223e-02 1.295383e-01 -4.313845e-02 1.040820e-01 -1.108308e-01 -2.597523e-02
<VARIANCE> 39
 1.070966e+02 6.277709e+01 8.320666e+01 6.185633e+01 7.088654e+01 8.792802e+01 5.657090e+01 7.413177e+01 5.720699e+01 3.778869e+01 3.969562e+01 3.408723e+01 2.535982e+01 8.887136e+00 5.896257e+00 5.775537e+00 5.867759e+00 7.241006e+00 6.476501e+00 5.092620e+00 6.973873e+00 5.129327e+00 3.773228e+00 4.189145e+00 3.546102e+00 2.516368e+00 1.285403e+00 9.426054e-01 8.534471e-01 9.092469e-01 1.164161e+00 1.148654e+00 8.694379e-01 1.133546e+00 8.994852e-01 6.845430e-01 7.329333e-01 6.212773e-01 4.520064e-01
<GCONST> 1.438704e+02
<STATE> 4
<MEAN> 39
 2.754745e+00 -2.347489e+00 -1.687153e+00 -3.500549e+00 -2.757265e+00 6.817835e-01 -2.721128e+00 -2.318670e+00 1.982113e+00 -1.085109e+00 8.591407e-01 -2.582709e+00 1.816930e-03 4.302117e-02 1.163314e-01 1.089580e-01 1.216323e-01 2.296306e-02 5.660368e-02 1.719823e-02 8.261725e-02 -1.165788e-02 4.735681e-02 -2.718457e-04 -7.445692e-02 5.309966e-02 -9.297386e-02 8.028891e-02 6.399757e-02 1.417592e-01 1.614049e-01 -5.918942e-02 5.698689e-02 6.272785e-02 -1.181268e-01 4.352269e-02 -6.666794e-02 8.824227e-02 8.463155e-03
<VARIANCE> 39
 3.666780e+01 6.464863e+01 6.653257e+01 8.044247e+01 7.300522e+01 1.092153e+02 6.798495e+01 1.033710e+02 8.774834e+01 4.773159e+01 5.835130e+01 4.458850e+01 4.269635e+01 2.206412e+00 3.398069e+00 3.150268e+00 5.323629e+00 5.163888e+00 5.886098e+00 4.739316e+00 6.311705e+00 6.074701e+00 3.732394e+00 4.213838e+00 3.677651e+00 3.256946e+00 4.063079e-01 5.328885e-01 4.884567e-01 8.571618e-01 9.227844e-01 9.628477e-01 8.402076e-01 1.169947e+00 1.041365e+00 7.097545e-01 7.892896e-01 6.766317e-01 5.983906e-01
<GCONST> 1.405432e+02
<TRANSP> 5
 0.000000e+00 1.000000e+00 0.000000e+00 0.000000e+00 0.000000e+00
 0.000000e+00 7.267570e-01 2.732430e-01 0.000000e+00 0.000000e+00
 0.000000e+00 0.000000e+00 6.476748e-01 3.523252e-01 0.000000e+00
 0.000000e+00 0.000000e+00 0.000000e+00 7.345358e-01 2.654643e-01
 0.000000e+00 0.000000e+00 0.000000e+00 0.000000e+00 0.000000e+00
<ENDHMM>
~o
<STREAMINFO> 1 39
<VECSIZE> 39<NULLD><MFCC_D_A_Z><DIAGC>
~h "bh"
<BEGINHMM>
<NUMSTATES> 5
<STATE> 2
<MEAN> 39
 -2.888403e+00 1.505648e+00 -1.146063e+00 3.300280e+00 4.020896e+00 2.557938e+00 3.322006e+00 3.569225e+00 -7.324104e-01 1.269076e+00 -1.059923e+00 2.151631e+00 1.074926e-01 -1.635927e-01 2.666553e-02 -3.089332e-02 7.970873e-02 5.144450e-02 3.573028e-02 2.730879e-02 3.482546e-02 -3.575849e-02 2.305920e-02 -1.912392e-02 1.609646e-02 4.582411e-03 1.473664e-02 -3.051519e-02 1.885451e-02 -1.702547e-02 -3.439435e-02 -4.723823e-02 -2.449918e-02 -2.267801e-02 1.309659e-02 -2.563579e-02 -1.351937e-03 -1.646749e-02 -6.811169e-04
<VARIANCE> 39
 9.581508e+01 3.610890e+01 4.129755e+01 4.338288e+01 4.813951e+01 4.857112e+01 3.318126e+01 4.949867e+01 3.530685e+01 2.405808e+01 2.777273e+01 2.568821e+01 1.723873e+01 2.097917e+00 1.529357e+00 1.525582e+00 1.939306e+00 2.290804e+00 2.297374e+00 2.050095e+00 2.465860e+00 2.187725e+00 1.757780e+00 1.809583e+00 1.550091e+00 1.359777e+00 3.589395e-01 2.760068e-01 2.562031e-01 3.512563e-01 4.029733e-01 4.076907e-01 3.843592e-01 4.244865e-01 4.027780e-01 3.277175e-01 3.276858e-01 3.161517e-01 2.564701e-01
<GCONST> 1.128650e+02
<STATE> 3
<MEAN> 39
 -2.402786e+00 1.769560e+00 4.956216e+00 2.688109e+00 -2.715115e+00 -5.590960e+00 -4.561179e-01 -6.309518e-01 -1.842830e+00 -1.232052e+00 1.328535e+00 7.417853e-01 -7.758250e-01 8.437463e-02 -1.275470e-01 5.236737e-02 -1.356500e-01 -1.026750e-01 -1.210506e-01 -7.829279e-02 -8.510379e-02 3.993497e-02 -7.767327e-02 1.311087e-02 4.461393e-03 -3.520981e-02 8.599599e-02 -6.399802e-02 -1.287984e-01 -1.402233e-01 -2.407027e-02 1.501902e-01 -1.269956e-02 -5.076679e-02 7.882134e-02 2.392236e-02 -3.742068e-03 -5.508102e-02 5.618659e-03
<VARIANCE> 39
 9.258836e+01 5.758132e+01 8.614162e+01 4.687990e+01 8.780519e+01 8.754418e+01 5.640417e+01 7.988315e+01 4.675436e+01 3.959769e+01 4.960420e+01 3.035600e+01 2.402401e+01 7.501065e+00 4.915043e+00 4.901371e+00 4.325366e+00 6.356617e+00 6.208251e+00 4.944385e+00 6.128411e+00 4.099539e+00 3.399428e+00 3.871633e+00 3.139356e+00 2.237265e+00 1.104341e+00 7.808082e-01 6.578812e-01 6.914554e-01 1.086926e+00 1.075160e+00 8.603091e-01 1.013715e+00 7.176477e-01 6.255524e-01 7.121384e-01 5.525998e-01 4.120713e-01
<GCONST> 1.400907e+02
<STATE> 4
<MEAN> 39
 3.068654e+00 -2.615136e+00 -3.851654e+00 -5.312696e+00 -7.443509e-01 3.441224e+00 -2.206494e+00 -2.976847e+00 1.982614e+00 -3.343818e-01 -3.428519e-01 -2.593146e+00 1.167379e-01 3.648085e-03 1.794331e-03 4.400999e-02 3.260743e-02 2.313198e-02 4.405865e-02 3.729894e-02 -1.771988e-02 6.072912e-02 2.672928e-02 -2.532977e-02 -3.665044e-02 2.012610e-02 -8.394592e-02 7.809546e-02 1.013848e-01 1.468008e-01 4.187200e-02 -1.268802e-01 3.651867e-02 6.943798e-02 -7.145672e-02 -3.251407e-03 1.398443e-03 5.935755e-02 -6.851442e-03
<VARIANCE> 39
 3.520237e+01 6.832761e+01 5.079905e+01 8.067432e+01 7.007467e+01 8.754930e+01 6.640465e+01 1.002376e+02 8.951585e+01 4.655931e+01 5.512317e+01 4.630024e+01 4.649419e+01 2.540497e+00 3.768841e+00 3.378641e+00 6.142056e+00 5.151905e+00 6.040815e+00 4.683160e+00 6.578317e+00 6.389619e+00 3.948696e+00 4.307739e+00 3.861909e+00 3.615785e+00 4.607333e-01 6.038161e-01 5.524225e-01 9.602230e-01 9.251621e-01 9.547679e-01 8.287593e-01 1.194444e+00 1.094989e+00 7.454344e-01 7.965222e-01 7.238962e-01 6.460534e-01
<GCONST> 1.415694e+02
<TRANSP> 5
 0.000000e+00 1.000000e+00 0.000000e+00 0.000000e+00 0.000000e+00
 0.000000e+00 7.693494e-01 2.306506e-01 0.000000e+00 0.000000e+00
 0.000000e+00 0.000000e+00 8.158569e-01 1.841431e-01 0.000000e+00
 0.000000e+00 0.000000e+00 0.000000e+00 8.288167e-01 1.711834e-01
 0.000000e+00 0.000000e+00 0.000000e+00 0.000000e+00 0.000000e+00
<ENDHMM>
~o
<STREAMINFO> 1 39
<VECSIZE> 39<NULLD><MFCC_D_A_Z><DIAGC>
~h "c"
<BEGINHMM>
<NUMSTATES> 5
<STATE> 2
<MEAN> 39
 -1.871829e+00 1.521348e+00 -6.101385e-01 2.419759e+00 3.178186e+00 2.162847e+00 3.189611e+00 2.587132e+00 -4.569121e-01 7.011998e-01 -1.202534e+00 1.519663e+00 2.855928e-01 -1.386069e-01 4.847082e-02 5.784749e-03 1.654411e-01 1.425312e-01 4.159818e-02 8.774022e-02 8.766778e-02 -2.256396e-02 1.966744e-02 -3.216413e-02 5.981040e-02 -7.013143e-03 6.258452e-03 -3.965677e-02 8.174844e-03 -2.024694e-02 -3.144150e-02 -2.862971e-02 -4.013652e-02 -2.787685e-02 -5.891596e-03 -1.216837e-02 1.637900e-02 1.509881e-03 2.367426e-03
<VARIANCE> 39
 7.699273e+01 4.676603e+01 5.154087e+01 5.282174e+01 5.978365e+01 6.321126e+01 3.805882e+01 6.638475e+01 4.049943e+01 2.876416e+01 3.789017e+01 2.768686e+01 2.170426e+01 2.089343e+00 1.753984e+00 1.736142e+00 2.118171e+00 2.474244e+00 2.478967e+00 2.231232e+00 2.764369e+00 2.301974e+00 1.939162e+00 2.000669e+00 1.717720e+00 1.444682e+00 3.426810e-01 3.070352e-01 2.947040e-01 3.877169e-01 4.359923e-01 4.352228e-01 4.116689e-01 4.957213e-01 4.108736e-01 3.625315e-01 3.702175e-01 3.234651e-01 2.771320e-01
<GCONST> 1.172913e+02
<STATE> 3
<MEAN> 39
 -2.440021e+00 1.191337e+00 4.419873e+00 2.580921e+00 -1.765640e+00 -5.759405e+00 -4.694507e-01 1.391978e-01 -1.676269e+00 -1.024359e+00 1.030428e+00 1.078454e+00 -5.394631e-01 5.683985e-02 -1.501672e-01 -1.341444e-02 -2.173743e-01 -1.259890e-01 -9.955374e-02 -1.610779e-01 -9.513906e-02 3.949414e-02 -7.601981e-02 6.411637e-02 1.338400e-02 -6.281586e-02 1.150630e-01 -3.872152e-02 -1.480088e-01 -1.482729e-01 -5.271188e-02 1.724100e-01 -3.582065e-02 -5.990667e-02 1.062682e-01 2.693731e-02 -1.277122e-03 -8.765768e-02 -1.474567e-03
<VARIANCE> 39
 9.355118e+01 5.664370e+01 7.938519e+01 4.606982e+01 8.945329e+01 8.713770e+01 5.567762e+01 7.454231e+01 4.919269e+01 4.010961e+01 4.955196e+01 3.043152e+01 2.316225e+01 7.967600e+00 5.091479e+00 4.987243e+00 4.646494e+00 6.811183e+00 5.858740e+00 4.944911e+00 6.397336e+00 4.437155e+00 3.489207e+00 3.894699e+00 3.010711e+00 2.231350e+00 1.204442e+00 7.935820e-01 6.687952e-01 7.544152e-01 1.169433e+00 1.049105e+00 8.454331e-01 1.032328e+00 7.825292e-01 6.187177e-01 7.181511e-01 5.472141e-01 4.104804e-01
<GCONST> 1.405777e+02
<STATE> 4
<MEAN> 39
 3.287009e+00 -2.215739e+00 -3.444413e+00 -4.451573e+00 -1.451506e+00 2.262006e+00 -2.411952e+00 -2.864019e+00 2.148943e+00 -2.730749e-01 -8.416886e-02 -2.783194e+00 2.703553e-01 4.717921e-02 1.103319e-01 7.347893e-02 1.761992e-02 -3.045410e-02 1.173244e-01 2.625221e-02 -1.802196e-02 -8.263810e-03 4.325488e-02 2.481278e-02 -6.721880e-02 3.212821e-02 -9.840408e-02 6.843712e-02 1.164893e-01 1.376765e-01 7.357197e-02 -1.060928e-01 7.779816e-02 6.359093e-02 -8.885874e-02 -6.602743e-03 -9.579375e-03 7.756370e-02 -2.608922e-03
<VARIANCE> 39
 3.581062e+01 6.842037e+01 5.501121e+01 7.819655e+01 6.651250e+01 8.925820e+01 6.962893e+01 1.034587e+02 9.143330e+01 4.655344e+01 5.835679e+01 4.656480e+01 4.522663e+01 2.488937e+00 3.861543e+00 3.478364e+00 6.130095e+00 5.308406e+00 6.129215e+00 5.073413e+00 6.960847e+00 6.627831e+00 3.643299e+00 4.609694e+00 3.962953e+00 3.559994e+00 4.450485e-01 6.111539e-01 5.596911e-01 9.601066e-01 9.286245e-01 9.726629e-01 9.181694e-01 1.263007e+00 1.115920e+00 6.925007e-01 8.474993e-01 7.234461e-01 6.366192e-01
<GCONST> 1.421477e+02
<TRANSP> 5
 0.000000e+00 1.000000e+00 0.000000e+00 0.000000e+00 0.000000e+00
 0.000000e+00 7.651086e-01 2.348914e-01 0.000000e+00 0.000000e+00
 0.000000e+00 0.000000e+00 7.779395e-01 2.220605e-01 0.000000e+00
 0.000000e+00 0.000000e+00 0.000000e+00 7.988064e-01 2.011936e-01
 0.000000e+00 0.000000e+00 0.000000e+00 0.000000e+00 0.000000e+00
<ENDHMM>
~o
<STREAMINFO> 1 39
<VECSIZE> 39<NULLD><MFCC_D_A_Z><DIAGC>
~h "ch"
<BEGINHMM>
<NUMSTATES> 5
<STATE> 2
<MEAN> 39
 1.959661e+00 -1.865490e+00 -1.146367e+00 -2.421010e+00 -1.627278e+00 5.108704e-02 -2.706815e+00 -1.498314e+00 1.888258e+00 -4.548970e-01 9.632372e-01 -1.889574e+00 -4.839024e-02 -6.835461e-02 1.771247e-01 1.402237e-01 1.617643e-01 -2.044566e-02 -6.086512e-02 1.059908e-01 3.646653e-02 -5.374666e-02 -4.979605e-03 2.931010e-02 5.965433e-02 -3.154653e-02 -5.282791e-02 6.454303e-02 2.674955e-02 5.735464e-02 5.005804e-02 2.579256e-02 7.206749e-02 1.537531e-02 -4.727455e-02 2.379201e-02 -3.659850e-02 2.331692e-02 -6.779660e-03
<VARIANCE> 39
 4.796731e+01 6.190426e+01 7.270782e+01 8.162424e+01 7.288839e+01 1.042476e+02 7.133437e+01 9.553322e+01 8.628680e+01 4.447070e+01 5.774928e+01 4.507569e+01 4.025160e+01 3.679992e+00 4.092259e+00 4.180864e+00 6.029993e+00 5.956416e+00 6.286814e+00 5.433329e+00 7.000777e+00 6.290485e+00 3.862376e+00 4.569706e+00 3.764508e+00 3.272342e+00 5.129039e-01 6.410686e-01 6.076817e-01 9.637901e-01 1.012405e+00 1.062601e+00 9.400625e-01 1.187580e+00 1.070628e+00 7.053848e-01 8.179510e-01 6.874567e-01 5.908349e-01
<GCONST> 1.435114e+02
<STATE> 3
<MEAN> 39
 -2.988099e+00 2.186360e+00 9.277576e-01 3.718474e+00 2.325181e+00 1.050788e+00 3.201335e+00 2.806157e+00 -1.197250e+00 9.229301e-01 -8.979362e-02 2.185330e+00 -3.229820e-01 -1.295976e-01 1.224911e-01 -5.276687e-03 1.591899e-01 1.476460e-01 1.313593e-01 1.491247e-01 3.221371e-02 -2.481994e-02 4.842854e-02 -7.229891e-02 3.517020e-02 1.250451e-02 2.008302e-02 -6.970077e-02 -1.098046e-02 -3.288076e-02 -3.229474e-03 -5.072041e-02 -3.752063e-02 7.897364e-03 2.179268e-02 -8.952100e-03 1.582977e-04 -1.091152e-02 2.593172e-02
<VARIANCE> 39
 8.384290e+01 3.422884e+01 6.354506e+01 3.635334e+01 6.857054e+01 5.880531e+01 3.053586e+01 6.240942e+01 2.875525e+01 2.505391e+01 3.386754e+01 2.289407e+01 1.587464e+01 1.060376e+00 1.140962e+00 9.914998e-01 1.200904e+00 1.514848e+00 1.641347e+00 1.598719e+00 1.853247e+00 1.672229e+00 1.452488e+00 1.470683e+00 1.264032e+00 1.081565e+00 2.757045e-01 2.006352e-01 2.129928e-01 2.610419e-01 3.171557e-01 3.225128e-01 2.972725e-01 3.754262e-01 3.049144e-01 2.831908e-01 2.863534e-01 2.468597e-01 2.139053e-01
<GCONST> 1.062867e+02
<STATE> 4
<MEAN> 39
 -5.866328e-01 5.299402e-01 1.092366e+00 8.474715e-02 -6.340345e-01 -1.303198e+00 -4.084536e-01 -5.287132e-01 -3.852755e-01 -1.385299e-01 1.494785e-01 2.315472e-02 4.518442e-02 1.755318e-01 -2.898344e-01 -1.073907e-01 -2.812743e-01 -1.643051e-01 -4.552398e-02 -2.702967e-01 -1.281190e-01 1.647650e-01 -6.615128e-02 3.080910e-02 -7.419891e-02 3.536199e-03 2.967626e-02 -7.422921e-03 -1.921364e-02 -3.529847e-02 -5.154333e-02 5.913256e-04 -3.711559e-02 -2.159158e-02 2.289750e-02 -7.425721e-03 2.267869e-02 -9.311830e-03 -4.950908e-03
<VARIANCE> 39
 8.605822e+01 6.696049e+01 8.193038e+01 7.278660e+01 7.529197e+01 9.523729e+01 6.116324e+01 8.144861e+01 6.782661e+01 4.178227e+01 5.005077e+01 3.796592e+01 3.139754e+01 6.906848e+00 4.892341e+00 4.604985e+00 5.374288e+00 6.615412e+00 6.510585e+00 4.792058e+00 6.686069e+00 5.270175e+00 3.730221e+00 4.272437e+00 3.516916e+00 2.737307e+00 1.062541e+00 8.171924e-01 6.980582e-01 9.035690e-01 1.150023e+00 1.119635e+00 8.675790e-01 1.135785e+00 9.371247e-01 6.881100e-01 7.762743e-01 6.326203e-01 5.039096e-01
<GCONST> 1.438217e+02
<TRANSP> 5
 0.000000e+00 1.000000e+00 0.000000e+00 0.000000e+00 0.000000e+00
 0.000000e+00 8.393656e-01 1.606344e-01 0.000000e+00 0.000000e+00
 0.000000e+00 0.000000e+00 7.873226e-01 2.126774e-01 0.000000e+00
 0.000000e+00 0.000000e+00 0.000000e+00 8.152765e-01 1.847236e-01
 0.000000e+00 0.000000e+00 0.000000e+00 0.000000e+00 0.000000e+00
<ENDHMM>
~o
<STREAMINFO> 1 39
<VECSIZE> 39<NULLD><MFCC_D_A_Z><DIAGC>
~h "d"
<BEGINHMM>
<NUMSTATES> 5
<STATE> 2
<MEAN> 39
 2.941277e+00 -2.780712e+00 -3.172771e+00 -3.954090e+00 -1.397440e+00 1.948614e+00 -2.473361e+00 -2.420268e+00 2.085960e+00 -2.471298e-01 5.035341e-02 -2.815235e+00 1.886814e-01 1.009398e-01 7.358139e-02 5.906103e-02 1.344290e-01 -4.179922e-03 -8.703369e-02 -1.021557e-01 3.153249e-02 1.302249e-02 5.024821e-02 -8.793696e-03 -7.736691e-02 7.655329e-02 -7.519992e-02 1.135394e-01 1.201037e-01 1.165359e-01 6.019131e-02 -7.918097e-02 8.260557e-02 4.692916e-02 -9.475566e-02 -2.081834e-02 -1.788964e-02 9.597506e-02 -4.419398e-03
<VARIANCE> 39
 4.106385e+01 6.394568e+01 5.541769e+01 8.137627e+01 6.950565e+01 8.916047e+01 7.105079e+01 1.061279e+02 8.975999e+01 4.726545e+01 5.510033e+01 4.476618e+01 4.583232e+01 2.779743e+00 3.910635e+00 3.543069e+00 6.194299e+00 5.426172e+00 6.327591e+00 5.026832e+00 7.180483e+00 6.679875e+00 3.800153e+00 4.377953e+00 3.872965e+00 3.628899e+00 4.895871e-01 5.807555e-01 5.462124e-01 9.539322e-01 9.653208e-01 1.011971e+00 9.102482e-01 1.267810e+00 1.139629e+00 7.240093e-01 8.058878e-01 7.252456e-01 6.586305e-01
<GCONST> 1.426269e+02
<STATE> 3
<MEAN> 39
 -2.329741e+00 1.637121e+00 2.630631e+00 2.076024e+00 -2.315198e-01 -3.486715e+00 3.213138e-02 2.474280e-01 -1.528973e+00 -3.795511e-01 9.491083e-02 1.067986e+00 -6.658264e-02 -1.234175e-01 -5.073492e-02 7.724480e-02 -1.964837e-01 -1.804450e-01 -1.011549e-01 4.336792e-02 -1.337380e-01 -1.064230e-02 -1.022232e-01 1.016271e-01 6.128720e-02 -7.606134e-02 7.958834e-02 -1.004519e-01 -1.252926e-01 -1.435316e-01 -7.861955e-02 1.312649e-01 -5.038219e-02 -5.951207e-02 9.603899e-02 1.238391e-02 3.555904e-02 -9.285156e-02 -5.703396e-03
<VARIANCE> 39
 1.093647e+02 5.792010e+01 8.168982e+01 5.307281e+01 7.840312e+01 9.082649e+01 5.585371e+01 7.618348e+01 5.317072e+01 3.687547e+01 4.309565e+01 3.226041e+01 2.516115e+01 8.257904e+00 4.949291e+00 4.898078e+00 4.460483e+00 6.630187e+00 6.019949e+00 4.950839e+00 6.329521e+00 4.500860e+00 3.436408e+00 3.770051e+00 3.277270e+00 2.346528e+00 1.210922e+00 8.111994e-01 7.113503e-01 7.367106e-01 1.119133e+00 1.086852e+00 8.080490e-01 1.070512e+00 7.739103e-01 6.121565e-01 6.724526e-01 5.954107e-01 4.258567e-01
<GCONST> 1.409784e+02
<STATE> 4
<MEAN> 39
 -1.533932e+00 1.017150e+00 3.639429e-01 1.956201e+00 1.537897e+00 1.070677e+00 2.580000e+00 1.669567e+00 -7.016853e-01 4.102781e-01 -3.248159e-01 1.400124e+00 -1.023555e-01 -6.396019e-02 2.007218e-02 -5.022806e-02 4.708297e-02 9.601399e-02 8.264951e-02 6.539598e-02 7.766613e-02 1.078754e-02 5.353083e-02 -5.923718e-02 -1.539945e-02 -1.186124e-02 1.910977e-02 -1.089939e-02 -1.305796e-02 6.929309e-03 9.478003e-03 -2.757761e-02 -3.261643e-02 9.811514e-03 5.427252e-03 6.935912e-03 -1.499178e-02 -7.632738e-03 1.113028e-02
<VARIANCE> 39
 6.876442e+01 4.567136e+01 6.099237e+01 5.559026e+01 7.533094e+01 7.576810e+01 4.124680e+01 7.126221e+01 4.084087e+01 3.044313e+01 4.125925e+01 2.819761e+01 2.276638e+01 1.931566e+00 1.785407e+00 1.735099e+00 2.166838e+00 2.612925e+00 2.628663e+00 2.289376e+00 2.967073e+00 2.327636e+00 1.859119e+00 2.031532e+00 1.694811e+00 1.477532e+00 3.505710e-01 3.009306e-01 2.876102e-01 3.954117e-01 4.812006e-01 4.803718e-01 4.347799e-01 5.216739e-01 4.300095e-01 3.581283e-01 3.781291e-01 3.200218e-01 2.816939e-01
<GCONST> 1.186794e+02
<TRANSP> 5
 0.000000e+00 1.000000e+00 0.000000e+00 0.000000e+00 0.000000e+00
 0.000000e+00 7.116545e-01 2.883455e-01 0.000000e+00 0.000000e+00
 0.000000e+00 0.000000e+00 6.707510e-01 3.292490e-01 0.000000e+00
 0.000000e+00 0.000000e+00 0.000000e+00 7.128971e-01 2.871030e-01
 0.000000e+00 0.000000e+00 0.000000e+00 0.000000e+00 0.000000e+00
<ENDHMM>
~o
<STREAMINFO> 1 39
<VECSIZE> 39<NULLD><MFCC_D_A_Z><DIAGC>
~h "dh"
<BEGINHMM>
<NUMSTATES> 5
<STATE> 2
<MEAN> 39
 -1.864759e+00 1.662039e+00 1.894229e-01 2.238903e+00 2.146542e+00 1.786543e+00 2.606828e+00 1.958985e+00 -7.870969e-01 5.732653e-01 -4.081112e-01 1.631181e+00 -1.405765e-01 -1.130590e-01 4.635122e-02 -7.989210e-02 1.550953e-01 1.377076e-01 1.114173e-01 1.266450e-01 6.746662e-02 -2.728023e-02 1.149593e-01 -4.132462e-02 3.995634e-02 2.523146e-02 -1.392422e-03 -2.328839e-02 -2.134402e-03 -7.762497e-04 5.610221e-03 -2.418368e-02 -1.135310e-02 1.235631e-02 7.082200e-03 -7.243663e-03 -1.101333e-02 -7.304450e-03 -1.082996e-03
<VARIANCE> 39
 6.660298e+01 4.208961e+01 5.869506e+01 5.675174e+01 6.741196e+01 7.039312e+01 3.641259e+01 7.810546e+01 4.116495e+01 2.896784e+01 3.695121e+01 2.712584e+01 2.234616e+01 1.847817e+00 1.579470e+00 1.556809e+00 1.990828e+00 2.425704e+00 2.371361e+00 2.208881e+00 2.808817e+00 2.309299e+00 1.833548e+00 1.963539e+00 1.596172e+00 1.437748e+00 3.138434e-01 2.676840e-01 2.606956e-01 3.541156e-01 4.407976e-01 4.579332e-01 4.124512e-01 4.952144e-01 4.370669e-01 3.262084e-01 3.652429e-01 3.162286e-01 2.587410e-01
<GCONST> 1.164647e+02
<STATE> 3
<MEAN> 39
 -2.518859e+00 1.947932e+00 2.512546e+00 2.183583e+00 -2.961251e-01 -3.931600e+00 8.583947e-02 -1.850338e-01 -1.826398e+00 -1.137493e-01 -2.909613e-02 9.043871e-01 -1.626343e-01 9.828887e-02 -1.959103e-01 -1.155060e-01 -2.622893e-01 -7.798602e-02 -1.276109e-01 -1.423182e-01 -6.198618e-02 8.912858e-02 -9.038983e-02 2.328949e-02 4.267874e-03 -6.774572e-02 1.223155e-01 -5.645686e-02 -1.100230e-01 -1.698239e-01 -9.747390e-02 1.373105e-01 -5.788419e-02 -7.847691e-02 1.072705e-01 -1.792323e-02 4.643775e-02 -1.005062e-01 -8.741255e-03
<VARIANCE> 39
 1.089932e+02 6.162392e+01 8.602975e+01 5.139620e+01 8.447218e+01 9.124158e+01 5.197483e+01 7.746361e+01 5.468601e+01 3.832729e+01 4.245446e+01 3.093969e+01 2.626144e+01 8.888203e+00 5.830142e+00 5.199098e+00 5.292872e+00 7.166642e+00 6.260911e+00 4.976351e+00 6.522673e+00 4.685244e+00 3.439432e+00 3.846054e+00 3.315495e+00 2.450080e+00 1.265254e+00 9.124511e-01 7.460879e-01 8.111199e-01 1.224619e+00 1.107035e+00 8.301187e-01 1.074808e+00 8.114297e-01 6.299529e-01 7.329966e-01 5.840437e-01 4.387276e-01
<GCONST> 1.424869e+02
<STATE> 4
<MEAN> 39
 3.585373e+00 -2.904946e+00 -2.851742e+00 -4.329724e+00 -2.540330e+00 1.187107e+00 -3.064095e+00 -2.716456e+00 2.517339e+00 -8.466883e-01 5.960926e-01 -3.134560e+00 2.849846e-01 6.022047e-02 1.133042e-01 1.069787e-01 6.159254e-02 -8.944113e-02 8.798090e-02 2.214065e-02 -1.002327e-02 -6.064069e-03 -3.421631e-02 7.355155e-02 -8.172582e-02 2.435198e-02 -1.006721e-01 8.417195e-02 1.041679e-01 1.425734e-01 8.659949e-02 -7.839669e-02 6.185132e-02 5.243213e-02 -1.008527e-01 8.567391e-03 -3.058497e-02 9.403230e-02 -4.309800e-03
<VARIANCE> 39
 3.254605e+01 6.502223e+01 6.107119e+01 8.149969e+01 6.993728e+01 9.896333e+01 6.574476e+01 1.069245e+02 9.204517e+01 4.611475e+01 5.736693e+01 4.511041e+01 4.684441e+01 2.244593e+00 3.521818e+00 3.408684e+00 5.931463e+00 5.359044e+00 6.274037e+00 5.018024e+00 7.309609e+00 6.799660e+00 3.904949e+00 4.476994e+00 4.030358e+00 3.672309e+00 4.152639e-01 5.593337e-01 5.383498e-01 9.714876e-01 9.585564e-01 1.025294e+00 9.301832e-01 1.294154e+00 1.130093e+00 7.532729e-01 8.286423e-01 7.508403e-01 6.761519e-01
<GCONST> 1.423038e+02
<TRANSP> 5
 0.000000e+00 1.000000e+00 0.000000e+00 0.000000e+00 0.000000e+00
 0.000000e+00 7.961389e-01 2.038611e-01 0.000000e+00 0.000000e+00
 0.000000e+00 0.000000e+00 7.835687e-01 2.164314e-01 0.000000e+00
 0.000000e+00 0.000000e+00 0.000000e+00 8.242313e-01 1.757687e-01
 0.000000e+00 0.000000e+00 0.000000e+00 0.000000e+00 0.000000e+00
<ENDHMM>
~o
<STREAMINFO> 1 39
<VECSIZE> 39<NULLD><MFCC_D_A_Z><DIAGC>
~h "dx"
<BEGINHMM>
<NUMSTATES> 5
<STATE> 2
<MEAN> 39
 -1.920379e+00 2.092220e+00 1.639820e+00 2.295611e+00 1.667569e-01 3.550623e-01 1.925457e+00 1.091757e+00 -1.256862e+00 3.316465e-01 3.099667e-01 1.085229e+00 1.884019e-01 -1.070352e-01 4.993857e-02 1.372743e-02 9.387287e-02 1.883536e-01 1.313470e-01 3.776544e-02 1.954491e-01 9.976670e-03 5.945596e-02 -7.678141e-02 4.321250e-02 -5.673676e-04 1.055022e-02 -3.850307e-02 -2.544327e-02 -3.858849e-03 4.382539e-02 -1.996068e-02 -5.498017e-02 1.454297e-02 3.656278e-02 -1.312750e-02 -1.120703e-02 -1.367513e-02 1.070511e-02
<VARIANCE> 39
 7.501892e+01 4.906479e+01 6.304704e+01 5.372189e+01 8.894666e+01 8.782364e+01 4.133776e+01 7.900728e+01 4.167786e+01 3.205699e+01 4.256523e+01 3.154676e+01 2.334818e+01 2.257359e+00 2.231074e+00 2.163575e+00 2.468046e+00 3.093817e+00 3.101946e+00 2.555620e+00 3.466522e+00 2.774835e+00 2.105926e+00 2.346831e+00 1.895084e+00 1.685292e+00 3.867809e-01 3.574006e-01 3.098832e-01 4.308771e-01 5.638868e-01 5.439644e-01 4.734266e-01 6.032022e-01 4.853071e-01 3.941283e-01 4.422229e-01 3.570518e-01 3.113846e-01
<GCONST> 1.230414e+02
<STATE> 3
<MEAN> 39
 -4.349960e-01 1.368819e+00 1.652248e+00 8.779215e-01 8.313224e-01 -2.582048e+00 -1.377483e+00 6.416593e-01 -9.480134e-01 9.926780e-02 -8.538296e-01 1.399745e-01 3.281243e-01 6.532313e-02 -2.494800e-01 -7.099787e-02 -3.702231e-01 -1.222163e-01 -8.610504e-02 -3.650408e-01 -1.214771e-01 1.561726e-01 -1.155763e-01 1.529433e-01 2.999077e-02 -3.950243e-02 4.621618e-02 -1.122656e-01 -8.709598e-02 -1.664679e-01 -2.083616e-01 1.220387e-01 4.442068e-02 -1.284574e-01 8.534717e-02 -2.663717e-02 1.291963e-01 -6.708591e-02 -6.046309e-02
<VARIANCE> 39
 1.116905e+02 7.037065e+01 7.468225e+01 6.019326e+01 7.438982e+01 8.826466e+01 6.859089e+01 6.965359e+01 5.748281e+01 3.918222e+01 4.071915e+01 3.489430e+01 2.562407e+01 8.483974e+00 6.781876e+00 5.470484e+00 5.595602e+00 7.107860e+00 6.539081e+00 5.691654e+00 6.903951e+00 5.295716e+00 3.939348e+00 4.261597e+00 3.514597e+00 2.553937e+00 1.256640e+00 1.047644e+00 7.997450e-01 8.664752e-01 1.175566e+00 1.210169e+00 1.002040e+00 1.128740e+00 8.666628e-01 6.875768e-01 7.278068e-01 6.214909e-01 4.613068e-01
<GCONST> 1.445062e+02
<STATE> 4
<MEAN> 39
 3.287085e+00 -3.436433e+00 -3.009377e+00 -4.793961e+00 -2.203060e+00 1.668762e+00 -3.047810e+00 -2.203912e+00 2.608720e+00 -4.164930e-01 5.427904e-01 -3.481390e+00 -1.445059e-01 9.923433e-03 1.296401e-01 1.273273e-01 1.938045e-01 -5.570070e-02 -8.591039e-02 7.089992e-02 7.146234e-02 -2.942339e-02 2.344219e-02 6.189620e-02 -2.615976e-02 1.225358e-02 -6.140811e-02 1.131238e-01 9.926648e-02 1.794390e-01 1.229545e-01 -8.820617e-02 5.091774e-02 6.361295e-02 -1.594320e-01 8.046836e-03 -6.787286e-02 1.046432e-01 3.402452e-02
<VARIANCE> 39
 4.226594e+01 6.858665e+01 5.773999e+01 8.169537e+01 6.643390e+01 9.016527e+01 6.926528e+01 9.855370e+01 8.811908e+01 4.770606e+01 6.044012e+01 4.618122e+01 4.621549e+01 2.401679e+00 3.770761e+00 3.143640e+00 5.713940e+00 5.014853e+00 6.081685e+00 4.971513e+00 6.787657e+00 6.748988e+00 3.766933e+00 4.291093e+00 3.865455e+00 3.409514e+00 4.230353e-01 5.724547e-01 4.987020e-01 9.044173e-01 8.521999e-01 9.130846e-01 9.211621e-01 1.174758e+00 1.159194e+00 7.652047e-01 7.621334e-01 7.088478e-01 6.108862e-01
<GCONST> 1.414303e+02
<TRANSP> 5
 0.000000e+00 1.000000e+00 0.000000e+00 0.000000e+00 0.000000e+00
 0.000000e+00 6.914690e-01 3.085310e-01 0.000000e+00 0.000000e+00
 0.000000e+00 0.000000e+00 6.219327e-01 3.780673e-01 0.000000e+00
 0.000000e+00 0.000000e+00 0.000000e+00 6.951380e-01 3.048620e-01
 0.000000e+00 0.000000e+00 0.000000e+00 0.000000e+00 0.000000e+00
<ENDHMM>
~o
<STREAMINFO> 1 39
<VECSIZE> 39<NULLD><MFCC_D_A_Z><DIAGC>
~h "dxh"
<BEGINHMM>
<NUMSTATES> 5
<STATE> 2
<MEAN> 39
 -5.483835e-01 1.481583e+00 3.125824e+00 1.819676e+00 -5.958826e-01 -3.429926e+00 -2.349648e+00 -4.754135e-02 -1.203827e+00 1.021653e-01 9.278842e-01 2.741114e-01 -1.384726e-01 -3.227117e-01 -6.788944e-01 -5.186781e-01 -3.979301e-01 7.986776e-02 -6.408984e-03 -1.608240e-01 2.309284e-01 2.387546e-01 9.066829e-02 -2.193752e-01 -1.709235e-01 -1.507569e-01 2.738686e-02 -1.704136e-01 -1.393635e-01 -2.608286e-01 -1.996159e-01 8.539154e-02 5.208318e-02 -8.481526e-02 1.650916e-01 -2.373274e-02 7.184594e-02 -3.592604e-02 -9.055068e-02
<VARIANCE> 39
 8.232783e+01 7.856655e+01 7.010157e+01 5.633521e+01 9.955630e+01 9.796654e+01 6.195947e+01 6.691516e+01 5.305743e+01 3.736022e+01 4.839942e+01 2.975884e+01 2.165602e+01 6.996851e+00 7.659072e+00 4.089142e+00 5.491855e+00 7.833084e+00 7.337249e+00 6.198578e+00 6.723442e+00 4.918130e+00 3.507104e+00 3.951696e+00 3.159267e+00 2.445133e+00 1.045865e+00 1.296051e+00 6.232879e-01 7.447956e-01 1.272328e+00 1.356475e+00 1.117417e+00 1.285748e+00 8.258511e-01 6.128940e-01 7.477380e-01 5.539559e-01 4.312839e-01
<GCONST> 1.433704e+02
<STATE> 3
<MEAN> 39
 2.355080e+00 -6.737277e+00 -5.968570e+00 -8.129041e+00 -7.555159e-01 4.687881e+00 -9.229289e-01 -2.531520e+00 5.424775e+00 -1.698119e-01 -9.101524e-01 -3.589924e+00 -2.013497e+00 -1.718081e-01 1.658194e-01 6.861643e-02 4.858507e-02 -9.833317e-02 -5.272093e-02 3.018351e-01 -1.218732e-01 1.408872e-01 2.311919e-03 -3.289996e-02 4.424108e-02 -1.354230e-02 -5.260045e-02 3.150406e-01 1.854013e-01 3.705889e-01 1.426105e-01 -1.777896e-01 1.277549e-02 6.237979e-02 -1.946720e-01 2.390989e-02 -3.767236e-02 1.350045e-01 1.180441e-01
<VARIANCE> 39
 3.774977e+01 4.288437e+01 4.421235e+01 6.342181e+01 9.340711e+01 8.542521e+01 4.945072e+01 6.842400e+01 6.373157e+01 3.669640e+01 6.707881e+01 4.624798e+01 3.944723e+01 2.239067e+00 3.478035e+00 2.697217e+00 5.413081e+00 5.477716e+00 6.146871e+00 3.544534e+00 4.266353e+00 5.105723e+00 2.380521e+00 4.602903e+00 3.574178e+00 3.085441e+00 3.680133e-01 4.539100e-01 4.663678e-01 7.941439e-01 1.024464e+00 9.427345e-01 6.823480e-01 8.251666e-01 8.029872e-01 4.401052e-01 8.417019e-01 6.822373e-01 5.806275e-01
<GCONST> 1.354497e+02
<STATE> 4
<MEAN> 39
 -6.270873e+00 2.890619e+00 9.955723e-01 2.536180e+00 1.956326e+00 -6.263017e-01 2.945562e+00 1.120121e+00 -5.009792e-01 1.166654e+00 -1.388048e-01 1.790087e+00 -5.473455e-01 -1.804737e-01 2.568837e-01 7.256691e-02 2.625218e-01 -2.971219e-02 -1.961546e-01 2.485492e-02 -2.984937e-02 3.141907e-02 -4.309011e-02 -4.262208e-03 8.305828e-02 8.459787e-02 1.346961e-01 -1.217277e-01 -1.040424e-02 -2.492424e-02 1.459289e-02 4.822146e-02 -4.002080e-02 2.838029e-02 2.845256e-02 -4.461038e-02 5.841590e-04 -7.635508e-03 -1.284221e-04
<VARIANCE> 39
 1.384483e+02 4.552285e+01 7.351560e+01 4.419876e+01 7.673169e+01 7.036323e+01 3.228660e+01 7.260437e+01 3.402029e+01 2.855563e+01 2.766766e+01 2.302150e+01 2.002760e+01 5.384740e+00 3.251779e+00 2.429468e+00 2.997253e+00 2.830509e+00 3.567993e+00 2.659786e+00 4.162998e+00 3.215355e+00 1.883449e+00 1.932539e+00 1.996889e+00 1.392354e+00 8.993091e-01 5.326211e-01 4.155488e-01 5.907260e-01 4.790823e-01 5.535492e-01 4.853126e-01 7.825311e-01 5.439194e-01 3.863769e-01 3.865208e-01 3.410205e-01 3.064550e-01
<GCONST> 1.250409e+02
<TRANSP> 5
 0.000000e+00 1.000000e+00 0.000000e+00 0.000000e+00 0.000000e+00
 0.000000e+00 7.514205e-01 2.485795e-01 0.000000e+00 0.000000e+00
 0.000000e+00 0.000000e+00 7.615978e-01 2.384022e-01 0.000000e+00
 0.000000e+00 0.000000e+00 0.000000e+00 7.833571e-01 2.166428e-01
 0.000000e+00 0.000000e+00 0.000000e+00 0.000000e+00 0.000000e+00
<ENDHMM>
~o
<STREAMINFO> 1 39
<VECSIZE> 39<NULLD><MFCC_D_A_Z><DIAGC>
~h "dxhq"
<BEGINHMM>
<NUMSTATES> 5
<STATE> 2
<MEAN> 39
 1.746148e+00 -9.459047e-01 -1.735191e-01 -5.194356e-01 -2.805435e+00 -1.486252e-01 -3.104480e+00 -2.060205e+00 1.656024e-01 -1.512533e-01 1.111688e+00 -1.128598e+00 -8.474583e-02 4.942268e-02 1.916431e-01 2.795334e-01 3.876742e-02 -1.187095e-01 -1.030357e-01 1.629469e-01 -1.118746e-01 -1.696633e-01 -9.603469e-02 3.130944e-02 8.490811e-02 4.806552e-03 -3.804396e-02 5.755999e-02 7.320441e-02 -6.291104e-03 6.140842e-02 1.595832e-02 1.237395e-01 2.946066e-02 -2.986587e-02 1.157620e-04 -2.013606e-02 7.197442e-03 3.069250e-03
<VARIANCE> 39
 4.290607e+01 5.153042e+01 6.826626e+01 7.649904e+01 7.862736e+01 1.077275e+02 7.062464e+01 1.009843e+02 8.171252e+01 4.436766e+01 5.340262e+01 3.931741e+01 3.829851e+01 3.510164e+00 3.454770e+00 4.352197e+00 5.747408e+00 7.363194e+00 7.734343e+00 5.382213e+00 8.286554e+00 6.223458e+00 4.049550e+00 4.972997e+00 3.799532e+00 3.358314e+00 5.119904e-01 5.484747e-01 6.415403e-01 9.910306e-01 1.317994e+00 1.220374e+00 9.492758e-01 1.434340e+00 1.005941e+00 7.643965e-01 8.999280e-01 7.434548e-01 5.830973e-01
<GCONST> 1.441354e+02
<STATE> 3
<MEAN> 39
 1.729273e+00 4.774599e-01 -1.312511e-01 2.610732e+00 3.072923e+00 1.363956e+00 3.406092e+00 2.686645e+00 -1.471781e+00 1.561586e+00 -1.131405e+00 2.368663e+00 -2.271176e-01 -2.214718e-01 1.414828e-01 7.894152e-02 8.523136e-02 1.466911e-01 1.784889e-03 1.932631e-01 -5.695281e-02 -6.055467e-02 -5.407509e-02 -1.111415e-01 3.830609e-02 -3.140112e-02 -1.210841e-01 -3.788092e-02 -3.549318e-02 6.611136e-03 -3.524351e-02 -4.766921e-02 -6.000647e-02 -5.784886e-02 -1.785149e-05 -3.949789e-02 1.141725e-02 -4.099689e-02 2.333069e-02
<VARIANCE> 39
 3.408063e+01 2.285761e+01 4.291902e+01 3.522827e+01 5.357575e+01 4.260150e+01 2.728056e+01 4.788620e+01 3.031617e+01 1.899262e+01 2.809772e+01 1.880690e+01 1.407620e+01 8.503191e-01 7.346318e-01 8.096419e-01 9.728435e-01 1.294678e+00 1.350792e+00 1.084163e+00 1.522889e+00 1.277651e+00 1.002462e+00 1.077848e+00 9.586337e-01 8.560364e-01 2.600258e-01 1.626098e-01 1.963552e-01 2.116433e-01 2.694120e-01 2.465385e-01 2.179823e-01 3.171874e-01 2.426638e-01 2.394476e-01 2.039100e-01 1.829890e-01 1.581328e-01
<GCONST> 9.660478e+01
<STATE> 4
<MEAN> 39
 -2.782728e+00 3.032647e-02 -3.341324e-01 -6.484787e-01 4.929961e-01 3.437650e-01 1.611858e+00 -1.856145e-01 -2.421288e-01 -1.694940e-01 -8.910818e-01 8.592887e-01 -9.629776e-02 -1.568206e-01 -1.600717e-01 4.878056e-02 -1.805764e-01 -2.268680e-01 -1.502114e-01 -1.521483e-01 -8.135054e-02 2.379482e-02 -1.616299e-01 1.077724e-01 -5.498179e-02 1.040050e-02 7.475723e-02 1.305768e-02 7.612421e-03 -1.202284e-02 -7.716503e-03 9.382664e-03 -6.221470e-02 -5.835103e-03 -7.707046e-03 3.468933e-02 4.722001e-02 -2.041646e-02 -1.737221e-02
<VARIANCE> 39
 1.026893e+02 5.257777e+01 8.088174e+01 7.454281e+01 6.992023e+01 9.755684e+01 5.620177e+01 6.933990e+01 6.811616e+01 3.887726e+01 4.277193e+01 4.063123e+01 3.686771e+01 6.586748e+00 3.646265e+00 4.112741e+00 5.059698e+00 5.024163e+00 5.248282e+00 3.766718e+00 4.655941e+00 4.639493e+00 2.984407e+00 3.165222e+00 3.133991e+00 2.634506e+00 9.573249e-01 6.195002e-01 6.130133e-01 8.730636e-01 8.802328e-01 9.120821e-01 6.559915e-01 7.412750e-01 8.301793e-01 5.449380e-01 5.772657e-01 6.111130e-01 4.708153e-01
<GCONST> 1.385861e+02
<TRANSP> 5
 0.000000e+00 1.000000e+00 0.000000e+00 0.000000e+00 0.000000e+00
 0.000000e+00 8.095011e-01 1.904989e-01 0.000000e+00 0.000000e+00
 0.000000e+00 0.000000e+00 7.111458e-01 2.888542e-01 0.000000e+00
 0.000000e+00 0.000000e+00 0.000000e+00 7.973606e-01 2.026394e-01
 0.000000e+00 0.000000e+00 0.000000e+00 0.000000e+00 0.000000e+00
<ENDHMM>
~o
<STREAMINFO> 1 39
<VECSIZE> 39<NULLD><MFCC_D_A_Z><DIAGC>
~h "dxq"
<BEGINHMM>
<NUMSTATES> 5
<STATE> 2
<MEAN> 39
 -7.034440e-01 1.420037e+00 1.825414e+00 2.043740e+00 5.164075e-02 -8.096557e-01 2.076661e+00 6.081161e-01 -1.143369e+00 -3.332887e-01 3.778810e-01 8.730415e-01 -5.557960e-01 -1.405642e-01 6.990738e-02 -1.165392e-01 1.589744e-01 2.268872e-01 8.510479e-02 1.322843e-01 1.196159e-01 -3.501740e-02 1.017295e-01 -1.200927e-01 1.418828e-03 3.868806e-03 -4.955866e-02 -4.457860e-02 -5.967778e-02 -3.374524e-02 6.342131e-03 -2.661782e-02 -5.023541e-02 6.077300e-03 1.454223e-02 1.680215e-02 -3.545024e-02 1.059707e-02 1.726813e-02
<VARIANCE> 39
 6.757777e+01 4.374990e+01 7.717134e+01 5.067212e+01 7.125549e+01 8.852003e+01 4.436936e+01 7.410002e+01 4.464820e+01 3.174402e+01 4.438396e+01 2.944790e+01 2.439227e+01 2.259867e+00 2.049175e+00 2.129783e+00 2.281025e+00 3.230864e+00 3.344815e+00 2.703223e+00 3.544357e+00 2.668484e+00 2.043886e+00 2.230511e+00 2.075124e+00 1.586660e+00 3.946997e-01 3.300463e-01 3.302572e-01 4.093395e-01 5.926834e-01 5.822316e-01 4.766663e-01 6.403111e-01 4.743724e-01 3.924300e-01 4.259982e-01 3.707876e-01 3.172741e-01
<GCONST> 1.228932e+02
<STATE> 3
<MEAN> 39
 -4.007420e+00 4.322588e-01 5.816895e-01 1.255234e+00 1.214335e+00 -2.711131e+00 -2.675813e-02 4.375801e-01 -5.554380e-01 1.806661e-01 -7.943754e-01 1.527083e+00 -5.413182e-02 2.132180e-02 -3.365240e-01 2.712935e-02 -4.800478e-01 -6.260777e-01 -2.689275e-01 -3.656874e-01 -1.923518e-01 2.676082e-01 -2.951312e-01 9.236446e-02 4.666772e-02 -6.411457e-02 2.478758e-01 -6.075758e-03 -2.605118e-03 -1.579858e-01 -2.219487e-01 2.175916e-01 6.672274e-04 -8.987814e-02 8.367672e-02 -1.050182e-02 1.352228e-01 -1.442110e-01 -1.023075e-02
<VARIANCE> 39
 1.027463e+02 5.723626e+01 8.762765e+01 6.091986e+01 6.808025e+01 8.740277e+01 5.989117e+01 6.969966e+01 5.968376e+01 3.775292e+01 4.121494e+01 3.266302e+01 2.627608e+01 9.086939e+00 5.004787e+00 5.652131e+00 5.485941e+00 6.704847e+00 7.359113e+00 5.260192e+00 6.508615e+00 5.628559e+00 3.631585e+00 4.653008e+00 3.635866e+00 2.569597e+00 1.246847e+00 8.073295e-01 8.306195e-01 8.584564e-01 1.079694e+00 1.291679e+00 8.826075e-01 1.046255e+00 9.176302e-01 6.752350e-01 7.301917e-01 6.146949e-01 3.980940e-01
<GCONST> 1.433548e+02
<STATE> 4
<MEAN> 39
 2.607119e+00 -1.846143e+00 -1.510948e+00 -3.404683e+00 -2.306718e+00 1.711360e+00 -2.262316e+00 -1.617741e+00 1.205461e+00 -9.304655e-01 8.770177e-01 -2.533990e+00 6.441547e-01 7.789351e-02 7.531472e-02 2.050058e-02 1.049233e-01 1.466292e-01 2.510548e-01 5.640014e-03 1.444562e-01 -1.077076e-01 1.926078e-01 8.995914e-02 -7.424619e-02 3.419947e-02 -1.179258e-01 7.436191e-02 3.921308e-02 1.446219e-01 1.587090e-01 -8.717287e-02 5.275083e-02 5.229352e-02 -7.298214e-02 2.472526e-02 -6.419161e-02 9.976102e-02 -3.840179e-02
<VARIANCE> 39
 3.657837e+01 7.128501e+01 5.941424e+01 8.097067e+01 6.534402e+01 1.041772e+02 7.045216e+01 1.035170e+02 9.908399e+01 4.651921e+01 6.095248e+01 4.563871e+01 4.918207e+01 2.007385e+00 3.016733e+00 2.926228e+00 5.105345e+00 4.668477e+00 5.746692e+00 4.217075e+00 6.152477e+00 5.829218e+00 3.572082e+00 4.203103e+00 3.639142e+00 3.296734e+00 3.757494e-01 5.114221e-01 4.758358e-01 8.296447e-01 8.478228e-01 9.038497e-01 7.962667e-01 1.145154e+00 1.049782e+00 6.801178e-01 8.126852e-01 6.728501e-01 5.921279e-01
<GCONST> 1.396098e+02
<TRANSP> 5
 0.000000e+00 1.000000e+00 0.000000e+00 0.000000e+00 0.000000e+00
 0.000000e+00 7.077115e-01 2.922885e-01 0.000000e+00 0.000000e+00
 0.000000e+00 0.000000e+00 6.241409e-01 3.758591e-01 0.000000e+00
 0.000000e+00 0.000000e+00 0.000000e+00 7.193596e-01 2.806404e-01
 0.000000e+00 0.000000e+00 0.000000e+00 0.000000e+00 0.000000e+00
<ENDHMM>
~o
<STREAMINFO> 1 39
<VECSIZE> 39<NULLD><MFCC_D_A_Z><DIAGC>
~h "ee"
<BEGINHMM>
<NUMSTATES> 5
<STATE> 2
<MEAN> 39
 -1.233955e+00 1.392591e+00 4.586703e-01 2.503352e+00 1.919141e+00 1.119491e+00 2.610188e+00 2.110211e+00 -9.748183e-01 5.558836e-01 -2.867636e-01 1.635091e+00 -9.360389e-02 -1.052355e-01 4.665811e-02 -4.589244e-02 1.162734e-01 1.230790e-01 7.357839e-02 9.077322e-02 6.883101e-02 -1.857282e-02 6.821937e-02 -4.828942e-02 1.494252e-02 7.299257e-03 -1.427649e-02 -3.136523e-02 -1.199734e-02 -1.555772e-02 3.025885e-03 -2.724604e-02 -2.620981e-02 -3.063571e-03 6.847937e-03 -5.572496e-03 -1.003529e-02 -7.489183e-03 5.894762e-03
<VARIANCE> 39
 7.394769e+01 4.174755e+01 6.060534e+01 4.848322e+01 7.045223e+01 6.991523e+01 3.867430e+01 6.694926e+01 3.921000e+01 2.811900e+01 3.766425e+01 2.695672e+01 2.054750e+01 2.061798e+00 1.760284e+00 1.747686e+00 2.083870e+00 2.570534e+00 2.547745e+00 2.202365e+00 2.832707e+00 2.266821e+00 1.839243e+00 2.007456e+00 1.658464e+00 1.413679e+00 3.609527e-01 3.055303e-01 2.902083e-01 3.724538e-01 4.566651e-01 4.618445e-01 4.061618e-01 5.103609e-01 4.165436e-01 3.441365e-01 3.666633e-01 3.134783e-01 2.661620e-01
<GCONST> 1.172896e+02
<STATE> 3
<MEAN> 39
 -2.352301e+00 1.281199e+00 1.402253e+00 1.438915e+00 8.974898e-01 -2.599367e+00 -1.453952e-01 3.038040e-01 -1.296515e+00 2.871645e-01 -5.318726e-01 9.714519e-01 1.371413e-02 4.818964e-02 -2.199741e-01 -3.509512e-02 -3.479248e-01 -2.666717e-01 -1.891250e-01 -2.357258e-01 -2.094947e-01 1.075724e-01 -1.497308e-01 7.650802e-02 7.314487e-03 -7.748096e-02 1.415632e-01 -5.558202e-02 -5.333148e-02 -1.519929e-01 -1.860163e-01 1.123603e-01 -3.300196e-02 -8.553687e-02 1.097072e-01 -3.376759e-02 8.750626e-02 -1.023537e-01 -2.141052e-02
<VARIANCE> 39
 1.107548e+02 6.233885e+01 8.360615e+01 6.075935e+01 7.434040e+01 8.844365e+01 5.935808e+01 7.507381e+01 5.709145e+01 3.759256e+01 4.105120e+01 3.370193e+01 2.531394e+01 9.146705e+00 5.846984e+00 5.555279e+00 5.676145e+00 7.323462e+00 6.521442e+00 5.176779e+00 7.100967e+00 5.014946e+00 3.742629e+00 4.086304e+00 3.482637e+00 2.502028e+00 1.324370e+00 9.305491e-01 8.224703e-01 8.804295e-01 1.207717e+00 1.165007e+00 9.092785e-01 1.136250e+00 8.648325e-01 6.788223e-01 7.188908e-01 6.127543e-01 4.557797e-01
<GCONST> 1.439061e+02
<STATE> 4
<MEAN> 39
 2.756815e+00 -2.350473e+00 -1.565907e+00 -3.573573e+00 -2.834910e+00 7.513853e-01 -2.606400e+00 -2.161762e+00 1.754956e+00 -1.016811e+00 8.593787e-01 -2.547964e+00 9.445924e-02 2.893964e-02 1.078607e-01 7.592691e-02 1.079783e-01 4.855448e-02 7.015205e-02 7.232720e-02 5.094980e-02 -4.821663e-02 3.751039e-02 -6.292324e-03 -6.389866e-02 5.747744e-02 -8.730000e-02 6.949945e-02 5.104452e-02 1.292130e-01 1.393552e-01 -6.291027e-02 5.148093e-02 5.970008e-02 -9.063975e-02 2.928016e-02 -5.960466e-02 8.038501e-02 9.304252e-03
<VARIANCE> 39
 3.811809e+01 6.453408e+01 6.647246e+01 8.019412e+01 7.231467e+01 1.073923e+02 6.676243e+01 1.029953e+02 8.644669e+01 4.681532e+01 6.002687e+01 4.425623e+01 4.270221e+01 2.271682e+00 3.367845e+00 3.124840e+00 5.273764e+00 5.118706e+00 5.761925e+00 4.647063e+00 6.346083e+00 5.973103e+00 3.565269e+00 4.218382e+00 3.621921e+00 3.269675e+00 4.209014e-01 5.327101e-01 4.899397e-01 8.569328e-01 9.081383e-01 9.370412e-01 8.336126e-01 1.163110e+00 1.022115e+00 6.841120e-01 7.819037e-01 6.684506e-01 6.054548e-01
<GCONST> 1.403157e+02
<TRANSP> 5
 0.000000e+00 1.000000e+00 0.000000e+00 0.000000e+00 0.000000e+00
 0.000000e+00 7.258425e-01 2.741576e-01 0.000000e+00 0.000000e+00
 0.000000e+00 0.000000e+00 6.670917e-01 3.329083e-01 0.000000e+00
 0.000000e+00 0.000000e+00 0.000000e+00 7.484353e-01 2.515647e-01
 0.000000e+00 0.000000e+00 0.000000e+00 0.000000e+00 0.000000e+00
<ENDHMM>
~o
<STREAMINFO> 1 39
<VECSIZE> 39<NULLD><MFCC_D_A_Z><DIAGC>
~h "ei"
<BEGINHMM>
<NUMSTATES> 5
<STATE> 2
<MEAN> 39
 1.713020e+00 -1.121948e+00 -1.861680e+00 -2.621071e+00 3.190947e-01 4.242400e+00 1.533129e+00 -1.547492e+00 1.586975e+00 1.580206e-01 -1.926070e+00 -1.683427e-01 -1.669393e+00 -4.988548e-02 1.575654e-01 -1.167650e-02 1.416414e-01 1.273444e-01 -6.110985e-02 7.926983e-02 5.448132e-02 -1.361092e-01 -1.399186e-01 -2.610651e-01 1.769066e-01 1.959396e-01 -2.941178e-02 5.684770e-02 7.439198e-02 1.390452e-01 -1.280642e-02 -1.800383e-01 3.616632e-02 8.425229e-02 -3.040717e-02 -5.568803e-02 1.271510e-01 1.053907e-02 1.968257e-02
<VARIANCE> 39
 3.311666e+01 7.679694e+01 8.701549e+01 8.094061e+01 6.991626e+01 6.026363e+01 6.393101e+01 8.369111e+01 5.645392e+01 2.698873e+01 5.000828e+01 3.320101e+01 3.460870e+01 1.055349e+00 1.212664e+00 1.395648e+00 1.603994e+00 1.721621e+00 2.102828e+00 2.757048e+00 2.277511e+00 2.880163e+00 1.466294e+00 2.082745e+00 1.811555e+00 1.286178e+00 1.911932e-01 3.078497e-01 3.376751e-01 2.720155e-01 4.176142e-01 4.412706e-01 6.498387e-01 6.019166e-01 5.526795e-01 3.428815e-01 3.984579e-01 3.763065e-01 2.172834e-01
<GCONST> 1.178558e+02
<STATE> 3
<MEAN> 39
 1.838329e+00 -2.090674e+00 2.779927e+00 -8.379144e-01 -2.494875e+00 -3.917057e+00 -5.210348e+00 5.357420e-01 1.914364e-01 -2.788068e+00 3.447186e+00 -3.221849e+00 7.459786e-01 -1.316897e-01 8.815175e-02 4.416296e-01 7.938518e-02 3.703148e-02 -5.043752e-01 -1.157818e-01 5.242769e-01 -1.340396e-01 -1.167985e-01 3.936314e-01 1.347881e-01 -5.066152e-02 -4.347044e-02 -1.875333e-02 -9.162603e-02 -4.419400e-02 6.392083e-02 1.915960e-01 2.122187e-01 -3.499227e-02 1.080198e-01 1.662080e-01 -8.237076e-02 -3.208938e-02 -8.315306e-02
<VARIANCE> 39
 3.880871e+01 5.625842e+01 7.355065e+01 7.423131e+01 7.517281e+01 1.077207e+02 8.318255e+01 1.307558e+02 7.914156e+01 4.134130e+01 6.055614e+01 5.658948e+01 2.691656e+01 2.279224e+00 4.865114e+00 4.905518e+00 5.076408e+00 6.413988e+00 5.862683e+00 8.903427e+00 1.198517e+01 7.138682e+00 4.203777e+00 5.768540e+00 5.173573e+00 3.000359e+00 4.232891e-01 8.385109e-01 6.622475e-01 8.442856e-01 1.117429e+00 9.180279e-01 1.384880e+00 1.919759e+00 1.101562e+00 6.515143e-01 1.096420e+00 8.469091e-01 4.792326e-01
<GCONST> 1.458489e+02
<STATE> 4
<MEAN> 39
 -2.349287e+00 2.816190e+00 2.012606e+00 8.169530e-01 2.902098e-01 1.072410e+00 7.917992e-01 6.515177e-01 -1.945146e-01 -3.039865e-01 -3.193601e-01 -1.323246e-01 8.197674e-01 -4.111172e-01 -4.181677e-01 -2.219121e-01 -7.631178e-02 6.211693e-02 1.703869e-01 -9.198388e-02 4.405875e-01 2.415852e-01 5.155422e-02 1.053867e-01 7.506351e-02 -5.375653e-02 5.141010e-03 -1.470456e-01 -7.703461e-02 3.188927e-02 -7.619917e-02 -1.807387e-01 -1.767225e-01 -3.304135e-02 8.966899e-03 -7.851562e-03 3.249768e-02 4.896488e-05 -8.002614e-04
<VARIANCE> 39
 1.263875e+02 7.353913e+01 9.665880e+01 4.757174e+01 8.481657e+01 1.035033e+02 4.476923e+01 7.356715e+01 4.514326e+01 3.308545e+01 3.336083e+01 3.261846e+01 3.908369e+01 5.679298e+00 4.781569e+00 2.548601e+00 2.916634e+00 5.332157e+00 4.585512e+00 3.249491e+00 4.288943e+00 2.481160e+00 2.268350e+00 2.366294e+00 2.451382e+00 2.367305e+00 8.849389e-01 6.469698e-01 3.641954e-01 4.477916e-01 8.022392e-01 8.217012e-01 6.517281e-01 5.990488e-01 5.776770e-01 4.759160e-01 4.533447e-01 3.435996e-01 4.799833e-01
<GCONST> 1.322677e+02
<TRANSP> 5
 0.000000e+00 1.000000e+00 0.000000e+00 0.000000e+00 0.000000e+00
 0.000000e+00 7.207726e-01 2.792273e-01 0.000000e+00 0.000000e+00
 0.000000e+00 0.000000e+00 7.563462e-01 2.436538e-01 0.000000e+00
 0.000000e+00 0.000000e+00 0.000000e+00 7.371094e-01 2.628906e-01
 0.000000e+00 0.000000e+00 0.000000e+00 0.000000e+00 0.000000e+00
<ENDHMM>
~o
<STREAMINFO> 1 39
<VECSIZE> 39<NULLD><MFCC_D_A_Z><DIAGC>
~h "g"
<BEGINHMM>
<NUMSTATES> 5
<STATE> 2
<MEAN> 39
 -1.439853e+00 1.412220e+00 1.409567e-01 2.670774e+00 2.407542e+00 1.329583e+00 2.858858e+00 2.576375e+00 -1.011426e+00 7.378043e-01 -5.185554e-01 1.995878e+00 -1.513642e-01 -1.370443e-01 2.198648e-02 -4.521337e-02 7.779801e-02 1.038811e-01 4.235588e-02 4.187123e-02 2.229354e-02 -4.174893e-03 4.648866e-02 -1.983591e-02 -1.136994e-03 -1.018441e-02 2.579044e-03 -3.526118e-02 -6.267910e-03 -2.039981e-02 -1.360483e-02 -2.477978e-02 -3.590124e-02 -1.536321e-02 1.146334e-02 -1.546447e-03 -1.881249e-03 -1.500461e-02 1.535886e-02
<VARIANCE> 39
 8.096786e+01 3.879318e+01 5.762646e+01 4.655819e+01 6.213613e+01 6.274095e+01 3.626774e+01 6.217820e+01 3.644889e+01 2.658462e+01 3.498051e+01 2.349290e+01 1.878355e+01 2.194828e+00 1.725439e+00 1.662120e+00 2.096160e+00 2.483734e+00 2.507043e+00 2.132339e+00 2.710101e+00 2.279314e+00 1.720637e+00 1.920720e+00 1.550437e+00 1.372669e+00 3.965865e-01 3.012543e-01 2.799792e-01 3.702285e-01 4.503376e-01 4.595203e-01 3.892532e-01 4.937283e-01 3.998368e-01 3.305975e-01 3.531402e-01 2.969516e-01 2.482899e-01
<GCONST> 1.157838e+02
<STATE> 3
<MEAN> 39
 -1.431678e+00 1.554631e+00 1.594596e+00 1.286646e+00 4.892353e-01 -2.411103e+00 -4.942339e-01 -2.728513e-01 -1.739630e+00 3.489596e-01 -4.016657e-01 6.563416e-01 3.353076e-01 9.834380e-02 -2.880112e-01 -8.108088e-02 -3.607055e-01 -3.134016e-01 -1.599885e-01 -2.277980e-01 -1.978668e-01 1.958059e-01 -1.232867e-01 1.416698e-01 -2.253482e-02 -9.422992e-02 1.072196e-01 -7.317722e-02 -5.874281e-02 -1.457885e-01 -1.622940e-01 1.212043e-01 1.263469e-03 -3.301804e-02 1.360750e-01 -4.369800e-02 7.905024e-02 -9.077256e-02 -3.692634e-02
<VARIANCE> 39
 1.053619e+02 6.330935e+01 8.386273e+01 6.275939e+01 7.168163e+01 9.082747e+01 6.267992e+01 8.046632e+01 5.842749e+01 3.887245e+01 4.251131e+01 3.322358e+01 2.820387e+01 8.850552e+00 5.794318e+00 5.578955e+00 5.953596e+00 7.462791e+00 6.739490e+00 5.426386e+00 7.683583e+00 5.325508e+00 4.017691e+00 4.449356e+00 3.646651e+00 2.743839e+00 1.317955e+00 9.052839e-01 8.160633e-01 9.182534e-01 1.198188e+00 1.187673e+00 9.416617e-01 1.248178e+00 9.005338e-01 7.237844e-01 7.579106e-01 6.521100e-01 5.014749e-01
<GCONST> 1.452060e+02
<STATE> 4
<MEAN> 39
 2.681849e+00 -2.714011e+00 -1.436489e+00 -3.587047e+00 -2.748371e+00 5.337750e-01 -2.347359e+00 -1.942682e+00 2.376875e+00 -1.080590e+00 9.307061e-01 -2.693272e+00 -1.681022e-01 3.079142e-02 2.001466e-01 1.130404e-01 1.813018e-01 1.176181e-01 5.182778e-02 5.796405e-02 5.511932e-02 -9.054811e-02 3.862663e-02 -4.764842e-02 -7.531167e-02 7.853583e-02 -7.964330e-02 1.082668e-01 6.468830e-02 1.445221e-01 1.623386e-01 -5.837988e-02 4.938204e-02 3.816734e-02 -1.363351e-01 4.290619e-02 -8.307096e-02 8.450966e-02 3.315165e-02
<VARIANCE> 39
 3.860113e+01 6.710390e+01 7.113673e+01 8.113058e+01 7.480138e+01 1.096910e+02 6.356794e+01 9.617747e+01 8.458029e+01 4.525880e+01 6.090724e+01 4.476569e+01 4.347374e+01 2.159301e+00 3.177601e+00 2.922065e+00 4.925729e+00 4.758743e+00 5.478362e+00 4.315851e+00 5.451118e+00 5.743536e+00 3.400811e+00 3.986825e+00 3.427162e+00 3.304204e+00 3.963010e-01 5.040685e-01 4.698906e-01 8.080342e-01 8.649921e-01 9.137256e-01 7.596034e-01 9.935480e-01 9.751490e-01 6.506376e-01 7.592579e-01 6.351874e-01 6.163268e-01
<GCONST> 1.388909e+02
<TRANSP> 5
 0.000000e+00 1.000000e+00 0.000000e+00 0.000000e+00 0.000000e+00
 0.000000e+00 7.207152e-01 2.792848e-01 0.000000e+00 0.000000e+00
 0.000000e+00 0.000000e+00 6.758218e-01 3.241782e-01 0.000000e+00
 0.000000e+00 0.000000e+00 0.000000e+00 7.390915e-01 2.609085e-01
 0.000000e+00 0.000000e+00 0.000000e+00 0.000000e+00 0.000000e+00
<ENDHMM>
~o
<STREAMINFO> 1 39
<VECSIZE> 39<NULLD><MFCC_D_A_Z><DIAGC>
~h "gh"
<BEGINHMM>
<NUMSTATES> 5
<STATE> 2
<MEAN> 39
 -1.801877e+00 1.495555e+00 -7.185606e-01 2.641641e+00 3.104237e+00 1.822506e+00 3.310081e+00 2.999819e+00 -8.658732e-01 1.080682e+00 -9.944579e-01 2.318297e+00 -1.704497e-01 -1.522393e-01 -5.294149e-03 -1.337380e-01 3.812908e-02 1.407140e-01 -1.208185e-02 6.902412e-02 1.739307e-02 -5.304789e-02 8.944616e-03 -5.870407e-02 1.022830e-01 4.675087e-03 1.279387e-02 -2.388909e-02 2.332013e-02 -3.506369e-02 -3.503531e-02 -3.570318e-02 -4.572036e-02 -1.814567e-02 2.474055e-02 -1.146538e-02 1.145321e-02 -1.057606e-02 2.115304e-03
<VARIANCE> 39
 8.247382e+01 3.520493e+01 5.482531e+01 4.362658e+01 5.157955e+01 5.445797e+01 2.984842e+01 5.039016e+01 3.302266e+01 2.386796e+01 2.997909e+01 2.372108e+01 1.818854e+01 2.170967e+00 1.526298e+00 1.437455e+00 1.725050e+00 2.424563e+00 2.290065e+00 1.986938e+00 2.314200e+00 1.920154e+00 1.513564e+00 1.774699e+00 1.508617e+00 1.194595e+00 3.493907e-01 2.664034e-01 2.586376e-01 3.225547e-01 3.901999e-01 4.071692e-01 3.655438e-01 4.205854e-01 3.742598e-01 2.989282e-01 3.191417e-01 2.959659e-01 2.256826e-01
<GCONST> 1.117913e+02
<STATE> 3
<MEAN> 39
 -1.250483e+00 9.705036e-01 3.484804e+00 1.499288e+00 -1.920923e+00 -4.904724e+00 -8.145334e-02 -5.295117e-01 -1.924140e+00 -6.462267e-01 9.284545e-01 5.406775e-01 -1.000932e-01 1.503163e-01 -8.824505e-02 6.551462e-02 -2.163443e-01 -1.557787e-01 -1.301008e-01 -1.475995e-01 -1.033662e-01 7.692503e-02 -4.388119e-02 -9.427448e-03 -4.923368e-02 -5.993696e-02 5.968671e-02 -4.358729e-02 -1.121470e-01 -1.400615e-01 -6.467222e-02 1.671540e-01 -1.633459e-02 -3.840086e-02 9.158535e-02 -1.366477e-03 1.345836e-02 -7.175958e-02 -7.469987e-03
<VARIANCE> 39
 9.058654e+01 5.979390e+01 8.018832e+01 5.196492e+01 8.992482e+01 9.256316e+01 5.878795e+01 8.911888e+01 5.345870e+01 3.908069e+01 5.352346e+01 3.160829e+01 2.515256e+01 7.934746e+00 5.534385e+00 5.113143e+00 4.941385e+00 6.854311e+00 5.824579e+00 4.961747e+00 7.226744e+00 4.683615e+00 3.657591e+00 4.234492e+00 3.386119e+00 2.239794e+00 1.208703e+00 8.453763e-01 7.382870e-01 8.130760e-01 1.213859e+00 1.052577e+00 8.534800e-01 1.228248e+00 7.668866e-01 6.661119e-01 7.323893e-01 5.777587e-01 4.296525e-01
<GCONST> 1.425185e+02
<STATE> 4
<MEAN> 39
 3.176716e+00 -2.335274e+00 -3.533732e+00 -5.517969e+00 -8.381229e-01 3.711677e+00 -1.849143e+00 -2.153894e+00 2.540417e+00 -7.552564e-01 -4.464966e-01 -2.728792e+00 4.521047e-01 2.826376e-02 1.655315e-01 8.954766e-02 4.991479e-02 -9.967408e-02 5.600970e-02 7.685181e-02 -2.333486e-02 -8.944780e-02 -2.443688e-02 3.895967e-02 5.896035e-05 5.352004e-02 -8.829263e-02 6.940410e-02 1.032962e-01 1.621534e-01 5.977159e-02 -1.311781e-01 4.124228e-02 5.928192e-02 -9.905783e-02 1.017163e-02 1.670952e-03 6.694621e-02 -6.029071e-03
<VARIANCE> 39
 3.181686e+01 7.512266e+01 4.650908e+01 7.650445e+01 6.797554e+01 8.031799e+01 6.807511e+01 9.136802e+01 8.827591e+01 4.462820e+01 5.871619e+01 5.110247e+01 4.949102e+01 2.455359e+00 3.388464e+00 2.952251e+00 5.800496e+00 4.977715e+00 5.630237e+00 4.358785e+00 6.023413e+00 5.866138e+00 3.542854e+00 4.272520e+00 3.889278e+00 3.572759e+00 4.429627e-01 5.343403e-01 4.816397e-01 9.064651e-01 9.112015e-01 8.393012e-01 7.938517e-01 1.083895e+00 1.003757e+00 6.858910e-01 7.490872e-01 7.141265e-01 6.357861e-01
<GCONST> 1.396992e+02
<TRANSP> 5
 0.000000e+00 1.000000e+00 0.000000e+00 0.000000e+00 0.000000e+00
 0.000000e+00 7.717201e-01 2.282799e-01 0.000000e+00 0.000000e+00
 0.000000e+00 0.000000e+00 8.144173e-01 1.855827e-01 0.000000e+00
 0.000000e+00 0.000000e+00 0.000000e+00 8.286102e-01 1.713898e-01
 0.000000e+00 0.000000e+00 0.000000e+00 0.000000e+00 0.000000e+00
<ENDHMM>
~o
<STREAMINFO> 1 39
<VECSIZE> 39<NULLD><MFCC_D_A_Z><DIAGC>
~h "h"
<BEGINHMM>
<NUMSTATES> 5
<STATE> 2
<MEAN> 39
 -1.573548e+00 1.527395e+00 4.948741e-01 2.304216e+00 1.738764e+00 1.174394e+00 2.537192e+00 1.886512e+00 -9.331580e-01 4.569567e-01 -2.344050e-01 1.608466e+00 -6.377553e-02 -6.475427e-02 6.021500e-02 -2.614463e-02 1.270555e-01 1.223478e-01 8.124848e-02 8.284419e-02 6.449292e-02 -2.731786e-02 6.383108e-02 -3.795827e-02 2.182451e-02 6.741586e-03 -1.425831e-03 -3.022879e-02 -1.076620e-02 -1.546248e-02 3.490209e-03 -2.813389e-02 -3.350700e-02 -2.518679e-03 1.124459e-02 -6.175289e-04 -4.567965e-03 -7.024890e-03 8.794677e-03
<VARIANCE> 39
 7.632400e+01 4.306710e+01 6.125343e+01 5.000262e+01 7.169002e+01 7.236906e+01 3.995370e+01 6.877583e+01 3.940433e+01 2.895981e+01 3.840795e+01 2.831344e+01 2.061836e+01 2.184117e+00 1.892538e+00 1.802951e+00 2.286031e+00 2.745860e+00 2.694907e+00 2.268526e+00 3.018095e+00 2.374995e+00 1.922643e+00 2.131373e+00 1.750657e+00 1.466123e+00 3.738331e-01 3.126728e-01 3.074042e-01 3.921959e-01 4.684660e-01 4.840387e-01 4.244122e-01 5.123825e-01 4.350428e-01 3.604089e-01 3.874800e-01 3.318886e-01 2.742995e-01
<GCONST> 1.188418e+02
<STATE> 3
<MEAN> 39
 -1.668310e+00 1.509400e+00 2.114292e+00 1.574182e+00 3.009344e-01 -2.956913e+00 -5.682691e-01 6.532446e-02 -1.418794e+00 -1.196462e-01 -2.238764e-01 8.293912e-01 3.411886e-02 -1.601044e-02 -2.478516e-01 -8.961172e-02 -3.273433e-01 -2.010583e-01 -1.713892e-01 -1.899075e-01 -1.378749e-01 1.324818e-01 -1.074949e-01 8.849448e-02 1.878539e-02 -8.224031e-02 8.995280e-02 -8.784314e-02 -1.063519e-01 -1.782967e-01 -1.583623e-01 1.437870e-01 -6.197950e-03 -8.130044e-02 1.359732e-01 -1.461046e-02 6.750881e-02 -1.020968e-01 -2.588637e-02
<VARIANCE> 39
 1.013287e+02 6.266352e+01 8.406924e+01 5.888730e+01 7.833047e+01 9.055943e+01 6.057782e+01 7.585678e+01 5.353053e+01 3.886692e+01 4.462708e+01 3.288125e+01 2.481457e+01 8.627604e+00 5.920732e+00 5.501404e+00 5.666204e+00 7.062417e+00 6.591856e+00 5.450205e+00 6.852190e+00 4.990834e+00 3.765367e+00 4.261418e+00 3.555175e+00 2.477878e+00 1.263901e+00 9.270120e-01 7.696601e-01 8.756914e-01 1.181991e+00 1.200669e+00 9.342541e-01 1.139973e+00 8.371533e-01 6.851938e-01 7.635028e-01 6.328819e-01 4.573546e-01
<GCONST> 1.438876e+02
<STATE> 4
<MEAN> 39
 2.935494e+00 -2.709325e+00 -2.551691e+00 -4.150162e+00 -2.402825e+00 1.592165e+00 -2.285933e+00 -2.230831e+00 2.275803e+00 -7.762319e-01 6.153597e-01 -2.795048e+00 1.724379e-02 3.068021e-02 1.153349e-01 1.012589e-01 1.181191e-01 2.613834e-02 1.713002e-02 6.265293e-02 3.201808e-02 -2.570441e-02 4.523159e-02 -2.098175e-03 -7.397048e-02 3.351418e-02 -8.933341e-02 9.568693e-02 9.740754e-02 1.659779e-01 1.365946e-01 -1.012205e-01 3.912869e-02 6.310423e-02 -1.298819e-01 1.918880e-02 -5.959208e-02 8.832768e-02 1.853223e-02
<VARIANCE> 39
 4.094691e+01 6.617099e+01 5.704806e+01 8.320690e+01 7.161751e+01 1.001426e+02 6.300559e+01 9.915418e+01 8.661761e+01 4.720280e+01 5.845657e+01 4.529797e+01 4.455910e+01 2.349259e+00 3.500890e+00 3.010576e+00 5.731191e+00 4.991791e+00 5.954310e+00 4.254923e+00 6.382313e+00 6.004721e+00 3.723211e+00 4.235577e+00 3.690609e+00 3.462033e+00 4.419293e-01 5.440133e-01 4.772878e-01 9.009025e-01 8.714836e-01 9.561971e-01 7.765006e-01 1.162971e+00 1.030148e+00 7.035645e-01 7.809104e-01 6.971041e-01 6.323811e-01
<GCONST> 1.404641e+02
<TRANSP> 5
 0.000000e+00 1.000000e+00 0.000000e+00 0.000000e+00 0.000000e+00
 0.000000e+00 7.106260e-01 2.893740e-01 0.000000e+00 0.000000e+00
 0.000000e+00 0.000000e+00 6.565393e-01 3.434607e-01 0.000000e+00
 0.000000e+00 0.000000e+00 0.000000e+00 7.114556e-01 2.885444e-01
 0.000000e+00 0.000000e+00 0.000000e+00 0.000000e+00 0.000000e+00
<ENDHMM>
~o
<STREAMINFO> 1 39
<VECSIZE> 39<NULLD><MFCC_D_A_Z><DIAGC>
~h "hq"
<BEGINHMM>
<NUMSTATES> 5
<STATE> 2
<MEAN> 39
 -3.070388e+00 1.428204e+00 3.902261e+00 4.297925e+00 3.723245e-01 -1.134937e+00 3.087156e+00 3.165637e+00 -1.036403e+00 1.191249e+00 7.035754e-01 1.724858e+00 -7.011240e-01 -2.769825e-02 2.703372e-02 -1.510543e-01 1.749987e-01 9.687069e-02 2.864326e-01 2.396887e-01 7.830035e-02 7.391231e-02 1.266855e-01 -1.123765e-02 9.467733e-02 4.150381e-02 -3.898372e-02 -6.046100e-02 -5.327378e-02 -3.091428e-02 2.836739e-02 1.014493e-02 -2.832874e-02 -5.879597e-02 -1.895387e-02 -1.529680e-02 1.225227e-02 -2.722147e-02 6.100081e-02
<VARIANCE> 39
 2.988658e+01 3.717095e+01 6.766806e+01 4.378515e+01 9.177754e+01 7.666985e+01 3.625602e+01 6.588883e+01 3.936189e+01 2.389054e+01 3.172059e+01 2.953513e+01 1.947988e+01 1.165441e+00 1.666912e+00 1.450747e+00 2.122317e+00 2.963052e+00 3.248518e+00 1.892644e+00 3.163871e+00 2.558137e+00 2.315933e+00 1.890152e+00 2.217894e+00 1.816003e+00 2.710523e-01 3.029294e-01 2.679030e-01 3.589548e-01 5.707659e-01 4.866021e-01 3.759447e-01 6.035212e-01 4.989127e-01 3.606843e-01 4.521548e-01 3.531974e-01 2.873655e-01
<GCONST> 1.172292e+02
<STATE> 3
<MEAN> 39
 -1.058629e+00 -6.253754e-01 2.478146e+00 1.482163e+00 -1.780173e+00 -4.582897e+00 -1.155089e+00 3.714402e-01 -2.152507e-01 2.172779e-01 7.635487e-01 1.082534e+00 -2.220823e-01 3.065580e-01 -5.023515e-01 -2.250054e-01 -3.003244e-01 -5.581339e-02 4.332342e-01 -3.801881e-01 -1.831956e-01 3.262061e-02 -1.198914e-01 -3.162280e-02 -2.294601e-01 -3.232716e-02 5.775450e-02 5.246219e-02 4.040474e-04 -4.884287e-02 -5.439426e-04 1.582086e-01 3.031245e-02 -9.178815e-02 -3.457844e-02 -2.351939e-02 -1.053377e-01 -1.682857e-01 -1.856970e-02
<VARIANCE> 39
 6.453383e+01 6.419715e+01 7.817834e+01 6.874024e+01 7.999803e+01 8.807514e+01 6.915729e+01 8.212953e+01 6.685660e+01 3.958329e+01 4.437046e+01 4.100865e+01 2.270503e+01 7.136848e+00 5.559132e+00 6.045491e+00 5.777605e+00 8.031721e+00 8.414173e+00 5.118149e+00 7.510679e+00 6.308940e+00 3.669010e+00 4.803013e+00 4.794409e+00 2.055380e+00 1.200684e+00 7.831834e-01 7.959613e-01 8.735036e-01 1.313565e+00 1.533578e+00 9.773391e-01 1.305410e+00 9.615814e-01 7.415315e-01 8.849109e-01 6.390240e-01 4.097600e-01
<GCONST> 1.454245e+02
<STATE> 4
<MEAN> 39
 3.361341e+00 -2.651622e+00 -2.730076e+00 -3.882550e+00 -2.887767e-01 3.385695e+00 -1.026568e+00 -1.794865e+00 2.595840e+00 -2.399186e+00 -2.012144e+00 -2.172453e+00 -2.207946e-02 -1.466747e-01 3.118525e-01 1.472268e-01 4.266414e-01 2.287436e-01 8.689901e-02 4.140216e-01 1.533777e-01 -3.275048e-01 8.830819e-03 -1.047617e-01 1.233692e-01 1.505150e-01 -1.139809e-01 3.258917e-02 8.165853e-02 1.137099e-02 -1.145508e-02 -1.596530e-01 3.963751e-02 1.300127e-01 -3.315133e-02 9.347337e-02 4.909974e-02 1.356034e-01 9.981011e-03
<VARIANCE> 39
 3.341327e+01 9.260397e+01 6.442577e+01 7.698682e+01 6.198257e+01 6.922218e+01 7.728440e+01 9.984767e+01 8.965744e+01 4.384882e+01 5.217060e+01 6.738976e+01 5.742609e+01 1.835369e+00 2.657118e+00 3.844314e+00 5.058820e+00 4.413532e+00 4.970094e+00 3.125701e+00 5.257224e+00 4.769955e+00 3.432908e+00 3.047949e+00 4.030018e+00 3.363834e+00 3.128207e-01 4.536776e-01 5.939184e-01 8.496389e-01 7.936947e-01 8.018926e-01 5.523892e-01 9.484499e-01 9.858417e-01 5.977413e-01 5.422534e-01 7.381549e-01 5.951706e-01
<GCONST> 1.372897e+02
<TRANSP> 5
 0.000000e+00 1.000000e+00 0.000000e+00 0.000000e+00 0.000000e+00
 0.000000e+00 7.357413e-01 2.642588e-01 0.000000e+00 0.000000e+00
 0.000000e+00 0.000000e+00 6.908470e-01 3.091530e-01 0.000000e+00
 0.000000e+00 0.000000e+00 0.000000e+00 7.466241e-01 2.533760e-01
 0.000000e+00 0.000000e+00 0.000000e+00 0.000000e+00 0.000000e+00
<ENDHMM>
~o
<STREAMINFO> 1 39
<VECSIZE> 39<NULLD><MFCC_D_A_Z><DIAGC>
~h "i"
<BEGINHMM>
<NUMSTATES> 5
<STATE> 2
<MEAN> 39
 -1.813255e+00 1.351132e+00 7.912900e-01 2.013643e+00 1.247600e+00 7.506394e-01 2.222913e+00 1.344007e+00 -7.413241e-01 2.360100e-01 -9.664676e-02 1.226926e+00 -6.186590e-02 -4.445521e-02 7.455418e-03 -8.634588e-02 6.637627e-02 1.088539e-01 1.055994e-01 5.731697e-02 6.186383e-02 -2.088941e-02 5.945552e-02 -4.971947e-02 -1.598863e-02 1.008687e-02 1.280392e-02 -3.697563e-02 -2.597788e-02 -2.436093e-02 -7.675128e-03 -2.659186e-02 -4.772815e-02 1.194622e-03 1.445785e-02 -6.836861e-05 -9.162772e-03 -1.305421e-02 1.127898e-02
<VARIANCE> 39
 7.488057e+01 4.791274e+01 6.635497e+01 5.706295e+01 7.889256e+01 8.031947e+01 4.451740e+01 7.646714e+01 4.545492e+01 3.213134e+01 4.278071e+01 3.029684e+01 2.375006e+01 2.329275e+00 2.154282e+00 2.069783e+00 2.533307e+00 3.110640e+00 3.054834e+00 2.670893e+00 3.429287e+00 2.786925e+00 2.153535e+00 2.341408e+00 1.959604e+00 1.683364e+00 4.059826e-01 3.557072e-01 3.432879e-01 4.504589e-01 5.496377e-01 5.475869e-01 4.824994e-01 6.032618e-01 4.984547e-01 4.062290e-01 4.391001e-01 3.734407e-01 3.130307e-01
<GCONST> 1.233792e+02
<STATE> 3
<MEAN> 39
 2.653631e+00 -2.282903e+00 -2.991447e+00 -3.459925e+00 -1.286414e+00 1.967202e+00 -2.487504e+00 -2.287371e+00 1.867648e+00 -1.095976e-01 7.729018e-02 -2.532337e+00 2.172106e-01 1.130382e-01 4.969441e-02 4.232549e-02 5.208958e-02 1.071898e-02 -5.531891e-02 -1.022373e-01 2.943543e-02 1.033514e-02 6.738921e-03 -3.883023e-02 -5.699802e-02 1.130131e-01 -8.003697e-02 1.023954e-01 1.309376e-01 1.010644e-01 5.807689e-02 -9.831612e-02 8.555993e-02 5.327009e-02 -9.004539e-02 -2.357512e-02 -5.904845e-03 9.885525e-02 -1.072508e-02
<VARIANCE> 39
 4.726182e+01 6.571529e+01 5.690647e+01 8.489305e+01 6.853831e+01 8.711396e+01 7.002257e+01 1.009553e+02 9.117751e+01 4.688563e+01 5.476859e+01 4.607400e+01 4.400795e+01 3.083015e+00 4.013352e+00 3.750267e+00 6.320533e+00 5.581363e+00 6.335340e+00 4.901798e+00 6.846464e+00 6.526318e+00 3.898656e+00 4.371429e+00 3.934371e+00 3.487914e+00 5.429642e-01 6.191912e-01 5.696897e-01 9.818614e-01 9.799795e-01 1.017851e+00 8.940712e-01 1.226669e+00 1.121249e+00 7.431895e-01 8.091981e-01 7.226616e-01 6.491441e-01
<GCONST> 1.430959e+02
<STATE> 4
<MEAN> 39
 -1.876334e+00 1.055582e+00 2.598179e+00 1.318958e+00 -6.633682e-01 -3.572801e+00 -2.089752e-01 2.111446e-01 -1.153807e+00 -5.892497e-01 3.870670e-01 7.794713e-01 -1.126496e-01 -1.135935e-01 -5.381161e-02 6.637473e-02 -1.367052e-01 -1.616064e-01 -9.456776e-02 2.330928e-02 -9.995122e-02 -3.706272e-02 -1.004476e-01 1.123042e-01 9.455489e-02 -9.650609e-02 8.157277e-02 -7.401817e-02 -1.096718e-01 -9.858680e-02 -6.263407e-02 1.384067e-01 -4.623831e-02 -7.133187e-02 8.524264e-02 2.580240e-02 1.347493e-02 -9.493910e-02 -3.827884e-03
<VARIANCE> 39
 9.898416e+01 6.173129e+01 8.171599e+01 5.770904e+01 8.392659e+01 9.655172e+01 5.536586e+01 7.830081e+01 5.573111e+01 3.858088e+01 4.758255e+01 3.311554e+01 2.567241e+01 7.577219e+00 5.113682e+00 4.715325e+00 4.558770e+00 6.445001e+00 5.897848e+00 4.782103e+00 6.274748e+00 4.601770e+00 3.464598e+00 4.064852e+00 3.187526e+00 2.371866e+00 1.110696e+00 8.247116e-01 6.757507e-01 7.749953e-01 1.117211e+00 1.053831e+00 7.986320e-01 1.039241e+00 8.026810e-01 6.258379e-01 7.286890e-01 5.733092e-01 4.284992e-01
<GCONST> 1.413015e+02
<TRANSP> 5
 0.000000e+00 1.000000e+00 0.000000e+00 0.000000e+00 0.000000e+00
 0.000000e+00 6.467804e-01 3.532196e-01 0.000000e+00 0.000000e+00
 0.000000e+00 0.000000e+00 6.341805e-01 3.658195e-01 0.000000e+00
 0.000000e+00 0.000000e+00 0.000000e+00 5.682059e-01 4.317942e-01
 0.000000e+00 0.000000e+00 0.000000e+00 0.000000e+00 0.000000e+00
<ENDHMM>
~o
<STREAMINFO> 1 39
<VECSIZE> 39<NULLD><MFCC_D_A_Z><DIAGC>
~h "ii"
<BEGINHMM>
<NUMSTATES> 5
<STATE> 2
<MEAN> 39
 -2.179235e+00 1.556163e+00 1.883874e-01 1.875496e+00 2.044499e+00 9.112532e-01 2.519143e+00 1.930070e+00 -5.932127e-01 5.490277e-01 -7.607984e-01 1.384951e+00 -1.094900e-01 -2.077839e-01 1.362312e-02 -6.267715e-02 1.084554e-01 1.021243e-01 5.558877e-02 1.156713e-01 9.516504e-02 -1.650164e-03 3.696882e-02 -5.836881e-02 7.541431e-02 -3.189174e-02 7.723127e-03 -5.771907e-02 2.246454e-03 -2.062513e-02 -3.092541e-02 -4.012857e-02 -5.626446e-02 -4.843147e-02 -1.618626e-02 -2.060948e-02 3.180838e-02 -1.402132e-02 1.139061e-02
<VARIANCE> 39
 9.330167e+01 4.955093e+01 6.114742e+01 5.586707e+01 7.298457e+01 7.307765e+01 4.207111e+01 6.986170e+01 4.229802e+01 2.996482e+01 4.010978e+01 3.101858e+01 2.389846e+01 2.821392e+00 2.183475e+00 2.055379e+00 2.562196e+00 3.060961e+00 3.104765e+00 2.543456e+00 3.297024e+00 2.639963e+00 2.110377e+00 2.298853e+00 1.970277e+00 1.576322e+00 4.744056e-01 3.900738e-01 3.355951e-01 4.412871e-01 5.371775e-01 5.278279e-01 4.747030e-01 5.792306e-01 4.777229e-01 3.885339e-01 4.337606e-01 3.709053e-01 2.929621e-01
<GCONST> 1.229183e+02
<STATE> 3
<MEAN> 39
 -1.475851e+00 8.768099e-01 2.880710e+00 1.532352e+00 -1.497099e+00 -4.411429e+00 -9.908788e-01 -3.030078e-01 -1.855703e+00 -8.782543e-01 5.239742e-01 7.512902e-01 -4.840870e-01 1.122976e-01 -2.619644e-01 -7.843748e-02 -3.021338e-01 -2.445451e-01 -1.249999e-01 -1.977527e-01 -2.269076e-01 5.723820e-02 -1.755615e-01 1.408682e-01 -2.828298e-02 -4.853245e-02 8.470090e-02 -3.836225e-02 -1.161269e-01 -1.292950e-01 -6.087143e-02 1.818578e-01 2.118091e-02 -6.850082e-02 1.251648e-01 1.082606e-02 1.243220e-02 -1.047661e-01 7.251155e-03
<VARIANCE> 39
 8.970315e+01 6.020344e+01 8.565584e+01 5.794984e+01 8.777184e+01 9.250691e+01 5.706599e+01 8.238566e+01 5.640569e+01 4.224600e+01 4.775107e+01 3.119009e+01 2.615890e+01 8.332772e+00 5.929096e+00 5.636044e+00 5.482916e+00 7.632360e+00 6.366250e+00 5.382133e+00 7.189197e+00 4.957714e+00 3.915224e+00 4.522540e+00 3.444589e+00 2.600798e+00 1.198461e+00 9.336457e-01 8.066133e-01 8.533716e-01 1.297642e+00 1.078494e+00 9.025690e-01 1.224012e+00 8.215827e-01 7.134454e-01 8.140388e-01 6.057220e-01 4.541863e-01
<GCONST> 1.442670e+02
<STATE> 4
<MEAN> 39
 3.063048e+00 -2.874077e+00 -2.923751e+00 -4.366152e+00 -2.031446e+00 2.098378e+00 -2.484076e+00 -3.062809e+00 1.859071e+00 -9.563009e-01 2.519897e-01 -3.026688e+00 2.233380e-01 1.158525e-01 1.395924e-01 6.187736e-02 9.654237e-02 3.117499e-02 1.044661e-01 7.034958e-02 -1.045454e-01 -4.232924e-02 4.323397e-02 4.267477e-03 -9.803370e-02 4.745057e-02 -8.385719e-02 9.268241e-02 1.081616e-01 1.533234e-01 1.083804e-01 -1.181134e-01 4.587331e-02 9.914508e-02 -8.903328e-02 2.429696e-02 -4.872036e-02 9.065428e-02 -1.068107e-02
<VARIANCE> 39
 4.202348e+01 6.939600e+01 5.681048e+01 8.213515e+01 6.788056e+01 9.348063e+01 6.790569e+01 1.065203e+02 9.201009e+01 4.809676e+01 5.918378e+01 4.604659e+01 4.657983e+01 2.304409e+00 3.468599e+00 3.090621e+00 5.441891e+00 5.026421e+00 5.645270e+00 4.672288e+00 6.771119e+00 5.860857e+00 3.662098e+00 4.300053e+00 3.689360e+00 3.344595e+00 4.530905e-01 5.492283e-01 5.065193e-01 8.992060e-01 8.870655e-01 9.171407e-01 8.413725e-01 1.176326e+00 1.043269e+00 6.868762e-01 7.877959e-01 6.822029e-01 6.181516e-01
<GCONST> 1.408014e+02
<TRANSP> 5
 0.000000e+00 1.000000e+00 0.000000e+00 0.000000e+00 0.000000e+00
 0.000000e+00 7.130072e-01 2.869928e-01 0.000000e+00 0.000000e+00
 0.000000e+00 0.000000e+00 6.662599e-01 3.337401e-01 0.000000e+00
 0.000000e+00 0.000000e+00 0.000000e+00 7.016047e-01 2.983954e-01
 0.000000e+00 0.000000e+00 0.000000e+00 0.000000e+00 0.000000e+00
<ENDHMM>
~o
<STREAMINFO> 1 39
<VECSIZE> 39<NULLD><MFCC_D_A_Z><DIAGC>
~h "j"
<BEGINHMM>
<NUMSTATES> 5
<STATE> 2
<MEAN> 39
 -2.259504e+00 1.835731e+00 7.116780e-02 3.320248e+00 3.273139e+00 2.026764e+00 3.225589e+00 2.856063e+00 -1.129714e+00 1.014814e+00 -6.810305e-01 2.152702e+00 -5.573222e-02 -1.540219e-01 3.238955e-04 -9.078106e-02 7.318056e-02 1.387361e-01 4.291417e-02 6.119971e-02 8.551461e-02 -2.991069e-02 5.238482e-02 -6.617676e-02 2.368120e-02 3.543914e-03 -4.420593e-03 -3.857219e-02 5.628097e-03 -3.032633e-02 -3.900543e-02 -4.542158e-02 -3.947383e-02 -2.616932e-02 2.005565e-02 -1.772406e-02 1.964423e-03 -1.585452e-02 -2.622566e-03
<VARIANCE> 39
 8.333716e+01 3.694870e+01 5.383793e+01 4.260058e+01 5.819061e+01 5.930377e+01 3.459882e+01 5.776014e+01 3.593826e+01 2.581277e+01 3.247625e+01 2.414898e+01 1.821103e+01 2.202494e+00 1.688568e+00 1.754171e+00 1.956052e+00 2.464181e+00 2.436204e+00 2.143586e+00 2.792969e+00 2.213277e+00 1.887362e+00 1.843393e+00 1.636273e+00 1.362806e+00 3.725874e-01 3.059058e-01 3.056034e-01 3.707149e-01 4.381261e-01 4.454074e-01 4.021627e-01 4.908485e-01 4.114738e-01 3.448258e-01 3.359113e-01 3.095262e-01 2.620915e-01
<GCONST> 1.154035e+02
<STATE> 3
<MEAN> 39
 -1.400968e+00 9.981877e-01 1.584024e+00 1.098636e+00 2.854875e-01 -2.958549e+00 -1.106446e+00 -1.523144e-02 -1.212278e+00 1.190850e-01 -3.724155e-01 7.044279e-01 1.707243e-01 2.180345e-01 -2.088731e-01 4.770945e-02 -3.918941e-01 -4.865140e-01 -2.034548e-01 -2.974032e-01 -2.926892e-01 2.031274e-01 -2.101696e-01 1.824227e-01 -4.048713e-02 -1.016907e-01 1.065793e-01 -4.460995e-02 -5.798591e-02 -1.221423e-01 -1.536632e-01 1.547412e-01 3.053127e-02 -4.881457e-02 1.166213e-01 -3.482506e-02 8.818467e-02 -8.976228e-02 -2.273060e-02
<VARIANCE> 39
 1.020515e+02 6.395285e+01 8.191826e+01 6.327394e+01 7.688651e+01 8.674592e+01 6.664636e+01 8.104459e+01 6.225971e+01 4.121720e+01 4.427659e+01 3.425711e+01 2.694036e+01 9.035499e+00 6.320613e+00 6.085326e+00 6.333323e+00 7.964396e+00 6.785377e+00 5.797368e+00 7.888958e+00 5.853023e+00 4.238791e+00 4.586465e+00 3.764891e+00 2.777447e+00 1.381253e+00 9.972057e-01 8.831117e-01 9.997388e-01 1.297395e+00 1.195447e+00 9.993688e-01 1.315323e+00 9.932978e-01 7.702941e-01 7.958794e-01 6.623418e-01 4.919574e-01
<GCONST> 1.467634e+02
<STATE> 4
<MEAN> 39
 2.863349e+00 -2.251461e+00 -1.167966e+00 -4.012198e+00 -3.377096e+00 4.870496e-01 -2.196899e+00 -2.558006e+00 1.413524e+00 -1.590757e+00 7.938221e-01 -2.779512e+00 3.063988e-02 2.246840e-02 1.633657e-01 7.226635e-02 1.905326e-01 1.357039e-01 6.280107e-02 1.187212e-01 5.229590e-02 -7.601648e-02 8.183289e-02 -5.170840e-02 -4.826231e-02 9.629622e-02 -8.679829e-02 6.623268e-02 3.637128e-02 1.341239e-01 1.593821e-01 -7.918289e-02 2.552938e-02 7.520827e-02 -9.511639e-02 4.335008e-02 -6.100713e-02 8.674798e-02 1.142449e-02
<VARIANCE> 39
 3.437547e+01 7.125041e+01 7.263992e+01 8.019541e+01 7.616026e+01 1.105356e+02 6.249458e+01 9.708151e+01 9.085400e+01 4.575383e+01 6.181072e+01 4.376780e+01 4.521091e+01 1.936077e+00 3.064206e+00 2.656352e+00 4.754407e+00 4.616676e+00 5.284639e+00 3.994493e+00 5.391973e+00 5.590943e+00 3.361928e+00 3.973211e+00 3.370285e+00 3.221995e+00 3.676409e-01 4.820725e-01 4.340298e-01 7.870328e-01 8.536345e-01 8.707021e-01 7.132303e-01 9.973618e-01 9.734913e-01 6.499713e-01 7.461624e-01 6.309443e-01 5.963780e-01
<GCONST> 1.380557e+02
<TRANSP> 5
 0.000000e+00 1.000000e+00 0.000000e+00 0.000000e+00 0.000000e+00
 0.000000e+00 7.706605e-01 2.293395e-01 0.000000e+00 0.000000e+00
 0.000000e+00 0.000000e+00 7.581916e-01 2.418084e-01 0.000000e+00
 0.000000e+00 0.000000e+00 0.000000e+00 8.121316e-01 1.878685e-01
 0.000000e+00 0.000000e+00 0.000000e+00 0.000000e+00 0.000000e+00
<ENDHMM>
~o
<STREAMINFO> 1 39
<VECSIZE> 39<NULLD><MFCC_D_A_Z><DIAGC>
~h "jh"
<BEGINHMM>
<NUMSTATES> 5
<STATE> 2
<MEAN> 39
 3.099827e+00 -1.636266e+00 -3.223076e+00 -3.276279e+00 -1.063351e+00 2.924184e+00 -2.796949e+00 -2.570352e+00 1.496095e+00 7.089504e-02 3.027458e-01 -2.368896e+00 6.585152e-01 8.319549e-02 1.221114e-01 1.199061e-01 1.230818e-01 -4.225041e-02 -1.028162e-01 -3.332838e-02 3.705358e-02 6.695624e-02 2.344061e-03 -4.579563e-02 5.053260e-03 -3.845312e-02 -8.665959e-02 5.296429e-02 7.194468e-02 3.433427e-02 2.089475e-02 -5.837667e-02 7.089160e-02 5.566278e-02 -4.710655e-02 -4.435117e-02 -9.471680e-03 5.427500e-02 -2.033857e-02
<VARIANCE> 39
 3.949397e+01 7.202280e+01 4.862227e+01 8.350392e+01 7.534383e+01 9.232861e+01 6.550161e+01 1.001380e+02 9.074469e+01 4.848979e+01 5.201210e+01 4.329624e+01 4.664488e+01 3.290165e+00 4.130793e+00 3.651240e+00 6.533302e+00 5.615406e+00 6.383488e+00 4.692047e+00 7.276110e+00 6.476453e+00 3.886214e+00 4.248501e+00 3.932550e+00 3.677602e+00 5.307648e-01 6.372590e-01 5.911298e-01 1.024514e+00 1.038095e+00 1.099046e+00 8.749002e-01 1.286598e+00 1.089193e+00 7.428940e-01 7.915320e-01 7.258980e-01 6.752741e-01
<GCONST> 1.432678e+02
<STATE> 3
<MEAN> 39
 -4.005538e+00 2.275104e+00 5.072356e+00 2.049412e+00 -2.310910e+00 -4.856561e+00 2.221630e-01 -1.875115e-01 -1.235934e+00 -1.220444e+00 1.262435e+00 9.409041e-01 -1.087662e+00 -1.128699e-01 -1.536932e-01 -1.867533e-02 -1.636810e-01 -1.230667e-01 8.004497e-03 2.579875e-02 -8.028051e-02 -5.489748e-02 -1.326143e-01 8.588342e-02 -3.179467e-02 -1.141993e-01 1.178456e-01 -8.809783e-02 -1.353590e-01 -3.242156e-02 -1.683944e-02 8.706673e-02 -7.631531e-02 -1.042452e-02 6.571629e-02 3.864878e-02 -4.890359e-03 -5.059183e-02 2.971548e-02
<VARIANCE> 39
 1.058537e+02 6.044054e+01 9.193709e+01 5.354052e+01 8.842288e+01 8.742217e+01 5.421552e+01 7.196988e+01 4.490512e+01 3.988619e+01 4.442302e+01 2.673380e+01 2.367386e+01 7.473839e+00 4.445184e+00 3.911750e+00 3.489982e+00 5.871175e+00 5.103888e+00 4.145326e+00 5.072651e+00 3.521538e+00 2.952578e+00 2.955450e+00 2.533249e+00 2.041973e+00 1.108341e+00 7.005608e-01 5.726739e-01 6.520203e-01 9.985873e-01 9.264545e-01 7.130197e-01 8.526331e-01 6.358268e-01 5.081475e-01 5.568987e-01 4.758123e-01 3.535738e-01
<GCONST> 1.362197e+02
<STATE> 4
<MEAN> 39
 -4.662077e-01 1.321581e+00 -1.146292e+00 3.788840e+00 4.857877e+00 3.295359e+00 3.711449e+00 4.837532e+00 -1.073922e+00 1.644849e+00 -1.281858e+00 2.174414e+00 -1.075350e-01 -7.896544e-02 1.613626e-02 -2.482932e-02 7.104313e-02 -2.831809e-03 1.840170e-02 -1.266531e-02 9.471965e-04 -1.209281e-02 1.265921e-02 8.098021e-03 1.337983e-02 6.434188e-02 -1.841524e-02 -1.004637e-02 6.000019e-03 -1.759795e-02 -3.045473e-03 -1.032314e-02 4.130599e-03 -3.319136e-02 7.528456e-03 5.570501e-03 -3.971024e-03 7.378155e-03 5.170408e-03
<VARIANCE> 39
 6.603492e+01 2.480681e+01 2.500679e+01 3.431879e+01 4.211604e+01 4.579747e+01 2.948773e+01 4.012912e+01 2.607262e+01 2.023047e+01 2.017809e+01 1.955229e+01 1.490922e+01 1.646900e+00 1.175452e+00 1.048241e+00 1.542793e+00 2.042156e+00 1.893994e+00 1.457976e+00 1.922989e+00 1.840123e+00 1.288005e+00 1.400052e+00 1.347690e+00 1.189998e+00 2.975549e-01 2.092332e-01 1.926427e-01 2.583187e-01 3.361712e-01 3.500805e-01 2.900311e-01 3.883498e-01 3.094783e-01 2.465619e-01 2.669663e-01 2.484580e-01 2.140706e-01
<GCONST> 1.036906e+02
<TRANSP> 5
 0.000000e+00 1.000000e+00 0.000000e+00 0.000000e+00 0.000000e+00
 0.000000e+00 8.803350e-01 1.196650e-01 0.000000e+00 0.000000e+00
 0.000000e+00 0.000000e+00 8.347755e-01 1.652245e-01 0.000000e+00
 0.000000e+00 0.000000e+00 0.000000e+00 7.892223e-01 2.107777e-01
 0.000000e+00 0.000000e+00 0.000000e+00 0.000000e+00 0.000000e+00
<ENDHMM>
~o
<STREAMINFO> 1 39
<VECSIZE> 39<NULLD><MFCC_D_A_Z><DIAGC>
~h "k"
<BEGINHMM>
<NUMSTATES> 5
<STATE> 2
<MEAN> 39
 -1.547138e+00 1.395567e+00 1.144925e+00 1.883186e+00 8.955013e-01 5.900689e-01 2.170583e+00 1.112271e+00 -9.380450e-01 2.096930e-01 4.557634e-02 1.208052e+00 -1.892287e-01 -5.179570e-02 9.395729e-02 -3.590535e-02 1.821443e-01 2.044526e-01 1.245590e-01 1.389252e-01 1.075681e-01 -2.772467e-02 1.012237e-01 -5.106444e-02 7.110588e-03 -9.670556e-03 -1.811133e-02 -3.309923e-02 -3.566266e-02 -2.790885e-03 2.405607e-02 -2.326395e-02 -2.871577e-02 2.853973e-02 1.559311e-02 -5.350191e-03 -2.037156e-02 -8.322590e-03 1.010077e-02
<VARIANCE> 39
 6.817726e+01 4.757924e+01 6.936922e+01 5.737850e+01 7.949480e+01 8.554089e+01 4.383942e+01 7.915249e+01 4.494387e+01 3.328297e+01 4.492466e+01 2.942893e+01 2.374695e+01 2.050642e+00 1.980621e+00 1.964314e+00 2.321791e+00 2.998820e+00 2.874428e+00 2.477052e+00 3.362153e+00 2.577709e+00 2.063424e+00 2.282794e+00 1.855886e+00 1.568103e+00 3.607518e-01 3.430129e-01 3.286882e-01 4.155530e-01 5.298793e-01 5.222285e-01 4.550031e-01 5.867898e-01 4.663902e-01 3.957649e-01 4.228904e-01 3.534078e-01 2.937208e-01
<GCONST> 1.219488e+02
<STATE> 3
<MEAN> 39
 -2.559073e+00 1.284247e+00 6.426150e-01 1.294710e+00 1.856861e+00 -1.844001e+00 9.786741e-02 8.191284e-01 -1.040718e+00 6.472580e-01 -9.799950e-01 1.024091e+00 3.544003e-02 -9.695768e-03 -2.733144e-01 -5.494879e-02 -3.284092e-01 -2.878403e-01 -2.136681e-01 -2.463547e-01 -2.221169e-01 1.004107e-01 -2.158592e-01 7.315543e-02 4.344733e-02 -6.685890e-02 1.542037e-01 -6.497911e-02 -3.051038e-02 -1.743034e-01 -2.599924e-01 9.389669e-02 -6.118037e-02 -1.470321e-01 1.044718e-01 -5.947838e-02 1.306874e-01 -1.062233e-01 -2.032286e-02
<VARIANCE> 39
 1.182263e+02 6.483658e+01 7.822935e+01 6.074234e+01 6.845763e+01 8.392801e+01 5.692025e+01 6.862775e+01 5.563988e+01 3.678159e+01 3.964611e+01 3.435719e+01 2.467999e+01 9.713747e+00 6.036219e+00 5.626546e+00 5.690877e+00 7.159295e+00 6.650430e+00 4.991868e+00 6.746899e+00 4.909333e+00 3.732785e+00 4.055143e+00 3.673233e+00 2.568018e+00 1.379393e+00 9.648994e-01 8.189082e-01 8.650593e-01 1.142507e+00 1.164292e+00 8.586066e-01 1.054801e+00 8.653283e-01 6.619450e-01 7.134358e-01 6.404853e-01 4.579560e-01
<GCONST> 1.435373e+02
<STATE> 4
<MEAN> 39
 2.775777e+00 -2.464722e+00 -1.497915e+00 -3.301521e+00 -3.102300e+00 3.760823e-01 -2.948612e+00 -2.514510e+00 1.845634e+00 -1.121405e+00 9.862281e-01 -2.585326e+00 4.735676e-02 3.930780e-02 1.100523e-01 1.138530e-01 7.883915e-02 -1.009258e-02 5.792056e-02 6.078347e-02 6.404603e-02 -2.740788e-02 2.085587e-02 1.483900e-02 -7.286301e-02 6.789760e-02 -9.660359e-02 8.358281e-02 5.186664e-02 1.199396e-01 1.568049e-01 -5.015855e-02 7.333248e-02 8.029359e-02 -9.428723e-02 3.753048e-02 -7.514247e-02 8.359880e-02 1.167761e-02
<VARIANCE> 39
 3.733068e+01 6.559448e+01 6.969036e+01 8.037172e+01 7.128819e+01 1.059190e+02 6.928798e+01 1.016952e+02 8.999957e+01 4.699319e+01 5.943479e+01 4.481607e+01 4.356440e+01 2.273927e+00 3.510368e+00 3.288308e+00 5.364607e+00 5.286084e+00 5.948373e+00 5.023626e+00 6.572504e+00 6.211298e+00 3.726426e+00 4.421525e+00 3.731696e+00 3.436564e+00 4.153906e-01 5.553489e-01 5.024583e-01 8.914471e-01 9.482276e-01 9.915734e-01 8.974813e-01 1.205916e+00 1.045081e+00 7.044281e-01 8.154557e-01 6.924671e-01 6.350259e-01
<GCONST> 1.414004e+02
<TRANSP> 5
 0.000000e+00 1.000000e+00 0.000000e+00 0.000000e+00 0.000000e+00
 0.000000e+00 7.256410e-01 2.743591e-01 0.000000e+00 0.000000e+00
 0.000000e+00 0.000000e+00 6.311459e-01 3.688541e-01 0.000000e+00
 0.000000e+00 0.000000e+00 0.000000e+00 7.372340e-01 2.627660e-01
 0.000000e+00 0.000000e+00 0.000000e+00 0.000000e+00 0.000000e+00
<ENDHMM>
~o
<STREAMINFO> 1 39
<VECSIZE> 39<NULLD><MFCC_D_A_Z><DIAGC>
~h "kh"
<BEGINHMM>
<NUMSTATES> 5
<STATE> 2
<MEAN> 39
 -1.660024e+00 1.398524e+00 3.639187e-01 1.914345e+00 2.366942e+00 1.951880e+00 2.939550e+00 2.042833e+00 -6.368550e-01 6.781096e-01 -7.072431e-01 1.128999e+00 7.748756e-02 -1.623622e-02 3.012081e-02 -6.909403e-02 1.431148e-01 2.001170e-01 5.381553e-02 8.967676e-02 1.129877e-01 -4.003595e-02 6.685153e-02 -8.500969e-02 2.310805e-03 1.605780e-02 -4.257792e-03 -3.148780e-02 -2.160077e-02 -1.073072e-02 -1.714059e-02 -4.494251e-02 -5.670653e-02 -1.473977e-02 2.361299e-03 -1.297477e-02 9.862884e-03 6.259568e-03 4.060084e-03
<VARIANCE> 39
 6.552722e+01 4.789239e+01 6.229707e+01 5.603867e+01 6.773746e+01 6.767561e+01 4.062868e+01 6.876769e+01 4.431038e+01 2.988441e+01 4.116823e+01 3.052504e+01 2.266762e+01 1.774458e+00 1.839054e+00 1.805934e+00 2.149384e+00 2.575305e+00 2.620331e+00 2.405921e+00 2.751482e+00 2.376006e+00 2.028002e+00 2.069382e+00 1.804258e+00 1.505401e+00 3.331048e-01 2.934782e-01 2.939701e-01 3.950771e-01 4.574134e-01 4.550900e-01 4.372682e-01 5.064685e-01 4.474670e-01 3.827717e-01 3.830010e-01 3.447072e-01 2.819509e-01
<GCONST> 1.187247e+02
<STATE> 3
<MEAN> 39
 3.039190e+00 -2.864311e+00 -3.524907e+00 -4.423851e+00 -7.076944e-01 2.508040e+00 -3.160762e+00 -1.830327e+00 2.304638e+00 2.619211e-02 4.638457e-02 -3.247845e+00 4.771189e-01 1.187334e-01 2.542027e-02 3.601129e-02 9.158358e-03 -5.268149e-02 -1.125656e-01 -1.677333e-01 4.079844e-03 2.941407e-02 4.571902e-02 -2.285016e-03 -6.593945e-03 6.305604e-02 -7.376024e-02 1.163947e-01 1.215684e-01 1.038409e-01 1.297824e-02 -6.429538e-02 9.718397e-02 9.304044e-03 -8.784291e-02 -2.404082e-02 1.500112e-02 8.561905e-02 -1.794045e-02
<VARIANCE> 39
 3.680219e+01 6.553972e+01 4.928355e+01 7.888358e+01 6.568988e+01 8.418400e+01 7.000275e+01 9.490070e+01 9.071679e+01 4.855149e+01 5.654211e+01 4.619946e+01 4.426190e+01 3.238859e+00 4.403550e+00 3.968315e+00 6.630924e+00 5.614101e+00 6.760171e+00 5.070711e+00 7.089067e+00 7.147678e+00 4.307735e+00 4.548508e+00 4.285108e+00 3.702557e+00 5.269032e-01 6.404992e-01 5.965036e-01 1.016605e+00 9.973670e-01 1.118288e+00 9.107669e-01 1.285600e+00 1.215858e+00 8.076758e-01 8.305814e-01 7.821465e-01 6.806887e-01
<GCONST> 1.438973e+02
<STATE> 4
<MEAN> 39
 -2.590331e+00 1.940254e+00 4.734432e+00 2.391881e+00 -2.026196e+00 -5.449055e+00 -2.710214e-01 -4.039859e-01 -2.073945e+00 -1.060092e+00 1.096418e+00 9.147527e-01 -2.703283e-01 -1.952304e-01 1.375245e-02 4.675777e-02 -1.000284e-02 -4.927854e-02 4.039016e-02 1.306499e-01 -7.342112e-02 -8.854133e-02 -7.057700e-02 1.402044e-01 6.707592e-02 -9.778726e-02 8.790869e-02 -1.001610e-01 -1.401464e-01 -1.183183e-01 -9.405006e-03 1.425283e-01 -7.464714e-02 -1.356592e-02 1.039846e-01 4.619960e-02 -1.323068e-02 -1.004609e-01 1.317478e-02
<VARIANCE> 39
 9.879915e+01 5.777275e+01 8.237521e+01 4.675929e+01 8.817035e+01 8.691407e+01 5.884955e+01 8.321793e+01 4.792382e+01 3.796313e+01 5.009668e+01 2.931079e+01 2.402687e+01 7.062902e+00 4.604413e+00 4.627839e+00 3.926779e+00 6.032169e+00 5.356163e+00 4.928368e+00 6.261296e+00 4.107255e+00 3.252512e+00 3.657379e+00 2.861838e+00 2.184448e+00 1.054994e+00 7.702011e-01 6.654637e-01 6.807904e-01 1.046011e+00 9.601927e-01 8.065665e-01 1.033860e+00 7.185579e-01 6.024421e-01 6.785200e-01 5.267556e-01 4.010373e-01
<GCONST> 1.390528e+02
<TRANSP> 5
 0.000000e+00 1.000000e+00 0.000000e+00 0.000000e+00 0.000000e+00
 0.000000e+00 7.722029e-01 2.277971e-01 0.000000e+00 0.000000e+00
 0.000000e+00 0.000000e+00 8.106011e-01 1.893990e-01 0.000000e+00
 0.000000e+00 0.000000e+00 0.000000e+00 7.692937e-01 2.307064e-01
 0.000000e+00 0.000000e+00 0.000000e+00 0.000000e+00 0.000000e+00
<ENDHMM>
~o
<STREAMINFO> 1 39
<VECSIZE> 39<NULLD><MFCC_D_A_Z><DIAGC>
~h "l"
<BEGINHMM>
<NUMSTATES> 5
<STATE> 2
<MEAN> 39
 1.748390e+00 -1.983653e+00 -1.900901e+00 -2.448845e+00 -6.847335e-01 5.302098e-01 -2.545356e+00 -1.189707e+00 1.670831e+00 1.091213e-01 -2.510926e-02 -1.909776e+00 1.329940e-01 1.395152e-01 -9.584323e-02 5.955243e-02 -1.281635e-01 -2.230534e-01 -1.632684e-01 -1.633420e-01 -8.585688e-02 1.155546e-01 -1.233416e-01 6.188589e-02 -7.526486e-03 -1.143778e-02 -3.168746e-02 7.429307e-02 8.446773e-02 4.146855e-02 -4.257802e-02 -1.407875e-02 6.907785e-02 -2.246403e-02 -4.910966e-02 -3.757814e-02 4.997876e-02 3.286035e-02 -1.554662e-02
<VARIANCE> 39
 6.320132e+01 6.725542e+01 6.344276e+01 8.142036e+01 6.795514e+01 8.958978e+01 7.234772e+01 9.251681e+01 8.789847e+01 4.547533e+01 5.305424e+01 4.739964e+01 3.788637e+01 4.887716e+00 4.983364e+00 4.660992e+00 6.612283e+00 6.316939e+00 7.038187e+00 5.619117e+00 7.516082e+00 7.047300e+00 4.202459e+00 4.708073e+00 4.253202e+00 3.600179e+00 7.822087e-01 7.633415e-01 6.715100e-01 1.054868e+00 1.109591e+00 1.159574e+00 1.002532e+00 1.280200e+00 1.214254e+00 7.733427e-01 8.612179e-01 7.870852e-01 6.520526e-01
<GCONST> 1.464494e+02
<STATE> 3
<MEAN> 39
 1.990463e-01 1.536980e+00 5.061232e+00 6.738210e-01 -5.304871e+00 -4.576139e+00 -5.991618e-01 -2.790390e+00 -1.899717e+00 -1.836320e+00 2.665314e+00 5.004520e-03 -2.833512e-01 5.261839e-03 3.585374e-01 2.029207e-02 1.989000e-01 3.354062e-01 3.118023e-01 2.233894e-01 8.708175e-02 -7.875323e-02 1.823380e-01 -8.772134e-02 -1.541418e-02 -5.335006e-03 -5.922369e-02 -6.641666e-02 -1.728413e-01 4.081903e-03 2.413631e-01 1.350664e-01 1.783560e-02 1.526419e-01 7.644153e-02 9.678638e-02 -1.258505e-01 -2.677695e-02 2.621590e-02
<VARIANCE> 39
 4.213250e+01 5.697083e+01 9.004516e+01 6.135252e+01 7.734505e+01 1.072352e+02 5.555227e+01 9.825163e+01 5.865091e+01 4.216485e+01 5.490605e+01 3.420798e+01 3.311897e+01 2.643049e+00 2.859188e+00 2.897690e+00 3.213737e+00 4.928773e+00 4.090806e+00 3.989810e+00 5.325428e+00 3.764854e+00 2.880610e+00 3.559937e+00 2.508963e+00 2.192979e+00 4.020341e-01 4.951048e-01 4.705052e-01 5.513129e-01 7.746257e-01 7.693028e-01 6.697148e-01 9.476729e-01 6.485496e-01 5.519639e-01 6.156586e-01 4.690489e-01 4.074553e-01
<GCONST> 1.331264e+02
<STATE> 4
<MEAN> 39
 -2.856888e+00 1.046945e+00 -1.029535e+00 1.628846e+00 3.895912e+00 2.089243e+00 2.554848e+00 2.655701e+00 -1.063395e-02 9.274049e-01 -1.452665e+00 1.382126e+00 9.304935e-02 -1.500700e-01 -1.547867e-01 -1.019556e-01 -6.911322e-02 3.608176e-02 -1.597906e-02 -3.648138e-03 3.822165e-02 2.394051e-02 1.242451e-02 -2.945671e-02 1.227755e-02 -4.673176e-03 8.022973e-02 -4.120249e-02 1.784549e-02 -5.039493e-02 -1.311976e-01 -7.265221e-02 -8.519186e-02 -8.447266e-02 1.099152e-02 -3.176704e-02 3.737672e-02 -2.467282e-02 1.660400e-03
<VARIANCE> 39
 9.802966e+01 5.051947e+01 5.482544e+01 6.157752e+01 5.374232e+01 6.415385e+01 4.306938e+01 5.768149e+01 4.586272e+01 2.893657e+01 3.458216e+01 3.079926e+01 2.130870e+01 4.400034e+00 2.741228e+00 2.557547e+00 3.095641e+00 3.321326e+00 3.499096e+00 2.967851e+00 3.568745e+00 3.016224e+00 2.288684e+00 2.409617e+00 2.172024e+00 1.693554e+00 6.940441e-01 4.649993e-01 4.022813e-01 5.279691e-01 5.943646e-01 6.272362e-01 5.227534e-01 6.299278e-01 5.442076e-01 4.381847e-01 4.465477e-01 3.987220e-01 3.214693e-01
<GCONST> 1.259073e+02
<TRANSP> 5
 0.000000e+00 1.000000e+00 0.000000e+00 0.000000e+00 0.000000e+00
 0.000000e+00 7.088436e-01 2.911564e-01 0.000000e+00 0.000000e+00
 0.000000e+00 0.000000e+00 5.708398e-01 4.291603e-01 0.000000e+00
 0.000000e+00 0.000000e+00 0.000000e+00 6.856790e-01 3.143210e-01
 0.000000e+00 0.000000e+00 0.000000e+00 0.000000e+00 0.000000e+00
<ENDHMM>
~o
<STREAMINFO> 1 39
<VECSIZE> 39<NULLD><MFCC_D_A_Z><DIAGC>
~h "lx"
<BEGINHMM>
<NUMSTATES> 5
<STATE> 2
<MEAN> 39
 2.149673e+00 -2.092334e+00 -7.375343e-01 -1.957816e+00 -2.606611e+00 -8.805003e-01 -2.879133e+00 -1.994247e+00 1.289433e+00 -1.011417e+00 5.874190e-01 -2.014142e+00 -4.593274e-02 6.547208e-02 -1.792434e-02 8.919447e-02 -1.022940e-01 -2.413851e-01 8.528056e-03 5.586268e-02 -6.271073e-02 1.813080e-02 -9.442674e-02 1.523477e-01 -7.771102e-02 -4.820620e-02 -4.972512e-02 5.674865e-02 1.897606e-02 5.243872e-03 5.790287e-02 4.906634e-02 9.741417e-02 2.849331e-02 -4.100570e-02 2.110510e-02 -1.241220e-02 1.823656e-02 -1.564797e-02
<VARIANCE> 39
 5.170055e+01 7.137467e+01 7.522081e+01 7.696432e+01 7.256879e+01 1.027141e+02 7.047930e+01 9.719487e+01 8.657616e+01 4.508046e+01 5.506495e+01 4.801169e+01 3.859423e+01 4.200272e+00 4.669449e+00 4.220005e+00 6.004880e+00 6.899203e+00 7.098808e+00 5.140487e+00 7.722321e+00 6.587286e+00 4.083711e+00 4.914414e+00 4.272389e+00 3.295591e+00 6.468495e-01 6.934161e-01 6.018683e-01 9.320375e-01 1.178940e+00 1.185286e+00 8.851909e-01 1.309299e+00 1.082964e+00 7.607047e-01 8.824515e-01 7.772041e-01 6.040110e-01
<GCONST> 1.454429e+02
<STATE> 3
<MEAN> 39
 -7.891639e-01 7.812570e-01 8.331898e-01 3.244117e-01 -1.527014e-01 7.031868e-01 1.825166e+00 3.127010e-01 -4.601945e-01 -3.862236e-01 1.896363e-01 4.891216e-01 -3.950558e-01 -1.021040e-01 1.288515e-01 -4.607551e-02 1.993454e-01 2.892755e-01 1.227909e-01 1.597927e-01 1.615103e-01 -5.723241e-02 1.129259e-01 -9.752902e-02 4.542920e-02 6.232246e-03 -1.133858e-02 -2.596360e-02 -3.560702e-02 5.043957e-02 5.819762e-02 -8.440553e-02 -6.721976e-02 5.056506e-02 2.842035e-03 2.677708e-02 -1.811967e-02 3.296363e-03 3.224771e-02
<VARIANCE> 39
 6.365789e+01 5.522959e+01 7.591932e+01 7.203461e+01 8.390376e+01 9.563824e+01 4.070664e+01 8.553951e+01 4.873666e+01 3.321996e+01 4.725521e+01 3.425497e+01 2.684839e+01 1.160187e+00 1.398542e+00 1.284925e+00 1.703055e+00 2.170285e+00 2.202975e+00 1.998506e+00 2.518900e+00 2.012722e+00 1.689137e+00 1.857156e+00 1.568744e+00 1.335780e+00 2.821035e-01 2.780119e-01 2.675593e-01 3.802760e-01 4.523717e-01 4.559747e-01 3.973958e-01 5.039535e-01 4.137862e-01 3.570341e-01 3.889033e-01 3.102299e-01 2.766636e-01
<GCONST> 1.173648e+02
<STATE> 4
<MEAN> 39
 -5.710756e-01 3.613494e-01 -1.566789e-01 -6.291403e-01 2.072572e-01 -1.198102e+00 -7.380161e-01 -3.655708e-01 -2.778334e-01 5.020480e-02 -3.342175e-01 -4.604138e-01 7.147305e-02 -6.486367e-02 -1.346652e-01 -1.215817e-01 -8.930337e-02 2.287973e-02 -2.065226e-01 -2.549536e-01 -8.060454e-02 8.679930e-02 -2.597198e-02 -3.176555e-02 4.996280e-02 4.499001e-02 6.082644e-02 -2.509494e-02 1.278658e-02 -6.886967e-02 -1.220457e-01 3.712821e-02 -1.198783e-02 -8.413792e-02 3.389200e-02 -4.061386e-02 3.683587e-02 -2.649309e-02 -3.505929e-02
<VARIANCE> 39
 9.368631e+01 6.924570e+01 7.756570e+01 7.419887e+01 7.264891e+01 9.192435e+01 6.689175e+01 8.374168e+01 7.155663e+01 4.046995e+01 4.792428e+01 4.146149e+01 3.181847e+01 7.185066e+00 5.797307e+00 4.873526e+00 6.324514e+00 6.450026e+00 6.712350e+00 5.267962e+00 7.066975e+00 5.525301e+00 3.936000e+00 4.347464e+00 3.744779e+00 3.012950e+00 1.120900e+00 9.163774e-01 7.299840e-01 9.743825e-01 1.028948e+00 1.104870e+00 9.454983e-01 1.196288e+00 9.621989e-01 7.196565e-01 7.755668e-01 6.731744e-01 5.330318e-01
<GCONST> 1.453817e+02
<TRANSP> 5
 0.000000e+00 1.000000e+00 0.000000e+00 0.000000e+00 0.000000e+00
 0.000000e+00 7.210875e-01 2.789125e-01 0.000000e+00 0.000000e+00
 0.000000e+00 0.000000e+00 7.238858e-01 2.761142e-01 0.000000e+00
 0.000000e+00 0.000000e+00 0.000000e+00 7.022002e-01 2.977999e-01
 0.000000e+00 0.000000e+00 0.000000e+00 0.000000e+00 0.000000e+00
<ENDHMM>
~o
<STREAMINFO> 1 39
<VECSIZE> 39<NULLD><MFCC_D_A_Z><DIAGC>
~h "m"
<BEGINHMM>
<NUMSTATES> 5
<STATE> 2
<MEAN> 39
 -1.265552e+00 1.075852e+00 -1.339219e+00 2.503350e+00 3.670751e+00 2.254131e+00 2.997749e+00 3.048457e+00 -7.093900e-01 1.194350e+00 -1.186872e+00 1.985706e+00 1.488719e-01 -1.072096e-01 -1.429122e-02 -5.078796e-02 5.308121e-02 4.738681e-02 3.336374e-02 5.019405e-02 1.663519e-02 -3.247660e-02 1.775378e-02 -3.469483e-02 1.354257e-02 6.075148e-04 1.734795e-02 -2.773160e-02 6.927531e-03 -3.183987e-02 -5.274815e-02 -3.421879e-02 -3.619069e-02 -3.601699e-02 5.948076e-03 -2.146764e-02 2.341235e-03 -2.248381e-02 1.180413e-03
<VARIANCE> 39
 8.936851e+01 3.759911e+01 4.218671e+01 4.734319e+01 5.021433e+01 5.529037e+01 3.566933e+01 5.576819e+01 3.669055e+01 2.529028e+01 3.002829e+01 2.644580e+01 1.861046e+01 2.407636e+00 1.762032e+00 1.651914e+00 2.132298e+00 2.431796e+00 2.557232e+00 2.101892e+00 2.651522e+00 2.206272e+00 1.747562e+00 1.861258e+00 1.607911e+00 1.327539e+00 4.173052e-01 3.031298e-01 2.826638e-01 3.710204e-01 4.184368e-01 4.645229e-01 3.849833e-01 4.783448e-01 4.084583e-01 3.337435e-01 3.523574e-01 3.071928e-01 2.511262e-01
<GCONST> 1.150832e+02
<STATE> 3
<MEAN> 39
 2.892393e+00 -2.517046e+00 -3.437672e+00 -3.922368e+00 -1.009613e+00 2.211172e+00 -2.580177e+00 -2.135612e+00 2.006953e+00 -4.691545e-02 -2.757623e-01 -2.468425e+00 3.084307e-01 1.345709e-01 1.830316e-02 3.838271e-02 -8.656215e-02 -1.281994e-01 -7.115151e-02 -1.009401e-01 -6.380543e-02 5.247312e-02 -5.380937e-02 -2.158188e-02 -3.993087e-02 7.647205e-02 -5.478163e-02 9.905610e-02 1.301723e-01 9.699760e-02 2.428967e-02 -7.087377e-02 6.711699e-02 3.967386e-02 -7.280030e-02 -2.541689e-02 1.952130e-02 6.036850e-02 -1.735419e-02
<VARIANCE> 39
 4.325410e+01 6.788335e+01 5.279147e+01 8.408612e+01 6.820742e+01 8.746563e+01 7.033125e+01 1.018853e+02 8.860194e+01 4.668708e+01 5.288140e+01 4.749204e+01 4.432744e+01 3.392112e+00 4.243147e+00 3.950355e+00 6.720024e+00 5.682880e+00 6.635630e+00 4.981488e+00 7.065810e+00 6.527927e+00 3.893822e+00 4.390780e+00 4.063941e+00 3.433078e+00 5.890459e-01 6.436838e-01 6.097316e-01 1.041382e+00 1.022035e+00 1.084008e+00 8.980187e-01 1.278406e+00 1.109109e+00 7.303264e-01 8.120900e-01 7.376209e-01 6.233330e-01
<GCONST> 1.436868e+02
<STATE> 4
<MEAN> 39
 -1.702017e+00 1.942129e+00 5.080376e+00 2.208571e+00 -2.795903e+00 -5.094511e+00 9.068172e-02 -7.441574e-01 -1.945448e+00 -1.305066e+00 1.260594e+00 9.369445e-01 -3.718149e-01 -7.040183e-02 3.764287e-02 3.235677e-02 -2.168584e-02 8.238758e-03 7.642425e-02 7.382396e-02 -3.978316e-02 -2.138956e-02 5.459146e-03 6.174621e-02 3.312022e-03 -5.998744e-02 4.170513e-02 -9.651175e-02 -1.674060e-01 -8.213320e-02 3.466539e-02 1.233268e-01 -4.908234e-02 -2.035147e-03 8.692712e-02 5.306216e-02 -2.602767e-02 -6.201017e-02 1.756584e-02
<VARIANCE> 39
 8.494964e+01 6.071460e+01 7.797354e+01 4.967862e+01 8.669671e+01 9.372135e+01 5.507987e+01 8.377631e+01 5.062746e+01 3.668919e+01 5.187410e+01 2.991605e+01 2.496870e+01 6.610738e+00 4.438847e+00 4.288733e+00 3.660341e+00 6.010474e+00 5.158441e+00 4.369317e+00 5.918670e+00 3.860790e+00 3.123391e+00 3.757177e+00 2.733063e+00 2.145376e+00 9.604465e-01 7.214812e-01 5.990902e-01 6.489485e-01 9.956855e-01 9.209938e-01 7.375135e-01 9.647040e-01 6.829575e-01 5.566254e-01 6.618026e-01 4.934742e-01 3.868306e-01
