~o
<STREAMINFO> 1 39
<VECSIZE> 39<NULLD><MFCC_D_A_Z><DIAGC>
~h "a"
<BEGINHMM>
<NUMSTATES> 5
<STATE> 2
<NUMMIXES> 2
<MIXTURE> 1 6.882876e-01
<MEAN> 39
 4.259163e-01 2.092581e+00 -3.322509e+00 -3.143770e+00 3.339756e+00 1.907966e+00 -7.463954e-01 1.437345e+00 -9.262187e-01 1.620359e+00 -3.409850e-02 8.286384e-01 -7.305618e-02 1.276023e+00 -3.304681e-02 -2.427779e-01 -1.081902e+00 -1.117774e+00 7.442908e-01 -3.112523e-01 -2.447345e-01 -4.274771e-01 -2.408258e-01 1.091087e+00 -6.145936e-01 -3.367101e-02 1.698310e-01 -5.669915e-02 -1.637648e-02 -2.261097e-01 -3.145926e-01 2.583969e-01 3.091286e-02 -1.205501e-01 -9.092886e-02 -1.948565e-02 2.063458e-01 -1.431700e-01 5.791401e-03
<VARIANCE> 39
 6.714824e+01 4.642654e+01 5.196017e+01 8.378832e+01 7.391865e+01 6.699376e+01 6.550188e+01 5.709631e+01 6.699520e+01 5.509389e+01 7.346883e+01 3.789829e+01 2.775059e+01 8.196337e+00 4.254725e+00 5.030874e+00 7.382200e+00 7.553392e+00 5.481576e+00 5.239244e+00 6.770188e+00 5.234203e+00 5.078443e+00 6.766595e+00 4.014439e+00 2.791878e+00 7.571104e-01 7.444176e-01 7.965932e-01 1.037921e+00 1.040231e+00 9.530594e-01 9.239582e-01 9.532291e-01 1.024263e+00 9.373977e-01 9.580124e-01 6.305965e-01 4.990842e-01
<GCONST> 1.442322e+02
<MIXTURE> 2 3.117124e-01
<MEAN> 39
 8.575393e+00 -2.301723e+00 -5.988814e+00 -6.733282e+00 -3.191515e+00 6.014872e+00 -7.892279e+00 -5.154181e+00 8.089300e-01 3.669105e+00 9.420547e+00 -4.444564e+00 -5.199882e+00 1.884067e+00 -2.368660e-01 -7.973370e-01 -2.418147e+00 -2.226385e+00 3.221767e+00 9.553137e-01 -7.501940e-01 -1.417849e+00 4.100503e-02 1.896703e+00 -5.727627e-01 -2.420300e-01 -8.043593e-01 3.197672e-01 4.965458e-01 4.143566e-01 4.275972e-01 -4.728090e-01 5.726817e-01 7.553666e-01 -2.287036e-01 -4.677377e-01 -1.094659e+00 5.831014e-01 7.089707e-01
<VARIANCE> 39
 9.345029e+00 1.719630e+01 1.933437e+01 3.363511e+01 2.588964e+01 3.909895e+01 4.498152e+01 2.963473e+01 3.856631e+01 3.359013e+01 4.834623e+01 2.805304e+01 2.332476e+01 4.459577e+00 2.027145e+00 2.727993e+00 4.921971e+00 5.144976e+00 4.633854e+00 4.947892e+00 5.030729e+00 4.881152e+00 5.204301e+00 5.911937e+00 3.387044e+00 3.720187e+00 6.661363e-01 4.374304e-01 5.413465e-01 7.543907e-01 7.615869e-01 9.381878e-01 9.276934e-01 8.736427e-01 7.893337e-01 7.883652e-01 1.086836e+00 6.450174e-01 6.678345e-01
<GCONST> 1.297002e+02
<STATE> 3
<NUMMIXES> 2
<MIXTURE> 1 4.499209e-01
<MEAN> 39
 -3.153009e-01 -2.925811e+00 -4.700525e+00 -5.229144e-01 6.795985e+00 2.704940e+00 3.291498e+00 1.307497e+00 2.086779e+00 -1.851337e+00 7.171039e-01 -1.402808e-01 -7.039507e-01 -3.355740e-02 2.576357e-01 2.265541e-03 -7.989736e-02 -2.527838e-02 1.353973e-01 -1.994912e-02 9.392064e-02 -1.485528e-01 1.446975e-01 -6.519289e-03 -1.312099e-01 7.724738e-02 3.306310e-02 3.752656e-02 2.227830e-02 -4.747003e-02 -9.447229e-02 2.369295e-02 -3.939762e-02 -3.460155e-03 -6.184086e-02 1.251305e-02 2.189543e-02 1.856536e-03 1.009362e-02
<VARIANCE> 39
 4.874656e+01 6.681931e+01 2.979613e+01 4.475588e+01 4.881639e+01 5.152398e+01 5.574303e+01 3.722234e+01 4.225375e+01 4.902892e+01 4.294393e+01 7.849974e+01 2.350529e+01 1.989212e+00 2.464900e+00 1.845051e+00 3.025714e+00 3.074294e+00 2.578299e+00 2.972298e+00 2.667524e+00 3.023995e+00 2.972875e+00 2.899056e+00 2.608890e+00 1.689970e+00 2.880932e-01 3.789595e-01 3.231100e-01 4.817605e-01 4.888226e-01 4.667571e-01 5.234860e-01 4.894421e-01 5.244353e-01 5.281835e-01 5.059836e-01 4.617359e-01 3.139382e-01
<GCONST> 1.227293e+02
<MIXTURE> 2 5.500791e-01
<MEAN> 39
 9.552411e+00 2.029679e+00 -5.102413e+00 -1.452690e+01 -6.802732e+00 1.164186e+01 -2.810133e+00 -4.151355e-01 -6.601103e+00 -1.267891e+00 9.873499e+00 -2.621466e+00 7.206904e-01 6.611177e-01 -7.048581e-01 -6.692297e-02 -1.695109e-01 -1.305291e+00 6.653299e-01 -1.899388e-01 -3.315485e-01 1.312686e-01 4.284372e-03 2.916591e-01 -1.919857e-01 8.438174e-02 -5.188469e-01 -6.514623e-02 1.417368e-01 1.298821e+00 8.601263e-01 -8.189809e-01 5.611000e-03 -6.564747e-02 4.828302e-01 3.317268e-01 -1.058738e+00 2.027527e-01 -9.343464e-02
<VARIANCE> 39
 8.593497e+00 3.259208e+01 2.417282e+01 4.476385e+01 3.591392e+01 3.190568e+01 4.222936e+01 5.677428e+01 4.493948e+01 3.932376e+01 6.493916e+01 3.015582e+01 3.346895e+01 1.508107e+00 2.781326e+00 2.858219e+00 9.181993e+00 4.951991e+00 4.011243e+00 4.693121e+00 6.512681e+00 5.507491e+00 4.216020e+00 7.939362e+00 3.215437e+00 4.634660e+00 3.350297e-01 4.653595e-01 7.133648e-01 6.974831e-01 8.452469e-01 9.791033e-01 7.515450e-01 9.743831e-01 7.936509e-01 7.369623e-01 1.023925e+00 6.063949e-01 6.130445e-01
<GCONST> 1.321614e+02
<STATE> 4
<NUMMIXES> 2
<MIXTURE> 1 5.150298e-01
<MEAN> 39
 8.299137e+00 -1.377616e+00 -5.687006e+00 -5.289326e-01 -5.477288e-01 3.085121e+00 -5.008411e+00 -5.682741e+00 6.478918e-01 2.927463e+00 4.298084e+00 -1.944253e+00 -2.502228e+00 -5.141733e-01 4.560262e-01 7.036622e-01 1.904432e+00 1.321077e+00 -1.740246e+00 -8.389828e-02 -2.016500e-01 7.593353e-01 3.506781e-01 -1.621430e+00 1.877666e-01 -7.541695e-02 -3.046169e-01 3.327175e-01 3.228380e-01 -4.368369e-01 -4.106189e-02 3.241212e-02 2.215224e-01 3.857701e-01 -2.672868e-01 -2.713849e-01 -9.691008e-02 1.093970e-01 2.090565e-01
<VARIANCE> 39
 3.556795e+01 3.953074e+01 5.385387e+01 7.407982e+01 8.284265e+01 8.074790e+01 6.029906e+01 6.340090e+01 5.723750e+01 5.836762e+01 1.084171e+02 4.397791e+01 2.805505e+01 3.096658e+00 4.364693e+00 5.133261e+00 9.658451e+00 9.888668e+00 8.723698e+00 5.527326e+00 5.675139e+00 5.449007e+00 5.431476e+00 8.180954e+00 4.142891e+00 3.068756e+00 4.408930e-01 7.585943e-01 7.610323e-01 1.322146e+00 1.836349e+00 1.562650e+00 9.980413e-01 1.061725e+00 9.794763e-01 9.433578e-01 1.361108e+00 7.510529e-01 5.802571e-01
<GCONST> 1.460565e+02
<MIXTURE> 2 4.849702e-01
<MEAN> 39
 9.360635e+00 2.262982e+00 -3.056826e+00 -1.432669e+01 -8.275827e+00 1.106052e+01 -5.879048e-01 3.668004e+00 -8.591334e+00 -7.287291e-01 4.088743e+00 -2.446111e+00 3.403331e+00 -2.150411e-01 -1.471182e-02 4.988594e-01 9.167662e-01 6.044773e-01 -2.590272e-01 4.960984e-02 -1.711534e-01 1.806874e-01 2.754222e-01 -1.259058e+00 8.194618e-02 -1.243726e-02 -1.415857e-01 -3.021099e-02 4.758666e-02 6.154521e-01 5.272289e-01 -3.137742e-01 -1.778803e-01 -4.572918e-01 3.295829e-01 2.127824e-01 -1.049388e-01 3.604948e-02 -3.855423e-01
<VARIANCE> 39
 6.974684e+00 2.393421e+01 2.801756e+01 4.790456e+01 4.141753e+01 2.317339e+01 4.097876e+01 4.184800e+01 3.513995e+01 3.478693e+01 1.018293e+02 2.781500e+01 2.764918e+01 5.474638e-01 1.707608e+00 2.982568e+00 4.374125e+00 3.782585e+00 2.398787e+00 2.861765e+00 4.074499e+00 3.175463e+00 2.596390e+00 8.256260e+00 2.410408e+00 3.335603e+00 1.121653e-01 2.005270e-01 2.946875e-01 5.336451e-01 5.793494e-01 5.093758e-01 5.620518e-01 5.189518e-01 5.358333e-01 5.015860e-01 8.129417e-01 4.179431e-01 4.419570e-01
<GCONST> 1.188484e+02
<TRANSP> 5
 0.000000e+00 1.000000e+00 0.000000e+00 0.000000e+00 0.000000e+00
 0.000000e+00 6.304381e-01 3.695618e-01 0.000000e+00 0.000000e+00
 0.000000e+00 0.000000e+00 6.693548e-01 3.306452e-01 0.000000e+00
 0.000000e+00 0.000000e+00 0.000000e+00 7.049823e-01 2.950177e-01
 0.000000e+00 0.000000e+00 0.000000e+00 0.000000e+00 0.000000e+00
<ENDHMM>
~o
<STREAMINFO> 1 39
<VECSIZE> 39<NULLD><MFCC_D_A_Z><DIAGC>
~h "aa"
<BEGINHMM>
<NUMSTATES> 5
<STATE> 2
<NUMMIXES> 2
<MIXTURE> 1 4.435550e-01
<MEAN> 39
 -1.658890e+00 -5.061796e+00 -7.276748e+00 6.986535e-01 7.820655e+00 8.257739e-01 5.736326e+00 1.509386e+00 2.198234e+00 -3.579880e+00 5.527979e-01 -4.275404e+00 2.114043e+00 1.353314e+00 -9.780946e-01 -2.185354e-01 -5.122753e-01 -9.458000e-01 6.100115e-01 -2.925776e-01 -2.058114e-01 1.420904e-01 -6.210443e-01 4.675751e-01 -1.162203e+00 -7.942709e-03 -7.805222e-02 -4.798980e-02 1.525954e-01 -2.045085e-01 -3.581817e-01 5.459225e-02 -2.189739e-01 1.064550e-01 9.204434e-02 1.309664e-01 8.293009e-02 1.438860e-01 -1.835916e-01
<VARIANCE> 39
 4.594548e+01 5.494416e+01 4.006732e+01 3.764729e+01 5.361100e+01 5.078579e+01 4.522753e+01 4.871484e+01 4.416910e+01 5.008169e+01 4.475465e+01 5.526752e+01 3.010251e+01 5.403463e+00 5.541652e+00 3.546585e+00 3.587170e+00 6.178470e+00 3.895843e+00 3.964307e+00 4.078348e+00 3.825324e+00 4.556040e+00 3.848068e+00 6.809070e+00 2.994513e+00 8.595808e-01 8.483382e-01 6.519026e-01 6.095386e-01 7.025606e-01 6.374371e-01 6.960351e-01 7.582718e-01 7.073438e-01 8.923580e-01 7.420899e-01 8.567072e-01 5.319332e-01
<GCONST> 1.362585e+02
<MIXTURE> 2 5.564450e-01
<MEAN> 39
 6.859999e+00 -1.034362e+01 -5.396044e+00 -4.580912e+00 -1.485163e+00 1.037609e+00 -3.522254e-01 3.158764e+00 7.951818e+00 -4.172029e+00 8.567179e-01 -1.031025e+01 -1.612061e+00 8.772473e-02 -2.039034e+00 -1.106189e+00 -8.196995e-01 4.021352e-01 1.468471e+00 1.102257e+00 9.075471e-01 8.411538e-01 -2.116096e+00 3.069796e-01 -1.979154e+00 -1.385938e-01 -2.854871e-01 7.981442e-01 5.640399e-01 5.547754e-01 1.821683e-01 -1.292942e-01 -8.051827e-02 -5.235160e-01 -7.156275e-01 3.229550e-01 -5.130435e-02 7.880965e-01 9.971337e-02
<VARIANCE> 39
 6.721076e+00 1.446838e+01 1.947467e+01 2.667074e+01 3.065868e+01 4.856813e+01 3.592378e+01 3.455601e+01 4.136731e+01 4.144511e+01 5.335398e+01 3.284460e+01 2.976330e+01 9.198177e-01 2.041857e+00 2.190050e+00 2.797776e+00 3.663812e+00 4.109978e+00 3.118212e+00 5.882609e+00 3.542290e+00 4.830243e+00 4.887200e+00 3.494860e+00 2.886464e+00 2.268250e-01 2.996267e-01 4.120932e-01 4.040721e-01 6.294851e-01 5.816223e-01 5.593081e-01 7.033195e-01 5.639698e-01 8.235993e-01 7.786462e-01 6.388066e-01 5.175939e-01
<GCONST> 1.215047e+02
<STATE> 3
<NUMMIXES> 2
<MIXTURE> 1 3.294641e-01
<MEAN> 39
 -2.423812e+00 -5.023794e+00 -4.426294e+00 3.276486e+00 7.203952e+00 1.048633e+00 5.383585e+00 3.837359e+00 1.859435e+00 -4.754402e+00 1.783377e-01 5.688465e+00 -1.777542e-01 -2.132410e-01 3.588613e-01 1.480419e-01 -5.773696e-02 -3.157210e-02 -1.400242e-01 7.781587e-02 -1.171235e-01 -3.594044e-02 2.576263e-01 1.380637e-01 2.856422e-01 -6.420447e-02 -2.033692e-03 2.554110e-02 1.625809e-02 -3.633459e-02 1.674384e-02 2.554926e-02 -2.287630e-02 -2.697471e-02 1.490825e-02 6.160297e-02 -2.277368e-02 -1.238766e-01 4.144989e-02
<VARIANCE> 39
 1.629184e+01 4.665204e+01 1.873306e+01 1.887709e+01 4.218708e+01 3.876657e+01 3.248220e+01 3.492051e+01 2.962057e+01 4.522123e+01 3.217863e+01 6.270013e+01 2.008256e+01 8.200134e-01 2.727148e+00 1.242670e+00 1.538994e+00 2.450822e+00 2.159706e+00 2.378467e+00 2.201118e+00 2.350359e+00 2.832196e+00 2.390893e+00 3.202120e+00 1.667418e+00 1.484059e-01 4.496548e-01 2.435406e-01 2.983489e-01 4.121063e-01 3.811505e-01 4.395880e-01 4.245280e-01 4.567814e-01 5.275401e-01 4.472801e-01 4.831798e-01 3.078673e-01
<GCONST> 1.126474e+02
<MIXTURE> 2 6.705359e-01
<MEAN> 39
 5.745284e+00 -1.233243e+01 -7.082273e+00 -4.218063e+00 1.728058e+00 4.339626e+00 1.886035e+00 2.388377e+00 5.562598e+00 -7.230583e+00 1.654922e+00 -1.205250e+01 -2.369179e-01 1.538180e-01 2.368997e-01 5.078931e-01 1.834329e-01 -7.479692e-01 -1.139980e-01 -3.126239e-01 1.893374e-01 -3.897112e-01 7.351311e-01 1.223742e-01 3.890060e-01 -2.117522e-01 -7.094507e-02 6.898357e-01 4.369423e-01 2.697929e-01 -1.690711e-01 -3.805242e-01 -1.754881e-01 -2.498932e-01 -3.206776e-01 7.164092e-01 -1.126544e-01 6.928015e-01 -5.803291e-02
<VARIANCE> 39
 6.457500e+00 1.163718e+01 2.094196e+01 2.128700e+01 3.583896e+01 4.280050e+01 3.956138e+01 3.085836e+01 4.237991e+01 3.638600e+01 3.787303e+01 3.359843e+01 2.587704e+01 7.282891e-01 1.375984e+00 1.541285e+00 1.884364e+00 3.397868e+00 3.015400e+00 2.494389e+00 2.780526e+00 2.404934e+00 3.845042e+00 3.650913e+00 2.576495e+00 2.097863e+00 1.498758e-01 2.718130e-01 2.689334e-01 2.846278e-01 4.394337e-01 4.212841e-01 4.491919e-01 5.674977e-01 4.289266e-01 5.798110e-01 5.211165e-01 5.057957e-01 3.519385e-01
<GCONST> 1.122276e+02
<STATE> 4
<NUMMIXES> 2
<MIXTURE> 1 7.671823e-01
<MEAN> 39
 5.546391e+00 -6.003513e+00 -8.142996e-01 2.988765e-01 -3.509728e+00 -9.951904e-01 6.421572e-01 1.741147e+00 2.932290e+00 2.949638e-01 -1.603877e-01 -4.338468e+00 -1.102828e+00 -3.015901e-01 2.444753e+00 1.965046e+00 1.075157e+00 -6.486901e-01 -9.436690e-01 -5.747383e-01 -1.287495e+00 -1.064948e+00 1.888433e+00 -8.589633e-01 1.669471e+00 1.297104e-02 -2.182413e-01 1.267450e-01 -1.094847e-01 -8.881998e-02 4.128919e-01 1.571917e-01 3.422513e-02 -1.473670e-01 4.437305e-02 -3.449120e-01 -1.344860e-01 -1.181253e-01 1.034929e-01
<VARIANCE> 39
 2.148049e+01 3.506250e+01 4.160044e+01 2.530626e+01 7.971354e+01 5.363461e+01 4.589547e+01 6.020204e+01 5.083724e+01 6.243893e+01 7.479478e+01 4.105281e+01 2.739476e+01 1.499222e+00 3.227907e+00 3.132337e+00 2.850994e+00 4.856115e+00 3.667930e+00 3.612076e+00 3.883556e+00 3.221812e+00 4.248166e+00 6.268432e+00 3.397568e+00 2.448335e+00 2.728654e-01 6.547752e-01 4.264624e-01 4.143447e-01 6.493955e-01 5.716903e-01 5.925416e-01 8.669537e-01 6.303735e-01 8.717909e-01 7.497326e-01 5.429347e-01 4.309922e-01
<GCONST> 1.293540e+02
<MIXTURE> 2 2.328177e-01
<MEAN> 39
 9.301378e+00 -7.334269e+00 -6.953851e+00 -1.194027e+01 1.207880e+00 8.700354e+00 -3.799658e-01 -3.813112e-01 -1.700873e+00 -1.122431e+00 1.304840e+01 -1.044198e+01 -6.370739e+00 9.261498e-01 2.154689e+00 1.363723e+00 -8.478813e-01 -9.262849e-01 9.023916e-01 -4.820501e-02 -2.392152e-01 -2.482936e+00 6.429546e-01 2.448898e-01 2.224758e+00 6.790543e-01 -1.353198e-01 4.570048e-01 4.720920e-01 5.005673e-01 -1.760453e-01 -4.139896e-01 1.204080e-01 2.351355e-01 7.109601e-02 -2.820621e-01 -1.207868e+00 3.117585e-01 7.515854e-01
<VARIANCE> 39
 6.817133e+00 1.765595e+01 2.283830e+01 3.878575e+01 2.564292e+01 2.799852e+01 3.776743e+01 2.286867e+01 4.534029e+01 3.207306e+01 5.641492e+01 3.649958e+01 2.592321e+01 5.681627e-01 1.311870e+00 2.147509e+00 4.544505e+00 3.192649e+00 2.555976e+00 2.397734e+00 2.901353e+00 3.188755e+00 3.366767e+00 5.695204e+00 2.507340e+00 3.491838e+00 1.165873e-01 2.051809e-01 3.023783e-01 4.889613e-01 6.512469e-01 4.254016e-01 4.746570e-01 5.187177e-01 5.641776e-01 4.461225e-01 6.358934e-01 7.856737e-01 4.043974e-01
<GCONST> 1.157569e+02
<TRANSP> 5
 0.000000e+00 1.000000e+00 0.000000e+00 0.000000e+00 0.000000e+00
 0.000000e+00 5.664546e-01 4.335454e-01 0.000000e+00 0.000000e+00
 0.000000e+00 0.000000e+00 7.659613e-01 2.340387e-01 0.000000e+00
 0.000000e+00 0.000000e+00 0.000000e+00 6.223149e-01 3.776850e-01
 0.000000e+00 0.000000e+00 0.000000e+00 0.000000e+00 0.000000e+00
<ENDHMM>
~o
<STREAMINFO> 1 39
<VECSIZE> 39<NULLD><MFCC_D_A_Z><DIAGC>
~h "ae"
<BEGINHMM>
<NUMSTATES> 5
<STATE> 2
<NUMMIXES> 2
<MIXTURE> 1 4.670272e-01
<MEAN> 39
 -3.979322e+00 4.448827e+00 2.901299e-02 3.253145e+00 1.104397e+01 3.547297e+00 9.568078e+00 1.510616e+00 3.953223e+00 1.476316e+00 5.813179e+00 1.951653e+00 -9.815265e-01 1.042063e+00 2.154963e-01 -2.710856e-01 -1.277761e+00 -1.153902e+00 8.584242e-01 -8.439762e-01 -9.667498e-01 -1.710513e+00 -2.004814e+00 1.072732e+00 -6.360961e-01 1.625603e-01 2.260568e-01 -5.439361e-02 -1.202414e-01 -2.969772e-01 -4.567541e-01 -3.896728e-01 -6.667264e-01 2.248297e-03 -1.509135e-01 2.236103e-01 1.483785e-01 -2.067349e-01 -4.382791e-02
<VARIANCE> 39
 3.286475e+00 6.421760e+01 8.947254e+00 2.389593e+00 4.927426e+01 2.397200e+01 4.935970e+00 1.697026e+01 2.654018e+01 5.595875e+01 1.141777e+01 1.642883e+01 1.537036e+01 5.166224e+00 1.575867e+00 8.545895e-01 1.468324e+00 3.496522e+00 5.606467e+00 6.046820e-01 3.823291e+00 5.846578e-01 1.678651e+00 2.812858e+00 3.681702e+00 1.710371e+00 1.756281e-01 2.782081e-01 2.075754e-01 7.753670e-01 9.794356e-01 1.563700e-01 3.497995e-01 9.304041e-01 4.355951e-01 7.238036e-01 2.881955e-01 2.350837e-01 2.736900e-01
<GCONST> 1.028710e+02
<MIXTURE> 2 5.329728e-01
<MEAN> 39
 4.021632e-01 -9.246264e+00 -7.509509e+00 -3.760127e+00 5.087406e+00 7.056870e+00 -5.261286e+00 -2.688710e+00 3.302774e+00 -1.386262e+00 2.530125e+00 -9.756597e+00 4.049645e-01 1.128863e+00 1.995235e-01 9.350449e-01 -7.019566e-01 -2.323484e+00 1.298222e+00 -1.699927e+00 1.423479e-01 2.155752e-01 -7.242288e-01 8.579437e-01 -1.410254e+00 1.348990e+00 1.957578e-02 4.166014e-01 3.197039e-02 -1.239531e-01 1.846264e-01 -2.104271e-01 6.317425e-01 3.601012e-01 -3.158045e-01 2.851259e-01 3.672956e-02 5.923572e-01 -1.467345e-01
<VARIANCE> 39
 4.500742e+01 7.620646e-01 1.084364e+01 1.301180e+01 2.983212e+01 6.909067e+01 6.136813e+01 1.253631e+01 3.648912e+01 8.484070e+01 2.069032e+01 4.472314e+01 9.910122e+00 3.620639e+00 5.412205e-01 1.418800e+00 2.714763e+00 4.317594e+00 7.084733e+00 1.253462e+00 4.306941e-01 1.255058e+00 8.507304e-01 1.508351e+00 2.873896e+00 6.237547e-01 8.851813e-01 3.148683e-01 3.783375e-01 3.589730e-01 6.059136e-01 6.743332e-01 4.904287e-01 2.761309e-01 2.349497e-01 8.876084e-01 5.376251e-01 6.980501e-01 1.398431e-01
<GCONST> 1.068021e+02
<STATE> 3
<NUMMIXES> 2
<MIXTURE> 1 2.724512e-01
<MEAN> 39
 -1.313046e+00 6.698420e+00 2.671366e-01 1.132108e+00 5.790106e+00 3.416948e+00 6.637120e-03 -4.461625e+00 -2.867159e+00 -2.454860e+00 6.330762e+00 1.180065e+00 -2.573451e+00 1.814713e+00 -1.317541e+00 -5.129821e-01 -7.455289e-01 -2.889604e+00 3.675790e-01 -3.074601e+00 2.334412e+00 -1.397897e+00 -3.134921e-01 8.531046e-01 -2.039509e+00 1.496677e+00 3.739152e-01 -5.196790e-01 1.209996e-01 3.420550e-02 -1.505584e+00 -1.064486e+00 3.742339e-01 1.227348e+00 1.629017e-01 -1.852977e-02 -3.611397e-01 7.043870e-02 2.451081e-01
<VARIANCE> 39
 3.112675e+01 2.223292e-01 2.828849e+00 1.319152e+01 5.504890e+01 4.892343e+01 6.994040e+00 2.948500e+01 1.241889e+01 2.659769e+00 1.342411e+00 1.205664e+01 2.813008e+00 2.381757e+00 7.665252e+00 2.179316e-02 7.699812e+00 9.427643e-01 1.589321e+01 3.449163e+00 9.345212e-01 3.276879e+00 8.660471e-01 7.358272e+00 2.384692e-01 3.605923e-02 1.817658e-01 9.502524e-02 6.660995e-02 2.673758e-01 2.960884e-01 7.611929e-01 3.151274e-01 6.478736e-01 3.078380e-01 1.097032e-01 1.893779e-01 1.199079e-01 1.185974e-02
<GCONST> 7.828082e+01
<MIXTURE> 2 7.275488e-01
<MEAN> 39
 1.680033e+00 -7.918371e+00 -3.024316e+00 -8.024701e-01 2.497830e+00 3.301219e+00 -6.560222e+00 1.660323e+00 4.243030e+00 -3.412444e+00 4.630998e+00 -9.507549e+00 2.045999e+00 1.407875e+00 -5.488007e-01 1.089302e+00 -5.400688e-01 -3.445232e+00 -6.048514e-01 2.288803e-01 1.397130e+00 -8.444540e-01 -9.035587e-02 3.054141e-01 1.664517e-01 1.904298e-01 -3.687942e-01 4.235129e-01 2.657971e-01 -2.153326e-01 1.083142e-01 2.307597e-01 1.101046e+00 -1.562933e-01 -5.369907e-01 6.218755e-01 -7.555408e-02 8.746682e-01 -4.405822e-01
<VARIANCE> 39
 2.691688e+01 1.430302e+01 2.077997e+01 5.334910e+01 5.597441e+01 5.890243e+01 7.442226e+01 2.012545e+01 1.110041e+01 1.935120e+01 7.409670e+00 3.559682e+01 6.173933e+00 9.476705e-01 2.410010e+00 1.553573e+00 3.025170e+00 5.866306e+00 2.826450e+00 3.096764e+00 2.612795e+00 1.713035e+00 3.518641e+00 7.102529e-01 4.804698e+00 2.724137e-01 5.771614e-01 2.157411e-01 8.420514e-02 3.626764e-01 5.784987e-01 2.798679e-01 5.374480e-01 2.879561e-01 4.686608e-01 1.050138e-01 4.457762e-01 8.766122e-02 7.910018e-02
<GCONST> 1.037652e+02
<STATE> 4
<NUMMIXES> 2
<MIXTURE> 1 6.363845e-01
<MEAN> 39
 3.608298e+00 -7.992430e+00 -4.891636e+00 -6.501816e+00 -1.000249e-01 1.005591e+01 -2.569888e+00 1.209482e-01 5.969685e-01 -3.952322e-01 5.331226e+00 -1.012490e+01 2.107422e+00 3.928350e-01 7.669298e-01 8.193772e-01 -1.261425e+00 -2.120137e+00 3.169731e-01 9.272369e-01 6.318389e-01 -2.072781e+00 1.616797e+00 -1.863994e-01 1.931767e-01 -5.342484e-02 -3.666981e-01 2.586607e-01 2.030782e-01 4.831818e-01 5.501418e-01 -6.419349e-01 4.503123e-01 -4.041805e-02 2.040988e-01 1.497289e-01 -6.674533e-01 5.062581e-01 -3.065886e-03
<VARIANCE> 39
 3.337750e+01 2.828693e+01 3.347898e+01 1.194393e+01 3.968252e+01 1.283288e+01 3.470152e+01 9.961427e+00 2.996787e+01 2.127592e+01 5.240627e+01 3.006284e+01 5.830011e+00 8.663397e-01 1.112009e+00 2.293567e+00 2.008589e+00 1.146365e+00 2.400510e+00 4.750863e+00 5.623859e-01 3.670760e+00 8.748780e-01 4.070129e+00 3.432284e+00 3.610569e-01 5.090369e-01 1.781130e-01 1.389528e-01 6.892508e-02 5.086763e-01 8.150764e-01 1.871058e-01 9.613138e-02 1.262259e-01 1.995284e-01 4.433595e-01 2.666954e-01 1.176313e-01
<GCONST> 9.854609e+01
<MIXTURE> 2 3.636155e-01
<MEAN> 39
 2.563718e+00 -6.383566e+00 7.949928e+00 2.569899e+00 -1.639081e+01 -7.017363e+00 1.209428e+00 9.207024e+00 -3.971579e+00 -4.038867e+00 7.853983e+00 3.614759e+00 2.958647e-01 -5.276205e-01 8.398985e-01 1.285665e+00 -6.213965e-01 -6.266854e-01 -7.645341e-01 1.748059e+00 -4.884871e-01 -2.294133e+00 2.195106e+00 1.068153e-01 2.174496e-01 2.412819e-01 -3.097190e-01 9.198669e-01 -3.178859e-01 3.688044e-01 1.532642e+00 -3.712742e-01 -1.993674e-01 -5.750330e-01 1.249833e-01 4.875884e-01 -2.548472e-01 -4.531272e-01 -2.515624e-01
<VARIANCE> 39
 1.741473e+00 3.925658e+00 5.063678e+00 3.540801e+00 2.771944e+00 4.726531e+00 3.452222e+00 1.128698e+00 2.067184e+01 1.040223e+01 4.616596e-01 1.380342e+00 1.678836e+00 2.584597e-01 2.113095e+00 1.884870e-01 1.898207e+00 6.830660e+00 7.874786e-01 3.708842e-01 7.693079e-01 6.604503e-01 1.260239e+00 3.434424e-01 7.793896e-01 4.684070e-01 1.994885e-01 6.056200e-02 1.890677e-02 1.181769e-01 5.180404e-01 5.919693e-02 7.440487e-02 9.967495e-02 5.531451e-01 5.275914e-01 2.122746e-02 6.143181e-02 1.316513e-01
<GCONST> 5.358280e+01
<TRANSP> 5
 0.000000e+00 1.000000e+00 0.000000e+00 0.000000e+00 0.000000e+00
 0.000000e+00 5.996873e-01 4.003127e-01 0.000000e+00 0.000000e+00
 0.000000e+00 0.000000e+00 4.550952e-01 5.449048e-01 0.000000e+00
 0.000000e+00 0.000000e+00 0.000000e+00 4.545696e-01 5.454304e-01
 0.000000e+00 0.000000e+00 0.000000e+00 0.000000e+00 0.000000e+00
<ENDHMM>
~o
<STREAMINFO> 1 39
<VECSIZE> 39<NULLD><MFCC_D_A_Z><DIAGC>
~h "ax"
<BEGINHMM>
<NUMSTATES> 5
<STATE> 2
<NUMMIXES> 2
<MIXTURE> 1 3.076976e-01
<MEAN> 39
 5.626112e+00 -1.944765e+00 -2.924825e+00 7.397635e-01 -5.882276e+00 3.372167e+00 -3.359039e+00 -6.173044e+00 -4.276531e+00 6.032140e+00 1.585839e+01 -1.861328e+00 -6.738231e+00 9.054682e-01 -1.015272e+00 -1.210218e+00 9.846207e-01 -1.736520e+00 1.660431e-01 1.262068e+00 -2.254262e+00 -1.023320e+00 9.432139e-01 2.180445e+00 -2.658173e-01 -4.469046e-01 1.271129e-01 -5.395297e-01 -5.993999e-01 -7.967885e-01 7.678438e-01 2.720704e-01 -4.331606e-01 9.834924e-01 1.472482e+00 -6.218759e-02 -1.914567e+00 -1.128126e+00 7.781077e-01
<VARIANCE> 39
 1.815025e+00 5.593739e-01 6.443705e+00 4.753613e+00 2.006306e+00 2.513896e+01 1.748822e+01 1.136028e+01 1.330858e+01 2.437839e+00 5.526157e+01 6.815878e+00 4.766764e+00 8.091381e-02 1.643975e+00 1.273772e+00 2.035954e+00 1.603964e+00 2.708551e+00 8.943678e-01 3.713492e+00 7.845599e+00 3.544359e-01 1.755369e+01 5.425358e+00 2.631359e+00 6.019672e-02 8.000067e-02 2.097096e-01 3.953804e-01 1.678480e-01 6.829101e-01 4.127701e-01 2.028750e-01 9.929302e-01 1.911890e-01 1.452443e+00 1.931519e-01 1.069987e-01
<GCONST> 8.581127e+01
<MIXTURE> 2 6.923024e-01
<MEAN> 39
 4.318796e+00 -8.903709e+00 -3.099501e+00 3.408615e+00 1.098671e+00 3.853421e+00 4.823876e-01 -2.070658e+00 5.411847e+00 -8.285524e+00 -1.687889e+00 -1.776740e+00 -2.351493e+00 3.495814e-01 -1.025499e+00 -1.305853e+00 -3.598766e-01 -1.404267e+00 2.585411e-01 1.463620e+00 3.916576e-01 2.540703e-01 2.100387e-02 6.071645e-01 8.827773e-01 -1.327725e+00 -1.180070e-01 -6.458101e-02 -3.715404e-02 -4.067286e-01 1.568499e-01 5.086803e-01 -2.511008e-01 2.434536e-01 -5.244433e-01 7.932524e-01 4.530087e-01 -1.542721e-01 -8.424769e-02
<VARIANCE> 39
 6.402658e+00 1.995343e+01 1.544631e+01 6.465793e+00 4.732190e+01 2.049488e+01 1.458224e+01 2.288157e+01 6.159671e+01 1.152845e+01 1.387832e+01 2.021578e+01 2.467008e+01 8.695326e-01 1.879762e+00 1.393381e+00 6.660683e-01 3.476573e+00 4.926295e+00 1.833050e+00 2.496264e+00 2.705344e+00 3.315101e+00 1.696343e+00 1.317745e+01 6.559935e-01 6.089721e-02 1.689747e-01 4.171129e-01 7.531708e-02 5.510300e-01 3.198836e-01 4.816323e-01 2.123779e-01 6.131248e-01 2.881152e-01 2.468328e-01 1.952935e-01 1.895505e-01
<GCONST> 1.004018e+02
<STATE> 3
<NUMMIXES> 2
<MIXTURE> 1 4.545395e-01
<MEAN> 39
 3.470487e+00 -1.142515e+01 -7.058959e+00 1.514653e+00 8.978638e+00 9.316386e+00 5.356272e+00 1.979585e+00 -2.914779e-01 2.335537e-01 -1.121661e+00 2.365586e+00 -3.918183e+00 -8.559080e-01 1.038519e-01 -3.641263e-01 2.298056e-01 4.256628e-01 4.474500e-01 3.297323e-01 3.213394e-01 3.801173e-01 1.333876e+00 1.346441e+00 1.774704e+00 1.060878e-02 -1.657080e-01 2.939588e-01 1.561467e-01 4.430872e-01 -5.158793e-01 -4.792818e-01 -3.625297e-01 -4.457494e-01 -1.260031e-01 -5.024487e-01 -2.464119e-01 -3.504185e-02 -3.015164e-02
<VARIANCE> 39
 1.293453e+00 2.324599e+01 5.338910e+00 5.657183e+00 6.237523e+00 7.484128e+00 6.403628e+00 1.188275e+01 1.930742e+01 1.090518e+01 9.343649e+00 2.657322e+01 2.308628e+01 1.461139e-01 2.010495e+00 3.598357e-01 1.251910e+00 4.176960e+00 1.271774e+00 8.725365e-01 8.307478e-01 8.535299e-01 2.431540e+00 2.111572e+00 3.465880e+00 5.376866e-01 7.356065e-02 1.895528e-01 4.063809e-02 4.902413e-02 3.796604e-01 2.012383e-01 9.597652e-02 1.142806e-01 1.026946e-01 1.780646e-01 2.765767e-01 4.979133e-01 9.806482e-02
<GCONST> 7.621130e+01
<MIXTURE> 2 5.454605e-01
<MEAN> 39
 8.474788e+00 -1.278776e+01 -6.663929e+00 -3.546951e+00 -6.090531e+00 8.571940e+00 -1.456717e+00 -1.876672e+00 7.036698e+00 -1.124610e+00 5.788421e+00 -1.240310e+01 -6.406887e+00 2.120173e-01 -4.392657e-01 -9.170115e-01 -2.645030e+00 2.191460e+00 1.908776e+00 -6.929412e-01 -7.490945e-02 5.166574e-01 -6.893554e-01 3.246705e-01 -2.750333e+00 3.898303e-01 -2.003307e-01 1.020484e+00 3.703482e-01 -8.993838e-02 6.374282e-01 -9.474205e-01 -3.493456e-01 -2.570581e-01 -2.857310e-01 2.306914e-03 7.960263e-01 7.073358e-01 3.959334e-01
<VARIANCE> 39
 1.012863e-02 1.124823e+01 7.327947e+00 2.565290e+01 1.564963e+01 9.867157e+00 1.215575e+01 3.503802e+01 1.352965e+01 7.772922e+01 1.673830e+01 1.388348e+01 9.943897e+00 7.251344e-02 1.456305e+00 1.189030e-01 1.916192e-01 5.553001e-01 1.405187e+00 1.407904e+00 1.579937e+00 1.180434e+01 1.557240e+00 1.145878e+01 6.822071e-01 1.034183e+00 6.429704e-02 3.673723e-02 4.324027e-02 3.612899e-01 4.299730e-01 5.569024e-01 2.607512e-01 4.199684e-01 7.395362e-01 3.662455e-01 3.169702e-01 2.374738e-01 2.498049e-01
<GCONST> 8.093339e+01
<STATE> 4
<NUMMIXES> 2
<MIXTURE> 1 4.545392e-01
<MEAN> 39
 8.107927e-01 -8.643451e+00 -7.793427e+00 3.486306e+00 4.716953e+00 6.551115e+00 2.769809e+00 -3.028437e+00 -4.703388e-01 2.750785e+00 -1.114364e+00 9.384323e+00 -5.308138e+00 -3.408781e-01 3.852346e-01 4.053773e-01 6.516844e-01 -1.270297e+00 -6.945162e-01 -8.630784e-01 -1.544517e+00 1.142082e-01 1.471523e+00 1.223692e-01 7.963377e-01 -3.830574e-01 9.028831e-02 -2.351170e-01 1.783868e-01 7.292972e-02 4.277476e-01 4.208627e-01 -1.651086e-01 9.581725e-02 -1.491612e-01 -8.462881e-02 -2.468500e-01 -1.118281e+00 2.026145e-01
<VARIANCE> 39
 5.195906e+00 2.455930e+00 2.186400e+00 5.822182e+00 6.660998e+00 1.054364e+01 9.705739e-01 1.630764e+01 5.958418e+01 4.824591e+01 1.423971e+01 2.430601e+01 2.143564e+01 4.732030e-01 9.350758e-01 3.709124e-01 2.217112e-01 1.837877e+00 1.584508e+00 1.864192e-01 2.116696e-01 8.694996e-01 1.285197e+00 2.676394e+00 5.090302e+00 7.064623e-02 3.377941e-02 7.637215e-02 2.550810e-02 1.194021e-01 1.397105e-01 2.721364e-01 1.398425e-02 2.616134e-01 2.683797e-01 5.007860e-01 2.598833e-01 5.617748e-01 5.438563e-02
<GCONST> 6.777512e+01
<MIXTURE> 2 5.454608e-01
<MEAN> 39
 8.594050e+00 -8.530490e+00 -9.506068e+00 -9.484420e+00 -6.687816e-02 7.180362e+00 -3.247431e+00 -2.201387e+00 5.169423e+00 -1.102993e+00 1.232364e+01 -1.569650e+01 -3.955379e+00 5.151104e-01 2.612152e+00 -7.323126e-02 -2.645305e-01 1.830207e+00 -1.729640e+00 -3.388944e-01 -1.453526e+00 -6.982975e-01 8.596030e-01 8.717375e-01 1.194536e+00 9.375550e-01 5.061853e-02 8.447422e-01 4.751503e-01 1.097507e+00 2.050511e-01 -2.393447e-01 2.822866e-01 -7.774180e-01 3.187543e-02 2.162994e-01 -1.136125e+00 1.100377e+00 -1.399545e-01
<VARIANCE> 39
 3.011437e+00 1.394808e+01 1.242600e+00 3.694506e+00 3.976323e+00 2.217963e+01 1.135882e+01 1.880894e+00 8.988065e+00 4.166489e+01 6.824014e+01 1.793537e+01 9.416072e+00 1.359366e+00 1.309203e+00 6.996175e-01 1.237496e+00 6.562632e-01 7.314618e+00 2.514153e-01 3.010852e+00 4.069076e-01 4.598270e-01 6.309406e+00 1.838856e+00 1.507640e+00 1.471571e-01 1.585220e-01 6.827055e-02 5.917242e-02 1.091261e-01 8.459155e-01 8.581111e-02 3.839094e-01 1.849711e-01 2.845019e-01 9.209132e-01 2.039303e-01 1.805587e-01
<GCONST> 8.127243e+01
<TRANSP> 5
 0.000000e+00 1.000000e+00 0.000000e+00 0.000000e+00 0.000000e+00
 0.000000e+00 6.923082e-01 3.076918e-01 0.000000e+00 0.000000e+00
 0.000000e+00 0.000000e+00 6.363631e-01 3.636369e-01 0.000000e+00
 0.000000e+00 0.000000e+00 0.000000e+00 6.363635e-01 3.636365e-01
 0.000000e+00 0.000000e+00 0.000000e+00 0.000000e+00 0.000000e+00
<ENDHMM>
~o
<STREAMINFO> 1 39
<VECSIZE> 39<NULLD><MFCC_D_A_Z><DIAGC>
~h "b"
<BEGINHMM>
<NUMSTATES> 5
<STATE> 2
<NUMMIXES> 2
<MIXTURE> 1 4.658894e-01
<MEAN> 39
 1.204393e+01 4.786716e+00 3.709248e+00 1.685442e+00 1.392854e+00 6.571029e+00 -3.585193e+00 -3.878840e+00 -4.313355e+00 -3.733083e-01 2.452056e+00 -4.634784e+00 -3.831907e+00 1.069054e+00 2.435136e+00 1.046248e+00 5.961279e-01 1.714410e+00 1.255082e+00 1.977968e+00 -1.151448e+00 -7.500905e-01 1.081049e-01 -1.428550e+00 5.794178e-02 1.279877e-03 -6.155046e-01 -1.843978e-01 -2.059751e-01 -4.410747e-01 -4.154556e-01 -5.770286e-01 1.472825e-01 1.592671e-01 2.342406e-01 -1.742013e-01 1.659256e-01 2.439431e-01 1.793392e-01
<VARIANCE> 39
 1.178653e+01 2.925336e+01 3.587573e+01 3.996217e+01 3.926441e+01 3.151022e+01 4.318787e+01 2.778670e+01 3.814391e+01 4.250281e+01 5.306274e+01 3.414607e+01 2.782976e+01 1.409696e+00 2.095427e+00 2.394354e+00 3.527928e+00 3.272595e+00 3.729859e+00 3.388652e+00 2.855090e+00 3.467774e+00 3.557857e+00 5.042365e+00 2.262484e+00 2.270889e+00 2.441200e-01 4.907601e-01 4.299358e-01 5.702643e-01 5.773073e-01 6.263451e-01 7.670115e-01 5.162091e-01 6.768522e-01 6.403727e-01 9.074475e-01 4.875787e-01 3.613477e-01
<GCONST> 1.228330e+02
<MIXTURE> 2 5.341106e-01
<MEAN> 39
 -3.799137e+00 1.225302e+00 -1.104187e+00 2.994328e+00 7.794854e+00 -2.795025e-01 6.222880e+00 1.445884e+00 2.266159e-01 7.090334e-02 2.693379e-01 6.108452e+00 8.320273e-01 -2.411523e-01 -3.838732e-02 3.183335e-01 4.833880e-01 -1.639941e-01 1.271888e-01 -4.279678e-03 -4.246313e-01 -5.130342e-01 8.991570e-01 -7.535343e-01 -3.290445e-01 1.973843e-01 -3.497616e-02 -1.768810e-01 4.103618e-02 1.318042e-01 -1.546675e-01 2.385204e-02 -1.503534e-01 3.280886e-03 -1.747717e-01 9.947219e-02 -1.215612e-01 -1.228226e-01 -1.615580e-03
<VARIANCE> 39
 1.155278e+01 4.357005e+01 1.675816e+01 2.032524e+01 2.562281e+01 2.724174e+01 2.510061e+01 3.224678e+01 3.170070e+01 4.678287e+01 3.880424e+01 2.564492e+01 1.910043e+01 1.185736e+00 4.930487e+00 1.604445e+00 2.496925e+00 2.846884e+00 2.759428e+00 2.760445e+00 2.646568e+00 3.796126e+00 3.837393e+00 4.099092e+00 2.428812e+00 2.168722e+00 1.931482e-01 7.703559e-01 2.910536e-01 3.747067e-01 4.809506e-01 5.089822e-01 4.809770e-01 4.912581e-01 6.104011e-01 6.084230e-01 6.469230e-01 4.070049e-01 3.733649e-01
<GCONST> 1.168016e+02
<STATE> 3
<NUMMIXES> 2
<MIXTURE> 1 6.348074e-01
<MEAN> 39
 1.294221e+01 1.178147e+01 7.580271e+00 2.163850e+00 3.577154e+00 7.206276e+00 2.416628e+00 -7.140736e+00 -5.543437e+00 8.096330e-01 -1.392094e+00 -3.595782e+00 -2.641736e+00 -5.722510e-01 -1.507961e-02 -5.726023e-01 -6.868215e-01 5.193489e-01 -9.383074e-01 -2.530091e-01 2.429170e-02 6.624913e-01 -1.225427e+00 9.941368e-01 1.011830e+00 -3.767850e-01 -7.961489e-01 -1.170345e+00 -6.038672e-01 -1.405097e-01 -5.113284e-01 -5.468805e-01 -7.661142e-01 5.255696e-01 2.344949e-01 2.665413e-02 6.028615e-01 1.324566e-01 1.589847e-02
<VARIANCE> 39
 9.129367e+00 1.926340e+01 2.396615e+01 2.578378e+01 2.984185e+01 3.466288e+01 3.274314e+01 2.656583e+01 3.807580e+01 4.274627e+01 4.852963e+01 2.684121e+01 3.909592e+01 4.395456e+00 3.815599e+00 2.783390e+00 4.355947e+00 3.719790e+00 4.424423e+00 4.075895e+00 3.224840e+00 3.207006e+00 4.433622e+00 5.655166e+00 2.756050e+00 2.566160e+00 4.038564e-01 5.313208e-01 5.029930e-01 9.352083e-01 9.717426e-01 7.191042e-01 8.097287e-01 6.599538e-01 8.767397e-01 7.939428e-01 9.587580e-01 6.793111e-01 5.124719e-01
<GCONST> 1.275133e+02
<MIXTURE> 2 3.651927e-01
<MEAN> 39
 -3.912189e+00 5.299510e-01 3.171437e+00 1.090878e+01 3.787681e+00 3.349553e+00 3.122633e+00 -2.813770e+00 -8.959504e+00 1.139721e+01 -8.948306e+00 -7.847592e-01 2.794172e+00 1.716477e+00 1.329479e+00 1.020360e+00 3.263549e-01 9.554926e-02 7.029563e-01 -1.839666e-01 -5.817127e-01 -2.227295e-01 6.884016e-02 1.907604e-01 -1.000120e+00 -3.873697e-01 5.313466e-01 4.192896e-01 3.290338e-02 -6.124192e-01 4.483927e-02 -4.229010e-02 -1.702733e-02 -7.475676e-02 3.962819e-01 -7.095608e-01 5.605514e-01 1.252527e-01 -2.547107e-01
<VARIANCE> 39
 3.616766e+01 3.980564e+01 2.878758e+01 3.588320e+01 3.409095e+01 6.202147e+01 3.558258e+01 3.534783e+01 5.158869e+01 3.357812e+01 5.384541e+01 3.643781e+01 4.822153e+01 5.278741e+00 4.277937e+00 1.998430e+00 4.190068e+00 3.500866e+00 3.006437e+00 2.950387e+00 2.923083e+00 3.795049e+00 4.730548e+00 3.961578e+00 2.507906e+00 2.386271e+00 5.594317e-01 6.796504e-01 3.975896e-01 6.756665e-01 8.237014e-01 6.895266e-01 6.491551e-01 6.060696e-01 6.186262e-01 7.313672e-01 6.050561e-01 4.725273e-01 3.965183e-01
<GCONST> 1.286519e+02
<STATE> 4
<NUMMIXES> 2
<MIXTURE> 1 4.698102e-01
<MEAN> 39
 9.515694e+00 -1.117753e+00 -4.375599e+00 -1.184025e+01 -5.318254e-01 7.376400e+00 -7.368088e+00 -4.716752e+00 -2.072340e+00 1.820009e+00 1.244181e+01 -4.474567e+00 -4.956242e+00 -2.295780e-01 -2.420744e+00 -1.184886e+00 -8.316324e-01 -8.507612e-01 -5.038183e-01 -1.131113e+00 9.173785e-01 2.154411e+00 7.104285e-01 2.233315e-01 -2.349259e+00 -2.809587e-01 -3.416010e-02 3.494589e-01 5.652502e-01 1.087484e+00 1.949276e-01 -2.692395e-01 6.867047e-01 1.928794e-01 8.142276e-04 -4.214458e-01 -1.245319e+00 -1.903995e-02 5.012882e-01
<VARIANCE> 39
 5.998518e+00 3.799184e+01 1.945515e+01 3.790778e+01 2.550938e+01 2.762938e+01 6.349684e+01 3.503611e+01 5.676844e+01 4.204964e+01 3.360691e+01 4.987147e+01 3.759609e+01 1.175439e+00 4.658360e+00 3.033120e+00 8.163592e+00 3.683553e+00 4.425797e+00 5.742104e+00 4.068410e+00 5.213021e+00 5.123861e+00 8.282565e+00 5.174886e+00 3.143043e+00 1.755449e-01 5.222342e-01 3.733505e-01 6.766996e-01 6.385990e-01 6.596074e-01 7.453221e-01 6.358739e-01 9.720415e-01 8.060502e-01 9.196090e-01 1.188446e+00 5.894088e-01
<GCONST> 1.297835e+02
<MIXTURE> 2 5.301898e-01
<MEAN> 39
 3.658269e+00 4.474774e+00 3.584771e+00 5.228270e+00 3.129177e+00 -2.402158e+00 -3.225429e+00 -2.545979e+00 -2.130623e+00 -3.990303e+00 2.482885e+00 1.856846e+00 -2.916841e+00 -1.329873e+00 -2.112975e+00 -5.789188e-01 -1.075150e+00 -3.077632e+00 -1.151451e+00 -1.814727e+00 8.980712e-01 -1.254094e-01 -6.281271e-01 2.237178e+00 4.881607e-01 2.236365e-01 4.746909e-01 5.280077e-02 1.726634e-01 -7.085714e-01 -7.585227e-01 8.250890e-01 2.217521e-01 -2.024051e-01 -1.504975e-01 5.494679e-01 -2.522150e-02 -6.931854e-01 4.842235e-02
<VARIANCE> 39
 2.490894e+01 2.809704e+01 4.881661e+01 5.384562e+01 8.574451e+01 4.353453e+01 5.597261e+01 3.315456e+01 3.711017e+01 3.326065e+01 3.515087e+01 2.101206e+01 1.885089e+01 3.565009e+00 4.819827e+00 7.072845e+00 8.882108e+00 9.992917e+00 6.164350e+00 5.649959e+00 5.799427e+00 6.711220e+00 5.814715e+00 6.337671e+00 4.236629e+00 3.367891e+00 4.824997e-01 9.735573e-01 6.702959e-01 8.712129e-01 1.714575e+00 8.520299e-01 1.250449e+00 8.627359e-01 8.825933e-01 8.084947e-01 8.919931e-01 6.882318e-01 5.010156e-01
<GCONST> 1.389207e+02
<TRANSP> 5
 0.000000e+00 1.000000e+00 0.000000e+00 0.000000e+00 0.000000e+00
 0.000000e+00 7.293547e-01 2.706453e-01 0.000000e+00 0.000000e+00
 0.000000e+00 0.000000e+00 7.733335e-01 2.266665e-01 0.000000e+00
 0.000000e+00 0.000000e+00 0.000000e+00 7.088261e-01 2.911738e-01
 0.000000e+00 0.000000e+00 0.000000e+00 0.000000e+00 0.000000e+00
<ENDHMM>
~o
<STREAMINFO> 1 39
<VECSIZE> 39<NULLD><MFCC_D_A_Z><DIAGC>
~h "bh"
<BEGINHMM>
<NUMSTATES> 5
<STATE> 2
<NUMMIXES> 2
<MIXTURE> 1 6.877050e-01
<MEAN> 39
 -1.274675e+00 -2.226596e+00 -3.900347e+00 6.109469e-01 9.079321e+00 3.052327e+00 6.152052e+00 1.295257e+00 2.123587e+00 -2.792512e+00 1.337012e+00 2.613328e+00 6.684815e-02 -2.094814e-01 1.198904e-02 7.284665e-02 -1.289774e-02 7.394821e-02 1.221671e-01 5.805697e-02 -1.133349e-01 -2.248878e-01 3.810917e-01 -2.080166e-01 5.876320e-03 1.320330e-01 2.579770e-02 -7.716448e-02 4.638352e-03 -9.673472e-03 -1.306473e-01 -1.472816e-02 -1.301366e-01 -3.464248e-02 -1.385904e-01 8.931286e-02 -4.384644e-02 -5.614666e-02 3.141109e-02
<VARIANCE> 39
 2.769129e+01 7.014471e+01 2.363631e+01 2.742507e+01 2.667494e+01 3.432170e+01 3.222573e+01 3.111026e+01 2.900241e+01 4.134716e+01 2.443285e+01 7.713686e+01 2.101852e+01 9.737495e-01 3.335073e+00 1.438395e+00 1.852199e+00 2.155410e+00 2.034685e+00 2.429915e+00 2.215687e+00 2.860965e+00 3.608954e+00 2.521686e+00 2.989925e+00 1.769867e+00 1.707827e-01 5.591869e-01 2.708672e-01 3.479646e-01 4.067130e-01 3.761376e-01 4.442927e-01 3.793339e-01 5.090101e-01 6.106485e-01 4.295112e-01 4.158487e-01 3.203532e-01
<GCONST> 1.149765e+02
<MIXTURE> 2 3.122950e-01
<MEAN> 39
 5.994539e+00 1.515220e+00 -2.535940e+00 -2.305019e+00 2.456988e+00 5.322757e+00 -2.393274e+00 -2.263513e+00 -2.274837e+00 3.505805e-01 4.568898e+00 -1.910563e+00 -1.869701e+00 4.231802e-01 1.430915e+00 1.104766e+00 9.868632e-01 1.317681e+00 9.852094e-01 1.142689e+00 -7.379043e-01 -9.633090e-01 4.016097e-01 -9.693187e-01 1.751348e-01 2.232253e-01 -3.345054e-01 -6.610341e-02 1.250589e-01 8.526004e-02 -1.086901e-01 -2.458805e-01 4.011289e-01 9.312346e-02 2.547174e-02 -1.411416e-01 -2.256143e-01 6.617172e-02 1.562749e-01
<VARIANCE> 39
 6.144796e+01 3.648334e+01 4.367559e+01 6.294357e+01 5.783232e+01 4.931210e+01 7.383755e+01 3.533381e+01 4.784573e+01 4.884888e+01 6.541324e+01 5.939611e+01 2.942889e+01 2.717931e+00 4.068002e+00 3.142118e+00 4.754068e+00 5.060992e+00 5.035775e+00 3.911427e+00 3.524780e+00 4.840231e+00 3.865858e+00 5.309623e+00 2.855014e+00 2.628337e+00 3.891320e-01 6.174957e-01 5.455488e-01 8.392112e-01 9.149038e-01 8.041902e-01 7.003987e-01 6.093829e-01 8.485425e-01 6.661016e-01 9.636140e-01 6.011015e-01 4.278378e-01
<GCONST> 1.347891e+02
<STATE> 3
<NUMMIXES> 2
<MIXTURE> 1 5.868292e-01
<MEAN> 39
 6.925918e+00 8.445954e+00 4.152444e+00 2.815186e+00 5.876050e+00 8.821779e+00 4.902216e+00 -6.341095e+00 -8.639071e+00 1.456322e+00 -1.686201e+00 -1.305213e+00 7.880192e-01 -4.815423e-01 2.968823e-01 -3.648003e-01 -3.766585e-01 5.680562e-01 -1.135991e+00 3.122446e-01 2.260602e-01 1.238304e+00 -6.077954e-01 7.021511e-01 9.058930e-01 -5.372905e-01 -6.367999e-01 -9.301358e-01 -6.386905e-01 -4.103003e-01 -2.173395e-01 -4.638056e-01 -3.443156e-01 5.521765e-01 5.099077e-01 -3.757449e-02 4.267008e-01 1.871715e-01 -6.065814e-02
<VARIANCE> 39
 4.586822e+01 2.805169e+01 3.179761e+01 3.589364e+01 4.219917e+01 3.849321e+01 5.161572e+01 3.443372e+01 5.871223e+01 4.511697e+01 5.138235e+01 2.924141e+01 3.387638e+01 4.632310e+00 3.766669e+00 2.866685e+00 4.171618e+00 3.675908e+00 4.790853e+00 4.073763e+00 3.638077e+00 5.052635e+00 4.367803e+00 5.108162e+00 2.503004e+00 2.739333e+00 4.921107e-01 5.462846e-01 4.607275e-01 6.041968e-01 7.986105e-01 7.866850e-01 6.571651e-01 5.783710e-01 7.623588e-01 7.011710e-01 6.541013e-01 4.868928e-01 4.344034e-01
<GCONST> 1.303987e+02
<MIXTURE> 2 4.131708e-01
<MEAN> 39
 -7.946628e+00 -3.472932e+00 4.793504e-01 5.782594e+00 5.837881e+00 6.728843e+00 4.499908e+00 -2.709135e+00 -1.173296e+01 1.060302e+01 -9.526870e+00 1.888555e+00 7.775557e+00 5.281822e-01 2.292114e-01 1.941049e-01 4.881551e-01 -2.388495e-01 4.961278e-01 -2.528690e-01 -5.287220e-01 -9.335290e-01 3.420279e-01 -2.669133e-01 -6.095260e-01 1.206057e-01 4.529806e-01 4.993778e-01 -9.800220e-02 -3.021474e-01 1.284026e-01 -1.747668e-01 8.388105e-02 -1.550749e-02 6.530173e-01 -7.443387e-01 7.139533e-01 9.762985e-02 -4.912355e-01
<VARIANCE> 39
 1.533020e+01 2.659681e+01 2.109319e+01 5.387895e+01 2.984357e+01 3.909021e+01 3.390429e+01 4.482925e+01 7.091074e+01 3.439134e+01 3.728239e+01 2.785266e+01 3.144312e+01 3.930343e+00 4.492653e+00 1.965581e+00 3.398910e+00 2.802552e+00 3.068475e+00 2.956659e+00 3.433944e+00 7.048266e+00 5.585410e+00 4.746371e+00 2.164779e+00 3.636626e+00 3.544539e-01 5.184393e-01 3.474570e-01 7.678360e-01 5.127999e-01 5.546319e-01 5.699135e-01 6.756566e-01 9.117376e-01 7.386867e-01 5.530958e-01 4.816395e-01 4.673517e-01
<GCONST> 1.261324e+02
<STATE> 4
<NUMMIXES> 2
<MIXTURE> 1 5.163369e-01
<MEAN> 39
 -2.603421e+00 -7.547334e+00 -9.170534e+00 -3.665720e+00 1.697763e+01 7.340862e+00 1.004300e+01 -1.471948e+00 9.063284e-01 -3.540805e+00 4.516962e+00 5.603840e-01 1.449724e-01 6.926950e-01 -3.245491e-01 -2.735972e-01 3.190151e-01 5.719908e-01 1.453016e-01 5.954777e-01 -6.352159e-01 -2.710888e-01 -9.793477e-01 4.582269e-02 -1.257672e+00 5.800913e-01 5.048732e-01 6.618903e-01 3.934004e-01 1.539126e-01 -9.860485e-01 -5.012095e-01 -4.992235e-01 -9.144004e-02 -6.868294e-02 1.042872e-01 -1.058777e-01 -2.478159e-01 2.777205e-02
<VARIANCE> 39
 1.605762e+01 1.999010e+01 1.626981e+01 2.616442e+01 2.985142e+01 2.487824e+01 2.415730e+01 2.905489e+01 2.199075e+01 2.331434e+01 2.450846e+01 2.479045e+01 2.276347e+01 2.572221e+00 4.345557e+00 1.907094e+00 3.180114e+00 6.057188e+00 4.660716e+00 3.181036e+00 2.847190e+00 2.714121e+00 2.418119e+00 2.200170e+00 2.686767e+00 1.682047e+00 2.889478e-01 5.939897e-01 4.177248e-01 8.410612e-01 5.258652e-01 6.683331e-01 4.551736e-01 7.293506e-01 6.574491e-01 5.208824e-01 5.038453e-01 4.722443e-01 4.098901e-01
<GCONST> 1.180234e+02
<MIXTURE> 2 4.836631e-01
<MEAN> 39
 -8.365545e-02 1.830018e+00 -3.459756e+00 -1.490477e+00 6.114536e+00 1.491554e-01 2.282045e+00 -8.206823e-01 9.958444e-01 -1.475637e-01 4.191861e+00 3.655281e+00 -1.644320e+00 -7.778992e-01 -2.472308e+00 -1.768753e+00 -1.483429e+00 4.519387e-01 2.784837e-02 2.449662e-01 9.550388e-01 1.092207e+00 -6.767094e-01 1.411651e+00 2.440971e-01 -1.679548e-01 1.855222e-01 -2.352848e-01 8.979274e-02 5.523430e-02 2.791803e-01 8.404087e-01 3.846026e-01 -2.275336e-01 -5.637161e-01 -8.170592e-03 -3.227251e-01 -5.164860e-01 2.445129e-01
<VARIANCE> 39
 3.684480e+01 3.173783e+01 3.211050e+01 4.554743e+01 3.331450e+01 3.974636e+01 3.413908e+01 3.078999e+01 3.065859e+01 3.317677e+01 3.820761e+01 2.574479e+01 1.955158e+01 4.246871e+00 5.179418e+00 4.235935e+00 5.070400e+00 6.775737e+00 6.091166e+00 4.615927e+00 3.832665e+00 5.495098e+00 4.410158e+00 4.395909e+00 3.622943e+00 2.942152e+00 6.363833e-01 9.962094e-01 5.821834e-01 9.243035e-01 1.140227e+00 8.902572e-01 8.510902e-01 7.166267e-01 8.160130e-01 7.280982e-01 7.929624e-01 5.548350e-01 5.007989e-01
<GCONST> 1.331625e+02
<TRANSP> 5
 0.000000e+00 1.000000e+00 0.000000e+00 0.000000e+00 0.000000e+00
 0.000000e+00 8.354899e-01 1.645102e-01 0.000000e+00 0.000000e+00
 0.000000e+00 0.000000e+00 7.716907e-01 2.283093e-01 0.000000e+00
 0.000000e+00 0.000000e+00 0.000000e+00 8.048345e-01 1.951655e-01
 0.000000e+00 0.000000e+00 0.000000e+00 0.000000e+00 0.000000e+00
<ENDHMM>
~o
<STREAMINFO> 1 39
<VECSIZE> 39<NULLD><MFCC_D_A_Z><DIAGC>
~h "c"
<BEGINHMM>
<NUMSTATES> 5
<STATE> 2
<NUMMIXES> 2
<MIXTURE> 1 6.544713e-01
<MEAN> 39
 -3.273048e+00 3.770466e-01 -3.560187e+00 2.822564e+00 9.293382e+00 3.426058e-01 5.394359e+00 3.084313e+00 2.456491e+00 -7.895742e-01 5.731680e-02 6.063037e+00 1.161393e+00 -4.318663e-01 2.254223e-01 -2.911159e-02 -3.404048e-02 2.158609e-01 -1.610613e-01 3.341707e-01 -5.905178e-02 1.558450e-01 1.570915e-01 -5.641885e-02 1.424598e-01 1.429918e-02 -2.079713e-01 -7.210893e-02 -4.793523e-02 -8.716077e-02 -7.411586e-02 -1.740634e-01 -7.242645e-02 1.280719e-02 -1.722194e-02 -6.999360e-03 2.247600e-02 -2.482690e-02 -1.208137e-02
<VARIANCE> 39
 1.363182e+01 4.296869e+01 2.132659e+01 2.060249e+01 2.250815e+01 3.223836e+01 3.212478e+01 2.587609e+01 2.664334e+01 4.267592e+01 3.399498e+01 3.804585e+01 1.973837e+01 1.322665e+00 3.753913e+00 1.927415e+00 1.949614e+00 1.905540e+00 3.303130e+00 2.440831e+00 2.315309e+00 2.438860e+00 3.068609e+00 2.813590e+00 2.696588e+00 1.988587e+00 3.449579e-01 6.050862e-01 3.685386e-01 3.890879e-01 3.483583e-01 5.938545e-01 4.550337e-01 4.221157e-01 4.657467e-01 5.303078e-01 5.248216e-01 4.431198e-01 3.861036e-01
<GCONST> 1.153105e+02
<MIXTURE> 2 3.455287e-01
<MEAN> 39
 -1.224793e+01 1.118167e+01 -3.384353e+00 1.039491e+00 9.846682e+00 -6.895082e+00 3.900798e+00 6.790158e-02 3.273590e+00 -1.407815e+00 -3.577462e-01 3.467097e+00 -2.988754e+00 -4.413549e+00 1.040802e+00 -1.290974e+00 -4.877262e-01 1.140649e+00 2.196011e-01 1.216241e+00 6.378931e-01 1.646179e-02 -6.887279e-01 6.918287e-01 7.267814e-01 -8.824396e-01 2.590336e-01 -9.952903e-01 -2.397643e-01 -2.449830e-01 -7.555913e-01 2.203193e-01 -2.229116e-01 3.244363e-02 -1.162569e-01 2.647601e-01 7.326309e-02 -9.351855e-02 2.678372e-01
<VARIANCE> 39
 5.683804e+01 3.207197e+01 2.920769e+01 2.893025e+01 4.053605e+01 3.498055e+01 4.012124e+01 3.151742e+01 3.260197e+01 3.548566e+01 2.501726e+01 2.689089e+01 2.029920e+01 3.233095e+00 5.555753e+00 3.089004e+00 2.785583e+00 4.250589e+00 3.168314e+00 3.036588e+00 2.876458e+00 2.577807e+00 2.915001e+00 2.807955e+00 2.671662e+00 2.476542e+00 9.023817e-01 7.386902e-01 4.076921e-01 4.876872e-01 8.430428e-01 5.922290e-01 6.329440e-01 5.868899e-01 5.047392e-01 6.422662e-01 6.004773e-01 5.369382e-01 4.745666e-01
<GCONST> 1.249370e+02
<STATE> 3
<NUMMIXES> 2
<MIXTURE> 1 3.333651e-01
<MEAN> 39
 -1.252386e+01 2.536707e+00 -5.271264e+00 -2.099720e+00 9.166018e+00 -5.741354e+00 3.318170e+00 3.293006e+00 3.388778e+00 1.973705e+00 4.287186e-01 4.819697e+00 3.459646e-01 -2.174765e+00 2.886816e-01 -3.984660e-01 -7.479932e-01 2.795011e-01 -6.333192e-01 -1.822681e-01 2.677188e-01 -4.233406e-01 -4.550955e-01 5.063125e-01 1.233991e-01 -2.371429e-01 -4.501845e-02 2.454321e-01 -5.398750e-03 1.045005e-01 6.082108e-02 2.199484e-01 8.253319e-02 -6.690697e-02 -1.527202e-01 -1.827876e-01 -3.012208e-04 -7.776167e-02 -1.193218e-01
<VARIANCE> 39
 6.880624e+01 3.809388e+01 3.262631e+01 5.319389e+01 5.604281e+01 5.447195e+01 5.518964e+01 5.744120e+01 4.628541e+01 5.421955e+01 5.023312e+01 3.916228e+01 3.526233e+01 9.200933e+00 4.096653e+00 3.241520e+00 4.080029e+00 4.721705e+00 5.996052e+00 4.778399e+00 4.751458e+00 3.945020e+00 5.213868e+00 4.007524e+00 3.281297e+00 2.758319e+00 1.175887e+00 9.255207e-01 6.166246e-01 7.920911e-01 9.266294e-01 1.004132e+00 8.876749e-01 9.051930e-01 7.836449e-01 1.018481e+00 7.959771e-01 6.316985e-01 5.707780e-01
<GCONST> 1.389637e+02
<MIXTURE> 2 6.666349e-01
<MEAN> 39
 -2.496367e+01 7.400049e+00 -1.035269e+01 -1.633662e+00 1.043336e+01 -7.088810e+00 7.593461e+00 2.373589e+00 1.843761e+00 -1.872851e+00 2.069917e+00 6.171858e+00 -2.147634e+00 -5.044246e-01 -6.473644e-01 -5.649275e-01 -4.724269e-01 -2.578564e-01 -3.530854e-01 2.886680e-01 2.899981e-01 -1.112253e-01 8.966083e-02 1.114170e-01 2.528214e-01 2.521491e-01 9.447534e-01 -2.343373e-01 4.085804e-01 7.971583e-02 -2.445669e-01 -9.862754e-02 -2.040118e-01 -7.700156e-03 3.952867e-02 1.152083e-01 -1.170583e-01 -1.041085e-01 1.243595e-01
<VARIANCE> 39
 8.334833e+00 1.615526e+01 2.093287e+01 2.228683e+01 2.565608e+01 2.121177e+01 2.464110e+01 2.463811e+01 2.233219e+01 1.913492e+01 1.790042e+01 1.620114e+01 1.388510e+01 2.716490e+00 1.974586e+00 1.477073e+00 1.364295e+00 2.032448e+00 2.003199e+00 1.766054e+00 1.866058e+00 2.012934e+00 1.837318e+00 1.737055e+00 1.632968e+00 1.595741e+00 3.865896e-01 2.663220e-01 2.730784e-01 2.753940e-01 3.320113e-01 3.769249e-01 3.873153e-01 3.590263e-01 3.647907e-01 3.850961e-01 3.600835e-01 3.371427e-01 3.081899e-01
<GCONST> 1.034258e+02
<STATE> 4
<NUMMIXES> 2
<MIXTURE> 1 4.943290e-01
<MEAN> 39
 -1.911304e+00 2.389429e+00 -9.574965e-01 1.105492e-01 9.376590e-01 -6.955352e+00 -2.264201e+00 -1.322924e+00 -1.913972e-02 -1.374725e+00 -3.773449e-01 -9.990889e-01 -6.418671e-01 4.515302e+00 -8.867768e-01 4.888688e-01 -3.642308e-02 -2.562647e+00 1.758747e+00 -1.854162e+00 -1.294053e+00 -2.030351e-01 3.747673e-02 8.562028e-01 -2.187770e+00 -3.370496e-02 -1.081661e+00 -1.267675e-01 -7.030916e-01 -5.248045e-01 1.946087e-01 3.139077e-01 6.433089e-01 3.652880e-01 6.818855e-02 6.034210e-02 4.324210e-01 3.315853e-01 -1.660897e-02
<VARIANCE> 39
 4.343663e+01 4.191369e+01 6.115814e+01 3.511612e+01 7.473137e+01 5.127522e+01 4.563265e+01 4.552459e+01 6.244145e+01 3.400446e+01 3.635176e+01 3.357310e+01 1.771708e+01 5.527437e+00 3.705672e+00 4.761863e+00 3.543652e+00 4.706101e+00 4.403516e+00 6.061709e+00 5.876980e+00 4.596121e+00 4.016607e+00 4.149918e+00 4.238334e+00 2.070600e+00 5.693871e-01 4.698874e-01 6.376397e-01 5.210735e-01 8.376186e-01 6.774755e-01 7.166947e-01 7.202150e-01 8.069584e-01 5.860174e-01 6.851925e-01 5.451027e-01 3.840339e-01
<GCONST> 1.330099e+02
<MIXTURE> 2 5.056710e-01
<MEAN> 39
 -2.042743e+01 2.057319e+00 -7.531186e+00 -5.096379e+00 7.071826e+00 -9.878748e+00 6.372736e+00 5.196938e+00 1.187619e+00 -7.584494e-01 2.445477e+00 6.910249e+00 -6.120669e-01 4.161082e+00 -7.062225e-01 2.182601e+00 1.164553e+00 -1.463265e+00 -3.666105e-02 -1.632690e+00 -6.130908e-01 -1.738815e-01 1.404230e-01 -7.980166e-01 -1.260531e+00 2.739340e-01 1.285492e+00 2.477456e-01 3.834423e-01 4.572992e-01 -4.315884e-01 5.922199e-01 -7.162057e-01 -6.813021e-01 -6.179525e-02 -8.246060e-02 -3.134181e-02 -7.245206e-01 -1.309958e-01
<VARIANCE> 39
 1.851720e+01 1.772555e+01 2.810979e+01 2.500879e+01 3.029923e+01 2.735705e+01 4.414684e+01 3.440806e+01 3.683010e+01 2.378737e+01 2.581272e+01 2.205333e+01 1.662293e+01 4.653118e+00 2.546770e+00 4.429835e+00 2.946217e+00 2.919429e+00 3.680568e+00 3.539045e+00 4.129277e+00 3.553270e+00 2.693293e+00 2.445565e+00 2.860887e+00 1.709104e+00 4.990169e-01 4.395377e-01 6.629285e-01 5.884227e-01 4.967527e-01 5.507004e-01 5.884173e-01 5.787460e-01 6.950691e-01 5.601130e-01 5.445013e-01 5.093108e-01 3.442324e-01
<GCONST> 1.207161e+02
<TRANSP> 5
 0.000000e+00 1.000000e+00 0.000000e+00 0.000000e+00 0.000000e+00
 0.000000e+00 8.189843e-01 1.810158e-01 0.000000e+00 0.000000e+00
 0.000000e+00 0.000000e+00 8.672778e-01 1.327222e-01 0.000000e+00
 0.000000e+00 0.000000e+00 0.000000e+00 7.988305e-01 2.011695e-01
 0.000000e+00 0.000000e+00 0.000000e+00 0.000000e+00 0.000000e+00
<ENDHMM>
~o
<STREAMINFO> 1 39
<VECSIZE> 39<NULLD><MFCC_D_A_Z><DIAGC>
~h "ch"
<BEGINHMM>
<NUMSTATES> 5
<STATE> 2
<NUMMIXES> 2
<MIXTURE> 1 5.344712e-01
<MEAN> 39
 -4.600891e+00 1.992085e+00 -5.149494e+00 8.147120e-01 8.408322e+00 -4.491891e+00 2.275309e+00 -4.753397e-01 3.748828e+00 4.089549e+00 -2.112293e+00 3.807365e+00 1.529597e+00 -2.828968e+00 1.595672e+00 -4.636798e-01 3.214454e-01 1.692152e+00 -1.648879e+00 1.061866e+00 4.178545e-01 1.361221e-01 -3.749946e-01 -1.209166e-01 4.630053e-01 -1.448890e-01 -8.370398e-01 1.325007e-01 -1.089589e-01 -2.608345e-01 -1.243474e-01 2.757423e-01 1.129674e-01 3.344548e-01 -2.945586e-01 -4.740238e-01 1.602475e-01 -6.928874e-02 -2.473253e-01
<VARIANCE> 39
 3.700869e+01 4.405539e+01 2.427352e+01 3.048365e+01 5.014761e+01 4.899706e+01 6.399634e+01 4.256645e+01 3.745942e+01 7.774613e+01 4.498155e+01 3.811760e+01 3.149199e+01 7.651150e+00 7.269005e+00 2.463432e+00 3.432232e+00 8.293122e+00 5.803716e+00 4.457352e+00 4.866052e+00 3.990123e+00 7.824968e+00 3.355592e+00 3.918137e+00 3.491905e+00 5.606366e-01 7.926726e-01 4.181034e-01 4.836809e-01 1.189751e+00 8.503162e-01 7.030194e-01 8.784909e-01 7.408924e-01 1.250841e+00 5.826447e-01 6.343946e-01 7.377224e-01
<GCONST> 1.363870e+02
<MIXTURE> 2 4.655288e-01
<MEAN> 39
 -1.746513e+01 1.008676e+01 -5.247784e+00 2.515803e-01 1.239502e+01 -7.348460e+00 5.034846e+00 2.282806e+00 6.304107e-01 -2.420213e+00 -1.935374e-01 4.146560e+00 -2.243773e+00 -3.970335e+00 5.882100e-01 -1.234911e+00 -7.413720e-01 6.986430e-01 1.945875e-01 7.029815e-01 8.451632e-01 -4.442462e-01 -6.595598e-01 3.706485e-01 3.694211e-01 -6.878140e-01 8.156925e-01 -9.003257e-01 -1.668257e-01 -1.998006e-01 -7.882388e-01 3.205352e-01 -3.989342e-01 -2.659256e-01 9.212315e-02 4.690567e-01 6.743818e-02 -2.131759e-02 2.627205e-01
<VARIANCE> 39
 1.749041e+01 3.955991e+01 2.033815e+01 2.881689e+01 3.356960e+01 3.572883e+01 3.337127e+01 3.575835e+01 2.901874e+01 2.393080e+01 2.819238e+01 2.499206e+01 1.489909e+01 3.415327e+00 3.591286e+00 2.500041e+00 2.076187e+00 4.032524e+00 3.383279e+00 3.018520e+00 3.221501e+00 2.482550e+00 2.846320e+00 2.683849e+00 2.173635e+00 2.041165e+00 3.846795e-01 7.335258e-01 3.850285e-01 4.506186e-01 8.870794e-01 8.284866e-01 5.727552e-01 7.273913e-01 5.197283e-01 6.369027e-01 5.652990e-01 5.316833e-01 3.805220e-01
<GCONST> 1.205659e+02
<STATE> 3
<NUMMIXES> 2
<MIXTURE> 1 4.308477e-01
<MEAN> 39
 -2.528670e+01 5.333495e+00 -9.872856e+00 -5.359956e+00 1.400103e+01 -9.962222e+00 6.272073e+00 5.747525e+00 -1.053495e-03 1.924693e+00 7.620308e-01 5.761367e+00 -7.070004e-01 -9.373041e-03 -9.845136e-01 -2.736827e-01 -4.183129e-01 -6.620082e-01 -8.208013e-02 -2.015022e-02 1.406528e-01 1.941414e-01 2.137781e-01 2.204719e-01 6.510443e-02 5.181714e-01 1.010911e+00 -2.386566e-01 3.663027e-01 2.726678e-01 -2.552394e-01 2.623097e-01 -3.404030e-01 -2.129048e-01 2.308200e-01 -1.209551e-01 3.901205e-02 -1.796791e-01 -2.840254e-02
<VARIANCE> 39
 4.803805e+00 1.119716e+01 1.631732e+01 9.550240e+00 2.708344e+01 1.897905e+01 2.885525e+01 2.033432e+01 1.579626e+01 2.010824e+01 1.948930e+01 2.244093e+01 1.679539e+01 2.416161e+00 1.838420e+00 1.611709e+00 1.384176e+00 2.109829e+00 2.031611e+00 2.406641e+00 2.091585e+00 2.217930e+00 2.053022e+00 1.912728e+00 1.795478e+00 1.341015e+00 3.425238e-01 1.688641e-01 2.644477e-01 2.608072e-01 3.549001e-01 3.045869e-01 4.846456e-01 5.043923e-01 3.637199e-01 3.627929e-01 3.621061e-01 4.665350e-01 3.229226e-01
<GCONST> 1.023074e+02
<MIXTURE> 2 5.691522e-01
<MEAN> 39
 -2.454609e+01 7.840141e+00 -1.238361e+01 1.934616e+00 8.623953e+00 -5.074969e+00 8.743778e+00 3.480204e-02 2.365925e+00 -2.529300e+00 2.106614e+00 5.893849e+00 -2.094643e+00 -3.961885e-01 -7.997541e-01 -5.784714e-01 -5.683325e-01 -5.008357e-01 -1.238033e-01 1.872738e-01 2.047504e-01 1.577677e-01 2.344528e-01 1.499638e-01 2.298162e-01 8.700896e-02 8.211044e-01 -1.932360e-01 4.354456e-01 -1.002772e-01 -1.543223e-01 -2.450439e-01 -1.423309e-01 2.636968e-02 -2.317462e-02 1.334961e-01 -1.498849e-01 -9.839235e-02 1.246857e-01
<VARIANCE> 39
 7.314410e+00 1.275288e+01 1.372276e+01 9.536065e+00 1.743289e+01 2.318290e+01 1.675474e+01 1.907580e+01 1.690580e+01 1.701633e+01 1.597750e+01 1.367578e+01 1.284353e+01 1.893732e+00 1.520853e+00 1.592878e+00 1.448593e+00 1.753488e+00 1.653905e+00 1.551220e+00 1.731201e+00 1.581378e+00 1.750797e+00 1.839040e+00 1.610935e+00 1.495416e+00 3.323457e-01 2.447802e-01 2.888522e-01 2.439829e-01 3.410586e-01 3.187379e-01 3.522081e-01 3.501588e-01 2.920876e-01 3.253804e-01 3.662075e-01 3.179635e-01 3.360452e-01
<GCONST> 9.784289e+01
<STATE> 4
<NUMMIXES> 2
<MIXTURE> 1 3.832862e-01
<MEAN> 39
 -3.897739e-01 8.434273e-01 -4.551497e+00 -1.526626e+00 5.197413e+00 -3.192257e+00 -2.746019e+00 -1.756562e+00 1.427416e+00 -1.068388e+00 -1.053690e+00 -3.207791e+00 2.732633e-01 5.633396e+00 -7.548704e-01 7.282466e-01 -3.048579e-01 -2.279408e+00 2.280753e+00 -2.096932e+00 -1.830373e+00 -5.132665e-01 -2.085096e-01 6.939535e-01 -2.784754e+00 -1.056420e-01 -1.175551e+00 -1.353426e-01 -4.628606e-01 -3.673821e-01 -2.595739e-01 8.918536e-03 6.089391e-01 2.748112e-01 3.702101e-02 5.902470e-02 6.352397e-01 4.681799e-01 -1.277748e-01
<VARIANCE> 39
 4.079020e+01 2.734361e+01 3.740075e+01 2.653248e+01 4.518679e+01 4.594542e+01 4.400658e+01 2.748390e+01 2.222059e+01 2.010797e+01 4.775780e+01 1.847301e+01 1.640181e+01 4.635653e+00 3.066614e+00 4.848680e+00 3.301098e+00 3.638395e+00 3.815166e+00 6.484093e+00 4.986180e+00 3.921237e+00 2.860448e+00 7.616184e+00 4.809886e+00 2.188812e+00 6.151224e-01 2.544611e-01 5.567425e-01 4.917411e-01 7.011076e-01 6.744395e-01 8.203273e-01 7.717094e-01 6.036781e-01 4.148072e-01 1.001073e+00 4.957078e-01 3.239069e-01
<GCONST> 1.267791e+02
<MIXTURE> 2 6.167138e-01
<MEAN> 39
 -1.895057e+01 3.346610e-01 -8.552004e+00 -4.717522e+00 7.127662e+00 -7.975195e+00 5.290710e+00 4.586434e+00 3.418478e+00 1.587983e-01 2.355234e+00 6.153983e+00 -3.390275e-01 4.613638e+00 -9.137905e-01 1.804243e+00 4.637409e-01 -9.044769e-01 8.110790e-01 -1.796441e+00 -9.125612e-01 -8.229519e-02 -1.363106e-01 -4.858061e-01 -1.605138e+00 4.733717e-02 1.115199e+00 4.232017e-01 2.155957e-01 3.228972e-01 -2.216863e-01 5.847148e-01 -5.531734e-01 -7.027201e-01 -3.880352e-01 -2.005218e-01 1.979974e-02 -7.995418e-01 -1.069730e-01
<VARIANCE> 39
 2.043670e+01 1.907392e+01 2.851887e+01 2.314925e+01 3.351964e+01 3.535417e+01 4.167883e+01 3.071586e+01 3.268022e+01 3.101999e+01 2.506653e+01 1.964274e+01 1.494538e+01 4.639447e+00 2.527147e+00 3.505653e+00 2.577611e+00 3.125600e+00 4.244556e+00 4.226321e+00 4.590599e+00 3.583780e+00 2.542690e+00 2.794138e+00 3.384510e+00 1.750345e+00 5.912583e-01 3.792971e-01 6.621631e-01 4.757290e-01 5.112336e-01 5.771967e-01 8.218254e-01 5.584430e-01 7.086296e-01 5.455161e-01 6.346161e-01 4.773948e-01 3.461345e-01
<GCONST> 1.215675e+02
<TRANSP> 5
 0.000000e+00 1.000000e+00 0.000000e+00 0.000000e+00 0.000000e+00
 0.000000e+00 8.230842e-01 1.769157e-01 0.000000e+00 0.000000e+00
 0.000000e+00 0.000000e+00 8.293774e-01 1.706226e-01 0.000000e+00
 0.000000e+00 0.000000e+00 0.000000e+00 7.587025e-01 2.412975e-01
 0.000000e+00 0.000000e+00 0.000000e+00 0.000000e+00 0.000000e+00
<ENDHMM>
~o
<STREAMINFO> 1 39
<VECSIZE> 39<NULLD><MFCC_D_A_Z><DIAGC>
~h "d"
<BEGINHMM>
<NUMSTATES> 5
<STATE> 2
<NUMMIXES> 2
<MIXTURE> 1 5.506588e-01
<MEAN> 39
 1.137285e+01 4.293705e+00 6.712395e+00 7.381486e+00 1.173046e+00 -1.098228e+00 -3.230720e+00 -2.213533e+00 4.827096e+00 3.742537e-01 -7.807440e+00 -3.252962e+00 -1.187857e+00 9.031339e-01 2.402916e+00 9.683758e-01 6.572223e-01 2.013756e+00 1.994135e-01 1.541036e-02 -1.823703e-02 3.637200e-01 -3.458433e-01 -1.466712e+00 -5.540243e-01 1.118841e-01 -7.450978e-01 -6.682481e-01 -3.317432e-01 -7.090619e-01 -2.730420e-01 -1.854176e-01 2.216491e-01 1.739567e-01 -2.447442e-01 -3.214245e-01 8.339875e-01 3.143353e-01 -2.515700e-02
<VARIANCE> 39
 1.306479e+01 3.985021e+01 4.303659e+01 2.616136e+01 5.830317e+01 3.272869e+01 4.516686e+01 4.802849e+01 3.468669e+01 4.823080e+01 4.715562e+01 2.934286e+01 1.928517e+01 1.221259e+00 2.813518e+00 2.327249e+00 1.995873e+00 2.802497e+00 2.907327e+00 2.712361e+00 3.562146e+00 3.181555e+00 2.617389e+00 3.398848e+00 2.370243e+00 1.709947e+00 3.675234e-01 5.255749e-01 3.286942e-01 4.456981e-01 1.008075e+00 6.291087e-01 6.052796e-01 8.857822e-01 7.021295e-01 7.395944e-01 7.226828e-01 5.624355e-01 3.443313e-01
<GCONST> 1.224219e+02
<MIXTURE> 2 4.493411e-01
<MEAN> 39
 -3.022393e+00 1.110479e+00 2.010671e+00 7.573287e+00 9.620401e-01 -1.128428e+00 3.293380e-01 -2.201277e+00 1.163906e+00 9.976502e+00 -1.350776e+01 5.425223e+00 3.031326e+00 5.358137e-01 5.552720e-01 6.436098e-01 9.208281e-01 1.303319e-01 1.862638e-01 -3.930486e-01 -2.591963e-01 2.435773e-01 4.504886e-01 -1.075448e+00 -2.124677e-01 5.808309e-02 3.253391e-01 2.121621e-01 6.389802e-02 -2.269440e-01 2.487492e-01 4.883287e-02 -1.068483e-02 6.126998e-02 3.931579e-02 -4.784855e-01 4.547894e-01 -2.353766e-01 -1.543015e-01
<VARIANCE> 39
 4.569358e+01 3.417823e+01 3.438738e+01 5.715910e+01 5.343040e+01 4.086870e+01 5.600155e+01 4.217761e+01 4.181404e+01 8.605740e+01 1.370742e+02 3.554575e+01 2.977693e+01 3.621342e+00 4.026753e+00 2.235935e+00 3.726959e+00 5.451156e+00 3.114388e+00 3.258968e+00 3.489438e+00 3.262568e+00 6.497294e+00 8.807882e+00 2.700956e+00 2.334575e+00 4.563717e-01 6.094452e-01 3.665575e-01 7.929270e-01 8.807546e-01 6.747439e-01 6.055486e-01 6.470544e-01 6.332406e-01 1.081243e+00 1.410327e+00 4.896080e-01 4.338388e-01
<GCONST> 1.337208e+02
<STATE> 3
<NUMMIXES> 2
<MIXTURE> 1 5.483831e-01
<MEAN> 39
 1.221822e+01 8.853030e+00 8.234669e+00 8.074139e+00 5.455740e+00 -3.566697e+00 -1.831924e+00 7.003552e-01 5.450015e+00 -3.932489e+00 -7.961842e+00 -1.355779e+00 -7.742565e-01 -2.621695e+00 -1.154779e+00 -1.478487e-01 -1.283234e+00 3.288668e-01 -9.034823e-01 1.056303e+00 2.299713e-01 -1.503399e+00 -8.083689e-01 2.352132e+00 1.199451e+00 -4.308792e-01 -9.421960e-01 -1.074425e+00 -3.428679e-01 -5.335054e-01 -1.355588e+00 -9.348068e-02 -2.337149e-01 -2.133856e-01 -3.540086e-01 5.286828e-01 8.531714e-01 2.772178e-01 1.796967e-02
<VARIANCE> 39
 1.044767e+01 2.443886e+01 2.497485e+01 2.246860e+01 3.869332e+01 2.107891e+01 3.884356e+01 3.084983e+01 2.927561e+01 2.987854e+01 2.863262e+01 2.602816e+01 1.662009e+01 2.783727e+00 3.648800e+00 3.008248e+00 2.542969e+00 5.481376e+00 3.688821e+00 3.670402e+00 4.328181e+00 3.542533e+00 4.468365e+00 4.609282e+00 2.972744e+00 2.010616e+00 4.110987e-01 4.936084e-01 4.640659e-01 4.754520e-01 7.704463e-01 6.777456e-01 7.018473e-01 9.950436e-01 8.424883e-01 6.122679e-01 8.320747e-01 5.468745e-01 3.960809e-01
<GCONST> 1.232530e+02
<MIXTURE> 2 4.516169e-01
<MEAN> 39
 9.126965e+00 8.966502e+00 7.291628e+00 8.009308e+00 2.923875e+00 1.294880e+00 -5.301820e+00 -6.578557e+00 4.056611e+00 7.544946e+00 -1.423359e+01 -2.393225e+00 1.280887e+00 -1.104021e-01 -5.164887e-01 -1.876784e-01 -1.023641e+00 1.405000e+00 -1.421483e+00 5.227540e-01 1.403247e+00 9.139186e-02 -2.909580e+00 2.562142e+00 2.347729e-01 -4.550721e-01 -7.459254e-01 -1.043011e+00 -5.106997e-01 -5.115210e-01 -6.310232e-01 -5.525045e-01 2.645922e-01 5.926883e-01 -1.359332e-01 -5.924469e-01 1.007401e+00 5.170246e-01 -9.871464e-02
<VARIANCE> 39
 2.725165e+01 2.203231e+01 2.832503e+01 2.891035e+01 6.017847e+01 2.941443e+01 4.213737e+01 3.944611e+01 3.741750e+01 3.955040e+01 6.181744e+01 3.267205e+01 2.009346e+01 5.875823e+00 4.812789e+00 2.995445e+00 3.874708e+00 5.282149e+00 4.823704e+00 4.077504e+00 5.071305e+00 3.853352e+00 4.988343e+00 7.023579e+00 3.973235e+00 2.142073e+00 5.065297e-01 5.150807e-01 4.353719e-01 6.786025e-01 1.524389e+00 7.853535e-01 7.495406e-01 7.972549e-01 9.622259e-01 8.542718e-01 1.038154e+00 6.504477e-01 4.572005e-01
<GCONST> 1.324265e+02
<STATE> 4
<NUMMIXES> 2
<MIXTURE> 1 6.032999e-01
<MEAN> 39
 -3.816586e-01 8.131009e-01 7.031969e+00 2.733783e+00 3.007184e+00 -5.704913e+00 1.076229e+00 -5.039142e-01 -2.064506e+00 -4.612625e+00 1.873905e+00 3.438811e+00 -2.373148e+00 -1.941201e+00 -1.904312e+00 -5.933806e-01 -1.390038e+00 -3.411141e+00 -1.327088e+00 -7.379329e-01 3.611413e-01 -4.715149e-01 -1.585403e-01 2.749892e+00 8.428968e-01 1.479778e-01 8.915830e-01 2.283544e-01 -2.209063e-01 1.483168e-01 -9.407832e-01 5.606895e-01 -6.328212e-01 -7.685958e-02 6.841917e-01 5.509251e-01 -6.479095e-01 -6.628144e-01 1.946976e-01
<VARIANCE> 39
 1.987313e+01 3.376562e+01 4.517673e+01 3.284423e+01 7.803655e+01 4.329226e+01 3.935307e+01 3.407453e+01 4.251891e+01 3.305238e+01 3.431956e+01 2.606059e+01 1.967134e+01 3.170559e+00 3.963609e+00 4.359396e+00 3.428011e+00 6.434700e+00 4.035123e+00 4.804037e+00 6.848022e+00 6.278318e+00 5.199309e+00 5.409875e+00 3.713523e+00 2.476196e+00 4.362406e-01 6.724145e-01 6.410539e-01 7.069304e-01 1.402341e+00 9.687863e-01 8.062986e-01 9.599969e-01 7.686894e-01 9.873613e-01 8.755409e-01 6.642380e-01 4.522026e-01
<GCONST> 1.336371e+02
<MIXTURE> 2 3.967002e-01
<MEAN> 39
 4.199296e+00 -3.315488e+00 1.003219e+00 8.718458e-01 -5.692052e+00 -7.727337e+00 -5.324226e+00 3.635242e+00 8.434132e+00 -1.532041e+00 6.719044e-01 7.630716e-01 6.004565e-01 7.308983e-01 -1.331767e+00 -1.835522e+00 -1.414468e+00 -2.615724e+00 1.441900e+00 -1.303012e+00 7.946971e-01 1.743440e+00 7.050818e-01 4.619652e-01 -1.705960e+00 -8.194880e-02 5.471956e-01 7.461579e-01 3.171351e-01 3.387868e-01 8.608307e-01 1.245902e+00 1.494519e-01 -8.192176e-01 -4.326255e-01 2.368806e-01 -7.048434e-01 -6.999427e-01 -1.679765e-01
<VARIANCE> 39
 8.600272e+00 2.069210e+01 2.592327e+01 2.551878e+01 4.640512e+01 2.950182e+01 4.705689e+01 3.796942e+01 3.504546e+01 3.028948e+01 3.597240e+01 3.291824e+01 2.194816e+01 1.850940e+00 3.976814e+00 2.855903e+00 4.391736e+00 5.111767e+00 4.938396e+00 5.495338e+00 5.948813e+00 4.977731e+00 5.544107e+00 5.568737e+00 4.162496e+00 2.908506e+00 2.878571e-01 3.585516e-01 3.540765e-01 4.756464e-01 8.002037e-01 6.605011e-01 7.919794e-01 8.286949e-01 7.319571e-01 8.108320e-01 7.942038e-01 6.450636e-01 5.001262e-01
<GCONST> 1.269713e+02
<TRANSP> 5
 0.000000e+00 1.000000e+00 0.000000e+00 0.000000e+00 0.000000e+00
 0.000000e+00 6.998696e-01 3.001304e-01 0.000000e+00 0.000000e+00
 0.000000e+00 0.000000e+00 5.979885e-01 4.020115e-01 0.000000e+00
 0.000000e+00 0.000000e+00 0.000000e+00 6.717061e-01 3.282939e-01
 0.000000e+00 0.000000e+00 0.000000e+00 0.000000e+00 0.000000e+00
<ENDHMM>
~o
<STREAMINFO> 1 39
<VECSIZE> 39<NULLD><MFCC_D_A_Z><DIAGC>
~h "dh"
<BEGINHMM>
<NUMSTATES> 5
<STATE> 2
<NUMMIXES> 2
<MIXTURE> 1 4.606764e-01
<MEAN> 39
 5.033382e+00 5.755445e+00 4.346512e+00 7.618024e+00 3.763031e+00 -1.511919e+00 -4.376729e+00 -1.359838e+00 3.200593e+00 4.049285e+00 -1.013583e+01 3.894757e-01 7.954101e-01 4.525292e-02 1.170558e+00 3.963083e-01 -1.259974e-01 1.136657e+00 -4.801567e-02 5.947425e-01 3.529091e-01 2.431618e-01 -4.315457e-01 -1.964493e-02 7.780386e-02 -1.802101e-01 -5.298671e-01 -5.109191e-01 -3.761438e-01 -5.435086e-01 -2.585181e-01 -8.080260e-02 3.879518e-01 1.159042e-01 -1.448512e-01 -2.939975e-01 8.966449e-01 2.405064e-01 -1.414572e-01
<VARIANCE> 39
 7.004395e+01 3.489622e+01 3.999788e+01 3.654060e+01 6.374759e+01 3.716695e+01 6.142871e+01 4.861272e+01 4.588667e+01 8.538100e+01 7.211413e+01 3.746624e+01 2.411113e+01 3.212430e+00 3.790649e+00 2.644736e+00 3.085002e+00 5.098344e+00 3.363455e+00 3.669801e+00 3.646739e+00 4.104467e+00 5.318940e+00 6.142857e+00 2.790046e+00 2.030860e+00 7.739720e-01 8.048127e-01 4.244885e-01 6.917821e-01 1.107156e+00 7.930478e-01 7.026950e-01 8.615757e-01 9.212288e-01 1.023603e+00 9.059178e-01 6.195922e-01 3.936727e-01
<GCONST> 1.346644e+02
<MIXTURE> 2 5.393236e-01
<MEAN> 39
 -4.298588e+00 2.786583e+00 -1.244939e+00 2.565585e+00 9.083453e+00 3.856063e-01 7.377199e+00 2.344091e+00 2.284962e+00 -8.245842e-01 8.093642e-01 5.974072e+00 6.196684e-01 -3.154169e-01 -2.592208e-01 5.521696e-02 -1.859215e-01 -3.238403e-03 -1.495064e-02 2.645410e-01 2.003178e-01 8.635800e-02 1.162873e-01 1.945141e-01 5.651771e-02 -1.224481e-02 -3.712252e-02 -2.923412e-01 -2.902096e-02 1.993970e-02 -8.315418e-02 -1.533211e-01 -1.897086e-01 3.730403e-02 5.166278e-02 4.757927e-02 -1.086012e-01 -3.317196e-03 5.504784e-02
<VARIANCE> 39
 1.556940e+01 4.516664e+01 1.700090e+01 1.713243e+01 2.249533e+01 2.724202e+01 2.191103e+01 2.536648e+01 2.275853e+01 3.735769e+01 2.855807e+01 2.167612e+01 1.468405e+01 1.134323e+00 4.264323e+00 1.768312e+00 2.052921e+00 2.111618e+00 2.772992e+00 2.642809e+00 3.040640e+00 2.689799e+00 3.978462e+00 3.516914e+00 2.218430e+00 1.599379e+00 1.768361e-01 6.271614e-01 2.854835e-01 3.838984e-01 4.121457e-01 4.570282e-01 4.906593e-01 5.532745e-01 5.231647e-01 6.620608e-01 5.930620e-01 4.162362e-01 3.220918e-01
<GCONST> 1.131418e+02
<STATE> 3
<NUMMIXES> 2
<MIXTURE> 1 5.798717e-01
<MEAN> 39
 -7.631644e+00 -3.559482e+00 -7.918898e-01 7.764215e-03 6.223611e+00 -6.448126e+00 6.147037e+00 6.495825e+00 4.257209e+00 -2.423929e+00 4.834636e+00 7.825537e+00 2.625694e-02 -1.329508e+00 -1.864533e+00 -1.155396e+00 7.619894e-01 6.969868e-02 -1.265426e+00 2.829603e-01 9.948775e-01 1.070420e+00 -4.307499e-01 6.217721e-01 1.351989e+00 1.274387e+00 1.241335e+00 1.048181e+00 1.997285e-01 6.328517e-01 -8.368686e-02 6.066546e-01 -7.581726e-01 -1.053843e+00 -2.268189e-01 4.081215e-01 -1.021298e+00 -7.034858e-01 -7.637321e-03
<VARIANCE> 39
 1.920253e+01 2.594301e+01 4.192239e+01 3.783849e+01 3.439266e+01 4.148843e+01 4.325429e+01 4.672649e+01 4.981333e+01 3.824400e+01 3.101726e+01 3.232777e+01 2.553449e+01 4.490360e+00 4.950799e+00 3.555692e+00 4.457462e+00 5.801767e+00 4.037228e+00 5.951948e+00 6.020393e+00 4.936082e+00 5.001966e+00 7.672630e+00 4.270863e+00 2.394004e+00 7.625548e-01 6.376513e-01 7.764204e-01 8.853987e-01 9.719076e-01 1.032953e+00 8.309721e-01 1.279135e+00 1.078093e+00 1.218557e+00 1.142672e+00 7.855429e-01 6.318994e-01
<GCONST> 1.366757e+02
<MIXTURE> 2 4.201283e-01
<MEAN> 39
 4.237794e+00 9.736371e+00 4.553535e+00 3.526587e+00 6.208604e+00 -2.800374e+00 1.643809e-02 -5.106635e-02 1.497087e+00 1.556476e+00 -4.963959e+00 7.882512e-01 -2.245739e+00 -3.409860e+00 -2.461633e+00 -1.142601e+00 -1.779671e+00 5.663671e-01 -8.246227e-01 1.831005e+00 1.257331e+00 -1.564440e-01 -1.032176e+00 2.737879e+00 1.368219e+00 -2.381084e-01 -4.593945e-01 -9.410099e-01 -3.642341e-01 1.708075e-01 -3.935562e-01 -1.951359e-01 -8.155744e-02 1.673364e-01 3.156190e-01 -1.384713e-01 3.932982e-01 4.399098e-01 3.872091e-01
<VARIANCE> 39
 4.404245e+01 3.117903e+01 3.590996e+01 3.865182e+01 4.576593e+01 3.079831e+01 4.429761e+01 3.907249e+01 4.398399e+01 5.206804e+01 5.755060e+01 2.334371e+01 1.899698e+01 3.566064e+00 4.667458e+00 3.566411e+00 3.362380e+00 5.306727e+00 4.114462e+00 4.610970e+00 5.337220e+00 4.795006e+00 6.969009e+00 6.495801e+00 3.191768e+00 2.485235e+00 7.858257e-01 7.524028e-01 5.216807e-01 7.762061e-01 1.151182e+00 5.575688e-01 7.234641e-01 8.363687e-01 8.826466e-01 1.086693e+00 1.026452e+00 5.489238e-01 4.149882e-01
<GCONST> 1.338926e+02
<STATE> 4
<NUMMIXES> 2
<MIXTURE> 1 7.072113e-01
<MEAN> 39
 -4.155166e+00 -1.758311e+00 -2.343018e+00 5.710481e+00 8.605613e+00 -5.471372e+00 3.034199e+00 2.224070e+00 5.258814e+00 -2.025863e+00 -8.217685e-01 6.259688e+00 2.789313e+00 2.134353e+00 7.802227e-01 -2.536950e-01 2.598304e-01 -5.562136e-01 1.163868e+00 -1.401286e+00 -2.418345e+00 -4.779787e-01 1.462182e-01 -5.946388e-01 -1.823031e+00 -2.214650e-01 5.858289e-01 2.436521e-01 6.162699e-02 -6.649024e-01 -6.078686e-01 4.010065e-01 -1.712384e-01 -3.083181e-01 -1.974936e-01 1.122839e-01 3.991088e-01 -5.536301e-01 -3.864301e-01
<VARIANCE> 39
 2.815644e+01 3.543950e+01 3.684821e+01 2.411907e+01 5.682184e+01 3.488427e+01 6.246725e+01 3.806149e+01 4.546938e+01 3.753704e+01 3.646213e+01 4.375750e+01 2.048260e+01 2.657689e+00 3.299949e+00 3.191759e+00 3.631855e+00 4.610029e+00 3.426696e+00 3.610223e+00 4.893048e+00 4.193328e+00 4.733664e+00 5.359386e+00 3.844074e+00 2.484229e+00 6.165815e-01 7.804393e-01 4.466375e-01 5.418023e-01 7.857727e-01 8.537385e-01 7.219377e-01 1.125878e+00 1.038181e+00 7.042932e-01 9.576071e-01 7.886141e-01 4.630083e-01
<GCONST> 1.316313e+02
<MIXTURE> 2 2.927887e-01
<MEAN> 39
 6.956488e+00 1.253298e+00 -3.753687e+00 -1.730962e+00 1.323841e+00 3.711390e+00 -5.807235e+00 -7.737322e+00 2.858115e+00 1.630948e+00 6.941710e+00 1.155292e+00 -2.188336e+00 1.283286e+00 3.038107e-01 -2.880006e-01 -1.067335e+00 -1.127856e+00 1.173952e+00 -5.398351e-01 -9.110501e-01 -8.467752e-01 2.676893e-01 4.386370e-01 -5.180002e-01 -4.438085e-01 -3.178669e-01 -1.322310e-01 2.196314e-01 2.830403e-01 2.081346e-01 -3.420767e-01 2.574623e-01 5.952988e-01 2.099237e-02 -2.277186e-01 -3.701558e-01 9.901304e-02 1.738099e-01
<VARIANCE> 39
 2.026372e+01 2.476957e+01 1.865940e+01 6.495681e+01 6.595528e+01 4.672472e+01 3.733802e+01 6.358597e+01 3.426896e+01 3.396127e+01 6.647643e+01 3.147908e+01 1.887302e+01 2.924547e+00 2.783533e+00 2.270247e+00 8.040441e+00 9.809261e+00 7.680604e+00 3.216414e+00 7.723650e+00 4.124496e+00 4.415815e+00 7.107259e+00 3.213545e+00 2.432872e+00 2.821679e-01 5.492855e-01 4.189063e-01 1.318665e+00 1.582289e+00 9.000465e-01 7.464789e-01 8.883796e-01 5.883131e-01 8.124831e-01 1.103346e+00 5.516374e-01 4.660400e-01
<GCONST> 1.333870e+02
<TRANSP> 5
 0.000000e+00 1.000000e+00 0.000000e+00 0.000000e+00 0.000000e+00
 0.000000e+00 8.236570e-01 1.763430e-01 0.000000e+00 0.000000e+00
 0.000000e+00 0.000000e+00 7.402418e-01 2.597582e-01 0.000000e+00
 0.000000e+00 0.000000e+00 0.000000e+00 7.118785e-01 2.881215e-01
 0.000000e+00 0.000000e+00 0.000000e+00 0.000000e+00 0.000000e+00
<ENDHMM>
~o
<STREAMINFO> 1 39
<VECSIZE> 39<NULLD><MFCC_D_A_Z><DIAGC>
~h "dx"
<BEGINHMM>
<NUMSTATES> 5
<STATE> 2
<NUMMIXES> 2
<MIXTURE> 1 5.641718e-01
<MEAN> 39
 4.096065e+00 1.767538e+00 1.196498e+00 4.659071e+00 2.623553e+00 -1.406888e+00 -1.508717e+00 -1.073414e+00 3.157691e+00 1.169750e+00 -3.215500e+00 5.441337e-02 -1.981751e-01 3.737826e-02 7.547289e-01 7.407997e-01 1.560026e-01 6.350003e-01 7.807615e-02 1.372068e-01 1.355111e-02 7.495714e-02 4.328319e-01 -1.095660e+00 2.585938e-03 2.001281e-01 -2.797469e-01 -1.506795e-01 -5.073891e-02 -2.743875e-01 -2.800549e-01 -6.255130e-03 6.946668e-03 -3.866622e-02 -2.555898e-01 7.363021e-03 1.305597e-01 1.750231e-01 -1.540562e-02
<VARIANCE> 39
 5.360153e+01 4.813151e+01 6.442999e+01 5.505788e+01 7.168749e+01 4.897295e+01 7.263168e+01 5.374724e+01 4.135725e+01 6.414725e+01 8.434100e+01 4.795926e+01 3.496916e+01 3.134394e+00 4.881010e+00 4.066020e+00 3.798823e+00 6.741489e+00 4.070955e+00 4.335604e+00 3.802418e+00 3.821468e+00 5.928390e+00 8.710196e+00 2.977245e+00 2.843824e+00 4.377848e-01 7.169427e-01 6.301397e-01 9.241319e-01 1.057969e+00 7.818611e-01 8.043559e-01 7.854871e-01 7.487041e-01 8.953959e-01 1.320976e+00 5.325532e-01 5.187674e-01
<GCONST> 1.391276e+02
<MIXTURE> 2 4.358282e-01
<MEAN> 39
 5.912533e+00 4.302230e+00 1.086541e+01 4.389018e+00 -5.723753e+00 -1.518873e-01 -5.942352e+00 -4.636313e+00 1.293958e-02 7.908629e+00 -1.792904e+01 2.136564e+00 1.206548e+00 5.765584e-02 7.329590e-01 2.875635e-01 1.189114e-01 4.135655e-01 -9.165085e-03 1.170149e-01 -1.455497e-01 -3.012090e-02 -1.135489e-01 -2.341924e-01 -1.235830e-01 2.289548e-01 -1.116251e-01 -3.448872e-01 -3.867859e-01 -1.661469e-01 2.703274e-01 -8.990903e-02 1.908746e-01 2.987892e-01 -5.375665e-02 -4.058739e-01 8.020524e-01 -1.055541e-01 -1.329140e-01
<VARIANCE> 39
 9.688155e+00 2.505433e+01 1.994874e+01 2.568215e+01 3.054300e+01 3.003403e+01 3.434986e+01 2.698281e+01 4.126074e+01 3.860432e+01 5.105151e+01 2.997096e+01 2.168050e+01 3.861659e-01 9.291677e-01 1.337548e+00 9.368505e-01 2.060480e+00 1.540864e+00 1.484486e+00 1.857758e+00 1.814613e+00 2.003576e+00 3.400923e+00 1.998123e+00 1.211953e+00 1.073938e-01 2.445526e-01 2.571461e-01 2.344446e-01 4.774935e-01 3.851213e-01 2.980244e-01 3.645569e-01 3.436188e-01 5.128754e-01 7.247727e-01 3.783857e-01 2.442430e-01
<GCONST> 1.048132e+02
<STATE> 3
<NUMMIXES> 2
<MIXTURE> 1 7.451839e-01
<MEAN> 39
 9.679973e+00 9.013515e+00 8.870338e+00 6.541515e+00 2.450264e+00 -1.491245e+00 -3.133509e+00 -1.075942e+00 2.549224e+00 4.205024e-01 -1.004189e+01 -4.649219e-01 -3.307830e-01 -8.064937e-01 -1.724229e-01 -2.989766e-01 -1.149299e+00 1.125777e+00 -5.440392e-01 6.480306e-01 4.200380e-01 -4.492590e-01 -1.483161e+00 2.058655e+00 2.625583e-01 -5.475821e-01 -8.252642e-01 -7.873365e-01 -4.760541e-01 -3.544554e-01 -5.490074e-01 -2.244237e-01 1.426360e-02 -6.347402e-02 -1.924962e-01 1.063331e-01 6.092208e-01 2.288982e-01 -2.000583e-02
<VARIANCE> 39
 2.040197e+01 2.442006e+01 3.116865e+01 2.666599e+01 5.386070e+01 3.181456e+01 3.980169e+01 4.712959e+01 3.803952e+01 7.604414e+01 7.017071e+01 2.468081e+01 1.992289e+01 6.174432e+00 3.877732e+00 3.060335e+00 2.965869e+00 4.633833e+00 3.657318e+00 3.792303e+00 3.993217e+00 3.762188e+00 6.221186e+00 6.848306e+00 2.904709e+00 1.763992e+00 5.054523e-01 5.004658e-01 4.212667e-01 5.222270e-01 1.144332e+00 5.938056e-01 6.787720e-01 9.073966e-01 6.995254e-01 9.301108e-01 8.022611e-01 4.301516e-01 3.155688e-01
<GCONST> 1.292460e+02
<MIXTURE> 2 2.548161e-01
<MEAN> 39
 -7.327775e+00 -7.602193e-01 2.501464e+00 9.747633e+00 1.689148e+00 -1.135052e+00 1.040654e+00 -9.804974e-01 -1.647544e+00 1.359372e+01 -1.839682e+01 5.876238e+00 5.937895e+00 6.538180e-01 5.854366e-01 8.508212e-01 9.227971e-01 4.207046e-02 1.791648e-01 -5.050441e-01 -1.931223e-01 9.312000e-02 4.328254e-01 -1.140161e+00 -3.194306e-01 -2.355031e-01 6.733211e-01 5.217186e-01 1.069268e-01 -4.092242e-01 2.326391e-01 4.421385e-02 6.108060e-02 8.642100e-02 2.323536e-01 -8.530553e-01 9.414813e-01 -2.226565e-01 -3.247329e-01
<VARIANCE> 39
 1.250148e+01 2.036121e+01 2.453717e+01 4.887604e+01 3.508596e+01 3.357689e+01 3.243945e+01 2.800368e+01 4.343122e+01 5.255864e+01 5.481277e+01 3.173573e+01 2.517216e+01 5.152194e+00 4.255306e+00 2.254307e+00 3.621620e+00 5.249476e+00 2.918611e+00 3.562854e+00 3.160802e+00 4.053331e+00 7.785679e+00 9.422392e+00 2.505564e+00 2.268950e+00 4.544327e-01 4.774165e-01 3.778656e-01 7.158153e-01 8.514300e-01 5.906453e-01 6.058962e-01 6.157384e-01 6.863962e-01 8.303324e-01 7.901584e-01 4.801277e-01 4.043203e-01
<GCONST> 1.274345e+02
<STATE> 4
<NUMMIXES> 2
<MIXTURE> 1 3.222544e-01
<MEAN> 39
 -1.894485e+00 3.736700e+00 1.028093e+01 1.913909e+00 1.756660e+00 -4.309923e+00 1.335526e+00 -2.506402e+00 -5.918600e+00 -3.989768e+00 2.155736e+00 3.499625e+00 -3.762320e+00 -2.442869e+00 -9.438100e-01 3.045471e-01 -1.020590e+00 -3.484731e+00 -8.417503e-01 -8.999540e-01 -1.377840e+00 -1.457740e+00 1.527370e-02 2.843858e+00 7.205842e-01 -1.134317e-01 9.072236e-01 3.510408e-01 -1.643078e-01 3.939847e-01 -1.166878e+00 1.702377e-01 -6.391967e-01 2.191467e-02 5.831045e-01 4.304225e-01 -7.165076e-01 -3.525508e-01 3.949444e-01
<VARIANCE> 39
 1.208169e+01 2.537526e+01 3.033626e+01 1.995443e+01 9.240165e+01 3.327618e+01 2.929361e+01 2.947025e+01 3.033838e+01 2.303611e+01 2.408316e+01 2.248512e+01 1.373220e+01 3.335148e+00 2.974728e+00 2.468701e+00 2.437627e+00 7.213243e+00 2.658413e+00 3.369496e+00 5.199465e+00 4.170456e+00 4.079757e+00 6.026954e+00 2.164134e+00 1.801180e+00 4.103882e-01 4.427957e-01 6.123345e-01 4.345170e-01 1.343801e+00 5.238885e-01 6.294563e-01 8.027149e-01 6.269799e-01 9.722083e-01 8.933130e-01 5.305973e-01 3.328634e-01
<GCONST> 1.235564e+02
<MIXTURE> 2 6.777456e-01
<MEAN> 39
 6.730694e-01 1.781694e+00 1.156195e+00 6.470462e-01 3.134091e+00 -4.208618e+00 -1.560841e+00 6.895074e-01 2.903846e+00 2.054406e-01 -2.322730e+00 1.566318e+00 -5.497258e-01 -6.469559e-01 -1.488583e+00 -1.672627e+00 -1.318011e+00 -8.582419e-01 -1.801361e-01 1.946723e-01 7.810057e-01 4.774593e-01 -2.740368e-01 1.513958e+00 -4.212032e-01 1.512553e-02 4.315481e-01 -3.581172e-02 -2.507454e-02 1.132424e-01 -3.251537e-01 4.592324e-01 -1.470774e-01 -3.016507e-01 7.218085e-02 1.969186e-01 -2.813049e-01 -4.220324e-01 4.801462e-02
<VARIANCE> 39
 4.049073e+01 4.786780e+01 4.662578e+01 4.037407e+01 6.839712e+01 5.495580e+01 5.532082e+01 4.541414e+01 5.046535e+01 5.633276e+01 6.178239e+01 3.674426e+01 2.598696e+01 4.535155e+00 6.018962e+00 5.123977e+00 3.976606e+00 7.199975e+00 5.222270e+00 5.581887e+00 5.314733e+00 5.927320e+00 6.213728e+00 7.820760e+00 3.990717e+00 2.655625e+00 6.577130e-01 9.098972e-01 7.548352e-01 6.778343e-01 1.264451e+00 1.238031e+00 7.602929e-01 8.418824e-01 8.258376e-01 1.036167e+00 9.954161e-01 7.439041e-01 4.586820e-01
<GCONST> 1.407304e+02
<TRANSP> 5
 0.000000e+00 1.000000e+00 0.000000e+00 0.000000e+00 0.000000e+00
 0.000000e+00 6.057138e-01 3.942862e-01 0.000000e+00 0.000000e+00
 0.000000e+00 0.000000e+00 6.881403e-01 3.118597e-01 0.000000e+00
 0.000000e+00 0.000000e+00 0.000000e+00 5.753132e-01 4.246868e-01
 0.000000e+00 0.000000e+00 0.000000e+00 0.000000e+00 0.000000e+00
<ENDHMM>
~o
<STREAMINFO> 1 39
<VECSIZE> 39<NULLD><MFCC_D_A_Z><DIAGC>
~h "dxh"
<BEGINHMM>
<NUMSTATES> 5
<STATE> 2
<NUMMIXES> 2
<MIXTURE> 1 5.286013e-01
<MEAN> 39
 -4.253475e+00 4.242371e+00 -1.744643e+00 1.338173e+00 9.625204e+00 1.032864e+00 6.816553e+00 -1.406066e-01 1.771594e+00 1.865438e+00 2.056205e-01 1.292151e+00 -1.413684e+00 -4.190113e-01 -1.723173e-01 6.512921e-02 -4.239835e-01 5.026212e-02 1.539483e-01 -8.974298e-03 -2.969826e-02 3.888306e-01 2.552951e-01 3.099946e-01 -4.235736e-02 1.037268e-01 -1.335932e-01 -5.372760e-01 1.832062e-01 6.960015e-03 -2.714759e-01 -3.597448e-01 -1.783908e-03 3.368458e-01 1.518348e-02 -3.341825e-02 1.628515e-01 4.022205e-01 2.344909e-01
<VARIANCE> 39
 7.998302e+00 9.334374e+00 9.213695e+00 9.916554e+00 1.177678e+01 1.297906e+01 1.676639e+01 2.386539e+01 2.424101e+01 2.537540e+01 2.175399e+01 1.476517e+01 1.044360e+01 9.012538e-01 1.874794e+00 1.351663e+00 1.297566e+00 1.791616e+00 2.905673e+00 2.151173e+00 4.738915e+00 4.233917e+00 4.223465e+00 4.048800e+00 2.185504e+00 1.850797e+00 1.351901e-01 3.498918e-01 2.043438e-01 2.921914e-01 3.144874e-01 3.586773e-01 5.026772e-01 1.111353e+00 8.119552e-01 7.923087e-01 7.412238e-01 3.500986e-01 2.849669e-01
<GCONST> 1.051245e+02
<MIXTURE> 2 4.713987e-01
<MEAN> 39
 6.029521e+00 7.504715e+00 5.495402e+00 8.948494e+00 8.166735e-01 -1.244094e+00 -3.165493e+00 1.252317e-01 3.788211e+00 3.920258e+00 -1.088326e+01 1.930082e+00 3.160941e-01 7.238230e-02 1.080623e+00 2.534051e-01 6.434062e-02 1.253595e+00 3.014473e-01 2.924756e-01 1.129491e-01 1.394015e-01 5.008849e-01 -4.176189e-01 1.747561e-01 1.307964e-02 -5.172784e-01 -4.384637e-01 -1.702208e-01 -5.342802e-01 -1.092314e-01 6.704048e-02 8.820246e-02 -2.946891e-01 -2.740036e-01 -3.368578e-01 6.767619e-01 2.250898e-02 -1.072471e-01
<VARIANCE> 39
 6.890821e+01 2.927238e+01 2.446264e+01 2.413900e+01 6.479736e+01 5.355555e+01 4.120466e+01 3.197707e+01 3.836860e+01 6.223386e+01 1.188866e+02 5.137051e+01 1.150860e+01 4.230975e+00 2.313609e+00 1.757504e+00 3.686137e+00 5.455446e+00 5.041368e+00 4.191572e+00 4.158689e+00 4.123425e+00 8.777321e+00 1.143011e+01 4.449919e+00 1.720625e+00 8.265818e-01 6.727790e-01 2.826321e-01 5.752656e-01 8.319997e-01 1.217709e+00 6.950915e-01 6.814170e-01 9.256882e-01 1.352107e+00 1.380925e+00 5.559287e-01 2.843052e-01
<GCONST> 1.338894e+02
<STATE> 3
<NUMMIXES> 2
<MIXTURE> 1 5.894037e-01
<MEAN> 39
 -7.901715e+00 -4.966933e+00 2.095981e-01 5.344301e-01 6.572017e+00 -6.261903e+00 8.816103e+00 6.553253e+00 5.217806e+00 5.713123e-01 5.537726e+00 8.085473e+00 2.329593e+00 -6.155387e-01 -1.940447e+00 -1.074376e+00 -4.021250e-03 1.544606e-01 -1.480653e-01 8.262348e-01 -1.431303e-01 -1.741399e-01 -3.201132e-01 1.460816e-01 5.301705e-01 9.031014e-01 7.328235e-01 8.184184e-01 -2.231074e-02 2.640746e-01 1.508804e-01 7.969024e-01 -5.014492e-01 -1.227066e+00 -7.209415e-01 -2.653019e-01 -7.564093e-01 -9.391395e-01 -3.302045e-01
<VARIANCE> 39
 1.765787e+01 2.441987e+01 3.205902e+01 3.043258e+01 2.964622e+01 2.816940e+01 5.723063e+01 4.239015e+01 4.424775e+01 5.336313e+01 5.436162e+01 2.511108e+01 1.649173e+01 3.766723e+00 4.613470e+00 3.603603e+00 2.277565e+00 5.434766e+00 4.747211e+00 5.910113e+00 7.944205e+00 5.010578e+00 6.708213e+00 8.893489e+00 5.500375e+00 2.862359e+00 7.249342e-01 5.024434e-01 6.273996e-01 5.958951e-01 6.346206e-01 8.074023e-01 7.787402e-01 1.188568e+00 8.673190e-01 1.287548e+00 1.313404e+00 7.741452e-01 4.128477e-01
<GCONST> 1.339562e+02
<MIXTURE> 2 4.105964e-01
<MEAN> 39
 5.279445e-01 6.388772e+00 2.597273e+00 2.368329e+00 6.960600e+00 -7.146940e-01 2.134265e+00 -1.179132e+00 1.156955e+00 1.914234e+00 -2.117391e+00 5.768120e-01 -2.541024e+00 -2.778718e+00 -2.781345e+00 -2.564406e-01 -1.306798e+00 -3.482801e-02 -1.019891e+00 1.016150e+00 1.241775e+00 3.182910e-01 -7.622702e-01 2.399260e+00 1.565686e+00 1.846195e-01 -1.347589e-01 -7.188206e-01 -3.465768e-01 1.930727e-01 -3.345662e-01 -2.493383e-01 2.134373e-01 4.886185e-01 2.439910e-01 -4.447734e-02 4.764418e-02 4.029866e-01 5.592388e-01
<VARIANCE> 39
 6.511569e+01 4.836638e+01 3.078504e+01 2.446117e+01 3.220959e+01 1.859651e+01 3.604521e+01 3.002934e+01 4.209937e+01 6.220935e+01 8.741976e+01 2.322169e+01 2.236222e+01 5.817181e+00 4.270011e+00 3.140224e+00 2.821894e+00 5.700792e+00 6.238063e+00 5.994827e+00 6.990823e+00 4.573894e+00 7.082467e+00 1.455087e+01 3.412975e+00 3.537427e+00 1.093763e+00 8.387043e-01 4.160191e-01 4.306647e-01 1.007159e+00 3.484207e-01 1.338246e+00 7.270178e-01 9.438544e-01 1.758578e+00 2.429667e+00 6.203304e-01 5.182244e-01
<GCONST> 1.370590e+02
<STATE> 4
<NUMMIXES> 2
<MIXTURE> 1 7.141896e-01
<MEAN> 39
 -2.362773e+00 -8.014392e+00 -5.530411e+00 8.408751e-01 1.341316e+01 2.470227e-01 1.045037e+01 -3.513504e+00 1.317613e+00 -5.526423e+00 4.450008e+00 -5.147927e-01 3.365556e+00 1.748938e+00 2.314404e-01 -6.117916e-01 -2.737740e-01 -3.967913e-01 8.026119e-01 -5.213635e-01 -1.359894e+00 -7.400076e-01 -4.308597e-01 5.480273e-01 -1.834677e+00 -1.196508e-01 3.010836e-01 2.610207e-01 1.234028e-01 -1.082139e-01 -6.402611e-01 -2.386614e-01 -3.065490e-01 6.316552e-01 1.414188e-01 1.921960e-01 7.331488e-02 1.327634e-01 -1.106619e-01
<VARIANCE> 39
 3.912029e+01 4.748591e+01 2.347465e+01 3.614178e+01 3.235245e+01 2.885741e+01 5.765020e+01 3.408839e+01 2.338395e+01 3.958798e+01 3.912975e+01 3.666100e+01 2.238473e+01 2.200821e+00 3.213378e+00 1.257620e+00 3.255287e+00 3.850291e+00 2.007831e+00 2.165166e+00 7.286082e+00 3.139571e+00 3.949091e+00 2.439534e+00 2.576322e+00 2.028541e+00 4.638592e-01 7.200863e-01 3.373143e-01 6.165524e-01 4.391307e-01 5.202159e-01 4.164129e-01 1.326546e+00 4.679683e-01 7.459187e-01 7.758581e-01 3.730208e-01 4.101817e-01
<GCONST> 1.228896e+02
<MIXTURE> 2 2.858104e-01
<MEAN> 39
 -8.428570e+00 -3.677264e-02 7.815449e+00 2.634067e+00 -5.983684e+00 -5.856011e+00 7.174732e+00 -1.341694e+00 -6.882120e+00 1.904423e-01 3.068050e+00 7.118442e+00 2.527171e+00 1.796960e+00 1.914096e+00 1.672121e+00 1.232707e+00 -2.509700e+00 2.035462e-01 -1.016317e+00 -7.937453e-01 -1.191216e+00 -7.582846e-01 -8.422089e-01 -1.888136e+00 1.933347e-01 3.709042e-01 3.676923e-01 -5.118978e-02 -3.394359e-01 3.921891e-01 1.724105e-01 1.075150e-01 1.393070e-01 5.028016e-01 4.221745e-01 8.801446e-02 -3.499231e-01 -5.300456e-02
<VARIANCE> 39
 3.083698e+01 2.878968e+01 2.643746e+01 3.398742e+01 2.559455e+01 1.659819e+01 3.475373e+01 1.526525e+01 2.174316e+01 2.623916e+01 3.476630e+01 2.551774e+01 1.185998e+01 3.324208e+00 3.058085e+00 1.523109e+00 3.187208e+00 1.248459e+00 2.144312e+00 1.880964e+00 1.388019e+00 2.931393e+00 2.856140e+00 7.290693e+00 3.394171e+00 1.146441e+00 7.950821e-01 5.396831e-01 4.633804e-01 6.110435e-01 4.871312e-01 3.791093e-01 5.010734e-01 2.022664e-01 3.698347e-01 5.385402e-01 8.704523e-01 6.833762e-01 2.696784e-01
<GCONST> 1.149838e+02
<TRANSP> 5
 0.000000e+00 1.000000e+00 0.000000e+00 0.000000e+00 0.000000e+00
 0.000000e+00 8.328456e-01 1.671544e-01 0.000000e+00 0.000000e+00
 0.000000e+00 0.000000e+00 7.994640e-01 2.005361e-01 0.000000e+00
 0.000000e+00 0.000000e+00 0.000000e+00 7.460123e-01 2.539876e-01
 0.000000e+00 0.000000e+00 0.000000e+00 0.000000e+00 0.000000e+00
<ENDHMM>
~o
<STREAMINFO> 1 39
<VECSIZE> 39<NULLD><MFCC_D_A_Z><DIAGC>
~h "dxhq"
<BEGINHMM>
<NUMSTATES> 5
<STATE> 2
<NUMMIXES> 2
<MIXTURE> 1 6.380188e-01
<MEAN> 39
 8.799104e+00 -1.398462e+00 -6.693397e+00 -1.607461e+01 -2.257788e+00 7.899350e+00 -6.247795e+00 -5.016008e+00 4.362775e-01 3.066592e+00 1.211408e+01 -6.194535e+00 -4.078433e+00 2.195362e-01 -1.212904e+00 -4.584070e-01 2.141902e+00 -3.913119e-01 -1.123970e+00 2.478518e-01 -4.839467e-01 1.632639e+00 -8.490908e-02 4.545270e-02 -9.339951e-01 -7.631403e-01 6.848969e-02 6.802670e-02 1.919379e-02 9.750921e-01 2.502265e-02 -6.249470e-01 -6.139023e-02 2.777747e-01 -2.587584e-01 -6.110489e-02 -1.688040e-01 2.960979e-01 1.872577e-01
<VARIANCE> 39
 5.985955e+00 1.797897e+01 1.517416e+01 3.319693e+01 2.164662e+01 3.178101e+01 2.894900e+01 2.965202e+01 6.105337e+01 2.537557e+01 3.244067e+01 4.142984e+01 2.032305e+01 3.198093e-01 7.271724e-01 7.150918e-01 5.286310e+00 1.991141e+00 2.981984e+00 1.761445e+00 2.648436e+00 2.515461e+00 2.913972e+00 2.925145e+00 2.477821e+00 1.493714e+00 5.990897e-02 1.309689e-01 1.735845e-01 3.805459e-01 4.550723e-01 3.656737e-01 3.408597e-01 5.648674e-01 6.318003e-01 4.760973e-01 5.339181e-01 6.280125e-01 2.869282e-01
<GCONST> 1.064456e+02
<MIXTURE> 2 3.619812e-01
<MEAN> 39
 3.309945e+00 -1.617587e+00 -7.325652e+00 -8.374601e+00 -1.700372e+00 9.281045e-01 -2.380693e+00 7.427647e-01 9.614180e-01 -2.139522e-01 2.205426e+00 -6.039648e+00 1.854199e+00 9.847655e-02 -5.044610e-01 -1.523180e-01 -6.274104e-01 -6.223307e-01 1.175691e+00 -1.205596e-02 -2.016361e-01 -2.043094e-01 -4.124871e-01 3.533902e-01 -3.749993e-01 2.211424e-02 2.867362e-02 -1.021378e-01 3.374806e-02 2.158915e-01 1.101777e-01 -2.868690e-02 5.753697e-02 -1.552441e-01 4.988373e-02 6.366398e-02 -1.472038e-02 8.187781e-03 -1.606375e-01
<VARIANCE> 39
 3.476505e+01 8.365255e+01 2.495171e+01 7.955308e+01 4.509727e+01 8.826716e+01 5.981657e+01 2.908165e+01 8.078978e+01 4.743458e+01 3.933550e+01 5.415857e+01 3.287226e+01 2.805699e+00 2.723937e+00 2.617320e+00 7.837861e+00 5.236568e+00 4.111142e+00 4.299994e+00 4.137381e+00 4.429248e+00 5.722584e+00 4.038756e+00 3.136926e+00 2.503154e+00 4.616383e-01 5.644729e-01 5.599528e-01 1.264965e+00 9.781119e-01 8.981435e-01 6.334112e-01 6.227611e-01 1.002587e+00 9.436508e-01 6.844745e-01 7.165174e-01 3.829328e-01
<GCONST> 1.356193e+02
<STATE> 3
<NUMMIXES> 2
<MIXTURE> 1 6.592866e-01
<MEAN> 39
 1.166504e+01 -6.569356e+00 -8.298738e+00 3.678050e+00 -4.943547e+00 -4.840884e+00 -6.844478e+00 -2.977174e+00 3.221354e+00 2.890320e+00 8.259048e+00 -3.510561e+00 -5.191600e+00 6.406097e-01 -3.403130e-01 3.211731e-02 3.035458e+00 6.266069e-01 -2.448435e+00 -5.953335e-02 1.043181e+00 -9.323537e-01 3.702787e-01 -1.416695e+00 1.663195e+00 2.644202e-01 -2.751780e-01 3.544938e-01 3.014672e-01 -7.816414e-01 2.776890e-01 4.422590e-01 5.679079e-02 -1.816135e-02 -1.059201e-01 1.298198e-01 -4.175206e-01 1.937281e-02 3.635040e-01
<VARIANCE> 39
 1.075862e+01 1.279815e+01 1.978432e+01 2.982996e+01 6.493914e+01 4.831058e+01 3.198882e+01 3.993659e+01 4.786242e+01 5.118681e+01 7.263054e+01 4.346431e+01 2.140409e+01 6.197864e-01 1.226271e+00 1.308558e+00 6.201636e+00 4.139158e+00 4.339185e+00 2.571937e+00 3.304501e+00 4.206747e+00 3.731073e+00 4.764481e+00 2.725604e+00 2.574568e+00 1.267353e-01 2.318449e-01 2.402639e-01 9.099797e-01 1.015050e+00 9.159921e-01 4.770091e-01 6.639979e-01 9.433878e-01 9.259206e-01 8.802048e-01 6.923004e-01 5.115508e-01
<GCONST> 1.226504e+02
<MIXTURE> 2 3.407134e-01
<MEAN> 39
 5.180882e+00 -1.376132e+01 -7.598424e+00 -4.163809e+00 6.137587e+00 9.839218e+00 7.830066e+00 -4.798031e+00 3.893256e+00 -1.113766e+01 3.774691e+00 -1.054849e+01 -1.037153e+00 2.050012e-01 1.711604e-01 1.447964e-01 2.337142e-01 2.519917e-01 1.768104e-01 -3.300416e-01 -6.704256e-02 -1.412745e-01 1.402985e-01 3.565684e-02 2.723413e-01 7.443249e-02 -6.814241e-02 1.100416e-01 -1.452638e-02 9.768755e-02 1.091061e-02 -1.379331e-01 -1.309701e-01 1.531211e-01 -6.152264e-02 1.655877e-01 -3.616207e-02 -4.588538e-03 9.635033e-02
<VARIANCE> 39
 5.137901e+00 6.541732e+00 7.463824e+00 1.012448e+01 1.589439e+01 1.680006e+01 2.167447e+01 1.679280e+01 2.116639e+01 1.603879e+01 1.198191e+01 2.362658e+01 2.177565e+01 3.977958e-01 6.783313e-01 4.984587e-01 7.839715e-01 8.181992e-01 1.329182e+00 3.008826e+00 1.407743e+00 1.338180e+00 1.286384e+00 1.070517e+00 9.788744e-01 1.205793e+00 5.437095e-02 8.352819e-02 7.746185e-02 1.256879e-01 1.815344e-01 2.690036e-01 3.096690e-01 2.455225e-01 2.091680e-01 2.279263e-01 1.839616e-01 1.670003e-01 1.566145e-01
<GCONST> 8.160798e+01
<STATE> 4
<NUMMIXES> 2
<MIXTURE> 1 4.968559e-01
<MEAN> 39
 1.085569e+01 -4.786674e+00 -5.825451e+00 7.288505e+00 -3.355961e+00 -6.394762e+00 -6.266674e+00 -1.767305e+00 9.670568e-01 5.719271e+00 1.028954e+00 -2.196924e-01 -7.549276e-01 -9.797453e-01 1.266735e+00 1.349109e+00 -6.616942e-01 1.355262e-03 1.874440e+00 6.433038e-01 -4.108379e-01 -1.764938e-01 9.242866e-01 -2.457889e+00 -6.931411e-02 9.685040e-01 -3.142807e-01 3.849960e-01 1.861071e-01 -7.467040e-01 3.334969e-02 6.365747e-01 2.119374e-01 -2.420311e-01 1.082995e-01 -2.712079e-02 -5.402759e-02 -3.554612e-01 -2.031267e-01
<VARIANCE> 39
 1.052009e+01 1.475833e+01 2.428950e+01 4.909567e+01 5.229375e+01 5.504960e+01 4.620435e+01 4.772286e+01 3.494896e+01 4.111743e+01 1.333694e+02 5.250156e+01 2.511688e+01 1.191432e+00 3.026413e+00 2.940649e+00 5.041422e+00 6.723061e+00 6.207051e+00 3.212430e+00 4.834958e+00 4.270196e+00 5.905942e+00 6.745467e+00 3.774193e+00 3.735082e+00 1.790302e-01 3.166434e-01 4.601436e-01 9.224666e-01 1.160894e+00 1.483844e+00 6.709801e-01 1.078851e+00 9.053280e-01 1.234326e+00 9.198372e-01 6.475026e-01 6.418903e-01
<GCONST> 1.326961e+02
<MIXTURE> 2 5.031441e-01
<MEAN> 39
 1.163240e+00 -1.782690e+00 -5.419763e+00 -5.551367e-01 4.988604e+00 3.905509e+00 -4.015602e-01 1.600180e+00 2.917575e-01 2.937593e+00 -1.831427e+00 -1.487949e+00 -2.088025e-01 -1.129113e+00 3.870040e-01 3.637756e-02 -5.163626e-01 8.641717e-01 -6.172829e-03 6.660571e-01 5.673730e-01 1.230066e-02 -5.215996e-01 -5.712849e-01 3.631046e-01 2.487659e-01 7.265826e-02 -1.698647e-01 -9.614573e-02 1.085726e-01 -7.676829e-02 -2.985070e-01 1.015989e-01 -8.624817e-02 3.121165e-02 -1.335563e-01 2.934593e-01 5.379745e-02 9.880072e-03
<VARIANCE> 39
 3.009776e+01 3.660914e+01 1.963242e+01 9.984672e+01 5.652753e+01 6.135520e+01 3.932691e+01 4.845221e+01 5.410373e+01 8.133304e+01 5.339531e+01 7.935115e+01 3.092035e+01 1.425906e+00 3.111460e+00 1.576446e+00 4.860563e+00 3.752040e+00 3.957614e+00 3.824812e+00 3.654586e+00 5.328856e+00 4.678768e+00 4.052772e+00 4.039361e+00 3.099039e+00 2.695505e-01 5.080277e-01 3.327002e-01 7.707726e-01 6.251273e-01 8.416988e-01 7.325221e-01 6.425175e-01 1.175269e+00 8.524203e-01 7.606140e-01 6.878996e-01 6.230305e-01
<GCONST> 1.322796e+02
<TRANSP> 5
 0.000000e+00 1.000000e+00 0.000000e+00 0.000000e+00 0.000000e+00
 0.000000e+00 8.365042e-01 1.634958e-01 0.000000e+00 0.000000e+00
 0.000000e+00 0.000000e+00 7.995325e-01 2.004675e-01 0.000000e+00
 0.000000e+00 0.000000e+00 0.000000e+00 8.445525e-01 1.554475e-01
 0.000000e+00 0.000000e+00 0.000000e+00 0.000000e+00 0.000000e+00
<ENDHMM>
~o
<STREAMINFO> 1 39
<VECSIZE> 39<NULLD><MFCC_D_A_Z><DIAGC>
~h "dxq"
<BEGINHMM>
<NUMSTATES> 5
<STATE> 2
<NUMMIXES> 2
<MIXTURE> 1 3.066889e-01
<MEAN> 39
 7.703279e+00 -4.606601e+00 -8.311591e-04 3.895118e+00 -3.105342e+00 -6.745886e+00 7.503541e-01 -8.128878e-01 6.390777e+00 -1.174053e-01 -3.475110e+00 -1.469759e+00 2.365219e-01 -1.382744e-01 7.109110e-01 1.889268e+00 1.058444e+00 -1.334024e-01 -1.329740e+00 -8.581184e-03 -1.359349e+00 -1.288948e+00 6.186970e-01 -2.589484e-01 1.793197e+00 3.898371e-01 -4.329997e-01 -3.274242e-01 1.872231e-02 -7.293380e-01 -4.684592e-01 5.176302e-01 -1.168737e-01 1.665386e-01 -4.153413e-01 -6.403074e-01 7.988630e-01 -3.437205e-01 -7.355569e-02
<VARIANCE> 39
 2.228972e+01 2.614995e+01 3.820192e+01 2.666936e+01 5.283332e+01 3.061814e+01 3.732412e+01 2.320085e+01 3.681303e+01 2.906922e+01 2.957367e+01 2.964854e+01 2.443559e+01 1.453624e+00 4.067291e+00 3.038296e+00 3.212817e+00 2.996727e+00 3.232888e+00 2.713637e+00 3.657657e+00 4.791904e+00 3.136092e+00 3.092722e+00 8.387073e+00 1.308983e+00 2.354603e-01 3.692734e-01 2.977502e-01 6.015659e-01 1.038311e+00 4.636452e-01 6.743834e-01 5.050891e-01 8.651379e-01 7.169796e-01 8.699387e-01 4.024378e-01 3.345626e-01
<GCONST> 1.223362e+02
<MIXTURE> 2 6.933111e-01
<MEAN> 39
 9.196550e+00 -2.499106e+00 -6.893147e+00 -1.158847e+01 -4.281783e+00 8.200480e+00 -7.941428e+00 -8.141552e+00 8.297712e-01 2.489989e+00 1.202754e+01 -4.414616e+00 -5.286802e+00 4.190271e-01 -1.405481e+00 -5.930496e-01 3.299177e+00 -7.886499e-02 -1.692252e+00 -5.340225e-01 -2.131649e-01 1.857925e+00 -9.191730e-03 -2.333339e-01 -3.401104e-01 -9.286827e-01 -3.905446e-02 3.040575e-01 7.866363e-02 9.540090e-01 4.634921e-01 -9.807231e-01 7.307923e-02 7.032712e-01 -2.499922e-01 -3.153028e-01 -7.559182e-01 4.805534e-01 4.408530e-01
<VARIANCE> 39
 4.847588e+00 1.720027e+01 1.856731e+01 4.873409e+01 2.423355e+01 3.687723e+01 3.938602e+01 3.807501e+01 3.643277e+01 4.227377e+01 2.773930e+01 2.498045e+01 2.934114e+01 6.590694e-01 1.079151e+00 9.882841e-01 9.556818e+00 3.814188e+00 6.713483e+00 2.756585e+00 4.179719e+00 3.719496e+00 4.344820e+00 4.011756e+00 3.814610e+00 2.631132e+00 9.654026e-02 1.503040e-01 2.681982e-01 8.540343e-01 6.540124e-01 6.844720e-01 6.237346e-01 9.045659e-01 6.769328e-01 6.531345e-01 6.126419e-01 5.079654e-01 5.229014e-01
<GCONST> 1.186315e+02
<STATE> 3
<NUMMIXES> 2
<MIXTURE> 1 7.612703e-01
<MEAN> 39
 9.712310e+00 -6.761859e+00 -8.137269e+00 2.659392e+00 -5.790739e-01 -4.955573e+00 -5.697319e+00 -2.654164e+00 5.132360e+00 -2.729645e+00 7.162985e+00 -5.840392e+00 -4.415161e+00 -1.902415e-01 -1.291663e-02 4.466671e-01 1.336330e+00 6.284344e-01 -1.330482e+00 1.369867e-01 9.799802e-01 -4.266360e-01 -1.711437e-01 -8.919807e-01 3.229504e-01 6.050813e-01 -2.209044e-01 3.175007e-01 3.657094e-01 -8.798384e-01 -2.835412e-01 7.693397e-01 1.666871e-01 -1.422233e-01 -4.856479e-01 4.016865e-01 -1.281011e-01 -9.364067e-03 1.385909e-01
<VARIANCE> 39
 1.280667e+01 2.809236e+01 2.336472e+01 7.073042e+01 7.121479e+01 5.715859e+01 7.661886e+01 4.165630e+01 4.431507e+01 5.221843e+01 6.075911e+01 6.320987e+01 1.628774e+01 1.081983e+00 1.914409e+00 2.155561e+00 7.937472e+00 7.583526e+00 9.608249e+00 4.113498e+00 4.650291e+00 5.065096e+00 5.002975e+00 6.504811e+00 4.702475e+00 2.389293e+00 1.501329e-01 3.476687e-01 4.051599e-01 1.433183e+00 1.687769e+00 1.460965e+00 7.345289e-01 9.334943e-01 1.024888e+00 1.036964e+00 9.233168e-01 9.790128e-01 4.041099e-01
<GCONST> 1.345575e+02
<MIXTURE> 2 2.387296e-01
<MEAN> 39
 4.504897e+00 -3.082765e+00 6.743563e+00 6.655319e+00 -6.570355e+00 -1.138128e+01 -1.437462e+00 -2.776105e+00 1.229238e+00 -4.492642e+00 3.436794e-01 5.741600e+00 2.438040e+00 -1.094757e+00 3.759461e-01 2.630230e+00 1.607381e-01 -3.910005e+00 -4.990147e-01 -4.274902e-01 -1.103431e+00 -3.046622e+00 -4.382144e-01 2.515988e+00 1.448283e+00 2.208129e-01 -3.158686e-02 -4.894921e-02 -3.189561e-01 -8.061349e-01 -9.886640e-01 1.238190e+00 -2.631770e-01 -4.416974e-02 -1.390755e-01 2.623832e-01 6.928731e-01 -1.073097e+00 -3.758832e-01
<VARIANCE> 39
 8.862629e+00 7.655959e+00 1.755291e+01 2.397910e+01 4.365476e+01 2.108473e+01 2.426753e+01 1.680140e+01 2.747903e+01 2.240547e+01 2.690051e+01 2.035420e+01 1.743760e+01 8.633771e-01 1.403134e+00 1.646390e+00 1.918146e+00 5.200235e+00 2.428203e+00 2.583875e+00 2.229907e+00 3.269105e+00 1.815034e+00 4.968550e+00 3.361219e+00 2.226438e+00 6.940567e-02 3.407952e-01 1.472456e-01 4.108754e-01 8.986328e-01 6.535769e-01 2.898020e-01 8.260438e-01 4.187995e-01 3.844807e-01 7.170901e-01 6.410231e-01 3.868410e-01
<GCONST> 1.093201e+02
<STATE> 4
<NUMMIXES> 2
<MIXTURE> 1 6.516969e-01
<MEAN> 39
 8.917483e+00 -3.293953e+00 -5.078688e+00 1.125297e+00 -6.249238e-02 1.350074e-01 -4.739864e+00 -2.005283e+00 1.075484e-01 5.115735e+00 2.666554e+00 -3.115273e+00 -2.937797e+00 -6.528230e-01 1.201328e+00 1.078959e+00 -1.178787e+00 1.547590e-01 1.495336e+00 7.977632e-01 -8.253911e-03 -1.627559e-01 8.591796e-01 -1.611965e+00 -1.402585e-01 2.276593e-01 -1.535641e-01 -1.162063e-02 -1.155933e-01 -3.024702e-01 1.776405e-02 -1.349200e-02 1.304557e-01 6.784836e-03 3.955064e-01 -4.904650e-01 1.082544e-01 -2.154422e-01 -1.186522e-01
<VARIANCE> 39
 2.975869e+01 3.597393e+01 3.942063e+01 6.692557e+01 5.886961e+01 6.629836e+01 6.072800e+01 6.203381e+01 5.946475e+01 5.530332e+01 1.250568e+02 5.408214e+01 2.625244e+01 2.488245e+00 6.098547e+00 4.611040e+00 4.477598e+00 5.701548e+00 6.911561e+00 4.462856e+00 3.732091e+00 3.621059e+00 5.855982e+00 8.707129e+00 4.193788e+00 1.761285e+00 2.986540e-01 5.320026e-01 5.028303e-01 6.715539e-01 1.149538e+00 1.391747e+00 9.832438e-01 6.880847e-01 8.270341e-01 7.676663e-01 1.231380e+00 5.497903e-01 3.738439e-01
<GCONST> 1.379973e+02
<MIXTURE> 2 3.483031e-01
<MEAN> 39
 3.517862e+00 -2.135067e+00 1.182291e+01 5.322712e+00 -1.736458e+01 -7.582405e+00 -2.057400e+00 -5.196828e+00 -5.504349e+00 -2.789515e+00 6.769723e+00 3.938164e+00 5.511180e-01 -9.877930e-01 1.273641e+00 1.682876e+00 -1.005134e+00 -2.500343e+00 2.217629e+00 -6.085915e-01 -8.561643e-01 -2.274923e+00 1.032223e+00 1.114626e+00 -1.139567e+00 -7.060264e-01 7.880438e-03 3.061722e-01 -4.635619e-01 -1.772077e-01 1.040244e+00 2.907413e-01 -7.453106e-02 2.548447e-01 5.291970e-01 3.201906e-01 -8.642095e-01 -5.088341e-01 5.475821e-03
<VARIANCE> 39
 1.096250e+01 1.744390e+01 1.796795e+01 3.109869e+01 2.358903e+01 2.550159e+01 1.206982e+01 2.240230e+01 1.601966e+01 2.460654e+01 2.488775e+01 2.498340e+01 9.599051e+00 4.197512e-01 1.331785e+00 1.089472e+00 1.115922e+00 3.572015e+00 2.830446e+00 1.915168e+00 1.337946e+00 1.624975e+00 9.394224e-01 2.441908e+00 2.598079e+00 9.927261e-01 5.411545e-02 1.560372e-01 1.306742e-01 3.317331e-01 4.969104e-01 5.469564e-01 2.750390e-01 3.595724e-01 3.208555e-01 2.811896e-01 5.444506e-01 5.885476e-01 2.762687e-01
<GCONST> 9.869933e+01
<TRANSP> 5
 0.000000e+00 1.000000e+00 0.000000e+00 0.000000e+00 0.000000e+00
 0.000000e+00 5.784670e-01 4.215330e-01 0.000000e+00 0.000000e+00
 0.000000e+00 0.000000e+00 6.854497e-01 3.145503e-01 0.000000e+00
