~o
<STREAMINFO> 1 39
<VECSIZE> 39<NULLD><MFCC_D_A_Z><DIAGC>
~h "a"
<BEGINHMM>
<NUMSTATES> 5
<STATE> 2
<NUMMIXES> 2
<MIXTURE> 1 3.138223e-01
<MEAN> 39
 3.874599e+00 1.411334e+00 3.721086e+00 -3.343938e+00 1.607647e+00 -5.922177e+00 -4.101140e+00 -3.742560e+00 -1.065253e+00 -1.732120e+00 1.511304e+00 -2.806931e-02 -9.413458e-01 1.512037e+00 9.797011e-01 3.746981e-01 -5.886499e-01 -7.973772e-02 -1.472667e-01 -6.608967e-01 -1.865396e-01 -9.841666e-01 -1.427971e+00 -6.334608e-01 3.211132e-01 -3.978141e-01 -3.508890e-01 -3.726991e-01 -4.411188e-01 -6.878537e-02 -1.926398e-01 -1.000688e-01 8.616409e-03 -2.682231e-02 4.659113e-02 6.416462e-02 -5.296228e-04 -1.827509e-02 8.964806e-02
<VARIANCE> 39
 3.779477e+01 3.089537e+01 2.769361e+01 4.081460e+01 4.093447e+01 6.284067e+01 8.020903e+01 7.437279e+01 8.725935e+01 5.736604e+01 4.207713e+01 5.125402e+01 2.764775e+01 2.754953e+00 3.066160e+00 2.755730e+00 2.852917e+00 3.047428e+00 4.726747e+00 5.557219e+00 4.527362e+00 4.619641e+00 4.190042e+00 3.194355e+00 2.956175e+00 2.360407e+00 4.841375e-01 5.998465e-01 4.972549e-01 5.198557e-01 5.988796e-01 7.540004e-01 9.440226e-01 7.969474e-01 8.274708e-01 7.324792e-01 5.317382e-01 5.336790e-01 3.914134e-01
<GCONST> 1.316193e+02
<MIXTURE> 2 6.861777e-01
<MEAN> 39
 8.689784e+00 1.977749e+00 1.945937e+00 -3.931548e+00 7.476412e-01 -1.003533e+01 -8.916239e+00 -1.053211e+01 -7.561867e+00 -7.749259e+00 2.926221e+00 4.246262e+00 -1.712964e-01 -4.301112e-02 -3.238223e-02 1.183330e-02 -3.187862e-01 -1.803862e-01 -1.097477e-01 2.582240e-01 2.937571e-01 2.295940e-01 1.231956e-01 -7.514314e-02 -1.548887e-01 -3.913508e-02 -8.786859e-02 1.514830e-02 6.965104e-02 1.152841e-02 4.006457e-02 1.479892e-01 1.571236e-01 1.205782e-01 1.453209e-01 1.741836e-01 -3.721803e-02 -1.051715e-01 4.809073e-02
<VARIANCE> 39
 5.997793e+00 1.942717e+01 1.710514e+01 3.367869e+01 3.689884e+01 6.093260e+01 6.978665e+01 6.954715e+01 6.723239e+01 5.950387e+01 3.482586e+01 3.384102e+01 2.868456e+01 2.493620e-01 7.299249e-01 8.191994e-01 1.432065e+00 1.569154e+00 2.062816e+00 2.655810e+00 2.787986e+00 2.842202e+00 2.513324e+00 1.777059e+00 1.794711e+00 1.498679e+00 4.927460e-02 1.144375e-01 1.359466e-01 1.964519e-01 2.525695e-01 3.114618e-01 3.881322e-01 4.119132e-01 4.231605e-01 4.238017e-01 3.112103e-01 3.042305e-01 2.612909e-01
<GCONST> 1.042881e+02
<STATE> 3
<NUMMIXES> 2
<MIXTURE> 1 3.555272e-01
<MEAN> 39
 6.848285e+00 1.777395e+00 3.444919e+00 -9.918318e+00 9.912336e-01 -1.765970e+00 -2.890704e-01 3.786903e-01 4.240462e+00 -2.805057e+00 -4.048486e+00 -4.347048e+00 -2.323373e+00 -9.157085e-02 1.772846e-01 7.238251e-02 -1.866946e-01 -1.155075e-01 2.460303e-01 1.015297e-01 7.575137e-02 2.949582e-01 2.999407e-01 -8.186489e-02 -1.370492e-01 1.669584e-01 -1.386395e-01 -8.655805e-02 -4.996088e-02 2.805991e-01 -7.506583e-04 -7.829180e-02 6.209085e-02 -1.903090e-02 -7.820920e-02 2.452557e-01 2.737480e-01 1.057099e-01 1.211509e-01
<VARIANCE> 39
 8.998796e+00 2.106553e+01 1.906269e+01 4.716861e+01 3.276661e+01 5.670940e+01 5.382788e+01 5.638782e+01 4.270229e+01 3.873157e+01 3.739606e+01 4.056301e+01 3.981019e+01 3.821692e-01 7.950832e-01 9.654832e-01 1.807834e+00 1.620238e+00 2.354477e+00 2.353249e+00 2.927860e+00 2.833024e+00 2.740571e+00 2.280720e+00 2.164126e+00 1.869214e+00 7.409473e-02 1.755665e-01 1.802583e-01 3.117859e-01 3.121040e-01 4.037737e-01 4.182395e-01 4.505100e-01 4.000341e-01 4.062167e-01 3.675338e-01 3.811722e-01 3.161466e-01
<GCONST> 1.086991e+02
<MIXTURE> 2 6.444728e-01
<MEAN> 39
 7.294222e+00 1.476267e+00 4.381984e+00 -8.394419e+00 1.642140e-01 -5.511646e+00 -2.414307e+00 -5.037275e+00 -1.842126e+00 -1.250666e+00 8.357397e-02 -1.641108e+00 -4.665385e-01 -3.920488e-02 1.437117e-01 1.191160e-02 7.123899e-02 -5.155641e-03 8.358794e-02 1.067472e-01 1.476401e-01 -3.622277e-02 5.586975e-02 8.561220e-03 5.043513e-02 1.180004e-01 -1.812468e-02 3.012218e-02 -2.090621e-02 8.158843e-02 1.168950e-02 9.027736e-02 1.843976e-02 5.229820e-02 1.262258e-01 3.716376e-02 -1.627382e-02 3.975070e-02 4.066268e-02
<VARIANCE> 39
 5.300186e+00 1.676191e+01 1.505510e+01 3.099100e+01 2.607151e+01 4.086974e+01 3.835403e+01 5.468740e+01 4.236599e+01 3.682066e+01 2.961757e+01 3.041607e+01 2.907638e+01 1.493032e-01 4.581069e-01 5.416164e-01 1.033794e+00 1.007283e+00 1.410153e+00 1.629608e+00 1.996559e+00 1.918607e+00 1.637109e+00 1.443743e+00 1.472340e+00 1.238495e+00 2.302943e-02 6.547093e-02 8.841566e-02 1.411584e-01 1.640500e-01 2.125333e-01 2.393903e-01 2.761494e-01 2.693698e-01 2.657746e-01 2.400713e-01 2.342232e-01 1.980353e-01
<GCONST> 9.074791e+01
<STATE> 4
<NUMMIXES> 2
<MIXTURE> 1 4.744416e-01
<MEAN> 39
 4.847751e+00 3.732687e+00 3.466470e+00 -4.521352e+00 -6.548728e-01 -3.916840e+00 -2.709571e+00 -2.819340e+00 -5.165799e-01 2.978730e-01 6.463790e-01 3.224220e-01 1.168911e+00 -3.579467e-01 5.859441e-02 -1.029457e-01 8.792537e-01 -8.612990e-02 3.387149e-01 3.687943e-01 7.338189e-01 5.630943e-01 6.544260e-01 1.716498e-01 3.471495e-01 4.524233e-01 -4.235961e-02 -2.846410e-02 -1.128039e-01 2.328383e-01 -1.385165e-02 9.373105e-02 7.613037e-02 1.297965e-01 -2.214424e-02 -1.998152e-02 -3.921723e-04 1.303077e-01 -6.856340e-04
<VARIANCE> 39
 2.586958e+01 3.014631e+01 2.873109e+01 6.272895e+01 4.758070e+01 6.594762e+01 7.371176e+01 7.580943e+01 7.264975e+01 5.167273e+01 4.212565e+01 4.492258e+01 3.489253e+01 1.489739e+00 2.097916e+00 1.952783e+00 3.093082e+00 2.665239e+00 3.198809e+00 4.017633e+00 4.371033e+00 3.673037e+00 3.697607e+00 3.059254e+00 2.743620e+00 2.330658e+00 2.112085e-01 3.926448e-01 3.384938e-01 5.411386e-01 5.029582e-01 5.489364e-01 6.883307e-01 6.978822e-01 6.633658e-01 5.788863e-01 5.020444e-01 4.887101e-01 3.876984e-01
<GCONST> 1.258533e+02
<MIXTURE> 2 5.255584e-01
<MEAN> 39
 -1.097697e+01 1.559545e+00 -9.134876e+00 4.194463e+00 -7.724274e+00 -1.140079e-01 -6.122556e+00 -5.110251e-02 -2.633586e+00 3.079962e+00 6.845908e-01 8.145890e-01 -6.257182e-01 -8.295639e-02 -1.048147e-01 -2.645795e-02 -5.287211e-02 2.047343e-02 -8.393615e-03 1.613948e-02 -1.692758e-02 3.795089e-03 -2.686912e-02 1.318742e-03 1.311308e-02 -1.867172e-03 5.249837e-02 5.255466e-03 5.570578e-02 -1.269157e-02 3.388641e-02 -1.073381e-02 9.262496e-03 -4.382155e-03 5.053008e-03 -2.459182e-03 -2.307447e-04 4.264097e-03 5.572688e-03
<VARIANCE> 39
 2.398377e+01 1.806853e+01 1.831006e+01 1.979872e+01 2.177518e+01 2.431054e+01 2.458061e+01 2.356661e+01 2.283968e+01 2.142571e+01 2.016517e+01 1.879573e+01 1.551639e+01 1.808450e+00 1.267653e+00 1.529869e+00 1.597939e+00 1.931467e+00 1.973546e+00 2.051673e+00 2.109056e+00 2.052114e+00 1.989174e+00 1.784591e+00 1.559808e+00 1.318107e+00 3.330638e-01 2.391938e-01 2.787074e-01 3.048803e-01 3.709680e-01 3.793740e-01 3.966065e-01 4.086584e-01 4.048411e-01 3.927726e-01 3.530728e-01 3.070612e-01 2.607255e-01
<GCONST> 1.042002e+02
<TRANSP> 5
 0.000000e+00 1.000000e+00 0.000000e+00 0.000000e+00 0.000000e+00
 0.000000e+00 7.922891e-01 2.077109e-01 0.000000e+00 0.000000e+00
 0.000000e+00 0.000000e+00 8.659794e-01 1.340206e-01 0.000000e+00
 0.000000e+00 0.000000e+00 0.000000e+00 8.280657e-01 1.719343e-01
 0.000000e+00 0.000000e+00 0.000000e+00 0.000000e+00 0.000000e+00
<ENDHMM>
~o
<STREAMINFO> 1 39
<VECSIZE> 39<NULLD><MFCC_D_A_Z><DIAGC>
~h "aa"
<BEGINHMM>
<NUMSTATES> 5
<STATE> 2
<NUMMIXES> 2
<MIXTURE> 1 1.956387e-01
<MEAN> 39
 5.042933e+00 1.663776e+00 2.141115e+00 -3.483345e+00 4.280803e-01 -8.895741e+00 -7.050118e+00 -4.962127e+00 -3.528206e+00 -3.975457e+00 2.933439e-02 -2.293251e-01 -1.403436e+00 7.909731e-01 2.774044e-01 -2.025002e-01 -1.381331e-01 -2.106230e-01 -7.524323e-01 -9.288197e-01 -3.406777e-01 -1.000366e+00 -1.120110e+00 -1.799768e-01 4.133603e-01 -2.208700e-01 -2.610870e-01 -3.081082e-01 -2.277261e-01 4.956757e-02 -8.922653e-02 -6.950048e-02 1.358015e-02 -4.850215e-02 8.287106e-02 1.231702e-01 1.206897e-01 3.170455e-02 7.916946e-02
<VARIANCE> 39
 3.335018e+01 2.518140e+01 2.669666e+01 4.172482e+01 5.369141e+01 6.702599e+01 9.797006e+01 8.570770e+01 9.200255e+01 5.839633e+01 4.779258e+01 5.319734e+01 3.275486e+01 2.449183e+00 2.377154e+00 2.105654e+00 2.218165e+00 2.597515e+00 3.469959e+00 4.766269e+00 3.695938e+00 4.122485e+00 3.968098e+00 2.855186e+00 2.536409e+00 2.127581e+00 3.717704e-01 4.839474e-01 4.598094e-01 4.104855e-01 5.374781e-01 6.540892e-01 8.930089e-01 7.000868e-01 7.091887e-01 6.319870e-01 4.987590e-01 4.616431e-01 3.872315e-01
<GCONST> 1.283515e+02
<MIXTURE> 2 8.043612e-01
<MEAN> 39
 8.876355e+00 -1.124552e+00 4.910575e-01 -1.130371e+00 1.218464e-01 -1.640837e+01 -1.564744e+01 -1.106545e+01 -9.403761e+00 -1.123219e+01 4.352607e+00 5.118300e+00 -1.065303e+00 -7.652499e-03 -6.760643e-02 -2.984108e-02 -4.604655e-02 -1.535832e-01 -1.528005e-01 3.509574e-02 1.477756e-02 1.265243e-01 -7.668203e-03 4.499865e-02 4.561609e-02 -2.217871e-02 -2.541651e-02 3.556153e-02 3.340925e-02 -3.370526e-02 2.897735e-02 9.311595e-02 9.231843e-02 3.424335e-02 5.766666e-02 7.359277e-02 -3.939300e-02 -4.768124e-02 1.578760e-02
<VARIANCE> 39
 6.162814e+00 1.807213e+01 1.663525e+01 2.686472e+01 3.655805e+01 5.116109e+01 7.533360e+01 6.833311e+01 6.934343e+01 6.195616e+01 3.371268e+01 3.271241e+01 2.690534e+01 1.842034e-01 6.050090e-01 6.450777e-01 1.025550e+00 1.248620e+00 1.792238e+00 2.565202e+00 2.171555e+00 2.519660e+00 2.110041e+00 1.415355e+00 1.373877e+00 1.169131e+00 3.035961e-02 8.157407e-02 1.048054e-01 1.485671e-01 1.940114e-01 2.455909e-01 3.045925e-01 3.036311e-01 3.305252e-01 3.156560e-01 2.313728e-01 2.275269e-01 1.991130e-01
<GCONST> 9.723767e+01
<STATE> 3
<NUMMIXES> 2
<MIXTURE> 1 2.927061e-01
<MEAN> 39
 -9.907079e+00 2.080008e+00 -9.301159e+00 3.535794e+00 -8.268670e+00 -4.586438e-01 -6.165509e+00 1.374029e-01 -2.506828e+00 3.243879e+00 5.041219e-01 3.485171e-01 -1.224628e+00 -1.196177e-01 -6.596560e-02 -6.010550e-02 5.163712e-03 4.459170e-03 3.479898e-02 1.102935e-02 1.148679e-02 1.637331e-02 -9.682992e-03 4.280803e-03 1.574759e-02 9.706112e-03 1.966650e-02 -2.810036e-03 2.928767e-02 -5.452755e-03 2.262957e-02 -1.418299e-03 1.353148e-02 3.672123e-03 7.732567e-03 1.347251e-03 5.757614e-05 3.386501e-03 4.486746e-03
<VARIANCE> 39
 2.414667e+01 1.711666e+01 2.197881e+01 2.058961e+01 2.193405e+01 2.471949e+01 2.534245e+01 2.401521e+01 2.295841e+01 2.219421e+01 2.024479e+01 1.926122e+01 1.638953e+01 1.168590e+00 1.069670e+00 1.411906e+00 1.494545e+00 1.801195e+00 1.792573e+00 1.928722e+00 2.023141e+00 1.998406e+00 1.900598e+00 1.692703e+00 1.510717e+00 1.296620e+00 2.169150e-01 2.121623e-01 2.701702e-01 2.930255e-01 3.535493e-01 3.536687e-01 3.779579e-01 3.981727e-01 3.992162e-01 3.796839e-01 3.383601e-01 2.999329e-01 2.585147e-01
<GCONST> 1.024408e+02
<MIXTURE> 2 7.072939e-01
<MEAN> 39
 8.171605e+00 3.378512e-01 1.561533e+00 -8.485577e+00 -1.185282e+00 -9.081533e+00 -5.438416e+00 -5.527181e+00 -2.060748e+00 -5.191631e+00 -2.137807e+00 -3.252763e-01 -1.460598e+00 -1.513078e-02 9.340332e-02 2.102913e-02 -1.493775e-01 -3.498936e-02 1.037252e-01 4.839069e-02 2.948333e-02 -4.501511e-02 4.905719e-02 -5.773179e-02 5.842631e-03 8.474213e-02 -2.508680e-02 2.134776e-02 1.933120e-02 2.177102e-02 2.443670e-02 7.503171e-02 4.158689e-02 3.878056e-02 5.770747e-02 5.611074e-02 1.865784e-02 -3.568045e-02 2.665060e-02
<VARIANCE> 39
 5.472060e+00 1.360724e+01 1.408746e+01 2.569209e+01 2.477868e+01 4.153333e+01 3.685698e+01 5.786393e+01 3.867762e+01 4.363780e+01 3.448246e+01 3.405293e+01 2.865762e+01 1.621425e-01 4.600497e-01 5.555074e-01 9.352874e-01 1.021976e+00 1.522331e+00 1.637784e+00 1.766701e+00 1.747649e+00 1.684481e+00 1.379101e+00 1.383533e+00 1.170771e+00 2.643286e-02 6.830914e-02 8.766600e-02 1.381583e-01 1.599625e-01 2.047929e-01 2.214826e-01 2.497588e-01 2.610884e-01 2.606435e-01 2.270382e-01 2.144004e-01 1.883517e-01
<GCONST> 9.004980e+01
<STATE> 4
<NUMMIXES> 2
<MIXTURE> 1 2.199560e-01
<MEAN> 39
 -1.511631e+00 2.496418e+00 1.324785e+00 -1.202541e+00 -1.974449e+00 -3.066109e+00 -2.649735e+00 1.169037e+00 1.579039e+00 2.740397e+00 1.570966e+00 1.442490e+00 9.555594e-01 -4.065166e-02 6.568654e-02 9.479978e-02 6.195489e-01 1.115248e-01 3.517593e-01 1.737191e-01 2.167920e-01 3.337813e-01 6.288515e-01 2.146746e-01 1.044042e-01 1.153430e-01 6.596995e-02 7.029975e-03 -1.258207e-01 7.203469e-02 -3.999342e-02 4.554964e-02 -8.135705e-02 -7.879312e-02 -1.435459e-01 -1.175630e-01 -3.267048e-02 4.414337e-02 -3.253930e-02
<VARIANCE> 39
 6.638896e+01 5.378791e+01 5.226781e+01 6.280741e+01 5.677565e+01 7.461324e+01 7.658515e+01 6.810200e+01 6.148167e+01 5.123695e+01 4.164627e+01 4.227586e+01 3.143798e+01 3.701660e+00 3.924415e+00 3.493039e+00 4.755716e+00 3.993328e+00 4.598410e+00 4.606597e+00 4.249768e+00 3.956597e+00 4.956721e+00 3.331176e+00 2.950292e+00 2.437388e+00 5.273285e-01 7.341464e-01 6.138843e-01 7.948877e-01 7.449784e-01 7.672405e-01 8.259851e-01 7.307577e-01 7.213057e-01 7.054643e-01 6.055175e-01 5.461520e-01 4.464583e-01
<GCONST> 1.360456e+02
<MIXTURE> 2 7.800441e-01
<MEAN> 39
 7.330055e+00 2.098233e+00 2.175054e+00 -7.520586e+00 -1.139961e-01 -8.129348e+00 -5.549092e+00 -4.710243e+00 -9.690626e-01 -5.161703e+00 -1.002441e+00 -1.316916e-02 5.491672e-02 -2.301535e-01 2.638183e-01 2.901600e-01 3.242865e-02 9.910358e-02 7.514473e-01 6.612863e-01 6.338647e-01 7.055967e-01 7.146287e-01 -3.587319e-02 -3.131999e-01 2.802861e-01 -3.518504e-02 -2.802845e-02 -1.163664e-02 1.905024e-01 -5.672424e-02 2.706080e-02 2.424995e-02 6.862294e-02 4.638706e-02 1.423959e-01 9.413493e-02 7.608276e-02 1.474231e-02
<VARIANCE> 39
 7.259511e+00 1.932644e+01 2.013441e+01 5.242226e+01 3.800814e+01 7.139925e+01 6.985850e+01 7.776406e+01 6.045651e+01 5.341729e+01 4.912456e+01 4.978203e+01 3.869652e+01 3.195966e-01 8.634891e-01 9.906080e-01 2.083539e+00 1.821635e+00 2.462988e+00 2.823608e+00 3.402336e+00 2.998000e+00 2.965282e+00 2.282425e+00 2.385682e+00 1.957758e+00 5.103844e-02 1.440936e-01 1.774574e-01 3.352759e-01 3.139969e-01 3.946909e-01 4.305645e-01 4.995473e-01 4.832283e-01 4.661916e-01 3.881181e-01 4.195099e-01 3.239677e-01
<GCONST> 1.115873e+02
<TRANSP> 5
 0.000000e+00 1.000000e+00 0.000000e+00 0.000000e+00 0.000000e+00
 0.000000e+00 9.205778e-01 7.942220e-02 0.000000e+00 0.000000e+00
 0.000000e+00 0.000000e+00 9.178038e-01 8.219618e-02 0.000000e+00
 0.000000e+00 0.000000e+00 0.000000e+00 8.524295e-01 1.475705e-01
 0.000000e+00 0.000000e+00 0.000000e+00 0.000000e+00 0.000000e+00
<ENDHMM>
~o
<STREAMINFO> 1 39
<VECSIZE> 39<NULLD><MFCC_D_A_Z><DIAGC>
~h "ai"
<BEGINHMM>
<NUMSTATES> 5
<STATE> 2
<NUMMIXES> 2
<MIXTURE> 1 1.905055e-01
<MEAN> 39
 6.692327e+00 3.560709e+00 1.275605e+00 -2.823954e+00 1.769537e+00 -1.038307e+01 -1.028288e+01 -8.388062e+00 -8.455131e+00 -8.287949e+00 2.764764e+00 5.035800e+00 8.422912e-01 1.143488e+00 1.742289e-01 -3.164400e-01 -7.814358e-01 -3.266875e-01 -8.437881e-01 -7.761494e-01 1.386699e-02 -1.489274e-01 -1.114123e+00 -6.247933e-01 3.641504e-02 -4.195804e-01 -4.386757e-01 -3.757371e-01 -1.920085e-01 -5.296843e-02 -1.257913e-01 1.568960e-01 3.488101e-01 3.139018e-01 4.447362e-01 3.618518e-01 -6.024531e-02 -2.898141e-01 -9.629167e-02
<VARIANCE> 39
 4.498201e+01 2.680498e+01 2.475259e+01 3.063176e+01 4.475121e+01 6.793147e+01 6.978876e+01 6.160788e+01 7.951643e+01 7.061054e+01 3.927029e+01 3.242101e+01 2.843009e+01 2.747169e+00 2.432558e+00 1.888111e+00 2.039264e+00 2.340728e+00 3.138647e+00 4.461586e+00 3.682022e+00 5.017256e+00 4.225029e+00 2.611216e+00 2.402894e+00 1.860229e+00 4.503129e-01 5.027719e-01 4.338946e-01 3.626617e-01 5.008535e-01 5.409877e-01 7.868271e-01 7.023649e-01 7.930038e-01 6.761521e-01 4.717288e-01 4.119792e-01 3.469391e-01
<GCONST> 1.259172e+02
<MIXTURE> 2 8.094945e-01
<MEAN> 39
 8.642671e+00 1.394022e+00 6.698220e-01 -1.055163e+01 1.008016e+00 -6.976850e+00 -3.971655e+00 -1.215736e+00 1.033949e+00 -5.663097e+00 -3.801526e+00 -3.950454e+00 -2.617402e+00 -1.006575e-01 -4.271840e-01 -1.672073e-01 -2.404958e-01 6.361037e-02 4.958299e-01 1.015221e+00 1.108059e+00 7.470245e-01 -2.680480e-02 -7.925227e-01 -1.049857e+00 -5.658235e-01 -4.183865e-02 -1.674653e-02 2.655691e-02 1.379903e-01 7.705601e-02 1.209423e-01 1.330978e-01 -4.065744e-02 -4.887891e-02 -2.755762e-02 -1.932915e-02 1.399143e-03 3.932249e-02
<VARIANCE> 39
 5.486550e+00 1.570003e+01 1.447188e+01 2.688557e+01 2.372140e+01 4.710245e+01 4.189455e+01 5.258910e+01 4.798644e+01 4.667206e+01 4.182619e+01 4.314478e+01 3.515941e+01 1.740680e-01 4.932122e-01 6.441233e-01 1.197928e+00 1.253175e+00 1.576390e+00 1.796059e+00 1.939985e+00 2.123150e+00 1.984851e+00 1.753755e+00 1.647226e+00 1.641244e+00 3.212912e-02 7.646046e-02 1.063829e-01 1.677121e-01 1.986866e-01 2.348939e-01 2.668918e-01 2.998885e-01 3.134015e-01 3.089510e-01 2.960460e-01 2.598172e-01 2.486009e-01
<GCONST> 9.587794e+01
<STATE> 3
<NUMMIXES> 2
<MIXTURE> 1 4.811394e-01
<MEAN> 39
 6.220959e+00 -4.254172e+00 -1.647363e-01 -4.678922e+00 4.959875e+00 4.561830e+00 1.245056e+01 8.264210e+00 4.620651e+00 -7.244405e+00 -1.153972e+01 -1.144968e+01 -5.911031e+00 -1.289546e-01 -1.524255e-01 7.500398e-03 1.516674e-01 1.565419e-01 4.816152e-01 5.202792e-01 2.623429e-02 2.051527e-01 6.336103e-02 -2.250106e-02 -2.009428e-02 3.001210e-02 -6.593756e-03 5.057301e-02 4.008633e-02 -9.458033e-02 -3.515295e-02 -5.550360e-02 -1.468976e-01 -1.539062e-01 2.161472e-02 1.180827e-01 1.468522e-01 1.064063e-01 1.078634e-01
<VARIANCE> 39
 6.568212e+00 1.616299e+01 1.437595e+01 3.399412e+01 2.760713e+01 4.275609e+01 5.231536e+01 3.537052e+01 3.676432e+01 3.601577e+01 3.558708e+01 3.586295e+01 3.312343e+01 1.957608e-01 6.907206e-01 7.059368e-01 1.275516e+00 1.267702e+00 1.713447e+00 2.089373e+00 2.134714e+00 1.749848e+00 1.818408e+00 2.119572e+00 1.863945e+00 1.687626e+00 3.345194e-02 9.519018e-02 1.266742e-01 1.780164e-01 2.254649e-01 2.638987e-01 2.969367e-01 3.414847e-01 3.103923e-01 3.036283e-01 3.142238e-01 3.008986e-01 2.520724e-01
<GCONST> 9.744041e+01
<MIXTURE> 2 5.188606e-01
<MEAN> 39
 6.368145e+00 -3.362427e+00 3.439389e-01 -9.900200e+00 4.743909e+00 4.116624e+00 8.137197e+00 2.689081e+00 4.972115e+00 -5.292703e+00 -8.322367e+00 -8.857560e+00 -3.183192e+00 -1.033891e-01 -4.214802e-02 -6.683975e-03 1.311889e-01 1.719665e-01 5.061510e-01 4.147663e-01 7.925493e-02 -1.247530e-02 6.506392e-02 -7.278507e-02 6.369459e-02 1.414864e-01 1.249211e-02 6.340107e-02 -3.654151e-03 4.102537e-02 -5.580235e-02 -4.170134e-02 -3.407247e-02 6.808773e-02 -1.794163e-02 2.100228e-02 1.489095e-02 2.266636e-02 -3.750158e-02
<VARIANCE> 39
 4.489348e+00 1.503590e+01 1.019239e+01 3.649522e+01 2.244068e+01 3.507781e+01 3.917524e+01 2.515347e+01 2.737830e+01 2.551236e+01 2.547815e+01 2.531051e+01 2.267773e+01 1.095540e-01 3.595785e-01 4.069954e-01 8.388866e-01 8.684506e-01 1.043579e+00 1.219683e+00 1.388946e+00 1.161185e+00 1.247821e+00 1.453663e+00 1.323513e+00 1.110470e+00 1.580772e-02 4.422886e-02 5.872806e-02 1.024082e-01 1.219851e-01 1.505978e-01 1.674966e-01 1.976111e-01 1.903450e-01 1.884167e-01 2.012699e-01 1.919905e-01 1.589519e-01
<GCONST> 8.055388e+01
<STATE> 4
<NUMMIXES> 2
<MIXTURE> 1 5.506763e-01
<MEAN> 39
 3.313210e+00 1.053442e-03 1.703735e+00 -3.702995e-01 3.090142e+00 4.924454e+00 1.165540e+01 8.042205e+00 4.794624e+00 -9.990581e-01 -5.782672e+00 -5.808157e+00 -1.759091e+00 -3.973722e-01 9.522653e-01 2.500623e-01 1.405981e+00 -4.578361e-01 -4.335636e-01 -9.031713e-01 2.497274e-01 -4.700061e-01 6.432843e-01 8.816468e-01 1.036566e+00 5.681112e-01 7.175859e-03 3.316199e-02 -1.208540e-01 1.411377e-01 5.387134e-02 2.919396e-01 -3.677220e-02 2.102939e-02 -1.587586e-02 -5.001133e-02 -5.830967e-02 1.291090e-02 -2.790986e-02
<VARIANCE> 39
 2.028042e+01 3.745021e+01 2.730452e+01 5.300129e+01 3.314769e+01 6.364246e+01 5.972467e+01 4.770229e+01 3.844664e+01 4.080783e+01 5.249440e+01 3.759014e+01 3.011036e+01 1.161924e+00 2.731318e+00 1.846101e+00 3.852280e+00 2.286984e+00 3.838975e+00 3.736866e+00 3.845983e+00 2.869566e+00 3.002911e+00 3.290797e+00 2.757726e+00 2.191906e+00 1.981056e-01 3.929915e-01 2.958998e-01 6.205529e-01 3.694243e-01 5.868192e-01 5.880206e-01 6.530212e-01 4.717282e-01 5.016084e-01 5.213783e-01 4.600631e-01 3.528550e-01
<GCONST> 1.220006e+02
<MIXTURE> 2 4.493237e-01
<MEAN> 39
 6.212765e+00 -1.161941e-01 6.782027e-01 -1.251841e+01 3.417810e+00 9.145427e+00 8.478663e+00 2.716314e+00 7.750799e+00 -2.304088e+00 -8.254430e+00 -7.765896e+00 -2.120062e+00 5.838975e-02 6.942406e-01 3.336468e-01 7.671592e-01 -7.252570e-01 -9.048297e-01 -8.254252e-02 3.965629e-01 -2.045422e-01 8.157212e-01 9.764178e-01 1.015306e+00 6.763341e-01 -4.363670e-02 6.103952e-02 9.139409e-02 6.250470e-01 6.022469e-02 -4.671533e-01 7.872892e-02 2.831915e-01 -3.558380e-01 -9.502448e-02 1.820057e-01 2.821678e-01 1.889849e-01
<VARIANCE> 39
 4.375276e+00 1.247295e+01 1.349230e+01 4.160991e+01 3.092734e+01 4.169228e+01 3.711837e+01 4.043239e+01 2.865958e+01 3.521840e+01 3.120630e+01 3.342236e+01 3.013665e+01 1.849129e-01 7.014395e-01 9.676563e-01 2.806487e+00 1.513730e+00 2.750050e+00 2.553117e+00 2.873886e+00 2.124339e+00 2.131068e+00 2.058311e+00 2.204825e+00 1.793521e+00 3.158190e-02 1.032182e-01 1.435239e-01 3.020850e-01 2.916705e-01 3.615247e-01 4.038684e-01 4.077053e-01 3.771805e-01 3.845963e-01 3.500564e-01 3.869670e-01 2.836751e-01
<GCONST> 1.016307e+02
<TRANSP> 5
 0.000000e+00 1.000000e+00 0.000000e+00 0.000000e+00 0.000000e+00
 0.000000e+00 9.056950e-01 9.430500e-02 0.000000e+00 0.000000e+00
 0.000000e+00 0.000000e+00 9.450198e-01 5.498021e-02 0.000000e+00
 0.000000e+00 0.000000e+00 0.000000e+00 8.134917e-01 1.865083e-01
 0.000000e+00 0.000000e+00 0.000000e+00 0.000000e+00 0.000000e+00
<ENDHMM>
~o
<STREAMINFO> 1 39
<VECSIZE> 39<NULLD><MFCC_D_A_Z><DIAGC>
~h "b"
<BEGINHMM>
<NUMSTATES> 5
<STATE> 2
<NUMMIXES> 2
<MIXTURE> 1 4.794344e-01
<MEAN> 39
 7.053162e+00 1.305686e+01 -3.037326e-01 1.023347e+01 2.624423e-01 5.868891e+00 -2.972606e+00 1.062285e+00 -2.221170e+00 4.515835e+00 3.867192e+00 4.283015e+00 1.705968e+00 1.370824e-01 1.410885e+00 -4.534887e-01 2.397242e+00 -1.261561e-01 1.343680e+00 -2.916726e-01 3.680693e-01 4.083869e-01 6.005009e-01 1.101282e-01 -2.252062e-01 -1.266162e-01 -1.597404e-01 -3.652520e-01 2.116223e-01 -4.460384e-01 3.232413e-01 -3.404554e-01 1.029678e-01 -3.539931e-01 -1.449342e-01 -3.890361e-01 -1.036383e-01 -1.158651e-01 -2.801063e-02
<VARIANCE> 39
 2.281535e+01 1.911599e+01 1.513632e+01 3.344104e+01 2.042081e+01 2.421466e+01 2.711433e+01 2.668440e+01 2.631730e+01 2.214376e+01 2.538303e+01 2.315181e+01 1.754751e+01 7.083822e-01 1.629042e+00 1.361455e+00 3.255249e+00 2.059664e+00 2.745658e+00 2.446433e+00 2.634002e+00 2.412974e+00 2.632445e+00 2.045070e+00 1.694334e+00 1.469494e+00 7.767155e-02 1.850965e-01 1.739200e-01 4.774880e-01 3.029702e-01 3.615375e-01 3.440680e-01 4.080726e-01 3.755938e-01 3.826546e-01 2.963777e-01 2.837166e-01 2.341670e-01
<GCONST> 1.043099e+02
<MIXTURE> 2 5.205656e-01
<MEAN> 39
 7.325427e+00 5.623703e+00 4.015770e+00 2.097985e-01 5.073177e+00 -2.405386e+00 -3.684444e+00 -6.142680e+00 -8.559155e+00 -3.638412e+00 3.728673e+00 4.886498e+00 2.362216e+00 4.440594e-02 9.652945e-01 -4.585261e-01 1.067966e+00 -4.260524e-01 8.097247e-01 -9.428489e-02 5.481563e-01 1.238043e-01 9.388729e-01 2.649672e-01 3.590016e-01 2.066288e-01 4.044513e-02 1.675799e-01 -1.301692e-01 3.345046e-01 -1.709129e-01 2.570373e-01 2.617796e-02 2.189189e-01 2.696024e-01 2.212012e-01 -9.800367e-03 -1.393166e-01 -1.406936e-01
<VARIANCE> 39
 6.302435e+00 1.874374e+01 1.923974e+01 3.287531e+01 3.214735e+01 4.613439e+01 4.007586e+01 4.729531e+01 5.708823e+01 5.534566e+01 3.450931e+01 3.300374e+01 2.496019e+01 3.440350e-01 1.122650e+00 1.041725e+00 2.525316e+00 2.519108e+00 2.567116e+00 2.142548e+00 3.341471e+00 3.327179e+00 3.704981e+00 1.808214e+00 1.837093e+00 1.779621e+00 5.498022e-02 1.315102e-01 1.580993e-01 3.808448e-01 4.003421e-01 3.981377e-01 3.806226e-01 4.881416e-01 4.531905e-01 4.983081e-01 3.383545e-01 3.165517e-01 3.024371e-01
<GCONST> 1.080242e+02
<STATE> 3
<NUMMIXES> 2
<MIXTURE> 1 5.923524e-01
<MEAN> 39
 5.741795e+00 1.585585e+01 7.642131e-02 1.532747e+01 1.815463e+00 7.990913e+00 -3.540276e+00 3.274084e-01 -1.468214e+00 5.567718e+00 4.302377e+00 3.348433e+00 1.269505e+00 -1.900688e-01 1.105113e-02 9.573453e-02 1.280148e-01 1.010109e-01 6.003480e-02 1.339037e-02 -5.256686e-02 -2.973535e-02 3.739487e-02 4.914821e-02 1.421788e-02 -6.993680e-03 -2.930347e-02 -1.060366e-01 1.902572e-02 -1.234761e-01 2.825657e-03 -5.291784e-02 5.462213e-02 2.339202e-02 4.068591e-03 -2.347999e-02 -4.829313e-03 2.063978e-02 2.115886e-02
<VARIANCE> 39
 1.049844e+01 8.141181e+00 9.877923e+00 1.008095e+01 1.275547e+01 1.386518e+01 1.741102e+01 1.987606e+01 2.086696e+01 1.988515e+01 1.557913e+01 1.459052e+01 1.487554e+01 2.033474e-01 3.082748e-01 3.651011e-01 4.753563e-01 5.597555e-01 6.497506e-01 8.000830e-01 8.601737e-01 8.299485e-01 8.681114e-01 7.663683e-01 6.804786e-01 6.603302e-01 2.926391e-02 7.708789e-02 6.955124e-02 1.235341e-01 1.018242e-01 1.338484e-01 1.485839e-01 1.535817e-01 1.488774e-01 1.511692e-01 1.344491e-01 1.234353e-01 1.155941e-01
<GCONST> 6.962549e+01
<MIXTURE> 2 4.076475e-01
<MEAN> 39
 -7.657990e+00 4.137490e+00 -5.159030e+00 6.921678e+00 -3.540418e+00 3.629804e+00 -1.842707e+00 2.536256e+00 -5.698940e-01 3.492731e+00 6.147993e-01 2.380728e+00 1.744097e+00 2.164354e-01 1.867721e-01 6.926919e-02 1.069359e-01 1.054216e-01 4.264729e-02 -1.143733e-02 -3.602135e-02 1.587131e-02 3.683353e-02 8.249157e-02 8.856103e-03 -9.645818e-03 2.743179e-02 1.269011e-02 -4.855518e-03 -3.632073e-03 -8.055682e-03 -2.297780e-02 -4.195319e-02 -5.841988e-02 -3.376173e-02 -1.647052e-02 7.186364e-03 -1.915062e-02 -1.861298e-02
<VARIANCE> 39
 5.382419e+01 3.364778e+01 4.821105e+01 2.997516e+01 4.001950e+01 3.342836e+01 4.183287e+01 3.426199e+01 3.101851e+01 2.698315e+01 2.612648e+01 2.363578e+01 2.227103e+01 1.789410e+00 1.400486e+00 1.487633e+00 1.700381e+00 1.849580e+00 1.926461e+00 2.313255e+00 2.331612e+00 2.131860e+00 1.993588e+00 1.840718e+00 1.520851e+00 1.418789e+00 2.703159e-01 2.313971e-01 2.584445e-01 3.164837e-01 3.461934e-01 3.711359e-01 4.135547e-01 4.304988e-01 4.053174e-01 3.931897e-01 3.543506e-01 2.955825e-01 2.760127e-01
<GCONST> 1.103757e+02
<STATE> 4
<NUMMIXES> 2
<MIXTURE> 1 3.856671e-01
<MEAN> 39
 4.457273e+00 1.509984e+01 1.011983e+00 1.547072e+01 2.741099e+00 8.413220e+00 -2.607633e+00 3.401116e-01 -2.265653e+00 5.113295e+00 4.359440e+00 3.904412e+00 1.512414e+00 -1.070905e+00 -2.431716e+00 2.996987e-01 -2.195728e+00 4.897051e-01 -1.511922e+00 1.015202e+00 -4.542321e-01 4.016096e-01 -6.909119e-01 1.862066e-01 -4.623440e-01 1.211115e-01 -9.527264e-02 -9.623107e-01 1.003295e-01 -1.099193e+00 1.392740e-01 -8.006474e-01 1.582379e-01 -4.177158e-01 -1.094330e-01 -4.741488e-01 2.964229e-02 -1.924436e-01 1.070785e-02
<VARIANCE> 39
 1.455964e+01 1.086706e+01 1.151904e+01 1.217515e+01 1.356159e+01 1.503980e+01 1.883825e+01 2.367449e+01 2.342938e+01 1.881569e+01 1.507270e+01 1.548027e+01 1.509373e+01 1.420132e+00 5.512134e+00 1.402232e+00 5.600127e+00 1.646641e+00 3.556824e+00 2.190921e+00 2.117558e+00 2.070187e+00 2.147630e+00 1.607426e+00 1.549359e+00 1.256542e+00 2.579847e-01 3.830112e-01 2.228784e-01 3.665356e-01 2.624247e-01 3.298102e-01 4.592659e-01 4.396067e-01 5.691832e-01 4.148797e-01 2.808402e-01 2.631753e-01 2.297219e-01
<GCONST> 1.030263e+02
<MIXTURE> 2 6.143329e-01
<MEAN> 39
 3.210895e+00 1.955295e+00 3.221355e+00 3.488327e-01 5.780711e+00 -3.095066e+00 -1.463525e+00 -7.323161e+00 -6.167677e+00 -3.432863e+00 5.184433e+00 2.431911e+00 2.048357e+00 1.157531e+00 -8.438760e-01 2.085818e-01 -1.831931e+00 2.004884e-01 -1.522448e+00 -1.155075e+00 -1.698880e+00 -1.702635e+00 -1.878083e+00 1.097469e-02 1.737025e-01 -3.289653e-01 2.755573e-01 6.704831e-01 -1.120161e-01 6.114594e-01 -1.912126e-01 4.622885e-01 -2.452217e-01 2.995253e-01 2.274725e-02 2.070740e-01 -1.569951e-01 1.303335e-01 -1.031441e-01
<VARIANCE> 39
 3.316780e+01 2.664878e+01 1.946862e+01 3.390443e+01 3.051554e+01 3.779816e+01 6.441003e+01 7.521252e+01 1.076768e+02 6.674021e+01 2.766735e+01 3.097702e+01 2.061085e+01 2.317394e+00 5.701471e+00 1.997006e+00 5.949386e+00 3.047533e+00 4.873112e+00 5.856109e+00 5.825732e+00 7.850302e+00 5.345973e+00 3.059611e+00 3.508935e+00 2.293047e+00 6.972920e-01 8.742644e-01 3.309418e-01 7.569731e-01 5.124547e-01 6.711675e-01 1.065408e+00 9.755331e-01 1.617885e+00 9.100525e-01 5.263413e-01 6.011425e-01 3.973498e-01
<GCONST> 1.327789e+02
<TRANSP> 5
 0.000000e+00 1.000000e+00 0.000000e+00 0.000000e+00 0.000000e+00
 0.000000e+00 8.250968e-01 1.749032e-01 0.000000e+00 0.000000e+00
 0.000000e+00 0.000000e+00 9.395632e-01 6.043683e-02 0.000000e+00
 0.000000e+00 0.000000e+00 0.000000e+00 8.563345e-01 1.436655e-01
 0.000000e+00 0.000000e+00 0.000000e+00 0.000000e+00 0.000000e+00
<ENDHMM>
~o
<STREAMINFO> 1 39
<VECSIZE> 39<NULLD><MFCC_D_A_Z><DIAGC>
~h "bh"
<BEGINHMM>
<NUMSTATES> 5
<STATE> 2
<NUMMIXES> 2
<MIXTURE> 1 4.977919e-01
<MEAN> 39
 6.945812e+00 1.287459e+01 -9.615725e-01 9.806722e+00 -2.664177e-01 5.851902e+00 -2.895064e+00 1.208797e+00 -2.060782e+00 4.192995e+00 4.145055e+00 5.245051e+00 2.443059e+00 1.136929e-01 1.513826e+00 -2.997010e-01 2.444975e+00 -2.503765e-02 1.182960e+00 -1.386921e-01 3.132784e-01 3.016538e-01 7.164179e-01 1.807489e-01 -2.234447e-01 -3.824069e-02 -1.225335e-01 -3.374498e-01 2.042279e-01 -4.725288e-01 3.228089e-01 -3.430081e-01 2.467395e-02 -3.802376e-01 -1.302541e-01 -3.877525e-01 -7.952207e-02 -1.248782e-01 -6.664233e-02
<VARIANCE> 39
 2.858060e+01 2.207239e+01 1.613656e+01 3.021512e+01 1.867660e+01 2.188197e+01 2.967384e+01 2.577320e+01 2.660946e+01 2.236637e+01 2.370430e+01 2.333003e+01 1.757204e+01 7.589561e-01 1.538784e+00 1.428951e+00 3.062533e+00 1.954549e+00 2.485215e+00 2.635658e+00 2.665918e+00 2.279263e+00 2.680911e+00 1.836610e+00 1.772764e+00 1.496219e+00 9.262587e-02 2.050724e-01 1.875676e-01 4.408554e-01 2.942261e-01 3.365918e-01 3.813785e-01 4.152671e-01 3.765182e-01 3.846135e-01 2.870711e-01 2.859352e-01 2.403277e-01
<GCONST> 1.046224e+02
<MIXTURE> 2 5.022081e-01
<MEAN> 39
 8.007696e+00 6.587327e+00 1.603994e+00 -1.340471e+00 4.106600e+00 -2.576033e+00 -5.277984e+00 -6.072862e+00 -6.814686e+00 -5.431150e+00 4.098418e+00 6.849327e+00 2.048598e+00 6.467067e-02 1.018991e+00 -5.296096e-01 1.495144e+00 -6.643536e-01 1.123668e+00 6.305318e-02 1.035549e+00 3.534401e-01 1.495663e+00 4.034955e-01 4.198506e-01 2.873209e-01 3.578418e-02 2.252051e-01 -1.009088e-01 4.409088e-01 -2.141144e-01 2.741809e-01 6.325909e-02 2.112380e-01 2.290965e-01 2.914757e-01 -4.122999e-02 -1.915623e-01 -1.061353e-01
<VARIANCE> 39
 7.390517e+00 1.737150e+01 1.645431e+01 3.099121e+01 2.903691e+01 4.180434e+01 4.771246e+01 4.804132e+01 4.975232e+01 7.338687e+01 2.800777e+01 3.269816e+01 2.373384e+01 3.838127e-01 1.319035e+00 1.132003e+00 2.888118e+00 2.622683e+00 2.479673e+00 2.554705e+00 3.317971e+00 3.315771e+00 4.226643e+00 1.782027e+00 1.991407e+00 1.819541e+00 6.694081e-02 1.619070e-01 1.807822e-01 3.828508e-01 4.297504e-01 4.289058e-01 4.237632e-01 5.286518e-01 5.110764e-01 6.244070e-01 3.440794e-01 3.303756e-01 3.107818e-01
<GCONST> 1.099460e+02
<STATE> 3
<NUMMIXES> 2
<MIXTURE> 1 7.340027e-01
<MEAN> 39
 5.587809e+00 1.593650e+01 -1.095832e-01 1.529276e+01 1.387981e+00 7.801229e+00 -3.445761e+00 -7.704616e-02 -1.956266e+00 5.343905e+00 4.752527e+00 4.096646e+00 2.040246e+00 -1.827411e-01 1.050994e-03 8.750610e-02 1.393273e-01 1.121519e-01 7.732207e-02 2.973755e-02 -4.949750e-02 -3.887815e-02 3.080434e-02 4.586140e-02 -3.246253e-03 -1.507450e-02 -2.470445e-02 -1.123799e-01 1.672099e-02 -1.239410e-01 7.084594e-03 -4.484654e-02 5.830535e-02 2.579575e-02 5.467562e-03 -3.400182e-02 -1.376777e-02 1.584003e-02 1.269949e-02
<VARIANCE> 39
 1.077549e+01 8.525507e+00 1.022977e+01 9.198414e+00 1.192688e+01 1.420658e+01 1.703555e+01 1.864864e+01 1.917498e+01 1.805955e+01 1.460521e+01 1.525631e+01 1.552807e+01 2.085515e-01 3.112768e-01 3.820930e-01 4.623650e-01 5.412369e-01 6.571712e-01 7.937912e-01 8.558286e-01 8.194506e-01 8.379694e-01 7.559125e-01 6.537243e-01 6.670216e-01 2.906692e-02 7.900985e-02 6.976259e-02 1.177250e-01 9.663393e-02 1.315968e-01 1.477963e-01 1.482197e-01 1.461858e-01 1.429977e-01 1.319181e-01 1.175703e-01 1.121846e-01
<GCONST> 6.897166e+01
<MIXTURE> 2 2.659973e-01
<MEAN> 39
 -2.164498e+00 8.189907e+00 -4.055604e-01 9.871972e+00 2.977169e-01 6.707634e+00 1.501617e+00 3.737830e+00 4.625654e-01 4.423499e+00 1.018662e+00 4.462562e+00 3.567665e+00 4.523701e-01 3.745769e-01 7.622937e-02 2.733105e-01 1.501056e-01 8.829431e-02 -1.824155e-01 -2.045589e-01 -1.090663e-01 5.372204e-02 1.829636e-01 -6.358957e-02 -7.522555e-02 1.278358e-02 -1.500659e-02 -6.046631e-02 -4.668269e-02 -4.479965e-02 -8.265890e-02 -1.179814e-01 -1.224221e-01 -6.554525e-02 -3.907222e-02 3.296292e-02 -4.433905e-02 -3.555685e-02
<VARIANCE> 39
 5.608851e+01 3.507491e+01 3.621394e+01 3.495700e+01 3.396514e+01 3.363839e+01 3.980419e+01 3.356305e+01 3.611464e+01 2.926280e+01 2.760301e+01 2.339930e+01 2.288066e+01 1.933699e+00 1.714343e+00 1.618582e+00 2.022888e+00 1.784013e+00 1.957675e+00 2.538647e+00 2.233202e+00 2.115614e+00 1.946826e+00 1.868249e+00 1.439708e+00 1.382227e+00 2.862892e-01 2.767519e-01 2.821523e-01 3.627908e-01 3.322158e-01 3.762276e-01 4.360166e-01 4.065110e-01 3.822850e-01 3.800849e-01 3.439123e-01 2.794073e-01 2.643661e-01
<GCONST> 1.110803e+02
<STATE> 4
<NUMMIXES> 2
<MIXTURE> 1 3.651072e-01
<MEAN> 39
 4.793723e+00 1.516909e+01 4.394066e-01 1.546403e+01 2.456007e+00 8.309057e+00 -2.788070e+00 -2.103379e-01 -2.733447e+00 4.916185e+00 4.941376e+00 4.483142e+00 1.953858e+00 -1.111940e+00 -2.619749e+00 3.977833e-01 -2.358929e+00 6.067697e-01 -1.617846e+00 1.150586e+00 -4.305866e-01 4.133636e-01 -7.605718e-01 1.183306e-01 -6.242948e-01 3.776688e-02 -1.240487e-01 -9.997038e-01 1.753273e-01 -1.123276e+00 2.221211e-01 -8.072647e-01 1.569872e-01 -4.301476e-01 -1.610895e-01 -5.343617e-01 3.395726e-03 -2.318003e-01 -1.289452e-02
<VARIANCE> 39
 1.435169e+01 1.142053e+01 1.087642e+01 1.176114e+01 1.237780e+01 1.466285e+01 1.826087e+01 2.205758e+01 2.108362e+01 1.668877e+01 1.356408e+01 1.705447e+01 1.564913e+01 1.429226e+00 5.310001e+00 1.437997e+00 5.276634e+00 1.437296e+00 3.311425e+00 2.178339e+00 1.978252e+00 1.968205e+00 1.958771e+00 1.466795e+00 1.693046e+00 1.229147e+00 2.598659e-01 3.577549e-01 2.106769e-01 3.181020e-01 2.269454e-01 2.940999e-01 4.928613e-01 4.218027e-01 5.819127e-01 3.681600e-01 2.475563e-01 2.496213e-01 2.288772e-01
<GCONST> 1.012694e+02
<MIXTURE> 2 6.348928e-01
<MEAN> 39
 3.555893e+00 1.876144e+00 3.350360e+00 7.815599e-01 7.164594e+00 -3.788475e+00 -3.313972e+00 -7.992871e+00 -8.078854e+00 -5.376798e+00 5.622143e+00 2.910749e+00 1.986890e+00 9.970580e-01 -9.199052e-01 2.317621e-01 -1.534354e+00 7.189810e-01 -1.715054e+00 -1.597453e+00 -1.593276e+00 -2.031992e+00 -2.186887e+00 4.850542e-02 2.664472e-01 -3.183007e-01 2.412764e-01 6.051807e-01 -1.377315e-01 6.095514e-01 -1.816737e-01 4.012369e-01 -2.539459e-01 2.772979e-01 3.739201e-03 2.272968e-01 -1.024295e-01 1.631190e-01 -6.734744e-02
<VARIANCE> 39
 3.119982e+01 2.423831e+01 1.744541e+01 2.772902e+01 2.804425e+01 3.791531e+01 7.993932e+01 6.375829e+01 1.064179e+02 7.206744e+01 2.446767e+01 3.024653e+01 2.033679e+01 2.116322e+00 4.959184e+00 1.801823e+00 5.517351e+00 2.659855e+00 4.003893e+00 5.727615e+00 4.883342e+00 6.933052e+00 5.015302e+00 2.459665e+00 3.010997e+00 2.166724e+00 6.586865e-01 8.292705e-01 2.966486e-01 6.696686e-01 4.712922e-01 6.077615e-01 1.224097e+00 8.426179e-01 1.540295e+00 9.358467e-01 4.528665e-01 5.811377e-01 3.800658e-01
<GCONST> 1.298485e+02
<TRANSP> 5
 0.000000e+00 1.000000e+00 0.000000e+00 0.000000e+00 0.000000e+00
 0.000000e+00 8.158552e-01 1.841448e-01 0.000000e+00 0.000000e+00
 0.000000e+00 0.000000e+00 9.299229e-01 7.007706e-02 0.000000e+00
 0.000000e+00 0.000000e+00 0.000000e+00 8.637237e-01 1.362763e-01
 0.000000e+00 0.000000e+00 0.000000e+00 0.000000e+00 0.000000e+00
<ENDHMM>
~o
<STREAMINFO> 1 39
<VECSIZE> 39<NULLD><MFCC_D_A_Z><DIAGC>
~h "c"
<BEGINHMM>
<NUMSTATES> 5
<STATE> 2
<NUMMIXES> 2
<MIXTURE> 1 5.044944e-01
<MEAN> 39
 -5.881553e+00 4.361781e+00 -3.648812e+00 1.051959e+01 -2.923657e+00 5.090506e+00 -7.977343e-01 7.094635e+00 3.975479e+00 7.032275e+00 3.829741e+00 3.234801e+00 9.290318e-01 -4.824999e-01 -1.112436e+00 -8.974266e-01 -2.540243e-01 -3.768888e-01 -1.599150e-01 -3.176777e-01 -7.490678e-01 -3.991506e-01 -1.688545e-01 -5.439275e-04 -4.852426e-02 -1.612652e-02 -1.468384e-01 -9.640084e-01 1.689764e-01 -6.222348e-01 2.277041e-01 -4.417177e-01 -5.390040e-02 -4.358637e-01 -1.790041e-02 -1.944331e-01 -8.105904e-02 -1.556505e-01 -4.047014e-02
<VARIANCE> 39
 3.185341e+01 3.666467e+01 3.041491e+01 2.450458e+01 2.777304e+01 2.958060e+01 3.322586e+01 3.735897e+01 3.050799e+01 2.627052e+01 2.294418e+01 1.820603e+01 1.459967e+01 2.227827e+00 1.108428e+01 2.555475e+00 5.086452e+00 3.158234e+00 3.897952e+00 3.351579e+00 4.158803e+00 2.900718e+00 2.699641e+00 2.198330e+00 1.952188e+00 1.559098e+00 3.109064e-01 9.460730e-01 3.491440e-01 5.854704e-01 4.835254e-01 5.457246e-01 5.068545e-01 5.633070e-01 4.729480e-01 4.476048e-01 3.714846e-01 3.183656e-01 2.711826e-01
<GCONST> 1.190772e+02
<MIXTURE> 2 4.955055e-01
<MEAN> 39
 -7.912064e+00 -6.043019e+00 3.377761e+00 1.177942e+00 4.904843e+00 -1.911404e+00 1.112333e+00 3.198085e+00 7.006446e+00 4.699550e+00 3.536141e+00 2.047529e+00 1.590894e+00 -5.674126e-01 -9.281336e-01 -9.670501e-01 5.998943e-01 -4.760796e-01 1.302259e-01 -6.147466e-01 -3.935603e-01 -3.512623e-01 5.272433e-01 3.151218e-01 3.456776e-01 1.990758e-02 3.884389e-01 1.436871e-01 -2.924551e-01 3.442715e-01 -3.391244e-01 2.542068e-01 -4.489858e-02 3.540879e-02 -2.807765e-01 -1.052215e-01 -1.263212e-01 -5.180503e-02 -9.894397e-02
<VARIANCE> 39
 3.704397e+01 8.392027e+01 5.442618e+01 5.283488e+01 5.850618e+01 5.185412e+01 6.392709e+01 5.198946e+01 4.563675e+01 4.144668e+01 3.639058e+01 3.176228e+01 2.782253e+01 2.683086e+00 9.739982e+00 3.395287e+00 6.217763e+00 3.976418e+00 4.803735e+00 3.945528e+00 4.632710e+00 3.530357e+00 3.302443e+00 2.760307e+00 2.506037e+00 2.269239e+00 4.059019e-01 1.642206e+00 6.353330e-01 9.933584e-01 7.266780e-01 8.420524e-01 8.170776e-01 7.961593e-01 6.889889e-01 6.411053e-01 5.606310e-01 5.151027e-01 4.328105e-01
<GCONST> 1.344275e+02
<STATE> 3
<NUMMIXES> 2
<MIXTURE> 1 3.209996e-01
<MEAN> 39
 -8.952095e+00 -2.200376e+01 -6.353620e+00 4.746759e-01 -3.185250e-01 -3.833373e+00 -3.104928e+00 -6.668120e+00 1.296207e-02 3.160704e+00 2.495712e+00 4.128354e-01 -3.995439e-01 -1.280620e+00 -3.471757e+00 3.772630e-01 -3.429923e-01 5.360331e-01 -1.548959e+00 1.020563e-01 -1.643161e+00 -1.531719e-01 -4.255643e-01 -6.688999e-02 -7.769799e-01 -4.376311e-01 -3.609233e-01 8.779615e-01 3.893191e-01 2.063796e-01 2.487027e-01 -4.859152e-03 2.986976e-01 4.307884e-01 3.303412e-01 4.745479e-02 5.540764e-02 4.477313e-03 1.267040e-01
<VARIANCE> 39
 2.816265e+01 4.085938e+01 3.038021e+01 3.415990e+01 3.902594e+01 5.208774e+01 3.878592e+01 3.715042e+01 4.450352e+01 3.388091e+01 2.477804e+01 2.038902e+01 1.460217e+01 3.121864e+00 7.383256e+00 3.126740e+00 4.721941e+00 3.335565e+00 3.716123e+00 3.348476e+00 3.913697e+00 3.477253e+00 2.855383e+00 2.397437e+00 1.949073e+00 1.612018e+00 6.412408e-01 7.739561e-01 5.899157e-01 7.846172e-01 5.693638e-01 6.690690e-01 6.284710e-01 5.986410e-01 5.627719e-01 5.354040e-01 4.338732e-01 3.629473e-01 3.004111e-01
<GCONST> 1.243555e+02
<MIXTURE> 2 6.790004e-01
<MEAN> 39
 -1.540221e+01 -2.835055e+01 -4.112839e+00 -8.515265e-01 3.424293e+00 -1.048363e+01 -1.489106e+00 -9.127221e+00 1.039047e+00 1.584202e+00 2.529808e+00 -3.843851e+00 -1.606318e+00 1.674919e-01 1.495763e-01 -1.602733e-01 -5.191091e-01 4.264655e-03 -2.735834e-01 6.070788e-02 1.944221e-01 -5.024397e-02 -6.256059e-02 -1.670491e-01 -4.638630e-01 -2.398395e-01 3.493306e-01 3.227088e-01 -3.926241e-02 1.864067e-02 -7.563135e-02 2.938952e-01 5.830057e-02 2.722335e-01 3.999056e-02 1.453880e-01 1.972188e-03 1.256467e-01 3.211463e-03
<VARIANCE> 39
 9.301898e+00 1.267509e+01 1.675143e+01 2.266526e+01 2.191299e+01 3.042181e+01 2.599880e+01 3.301662e+01 4.149474e+01 2.652885e+01 2.839142e+01 2.005143e+01 1.663589e+01 1.074549e+00 1.041677e+00 9.671648e-01 1.163511e+00 1.468823e+00 1.875099e+00 1.604956e+00 1.968845e+00 1.733548e+00 1.777056e+00 1.590091e+00 1.509828e+00 1.265279e+00 1.652590e-01 1.930445e-01 2.144647e-01 2.625877e-01 2.755113e-01 3.072363e-01 3.247876e-01 3.536351e-01 3.544109e-01 3.360400e-01 2.983795e-01 2.782858e-01 2.497859e-01
<GCONST> 9.947543e+01
<STATE> 4
<NUMMIXES> 2
<MIXTURE> 1 5.370450e-01
<MEAN> 39
 2.678977e+00 -7.937572e+00 2.214787e+00 2.141189e+00 3.954806e+00 3.194438e+00 6.871806e+00 2.298534e+00 5.962459e+00 3.065698e+00 -2.230534e-02 -3.220743e+00 -3.333577e+00 2.374954e+00 3.012898e+00 6.254028e-01 -1.222099e-01 -7.322902e-01 1.416845e+00 7.896180e-01 2.999578e-01 -8.255301e-02 -1.261123e+00 -9.829916e-01 -1.971961e-01 -3.896650e-01 -5.634103e-01 -7.338789e-01 -4.560829e-01 -4.997440e-01 -2.303099e-01 -5.826120e-01 -3.997069e-01 -3.508778e-01 -2.627386e-01 -1.302910e-01 -4.155931e-02 -1.007056e-01 -1.013797e-02
<VARIANCE> 39
 2.483649e+01 4.162124e+01 1.899088e+01 2.737916e+01 3.566468e+01 4.609565e+01 4.796233e+01 3.612545e+01 3.504053e+01 3.459611e+01 4.520246e+01 2.643922e+01 2.211399e+01 2.032142e+00 3.765969e+00 2.310904e+00 3.123844e+00 2.629955e+00 3.561221e+00 3.564929e+00 2.741830e+00 2.928351e+00 2.784435e+00 2.337528e+00 2.143241e+00 2.011578e+00 2.104624e-01 4.356164e-01 2.723594e-01 3.807190e-01 5.486439e-01 4.453799e-01 4.248594e-01 4.922904e-01 4.716634e-01 6.264114e-01 4.490802e-01 3.735414e-01 3.375378e-01
<GCONST> 1.182339e+02
<MIXTURE> 2 4.629550e-01
<MEAN> 39
 -8.982322e+00 -2.285993e+01 -4.535298e+00 -3.151265e+00 2.177818e+00 -6.669812e+00 1.019049e+00 -2.687954e+00 2.916782e+00 4.545545e+00 2.066769e+00 -3.790299e+00 -2.843932e+00 2.450191e+00 2.636460e+00 1.176342e+00 1.142378e+00 5.589619e-01 2.360636e+00 1.430049e+00 2.171467e+00 1.143241e+00 1.027152e+00 2.615498e-01 6.896102e-01 1.016431e-01 4.640522e-01 8.086720e-01 4.603629e-01 3.659795e-01 1.282542e-01 4.077642e-01 2.375870e-01 -6.714068e-02 3.795994e-02 -3.352445e-01 -1.192538e-01 -4.172231e-03 6.544982e-03
<VARIANCE> 39
 1.488127e+01 1.738886e+01 1.627197e+01 2.191321e+01 2.992872e+01 3.995021e+01 3.346935e+01 4.275820e+01 4.267107e+01 3.503066e+01 3.916277e+01 2.494813e+01 2.223434e+01 1.346008e+00 2.415770e+00 1.728128e+00 1.950193e+00 2.286333e+00 2.544105e+00 2.665432e+00 2.289470e+00 2.386751e+00 2.282031e+00 1.963968e+00 1.854196e+00 1.772623e+00 1.650179e-01 2.201499e-01 2.450093e-01 3.933391e-01 4.309903e-01 4.776065e-01 4.743831e-01 5.654782e-01 5.409854e-01 6.074734e-01 4.450070e-01 4.327400e-01 3.789374e-01
<GCONST> 1.120000e+02
<TRANSP> 5
 0.000000e+00 1.000000e+00 0.000000e+00 0.000000e+00 0.000000e+00
 0.000000e+00 8.918606e-01 1.081394e-01 0.000000e+00 0.000000e+00
 0.000000e+00 0.000000e+00 9.133027e-01 8.669730e-02 0.000000e+00
 0.000000e+00 0.000000e+00 0.000000e+00 8.468064e-01 1.531936e-01
 0.000000e+00 0.000000e+00 0.000000e+00 0.000000e+00 0.000000e+00
<ENDHMM>
~o
<STREAMINFO> 1 39
<VECSIZE> 39<NULLD><MFCC_D_A_Z><DIAGC>
~h "ch"
<BEGINHMM>
<NUMSTATES> 5
<STATE> 2
<NUMMIXES> 2
<MIXTURE> 1 4.118175e-01
<MEAN> 39
 -9.795967e+00 -1.439635e+01 -7.651180e+00 2.423995e+00 -2.017292e+00 -2.503628e+00 -3.800894e+00 -2.134743e+00 7.765503e-01 3.708241e+00 2.492501e+00 1.048786e+00 -5.715626e-02 -4.987886e-01 -2.934616e+00 2.966106e-01 -9.578126e-01 6.510211e-01 -1.331625e+00 -2.723785e-01 -1.289276e+00 -3.298827e-02 -4.137129e-01 -2.100193e-01 -4.791973e-01 -1.957752e-01 -1.861047e-01 1.893495e-01 2.571120e-01 3.158198e-02 1.445810e-01 -6.181815e-02 1.310812e-01 1.136618e-01 1.674339e-01 -9.474823e-03 -2.594510e-02 -4.999391e-02 5.667166e-02
<VARIANCE> 39
 2.858286e+01 1.155934e+02 4.021360e+01 4.226588e+01 4.312101e+01 6.202549e+01 3.914164e+01 6.407258e+01 4.548182e+01 3.068361e+01 2.501891e+01 2.189522e+01 1.527773e+01 3.943945e+00 9.911961e+00 4.021353e+00 4.479326e+00 3.571284e+00 5.346239e+00 3.444878e+00 4.917891e+00 3.397203e+00 2.856117e+00 2.522400e+00 1.787593e+00 1.624750e+00 7.791715e-01 1.718532e+00 7.015887e-01 8.125859e-01 6.333318e-01 9.626364e-01 6.216307e-01 9.233125e-01 5.794604e-01 5.624881e-01 4.820760e-01 3.131343e-01 3.197049e-01
<GCONST> 1.303382e+02
<MIXTURE> 2 5.881826e-01
<MEAN> 39
 -1.524259e+01 -2.726075e+01 -3.417188e+00 -1.525301e+00 3.091642e+00 -1.195080e+01 -3.585632e+00 -7.614364e+00 3.859106e+00 6.711157e-01 1.114983e+00 -3.868418e+00 -6.488844e-01 4.394348e-02 -4.654014e-02 3.081973e-02 -4.370159e-01 3.193285e-01 -3.303133e-01 6.647747e-02 -4.063729e-02 2.587077e-01 -9.918808e-02 -2.199571e-01 -6.395487e-01 -2.079166e-01 3.831179e-01 3.744656e-01 -1.378852e-01 1.423989e-02 -1.242869e-01 3.397137e-01 8.490419e-02 2.639603e-01 -2.811372e-02 1.288523e-01 -1.186593e-02 7.921930e-02 -4.823682e-02
<VARIANCE> 39
 8.663592e+00 1.287738e+01 1.591672e+01 2.098572e+01 2.371661e+01 2.927789e+01 2.199076e+01 3.209505e+01 2.978286e+01 2.462850e+01 2.254959e+01 2.002913e+01 1.415020e+01 1.441015e+00 1.391197e+00 1.305542e+00 1.165784e+00 1.444240e+00 1.920052e+00 1.530796e+00 1.811556e+00 1.931418e+00 1.743921e+00 1.412832e+00 1.518174e+00 1.170405e+00 1.801505e-01 2.440763e-01 2.813708e-01 2.456142e-01 2.691820e-01 3.242075e-01 3.466817e-01 3.692250e-01 3.781017e-01 3.499385e-01 2.802923e-01 2.695983e-01 2.180426e-01
<GCONST> 9.953695e+01
<STATE> 3
<NUMMIXES> 2
<MIXTURE> 1 4.645066e-01
<MEAN> 39
 -5.336618e-01 -1.134828e+01 1.979427e+00 7.861902e-01 6.759180e+00 -2.596375e-01 4.246422e+00 1.690050e+00 8.109176e+00 4.761831e+00 1.145848e-01 -3.751183e+00 -2.432410e+00 3.640686e+00 5.099096e+00 1.760092e+00 4.077018e-01 -6.990627e-02 2.034331e+00 1.126021e+00 6.253274e-01 2.816821e-02 -1.036753e+00 -7.220509e-01 1.515867e-01 -4.762183e-01 -2.757452e-01 -2.996290e-01 -5.311208e-01 -7.719907e-01 -5.465064e-01 -7.036512e-01 -4.832674e-01 -6.244944e-01 -6.103750e-01 -7.730311e-01 -3.498181e-01 -2.757771e-01 -1.124019e-01
<VARIANCE> 39
 1.884176e+01 4.400194e+01 1.626712e+01 1.770834e+01 2.402941e+01 2.859668e+01 3.893700e+01 3.317601e+01 2.700823e+01 2.371567e+01 2.219545e+01 1.945242e+01 1.759934e+01 1.185328e+00 2.245146e+00 1.548599e+00 2.641905e+00 2.235584e+00 3.224815e+00 2.976139e+00 2.984631e+00 3.178296e+00 3.014807e+00 2.449695e+00 2.759292e+00 2.319576e+00 2.716048e-01 6.106297e-01 2.801915e-01 3.073655e-01 3.418412e-01 3.736615e-01 3.848907e-01 4.234681e-01 4.432862e-01 4.702731e-01 3.458564e-01 3.446910e-01 2.793583e-01
<GCONST> 1.116237e+02
<MIXTURE> 2 5.354935e-01
<MEAN> 39
 -9.835489e+00 -2.365397e+01 -4.669010e+00 -4.822251e+00 2.919149e+00 -8.926082e+00 -1.467448e+00 -3.985110e+00 4.653456e+00 1.993994e+00 -7.246267e-01 -6.273860e+00 -2.625540e+00 2.575541e+00 2.668460e+00 1.023763e+00 6.722079e-01 5.070940e-01 2.455060e+00 1.582835e+00 2.206823e+00 9.707741e-01 1.201604e+00 3.329155e-02 5.099385e-01 -1.796279e-01 6.022626e-01 1.119202e+00 6.187050e-01 4.806375e-01 1.969886e-01 4.803542e-01 2.661391e-01 7.741942e-02 9.086248e-02 -1.256294e-01 6.123124e-02 2.385502e-01 3.936675e-02
<VARIANCE> 39
 1.092617e+01 1.277903e+01 1.170059e+01 1.565858e+01 1.960185e+01 2.899046e+01 2.544683e+01 3.790531e+01 3.050807e+01 2.940359e+01 2.420220e+01 2.163252e+01 2.000435e+01 9.838964e-01 2.445910e+00 1.601584e+00 2.104078e+00 2.103578e+00 1.978843e+00 2.183438e+00 1.953742e+00 2.169589e+00 2.316004e+00 1.672452e+00 1.801790e+00 1.271076e+00 1.657621e-01 2.055881e-01 1.819342e-01 2.814440e-01 3.200935e-01 4.126834e-01 4.120940e-01 5.100304e-01 4.708547e-01 6.134298e-01 3.556655e-01 4.098451e-01 3.257063e-01
<GCONST> 1.047996e+02
<STATE> 4
<NUMMIXES> 2
<MIXTURE> 1 3.811332e-01
<MEAN> 39
 7.026633e+00 -7.930268e-01 2.305792e+00 -4.243790e+00 2.357567e+00 5.171071e-01 3.643462e+00 1.051593e+00 5.048399e+00 -1.654153e+00 -4.176786e+00 -5.373778e+00 -5.067292e+00 1.171341e+00 1.268214e+00 -4.665744e-01 -1.376818e+00 -5.705401e-01 -4.202994e-01 -4.805418e-01 1.192078e-01 -1.183829e+00 -1.274262e+00 -6.456275e-01 -1.974905e-01 -3.131173e-01 -6.482216e-01 -9.894317e-01 -2.960350e-01 4.519857e-02 1.750205e-01 -5.107152e-01 -3.489542e-01 1.365644e-03 -9.149388e-02 2.467144e-01 2.297293e-01 6.868529e-02 1.522603e-01
<VARIANCE> 39
 7.214701e+00 2.489664e+01 1.405480e+01 3.063342e+01 2.339290e+01 4.844306e+01 5.519209e+01 3.291218e+01 3.201302e+01 2.513848e+01 2.981862e+01 3.280054e+01 2.906244e+01 1.036941e+00 2.266052e+00 1.008991e+00 1.760096e+00 1.880398e+00 2.851581e+00 2.575233e+00 2.297304e+00 2.378740e+00 2.144848e+00 2.028190e+00 1.892240e+00 1.828684e+00 1.704453e-01 4.070410e-01 2.716591e-01 3.896090e-01 3.389966e-01 4.339910e-01 4.032806e-01 4.164294e-01 4.415517e-01 3.420673e-01 3.556723e-01 3.621041e-01 3.170827e-01
<GCONST> 1.091770e+02
<MIXTURE> 2 6.188667e-01
<MEAN> 39
 1.040100e+01 6.070521e-01 -2.317891e+00 -7.549981e+00 2.780790e-01 -1.524072e+01 -9.477508e+00 -4.020960e-01 -4.921161e+00 -1.272661e+01 -6.862001e-01 1.327697e+00 -6.754389e+00 7.710040e-02 -1.854665e-02 -1.076063e-01 -3.220905e-02 -2.366072e-01 -4.636770e-01 -6.913182e-01 -2.241427e-01 -2.165419e-01 -4.960610e-01 1.597513e-01 3.739034e-01 6.194438e-02 -4.183649e-02 1.047510e-02 5.331066e-02 3.449063e-02 2.257792e-03 1.448944e-01 8.808374e-02 -6.332132e-02 1.402664e-01 1.203316e-01 -4.049645e-02 -4.049858e-02 2.694568e-02
<VARIANCE> 39
 4.561658e+00 1.200495e+01 1.170641e+01 1.739020e+01 2.670417e+01 4.906504e+01 4.757876e+01 4.634668e+01 3.840329e+01 4.764297e+01 4.684159e+01 3.973648e+01 2.747632e+01 1.899685e-01 5.450808e-01 7.277485e-01 9.381302e-01 1.092927e+00 1.976336e+00 1.828050e+00 1.630402e+00 2.069341e+00 1.956489e+00 1.554783e+00 1.597955e+00 1.437243e+00 3.435556e-02 8.888299e-02 1.084193e-01 1.396541e-01 1.820152e-01 2.462492e-01 2.298680e-01 2.785666e-01 2.759252e-01 2.434182e-01 2.488314e-01 2.480379e-01 2.314702e-01
<GCONST> 9.332672e+01
<TRANSP> 5
 0.000000e+00 1.000000e+00 0.000000e+00 0.000000e+00 0.000000e+00
 0.000000e+00 9.186106e-01 8.138943e-02 0.000000e+00 0.000000e+00
 0.000000e+00 0.000000e+00 8.098025e-01 1.901976e-01 0.000000e+00
 0.000000e+00 0.000000e+00 0.000000e+00 8.874521e-01 1.125479e-01
 0.000000e+00 0.000000e+00 0.000000e+00 0.000000e+00 0.000000e+00
<ENDHMM>
~o
<STREAMINFO> 1 39
<VECSIZE> 39<NULLD><MFCC_D_A_Z><DIAGC>
~h "d"
<BEGINHMM>
<NUMSTATES> 5
<STATE> 2
<NUMMIXES> 2
<MIXTURE> 1 3.899342e-01
<MEAN> 39
 5.569036e+00 1.092750e+01 1.889045e+00 1.067937e+01 -2.861478e+00 3.914990e+00 -3.284707e-01 7.102295e+00 3.777013e+00 7.012775e+00 5.046157e+00 3.740458e+00 -2.984509e-01 3.794407e-01 1.521539e+00 -7.794415e-01 1.440684e+00 -1.718870e-01 1.076340e+00 -5.824119e-01 1.615770e-01 2.772326e-02 8.917888e-01 3.732257e-01 -4.228261e-02 -3.932596e-01 -3.098619e-01 -5.328761e-01 2.304576e-01 -5.574201e-01 3.570571e-01 -4.000794e-01 2.717637e-01 -2.076345e-01 9.656192e-02 -3.096357e-01 -1.193724e-01 -1.724885e-01 3.052571e-03
<VARIANCE> 39
 1.009865e+01 1.938493e+01 1.724857e+01 2.850938e+01 2.469052e+01 2.917026e+01 4.821799e+01 3.474156e+01 2.486553e+01 2.664380e+01 2.811003e+01 2.522039e+01 2.384395e+01 1.285541e+00 3.314517e+00 2.090220e+00 2.986792e+00 2.494026e+00 2.885798e+00 2.804592e+00 2.253360e+00 2.000451e+00 2.326606e+00 1.912303e+00 1.729125e+00 1.380649e+00 1.211200e-01 2.733155e-01 2.507711e-01 3.225314e-01 3.253363e-01 3.807803e-01 3.716625e-01 3.508957e-01 3.229606e-01 3.514920e-01 3.001546e-01 2.947318e-01 2.436729e-01
<GCONST> 1.074801e+02
<MIXTURE> 2 6.100658e-01
<MEAN> 39
 5.142310e-01 2.867372e+00 6.788262e+00 2.009858e+00 1.151659e+00 -2.067505e+00 3.215319e+00 4.094002e+00 4.102902e+00 2.769700e+00 3.970015e+00 3.048109e+00 1.710262e+00 1.516958e-02 8.441507e-01 -3.392785e-01 9.882176e-01 -3.610513e-01 6.693361e-01 -4.271965e-01 2.278600e-01 -1.927473e-02 8.958247e-01 3.917379e-01 3.022584e-01 2.095450e-02 2.731203e-01 2.145234e-01 -2.554865e-01 1.931291e-01 -8.133097e-02 2.456460e-01 -1.357214e-01 5.098155e-02 -9.297357e-02 -1.668540e-02 -1.086948e-01 -9.332236e-02 -1.752883e-01
<VARIANCE> 39
 2.143056e+01 3.536517e+01 2.481044e+01 3.623630e+01 4.095937e+01 5.672622e+01 6.257347e+01 4.897753e+01 3.593315e+01 3.422004e+01 3.500092e+01 3.100874e+01 2.423659e+01 1.454285e+00 3.304030e+00 2.047533e+00 3.681982e+00 2.704712e+00 3.549540e+00 3.328199e+00 2.755848e+00 2.452456e+00 3.228061e+00 2.376196e+00 2.368038e+00 1.860919e+00 2.022543e-01 5.055346e-01 3.617233e-01 4.594494e-01 4.807059e-01 6.025773e-01 5.573978e-01 4.808914e-01 4.611027e-01 4.753138e-01 4.258520e-01 3.907540e-01 3.304712e-01
<GCONST> 1.196158e+02
<STATE> 3
<NUMMIXES> 2
<MIXTURE> 1 4.275914e-01
<MEAN> 39
 4.518227e+00 1.461087e+01 2.496875e-01 1.421201e+01 -4.791183e-01 6.512701e+00 -1.008559e+00 6.088617e+00 4.512105e+00 9.437366e+00 5.796108e+00 2.164257e+00 -2.173127e+00 -3.133494e-01 3.570842e-02 4.769092e-02 1.505236e-01 1.130712e-01 1.172124e-01 5.431120e-02 3.160959e-03 8.488841e-02 1.529517e-01 7.623354e-02 1.912376e-03 -2.925939e-02 -1.268011e-01 -3.517037e-01 8.585397e-02 -1.997937e-01 5.427914e-02 -1.502223e-01 8.591401e-02 -2.586887e-02 -2.129247e-02 -1.244568e-01 -2.894955e-02 2.126441e-02 7.911316e-02
<VARIANCE> 39
 1.296016e+01 1.149205e+01 1.247523e+01 1.689836e+01 1.842472e+01 1.938390e+01 2.581529e+01 2.297850e+01 1.978759e+01 2.197144e+01 2.049970e+01 1.909997e+01 1.747891e+01 2.759335e-01 5.486779e-01 5.850818e-01 6.993375e-01 8.474919e-01 9.259800e-01 1.015015e+00 9.363105e-01 9.256173e-01 1.048945e+00 9.373380e-01 8.613470e-01 7.874952e-01 6.769182e-02 2.856383e-01 1.458101e-01 2.216123e-01 1.890724e-01 2.272923e-01 2.096551e-01 1.951647e-01 1.880673e-01 2.254735e-01 1.824939e-01 1.644357e-01 1.427436e-01
<GCONST> 8.330917e+01
<MIXTURE> 2 5.724086e-01
<MEAN> 39
 -9.686659e+00 1.932923e+00 -8.323381e+00 4.188901e+00 -6.444176e+00 1.272563e+00 -3.990935e+00 1.441904e+00 -1.615005e+00 2.474627e+00 1.613146e-01 4.539922e-01 -6.303577e-01 -1.405841e-02 -8.214537e-02 -3.904802e-02 -1.814459e-02 4.340969e-02 -2.006189e-02 -3.585197e-02 -3.639666e-02 2.871147e-02 3.174293e-02 4.383828e-02 -2.785083e-02 -6.654905e-02 2.487903e-02 -2.748430e-02 2.094657e-02 -1.851821e-02 3.062721e-02 -1.781861e-02 3.423824e-02 1.869196e-03 4.512104e-03 -1.890816e-02 -1.115943e-02 -1.719807e-02 -7.032708e-03
<VARIANCE> 39
 3.145168e+01 1.856066e+01 3.809840e+01 2.143962e+01 3.017019e+01 2.739402e+01 3.430624e+01 2.781955e+01 2.615007e+01 2.193453e+01 2.185456e+01 2.091399e+01 1.790147e+01 1.275741e+00 1.375070e+00 1.432126e+00 1.524437e+00 1.848957e+00 1.978126e+00 2.169265e+00 2.159102e+00 2.045399e+00 1.956410e+00 1.796820e+00 1.626330e+00 1.392624e+00 2.344501e-01 2.691261e-01 2.685321e-01 2.978718e-01 3.597322e-01 3.888232e-01 4.100679e-01 4.193095e-01 4.003541e-01 3.901538e-01 3.481316e-01 3.132846e-01 2.629146e-01
<GCONST> 1.062410e+02
<STATE> 4
<NUMMIXES> 2
<MIXTURE> 1 4.344870e-01
<MEAN> 39
 5.476232e-01 9.126850e+00 2.890426e+00 1.016693e+01 8.790179e-01 5.677554e+00 1.976143e+00 7.492963e+00 4.857553e+00 7.067465e+00 4.283050e+00 3.459398e+00 3.209066e-01 -9.665706e-01 -2.829340e+00 -4.280761e-01 -1.647411e+00 8.356232e-01 -1.473379e+00 3.894128e-01 -1.097476e+00 -1.001020e-01 -7.334245e-01 1.047355e-01 -4.692818e-01 1.624794e-01 -4.492297e-02 -8.276678e-01 -1.332551e-01 -7.038667e-01 6.828319e-02 -6.256302e-01 1.908028e-01 -3.336654e-01 -7.011050e-02 -3.638414e-01 -6.277765e-02 -3.389137e-01 -7.254955e-02
<VARIANCE> 39
 2.406102e+01 4.146789e+01 2.832983e+01 5.203988e+01 3.300356e+01 3.403676e+01 4.046057e+01 3.270768e+01 2.471495e+01 3.460323e+01 3.205082e+01 2.263151e+01 2.287030e+01 1.887623e+00 8.464616e+00 3.378238e+00 6.032125e+00 3.185079e+00 5.084231e+00 3.352904e+00 3.833632e+00 2.578722e+00 3.439724e+00 2.388024e+00 2.272673e+00 2.089831e+00 3.156712e-01 9.230153e-01 5.165907e-01 7.370020e-01 5.400506e-01 6.267908e-01 5.435383e-01 5.499896e-01 4.234209e-01 5.055951e-01 4.159202e-01 3.751244e-01 3.307167e-01
<GCONST> 1.232984e+02
<MIXTURE> 2 5.655131e-01
<MEAN> 39
 -1.812454e+00 -6.532046e+00 1.378391e+00 -1.500319e+00 3.359074e+00 -4.780621e+00 5.282600e+00 1.642815e+00 4.340731e+00 1.409876e+00 3.871663e+00 -1.390858e+00 -4.509210e-01 8.472025e-01 -1.109829e+00 6.608470e-01 -1.269413e+00 -2.874433e-01 -6.148013e-01 5.367504e-01 2.613375e-01 1.274554e-01 -8.277588e-01 -8.130661e-01 -1.069860e+00 -8.722157e-01 5.115118e-01 1.125085e+00 3.283484e-01 5.562251e-01 -2.528763e-01 8.862456e-01 -7.468637e-02 5.837827e-01 7.083730e-03 1.004941e-01 -3.346656e-01 2.028391e-01 -8.176884e-02
<VARIANCE> 39
 2.401909e+01 2.784350e+01 3.273777e+01 2.828019e+01 3.398523e+01 4.074801e+01 5.212301e+01 4.832523e+01 3.020645e+01 3.049364e+01 3.094768e+01 2.549463e+01 2.248090e+01 2.686692e+00 8.306898e+00 3.415056e+00 4.951908e+00 3.189383e+00 7.084486e+00 4.851823e+00 6.022241e+00 3.252237e+00 3.419091e+00 3.444498e+00 3.132983e+00 2.447225e+00 4.385242e-01 9.272862e-01 7.488664e-01 7.534445e-01 6.550065e-01 1.010100e+00 7.583103e-01 1.025911e+00 6.654261e-01 6.452007e-01 6.230989e-01 5.169823e-01 4.775886e-01
<GCONST> 1.299420e+02
<TRANSP> 5
 0.000000e+00 1.000000e+00 0.000000e+00 0.000000e+00 0.000000e+00
 0.000000e+00 7.935890e-01 2.064110e-01 0.000000e+00 0.000000e+00
 0.000000e+00 0.000000e+00 8.769878e-01 1.230122e-01 0.000000e+00
 0.000000e+00 0.000000e+00 0.000000e+00 8.410789e-01 1.589211e-01
 0.000000e+00 0.000000e+00 0.000000e+00 0.000000e+00 0.000000e+00
<ENDHMM>
~o
<STREAMINFO> 1 39
<VECSIZE> 39<NULLD><MFCC_D_A_Z><DIAGC>
~h "dh"
<BEGINHMM>
<NUMSTATES> 5
<STATE> 2
<NUMMIXES> 2
<MIXTURE> 1 2.965115e-01
<MEAN> 39
 6.485366e+00 1.065286e+01 2.394319e+00 1.028544e+01 -3.346679e+00 1.325461e+00 -2.193470e+00 5.936096e+00 3.583808e+00 7.648677e+00 6.459137e+00 4.786374e+00 -4.294915e-02 7.977005e-01 2.186753e+00 -9.955935e-01 1.996613e+00 -5.695527e-01 1.597917e+00 -7.503691e-01 5.554172e-01 -9.177563e-03 1.194329e+00 4.465930e-01 8.443369e-02 -5.684110e-01 -2.658485e-01 -4.557632e-01 1.442709e-01 -5.336925e-01 4.227611e-01 -4.200685e-01 2.090034e-01 -3.398135e-01 9.382097e-02 -4.041288e-01 -1.343405e-01 -2.320574e-01 -3.059871e-02
<VARIANCE> 39
 9.149845e+00 2.199252e+01 1.752758e+01 2.790538e+01 2.546025e+01 2.953111e+01 4.275269e+01 3.221818e+01 2.697413e+01 2.335708e+01 2.384167e+01 2.304581e+01 1.887329e+01 9.826530e-01 2.443919e+00 1.681022e+00 2.781377e+00 2.480253e+00 2.725781e+00 2.675967e+00 2.516386e+00 2.201512e+00 2.632236e+00 1.918352e+00 2.014695e+00 1.379212e+00 1.453926e-01 3.164595e-01 2.697921e-01 3.584879e-01 3.582731e-01 4.069879e-01 4.347921e-01 4.050508e-01 3.760590e-01 3.991998e-01 3.290394e-01 3.311277e-01 2.497032e-01
<GCONST> 1.078068e+02
<MIXTURE> 2 7.034885e-01
<MEAN> 39
 2.694367e+00 8.333899e-01 6.203873e+00 -5.596307e-01 2.595347e+00 -8.601450e+00 -1.468161e+00 -6.810380e-01 2.483233e+00 -8.404455e-01 4.595159e+00 3.320731e+00 6.848123e-01 -9.412450e-02 6.325397e-01 -2.764964e-02 8.059946e-01 -3.504523e-01 7.976944e-01 2.478683e-01 5.992557e-01 3.801793e-01 9.812896e-01 3.563711e-01 1.635608e-01 1.571776e-01 1.756030e-01 2.286912e-01 -1.756924e-01 2.093140e-01 -1.258973e-01 2.279174e-01 -1.444800e-01 6.140212e-02 -1.143574e-01 6.912116e-02 -3.284504e-02 9.898653e-03 -1.113552e-01
<VARIANCE> 39
 2.094530e+01 2.542008e+01 1.909484e+01 3.073331e+01 3.232259e+01 5.492021e+01 6.325881e+01 4.154319e+01 3.900576e+01 4.988970e+01 3.402893e+01 3.319936e+01 2.457260e+01 1.304563e+00 2.192999e+00 1.490615e+00 2.697093e+00 2.431231e+00 3.428405e+00 3.019725e+00 2.710343e+00 2.616863e+00 3.508975e+00 2.286998e+00 2.219076e+00 1.736695e+00 2.170904e-01 3.760464e-01 2.687677e-01 3.703606e-01 3.913775e-01 5.078174e-01 5.007313e-01 4.320100e-01 4.653862e-01 4.890055e-01 4.008268e-01 3.975696e-01 3.150388e-01
<GCONST> 1.161175e+02
<STATE> 3
<NUMMIXES> 2
<MIXTURE> 1 6.294195e-01
<MEAN> 39
 5.155092e+00 1.542163e+01 -3.041755e-03 1.447301e+01 -1.123363e+00 5.862741e+00 -1.689608e+00 5.772418e+00 4.797067e+00 9.850983e+00 6.425482e+00 2.254084e+00 -2.487763e+00 -3.197836e-01 7.930373e-02 3.926751e-02 1.486844e-01 1.491604e-01 2.381811e-01 1.819887e-01 4.930316e-02 9.167518e-02 1.014430e-01 -3.283100e-02 -1.022277e-01 -5.682645e-02 -1.100831e-01 -2.734176e-01 1.180052e-01 -1.375827e-01 4.026451e-02 -1.115546e-01 7.886067e-02 7.410557e-03 -2.520106e-02 -9.937465e-02 -2.272289e-02 3.375355e-02 7.721721e-02
<VARIANCE> 39
 1.282549e+01 1.053459e+01 1.066020e+01 1.268197e+01 1.796285e+01 1.953872e+01 2.525419e+01 2.328464e+01 2.266685e+01 1.932327e+01 2.077322e+01 2.052716e+01 1.562311e+01 2.278956e-01 4.507523e-01 5.287347e-01 6.121345e-01 8.042613e-01 9.186562e-01 9.158999e-01 8.733202e-01 9.231257e-01 1.025473e+00 9.105574e-01 8.627172e-01 7.322119e-01 4.857134e-02 1.748493e-01 1.228030e-01 1.570272e-01 1.614862e-01 1.829067e-01 1.752774e-01 1.667951e-01 1.758050e-01 2.003296e-01 1.698734e-01 1.523508e-01 1.282362e-01
<GCONST> 7.925038e+01
<MIXTURE> 2 3.705805e-01
<MEAN> 39
 1.198739e+00 9.046345e+00 3.955009e+00 9.993906e+00 8.659805e-01 4.271966e+00 2.177096e+00 6.865957e+00 4.577399e+00 6.732669e+00 4.268785e+00 2.530418e+00 -7.220405e-01 -3.427751e-01 -2.613996e-01 -1.245921e-01 1.058399e-01 2.883447e-01 6.337955e-02 1.532557e-01 -4.087879e-02 7.089922e-02 -4.591747e-02 -1.406199e-02 -2.109310e-01 -7.114138e-02 -3.599165e-02 -3.313421e-01 -1.535804e-01 -2.657234e-01 2.280179e-02 -2.106863e-01 6.349168e-03 -1.634501e-01 -1.896512e-02 -1.341239e-01 9.731394e-03 -5.901713e-02 6.357487e-02
<VARIANCE> 39
 2.769376e+01 4.770036e+01 3.784673e+01 5.514046e+01 4.024376e+01 4.393743e+01 4.325272e+01 3.564849e+01 2.727278e+01 3.001221e+01 2.919680e+01 2.798264e+01 2.488797e+01 1.878422e+00 4.503827e+00 3.561715e+00 3.097547e+00 2.664593e+00 2.563152e+00 2.659721e+00 1.999282e+00 1.965158e+00 2.049474e+00 1.823300e+00 1.621609e+00 1.365572e+00 3.401757e-01 9.814807e-01 7.002938e-01 6.839397e-01 5.566188e-01 5.339519e-01 5.227268e-01 4.291720e-01 3.940202e-01 4.226294e-01 3.669615e-01 3.153494e-01 2.533636e-01
<GCONST> 1.190069e+02
<STATE> 4
<NUMMIXES> 2
<MIXTURE> 1 2.950923e-01
<MEAN> 39
 2.108409e+00 1.226601e+01 1.579978e+00 1.438797e+01 -5.175372e-01 5.812509e+00 -1.386952e-01 6.882298e+00 4.835197e+00 9.496987e+00 6.501946e+00 3.190295e+00 -1.226632e+00 -1.540788e+00 -4.182822e+00 -3.516248e-01 -2.584460e+00 1.140371e+00 -1.732649e+00 9.377406e-01 -1.202211e+00 -1.259965e-01 -1.361032e+00 -7.579175e-02 -4.440362e-01 7.400550e-01 -3.330528e-01 -1.380383e+00 -3.146096e-02 -1.156998e+00 3.080274e-01 -8.783550e-01 3.314410e-01 -5.465499e-01 -8.238741e-02 -6.164859e-01 -1.168335e-01 -3.374538e-01 1.245500e-01
<VARIANCE> 39
 2.065210e+01 2.994424e+01 1.718343e+01 1.937079e+01 2.248337e+01 2.575153e+01 3.252282e+01 2.677543e+01 2.073020e+01 2.144760e+01 2.193879e+01 2.070776e+01 1.702689e+01 1.621109e+00 8.669587e+00 2.670647e+00 5.914754e+00 3.037072e+00 4.541903e+00 3.216652e+00 3.524670e+00 2.562835e+00 3.089755e+00 2.126468e+00 2.265525e+00 1.561041e+00 2.506916e-01 7.900000e-01 3.785034e-01 4.664843e-01 4.171540e-01 4.776060e-01 4.200425e-01 4.132429e-01 3.593619e-01 3.701446e-01 3.180211e-01 3.289278e-01 2.746456e-01
<GCONST> 1.143506e+02
<MIXTURE> 2 7.049077e-01
<MEAN> 39
 -2.943233e+00 -6.768978e+00 2.315688e+00 -5.025033e-01 4.124221e+00 -5.151972e+00 4.411039e+00 4.306555e-01 4.110768e+00 1.309485e+00 5.077895e+00 -5.145130e-01 9.776275e-01 6.156051e-01 -1.236039e+00 6.757350e-01 -1.471319e+00 1.176604e-01 -9.535936e-01 3.901335e-01 -2.114672e-01 -1.364050e-01 -1.049289e+00 -6.870649e-01 -7.629399e-01 -4.273551e-01 5.942112e-01 1.078597e+00 1.840184e-01 5.427464e-01 -2.305182e-01 6.343290e-01 -1.687566e-01 4.182903e-01 -2.579135e-02 1.917437e-01 -2.154941e-01 1.360562e-01 -2.507795e-01
<VARIANCE> 39
 2.837603e+01 4.637239e+01 3.324083e+01 2.947704e+01 3.180311e+01 3.630110e+01 4.212338e+01 3.824846e+01 2.830960e+01 2.682214e+01 2.495165e+01 2.334363e+01 1.904964e+01 3.849797e+00 1.071488e+01 3.219622e+00 5.413879e+00 2.957381e+00 6.232159e+00 4.449854e+00 5.057127e+00 3.069654e+00 3.163823e+00 2.822836e+00 2.724900e+00 2.347671e+00 4.990790e-01 1.179040e+00 7.108304e-01 8.016343e-01 6.095885e-01 8.762886e-01 7.145213e-01 8.282931e-01 6.174634e-01 5.591981e-01 4.730391e-01 4.928411e-01 4.074945e-01
<GCONST> 1.282407e+02
<TRANSP> 5
 0.000000e+00 1.000000e+00 0.000000e+00 0.000000e+00 0.000000e+00
 0.000000e+00 8.640310e-01 1.359690e-01 0.000000e+00 0.000000e+00
 0.000000e+00 0.000000e+00 8.698416e-01 1.301583e-01 0.000000e+00
 0.000000e+00 0.000000e+00 0.000000e+00 8.471446e-01 1.528554e-01
 0.000000e+00 0.000000e+00 0.000000e+00 0.000000e+00 0.000000e+00
<ENDHMM>
~o
<STREAMINFO> 1 39
<VECSIZE> 39<NULLD><MFCC_D_A_Z><DIAGC>
~h "dx"
<BEGINHMM>
<NUMSTATES> 5
<STATE> 2
<NUMMIXES> 2
<MIXTURE> 1 3.825749e-01
<MEAN> 39
 7.356296e+00 7.682853e+00 8.820938e+00 -1.061957e+01 -9.275503e+00 -1.970802e+00 2.688686e+00 3.580455e+00 2.260489e+00 -1.146642e+00 3.091507e+00 2.088425e+00 -2.875249e+00 -1.893009e-01 3.170753e-01 2.487537e-01 -4.645905e-01 -4.715463e-01 1.597083e-01 -5.492479e-01 4.676301e-01 1.257299e+00 1.593364e+00 3.636355e-01 -4.758146e-01 1.864296e-01 -3.206599e-02 -3.088561e-02 -1.792385e-01 9.463069e-02 1.832317e-01 6.630962e-02 -1.605322e-01 -2.226818e-01 -1.188863e-01 1.518265e-01 3.988344e-03 -1.454506e-02 1.355453e-01
<VARIANCE> 39
 1.164209e+01 1.840747e+01 3.426922e+01 5.856676e+01 4.589040e+01 6.509267e+01 5.430947e+01 4.610104e+01 5.972022e+01 7.585798e+01 4.173973e+01 3.664804e+01 4.963103e+01 3.166267e-01 6.853991e-01 1.037519e+00 1.664572e+00 1.739590e+00 2.599103e+00 2.222476e+00 2.638769e+00 2.557055e+00 2.595423e+00 2.359455e+00 2.061095e+00 2.371816e+00 5.657595e-02 1.557068e-01 2.159128e-01 3.288043e-01 2.639294e-01 3.938224e-01 3.770858e-01 3.650548e-01 3.902275e-01 4.078972e-01 3.949621e-01 3.825658e-01 3.598170e-01
<GCONST> 1.103931e+02
<MIXTURE> 2 6.174251e-01
<MEAN> 39
 7.986844e+00 5.043679e+00 3.389133e+00 -1.910571e+01 -4.998230e+00 6.866426e+00 2.432660e+00 -9.721502e-01 5.420964e+00 -1.290080e+00 -7.266640e+00 -4.826583e+00 8.452991e-01 -5.983771e-02 2.608211e-01 2.010645e-01 -3.223236e-01 -5.566297e-01 3.681770e-01 3.998598e-01 6.457393e-01 4.606202e-01 3.702886e-01 2.031705e-02 -8.250953e-02 2.000930e-01 -4.016697e-02 1.529225e-02 -2.218566e-02 1.406604e-01 2.285442e-02 -1.366997e-01 -4.276232e-02 9.862424e-02 -2.462515e-02 8.837452e-02 1.553753e-01 7.248051e-02 -2.722671e-02
<VARIANCE> 39
 5.201831e+00 1.557218e+01 2.173422e+01 2.755218e+01 4.089556e+01 4.418900e+01 4.865512e+01 5.687928e+01 4.837825e+01 3.612285e+01 4.077451e+01 3.750710e+01 3.747493e+01 1.873847e-01 4.846032e-01 7.242090e-01 1.310347e+00 1.217914e+00 1.671584e+00 1.587251e+00 2.290064e+00 2.130923e+00 1.896819e+00 1.715612e+00 1.551664e+00 1.477931e+00 2.906280e-02 7.941541e-02 1.221951e-01 2.095765e-01 1.825861e-01 2.690973e-01 2.561867e-01 2.913417e-01 3.070911e-01 2.622211e-01 2.580230e-01 2.433272e-01 2.099798e-01
<GCONST> 9.643819e+01
<STATE> 3
<NUMMIXES> 2
<MIXTURE> 1 4.233097e-01
<MEAN> 39
 7.047720e+00 1.500012e+01 -2.618531e+00 7.037918e+00 -3.626225e+00 7.320072e+00 2.948253e+00 1.055558e+01 7.731604e+00 9.890422e+00 3.004665e+00 -3.521285e-01 -3.245801e+00 -1.728146e-01 2.930374e-01 -1.681652e-01 1.277622e+00 5.652475e-01 1.009851e-01 -2.053524e-02 -2.707863e-01 -2.845475e-01 3.078138e-02 3.408745e-01 2.996791e-01 3.985469e-02 -2.055154e-01 -4.670052e-01 2.594916e-01 -8.479509e-01 -2.914366e-03 -1.063303e-01 3.357771e-02 -3.085088e-01 -3.195645e-02 -1.774142e-01 -4.357864e-02 -4.198359e-02 1.620255e-01
<VARIANCE> 39
 1.341242e+01 1.010937e+01 1.493271e+01 2.301670e+01 2.276280e+01 3.032934e+01 3.251233e+01 2.555178e+01 2.661373e+01 3.627925e+01 3.181148e+01 2.492123e+01 2.095357e+01 5.962782e-01 1.002257e+00 1.302677e+00 4.729577e+00 1.817063e+00 1.461061e+00 1.565444e+00 1.550616e+00 1.663324e+00 1.612200e+00 1.399640e+00 1.331078e+00 1.245739e+00 1.038290e-01 3.076182e-01 2.453263e-01 7.406996e-01 3.222110e-01 2.901603e-01 2.891122e-01 3.517143e-01 3.003777e-01 3.111862e-01 2.575146e-01 2.689032e-01 2.273988e-01
<GCONST> 1.009456e+02
<MIXTURE> 2 5.766903e-01
<MEAN> 39
 5.486206e+00 9.184146e+00 5.124699e+00 -1.131977e+01 -7.496614e+00 2.803814e+00 1.547854e+00 6.007444e+00 7.497065e+00 8.080667e+00 2.060635e+00 -4.805804e-01 8.001041e-01 6.092310e-02 8.148120e-01 -1.379278e+00 2.627288e+00 5.487620e-01 -2.323741e-01 -3.392684e-01 5.268975e-01 -1.283036e-01 1.324316e+00 1.088579e+00 5.303229e-01 -4.096685e-01 1.650856e-01 -5.699015e-03 -2.296780e-01 6.331812e-01 2.351972e-01 1.705568e-01 1.444491e-01 -1.012220e-01 -1.397274e-01 -2.977206e-01 -2.563656e-02 6.694879e-04 -2.043501e-01
<VARIANCE> 39
 1.545998e+01 2.527984e+01 4.130231e+01 8.843954e+01 6.270021e+01 6.683565e+01 7.138075e+01 5.437815e+01 4.649986e+01 5.599753e+01 6.185096e+01 4.043636e+01 3.114813e+01 9.604830e-01 2.292061e+00 2.383581e+00 7.707082e+00 3.072943e+00 3.989958e+00 3.150370e+00 3.682324e+00 2.976560e+00 3.417427e+00 2.817798e+00 2.878348e+00 2.493462e+00 1.546911e-01 4.163739e-01 4.728836e-01 1.131645e+00 5.448089e-01 6.845524e-01 5.861844e-01 6.309854e-01 5.674316e-01 5.783291e-01 5.252503e-01 5.212640e-01 4.316698e-01
<GCONST> 1.269668e+02
<STATE> 4
<NUMMIXES> 2
<MIXTURE> 1 3.591118e-01
<MEAN> 39
 5.455259e+00 1.359743e+01 -1.001276e-01 5.569211e+00 -2.270374e+00 4.682954e+00 6.011830e-01 6.293476e+00 5.737607e+00 1.027657e+01 5.718833e+00 2.887002e+00 -7.558581e-01 -8.493041e-01 -2.361817e+00 -2.159133e-01 -1.419591e+00 9.229112e-01 -3.100582e-01 6.820532e-01 -1.713655e+00 -4.515635e-01 -8.831898e-01 3.942560e-01 -6.092322e-01 -6.512446e-02 -9.256282e-02 -1.006706e+00 3.100483e-01 -1.243767e+00 -4.200699e-02 -2.771777e-01 3.878828e-01 -3.442749e-01 -6.752459e-02 -5.864716e-01 -2.710797e-01 -5.616746e-01 -2.055523e-01
<VARIANCE> 39
 2.243089e+01 2.050863e+01 2.211249e+01 3.308931e+01 3.778477e+01 4.166468e+01 4.700065e+01 3.475679e+01 2.664527e+01 3.787566e+01 4.123156e+01 2.854257e+01 2.211749e+01 1.666359e+00 6.314395e+00 3.281842e+00 9.242276e+00 3.875092e+00 3.835962e+00 5.092562e+00 4.341841e+00 3.395609e+00 3.621826e+00 2.785460e+00 3.404950e+00 2.283163e+00 3.081738e-01 5.490612e-01 4.676027e-01 7.799643e-01 5.745868e-01 5.824779e-01 7.187538e-01 6.472644e-01 5.467481e-01 6.137053e-01 5.318928e-01 4.792779e-01 4.067456e-01
<GCONST> 1.253898e+02
<MIXTURE> 2 6.408882e-01
<MEAN> 39
 3.957956e+00 6.217319e-01 2.051212e+00 -7.045645e+00 -5.825216e-02 1.680851e+00 4.561988e+00 -7.254820e-01 3.427674e+00 3.070206e+00 4.358187e+00 -2.624041e+00 -2.905390e+00 4.583168e-01 -1.480395e+00 7.278528e-01 -8.509759e-01 2.328182e-01 -4.374751e-01 -1.270520e-01 -3.301778e-01 -5.398594e-01 -1.718205e+00 -1.087568e+00 -7.478181e-01 -7.433936e-01 1.706317e-01 6.276906e-01 1.412493e-01 6.354138e-01 -1.097969e-01 4.028340e-02 -2.232346e-01 5.476233e-01 -2.478151e-03 3.002948e-02 -2.659780e-01 3.363249e-01 1.158101e-01
<VARIANCE> 39
 1.736640e+01 3.390911e+01 3.304315e+01 3.656542e+01 5.544236e+01 4.526295e+01 5.444074e+01 5.058219e+01 4.351313e+01 4.724807e+01 5.898638e+01 4.929076e+01 2.888269e+01 1.528627e+00 4.856071e+00 2.581398e+00 6.527166e+00 3.564435e+00 3.833255e+00 6.203822e+00 5.359972e+00 3.490972e+00 4.210120e+00 3.680176e+00 4.952705e+00 3.001802e+00 3.408886e-01 5.878758e-01 5.608813e-01 8.631733e-01 7.113945e-01 6.830674e-01 1.071976e+00 8.659716e-01 6.635585e-01 7.637603e-01 7.224512e-01 7.552965e-01 5.549371e-01
<GCONST> 1.325020e+02
<TRANSP> 5
 0.000000e+00 1.000000e+00 0.000000e+00 0.000000e+00 0.000000e+00
 0.000000e+00 8.622298e-01 1.377702e-01 0.000000e+00 0.000000e+00
 0.000000e+00 0.000000e+00 8.381410e-01 1.618591e-01 0.000000e+00
 0.000000e+00 0.000000e+00 0.000000e+00 8.378344e-01 1.621656e-01
 0.000000e+00 0.000000e+00 0.000000e+00 0.000000e+00 0.000000e+00
<ENDHMM>
~o
<STREAMINFO> 1 39
<VECSIZE> 39<NULLD><MFCC_D_A_Z><DIAGC>
~h "dxh"
<BEGINHMM>
<NUMSTATES> 5
<STATE> 2
<NUMMIXES> 2
<MIXTURE> 1 5.501528e-01
<MEAN> 39
 6.265107e-01 8.995381e+00 5.626698e-01 1.013841e+00 -1.039289e+00 5.592518e+00 5.734665e+00 9.952500e+00 6.444664e+00 4.560920e+00 1.284783e+00 2.307776e+00 -1.823993e+00 6.274324e-01 7.835395e-01 -2.449275e-01 8.365666e-01 1.178266e-01 4.692393e-01 1.784183e-01 5.045977e-01 2.135392e-01 3.018769e-01 -1.011699e-01 -2.998397e-01 -3.930918e-01 -1.064060e-02 -6.690164e-02 -7.548264e-02 5.105933e-03 -8.984248e-02 2.774700e-02 -9.704815e-02 -1.525473e-01 -1.444406e-01 -9.355777e-02 -4.557952e-02 -7.145905e-02 1.136264e-02
<VARIANCE> 39
 5.393300e+01 3.489482e+01 3.549050e+01 7.689536e+01 5.518967e+01 4.108653e+01 5.583904e+01 4.855005e+01 3.572779e+01 4.911400e+01 4.168771e+01 3.886833e+01 4.166834e+01 2.058115e+00 1.790740e+00 3.176256e+00 5.670300e+00 3.250681e+00 3.103003e+00 3.544919e+00 2.879655e+00 2.727449e+00 3.000230e+00 2.468276e+00 2.370167e+00 2.345057e+00 3.065994e-01 3.237112e-01 5.268362e-01 9.657946e-01 5.228071e-01 5.172235e-01 6.254323e-01 4.614470e-01 4.225957e-01 5.051543e-01 4.848611e-01 4.394529e-01 4.289621e-01
<GCONST> 1.254283e+02
<MIXTURE> 2 4.498471e-01
<MEAN> 39
 -1.216478e+01 9.120405e-01 -8.022371e+00 4.257107e+00 -6.175222e+00 2.507951e+00 -3.667411e+00 1.345038e+00 -1.368230e+00 2.806935e+00 5.145894e-01 1.806973e+00 1.446293e+00 7.545242e-02 1.111374e-01 2.808161e-01 6.313021e-02 2.691451e-01 2.819642e-02 2.727410e-01 2.602830e-01 2.260781e-01 -3.511062e-02 5.742104e-02 2.122914e-01 1.316104e-01 5.781972e-02 3.416693e-02 4.641213e-02 9.109036e-03 4.712890e-02 2.086909e-02 8.512449e-02 3.464436e-02 2.050533e-02 5.188710e-02 6.105329e-03 9.675527e-03 -2.042412e-02
<VARIANCE> 39
 2.661596e+01 1.016576e+01 1.987759e+01 1.876514e+01 1.847695e+01 3.068244e+01 2.681048e+01 3.648196e+01 2.239759e+01 2.222434e+01 1.351445e+01 2.105892e+01 1.506237e+01 2.517662e+00 9.467166e-01 1.610801e+00 1.294835e+00 1.706234e+00 1.898262e+00 2.081052e+00 2.304486e+00 1.983572e+00 1.776223e+00 1.239858e+00 1.453110e+00 1.211667e+00 5.427637e-01 1.853674e-01 2.797709e-01 2.536341e-01 3.215378e-01 4.060950e-01 4.034969e-01 4.470382e-01 3.641252e-01 3.593514e-01 2.404908e-01 2.834634e-01 2.543213e-01
<GCONST> 1.026060e+02
<STATE> 3
<NUMMIXES> 2
<MIXTURE> 1 6.146866e-01
<MEAN> 39
 3.817603e+00 1.403066e+01 -2.630544e+00 9.374387e+00 -8.688971e-01 1.050519e+01 6.573254e+00 1.158555e+01 5.064489e+00 6.595790e+00 3.481357e-01 -1.958055e+00 -3.767851e+00 -2.111216e-01 4.136663e-02 -3.625881e-03 3.284645e-01 1.627221e-01 3.739099e-02 -1.596070e-01 -2.133777e-01 -1.221756e-01 2.777602e-01 2.275430e-01 2.627663e-03 1.669633e-03 -6.198883e-02 -1.113962e-01 4.828553e-02 -8.447734e-02 8.997434e-02 -1.145222e-01 -3.457468e-02 -2.408233e-02 3.993116e-02 -1.110835e-02 3.202420e-02 5.338610e-02 1.552785e-02
<VARIANCE> 39
 1.107114e+01 1.055697e+01 1.026390e+01 1.851811e+01 1.529854e+01 1.771232e+01 1.680593e+01 1.833856e+01 2.044126e+01 2.584314e+01 1.974216e+01 1.899066e+01 1.584932e+01 3.313776e-01 4.613561e-01 6.118963e-01 8.347185e-01 1.023058e+00 1.073709e+00 1.056049e+00 1.028293e+00 1.069291e+00 1.224840e+00 1.027853e+00 1.127929e+00 9.777172e-01 6.161696e-02 1.245235e-01 1.109204e-01 1.719223e-01 1.921310e-01 2.104338e-01 1.706099e-01 2.128495e-01 1.876266e-01 1.816342e-01 1.506408e-01 1.672842e-01 1.698567e-01
<GCONST> 8.181322e+01
<MIXTURE> 2 3.853134e-01
<MEAN> 39
 6.943085e+00 6.924866e+00 7.952872e+00 -1.374437e+01 -9.924606e+00 -1.415354e+00 -7.528567e-01 1.868307e+00 6.068519e+00 8.338404e+00 5.839418e+00 9.974039e-02 -1.032426e+00 -6.865570e-02 6.977484e-02 -5.663111e-01 5.028994e-01 5.569137e-01 2.680255e-01 2.289651e-01 -1.291128e-01 -1.961917e-01 2.283003e-01 3.354761e-01 -1.504306e-02 -2.248648e-01 2.300333e-03 -9.748019e-02 -3.885974e-02 1.675218e-01 1.386961e-01 -1.148775e-02 5.708036e-02 -8.708348e-02 -1.806127e-01 -2.146900e-01 -3.205802e-03 6.521947e-02 -7.614915e-03
<VARIANCE> 39
 1.027586e+01 1.630155e+01 3.346981e+01 3.699185e+01 3.388518e+01 4.642540e+01 3.032025e+01 3.304065e+01 3.092552e+01 3.173913e+01 3.479770e+01 2.785867e+01 2.214505e+01 6.319696e-01 2.011834e+00 1.768584e+00 3.351368e+00 2.376850e+00 2.660921e+00 2.488957e+00 2.503091e+00 2.241583e+00 2.964726e+00 2.462674e+00 2.129127e+00 1.910651e+00 1.013352e-01 2.667798e-01 2.474692e-01 3.704248e-01 3.650212e-01 4.881903e-01 4.745705e-01 3.907258e-01 3.518499e-01 4.641503e-01 3.961096e-01 4.192602e-01 4.097936e-01
<GCONST> 1.110356e+02
<STATE> 4
<NUMMIXES> 2
<MIXTURE> 1 4.447301e-01
<MEAN> 39
 3.177321e+00 1.297555e+01 -1.744224e+00 9.366265e+00 6.628022e-01 7.017404e+00 2.595649e+00 7.785568e+00 4.599801e+00 9.279117e+00 4.009431e+00 1.094208e+00 -2.065552e+00 -7.497378e-01 -2.645711e+00 -2.769769e-01 -1.142836e+00 1.273040e+00 -1.439821e+00 -4.274361e-02 -1.411762e+00 -4.012207e-01 -8.744341e-01 2.083010e-01 -2.322786e-01 2.344282e-01 -1.291041e-01 -1.252080e+00 2.629260e-02 -1.175810e+00 1.953332e-01 -5.102904e-01 3.125997e-01 -3.615232e-01 8.992206e-02 -6.465492e-01 -2.585021e-01 -3.842469e-01 -8.458479e-02
<VARIANCE> 39
 3.181028e+01 2.016589e+01 1.598877e+01 3.265156e+01 2.899916e+01 2.444274e+01 2.719912e+01 2.322954e+01 1.650622e+01 2.190067e+01 2.025310e+01 1.842780e+01 1.859904e+01 1.638637e+00 9.668183e+00 2.565864e+00 8.315875e+00 3.400619e+00 5.048812e+00 3.404382e+00 3.041096e+00 2.265084e+00 3.387190e+00 2.083078e+00 3.043497e+00 2.071688e+00 3.287413e-01 5.587343e-01 4.419031e-01 5.469075e-01 5.255132e-01 6.022353e-01 6.326987e-01 4.960441e-01 2.830509e-01 4.663497e-01 4.868911e-01 5.090196e-01 3.702684e-01
<GCONST> 1.179254e+02
<MIXTURE> 2 5.552698e-01
<MEAN> 39
 1.578522e+00 -5.186632e+00 -1.713517e+00 -4.613148e+00 5.156908e+00 2.265223e-01 7.370469e+00 1.388331e+00 3.358186e+00 4.316049e-01 2.363395e+00 -2.946814e+00 -3.442868e+00 7.568355e-01 -1.631228e+00 6.896533e-01 -1.016932e+00 3.944099e-01 1.030262e-01 1.312354e+00 -9.451479e-02 -1.618617e-01 -1.957265e+00 -1.401014e+00 -6.781732e-01 -1.069542e+00 2.827919e-01 1.148391e+00 2.377869e-01 7.126909e-01 -3.172162e-01 4.709759e-01 -2.023625e-01 4.280053e-01 5.247705e-02 3.342543e-01 -9.018937e-02 2.435155e-01 -7.718936e-02
<VARIANCE> 39
 1.830374e+01 4.472583e+01 3.124606e+01 2.943991e+01 4.920761e+01 4.703363e+01 6.953248e+01 6.998161e+01 3.803622e+01 5.468654e+01 5.855379e+01 4.237933e+01 3.162421e+01 1.446933e+00 8.903500e+00 2.299162e+00 7.000518e+00 3.377065e+00 6.045861e+00 7.707959e+00 5.349478e+00 2.819334e+00 4.485570e+00 3.509805e+00 4.094337e+00 2.654208e+00 3.282395e-01 9.031723e-01 4.764488e-01 7.914607e-01 6.370012e-01 1.210222e+00 1.388195e+00 1.056228e+00 4.913339e-01 7.495503e-01 7.607267e-01 6.648861e-01 6.230543e-01
<GCONST> 1.343832e+02
<TRANSP> 5
 0.000000e+00 1.000000e+00 0.000000e+00 0.000000e+00 0.000000e+00
 0.000000e+00 9.128731e-01 8.712694e-02 0.000000e+00 0.000000e+00
 0.000000e+00 0.000000e+00 9.036857e-01 9.631428e-02 0.000000e+00
 0.000000e+00 0.000000e+00 0.000000e+00 8.544998e-01 1.455002e-01
 0.000000e+00 0.000000e+00 0.000000e+00 0.000000e+00 0.000000e+00
<ENDHMM>
~o
<STREAMINFO> 1 39
<VECSIZE> 39<NULLD><MFCC_D_A_Z><DIAGC>
~h "e"
<BEGINHMM>
<NUMSTATES> 5
<STATE> 2
<NUMMIXES> 2
<MIXTURE> 1 2.439941e-01
<MEAN> 39
 7.494374e+00 -2.573129e-01 2.851702e+00 -6.566854e+00 -1.305798e-01 3.077018e+00 3.814973e+00 2.068744e+00 6.745937e+00 7.732229e-01 -2.649344e+00 -5.722215e+00 -4.370957e+00 8.720064e-01 1.374407e-02 -1.053936e-02 -8.216303e-01 -2.267408e-01 8.446238e-01 4.400842e-01 5.062791e-01 3.894530e-01 -8.896872e-01 -1.370731e+00 -1.055245e+00 -1.008619e+00 -5.527802e-01 -3.617707e-01 -2.366838e-01 2.024797e-01 2.939455e-01 -3.113892e-01 -2.185540e-02 -5.151520e-02 -2.060137e-01 -4.246918e-02 1.929115e-01 1.667690e-01 2.004763e-01
<VARIANCE> 39
 7.128837e+00 2.290307e+01 1.655228e+01 3.302357e+01 2.354473e+01 3.365248e+01 5.148029e+01 4.313077e+01 3.005319e+01 3.625399e+01 3.205816e+01 2.966074e+01 2.757805e+01 1.208379e+00 1.652842e+00 1.353692e+00 1.935681e+00 1.817241e+00 2.479209e+00 2.521423e+00 2.411265e+00 2.409873e+00 2.342788e+00 2.318776e+00 2.250758e+00 1.908049e+00 1.823770e-01 3.692531e-01 3.213152e-01 3.676896e-01 3.199688e-01 4.548298e-01 5.474098e-01 5.392490e-01 4.113727e-01 5.018542e-01 4.249229e-01 3.756821e-01 3.131862e-01
<GCONST> 1.110645e+02
<MIXTURE> 2 7.560059e-01
<MEAN> 39
 -1.162841e+01 9.028195e-01 -9.762086e+00 4.983645e+00 -6.687908e+00 1.456214e+00 -5.013913e+00 5.311614e-01 -2.462087e+00 2.580644e+00 -9.028752e-02 4.466967e-01 -5.238546e-01 -8.977608e-02 -1.222397e-01 -1.019740e-02 -5.065282e-02 2.566276e-02 2.520585e-02 3.035955e-02 -1.651138e-02 1.529820e-02 2.650620e-02 5.167463e-03 1.006805e-02 -1.470680e-02 3.044730e-02 -8.370825e-03 3.979535e-02 -7.899644e-03 3.945788e-02 1.642077e-02 3.718396e-02 1.740562e-02 1.634556e-02 2.458030e-04 -5.479440e-03 -2.142641e-03 1.797133e-03
<VARIANCE> 39
 2.039699e+01 1.799220e+01 1.652243e+01 1.863255e+01 2.066799e+01 2.279124e+01 2.360111e+01 2.229655e+01 2.239086e+01 2.173549e+01 1.981948e+01 1.800117e+01 1.459118e+01 1.350259e+00 1.104093e+00 1.262840e+00 1.559085e+00 1.824397e+00 1.827359e+00 2.025338e+00 2.026840e+00 1.934888e+00 1.881744e+00 1.714039e+00 1.523807e+00 1.262465e+00 2.701241e-01 2.176734e-01 2.419884e-01 3.128276e-01 3.665885e-01 3.577831e-01 4.028081e-01 4.012425e-01 3.868159e-01 3.745888e-01 3.404770e-01 3.049598e-01 2.520569e-01
<GCONST> 1.018132e+02
<STATE> 3
<NUMMIXES> 2
<MIXTURE> 1 1.928498e-01
<MEAN> 39
 -4.560666e+00 -6.020714e+00 -8.110452e-01 2.089972e+00 6.059289e+00 8.024044e+00 5.496414e+00 3.251906e+00 3.136392e+00 3.398275e+00 -1.541061e+00 -1.710853e+00 -2.540182e+00 1.175546e+00 -1.446014e-01 3.708806e-01 -3.607042e-01 5.893692e-01 3.387059e-01 6.908927e-01 1.563905e-01 3.806166e-01 -3.468824e-01 -3.945727e-01 -6.549846e-01 -4.206004e-01 1.374544e-02 4.275122e-02 -8.341920e-02 -1.994918e-02 -1.446784e-01 -4.696427e-02 -6.958064e-02 -9.375836e-03 -2.407081e-02 -8.946189e-02 -5.123806e-02 -6.041835e-02 -3.193802e-02
<VARIANCE> 39
 7.197844e+01 6.092718e+01 4.022573e+01 5.637559e+01 7.490569e+01 6.752065e+01 6.316597e+01 5.162066e+01 3.907691e+01 4.876549e+01 4.857472e+01 5.002108e+01 3.181239e+01 3.869992e+00 3.322964e+00 3.176419e+00 2.923891e+00 3.584066e+00 3.508939e+00 3.744976e+00 3.597036e+00 2.693185e+00 2.872440e+00 3.111286e+00 3.349036e+00 2.280769e+00 6.318446e-01 5.531303e-01 5.369765e-01 5.187501e-01 5.686912e-01 6.485591e-01 6.349673e-01 6.597745e-01 4.963046e-01 5.124045e-01 5.631633e-01 5.904633e-01 4.171861e-01
<GCONST> 1.308040e+02
<MIXTURE> 2 8.071502e-01
<MEAN> 39
 6.565817e+00 -4.610885e+00 1.546548e+00 -4.877015e+00 3.699278e+00 4.790287e+00 8.763239e+00 4.484393e+00 5.427694e+00 -3.506991e+00 -6.217631e+00 -8.150157e+00 -6.653757e+00 -4.381600e-02 6.737180e-02 3.041280e-02 -1.831820e-01 6.093085e-02 -6.156988e-02 -3.732250e-02 5.170333e-02 7.628178e-02 -1.258277e-01 -1.186600e-01 -8.485192e-02 -2.387947e-02 -5.020137e-02 6.567981e-02 1.210875e-02 9.324024e-03 3.211130e-03 5.963656e-03 -7.802604e-02 -7.628547e-02 2.626728e-02 1.506362e-01 1.085938e-01 9.391520e-02 1.086737e-01
<VARIANCE> 39
 6.467035e+00 1.999690e+01 1.585600e+01 3.085646e+01 3.204330e+01 4.232499e+01 4.600778e+01 4.002580e+01 3.052183e+01 3.705770e+01 3.586794e+01 3.284506e+01 2.764659e+01 2.132152e-01 6.727190e-01 6.817123e-01 1.243687e+00 1.249120e+00 1.686854e+00 1.789631e+00 1.961483e+00 1.570050e+00 1.802685e+00 1.883515e+00 1.683868e+00 1.525845e+00 3.933363e-02 9.275787e-02 1.135910e-01 1.710536e-01 1.955020e-01 2.518564e-01 2.666903e-01 3.075952e-01 2.698243e-01 2.852351e-01 2.830925e-01 2.661706e-01 2.291560e-01
<GCONST> 9.570703e+01
<STATE> 4
<NUMMIXES> 2
<MIXTURE> 1 5.266562e-01
<MEAN> 39
 7.702622e+00 1.604247e+00 1.140138e+00 -1.497945e+01 2.085803e+00 8.968596e+00 4.112806e+00 1.188268e+00 8.858164e+00 -1.123793e+00 -7.414300e+00 -9.088002e+00 -4.938172e+00 -5.475780e-02 2.355361e-01 -7.656590e-02 -3.505747e-01 -1.558194e-01 3.125645e-01 3.277747e-01 5.733341e-02 -9.332797e-03 1.411478e-01 8.951525e-02 2.140523e-01 2.907844e-01 -3.438150e-02 -3.367034e-02 -2.874380e-02 3.116662e-01 -6.504407e-02 -2.501579e-01 6.513892e-02 1.584923e-01 -1.557794e-01 4.341167e-02 2.335537e-01 2.283328e-01 9.414466e-02
<VARIANCE> 39
 4.743114e+00 1.500916e+01 1.507372e+01 4.138106e+01 2.821478e+01 4.102606e+01 4.528284e+01 4.840186e+01 3.380197e+01 3.387955e+01 3.744666e+01 4.080109e+01 3.349956e+01 1.715938e-01 6.346535e-01 6.814160e-01 1.597849e+00 1.326992e+00 2.149640e+00 2.065422e+00 2.716429e+00 1.839058e+00 2.082081e+00 2.128509e+00 2.111986e+00 1.749656e+00 3.050322e-02 1.051753e-01 1.205996e-01 2.802553e-01 2.379279e-01 3.262103e-01 3.207187e-01 3.680723e-01 3.250505e-01 3.223516e-01 3.237704e-01 3.615037e-01 2.581990e-01
<GCONST> 9.947990e+01
<MIXTURE> 2 4.733437e-01
<MEAN> 39
 5.729842e+00 6.970737e-01 1.275216e+00 -6.867833e+00 1.299173e+00 3.900590e+00 6.663427e+00 5.361308e+00 6.519936e+00 -1.828254e-01 -3.262889e+00 -4.838978e+00 -2.947764e+00 -2.912914e-01 6.101350e-01 -1.111511e-01 1.883965e+00 -9.329230e-02 -3.341857e-01 -3.399899e-01 3.476406e-01 -5.108259e-01 8.989114e-01 1.088421e+00 1.394011e+00 8.655457e-01 1.537396e-02 1.121200e-01 -4.870705e-03 3.444845e-01 7.931479e-02 2.669018e-01 1.810660e-03 4.300288e-02 -6.928769e-02 -1.723080e-02 -4.356329e-02 6.725155e-02 -3.166330e-02
<VARIANCE> 39
 1.162778e+01 3.280423e+01 2.615328e+01 6.307209e+01 3.410366e+01 5.843449e+01 5.586069e+01 6.607150e+01 4.016750e+01 4.723986e+01 4.625884e+01 4.214289e+01 3.319296e+01 8.229337e-01 3.222416e+00 2.055358e+00 5.225897e+00 2.949919e+00 4.375744e+00 3.519528e+00 4.251128e+00 3.266985e+00 3.797817e+00 3.540227e+00 3.534436e+00 2.546313e+00 1.319611e-01 4.677743e-01 3.205592e-01 8.164743e-01 4.667404e-01 6.526184e-01 6.010935e-01 7.088360e-01 5.620941e-01 5.851318e-01 5.504568e-01 5.748111e-01 4.216181e-01
<GCONST> 1.247649e+02
<TRANSP> 5
 0.000000e+00 1.000000e+00 0.000000e+00 0.000000e+00 0.000000e+00
 0.000000e+00 8.783905e-01 1.216095e-01 0.000000e+00 0.000000e+00
 0.000000e+00 0.000000e+00 9.092867e-01 9.071329e-02 0.000000e+00
 0.000000e+00 0.000000e+00 0.000000e+00 8.530411e-01 1.469589e-01
 0.000000e+00 0.000000e+00 0.000000e+00 0.000000e+00 0.000000e+00
<ENDHMM>
~o
<STREAMINFO> 1 39
<VECSIZE> 39<NULLD><MFCC_D_A_Z><DIAGC>
~h "ee"
<BEGINHMM>
<NUMSTATES> 5
<STATE> 2
<NUMMIXES> 2
<MIXTURE> 1 7.550419e-01
<MEAN> 39
 6.867949e+00 -3.638134e+00 4.981779e-01 -4.982607e+00 2.361734e+00 6.667784e+00 1.098300e+01 4.573763e+00 7.369782e+00 -1.561138e+00 -6.833827e+00 -7.650673e+00 -6.241990e+00 3.892400e-01 -3.413963e-01 -1.311839e-01 -1.287012e-01 -1.011646e-01 5.226554e-01 7.667043e-01 3.082125e-01 -1.048155e-01 -1.000365e+00 -1.123502e+00 -6.262290e-01 -5.604231e-01 -3.555280e-01 -1.785758e-01 -2.843609e-02 2.286180e-01 2.585953e-01 -3.039130e-01 -2.548425e-01 -7.819822e-02 -1.961622e-01 1.485511e-01 4.221401e-01 2.774999e-01 2.806978e-01
<VARIANCE> 39
 6.696220e+00 1.950915e+01 1.724735e+01 4.045406e+01 2.801429e+01 4.384118e+01 4.489214e+01 4.566953e+01 3.193329e+01 3.788459e+01 3.480106e+01 3.342441e+01 2.559720e+01 5.207155e-01 9.039040e-01 1.036494e+00 1.565663e+00 1.753811e+00 2.004589e+00 2.148728e+00 2.293948e+00 2.058710e+00 2.173692e+00 2.440554e+00 2.083505e+00 1.662730e+00 1.343370e-01 2.709773e-01 2.402202e-01 3.168336e-01 2.986982e-01 4.076296e-01 4.519335e-01 4.669091e-01 3.811053e-01 4.301989e-01 4.149324e-01 4.148037e-01 2.721372e-01
<GCONST> 1.070328e+02
<MIXTURE> 2 2.449581e-01
<MEAN> 39
 3.422413e-01 -6.275866e+00 1.978742e+00 -9.434726e-01 5.216377e+00 2.471919e+00 1.010495e+01 5.777949e+00 5.943219e+00 1.030258e-01 -1.602806e+00 -3.991248e+00 -2.796398e+00 2.514067e+00 1.245110e+00 9.488284e-01 -6.203700e-02 -4.767749e-01 1.886848e+00 1.977107e+00 1.462156e+00 6.877462e-01 -8.189207e-01 -2.103871e+00 -1.247207e+00 -1.459295e+00 -1.964117e-01 -9.072651e-02 -4.450880e-01 -1.224781e-01 -2.600687e-01 5.473606e-02 -2.985281e-01 -3.287751e-01 -2.915529e-01 -1.924953e-01 -1.508371e-01 6.142719e-02 2.823160e-03
<VARIANCE> 39
 3.213544e+01 2.941132e+01 2.302148e+01 2.897220e+01 5.064061e+01 5.334177e+01 3.575669e+01 3.622012e+01 2.721453e+01 3.338665e+01 3.186568e+01 2.904369e+01 2.516741e+01 1.941674e+00 2.764516e+00 2.870248e+00 2.603714e+00 3.020858e+00 3.397222e+00 3.586462e+00 3.953459e+00 3.153890e+00 2.942047e+00 3.042737e+00 2.735515e+00 2.023375e+00 4.781071e-01 7.076914e-01 3.974623e-01 6.173826e-01 5.101585e-01 7.404386e-01 5.219507e-01 5.836229e-01 4.508469e-01 4.976408e-01 4.865669e-01 4.928665e-01 3.670588e-01
<GCONST> 1.221151e+02
<STATE> 3
<NUMMIXES> 2
<MIXTURE> 1 6.383990e-01
<MEAN> 39
 6.421327e+00 -6.513776e+00 4.897718e-01 -4.280381e+00 4.202380e+00 5.880716e+00 1.240169e+01 3.145843e+00 3.798229e+00 -4.696472e+00 -7.089275e+00 -6.845556e+00 -4.110119e+00 -4.173458e-02 8.857634e-02 8.609529e-02 1.297673e-01 -6.224600e-02 -5.018781e-02 -1.687707e-01 9.284519e-02 -9.469346e-02 2.671385e-02 -3.784176e-02 4.544555e-02 7.771164e-02 -1.637152e-02 5.519856e-02 1.316228e-02 3.487805e-02 -1.067764e-02 2.009449e-02 -1.949962e-02 1.134743e-01 7.288577e-02 8.702018e-03 -5.753155e-02 -3.006825e-02 -7.531837e-02
<VARIANCE> 39
 5.771948e+00 1.620219e+01 1.403790e+01 2.667251e+01 2.406354e+01 2.883837e+01 3.538513e+01 2.785423e+01 2.738011e+01 2.808535e+01 2.335779e+01 2.375986e+01 1.809909e+01 1.374121e-01 4.354900e-01 5.001433e-01 8.660661e-01 8.768318e-01 1.164428e+00 1.297186e+00 1.692091e+00 1.157029e+00 1.348345e+00 1.494552e+00 1.291573e+00 1.079383e+00 2.144222e-02 5.850271e-02 7.977238e-02 1.204578e-01 1.387299e-01 1.767441e-01 2.016396e-01 2.249523e-01 1.935641e-01 2.178269e-01 2.094388e-01 1.976418e-01 1.497735e-01
<GCONST> 8.339236e+01
<MIXTURE> 2 3.616010e-01
<MEAN> 39
 6.161549e+00 -5.989649e+00 8.454447e-01 -1.358966e+00 4.828712e+00 8.776403e+00 1.451881e+01 1.106335e+01 6.923694e+00 -7.357628e+00 -1.344537e+01 -1.115290e+01 -9.465387e+00 2.684320e-02 -6.062284e-02 -5.423319e-03 -2.055913e-01 3.611689e-02 3.495361e-02 1.573237e-01 2.875781e-02 2.052921e-01 -1.211665e-01 -7.859334e-02 -2.139898e-01 -8.963437e-02 -8.256794e-03 2.569596e-02 1.897229e-02 -1.002235e-01 -4.614222e-02 -8.887827e-02 -9.128287e-02 -2.434808e-01 -4.791985e-02 1.704673e-01 2.502602e-01 1.342824e-01 2.031566e-01
<VARIANCE> 39
 5.608386e+00 1.446475e+01 1.521838e+01 2.896207e+01 2.724631e+01 3.444209e+01 3.876354e+01 3.391152e+01 3.527497e+01 3.720392e+01 2.391855e+01 3.110078e+01 2.203848e+01 1.530656e-01 5.416343e-01 6.012698e-01 1.089681e+00 1.011996e+00 1.357301e+00 1.520645e+00 2.069817e+00 1.352513e+00 1.530278e+00 1.785753e+00 1.506829e+00 1.280940e+00 2.754085e-02 7.711210e-02 1.052745e-01 1.543282e-01 1.811351e-01 2.201215e-01 2.557114e-01 2.636028e-01 2.274388e-01 2.457793e-01 2.287423e-01 2.315815e-01 1.661589e-01
<GCONST> 8.977683e+01
<STATE> 4
<NUMMIXES> 2
<MIXTURE> 1 5.711229e-01
<MEAN> 39
 5.991349e+00 -2.325473e+00 2.831913e+00 -4.949583e+00 1.371116e+00 5.245302e+00 8.487949e+00 6.080775e+00 7.379985e+00 -1.965492e+00 -7.006867e+00 -8.222373e+00 -5.164345e+00 -2.639956e-01 5.310169e-01 3.195611e-01 1.617490e-01 -2.595953e-01 -4.549988e-01 -6.825415e-01 -2.091370e-01 -1.220333e-01 5.973465e-01 7.521037e-01 7.025325e-01 5.328463e-01 -9.606298e-02 4.146915e-04 -1.565854e-02 2.402301e-01 5.504888e-02 -4.913446e-02 -3.847984e-02 -4.055148e-03 -1.635240e-01 3.267372e-03 1.044692e-01 1.794826e-01 1.191587e-01
<VARIANCE> 39
 8.316308e+00 1.893991e+01 2.040551e+01 4.386172e+01 2.893583e+01 5.454105e+01 5.499581e+01 5.451054e+01 3.912910e+01 3.725764e+01 4.236440e+01 3.812096e+01 2.864009e+01 4.124016e-01 9.811758e-01 1.009467e+00 1.759067e+00 1.509567e+00 2.232064e+00 2.386815e+00 2.608743e+00 2.102340e+00 2.217191e+00 2.336248e+00 2.302420e+00 1.783752e+00 6.920913e-02 1.838340e-01 1.690966e-01 3.057148e-01 2.736714e-01 3.984776e-01 4.005291e-01 4.415418e-01 3.571492e-01 3.940359e-01 3.663000e-01 3.643094e-01 2.761770e-01
<GCONST> 1.069066e+02
<MIXTURE> 2 4.288771e-01
<MEAN> 39
 -2.220699e+00 -1.241584e-01 -9.302443e-01 2.907796e+00 -1.398318e+00 6.550237e+00 6.171934e+00 7.945204e+00 2.491459e+00 -3.914703e-01 -5.879366e+00 -4.292090e+00 -1.818687e+00 -6.035835e-01 2.543888e-01 -2.606123e-01 5.264698e-01 -1.597164e-01 -2.865812e-01 -5.660046e-01 -1.119902e-01 -1.720959e-01 3.990754e-01 5.794167e-01 5.362848e-01 3.265705e-01 1.376147e-03 -4.538135e-02 -5.755051e-02 2.110236e-02 4.031402e-02 3.925906e-02 1.655253e-02 -1.713466e-02 3.039921e-02 -9.749085e-04 -1.491844e-02 -2.704566e-02 -4.556779e-02
<VARIANCE> 39
 4.918237e+01 3.812121e+01 5.878757e+01 4.411744e+01 4.216256e+01 5.117225e+01 6.868319e+01 5.158030e+01 3.971278e+01 3.985938e+01 5.438296e+01 4.121083e+01 3.018327e+01 1.970633e+00 3.357894e+00 2.762337e+00 3.733443e+00 2.569411e+00 2.718090e+00 3.076955e+00 3.628422e+00 2.580297e+00 2.855413e+00 3.223511e+00 2.885459e+00 2.295314e+00 3.559094e-01 5.921914e-01 4.914785e-01 6.738187e-01 4.686865e-01 5.316231e-01 5.625396e-01 6.755858e-01 4.990047e-01 5.256938e-01 5.975527e-01 5.266595e-01 4.330955e-01
<GCONST> 1.267000e+02
<TRANSP> 5
 0.000000e+00 1.000000e+00 0.000000e+00 0.000000e+00 0.000000e+00
 0.000000e+00 7.469257e-01 2.530743e-01 0.000000e+00 0.000000e+00
 0.000000e+00 0.000000e+00 9.479061e-01 5.209390e-02 0.000000e+00
 0.000000e+00 0.000000e+00 0.000000e+00 8.818173e-01 1.181827e-01
 0.000000e+00 0.000000e+00 0.000000e+00 0.000000e+00 0.000000e+00
<ENDHMM>
~o
<STREAMINFO> 1 39
<VECSIZE> 39<NULLD><MFCC_D_A_Z><DIAGC>
~h "g"
<BEGINHMM>
<NUMSTATES> 5
<STATE> 2
<NUMMIXES> 2
<MIXTURE> 1 3.627265e-01
<MEAN> 39
 2.750046e+00 4.939079e+00 1.384180e+00 -1.740169e+00 2.491124e+00 4.352733e+00 4.664756e+00 6.995381e+00 8.621398e+00 3.664318e+00 -4.604724e+00 -4.870656e+00 -3.449478e-01 3.942007e-01 1.164635e+00 -2.388515e-01 1.397098e+00 -2.355427e-01 9.718760e-01 2.667099e-01 6.160094e-01 -4.886852e-01 7.061029e-02 -1.720044e-01 -1.151809e-01 -3.767306e-01 7.171468e-02 -2.606405e-02 -1.010308e-02 1.491996e-01 7.323144e-02 9.421327e-02 1.284502e-01 3.721717e-02 -2.642352e-01 -3.439725e-01 -4.717798e-02 2.150739e-02 -1.424212e-01
<VARIANCE> 39
 2.290736e+01 5.078320e+01 2.648273e+01 7.151661e+01 3.631781e+01 6.394100e+01 6.816430e+01 5.312030e+01 4.208634e+01 4.866603e+01 5.297985e+01 4.541945e+01 2.862875e+01 1.553658e+00 3.554157e+00 2.390763e+00 5.413278e+00 3.240954e+00 4.238197e+00 3.577484e+00 3.495374e+00 2.965790e+00 4.185246e+00 3.404761e+00 2.676506e+00 2.340094e+00 2.442757e-01 5.159615e-01 4.020014e-01 7.961510e-01 6.000708e-01 7.635328e-01 6.413934e-01 6.332217e-01 5.776060e-01 6.616678e-01 5.631489e-01 5.082377e-01 3.808575e-01
<GCONST> 1.279160e+02
<MIXTURE> 2 6.372736e-01
<MEAN> 39
 6.261906e+00 -1.293289e+00 1.766188e+00 -8.497010e+00 3.600961e+00 3.672616e-02 4.970105e+00 5.754164e+00 6.871915e+00 -3.936844e+00 -7.485731e+00 -7.416427e+00 -4.974151e+00 5.029133e-02 1.111335e-01 -3.115521e-02 -3.792163e-02 3.959843e-04 -8.224973e-02 -1.247244e-01 -1.118051e-01 -1.214501e-01 -5.909199e-02 4.331595e-03 1.226926e-01 6.451239e-02 -5.136146e-02 6.231396e-02 -2.311290e-02 4.476982e-02 -5.248817e-02 -4.809533e-02 -6.211971e-02 -9.524807e-02 -1.109174e-02 1.389668e-01 1.121157e-01 5.896574e-02 1.166564e-01
<VARIANCE> 39
 5.924110e+00 1.608269e+01 1.353582e+01 2.518128e+01 2.125091e+01 4.337488e+01 4.135401e+01 3.866245e+01 4.110283e+01 3.825867e+01 3.513522e+01 3.263316e+01 2.906591e+01 3.135997e-01 5.751135e-01 6.040522e-01 1.036354e+00 1.151496e+00 1.884525e+00 1.827939e+00 2.100509e+00 2.191243e+00 2.121756e+00 1.807909e+00 1.725814e+00 1.696160e+00 3.901615e-02 9.758444e-02 1.042990e-01 1.669129e-01 1.990995e-01 2.760976e-01 2.627146e-01 2.963831e-01 2.925500e-01 2.905812e-01 2.758839e-01 2.665603e-01 2.315261e-01
<GCONST> 9.557180e+01
<STATE> 3
<NUMMIXES> 2
<MIXTURE> 1 6.503712e-01
<MEAN> 39
 4.178707e+00 1.425223e+01 -1.075385e+00 1.196468e+01 2.544794e+00 1.246656e+01 5.356142e+00 8.933168e+00 2.835826e+00 2.927377e+00 -3.316746e+00 -3.413567e+00 -2.068488e+00 -3.112222e-01 1.175308e-01 2.078957e-02 4.213302e-01 1.858255e-01 2.303707e-01 1.785737e-01 3.287775e-02 -7.839523e-02 4.582022e-02 1.179879e-01 -2.538694e-02 -9.139495e-02 -1.478893e-01 -3.251055e-01 1.282365e-01 -3.504961e-01 4.057972e-02 -2.715488e-01 -1.033764e-01 -1.515390e-01 1.093360e-01 6.345886e-02 4.780168e-02 6.043933e-02 1.279991e-01
<VARIANCE> 39
 1.485577e+01 1.125082e+01 1.708722e+01 2.164003e+01 1.526287e+01 1.988387e+01 3.554279e+01 3.127098e+01 1.945279e+01 2.415442e+01 3.227710e+01 2.532300e+01 1.711250e+01 6.293286e-01 7.659450e-01 1.114287e+00 1.491197e+00 1.204340e+00 1.288001e+00 1.464008e+00 1.326782e+00 1.153801e+00 1.315510e+00 1.340431e+00 1.193083e+00 1.001379e+00 1.127051e-01 2.653666e-01 2.326285e-01 3.826640e-01 2.337630e-01 3.388557e-01 2.814828e-01 2.913436e-01 2.272190e-01 2.472138e-01 2.404328e-01 2.108225e-01 1.856446e-01
<GCONST> 9.439478e+01
<MIXTURE> 2 3.496288e-01
<MEAN> 39
 4.724924e+00 3.939385e+00 5.246986e+00 -3.396295e+00 3.672402e+00 -1.608534e+00 -1.635663e+00 -3.404999e+00 4.455682e-01 2.036058e-01 -2.290004e+00 -2.863571e+00 1.307383e+00 -5.954747e-02 1.004413e-01 2.010306e-02 2.453765e-01 -1.145609e-01 -9.712037e-02 -2.038090e-01 -3.884200e-01 -3.257801e-01 1.025293e-01 2.229488e-01 1.789922e-01 1.782240e-01 2.738668e-02 -4.635406e-02 -2.464414e-02 1.750102e-02 -4.251606e-02 5.672430e-02 2.706479e-02 7.986005e-02 3.622298e-02 -6.219493e-02 -7.557956e-03 1.817403e-02 -6.717294e-02
<VARIANCE> 39
 1.531827e+01 2.755561e+01 3.135004e+01 4.716929e+01 3.671017e+01 5.877576e+01 6.518446e+01 7.506316e+01 6.737247e+01 4.932462e+01 3.706270e+01 3.382357e+01 3.335199e+01 3.584454e-01 8.725876e-01 8.532355e-01 1.374758e+00 1.443163e+00 1.867166e+00 2.251420e+00 2.441036e+00 2.204460e+00 2.054361e+00 1.855247e+00 1.717841e+00 1.562736e+00 5.658968e-02 1.268759e-01 1.558625e-01 2.224762e-01 2.624996e-01 3.321058e-01 3.663757e-01 3.613659e-01 3.515613e-01 3.513550e-01 3.207262e-01 2.967334e-01 2.523755e-01
<GCONST> 1.061716e+02
<STATE> 4
<NUMMIXES> 2
<MIXTURE> 1 3.600666e-01
<MEAN> 39
 4.086931e-01 1.108638e+01 1.234891e+00 1.022821e+01 3.705308e+00 1.124276e+01 6.204538e+00 8.839380e+00 3.954888e+00 4.112067e+00 -2.554726e+00 -2.545204e+00 -1.159677e+00 -7.215774e-01 -2.758327e+00 -3.921971e-01 -2.286813e+00 -1.034271e-01 -2.559970e+00 -1.270373e+00 -1.749587e+00 5.789112e-01 4.216130e-01 7.597331e-01 2.183036e-01 9.095844e-01 4.562113e-02 -8.887082e-01 -1.957150e-01 -1.077770e+00 -1.278952e-01 -1.096161e+00 -5.948817e-01 -7.483091e-01 2.461413e-01 -4.874195e-02 6.119879e-02 -1.401866e-01 2.732904e-01
<VARIANCE> 39
 2.433290e+01 2.995176e+01 2.856832e+01 3.955191e+01 2.574375e+01 3.173187e+01 4.176266e+01 3.620481e+01 2.594161e+01 3.035513e+01 3.590083e+01 3.031059e+01 1.972353e+01 1.766803e+00 7.092886e+00 4.218175e+00 8.568623e+00 3.690435e+00 8.511740e+00 4.740880e+00 5.493211e+00 2.911134e+00 2.763124e+00 2.902163e+00 2.604791e+00 2.161408e+00 3.046429e-01 7.614214e-01 5.871871e-01 8.832166e-01 5.616772e-01 8.905792e-01 7.009833e-01 6.700162e-01 4.618214e-01 4.818780e-01 4.921987e-01 4.487974e-01 3.296488e-01
<GCONST> 1.259807e+02
<MIXTURE> 2 6.399334e-01
<MEAN> 39
 7.225344e-01 -3.239323e+00 -5.762054e-01 -5.701941e+00 3.252224e+00 -3.448381e+00 7.867702e-01 3.482046e-01 7.485174e+00 2.576615e+00 -1.338994e+00 -4.387021e+00 1.107357e+00 4.446179e-01 -8.291640e-01 5.163074e-01 -9.533718e-01 3.847747e-01 -3.134792e-01 -3.090218e-02 -3.842149e-01 4.503782e-02 -6.758370e-01 -4.500384e-01 -5.550174e-01 -4.285938e-01 2.580713e-01 7.148058e-01 2.271040e-01 6.549612e-01 5.128539e-02 8.520827e-01 4.184037e-01 5.139585e-01 -3.028485e-01 -2.052499e-01 -2.367545e-01 1.525815e-02 -3.251509e-01
<VARIANCE> 39
 2.422359e+01 3.595419e+01 4.224193e+01 4.624687e+01 4.646917e+01 7.569640e+01 7.549200e+01 6.323909e+01 5.367170e+01 5.046013e+01 4.273480e+01 3.812967e+01 3.297810e+01 1.849743e+00 5.920167e+00 3.203544e+00 8.153949e+00 3.447903e+00 1.213598e+01 6.599486e+00 7.020547e+00 3.766655e+00 3.546083e+00 3.423918e+00 2.977230e+00 3.156803e+00 2.847252e-01 8.027955e-01 7.181619e-01 1.261886e+00 7.742157e-01 1.861637e+00 1.023253e+00 1.122204e+00 6.549986e-01 6.451393e-01 6.557056e-01 5.934724e-01 5.317628e-01
<GCONST> 1.372386e+02
<TRANSP> 5
 0.000000e+00 1.000000e+00 0.000000e+00 0.000000e+00 0.000000e+00
 0.000000e+00 8.839607e-01 1.160393e-01 0.000000e+00 0.000000e+00
 0.000000e+00 0.000000e+00 8.171169e-01 1.828831e-01 0.000000e+00
 0.000000e+00 0.000000e+00 0.000000e+00 7.915416e-01 2.084583e-01
 0.000000e+00 0.000000e+00 0.000000e+00 0.000000e+00 0.000000e+00
<ENDHMM>
~o
