~o
<STREAMINFO> 1 39
<VECSIZE> 39<NULLD><MFCC_D_A_Z><DIAGC>
~h "a"
<BEGINHMM>
<NUMSTATES> 5
<STATE> 2
<NUMMIXES> 2
<MIXTURE> 1 3.054676e-01
<MEAN> 39
 2.426090e+00 -5.848262e-01 -6.653135e+00 -5.252761e+00 3.088213e+00 5.040948e+00 1.657622e+00 -1.074805e+00 1.734967e+00 2.730690e+00 -3.737868e-01 -2.157415e-01 -2.055354e+00 7.907752e-01 -1.365581e+00 -8.180144e-01 -9.759154e-01 -6.195821e-02 8.572636e-01 6.796705e-02 -1.186376e+00 8.948948e-01 -3.641336e-01 -1.429821e-01 -8.615592e-01 -1.125035e+00 -2.227762e-01 -6.283960e-02 2.650879e-01 1.941428e-01 -1.730753e-02 -2.043537e-01 -4.413217e-02 1.731735e-01 2.072122e-02 -2.063823e-01 -8.530535e-03 -1.338489e-01 -1.487146e-02
<VARIANCE> 39
 3.772340e+01 3.919578e+01 5.639490e+01 7.225877e+01 6.405423e+01 8.374936e+01 9.637820e+01 8.306670e+01 5.457946e+01 4.095531e+01 4.429784e+01 3.834069e+01 4.045172e+01 4.782196e+00 5.049485e+00 4.482248e+00 5.222452e+00 5.696897e+00 5.888669e+00 6.662284e+00 7.793459e+00 6.884919e+00 4.307805e+00 4.315323e+00 4.541827e+00 3.540086e+00 9.458830e-01 6.589634e-01 8.776765e-01 1.052983e+00 8.977186e-01 1.060452e+00 1.225474e+00 1.524178e+00 1.132499e+00 6.719041e-01 9.544829e-01 7.440555e-01 7.554424e-01
<GCONST> 1.442714e+02
<MIXTURE> 2 6.945325e-01
<MEAN> 39
 4.156188e+00 -8.291427e+00 -7.729087e+00 -1.036872e+01 1.238366e+00 6.319047e+00 -1.094342e+00 -3.613234e+00 9.155064e+00 -4.123468e-01 1.607164e+00 -8.288356e+00 -7.039595e+00 -1.253415e-01 -4.934953e-01 2.397024e-01 7.372379e-01 2.866700e-02 -7.788756e-01 -6.731714e-01 7.804425e-01 6.752218e-01 -4.549137e-01 -1.351797e-01 -6.250545e-01 3.028727e-01 2.290424e-02 7.152025e-01 4.440170e-01 6.307930e-01 -5.205276e-02 -3.034107e-01 -4.038549e-01 1.619124e-01 -5.008550e-01 1.338797e-01 5.702389e-02 6.426042e-01 6.046242e-01
<VARIANCE> 39
 7.565940e+00 1.193900e+01 1.461825e+01 2.783295e+01 2.470105e+01 4.548948e+01 5.052776e+01 3.374473e+01 4.135919e+01 2.664102e+01 3.757253e+01 2.748392e+01 2.623601e+01 6.658531e-01 2.016574e+00 1.416745e+00 2.902334e+00 2.182537e+00 3.422119e+00 5.385842e+00 3.654491e+00 3.857798e+00 3.056708e+00 3.639133e+00 3.078947e+00 3.286574e+00 2.416133e-01 2.501540e-01 2.592152e-01 3.415516e-01 4.534062e-01 5.052513e-01 7.748626e-01 7.863489e-01 7.682324e-01 5.641938e-01 5.692768e-01 5.436339e-01 4.696093e-01
<GCONST> 1.166750e+02
<STATE> 3
<NUMMIXES> 2
<MIXTURE> 1 6.932162e-01
<MEAN> 39
 3.513088e+00 -7.016710e+00 -4.423376e+00 -2.150001e+00 -1.259627e+00 -1.759120e-01 -7.199468e+00 3.834467e+00 1.120878e+01 -1.472125e+00 -5.530153e-01 -6.962646e+00 -1.361359e+00 1.492191e-01 1.273862e+00 1.731706e+00 2.250278e+00 -9.547049e-02 -1.369378e+00 -8.209633e-01 2.500983e-01 -8.287331e-01 3.307794e-03 -3.063431e-01 1.343069e+00 1.085054e+00 -1.793429e-02 4.496728e-01 3.485204e-01 1.932144e-02 8.625467e-02 1.490761e-01 5.621936e-01 -8.015441e-01 -7.378242e-01 2.279148e-01 1.538159e-01 4.012826e-01 -1.721748e-01
<VARIANCE> 39
 1.566788e+01 3.078248e+01 2.960170e+01 2.763305e+01 3.887547e+01 3.664043e+01 5.942778e+01 4.446732e+01 4.933594e+01 3.636574e+01 3.750550e+01 3.433732e+01 2.457218e+01 1.953535e+00 2.257325e+00 2.844676e+00 2.917099e+00 4.068740e+00 3.183873e+00 5.957160e+00 8.586003e+00 3.929671e+00 3.703559e+00 3.551530e+00 3.052206e+00 3.393984e+00 2.732994e-01 3.585985e-01 3.788638e-01 3.965466e-01 5.467958e-01 4.754556e-01 9.475582e-01 1.150514e+00 7.024265e-01 6.154521e-01 6.844421e-01 6.162544e-01 4.226483e-01
<GCONST> 1.258952e+02
<MIXTURE> 2 3.067839e-01
<MEAN> 39
 6.222090e+00 -5.096954e+00 -4.035471e+00 -1.195341e+01 -5.275092e-01 7.629482e+00 -3.412888e+00 -6.262856e+00 4.628958e+00 1.053780e-01 8.755306e+00 -4.398050e+00 -6.828500e+00 6.544878e-01 1.893382e+00 1.831812e+00 1.820760e+00 3.601054e-01 -4.009763e-02 -1.563978e-01 -1.075193e+00 -2.171358e+00 -1.164390e-01 5.949296e-01 1.107211e+00 1.316340e+00 -3.528574e-02 3.580846e-01 2.377838e-01 7.563353e-01 3.362716e-01 -1.461188e-01 3.049188e-01 5.462001e-02 -2.423757e-01 -1.662516e-01 -8.037991e-01 2.706665e-02 4.103477e-01
<VARIANCE> 39
 8.683259e+00 1.343745e+01 2.069855e+01 3.252942e+01 2.768392e+01 4.372136e+01 6.309190e+01 3.940805e+01 4.676198e+01 3.943452e+01 3.927415e+01 4.799505e+01 3.055746e+01 8.875399e-01 1.574798e+00 2.272659e+00 3.535222e+00 3.234381e+00 3.047272e+00 5.928148e+00 5.610446e+00 4.161607e+00 4.241521e+00 4.134653e+00 3.179488e+00 3.120171e+00 2.086709e-01 2.866852e-01 3.110248e-01 4.225529e-01 4.986342e-01 4.836873e-01 6.418310e-01 8.134360e-01 6.842955e-01 5.074460e-01 5.632194e-01 7.374985e-01 7.467132e-01
<GCONST> 1.219967e+02
<STATE> 4
<NUMMIXES> 2
<MIXTURE> 1 2.421995e-01
<MEAN> 39
 -6.398563e+00 2.256171e+00 -3.778011e+00 1.060548e+00 7.727804e+00 -2.131433e+00 2.221292e+00 8.565969e+00 -1.414359e+00 4.407497e+00 -2.182682e+00 1.428574e+00 1.130714e+00 -1.673360e+00 -8.150668e-02 -2.499866e-01 -1.022844e-02 -8.227079e-03 -2.507297e-01 5.739884e-01 1.495446e-01 -5.368551e-01 9.583783e-02 3.056079e-01 5.812091e-01 -9.891422e-02 2.682457e-01 -3.160797e-01 -5.323382e-02 -1.180290e-01 -3.223827e-01 1.022282e-01 -2.241284e-01 -3.179453e-01 2.454097e-01 -1.498281e-01 1.635817e-01 -1.579955e-01 1.425124e-02
<VARIANCE> 39
 6.765157e+01 3.902952e+01 2.176601e+01 2.265320e+01 3.013587e+01 3.970635e+01 3.775396e+01 3.733929e+01 3.290008e+01 3.362581e+01 2.450467e+01 2.706632e+01 1.924855e+01 5.135406e+00 2.431401e+00 1.999147e+00 1.699059e+00 2.282016e+00 2.412236e+00 3.395443e+00 3.401482e+00 3.105780e+00 2.600862e+00 2.366490e+00 2.455384e+00 2.151126e+00 5.731757e-01 5.470932e-01 3.505682e-01 3.226427e-01 6.124339e-01 4.257686e-01 6.144469e-01 6.002758e-01 5.747391e-01 5.072410e-01 5.037489e-01 4.278849e-01 4.385836e-01
<GCONST> 1.198007e+02
<MIXTURE> 2 7.578005e-01
<MEAN> 39
 6.052982e+00 -9.185250e-01 1.334113e+00 5.400624e-01 1.346464e+00 1.154340e+00 -4.944582e+00 -4.923195e+00 3.907198e+00 -8.844643e-02 1.105887e+00 -3.496626e+00 -1.210749e+00 -5.130908e-04 1.496737e+00 1.336446e+00 1.546352e+00 3.468799e-01 -4.510104e-01 6.963586e-01 -6.712647e-01 -1.337561e+00 1.731943e-01 -7.281542e-01 9.161545e-01 5.746793e-01 -3.104540e-01 -3.281812e-01 -4.960532e-01 -5.438234e-01 -1.377898e-01 1.130971e-01 2.693575e-01 3.281908e-01 1.907709e-01 8.196123e-03 5.838758e-02 -1.854949e-01 -2.410499e-01
<VARIANCE> 39
 1.342928e+01 2.615380e+01 4.740034e+01 5.234860e+01 4.484366e+01 5.281074e+01 8.428229e+01 9.796702e+01 6.549972e+01 4.845573e+01 5.658668e+01 3.846177e+01 3.120872e+01 1.440578e+00 2.217223e+00 3.249572e+00 3.179684e+00 3.509174e+00 2.797686e+00 4.485386e+00 8.419700e+00 4.491027e+00 3.526444e+00 3.977004e+00 3.189643e+00 3.066204e+00 2.797751e-01 3.087820e-01 4.448272e-01 4.567993e-01 5.362805e-01 5.655025e-01 9.131922e-01 1.089316e+00 8.202932e-01 6.114556e-01 7.450351e-01 6.586559e-01 5.618207e-01
<GCONST> 1.299488e+02
<TRANSP> 5
 0.000000e+00 1.000000e+00 0.000000e+00 0.000000e+00 0.000000e+00
 0.000000e+00 6.918135e-01 3.081866e-01 0.000000e+00 0.000000e+00
 0.000000e+00 0.000000e+00 4.957861e-01 5.042139e-01 0.000000e+00
 0.000000e+00 0.000000e+00 0.000000e+00 5.758815e-01 4.241185e-01
 0.000000e+00 0.000000e+00 0.000000e+00 0.000000e+00 0.000000e+00
<ENDHMM>
~o
<STREAMINFO> 1 39
<VECSIZE> 39<NULLD><MFCC_D_A_Z><DIAGC>
~h "aa"
<BEGINHMM>
<NUMSTATES> 5
<STATE> 2
<NUMMIXES> 2
<MIXTURE> 1 7.369303e-01
<MEAN> 39
 4.142432e+00 -1.483302e+01 -1.012742e+01 -2.815028e-01 7.110779e+00 -4.241994e+00 1.073692e+01 -3.067584e+00 2.554017e+00 -5.101288e+00 -9.020652e+00 -1.032465e+00 5.419941e-02 -9.646603e-02 -1.382350e-01 -2.326381e-02 1.957439e-01 -2.109358e-01 -3.248656e-02 2.862161e-01 -1.341554e-01 9.114028e-02 -2.985205e-01 -2.160269e-01 2.100389e-01 -5.826179e-02 -1.421739e-02 4.203936e-01 2.627540e-01 -6.623091e-02 -5.228487e-01 8.072247e-02 -5.859527e-01 4.114557e-01 2.727543e-01 2.261948e-01 4.199549e-01 -2.557706e-01 -1.269714e-01
<VARIANCE> 39
 5.985996e+00 1.128796e+01 1.516207e+01 1.811548e+01 3.527272e+01 3.059624e+01 3.251562e+01 4.535573e+01 3.751971e+01 3.890293e+01 3.407972e+01 3.264870e+01 2.509036e+01 2.809594e-01 7.980251e-01 9.065641e-01 9.373267e-01 2.511007e+00 1.689599e+00 2.069161e+00 3.088500e+00 2.331748e+00 2.037794e+00 1.828497e+00 1.980073e+00 1.798882e+00 6.494215e-02 1.246179e-01 1.497559e-01 1.444941e-01 2.595094e-01 2.728955e-01 3.993389e-01 3.870680e-01 3.543942e-01 4.545844e-01 3.859615e-01 3.409362e-01 2.933381e-01
<GCONST> 1.001384e+02
<MIXTURE> 2 2.630697e-01
<MEAN> 39
 2.849190e+00 -9.932417e+00 -8.686681e+00 -5.341607e-01 4.365804e+00 -3.558293e+00 6.984761e+00 1.831269e+00 3.503052e+00 -2.704299e+00 -5.050742e+00 -3.194876e+00 6.095661e-01 4.221975e-01 -1.527766e+00 -9.617048e-01 2.013945e-01 1.247355e+00 -5.135260e-02 1.688084e+00 -1.208448e+00 -5.119597e-01 -9.510297e-01 -1.192717e+00 2.355478e-01 2.337014e-01 -1.078392e-01 4.931979e-01 4.315549e-01 1.543033e-01 1.084300e-03 6.394117e-02 -2.560022e-01 -1.782864e-01 -3.934248e-01 2.225511e-01 2.205438e-01 4.285454e-01 -9.002355e-03
<VARIANCE> 39
 2.026860e+01 3.910107e+01 4.355548e+01 3.750740e+01 7.972459e+01 5.230260e+01 6.346869e+01 7.136484e+01 5.686171e+01 5.644431e+01 5.058845e+01 4.167010e+01 3.741515e+01 2.015137e+00 4.286648e+00 3.174191e+00 2.742758e+00 4.659645e+00 3.602728e+00 5.151307e+00 5.987570e+00 4.436602e+00 5.050074e+00 4.403336e+00 3.673915e+00 3.419756e+00 4.623147e-01 6.019859e-01 4.719567e-01 5.415761e-01 8.333896e-01 5.770347e-01 8.913516e-01 1.065011e+00 1.061868e+00 8.802567e-01 7.865070e-01 6.597946e-01 5.942105e-01
<GCONST> 1.348753e+02
<STATE> 3
<NUMMIXES> 2
<MIXTURE> 1 5.800664e-01
<MEAN> 39
 3.599466e+00 -1.166749e+01 -7.611802e+00 -9.829746e-01 -1.938971e-01 -3.406137e+00 5.536637e+00 2.652215e+00 7.031810e+00 -6.150487e+00 -5.069132e+00 -5.050324e+00 -1.333108e+00 2.250674e-01 1.753871e+00 1.290115e+00 2.125373e-01 -1.173392e+00 -1.901149e-01 -2.065094e+00 8.371602e-01 1.124996e-01 1.374591e+00 1.410594e+00 -4.449738e-01 -4.038048e-03 1.293173e-01 5.070313e-01 5.007573e-01 2.776669e-01 3.150758e-01 5.246448e-02 -2.888510e-01 -4.029903e-01 -4.402495e-01 3.059573e-01 1.041953e-01 3.211832e-01 1.555164e-01
<VARIANCE> 39
 9.380764e+00 1.602948e+01 2.964084e+01 2.407818e+01 4.866279e+01 4.008239e+01 4.062394e+01 5.022445e+01 3.375316e+01 3.494591e+01 3.942645e+01 3.443981e+01 2.948850e+01 7.298017e-01 1.305271e+00 1.907398e+00 1.782523e+00 3.104116e+00 2.874944e+00 4.362616e+00 4.425597e+00 3.208486e+00 3.436276e+00 3.536801e+00 2.893647e+00 2.853649e+00 1.269685e-01 1.694723e-01 2.436600e-01 2.474049e-01 4.051984e-01 3.752800e-01 6.307692e-01 8.590424e-01 4.384019e-01 5.553622e-01 5.596843e-01 4.332125e-01 4.232253e-01
<GCONST> 1.153937e+02
<MIXTURE> 2 4.199336e-01
<MEAN> 39
 4.059884e+00 -1.411627e+01 -9.701238e+00 -8.270314e-01 3.387386e+00 -5.850939e-01 6.192797e+00 -2.098774e+00 7.008659e+00 -8.442926e+00 -6.466506e+00 -3.922431e+00 -1.102492e+00 1.047981e-01 2.267885e-01 -2.530621e-01 9.941225e-02 -9.607030e-02 -7.584721e-02 1.139786e-01 4.118770e-02 -1.949608e-02 9.897416e-02 4.992587e-02 -1.732850e-01 1.111263e-01 1.666519e-02 2.716950e-01 1.002579e-01 -6.480410e-02 -1.369983e-01 -4.073960e-02 -2.670762e-01 2.586972e-01 5.477551e-02 1.992354e-01 1.567396e-01 -1.617950e-01 2.636126e-02
<VARIANCE> 39
 6.729679e+00 8.068977e+00 1.338752e+01 1.516389e+01 2.218473e+01 2.248960e+01 2.464561e+01 3.297895e+01 2.214048e+01 2.180705e+01 2.481522e+01 2.606782e+01 2.191038e+01 1.875806e-01 5.130249e-01 4.240869e-01 5.210605e-01 7.575340e-01 8.447160e-01 9.786975e-01 1.341436e+00 9.711955e-01 8.783315e-01 9.535342e-01 9.194543e-01 8.747510e-01 3.732359e-02 6.971335e-02 8.035111e-02 8.456869e-02 1.196530e-01 1.410589e-01 1.954732e-01 1.819549e-01 1.702648e-01 2.006721e-01 1.891094e-01 1.604452e-01 1.494027e-01
<GCONST> 7.805350e+01
<STATE> 4
<NUMMIXES> 2
<MIXTURE> 1 5.708128e-01
<MEAN> 39
 1.238429e+00 -8.964714e-01 -5.460101e+00 2.662955e+00 6.774579e+00 -1.749333e+00 4.311461e+00 8.774250e+00 2.703287e-01 -2.383011e-01 -6.270823e+00 -1.243569e+00 2.532402e+00 -7.923098e-01 6.325411e-01 2.788689e-01 -1.909682e-01 1.615350e-01 2.235900e-01 9.149164e-03 4.830301e-01 -4.857522e-01 5.233449e-01 1.742331e-01 5.809628e-01 -7.409241e-02 -1.813907e-01 -2.870319e-01 -8.565863e-02 -1.515538e-01 -1.246390e-01 -2.854262e-02 -4.880140e-02 -1.940027e-01 6.850463e-02 -5.146818e-02 1.751293e-01 1.519506e-02 -6.901812e-02
<VARIANCE> 39
 4.270469e+01 2.987199e+01 3.272625e+01 2.695717e+01 3.222130e+01 4.115333e+01 4.311255e+01 6.727007e+01 4.225771e+01 4.309676e+01 3.716920e+01 3.723924e+01 2.597234e+01 2.629167e+00 2.708149e+00 2.025325e+00 2.145458e+00 2.098356e+00 2.396981e+00 3.182649e+00 3.981470e+00 3.252468e+00 2.909910e+00 3.174033e+00 2.390991e+00 1.990871e+00 4.399853e-01 4.265253e-01 4.143373e-01 4.203548e-01 3.953058e-01 4.436174e-01 5.906868e-01 6.358007e-01 6.222866e-01 6.127887e-01 5.425239e-01 4.461678e-01 4.122954e-01
<GCONST> 1.219102e+02
<MIXTURE> 2 4.291872e-01
<MEAN> 39
 5.651922e+00 -3.828724e+00 3.062763e-01 1.311958e+00 -1.126423e+00 -2.802356e+00 -2.705335e+00 -1.234444e+00 4.657308e+00 -9.782182e-01 -2.000589e-01 -3.894779e+00 -9.265653e-01 4.755625e-01 2.380795e+00 2.110563e+00 1.205143e+00 4.259730e-01 5.107669e-01 -8.493043e-01 -1.307660e+00 -1.416353e+00 5.098091e-01 1.896768e-01 6.562678e-01 5.762427e-01 -1.731689e-01 -2.467425e-01 -3.842023e-01 -9.282947e-02 2.085746e-01 1.205460e-01 7.166094e-01 1.237945e-01 -1.126235e-01 -3.939848e-01 -4.581203e-01 5.955160e-02 2.284412e-02
<VARIANCE> 39
 1.589176e+01 2.711038e+01 5.074250e+01 5.260901e+01 6.037547e+01 6.710793e+01 6.321629e+01 1.105165e+02 5.559555e+01 4.158105e+01 6.129687e+01 4.030222e+01 4.305317e+01 1.261252e+00 1.732545e+00 2.749493e+00 2.280639e+00 2.843806e+00 2.773813e+00 5.377021e+00 7.727033e+00 3.424564e+00 3.763824e+00 4.767396e+00 2.832736e+00 2.719419e+00 1.933734e-01 2.946715e-01 4.627577e-01 5.220923e-01 5.688211e-01 5.584898e-01 8.389186e-01 1.263605e+00 7.691481e-01 6.409380e-01 7.968608e-01 6.238437e-01 5.884605e-01
<GCONST> 1.293708e+02
<TRANSP> 5
 0.000000e+00 1.000000e+00 0.000000e+00 0.000000e+00 0.000000e+00
 0.000000e+00 7.469124e-01 2.530876e-01 0.000000e+00 0.000000e+00
 0.000000e+00 0.000000e+00 7.684714e-01 2.315286e-01 0.000000e+00
 0.000000e+00 0.000000e+00 0.000000e+00 8.025218e-01 1.974782e-01
 0.000000e+00 0.000000e+00 0.000000e+00 0.000000e+00 0.000000e+00
<ENDHMM>
~o
<STREAMINFO> 1 39
<VECSIZE> 39<NULLD><MFCC_D_A_Z><DIAGC>
~h "ae"
<BEGINHMM>
<NUMSTATES> 5
<STATE> 2
<NUMMIXES> 2
<MIXTURE> 1 7.677659e-01
<MEAN> 39
 6.929718e+00 1.966478e+00 -1.506294e+00 -5.871857e+00 -1.449586e+00 5.687060e+00 1.219875e+00 1.069391e-01 5.463225e-01 -1.769375e-01 6.709609e+00 -4.142169e+00 -3.119732e+00 -2.402894e-01 8.807448e-01 2.185205e-01 6.075774e-01 3.987603e-01 -8.592480e-01 2.604330e-01 9.231334e-01 -2.423319e-01 4.155898e-01 -9.237830e-01 3.569847e-02 5.454109e-01 -1.814005e-01 -1.582179e-01 -1.115682e-01 -3.417910e-03 1.489853e-01 -1.447369e-01 -5.962055e-02 1.252774e-01 1.321339e-01 -1.327372e-02 -2.198260e-01 1.403719e-01 5.323254e-02
<VARIANCE> 39
 2.355803e+01 7.259224e+01 3.250354e+01 4.364796e+01 5.561648e+01 6.171682e+01 5.046804e+01 9.716771e+01 4.279915e+01 2.867722e+01 6.660734e+01 5.337924e+01 6.155457e+01 1.227766e+00 2.049614e+00 2.442530e+00 2.819932e+00 2.049050e+00 3.021512e+00 4.438276e+00 4.522224e+00 4.023728e+00 2.700290e+00 5.176781e+00 2.338655e+00 2.662196e+00 1.991591e-01 4.294755e-01 4.141543e-01 5.297586e-01 5.966454e-01 5.495127e-01 9.653426e-01 8.312262e-01 1.030012e+00 3.584588e-01 9.591709e-01 5.247850e-01 5.181249e-01
<GCONST> 1.283088e+02
<MIXTURE> 2 2.322341e-01
<MEAN> 39
 -1.243518e+01 -4.258463e+00 -3.548458e+00 5.410208e-02 6.117585e+00 -4.289846e-01 1.586876e+00 1.161857e+01 -6.716977e+00 2.650226e+00 -1.463424e+00 3.104337e+00 3.127937e+00 3.751413e-01 -2.624516e-02 2.859208e-01 1.315617e-02 -5.922178e-01 -2.155027e-01 2.794616e-01 -3.748295e-01 -2.274415e-01 -5.540716e-01 -1.940219e-01 -1.154983e-01 -6.992882e-02 5.044658e-01 1.095657e-01 6.704184e-02 -1.387946e-02 -1.679673e-01 8.628745e-02 1.657854e-01 -6.238830e-02 4.580918e-01 -6.803679e-02 -9.993492e-02 -1.324650e-01 -6.317637e-02
<VARIANCE> 39
 4.296482e+01 2.434747e+01 1.811990e+01 4.925375e+00 1.585042e+01 9.629985e+00 1.619909e+01 5.762830e+01 1.646247e+01 2.051443e+01 1.237816e+01 1.085744e+01 1.170034e+01 4.259911e+00 8.954918e-01 1.065065e+00 8.422950e-01 1.124645e+00 1.870053e+00 2.646835e+00 1.905277e+00 2.884706e+00 1.587803e+00 1.976915e+00 1.624503e+00 1.410917e+00 7.146825e-01 2.840911e-01 1.674129e-01 1.324345e-01 4.607851e-01 2.243094e-01 5.440983e-01 3.359855e-01 3.968693e-01 3.796976e-01 3.754137e-01 2.311806e-01 2.889794e-01
<GCONST> 9.984513e+01
<STATE> 3
<NUMMIXES> 2
<MIXTURE> 1 5.870754e-01
<MEAN> 39
 2.858150e+00 -5.881043e+00 2.287829e+00 -8.626281e-01 -1.034321e+01 -4.452166e+00 2.870231e+00 5.101572e+00 6.620622e+00 -6.287313e+00 3.504551e+00 -9.627989e-02 -4.356832e+00 5.061596e-01 2.337729e-01 3.555500e-01 4.849553e-01 4.380703e-02 -7.091992e-01 -3.920603e-01 4.300004e-01 8.408094e-02 -2.099245e-01 -3.473924e-02 -2.370513e-01 3.542603e-01 -2.606409e-02 3.853177e-01 1.555615e-01 2.069486e-01 6.864896e-01 2.644259e-01 -2.328846e-01 -1.866663e-01 -5.050447e-01 2.730567e-01 -2.570947e-01 1.518635e-02 3.305126e-01
<VARIANCE> 39
 2.403120e+01 4.175505e+01 3.585041e+01 3.770889e+01 6.673885e+01 6.067085e+01 5.234392e+01 4.585098e+01 2.698027e+01 1.815549e+01 7.628735e+01 2.946249e+01 1.828535e+01 1.012388e+00 4.395591e+00 2.402925e+00 2.179535e+00 8.343637e+00 2.333169e+00 5.143756e+00 5.150294e+00 6.297079e+00 2.863831e+00 4.664145e+00 2.670986e+00 4.131609e+00 2.071536e-01 4.326959e-01 2.105547e-01 2.911414e-01 6.370556e-01 5.552587e-01 7.125373e-01 8.860893e-01 3.927241e-01 2.495888e-01 8.345964e-01 4.827048e-01 5.840077e-01
<GCONST> 1.244598e+02
<MIXTURE> 2 4.129246e-01
<MEAN> 39
 -1.219932e+00 8.059517e+00 2.699397e+00 5.951344e-01 7.340439e+00 -4.676862e-01 3.284532e-01 2.136241e+00 -2.496828e+00 3.596733e+00 -2.040392e+00 -1.243760e+00 1.600430e+00 -1.270439e+00 -8.996903e-01 -2.394648e-01 -1.742672e-01 -7.420015e-01 -2.577090e+00 -7.755861e-01 7.181442e-01 1.408405e+00 2.100106e-01 -3.893622e-02 1.271650e+00 -6.886516e-02 1.129486e-01 -6.907160e-01 -3.268999e-01 -6.574794e-01 -1.141133e+00 1.195654e-01 -4.217218e-01 -4.575609e-01 8.007571e-01 -3.614664e-01 6.924760e-01 1.024419e-01 -1.923241e-01
<VARIANCE> 39
 6.230136e+01 2.347638e+01 1.598952e+01 3.029690e+01 1.687889e+01 5.866101e+01 2.943003e+01 6.900363e+01 3.046574e+01 3.054908e+01 3.375992e+01 3.564002e+01 2.291329e+01 5.822320e+00 4.149358e+00 1.912386e+00 3.340950e+00 8.201808e+00 5.334152e+00 5.333921e+00 7.506566e+00 9.461836e+00 3.487458e+00 4.175159e+00 2.676502e+00 3.317933e+00 5.931469e-01 3.814089e-01 3.716764e-01 7.152188e-01 6.732058e-01 1.065034e+00 9.908368e-01 8.876905e-01 1.354477e+00 5.222297e-01 7.210141e-01 8.088494e-01 5.118676e-01
<GCONST> 1.315124e+02
<STATE> 4
<NUMMIXES> 2
<MIXTURE> 1 5.804085e-01
<MEAN> 39
 4.841686e+00 -3.308012e+00 -2.670485e-01 -4.505325e+00 -1.086785e+00 5.220960e-01 -5.331298e+00 -6.110057e+00 8.195587e+00 -9.534200e-01 5.202351e-01 -4.828100e+00 6.911544e-01 3.477269e-01 8.267704e-02 2.489912e-01 3.502387e-01 -2.984486e-01 6.967266e-01 -4.749705e-01 -1.055467e+00 4.318373e-01 -3.643108e-01 -4.569696e-01 2.899933e-01 6.344322e-01 6.788107e-02 2.280090e-01 1.378712e-01 1.509370e-01 7.617729e-02 3.880459e-01 4.133373e-01 4.169615e-01 -5.539286e-01 -2.118056e-02 -1.396026e-01 2.848136e-02 -3.272632e-01
<VARIANCE> 39
 2.482725e+01 2.195444e+01 3.203432e+01 5.561803e+01 2.282733e+01 6.806169e+01 8.123811e+01 4.397773e+01 9.207241e+01 2.564257e+01 2.150117e+01 3.778666e+01 4.261546e+01 1.217528e+00 4.586431e+00 3.970767e+00 4.540089e+00 5.208894e+00 3.721380e+00 6.896592e+00 5.195137e+00 1.316232e+01 3.198025e+00 2.276089e+00 3.072813e+00 3.857015e+00 2.508584e-01 3.031816e-01 3.542266e-01 4.112535e-01 4.117397e-01 7.328289e-01 8.581223e-01 1.027987e+00 8.757674e-01 5.390044e-01 4.467359e-01 6.471030e-01 4.815452e-01
<GCONST> 1.288531e+02
<MIXTURE> 2 4.195915e-01
<MEAN> 39
 2.236450e-01 2.971652e+00 2.721727e+00 3.281304e+00 -8.995463e-01 -6.124623e+00 5.175948e-01 9.056539e+00 -4.898863e-01 3.831967e-01 1.004384e+00 4.565273e-01 -1.608582e+00 -5.512515e-01 7.714701e-01 -6.490502e-01 -1.696973e-01 1.467333e+00 3.911712e-01 5.276961e-02 -4.014987e-01 -1.097022e+00 7.883931e-01 -6.589677e-01 -1.686163e-01 6.605706e-01 -1.332861e-01 -4.006439e-01 -1.976231e-01 -3.575794e-01 -2.182653e-01 4.054563e-01 -1.304139e-01 -5.067458e-01 1.100843e-01 -1.411052e-01 1.844404e-01 3.365678e-03 1.049470e-01
<VARIANCE> 39
 7.327824e+01 4.503165e+01 6.505459e+01 3.772645e+01 6.723646e+01 5.855739e+01 5.325191e+01 4.897880e+01 5.258103e+01 8.180888e+01 5.301621e+01 3.323791e+01 2.832051e+01 4.566093e+00 4.400017e+00 2.779260e+00 2.409628e+00 4.518560e+00 3.590534e+00 2.237899e+00 7.425097e+00 3.270613e+00 2.961433e+00 4.845682e+00 2.657319e+00 2.450155e+00 1.027235e+00 4.891766e-01 4.535775e-01 4.095008e-01 7.752173e-01 5.950349e-01 4.710117e-01 1.006967e+00 1.272525e+00 6.183654e-01 9.727287e-01 6.019433e-01 6.690345e-01
<GCONST> 1.340667e+02
<TRANSP> 5
 0.000000e+00 1.000000e+00 0.000000e+00 0.000000e+00 0.000000e+00
 0.000000e+00 6.770122e-01 3.229878e-01 0.000000e+00 0.000000e+00
 0.000000e+00 0.000000e+00 6.424161e-01 3.575839e-01 0.000000e+00
 0.000000e+00 0.000000e+00 0.000000e+00 6.410482e-01 3.589519e-01
 0.000000e+00 0.000000e+00 0.000000e+00 0.000000e+00 0.000000e+00
<ENDHMM>
~o
<STREAMINFO> 1 39
<VECSIZE> 39<NULLD><MFCC_D_A_Z><DIAGC>
~h "ag"
<BEGINHMM>
<NUMSTATES> 5
<STATE> 2
<NUMMIXES> 2
<MIXTURE> 1 5.090272e-01
<MEAN> 39
 -9.066886e-02 -1.103425e+00 -5.717153e+00 5.459242e+00 9.844100e+00 -1.069644e+00 5.874386e+00 6.065803e+00 2.667971e-01 5.036038e-01 -8.244699e+00 1.396394e+00 2.067873e+00 -3.596220e-01 4.183533e-01 2.360004e-01 -1.026734e-01 3.439037e-01 -3.187712e-02 -1.541276e-01 1.557941e-01 -1.758609e-02 4.896722e-01 1.387980e-01 1.036523e-01 -2.851644e-01 -6.871616e-02 4.414282e-02 3.082230e-02 -1.304929e-01 -1.666459e-01 -1.514383e-02 -6.623527e-02 -4.382571e-02 -3.230314e-02 5.152046e-07 2.227332e-01 -3.038440e-02 -3.379717e-02
<VARIANCE> 39
 1.718819e+01 2.639722e+01 1.071778e+01 3.703307e+01 2.970565e+01 3.175548e+01 2.850442e+01 5.369717e+01 2.939958e+01 3.669762e+01 4.392750e+01 1.750070e+01 2.071822e+01 2.350519e-01 1.415865e+00 1.265639e+00 2.234770e+00 1.924455e+00 2.310334e+00 2.714782e+00 2.490717e+00 1.719083e+00 1.996261e+00 2.809515e+00 1.170166e+00 1.720877e+00 1.186396e-01 2.249151e-01 2.037636e-01 3.779977e-01 2.535543e-01 3.191157e-01 5.289577e-01 4.566127e-01 3.095512e-01 3.007563e-01 4.554347e-01 1.971223e-01 2.975339e-01
<GCONST> 1.048103e+02
<MIXTURE> 2 4.909728e-01
<MEAN> 39
 4.711815e-01 8.529574e+00 9.082081e+00 3.324291e+00 -5.526404e+00 6.409729e+00 1.466560e+00 -5.257583e+00 -2.004582e-01 1.984000e-01 2.269154e+00 -1.438289e+00 1.006776e+00 -2.729692e-02 6.006472e-02 -1.750813e-01 6.324039e-02 1.112697e+00 2.871205e-01 5.704615e-01 8.503683e-01 -4.023476e-01 5.603175e-01 -5.998140e-01 -1.062405e-01 1.901904e-01 -9.704965e-02 -1.694728e-01 -1.685986e-01 -6.470779e-02 2.325601e-02 -2.060386e-01 -3.335067e-02 4.851648e-02 -7.729144e-02 -5.670225e-02 -5.440732e-02 1.188921e-01 3.683206e-02
<VARIANCE> 39
 3.445774e+01 1.744260e+01 5.003150e+01 5.635206e+01 5.171978e+01 7.636626e+01 3.504109e+01 4.420805e+01 3.724385e+01 3.903485e+01 4.202639e+01 2.602225e+01 2.241851e+01 1.679439e+00 1.237342e+00 1.534870e+00 1.831672e+00 2.279345e+00 4.310281e+00 2.801639e+00 2.905676e+00 1.950746e+00 2.597834e+00 1.925826e+00 1.773629e+00 1.612331e+00 2.647908e-01 1.796833e-01 2.497475e-01 2.983901e-01 3.141235e-01 6.838337e-01 4.089066e-01 3.713402e-01 3.132921e-01 4.673800e-01 3.107629e-01 2.655357e-01 2.826532e-01
<GCONST> 1.137674e+02
<STATE> 3
<NUMMIXES> 2
<MIXTURE> 1 7.558162e-01
<MEAN> 39
 -5.105341e-01 3.796525e+00 -1.253631e+00 1.603959e+00 6.838163e+00 1.731584e+00 4.632098e+00 3.858359e+00 -1.586646e+00 3.221811e+00 -2.877294e+00 4.763761e-01 -8.561950e-02 -1.215745e+00 -5.139658e-01 -4.804553e-01 -2.918435e-01 1.290519e-01 -4.481181e-01 3.738694e-01 3.924880e-01 -5.475747e-01 -3.313002e-02 2.682115e-01 2.782571e-01 2.515337e-01 -2.609336e-01 -2.476719e-01 -1.215439e-01 -5.484340e-02 -3.384935e-01 -3.302367e-02 -1.247436e-02 -2.864644e-01 8.209994e-02 -2.081428e-01 8.825701e-02 1.355873e-01 1.256657e-01
<VARIANCE> 39
 4.616318e+01 2.903250e+01 3.767299e+01 4.366750e+01 4.318538e+01 5.341874e+01 2.845372e+01 4.667710e+01 3.032662e+01 3.252508e+01 3.767014e+01 2.873838e+01 2.086233e+01 4.819684e+00 3.427053e+00 2.984689e+00 3.436358e+00 3.561433e+00 4.695592e+00 3.392869e+00 5.216784e+00 2.659800e+00 2.134190e+00 3.360578e+00 1.926806e+00 1.957369e+00 4.007187e-01 3.829918e-01 3.203450e-01 4.717703e-01 4.114222e-01 7.706821e-01 5.723175e-01 6.149723e-01 4.882466e-01 5.084151e-01 3.826576e-01 3.251116e-01 3.449797e-01
<GCONST> 1.227376e+02
<MIXTURE> 2 2.441838e-01
<MEAN> 39
 7.520825e+00 -1.447682e+01 -8.331033e+00 3.851644e+00 2.184547e+00 3.205432e+00 5.833575e+00 -7.387811e+00 6.031692e+00 -8.630438e+00 -5.892147e+00 -1.354220e+00 3.646308e+00 9.145858e-02 2.056560e-01 5.562999e-02 -4.319067e-02 5.439326e-02 -2.871411e-02 -2.059342e-01 2.812262e-02 4.120919e-02 5.416648e-02 7.349512e-02 -2.478594e-01 2.406977e-01 -4.210204e-02 8.977521e-02 8.101277e-02 -1.599221e-02 5.508875e-02 3.270847e-03 -5.760903e-02 1.026328e-01 -4.998516e-02 8.055504e-02 -4.347003e-02 -2.721176e-02 -1.977419e-02
<VARIANCE> 39
 1.949321e+00 5.180745e+00 2.966031e+00 1.014767e+01 2.259704e+00 6.057010e+00 1.500643e+01 2.346095e+01 2.031610e+01 2.585575e+01 5.915995e+00 1.153935e+01 1.127598e+01 1.771500e-01 4.151296e-01 3.372529e-01 9.840877e-01 4.263802e-01 5.500576e-01 6.865136e-01 1.109809e+00 6.160536e-01 1.026017e+00 5.824276e-01 5.601055e-01 5.253104e-01 3.662228e-02 3.812146e-02 5.368377e-02 7.070576e-02 8.996215e-02 1.079432e-01 9.741265e-02 1.126010e-01 7.768776e-02 1.347389e-01 8.997932e-02 1.184441e-01 9.012483e-02
<GCONST> 5.832407e+01
<STATE> 4
<NUMMIXES> 2
<MIXTURE> 1 5.691357e-01
<MEAN> 39
 -2.096606e-01 3.714517e+00 -5.884677e-01 2.699917e+00 5.292378e+00 3.401208e+00 5.294737e+00 4.274787e-01 -1.109132e+00 1.728155e+00 -6.778701e-01 -1.258821e+00 1.660005e+00 4.546398e-01 3.442616e-01 9.407529e-02 2.801661e-01 2.243160e-01 5.754744e-01 6.915182e-02 -6.280224e-01 -1.377407e-02 -5.775228e-01 -3.748478e-01 -3.466934e-01 1.455498e-01 -4.127030e-02 -1.095811e-01 3.945169e-02 -1.172122e-01 -1.557275e-01 -1.465242e-01 -2.711460e-01 -5.816670e-03 -6.132555e-02 -1.498826e-01 -9.875524e-02 2.130137e-01 -8.591146e-02
<VARIANCE> 39
 6.069781e+01 2.803732e+01 4.552258e+01 4.272524e+01 5.589106e+01 6.025121e+01 3.035022e+01 8.018810e+01 4.300189e+01 5.340373e+01 5.584155e+01 3.232539e+01 2.373104e+01 4.706873e+00 3.668964e+00 3.443021e+00 4.225446e+00 3.171864e+00 5.472906e+00 3.500729e+00 6.283467e+00 3.808456e+00 5.713778e+00 4.522810e+00 2.783715e+00 2.353467e+00 7.366758e-01 7.095553e-01 5.133930e-01 4.871775e-01 6.696874e-01 8.262598e-01 4.835862e-01 7.921362e-01 7.415060e-01 6.568367e-01 9.147650e-01 4.020661e-01 3.904203e-01
<GCONST> 1.327074e+02
<MIXTURE> 2 4.308642e-01
<MEAN> 39
 -1.500511e+01 -1.196694e+00 -6.675617e+00 3.219188e-01 5.779709e+00 -2.215056e+00 6.061239e+00 6.686015e+00 -4.497590e+00 4.053650e+00 -2.009389e+00 5.543896e+00 1.025762e+00 -3.473565e-01 -1.541839e-01 -6.685598e-02 2.261594e-01 1.772059e-02 1.755429e-01 1.543363e-01 -2.708009e-01 -1.411686e-01 6.448835e-02 3.457595e-02 -3.197705e-02 2.079531e-01 8.985192e-01 3.018599e-01 3.236655e-01 2.146812e-01 2.248814e-01 3.343678e-01 9.129042e-04 -2.187775e-01 1.841150e-01 1.488337e-01 8.940806e-02 -2.368943e-01 6.143625e-02
<VARIANCE> 39
 2.737880e+00 3.422401e+00 1.047572e+01 7.640422e+00 1.100074e+01 9.910634e+00 1.364731e+01 2.099029e+01 1.642273e+01 1.248110e+01 1.973849e+01 1.156529e+01 9.781678e+00 4.343256e+00 7.198715e-01 1.119214e+00 1.011108e+00 1.319406e+00 1.315704e+00 1.804917e+00 2.367440e+00 1.553835e+00 1.297452e+00 1.173510e+00 1.335923e+00 9.816389e-01 2.940313e-01 1.084957e-01 1.760306e-01 3.384825e-01 3.229441e-01 3.781434e-01 5.013444e-01 4.434499e-01 3.484687e-01 2.330301e-01 2.869658e-01 2.984442e-01 1.828646e-01
<GCONST> 8.954083e+01
<TRANSP> 5
 0.000000e+00 1.000000e+00 0.000000e+00 0.000000e+00 0.000000e+00
 0.000000e+00 7.572188e-01 2.427813e-01 0.000000e+00 0.000000e+00
 0.000000e+00 0.000000e+00 6.520991e-01 3.479008e-01 0.000000e+00
 0.000000e+00 0.000000e+00 0.000000e+00 6.758246e-01 3.241754e-01
 0.000000e+00 0.000000e+00 0.000000e+00 0.000000e+00 0.000000e+00
<ENDHMM>
~o
<STREAMINFO> 1 39
<VECSIZE> 39<NULLD><MFCC_D_A_Z><DIAGC>
~h "ax"
<BEGINHMM>
<NUMSTATES> 5
<STATE> 2
<NUMMIXES> 2
<MIXTURE> 1 3.704005e-01
<MEAN> 39
 -2.732892e+00 4.005865e+00 -4.643870e+00 -3.060389e+00 2.221471e+00 -6.966254e-01 1.526460e+00 5.862825e+00 1.675601e+00 8.382693e+00 6.745873e-01 3.212518e-01 -7.328601e-01 9.732754e-01 -1.199935e+00 -1.454050e+00 -7.774103e-01 2.596636e-01 1.655589e+00 1.483796e+00 -1.422418e+00 -3.225136e-01 -6.521451e-01 -2.493120e-01 -1.932638e-01 -3.452239e-01 5.002030e-01 -5.827385e-01 -3.375141e-01 -5.756217e-01 -1.840726e-01 6.630911e-01 6.466798e-01 -7.676721e-01 -2.195527e-01 -8.360170e-01 -1.257527e-01 -2.129973e-02 -1.217794e-01
<VARIANCE> 39
 2.298637e+01 2.455257e+01 3.996302e+01 4.815044e+01 7.329225e+01 5.337175e+01 5.648282e+01 3.914415e+01 4.498153e+01 3.941179e+01 3.362100e+01 2.610203e+01 2.406804e+01 3.609922e+00 4.843646e+00 5.581607e+00 7.023759e+00 3.735105e+00 7.161004e+00 4.732984e+00 8.063807e+00 3.941805e+00 5.135056e+00 3.390028e+00 3.139387e+00 3.564197e+00 5.440357e-01 4.405137e-01 9.987049e-01 1.019499e+00 4.758113e-01 8.654199e-01 6.942047e-01 8.614506e-01 8.022681e-01 7.016047e-01 6.801797e-01 4.605223e-01 7.182263e-01
<GCONST> 1.342102e+02
<MIXTURE> 2 6.295996e-01
<MEAN> 39
 6.847129e+00 -5.009955e+00 -1.097815e+01 -1.248803e+01 1.371943e+00 9.535097e+00 1.030387e+01 -5.583403e+00 8.842777e-02 -1.435439e+00 4.993712e-01 -1.521157e+00 -4.213872e+00 1.329605e+00 -1.079189e+00 -3.754677e-01 -1.301138e+00 -2.577289e-01 9.197044e-01 1.429653e+00 -1.366920e+00 -2.624316e-02 -1.331531e+00 5.821366e-02 -1.374537e-01 -1.260550e+00 -3.862666e-01 3.291843e-01 5.729480e-01 5.494671e-01 3.615196e-02 -5.664024e-01 -6.332748e-01 5.207087e-01 1.059339e-01 2.278863e-01 1.389686e-01 8.868729e-02 1.129734e-01
<VARIANCE> 39
 1.489774e+01 2.859609e+01 2.614359e+01 5.496067e+01 4.243087e+01 5.457401e+01 6.778924e+01 4.864546e+01 4.104052e+01 3.650053e+01 4.348695e+01 5.032528e+01 3.212697e+01 2.862887e+00 2.736633e+00 2.700218e+00 5.224935e+00 2.913787e+00 5.983359e+00 5.455604e+00 5.960321e+00 2.849157e+00 4.742552e+00 2.931161e+00 2.869935e+00 2.307838e+00 3.251725e-01 4.128198e-01 4.627042e-01 7.569857e-01 5.732651e-01 8.491020e-01 8.532709e-01 1.029056e+00 5.859619e-01 6.518458e-01 5.826880e-01 5.926939e-01 5.142998e-01
<GCONST> 1.293402e+02
<STATE> 3
<NUMMIXES> 2
<MIXTURE> 1 4.439164e-01
<MEAN> 39
 6.737294e+00 -9.948363e+00 -6.721710e+00 -5.681903e+00 -4.081078e-01 3.688852e+00 1.305989e+00 -2.729903e+00 7.172717e+00 -2.662689e+00 2.665045e+00 -6.641887e+00 -6.944586e+00 -1.130034e-02 4.345462e-01 4.760118e-01 1.581516e+00 -2.566424e-01 -1.078836e+00 -2.383265e+00 1.503063e+00 6.917393e-01 1.760059e-01 -4.255429e-01 -1.658767e-01 1.011976e+00 4.354509e-02 4.135596e-01 2.602662e-01 1.755268e-01 1.011980e-01 -1.042086e-01 -1.762842e-01 -2.084669e-02 -1.383583e-01 -1.358611e-02 -2.854394e-01 4.853467e-01 3.915540e-01
<VARIANCE> 39
 9.199777e+00 1.951920e+01 1.856466e+01 5.257067e+01 3.510150e+01 5.394213e+01 6.563342e+01 4.513906e+01 2.975237e+01 3.169960e+01 7.231834e+01 3.582528e+01 3.152901e+01 4.898206e-01 1.603122e+00 1.089582e+00 1.980742e+00 2.564441e+00 2.842253e+00 6.158426e+00 4.497217e+00 3.909305e+00 2.450206e+00 3.491371e+00 2.908861e+00 2.552246e+00 9.777363e-02 1.313909e-01 2.085642e-01 2.430322e-01 5.166342e-01 5.566562e-01 8.181726e-01 8.796189e-01 5.129592e-01 5.282763e-01 7.064291e-01 5.781856e-01 3.832128e-01
<GCONST> 1.167285e+02
<MIXTURE> 2 5.560836e-01
<MEAN> 39
 8.734328e+00 -7.446238e+00 -7.648288e+00 -1.626715e+01 -4.541583e-01 1.137996e+01 1.078010e+01 -6.946712e+00 1.261317e+00 -5.414893e+00 3.132674e+00 3.879971e-01 -8.691797e+00 -1.396372e-01 -2.094450e-01 4.471830e-01 4.331032e-01 9.669614e-02 -2.727934e-01 -7.879175e-01 3.119092e-01 -4.949708e-03 2.531125e-01 9.028288e-01 -6.611406e-01 -2.117498e-01 -1.975971e-01 3.981527e-01 2.482044e-02 3.757801e-01 1.471992e-01 -1.865729e-01 -5.517155e-01 4.036820e-01 -3.947978e-02 4.374049e-01 -1.826718e-02 -2.103903e-01 3.947223e-01
<VARIANCE> 39
 8.614552e+00 1.299515e+01 1.837421e+01 2.713979e+01 3.012269e+01 4.154583e+01 6.292016e+01 3.362019e+01 2.674727e+01 3.937629e+01 3.503976e+01 3.000755e+01 2.517348e+01 3.818132e-01 1.697979e+00 1.380220e+00 1.955842e+00 1.603431e+00 1.646162e+00 3.789234e+00 2.616550e+00 2.419432e+00 2.723001e+00 2.641005e+00 2.462754e+00 2.104379e+00 1.164474e-01 2.567442e-01 2.041782e-01 2.585373e-01 3.769104e-01 2.935380e-01 5.379757e-01 5.236126e-01 4.334877e-01 4.256922e-01 4.088813e-01 3.329557e-01 3.900009e-01
<GCONST> 1.083201e+02
<STATE> 4
<NUMMIXES> 2
<MIXTURE> 1 5.431264e-01
<MEAN> 39
 5.939621e+00 -3.585735e+00 1.688176e+00 -7.692138e-01 -1.526821e+00 1.331229e+00 -9.964899e+00 -1.372572e+00 8.573721e+00 -1.492062e+00 -7.831233e-01 -4.327245e+00 -9.872130e-01 -2.583573e-01 1.139974e+00 1.456037e+00 1.304195e+00 2.901047e-01 -3.780805e-01 -3.003469e-01 -8.859589e-01 -7.620572e-01 -7.038806e-02 -6.350774e-01 7.667411e-01 8.167049e-01 -7.271636e-02 -3.240992e-02 -1.662602e-01 -2.411771e-01 1.203151e-01 1.963963e-01 5.344756e-01 -1.018451e-02 -2.599453e-01 -3.243819e-02 6.268745e-02 -2.000666e-02 -2.358818e-01
<VARIANCE> 39
 1.256356e+01 2.569575e+01 4.485876e+01 4.343671e+01 5.106313e+01 3.859585e+01 6.888261e+01 7.332518e+01 3.532655e+01 3.076218e+01 5.066631e+01 1.839338e+01 2.189841e+01 5.935598e-01 1.165573e+00 2.544305e+00 2.913193e+00 4.178810e+00 2.776218e+00 3.481463e+00 5.996409e+00 3.002233e+00 2.078016e+00 3.459874e+00 2.117864e+00 2.027240e+00 1.067675e-01 1.906288e-01 4.517211e-01 3.512349e-01 5.280042e-01 4.726295e-01 6.756094e-01 1.157295e+00 6.217965e-01 4.275340e-01 6.980479e-01 3.446968e-01 2.546506e-01
<GCONST> 1.182238e+02
<MIXTURE> 2 4.568736e-01
<MEAN> 39
 4.579432e+00 1.834011e+00 -6.789200e+00 -7.881996e+00 7.395175e+00 6.894090e+00 3.357552e+00 3.996614e+00 -5.376224e+00 3.569825e+00 3.784328e+00 -2.621768e+00 -9.704059e-01 -1.788573e+00 1.034576e+00 -3.947664e-01 1.397085e+00 1.428396e+00 -7.603878e-01 -8.199635e-01 1.885400e+00 -4.860479e-01 1.543352e+00 -1.346311e+00 5.931460e-01 8.172471e-01 -4.054468e-01 -6.505452e-01 -1.965108e-01 9.548642e-02 -2.578470e-01 -3.663320e-01 -1.181454e-03 -2.483765e-01 4.062380e-01 -1.663705e-01 -1.236686e-01 1.739540e-01 -2.397900e-01
<VARIANCE> 39
 4.011097e+01 2.511532e+01 3.066344e+01 6.574385e+01 5.458490e+01 4.923296e+01 5.058463e+01 4.908767e+01 5.120827e+01 4.007648e+01 6.654808e+01 3.176761e+01 2.743317e+01 3.168425e+00 5.799961e+00 2.663597e+00 3.714857e+00 5.316719e+00 4.121647e+00 5.404758e+00 4.215881e+00 4.176241e+00 3.245913e+00 4.077323e+00 2.854074e+00 3.194567e+00 5.490320e-01 6.777990e-01 5.891501e-01 6.528560e-01 9.957408e-01 6.453711e-01 7.266940e-01 8.290524e-01 7.311236e-01 6.657242e-01 9.838125e-01 5.365990e-01 5.554276e-01
<GCONST> 1.333086e+02
<TRANSP> 5
 0.000000e+00 1.000000e+00 0.000000e+00 0.000000e+00 0.000000e+00
 0.000000e+00 7.616011e-01 2.383990e-01 0.000000e+00 0.000000e+00
 0.000000e+00 0.000000e+00 8.219165e-01 1.780835e-01 0.000000e+00
 0.000000e+00 0.000000e+00 0.000000e+00 7.838073e-01 2.161926e-01
 0.000000e+00 0.000000e+00 0.000000e+00 0.000000e+00 0.000000e+00
<ENDHMM>
~o
<STREAMINFO> 1 39
<VECSIZE> 39<NULLD><MFCC_D_A_Z><DIAGC>
~h "b"
<BEGINHMM>
<NUMSTATES> 5
<STATE> 2
<NUMMIXES> 2
<MIXTURE> 1 3.817450e-01
<MEAN> 39
 4.541268e+00 1.025104e+01 5.274032e+00 9.283191e+00 3.883209e+00 4.936133e+00 1.070494e+01 -6.820057e+00 -8.167959e+00 1.540766e+00 -4.908350e-01 -3.667249e+00 3.862106e+00 2.615751e+00 1.520754e+00 1.067837e+00 -7.694521e-02 -7.104692e-01 7.973439e-01 5.654065e-01 -8.987194e-01 -1.109321e+00 -4.263958e-02 -5.158031e-01 -1.166255e+00 -3.166179e-01 1.608231e-02 -2.111387e-01 -1.750793e-01 -5.825974e-01 6.654912e-02 -1.077451e-01 -4.068432e-01 6.526322e-01 1.581066e-01 1.478678e-01 -1.746278e-01 2.399434e-01 -3.879815e-01
<VARIANCE> 39
 5.491114e+01 3.518602e+01 2.659875e+01 3.133658e+01 4.268026e+01 4.925330e+01 4.879277e+01 6.860104e+01 3.836136e+01 5.018417e+01 3.602991e+01 3.558120e+01 2.692758e+01 3.282662e+00 2.811522e+00 2.187491e+00 4.125271e+00 3.180796e+00 2.757720e+00 4.049443e+00 7.040694e+00 3.383337e+00 3.355463e+00 3.511473e+00 2.296249e+00 2.771494e+00 8.315226e-01 6.361614e-01 5.231865e-01 4.741975e-01 6.560586e-01 5.113390e-01 6.218782e-01 1.023133e+00 7.596924e-01 5.909796e-01 5.609001e-01 5.145021e-01 3.920879e-01
<GCONST> 1.286732e+02
<MIXTURE> 2 6.182550e-01
<MEAN> 39
 1.193325e+01 3.359640e+00 4.039618e+00 -2.162550e+00 1.921161e+00 1.074460e+01 -2.265065e+00 -6.612182e+00 -2.874459e+00 -1.239823e+00 3.877912e+00 -1.481001e+00 -5.769761e+00 1.080008e+00 1.354925e+00 4.671976e-01 2.311792e-01 7.335301e-01 5.955595e-01 9.320711e-01 5.918461e-01 -1.239640e+00 4.011005e-01 -6.365448e-01 -2.212975e-01 -1.814970e-01 -4.949445e-01 -3.998023e-01 -3.628895e-01 -2.508717e-01 -4.090151e-01 -6.231030e-01 3.172866e-03 2.855249e-01 4.552082e-01 1.203658e-01 -2.676260e-01 -1.978114e-01 2.008960e-01
<VARIANCE> 39
 1.573049e+01 3.013238e+01 3.222809e+01 5.512759e+01 3.984414e+01 3.144930e+01 3.879004e+01 3.870987e+01 5.217228e+01 3.367764e+01 3.554265e+01 3.452843e+01 2.550517e+01 2.547026e+00 5.060772e+00 3.071140e+00 4.476128e+00 3.941088e+00 3.578775e+00 5.205297e+00 3.540743e+00 6.443262e+00 3.233519e+00 4.630752e+00 2.937584e+00 2.698108e+00 2.876076e-01 5.063692e-01 3.995092e-01 5.551220e-01 5.953788e-01 4.689055e-01 6.051032e-01 6.190360e-01 9.189336e-01 5.919181e-01 6.618978e-01 6.296307e-01 3.971301e-01
<GCONST> 1.268702e+02
<STATE> 3
<NUMMIXES> 2
<MIXTURE> 1 8.138729e-01
<MEAN> 39
 1.536431e+01 1.313273e+01 6.872917e+00 1.106606e+00 3.042087e+00 8.205770e+00 6.255366e+00 -1.479237e+00 -7.596188e+00 1.475202e+00 -3.647022e+00 -3.490585e+00 -2.490246e+00 5.382571e-03 8.973258e-01 -1.248594e-01 9.408587e-02 6.585150e-01 -6.477334e-01 3.636968e-01 8.090847e-01 -4.658116e-01 3.262867e-01 -6.987038e-01 2.901792e-01 8.121997e-03 -6.503776e-01 -5.666530e-01 -2.415613e-01 -5.127504e-03 -2.308816e-01 -2.930375e-01 -4.234970e-01 -1.799872e-01 2.121320e-01 -2.020224e-01 3.488995e-01 2.886356e-01 8.565868e-02
<VARIANCE> 39
 5.471177e+00 2.058736e+01 1.799561e+01 1.989484e+01 3.588839e+01 3.372069e+01 3.612259e+01 3.240294e+01 3.381034e+01 3.906394e+01 4.288952e+01 2.233859e+01 2.604559e+01 1.379605e+00 1.320414e+00 9.771981e-01 1.625862e+00 1.672869e+00 2.008802e+00 2.502476e+00 2.178327e+00 2.195815e+00 2.241905e+00 2.134763e+00 1.596284e+00 1.732179e+00 2.319042e-01 3.975237e-01 2.383572e-01 3.437066e-01 4.290749e-01 3.856815e-01 4.929991e-01 4.283970e-01 5.160574e-01 4.333436e-01 4.659843e-01 3.484876e-01 3.018657e-01
<GCONST> 1.083434e+02
<MIXTURE> 2 1.861271e-01
<MEAN> 39
 5.255051e+00 -9.009631e+00 -5.246987e+00 -8.713169e+00 -1.098423e+00 5.362809e+00 -4.510981e+00 -2.504688e+00 5.638546e+00 7.388720e-01 3.266476e+00 -5.816714e+00 -7.607362e+00 -8.482190e-01 -2.004860e+00 -9.410051e-01 5.011573e-01 -4.232361e-03 -1.280087e+00 9.242959e-01 1.630457e+00 1.400084e+00 -1.189224e+00 -1.825508e+00 -1.128971e+00 1.015015e+00 2.386464e-01 5.717649e-01 4.789198e-01 6.975993e-01 2.461154e-01 5.692393e-03 3.598152e-01 -2.097913e-01 -7.207466e-01 -4.391435e-01 -1.767453e-01 5.041125e-01 5.236093e-01
<VARIANCE> 39
 8.905481e+00 3.449343e+01 2.209848e+01 3.576701e+01 2.643752e+01 3.532746e+01 5.866375e+01 4.667472e+01 3.970021e+01 3.899514e+01 5.658390e+01 4.026432e+01 3.454043e+01 1.123518e+00 4.424567e+00 2.819139e+00 4.241054e+00 4.572976e+00 3.004930e+00 5.600849e+00 4.263492e+00 7.419137e+00 4.654008e+00 4.473362e+00 5.694802e+00 4.313261e+00 1.376509e-01 3.566903e-01 2.071396e-01 5.162616e-01 7.038336e-01 4.426842e-01 1.012573e+00 7.814857e-01 9.636954e-01 8.662964e-01 1.116040e+00 8.548542e-01 7.218776e-01
<GCONST> 1.283662e+02
<STATE> 4
<NUMMIXES> 2
<MIXTURE> 1 6.574988e-01
<MEAN> 39
 8.370037e+00 8.004651e+00 4.816582e+00 3.160063e+00 3.118068e+00 2.406681e+00 2.352300e+00 -4.743917e-01 -7.964384e+00 -6.845634e-01 -3.073747e+00 1.611724e-01 -1.434915e+00 -2.448340e+00 -2.900732e+00 -1.014959e+00 -1.180406e+00 -2.359857e+00 -9.494449e-01 -1.820080e+00 -8.614223e-01 1.083151e+00 -7.087122e-01 1.451624e+00 1.643368e+00 1.485701e-01 4.276206e-02 -6.042049e-01 -1.835802e-01 -8.819002e-01 -8.998230e-01 5.902653e-01 -5.377090e-02 -5.829356e-01 7.862306e-01 3.642613e-02 5.423070e-01 -1.868250e-01 -3.521971e-01
<VARIANCE> 39
 4.509827e+01 8.354169e+01 3.662881e+01 3.711482e+01 5.653249e+01 4.938815e+01 5.794317e+01 3.726967e+01 4.417862e+01 3.384217e+01 4.316755e+01 2.855075e+01 2.154910e+01 2.190952e+00 4.818546e+00 5.229790e+00 7.741982e+00 7.130553e+00 5.009312e+00 4.579206e+00 5.172733e+00 6.505388e+00 4.060058e+00 5.581620e+00 3.709285e+00 3.010024e+00 6.509963e-01 1.405054e+00 5.437272e-01 7.456551e-01 1.001970e+00 7.811198e-01 9.781548e-01 7.974189e-01 1.004251e+00 6.821384e-01 8.570389e-01 7.449478e-01 5.386404e-01
<GCONST> 1.375088e+02
<MIXTURE> 2 3.425012e-01
<MEAN> 39
 6.689426e+00 -2.026668e+00 -3.774538e+00 -1.418366e+01 -6.860158e+00 1.029349e+01 -1.919716e+00 -5.818187e+00 2.733137e+00 -6.119701e-01 5.247317e+00 2.131881e+00 -5.375109e+00 -8.479389e-01 -3.807735e+00 -1.893045e+00 -2.656668e+00 -1.491654e+00 1.084559e+00 -2.495582e-01 -9.706464e-01 3.536578e+00 9.855543e-02 9.768648e-01 -1.189094e+00 -1.580950e+00 3.817214e-01 6.223943e-01 4.635809e-01 1.437600e+00 1.295825e+00 -3.962180e-01 7.030718e-01 4.524440e-01 -6.118794e-01 -1.042103e-01 -1.014403e+00 -7.138218e-01 1.913579e-01
<VARIANCE> 39
 7.291421e+00 4.080873e+01 1.659951e+01 4.942387e+01 4.295189e+01 5.107643e+01 4.906662e+01 3.215385e+01 3.871008e+01 4.050844e+01 3.653101e+01 5.334914e+01 3.395999e+01 1.927458e+00 5.800707e+00 2.192553e+00 8.654682e+00 7.056388e+00 6.264997e+00 6.277559e+00 5.846729e+00 5.426777e+00 6.015450e+00 8.903456e+00 4.983603e+00 5.445492e+00 1.917179e-01 5.368776e-01 2.401058e-01 8.245322e-01 6.519745e-01 9.758180e-01 8.898147e-01 9.025779e-01 1.136369e+00 8.828067e-01 9.034271e-01 1.368269e+00 8.070579e-01
<GCONST> 1.347558e+02
<TRANSP> 5
 0.000000e+00 1.000000e+00 0.000000e+00 0.000000e+00 0.000000e+00
 0.000000e+00 6.539079e-01 3.460922e-01 0.000000e+00 0.000000e+00
 0.000000e+00 0.000000e+00 7.690995e-01 2.309005e-01 0.000000e+00
 0.000000e+00 0.000000e+00 0.000000e+00 7.277031e-01 2.722969e-01
 0.000000e+00 0.000000e+00 0.000000e+00 0.000000e+00 0.000000e+00
<ENDHMM>
~o
<STREAMINFO> 1 39
<VECSIZE> 39<NULLD><MFCC_D_A_Z><DIAGC>
~h "bh"
<BEGINHMM>
<NUMSTATES> 5
<STATE> 2
<NUMMIXES> 2
<MIXTURE> 1 7.126567e-01
<MEAN> 39
 1.399903e+01 9.272518e+00 6.432306e+00 6.946532e-01 1.960446e+00 9.847079e+00 3.163236e+00 -4.578379e+00 -6.670065e+00 -1.341945e+00 -1.191299e+00 -2.304895e+00 -2.518320e+00 9.502105e-01 1.611486e+00 1.922410e-01 3.898956e-02 1.063789e+00 3.513142e-01 1.392312e+00 1.028926e+00 -1.225431e+00 4.059055e-01 -1.119711e+00 -5.009943e-02 3.430105e-01 -9.039509e-01 -5.510915e-01 -5.125332e-01 -1.806252e-01 -1.841140e-01 -6.049597e-01 -3.101472e-01 2.402435e-01 4.859813e-01 2.607853e-01 2.742621e-01 3.904412e-01 1.307000e-01
<VARIANCE> 39
 1.119898e+01 3.041469e+01 2.201291e+01 3.501065e+01 4.088411e+01 3.641013e+01 4.382194e+01 3.826116e+01 3.839824e+01 4.216232e+01 3.761947e+01 2.783350e+01 2.929981e+01 2.130503e+00 1.610695e+00 1.855556e+00 3.063827e+00 2.566897e+00 2.971412e+00 3.467896e+00 3.207977e+00 2.952329e+00 2.631916e+00 2.986306e+00 2.377913e+00 2.269533e+00 3.011355e-01 3.086993e-01 3.444665e-01 4.862372e-01 5.894641e-01 5.391024e-01 6.060848e-01 7.193106e-01 6.370695e-01 5.810363e-01 5.889093e-01 4.842179e-01 4.260313e-01
<GCONST> 1.196075e+02
<MIXTURE> 2 2.873433e-01
<MEAN> 39
 4.698923e+00 8.856745e-01 -9.122813e-01 -3.037580e+00 2.425769e+00 7.958018e+00 3.983354e-01 -6.317489e+00 1.082804e+00 1.290768e+00 3.229322e+00 -1.696737e+00 -3.000475e+00 1.682402e+00 1.828505e+00 1.199095e+00 6.335011e-01 2.519644e-01 1.241088e+00 8.924983e-01 -8.106934e-01 -1.607528e+00 -2.541002e-01 2.808313e-02 -2.171397e-01 1.462665e-01 2.561434e-01 2.426610e-01 1.896794e-01 5.455939e-02 4.876260e-02 -1.455020e-01 1.194418e-01 4.473565e-01 -2.152694e-01 -1.561598e-01 -5.151481e-01 -1.078013e-01 1.122067e-01
<VARIANCE> 39
 3.246618e+01 5.446963e+01 4.299848e+01 1.317712e+02 3.737323e+01 3.527498e+01 9.023737e+01 4.915634e+01 6.994665e+01 3.247324e+01 3.620787e+01 3.680175e+01 5.538471e+01 2.995275e+00 3.592569e+00 3.183457e+00 3.291450e+00 3.479945e+00 2.773957e+00 3.754570e+00 5.106295e+00 4.904003e+00 2.884597e+00 4.195542e+00 4.377080e+00 2.874042e+00 3.898899e-01 4.491623e-01 4.646139e-01 8.117937e-01 5.020303e-01 4.465583e-01 6.852250e-01 7.141055e-01 6.252227e-01 5.255758e-01 7.078274e-01 6.842495e-01 5.398010e-01
<GCONST> 1.314958e+02
<STATE> 3
<NUMMIXES> 2
<MIXTURE> 1 4.814467e-01
<MEAN> 39
 1.422828e+01 1.325976e+01 5.928768e+00 7.542360e-01 4.527900e+00 9.062210e+00 7.527431e+00 -3.720849e-01 -8.992774e+00 -2.464885e-01 -3.840991e+00 -6.240061e-01 -1.370637e-01 -2.811129e+00 -1.236096e+00 -1.486290e+00 4.480543e-01 1.009447e+00 -1.644383e+00 -5.746828e-01 1.572388e+00 7.482540e-01 1.126297e+00 6.841908e-01 1.577134e+00 6.719162e-01 -8.609316e-01 -1.071144e+00 -7.680437e-01 -3.688606e-01 -4.493828e-01 -2.913899e-02 -6.245012e-01 -3.490411e-01 9.158950e-01 1.666285e-01 6.411216e-01 2.560443e-01 -6.135083e-02
<VARIANCE> 39
 1.169412e+01 1.846717e+01 1.568084e+01 2.201029e+01 3.146841e+01 2.983211e+01 3.006108e+01 3.570128e+01 3.023419e+01 3.386403e+01 4.169027e+01 2.316302e+01 2.182010e+01 2.565533e+00 3.142750e+00 2.714610e+00 4.001813e+00 4.092009e+00 3.629965e+00 3.942872e+00 3.699182e+00 3.997971e+00 3.448506e+00 3.645895e+00 2.608843e+00 2.544406e+00 3.465688e-01 3.020261e-01 3.626772e-01 6.488101e-01 5.528300e-01 6.641492e-01 6.295245e-01 7.348710e-01 7.942955e-01 5.757805e-01 8.346750e-01 6.002190e-01 5.159890e-01
<GCONST> 1.216555e+02
<MIXTURE> 2 5.185533e-01
<MEAN> 39
 2.857842e+00 4.581841e+00 8.311499e-02 1.760026e+00 6.111336e+00 3.292366e+00 1.849397e+00 2.203562e+00 -4.442201e+00 3.133515e+00 5.727337e-01 3.926900e+00 9.377925e-01 -2.068269e+00 -2.005448e+00 -2.767910e+00 -1.650677e+00 -6.296183e-01 1.397689e-01 -4.898498e-01 -5.782313e-02 2.193215e+00 8.325858e-01 9.997689e-01 9.665054e-01 3.332946e-01 7.753867e-01 1.870341e-02 -1.527252e-02 -5.219396e-01 -4.256392e-01 8.174338e-01 3.407138e-01 -6.817220e-01 2.104806e-01 -3.622163e-01 -1.795350e-01 -6.450096e-01 -2.720472e-01
<VARIANCE> 39
 1.786821e+01 2.594451e+01 2.928074e+01 5.078611e+01 3.250980e+01 3.820373e+01 3.258400e+01 4.371120e+01 3.349921e+01 2.923693e+01 2.592734e+01 2.426466e+01 1.946696e+01 2.820931e+00 3.858156e+00 3.126712e+00 5.335015e+00 3.986228e+00 5.890561e+00 4.354906e+00 5.248576e+00 4.915088e+00 4.336842e+00 5.310022e+00 4.699320e+00 3.377554e+00 5.170326e-01 7.276784e-01 5.447034e-01 9.858359e-01 1.103047e+00 9.557753e-01 7.322631e-01 8.223092e-01 9.881997e-01 6.469785e-01 6.774789e-01 7.094644e-01 5.192752e-01
<GCONST> 1.308983e+02
<STATE> 4
<NUMMIXES> 2
<MIXTURE> 1 6.336119e-01
<MEAN> 39
 5.264752e+00 2.289839e+00 -7.896121e+00 -7.932216e+00 3.440849e+00 1.333672e+01 4.061785e+00 -2.176891e+00 1.380412e+00 3.761989e+00 2.084278e+00 7.759126e-01 -9.795002e-01 -2.599636e-02 -2.162709e+00 -1.678216e+00 -6.339927e-01 1.722820e-01 4.470317e-01 1.440196e-01 -2.769431e-01 1.414952e+00 3.707741e-02 -4.760213e-01 -2.250291e+00 -7.876434e-01 1.418862e-01 -2.656760e-01 6.602762e-01 7.408736e-01 1.477962e-01 -7.015005e-01 -1.100477e-01 2.356900e-01 -2.649868e-01 -5.316342e-01 -5.028949e-01 -4.722912e-01 -3.865854e-02
<VARIANCE> 39
 7.267236e+00 2.490427e+01 1.596717e+01 2.329455e+01 3.279167e+01 2.564593e+01 3.656158e+01 3.350404e+01 2.554214e+01 2.430347e+01 2.756778e+01 4.173673e+01 2.743350e+01 1.171381e+00 2.299587e+00 2.041045e+00 4.511184e+00 3.178660e+00 6.059548e+00 3.406011e+00 4.131222e+00 4.311642e+00 3.432177e+00 3.707879e+00 3.366682e+00 2.904479e+00 2.837846e-01 3.352483e-01 3.441174e-01 5.185425e-01 6.174908e-01 7.427177e-01 6.435040e-01 6.935910e-01 9.033740e-01 6.148871e-01 6.897368e-01 9.789649e-01 5.386566e-01
<GCONST> 1.212672e+02
<MIXTURE> 2 3.663881e-01
<MEAN> 39
 1.416020e+00 -6.306476e+00 -2.574356e+00 5.546996e-01 -8.474501e-01 1.211805e-01 1.049815e+00 3.547173e+00 4.916075e+00 -2.133823e+00 -1.168088e+00 -2.749381e+00 -1.012048e+00 -2.623549e-01 -4.714525e-01 5.226165e-01 6.365644e-01 -8.677236e-01 -1.211223e+00 -2.934096e-02 1.245047e-01 5.360675e-02 -7.704869e-01 -3.584599e-02 4.476416e-01 2.228481e-01 2.399260e-01 3.574290e-01 1.708010e-01 -1.358823e-01 -1.774444e-01 1.722797e-01 3.052984e-02 -2.648104e-01 -2.029186e-01 8.373560e-02 1.895102e-01 1.186491e-01 -1.393022e-01
<VARIANCE> 39
 9.350307e+00 3.948383e+01 4.514477e+01 4.093941e+01 1.095813e+02 5.120391e+01 4.769638e+01 5.930937e+01 5.949336e+01 4.329714e+01 3.668795e+01 4.943924e+01 2.911678e+01 1.181519e+00 2.863117e+00 2.317772e+00 1.833804e+00 5.011525e+00 2.826916e+00 3.316013e+00 4.330586e+00 3.311244e+00 3.452474e+00 3.140738e+00 2.800221e+00 2.362975e+00 2.232692e-01 3.316305e-01 2.944742e-01 3.265043e-01 5.628726e-01 4.705805e-01 5.079771e-01 6.497086e-01 5.570337e-01 4.908795e-01 5.321752e-01 6.046018e-01 4.577382e-01
<GCONST> 1.232765e+02
<TRANSP> 5
 0.000000e+00 1.000000e+00 0.000000e+00 0.000000e+00 0.000000e+00
 0.000000e+00 7.559850e-01 2.440149e-01 0.000000e+00 0.000000e+00
 0.000000e+00 0.000000e+00 6.974367e-01 3.025633e-01 0.000000e+00
 0.000000e+00 0.000000e+00 0.000000e+00 7.365457e-01 2.634543e-01
 0.000000e+00 0.000000e+00 0.000000e+00 0.000000e+00 0.000000e+00
<ENDHMM>
~o
<STREAMINFO> 1 39
<VECSIZE> 39<NULLD><MFCC_D_A_Z><DIAGC>
~h "c"
<BEGINHMM>
<NUMSTATES> 5
<STATE> 2
<NUMMIXES> 2
<MIXTURE> 1 5.141592e-01
<MEAN> 39
 -5.970877e+00 6.694733e+00 1.086404e-01 1.901104e+00 6.225891e+00 -3.083911e+00 6.534103e-01 5.670075e+00 -1.405892e+00 5.476130e+00 -1.536338e+00 1.512567e+00 1.320743e+00 -2.787337e+00 -2.550855e-01 -4.930764e-01 -4.165801e-01 2.360887e-01 -8.665062e-02 7.365332e-01 6.985683e-02 -5.691149e-01 2.205627e-02 5.017349e-01 4.741631e-01 -1.501514e-01 -2.770826e-01 -4.270874e-01 -2.340395e-01 -7.373708e-02 -1.066407e-01 -8.766894e-02 -6.179830e-02 -1.616312e-01 -5.948526e-02 -2.362526e-01 9.390746e-02 6.415404e-02 1.033402e-01
<VARIANCE> 39
 6.562828e+01 3.522679e+01 2.931940e+01 2.918251e+01 3.114307e+01 3.589563e+01 5.403829e+01 4.845646e+01 4.948237e+01 2.894025e+01 2.866623e+01 2.643286e+01 1.572860e+01 5.797122e+00 3.936709e+00 2.862867e+00 2.276275e+00 3.165648e+00 3.173866e+00 4.078228e+00 3.996859e+00 3.875956e+00 2.653980e+00 2.633596e+00 2.179503e+00 1.750620e+00 8.856672e-01 6.625999e-01 3.959674e-01 4.468512e-01 6.422275e-01 5.917001e-01 6.403594e-01 6.764231e-01 6.869726e-01 4.835612e-01 4.928218e-01 4.022193e-01 3.440078e-01
<GCONST> 1.245992e+02
<MIXTURE> 2 4.858409e-01
<MEAN> 39
 -2.077812e+01 2.109227e+00 -5.210885e+00 -3.946707e-01 6.015551e+00 -5.384488e+00 3.342730e+00 4.360770e+00 -4.681761e+00 2.996303e+00 7.333282e-01 4.078785e+00 1.753811e+00 -6.863101e-01 -3.990629e-01 -4.316859e-01 -1.590473e-01 -3.290730e-01 -1.010026e+00 -1.008190e-01 1.024674e-01 -4.079953e-01 -4.847061e-01 -3.116525e-02 2.741666e-01 1.368064e-01 1.883338e+00 4.161155e-01 7.918859e-01 3.270114e-01 -4.006144e-01 8.882644e-03 -5.297873e-01 -3.008298e-01 4.160692e-01 -8.186628e-03 -3.106305e-01 -3.425574e-01 -3.983885e-02
<VARIANCE> 39
 1.408454e+01 1.621495e+01 2.278356e+01 2.022438e+01 2.468210e+01 2.785835e+01 3.083199e+01 2.941806e+01 2.685145e+01 2.099492e+01 1.746919e+01 1.462277e+01 1.183264e+01 7.707981e+00 3.058751e+00 5.313205e+00 2.677258e+00 2.367180e+00 2.437337e+00 3.397257e+00 3.095244e+00 2.958034e+00 2.248183e+00 2.183405e+00 1.964361e+00 1.395825e+00 8.003507e-01 4.206210e-01 7.076942e-01 4.204184e-01 5.371080e-01 5.277069e-01 6.726157e-01 9.193730e-01 9.252962e-01 4.528291e-01 4.247082e-01 3.919839e-01 2.622355e-01
<GCONST> 1.164942e+02
<STATE> 3
<NUMMIXES> 2
<MIXTURE> 1 4.090516e-01
<MEAN> 39
 2.534533e+00 -3.160911e+00 -3.653075e+00 -4.004094e+00 -2.676586e+00 -5.584128e+00 -8.959327e+00 -1.731469e+00 1.369449e+01 1.766700e+00 -2.586762e+00 -2.672072e+00 2.148479e+00 3.507891e+00 -3.801603e+00 -5.041175e-01 -1.877013e+00 -1.767367e+00 1.567608e+00 7.256818e-02 -6.424838e-01 4.194314e+00 -1.413682e+00 -9.940325e-02 -2.374292e+00 -1.025341e+00 -1.644144e+00 -1.769405e-01 -4.716197e-01 9.216271e-02 9.030697e-01 9.704749e-02 1.672471e+00 6.419129e-01 -1.634679e+00 -4.126636e-01 6.065347e-02 2.854954e-01 -2.215010e-01
<VARIANCE> 39
 5.894870e+00 1.775181e+01 1.249468e+01 2.462593e+01 1.840717e+01 4.458942e+01 3.997360e+01 3.770319e+01 3.221677e+01 2.813507e+01 2.949429e+01 2.679699e+01 1.843536e+01 4.903275e+00 1.358431e+00 1.448277e+00 1.701410e+00 2.504129e+00 3.000963e+00 6.491713e+00 5.320384e+00 6.070546e+00 2.590538e+00 3.825574e+00 2.376311e+00 2.792997e+00 1.821474e-01 4.599554e-01 2.570528e-01 3.558486e-01 4.081238e-01 6.383567e-01 5.260031e-01 8.212034e-01 1.015857e+00 3.923021e-01 4.091057e-01 5.120019e-01 3.777949e-01
<GCONST> 1.163157e+02
<MIXTURE> 2 5.909484e-01
<MEAN> 39
 -1.398254e+01 5.091946e+00 -2.135792e+00 1.166124e+00 5.504992e+00 -8.177518e+00 4.133617e-02 5.225956e+00 -4.411362e+00 2.046990e+00 -2.037103e+00 3.001380e+00 1.949388e+00 5.665693e+00 -2.680061e-01 1.709851e+00 2.885729e-01 -1.916807e+00 5.516001e-02 -2.521626e+00 -2.134520e+00 2.584350e+00 -2.616751e-01 -5.996877e-01 -1.263830e+00 2.925405e-02 9.067022e-01 -7.267529e-01 6.679530e-02 -3.775715e-01 -5.706125e-01 7.178152e-01 -3.437052e-02 -6.825764e-01 1.006583e+00 -1.593263e-01 2.240801e-01 -4.796226e-01 -2.565375e-01
<VARIANCE> 39
 5.111307e+01 1.730792e+01 3.294277e+01 2.824979e+01 2.337861e+01 3.354694e+01 4.885907e+01 3.190819e+01 3.182030e+01 2.593711e+01 2.126044e+01 1.931523e+01 1.565169e+01 4.748532e+00 3.318815e+00 4.590375e+00 2.978985e+00 2.862042e+00 3.869798e+00 4.521163e+00 6.371964e+00 9.993921e+00 2.487600e+00 2.874755e+00 2.577535e+00 1.622963e+00 1.249156e+00 4.866370e-01 4.233993e-01 4.623017e-01 5.433029e-01 5.628811e-01 9.268346e-01 9.934303e-01 9.918391e-01 5.122554e-01 5.320497e-01 5.406134e-01 3.836286e-01
<GCONST> 1.253604e+02
<STATE> 4
<NUMMIXES> 2
<MIXTURE> 1 6.236798e-01
<MEAN> 39
 3.766885e+00 -1.093857e+01 -6.566406e+00 -5.760333e+00 -1.095063e-01 -3.535914e+00 1.055127e+00 9.758253e-01 1.218743e+01 -4.299391e+00 -4.568108e+00 -6.411255e+00 -9.270860e-02 3.583342e-01 -1.260578e+00 -5.927982e-01 2.260816e-01 1.340023e+00 5.204387e-01 2.138753e+00 -5.717953e-02 -1.804662e+00 -8.992940e-01 -2.213247e-01 -5.989747e-02 -3.605874e-01 -3.881593e-01 8.401848e-01 2.312880e-01 5.255942e-01 2.619149e-01 -2.831407e-01 -3.325466e-01 -1.286153e-01 -7.587176e-01 4.486199e-01 1.481991e-01 5.739129e-01 1.967214e-01
<VARIANCE> 39
 6.691923e+00 1.564000e+01 1.595393e+01 2.536677e+01 2.957598e+01 3.790608e+01 7.045604e+01 3.964997e+01 4.462164e+01 3.904166e+01 5.212980e+01 3.071391e+01 3.313800e+01 3.693278e-01 1.983533e+00 1.294100e+00 1.467249e+00 2.316399e+00 1.754333e+00 4.443842e+00 3.446580e+00 3.565047e+00 2.864542e+00 2.461150e+00 2.462451e+00 2.139421e+00 3.016982e-01 1.852567e-01 1.975424e-01 2.498573e-01 6.031163e-01 3.466541e-01 8.443184e-01 6.764081e-01 1.398350e+00 4.664116e-01 4.795820e-01 4.357314e-01 4.384898e-01
<GCONST> 1.141415e+02
<MIXTURE> 2 3.763202e-01
<MEAN> 39
 -3.469502e+00 5.557633e+00 7.946306e+00 4.510227e+00 -2.212202e+00 -5.770744e+00 -2.061592e+00 -6.212384e+00 -6.538593e+00 -3.587716e-01 4.572382e-01 1.711602e+00 2.847936e-01 3.367416e+00 -6.139453e-01 1.619467e+00 -9.736539e-02 -3.146537e+00 1.061475e+00 -1.124219e+00 -3.446091e+00 6.960567e-01 -1.136396e+00 1.042550e+00 -1.364673e-01 -3.403820e-01 -9.289817e-01 -4.861360e-01 -9.445927e-01 -6.008379e-01 1.225394e-01 2.959508e-01 2.156790e-01 8.015830e-01 3.829443e-01 4.055997e-02 2.592309e-01 1.676200e-01 2.518320e-02
<VARIANCE> 39
 3.837418e+01 2.693392e+01 5.432747e+01 3.158748e+01 5.636399e+01 5.822144e+01 6.343697e+01 6.269209e+01 5.946508e+01 2.737065e+01 2.860463e+01 1.979723e+01 1.517793e+01 6.345724e+00 3.148191e+00 5.351093e+00 3.657851e+00 4.598113e+00 3.674069e+00 4.448919e+00 9.225321e+00 4.532895e+00 3.352703e+00 4.126360e+00 2.502620e+00 1.909263e+00 5.955673e-01 5.034382e-01 6.049101e-01 4.459397e-01 9.051799e-01 5.836984e-01 6.706655e-01 1.297345e+00 8.997074e-01 4.988562e-01 5.845033e-01 3.731387e-01 3.002588e-01
<GCONST> 1.302979e+02
<TRANSP> 5
 0.000000e+00 1.000000e+00 0.000000e+00 0.000000e+00 0.000000e+00
 0.000000e+00 8.511912e-01 1.488087e-01 0.000000e+00 0.000000e+00
 0.000000e+00 0.000000e+00 6.528249e-01 3.471752e-01 0.000000e+00
 0.000000e+00 0.000000e+00 0.000000e+00 6.400625e-01 3.599375e-01
 0.000000e+00 0.000000e+00 0.000000e+00 0.000000e+00 0.000000e+00
<ENDHMM>
~o
<STREAMINFO> 1 39
<VECSIZE> 39<NULLD><MFCC_D_A_Z><DIAGC>
~h "ch"
<BEGINHMM>
<NUMSTATES> 5
<STATE> 2
<NUMMIXES> 2
<MIXTURE> 1 3.043755e-01
<MEAN> 39
 -3.701231e-01 3.795230e+00 -2.076336e+00 9.748313e-02 5.458923e+00 -3.167905e+00 -2.288552e+00 6.631356e+00 6.202132e+00 5.260573e+00 -4.174409e+00 5.857173e-02 5.004644e+00 1.956085e+00 -2.068091e-01 -2.738321e-01 -5.234627e-01 -1.363094e-01 1.447883e+00 5.514823e-01 -1.444395e+00 2.046751e+00 -2.056748e-01 -6.963041e-01 -1.730111e+00 -1.133099e+00 -9.957097e-01 -7.213389e-01 -5.775307e-01 -4.834626e-01 -1.973723e-01 -2.291013e-01 5.496414e-01 -3.230297e-01 -3.197553e-01 -3.266067e-01 4.470330e-01 -4.080807e-02 -6.889487e-01
<VARIANCE> 39
 3.051762e+01 2.643791e+01 1.901523e+01 2.410755e+01 2.396811e+01 3.176254e+01 3.671804e+01 3.610708e+01 4.431855e+01 2.364264e+01 2.126575e+01 2.637269e+01 1.928285e+01 1.766333e+01 4.613872e+00 2.536908e+00 2.595557e+00 2.963367e+00 3.551214e+00 5.085494e+00 5.013724e+00 8.555360e+00 2.954221e+00 3.429724e+00 5.050247e+00 3.005122e+00 5.260423e-01 4.589947e-01 3.134778e-01 3.407546e-01 5.229343e-01 5.841582e-01 8.152667e-01 7.929582e-01 7.074111e-01 4.645738e-01 4.871862e-01 5.282333e-01 5.322697e-01
<GCONST> 1.252449e+02
<MIXTURE> 2 6.956245e-01
<MEAN> 39
 -1.905014e+01 2.247274e+00 -5.410303e+00 -1.694405e+00 5.768409e+00 -7.033665e+00 1.857930e+00 7.695117e+00 -4.348585e+00 4.365527e+00 1.154636e+00 5.528367e+00 2.373063e+00 1.409873e-01 -1.099697e+00 -5.010439e-01 -5.141596e-01 -3.510852e-01 -4.224085e-01 -1.871342e-01 5.595659e-01 5.466376e-01 -5.727713e-02 5.657658e-02 3.602541e-01 5.181960e-01 1.474334e+00 2.392647e-01 4.911074e-01 2.725809e-01 -3.261000e-02 4.033667e-01 -2.205694e-01 -3.520810e-01 4.639765e-01 2.781033e-02 -2.637554e-01 -4.304531e-01 5.958528e-02
<VARIANCE> 39
 1.619855e+01 2.207124e+01 2.369834e+01 2.346571e+01 2.408250e+01 2.805060e+01 3.308401e+01 3.157936e+01 2.839062e+01 2.439713e+01 2.080099e+01 1.870732e+01 1.565679e+01 1.202748e+01 2.385421e+00 4.526732e+00 2.633565e+00 2.387637e+00 3.439795e+00 3.110783e+00 3.433867e+00 4.623143e+00 2.645299e+00 2.767727e+00 2.726548e+00 1.634186e+00 4.730219e-01 5.275033e-01 6.129869e-01 4.708502e-01 5.609622e-01 7.078621e-01 5.384674e-01 8.444442e-01 6.670716e-01 5.430179e-01 5.290816e-01 5.041651e-01 4.009482e-01
<GCONST> 1.203316e+02
<STATE> 3
<NUMMIXES> 2
<MIXTURE> 1 8.024235e-01
<MEAN> 39
 5.032990e+00 -4.158279e+00 -7.315301e+00 -6.909609e+00 6.562144e+00 1.228527e+00 7.241435e+00 -1.497693e+00 1.383778e+01 2.383523e+00 -4.414693e+00 -7.907079e+00 -3.325962e+00 -7.491746e-02 -1.834767e-01 -3.360826e-01 6.037899e-02 6.296116e-01 2.912134e-01 1.248024e+00 -2.177961e-01 -1.610812e-01 1.598862e-01 -1.154568e-01 -4.408998e-01 -4.939936e-01 -2.678981e-01 2.867900e-01 1.433909e-01 3.133971e-01 2.992088e-02 2.287366e-02 -2.774332e-01 3.419500e-01 -4.040181e-01 1.918524e-01 -9.589832e-03 3.315035e-01 2.878820e-01
<VARIANCE> 39
 7.272799e+00 1.829996e+01 1.602166e+01 2.257837e+01 3.134681e+01 3.325487e+01 7.267251e+01 4.128996e+01 3.942530e+01 2.907265e+01 2.664215e+01 2.368112e+01 2.865547e+01 6.240484e-01 2.161004e+00 1.248107e+00 2.077213e+00 2.040382e+00 1.962854e+00 4.484462e+00 3.034993e+00 2.772572e+00 2.409108e+00 2.015883e+00 2.340367e+00 3.049899e+00 2.384516e-01 3.031290e-01 2.597601e-01 2.618198e-01 4.283757e-01 4.186648e-01 7.237179e-01 5.435109e-01 6.260672e-01 3.933222e-01 3.761394e-01 3.812457e-01 3.871580e-01
<GCONST> 1.118181e+02
<MIXTURE> 2 1.975765e-01
<MEAN> 39
 -7.027647e+00 2.051322e+00 1.822349e+00 3.111237e+00 4.497055e+00 -4.690869e+00 1.695044e+00 3.185934e+00 -3.618359e+00 3.315231e+00 -1.228722e-01 2.882125e+00 2.280970e+00 4.993875e+00 1.240588e+00 2.108141e+00 1.469407e+00 -1.164780e+00 1.642914e+00 -6.489231e-02 -3.897564e+00 1.095350e-02 -9.897567e-01 -4.561712e-01 -8.558636e-01 -3.682009e-01 -3.166048e-01 -2.266803e-01 -5.657293e-01 -5.997752e-01 -7.794626e-01 1.607005e-01 -9.039263e-02 -5.048050e-01 9.201059e-02 -3.699000e-01 4.075977e-01 1.021705e-01 -3.154836e-01
<VARIANCE> 39
 5.483023e+01 4.431567e+01 5.803643e+01 3.260407e+01 4.434418e+01 3.964983e+01 5.148370e+01 7.516206e+01 4.603087e+01 2.607309e+01 3.005544e+01 1.826870e+01 1.961410e+01 2.364167e+00 3.418976e+00 5.067183e+00 2.701574e+00 6.445157e+00 4.300111e+00 3.738568e+00 5.615915e+00 4.460078e+00 2.879825e+00 3.637919e+00 2.939296e+00 2.111795e+00 1.015278e+00 7.974434e-01 5.099452e-01 5.244603e-01 5.691727e-01 7.579498e-01 5.698873e-01 1.236543e+00 7.310118e-01 5.249316e-01 5.364791e-01 4.377771e-01 4.145429e-01
<GCONST> 1.298608e+02
<STATE> 4
<NUMMIXES> 2
<MIXTURE> 1 4.861688e-01
<MEAN> 39
 9.867225e-01 4.495935e-01 -5.616883e+00 9.947969e-01 8.143130e+00 4.469316e+00 5.568035e+00 5.608768e+00 5.652816e+00 5.385797e+00 -5.625600e+00 -4.224848e+00 -4.509979e-01 -3.237323e-01 3.461488e-01 4.154302e-01 4.239204e-01 -5.134069e-01 2.113650e-01 -4.481038e-01 5.142154e-01 -7.825255e-01 -1.173629e-01 2.974666e-01 5.669550e-01 -2.362327e-02 -2.882320e-01 -5.604307e-02 1.115991e-01 -1.745756e-01 -1.217710e-01 -2.758073e-01 9.818767e-02 -2.199759e-02 -3.513538e-02 -7.991928e-02 2.542121e-01 2.080359e-01 2.120385e-02
<VARIANCE> 39
 1.763866e+01 2.737520e+01 4.200441e+01 2.956516e+01 4.280471e+01 4.387182e+01 5.351789e+01 7.151284e+01 5.543039e+01 4.773283e+01 3.861775e+01 3.641925e+01 2.421869e+01 2.798081e+00 2.764781e+00 2.657509e+00 2.577610e+00 3.360155e+00 3.773493e+00 4.387720e+00 6.425567e+00 3.833532e+00 3.630861e+00 3.171393e+00 3.257349e+00 2.344216e+00 4.000731e-01 5.192265e-01 4.961540e-01 4.527241e-01 5.198441e-01 5.336869e-01 7.749264e-01 8.320329e-01 6.017631e-01 6.771763e-01 5.509175e-01 5.378265e-01 3.879961e-01
<GCONST> 1.269086e+02
<MIXTURE> 2 5.138313e-01
<MEAN> 39
 -6.309002e+00 2.167056e+00 -1.400414e+00 2.881068e+00 7.634337e+00 9.021286e-01 6.706676e+00 1.039288e+01 -1.162809e+00 5.244076e+00 -1.412409e+00 3.124290e+00 1.464406e+00 -5.911512e-01 -1.739135e-01 6.017956e-02 -2.090903e-02 -1.983316e-01 -2.689413e-01 -7.976006e-02 -1.901685e-01 -4.666215e-01 -1.146111e-01 2.560745e-01 3.862942e-01 1.316130e-01 1.186438e-01 -6.649771e-02 -1.228474e-01 -3.855405e-02 4.927184e-02 8.487809e-02 -7.839363e-02 -8.213276e-02 1.163170e-01 -2.376348e-02 -1.417265e-01 -1.785903e-01 -4.037085e-02
<VARIANCE> 39
 2.504252e+01 1.809923e+01 1.770624e+01 1.481104e+01 1.878212e+01 2.158688e+01 3.173447e+01 2.789944e+01 2.693321e+01 2.222924e+01 1.858845e+01 1.840904e+01 1.358825e+01 1.188629e+00 1.123031e+00 1.352664e+00 1.155036e+00 1.427868e+00 1.639382e+00 2.243085e+00 1.929661e+00 2.082702e+00 1.952170e+00 1.932509e+00 1.871426e+00 1.261121e+00 1.972848e-01 2.214461e-01 2.368141e-01 2.122281e-01 2.721170e-01 3.057435e-01 4.260414e-01 3.867262e-01 3.846124e-01 3.644695e-01 3.549688e-01 3.228259e-01 2.432487e-01
<GCONST> 1.010082e+02
<TRANSP> 5
 0.000000e+00 1.000000e+00 0.000000e+00 0.000000e+00 0.000000e+00
 0.000000e+00 8.857132e-01 1.142868e-01 0.000000e+00 0.000000e+00
 0.000000e+00 0.000000e+00 8.098451e-01 1.901549e-01 0.000000e+00
 0.000000e+00 0.000000e+00 0.000000e+00 8.879403e-01 1.120597e-01
 0.000000e+00 0.000000e+00 0.000000e+00 0.000000e+00 0.000000e+00
<ENDHMM>
~o
<STREAMINFO> 1 39
<VECSIZE> 39<NULLD><MFCC_D_A_Z><DIAGC>
~h "d"
<BEGINHMM>
<NUMSTATES> 5
<STATE> 2
<NUMMIXES> 2
<MIXTURE> 1 5.509825e-01
<MEAN> 39
 1.405797e+01 1.320902e+01 6.345936e+00 4.344261e+00 5.970011e+00 1.222896e+00 -3.682891e+00 -3.347477e-02 3.456411e+00 4.818437e+00 -5.360993e+00 -5.827870e+00 -2.567457e+00 6.005019e-01 8.526430e-01 1.356606e-01 3.555639e-02 6.766061e-01 -2.830688e-01 2.102656e-01 6.643537e-01 -4.830647e-01 8.996098e-01 -5.362391e-01 4.098790e-02 -3.249374e-01 -7.882029e-01 -4.229366e-01 -1.000877e-01 2.873782e-02 -9.986604e-02 -2.376845e-01 1.389789e-01 -1.347815e-01 -3.001811e-01 -2.410512e-01 2.983649e-01 3.686071e-01 2.157921e-01
<VARIANCE> 39
 6.476254e+00 1.912531e+01 1.522104e+01 1.997720e+01 2.595544e+01 2.902025e+01 3.153063e+01 2.960591e+01 3.984251e+01 3.158849e+01 2.915205e+01 1.812856e+01 1.756206e+01 1.168101e+00 9.338937e-01 8.737063e-01 1.338128e+00 1.551653e+00 1.757462e+00 2.081671e+00 2.093833e+00 2.442838e+00 1.924952e+00 1.956819e+00 1.391154e+00 1.279798e+00 3.102141e-01 2.707982e-01 1.945573e-01 2.050628e-01 2.746155e-01 3.464205e-01 3.677184e-01 3.746192e-01 4.572654e-01 3.875398e-01 3.203961e-01 3.062512e-01 2.443965e-01
<GCONST> 1.019712e+02
<MIXTURE> 2 4.490175e-01
<MEAN> 39
 5.287808e+00 8.112400e+00 4.115372e+00 5.322318e+00 3.828706e+00 4.914844e-01 -1.272740e+00 -4.267872e+00 2.727067e+00 2.078677e+00 -2.907848e+00 -2.945715e+00 1.033742e+00 1.662522e+00 1.210827e+00 5.720345e-01 6.299829e-02 3.098567e-01 3.689013e-01 -4.217413e-02 6.279286e-01 3.373953e-01 4.230187e-01 -9.045670e-01 -9.001430e-01 -6.013881e-01 -1.215883e-01 -3.334920e-01 -1.329581e-01 -3.261428e-01 -1.739581e-01 -1.325860e-01 -4.734462e-02 2.584031e-01 -9.835751e-02 -1.159109e-02 1.117902e-01 1.593851e-01 -1.660404e-01
<VARIANCE> 39
 3.821845e+01 4.500060e+01 3.543143e+01 5.288942e+01 4.500123e+01 3.997940e+01 7.698095e+01 7.837231e+01 7.201054e+01 3.853517e+01 4.034415e+01 3.239875e+01 2.427743e+01 3.439007e+00 4.500340e+00 3.055165e+00 4.598665e+00 5.033072e+00 2.805358e+00 4.259513e+00 7.545727e+00 7.454285e+00 3.411264e+00 3.407431e+00 2.600151e+00 2.139154e+00 6.173493e-01 5.204954e-01 4.133924e-01 5.052267e-01 7.768909e-01 6.487159e-01 7.057274e-01 1.069089e+00 1.039251e+00 5.643048e-01 5.455019e-01 5.263175e-01 3.930100e-01
<GCONST> 1.324502e+02
<STATE> 3
<NUMMIXES> 2
<MIXTURE> 1 7.186975e-01
<MEAN> 39
 1.178142e+01 1.376840e+01 5.881155e+00 4.974163e+00 7.738221e+00 -1.578646e-01 -2.684072e+00 -1.955492e-01 6.939407e-01 5.673511e+00 -5.604059e+00 -4.826644e+00 -2.688650e+00 -3.039871e+00 -1.668788e+00 1.191642e-01 2.207508e-01 2.974415e-01 -1.265652e+00 6.538627e-01 7.934144e-01 -1.813379e+00 -7.635753e-01 5.457447e-01 1.610344e+00 6.074579e-01 -1.032183e+00 -1.195337e+00 -2.500053e-01 -3.165296e-01 -1.005031e+00 -3.963354e-01 -1.629365e-01 -6.338574e-01 2.700876e-01 -6.970820e-01 6.605450e-01 5.341130e-01 3.816338e-01
<VARIANCE> 39
 1.961844e+01 2.418108e+01 1.888226e+01 2.055818e+01 2.364750e+01 2.932000e+01 3.128875e+01 3.948093e+01 4.407409e+01 2.721935e+01 2.905029e+01 1.928728e+01 2.057326e+01 3.226941e+00 4.116831e+00 2.089495e+00 2.374883e+00 3.789039e+00 3.376467e+00 3.956692e+00 3.770882e+00 4.823373e+00 3.337207e+00 3.172838e+00 2.459934e+00 2.249827e+00 4.263945e-01 3.421307e-01 4.191457e-01 5.100576e-01 6.962227e-01 5.542224e-01 6.873983e-01 8.508397e-01 1.351854e+00 5.172132e-01 5.978537e-01 5.051680e-01 4.977247e-01
<GCONST> 1.217788e+02
<MIXTURE> 2 2.813025e-01
<MEAN> 39
 1.996084e+00 -6.147554e+00 -4.845445e+00 -7.065725e+00 -9.323645e-01 -6.186047e-01 -6.981962e+00 -1.570117e+00 1.736427e+01 -2.437108e+00 -3.023826e+00 -5.195842e+00 -2.903154e-03 -1.116962e-01 -1.742226e+00 -6.867256e-01 -7.161967e-01 -7.571750e-01 5.563134e-01 1.239136e+00 1.126400e+00 7.655936e-01 -1.422427e+00 -4.256543e-01 -1.981277e-01 -4.667147e-01 2.189459e-01 5.755162e-01 4.695478e-01 7.687538e-01 4.409856e-01 1.549817e-01 4.283616e-01 -5.031420e-01 -1.421713e+00 2.463876e-01 1.550755e-02 1.886260e-01 -7.704671e-02
<VARIANCE> 39
 5.699782e+00 1.743477e+01 1.929205e+01 2.354243e+01 1.668276e+01 3.149740e+01 4.066548e+01 4.565479e+01 3.003144e+01 3.455512e+01 4.821277e+01 2.551870e+01 2.554978e+01 5.969237e-01 2.539482e+00 1.939573e+00 3.380987e+00 3.754481e+00 2.138338e+00 4.099107e+00 4.025373e+00 1.072777e+01 3.473990e+00 3.509474e+00 2.465908e+00 2.122523e+00 1.032314e-01 1.742108e-01 1.952783e-01 3.652545e-01 3.960146e-01 4.788751e-01 7.292174e-01 8.163987e-01 1.127520e+00 5.343378e-01 5.948643e-01 3.985904e-01 4.598453e-01
<GCONST> 1.156348e+02
<STATE> 4
<NUMMIXES> 2
<MIXTURE> 1 4.799957e-01
<MEAN> 39
 -8.844769e-01 4.908006e+00 6.143098e+00 5.837298e+00 7.780461e+00 -4.365588e+00 2.783248e-01 1.928969e+00 -5.683629e+00 9.092241e-01 -3.032547e+00 1.453998e+00 4.941853e-01 -3.106029e+00 -2.936997e+00 -4.239948e-01 -5.828984e-01 -2.972892e+00 -1.699867e+00 -4.000854e-01 -2.112957e+00 2.460273e-02 -1.829396e+00 1.865486e+00 1.950493e+00 9.114376e-01 8.756294e-01 2.080458e-01 -1.675012e-02 -4.830242e-01 -1.271502e+00 4.570827e-01 -4.599316e-01 -9.820881e-01 1.130602e+00 -7.041845e-02 2.808439e-01 -4.543611e-01 -2.768111e-01
<VARIANCE> 39
 1.990986e+01 2.661310e+01 3.049104e+01 2.610151e+01 3.612432e+01 3.321278e+01 3.450304e+01 3.160763e+01 2.577756e+01 2.585545e+01 1.853963e+01 2.105672e+01 1.680005e+01 2.823988e+00 3.047328e+00 3.872908e+00 3.737067e+00 5.895821e+00 3.671215e+00 5.372163e+00 8.125973e+00 1.024482e+01 3.620642e+00 3.899960e+00 3.194879e+00 3.244418e+00 4.849586e-01 8.277456e-01 7.897907e-01 5.478608e-01 7.221814e-01 8.153650e-01 7.917622e-01 1.018951e+00 9.781284e-01 6.678294e-01 7.471318e-01 6.027383e-01 5.005398e-01
<GCONST> 1.285823e+02
<MIXTURE> 2 5.200043e-01
<MEAN> 39
 2.594338e-01 1.565638e-01 2.803926e+00 9.932790e-01 -3.679946e+00 -5.775649e+00 -4.944954e+00 -6.380137e+00 5.006263e+00 -2.534837e+00 1.085878e+00 1.627317e+00 9.174563e-01 -2.252877e-01 -1.313125e+00 1.115906e-02 -1.318006e+00 -3.473173e+00 4.641013e-01 -3.429410e-01 -1.639685e+00 1.505805e+00 -1.254276e+00 1.453875e+00 7.861039e-02 -4.702119e-01 6.183957e-01 5.922086e-01 2.452094e-01 5.774785e-02 5.253318e-01 7.424773e-01 2.652270e-01 3.982134e-01 -3.856981e-01 3.938423e-01 -3.472011e-01 -5.728074e-01 -3.303133e-01
<VARIANCE> 39
 1.041207e+01 3.291976e+01 5.530427e+01 5.627455e+01 4.697914e+01 4.478806e+01 5.055452e+01 7.258720e+01 1.023639e+02 3.955103e+01 4.310244e+01 3.315390e+01 2.218976e+01 1.649393e+00 4.229990e+00 5.245337e+00 3.873647e+00 6.106598e+00 4.019933e+00 4.784894e+00 9.861194e+00 1.040670e+01 3.506253e+00 5.260336e+00 3.417757e+00 2.770682e+00 3.251058e-01 2.578300e-01 2.673446e-01 5.106261e-01 7.309449e-01 5.495310e-01 8.584995e-01 1.143996e+00 1.583641e+00 6.482943e-01 6.272316e-01 5.326318e-01 5.175871e-01
<GCONST> 1.324722e+02
<TRANSP> 5
 0.000000e+00 1.000000e+00 0.000000e+00 0.000000e+00 0.000000e+00
 0.000000e+00 7.716467e-01 2.283533e-01 0.000000e+00 0.000000e+00
 0.000000e+00 0.000000e+00 5.533171e-01 4.466829e-01 0.000000e+00
 0.000000e+00 0.000000e+00 0.000000e+00 6.486773e-01 3.513226e-01
 0.000000e+00 0.000000e+00 0.000000e+00 0.000000e+00 0.000000e+00
<ENDHMM>
~o
<STREAMINFO> 1 39
<VECSIZE> 39<NULLD><MFCC_D_A_Z><DIAGC>
~h "dh"
<BEGINHMM>
<NUMSTATES> 5
<STATE> 2
<NUMMIXES> 2
<MIXTURE> 1 6.842645e-01
<MEAN> 39
 1.221122e+01 1.264772e+01 6.303843e+00 5.226088e+00 7.430991e+00 6.347909e-01 -3.683171e+00 -7.483709e-02 3.680847e+00 5.056777e+00 -6.920729e+00 -5.586161e+00 -9.002672e-01 -1.058176e+00 -3.111379e-01 4.618377e-02 2.173524e-01 5.186123e-01 -7.851322e-01 7.529253e-01 1.105033e+00 -1.050952e+00 3.004827e-01 1.664232e-01 9.740504e-01 1.726445e-01 -1.015002e+00 -7.922925e-01 -3.894405e-01 -1.540491e-01 -5.063177e-01 -3.058264e-01 2.416007e-01 -1.256387e-01 -4.734348e-02 -3.867889e-01 5.524416e-01 6.203889e-01 2.461844e-01
<VARIANCE> 39
 1.620020e+01 2.371695e+01 1.635882e+01 2.355271e+01 2.375551e+01 3.013047e+01 3.658633e+01 4.335233e+01 4.712567e+01 2.819806e+01 2.919180e+01 2.048898e+01 1.998362e+01 8.043417e+00 4.364470e+00 2.096137e+00 2.549800e+00 2.710803e+00 3.392043e+00 4.844770e+00 3.426103e+00 5.084000e+00 3.367110e+00 3.733579e+00 3.857171e+00 2.251693e+00 4.295750e-01 3.696135e-01 3.547810e-01 4.231637e-01 7.403376e-01 5.293006e-01 6.497681e-01 8.092250e-01 1.010209e+00 5.612151e-01 5.004368e-01 4.561041e-01 3.679994e-01
<GCONST> 1.223265e+02
<MIXTURE> 2 3.157355e-01
<MEAN> 39
 -1.949054e+00 -4.073667e-01 -2.968271e+00 2.077015e+00 8.158796e+00 -6.128869e-01 1.075800e+00 6.229569e+00 -1.280757e-01 1.759239e+00 -3.558421e+00 1.039418e+00 2.794841e+00 2.309117e-01 4.293271e-01 1.969116e-01 1.840283e-01 -3.125115e-01 1.943957e-02 6.595427e-02 -2.831397e-01 4.719536e-01 -1.972260e-02 -3.598020e-02 -2.836358e-01 9.111658e-02 2.371734e-01 1.166125e-01 1.126494e-01 -1.191100e-02 -9.526531e-02 8.405577e-02 3.214263e-03 -3.390954e-02 -1.406718e-02 -3.693621e-02 -5.633359e-02 -1.205449e-01 -1.443176e-01
<VARIANCE> 39
 2.315559e+01 5.240314e+01 3.486953e+01 4.206998e+01 3.210818e+01 2.897831e+01 7.627848e+01 1.214835e+02 6.598682e+01 2.972063e+01 2.785877e+01 2.595706e+01 2.376636e+01 2.154411e+00 3.813062e+00 2.884711e+00 3.044264e+00 2.661617e+00 2.466098e+00 4.518935e+00 5.881497e+00 5.129632e+00 2.836475e+00 2.568844e+00 2.434910e+00 2.026414e+00 2.897735e-01 4.197477e-01 3.162329e-01 3.632717e-01 4.490560e-01 4.755204e-01 7.532669e-01 8.257289e-01 7.020066e-01 5.396478e-01 5.227398e-01 4.272696e-01 3.967823e-01
<GCONST> 1.243464e+02
<STATE> 3
<NUMMIXES> 2
<MIXTURE> 1 5.894063e-01
<MEAN> 39
 -2.150180e+00 3.962936e+00 3.872924e+00 5.951173e+00 6.511199e+00 -5.045993e+00 2.045611e+00 3.008082e+00 -2.964438e+00 2.177879e+00 -1.185874e+00 4.235428e+00 2.285416e+00 -2.156024e+00 -1.505618e+00 -1.164608e+00 -1.131608e-01 -2.476347e+00 -1.605760e+00 6.825518e-01 -1.289425e+00 1.596880e-01 -1.127076e+00 1.370833e+00 2.082551e+00 7.803363e-01 1.094726e+00 4.866092e-01 -4.704737e-02 -2.716345e-01 -6.908088e-01 6.094950e-01 -4.424823e-01 -7.918109e-01 8.999043e-01 -2.834284e-02 -2.155155e-01 -7.183495e-01 -2.965331e-01
<VARIANCE> 39
 2.237434e+01 2.855878e+01 3.303473e+01 2.651548e+01 3.791768e+01 4.224314e+01 3.876101e+01 4.586954e+01 3.911414e+01 2.940022e+01 2.389656e+01 2.582323e+01 1.886085e+01 5.688144e+00 5.512072e+00 5.029722e+00 3.882155e+00 4.934587e+00 5.066295e+00 5.339358e+00 7.807641e+00 9.994484e+00 3.640484e+00 4.285449e+00 4.430872e+00 2.606695e+00 6.814203e-01 8.871691e-01 6.135426e-01 5.521820e-01 7.872536e-01 1.108167e+00 8.068251e-01 1.120907e+00 1.021798e+00 7.041554e-01 7.922293e-01 6.550568e-01 4.932759e-01
<GCONST> 1.335317e+02
<MIXTURE> 2 4.105938e-01
<MEAN> 39
 2.452121e+00 -3.118242e+00 -6.545493e+00 -6.539141e+00 6.677116e-01 2.512160e+00 -7.363198e+00 -9.265367e-01 1.433348e+01 6.774920e-01 -1.694665e+00 -5.352554e+00 -7.115664e-01 3.221961e-01 -1.119301e+00 -9.291496e-01 -8.362761e-01 -4.369555e-01 1.217766e+00 4.682258e-02 8.898357e-01 8.034886e-01 -6.891999e-01 -3.337668e-01 -7.789340e-01 -4.334304e-01 1.855778e-01 2.854453e-01 4.861352e-01 5.540935e-01 3.985329e-01 5.799573e-02 4.063158e-01 -1.091719e-01 -1.075369e+00 1.057819e-01 -1.550439e-01 1.090841e-01 -1.007822e-01
<VARIANCE> 39
 6.745512e+00 2.865913e+01 1.451043e+01 2.816265e+01 1.720599e+01 3.506135e+01 4.052547e+01 3.690894e+01 3.046505e+01 2.427484e+01 3.267506e+01 2.930537e+01 3.171173e+01 9.093989e-01 3.139289e+00 2.848864e+00 3.004039e+00 2.205405e+00 3.323110e+00 4.721100e+00 3.487626e+00 8.434728e+00 2.605636e+00 2.817113e+00 2.757324e+00 2.559832e+00 2.391755e-01 2.872331e-01 2.819768e-01 3.093137e-01 3.928942e-01 5.852356e-01 6.836553e-01 8.126476e-01 1.069068e+00 4.297243e-01 4.845754e-01 5.073185e-01 5.285140e-01
<GCONST> 1.176695e+02
<STATE> 4
<NUMMIXES> 2
<MIXTURE> 1 5.157750e-01
<MEAN> 39
 -2.147218e+00 6.126595e+00 8.880847e+00 1.036612e+01 -1.022083e+01 -8.344084e+00 5.219299e+00 -9.410574e+00 -1.673708e+00 -1.335710e+00 2.046757e+00 7.395947e+00 2.452742e-01 -1.680313e-03 -5.412020e-01 5.252203e-01 -5.187764e-01 -2.245989e+00 5.959840e-01 -5.788633e-01 -1.345566e+00 5.307873e-01 -2.856653e-01 7.069616e-01 -6.400778e-01 -6.430414e-01 1.964533e-01 -2.517657e-01 -1.044354e-01 -3.813054e-01 7.490382e-01 4.244809e-01 -4.821267e-01 9.234406e-01 1.488522e-01 8.298988e-02 -1.903100e-01 -5.881491e-01 5.067697e-02
<VARIANCE> 39
 7.827055e+00 1.937311e+01 2.745251e+01 1.186132e+01 2.295374e+01 2.687945e+01 2.674068e+01 3.791535e+01 5.055350e+01 3.169997e+01 2.454295e+01 1.868089e+01 1.594896e+01 1.042559e+00 2.606923e+00 2.062037e+00 1.395063e+00 3.716331e+00 2.454542e+00 2.508278e+00 7.509985e+00 3.180346e+00 2.273771e+00 2.459991e+00 2.055425e+00 1.474838e+00 2.869788e-01 4.848312e-01 3.212412e-01 2.594943e-01 3.948109e-01 7.315888e-01 4.091040e-01 8.030581e-01 5.908074e-01 5.089048e-01 4.969106e-01 6.040378e-01 3.178309e-01
<GCONST> 1.129347e+02
<MIXTURE> 2 4.842250e-01
<MEAN> 39
 2.424771e+00 -4.526759e-01 -6.672663e+00 -1.165148e+00 5.557803e+00 2.415993e+00 -6.930661e-01 3.050416e+00 6.027513e+00 1.698847e-01 -5.083459e+00 -1.796841e+00 2.069206e+00 1.372353e-01 -1.029592e+00 -4.253261e-01 -5.618550e-02 1.156730e-01 4.993815e-01 1.075593e+00 -9.033796e-02 -1.178692e+00 -5.725126e-01 -1.092544e-01 -3.269161e-01 -1.923756e-01 -3.542630e-02 -9.474943e-02 3.247210e-01 7.288053e-02 -5.105186e-02 -2.548642e-01 -4.266625e-02 -3.619193e-01 -2.010871e-01 7.440113e-02 3.233021e-01 -7.651140e-02 -1.696592e-01
<VARIANCE> 39
 1.514668e+01 4.605523e+01 3.970796e+01 3.024315e+01 3.086775e+01 4.451725e+01 6.037072e+01 6.055185e+01 5.397352e+01 4.293737e+01 4.305355e+01 3.738653e+01 2.626622e+01 2.292598e+00 3.889264e+00 2.416041e+00 2.246204e+00 3.472717e+00 3.586226e+00 3.872985e+00 4.798056e+00 4.759009e+00 3.030380e+00 3.216233e+00 3.355291e+00 2.329482e+00 3.457276e-01 4.993047e-01 5.242969e-01 3.672683e-01 5.275834e-01 6.778992e-01 7.671860e-01 9.177759e-01 1.108212e+00 5.812145e-01 5.780556e-01 5.357277e-01 4.703131e-01
<GCONST> 1.272127e+02
<TRANSP> 5
 0.000000e+00 1.000000e+00 0.000000e+00 0.000000e+00 0.000000e+00
 0.000000e+00 7.691167e-01 2.308833e-01 0.000000e+00 0.000000e+00
 0.000000e+00 0.000000e+00 6.943511e-01 3.056489e-01 0.000000e+00
 0.000000e+00 0.000000e+00 0.000000e+00 6.840521e-01 3.159479e-01
 0.000000e+00 0.000000e+00 0.000000e+00 0.000000e+00 0.000000e+00
<ENDHMM>
~o
<STREAMINFO> 1 39
<VECSIZE> 39<NULLD><MFCC_D_A_Z><DIAGC>
~h "dx"
<BEGINHMM>
<NUMSTATES> 5
<STATE> 2
<NUMMIXES> 2
<MIXTURE> 1 7.033089e-01
<MEAN> 39
 9.812549e+00 6.766165e+00 7.978073e+00 1.260049e+01 1.843913e+00 -6.632349e+00 -1.135728e+00 6.307023e+00 1.357374e+00 -6.046426e+00 -5.958538e+00 4.279809e+00 3.285313e-01 7.987742e-01 9.057403e-01 2.893059e-01 2.215796e-01 8.680738e-01 -5.065020e-01 -8.738904e-02 4.509010e-01 2.991772e-01 4.579243e-01 -9.072797e-01 -3.685354e-01 2.987751e-03 -3.701411e-01 -3.281788e-01 -2.451904e-01 -3.725045e-01 -6.207133e-03 8.922770e-02 -1.392327e-01 -9.360031e-02 -7.023878e-02 2.702214e-01 2.352284e-01 -6.265480e-02 -3.368055e-02
<VARIANCE> 39
 4.538873e+01 4.680105e+01 2.712119e+01 2.507588e+01 3.745971e+01 4.880968e+01 5.881267e+01 8.891965e+01 3.706994e+01 5.266260e+01 3.123200e+01 2.520876e+01 3.157109e+01 2.291978e+00 2.701011e+00 2.004346e+00 1.561659e+00 2.886199e+00 2.549312e+00 2.898628e+00 4.581414e+00 2.761105e+00 3.685983e+00 2.387353e+00 2.025887e+00 1.904524e+00 3.859426e-01 5.429397e-01 3.002167e-01 4.218357e-01 4.270217e-01 4.701176e-01 4.508604e-01 9.677097e-01 5.504891e-01 6.025261e-01 4.944352e-01 3.403703e-01 3.865480e-01
<GCONST> 1.218177e+02
<MIXTURE> 2 2.966910e-01
<MEAN> 39
 9.772511e+00 -5.456018e+00 -7.202870e+00 9.758420e+00 -1.903878e+00 -4.940470e+00 -1.205807e+01 2.967485e+00 5.611081e+00 -6.073533e+00 1.940785e+00 5.612728e+00 -2.553221e+00 4.463177e-01 1.197706e+00 1.498733e+00 1.503025e+00 2.443307e+00 -4.204716e-01 -1.392175e+00 3.960611e-01 7.088600e-01 -9.463630e-02 -2.329648e+00 1.651057e-01 1.088898e+00 -2.825697e-01 2.383083e-01 6.087645e-01 -8.541577e-01 -1.107901e-01 5.644703e-01 1.058910e+00 -4.019845e-01 -2.694282e-01 2.590855e-01 -1.531267e-02 -7.299777e-01 9.743461e-03
<VARIANCE> 39
 1.461912e+01 3.429774e+01 6.348213e+01 3.549240e+01 6.916763e+01 7.841850e+01 8.640505e+01 9.010069e+01 1.083263e+02 6.099590e+01 8.670651e+01 4.437078e+01 3.172301e+01 1.202436e+00 2.732679e+00 4.382742e+00 4.388787e+00 4.993848e+00 5.698684e+00 9.218966e+00 6.393348e+00 7.976637e+00 6.474915e+00 7.122139e+00 6.452869e+00 3.402474e+00 2.714168e-01 3.020997e-01 5.625525e-01 6.925896e-01 1.175583e+00 9.872028e-01 1.343059e+00 9.774446e-01 1.425795e+00 1.187748e+00 1.538710e+00 8.611052e-01 7.475361e-01
<GCONST> 1.417439e+02
<STATE> 3
<NUMMIXES> 2
<MIXTURE> 1 6.617809e-01
<MEAN> 39
 9.811769e+00 5.598277e+00 6.159403e+00 1.158154e+01 7.111110e+00 -5.502674e+00 -6.268310e+00 3.735125e+00 3.668552e+00 -1.817025e+00 -9.048340e+00 3.549698e-01 1.496398e+00 -2.165766e+00 -1.259808e+00 -3.162020e-01 -2.488050e+00 4.248588e-03 2.016775e-01 -2.064616e-01 -4.012870e-01 -4.877842e-01 9.189932e-01 1.519289e+00 -3.415262e-01 -2.344419e-01 -7.144970e-01 -8.121278e-01 -4.073915e-01 -9.168590e-01 -1.336606e+00 1.439912e-01 2.025403e-01 -4.309893e-01 2.543006e-02 -4.336908e-01 1.172066e+00 2.608685e-01 -3.261321e-01
<VARIANCE> 39
 2.767303e+01 4.377704e+01 3.533320e+01 2.526495e+01 4.561652e+01 4.382855e+01 5.722469e+01 8.164485e+01 4.665898e+01 4.607364e+01 3.351264e+01 3.239430e+01 2.433721e+01 3.402137e+00 5.413251e+00 5.943008e+00 4.146924e+00 6.136365e+00 4.643427e+00 5.614533e+00 9.679651e+00 6.390566e+00 4.938054e+00 5.340439e+00 3.539671e+00 3.162812e+00 5.183771e-01 6.369094e-01 4.689810e-01 6.912885e-01 8.543125e-01 6.989473e-01 8.296809e-01 1.317341e+00 1.350795e+00 8.215007e-01 8.334200e-01 7.612815e-01 5.355561e-01
<GCONST> 1.368448e+02
<MIXTURE> 2 3.382191e-01
<MEAN> 39
 2.459370e+00 -5.754150e+00 -2.121580e+00 -2.967089e+00 -1.921847e+00 -3.642071e+00 -9.768991e+00 4.759875e+00 1.193888e+01 -2.872935e+00 -6.908310e-01 -7.426236e-01 -1.511802e+00 -1.165729e+00 -2.716203e+00 -2.147853e+00 -3.953420e+00 -2.005080e+00 1.735556e+00 8.944263e-01 4.515237e-01 2.253025e+00 -6.327530e-01 1.199482e+00 -1.741387e+00 -1.380240e+00 5.334187e-01 5.608618e-01 3.187795e-01 8.450487e-01 4.963770e-01 2.259759e-01 7.788655e-01 -4.528683e-01 -5.821201e-01 -3.498330e-01 -5.900796e-01 -6.296668e-02 1.129918e-01
<VARIANCE> 39
 9.795714e+00 1.881728e+01 2.196956e+01 2.916164e+01 3.697971e+01 4.826279e+01 6.908196e+01 5.918792e+01 7.561848e+01 4.062963e+01 3.331981e+01 3.952027e+01 2.536710e+01 1.943645e+00 5.913998e+00 3.233656e+00 4.919741e+00 5.258121e+00 4.629871e+00 6.500597e+00 6.578935e+00 6.120563e+00 5.708650e+00 6.569606e+00 3.848169e+00 4.079688e+00 3.437316e-01 4.151890e-01 4.470771e-01 7.168737e-01 9.512808e-01 6.413108e-01 7.490247e-01 1.168268e+00 1.337424e+00 8.413606e-01 7.645674e-01 7.290960e-01 5.864632e-01
<GCONST> 1.332402e+02
<STATE> 4
<NUMMIXES> 2
<MIXTURE> 1 4.602604e-01
<MEAN> 39
 2.445121e+00 -9.564494e+00 -5.510871e+00 -7.005934e+00 -8.848927e-01 1.420920e+00 -2.378725e+00 2.314965e+00 1.237082e+01 -5.092560e+00 -3.512320e+00 -5.953301e+00 -3.700535e+00 1.943696e-01 -3.585515e-01 -4.106066e-01 -2.350577e-01 7.078370e-01 6.842720e-01 1.290317e+00 -9.604082e-01 -9.611545e-01 1.111865e-02 -1.298210e-01 -2.134616e-01 -4.909035e-02 2.331059e-01 4.833942e-01 3.764002e-01 6.894513e-01 2.159839e-01 -3.456081e-01 -4.381397e-01 -1.758157e-01 -4.314294e-01 2.794752e-01 1.492683e-01 4.608214e-01 2.772205e-01
<VARIANCE> 39
 7.022525e+00 1.772768e+01 1.507499e+01 2.719325e+01 2.443877e+01 3.697465e+01 6.111013e+01 4.015101e+01 4.375293e+01 3.961036e+01 3.851287e+01 2.479892e+01 3.480081e+01 4.860384e-01 1.450992e+00 8.825432e-01 2.056731e+00 1.814718e+00 2.345019e+00 3.714937e+00 2.799676e+00 3.130223e+00 3.629336e+00 3.405284e+00 2.478426e+00 2.248112e+00 1.090966e-01 2.500437e-01 2.253369e-01 3.783505e-01 4.905309e-01 3.624364e-01 6.036844e-01 6.467890e-01 7.686458e-01 6.285504e-01 5.571437e-01 4.533995e-01 4.766951e-01
<GCONST> 1.128329e+02
<MIXTURE> 2 5.397397e-01
<MEAN> 39
 5.378400e-01 -2.489538e-04 5.522387e+00 2.938656e+00 -2.126008e+00 -5.613608e+00 -5.691788e+00 -2.245749e+00 -4.541667e-01 -2.418157e+00 3.674567e+00 2.722426e+00 6.601924e-01 -1.562820e+00 -5.765352e-03 4.163724e-01 -1.301671e+00 -2.520429e+00 6.098273e-01 4.876215e-01 -2.211280e+00 -9.191904e-01 -1.201508e-01 1.931380e+00 2.199549e-01 -2.590156e-01 6.296976e-01 3.066765e-01 -6.811944e-02 4.836177e-01 3.569685e-02 2.782845e-01 1.034027e-01 2.297491e-01 2.150731e-01 -1.008881e-02 -7.205685e-01 -1.167102e-01 -7.353767e-02
<VARIANCE> 39
 2.286806e+01 2.683899e+01 5.407491e+01 3.190799e+01 8.804906e+01 5.947884e+01 6.351737e+01 1.253097e+02 7.143419e+01 4.250978e+01 4.676565e+01 2.840815e+01 2.192750e+01 4.113628e+00 3.915257e+00 3.361153e+00 3.752865e+00 8.591029e+00 4.150329e+00 4.604895e+00 1.005715e+01 5.907099e+00 3.951562e+00 6.934620e+00 3.233776e+00 2.857726e+00 4.140536e-01 4.295731e-01 4.932334e-01 4.825988e-01 1.390074e+00 6.940219e-01 8.359256e-01 1.496656e+00 1.057943e+00 6.369346e-01 8.856471e-01 5.415426e-01 4.729462e-01
<GCONST> 1.365752e+02
<TRANSP> 5
 0.000000e+00 1.000000e+00 0.000000e+00 0.000000e+00 0.000000e+00
 0.000000e+00 7.785972e-01 2.214027e-01 0.000000e+00 0.000000e+00
 0.000000e+00 0.000000e+00 6.634494e-01 3.365506e-01 0.000000e+00
 0.000000e+00 0.000000e+00 0.000000e+00 6.787632e-01 3.212368e-01
 0.000000e+00 0.000000e+00 0.000000e+00 0.000000e+00 0.000000e+00
<ENDHMM>
~o
<STREAMINFO> 1 39
<VECSIZE> 39<NULLD><MFCC_D_A_Z><DIAGC>
~h "dxh"
<BEGINHMM>
<NUMSTATES> 5
<STATE> 2
<NUMMIXES> 2
<MIXTURE> 1 5.549710e-01
<MEAN> 39
 1.249226e+01 7.415098e+00 8.444695e+00 1.187889e+01 2.133638e+00 -6.525785e+00 -1.810961e+00 8.386607e+00 7.365925e-01 -5.030183e+00 -6.170159e+00 3.734196e+00 -1.303863e+00 7.010968e-01 1.252885e+00 3.127702e-01 4.210796e-01 1.072272e+00 -8.195694e-01 4.394604e-01 7.557284e-01 6.282977e-01 5.416463e-01 -1.097820e+00 -1.289086e-01 2.572696e-01 -5.624857e-01 -3.123567e-01 -2.983394e-01 -2.887830e-01 6.035617e-02 2.275443e-01 -6.551896e-02 -2.044940e-01 -5.516896e-02 3.778788e-01 3.667694e-01 -1.045537e-03 1.410524e-01
<VARIANCE> 39
 3.067142e+01 3.945721e+01 2.841879e+01 1.981411e+01 3.486552e+01 4.485944e+01 4.269915e+01 6.780533e+01 3.360481e+01 4.644403e+01 3.503835e+01 2.283091e+01 2.533354e+01 2.770243e+00 2.543604e+00 2.161901e+00 1.324779e+00 2.414082e+00 2.620987e+00 3.382381e+00 3.853648e+00 2.783721e+00 4.118578e+00 2.956352e+00 2.012368e+00 2.134618e+00 4.118429e-01 4.260816e-01 3.138065e-01 3.270180e-01 4.192518e-01 5.296983e-01 4.963364e-01 7.704654e-01 5.471516e-01 6.978422e-01 4.990252e-01 3.754037e-01 3.922615e-01
<GCONST> 1.200463e+02
<MIXTURE> 2 4.450289e-01
<MEAN> 39
 1.071557e+01 -8.814570e+00 -1.425795e+01 7.111477e+00 -2.225023e+00 -6.374807e+00 -7.164992e+00 7.089570e-01 8.671908e+00 -3.720449e+00 4.358064e+00 9.494469e-01 -4.048048e+00 4.848426e-01 7.951597e-01 1.093688e+00 2.364651e+00 2.653299e+00 -1.213747e+00 -4.560459e+00 1.365715e+00 1.557230e+00 1.318889e-01 -2.604146e+00 7.130669e-01 1.937398e+00 -3.287380e-01 5.443087e-01 1.139047e+00 -9.557666e-01 -1.324014e-01 1.001953e+00 9.657418e-01 -8.688819e-01 -4.370944e-01 5.174701e-02 -1.229804e-01 -3.603243e-01 1.904894e-02
<VARIANCE> 39
 8.362531e+00 2.703437e+01 3.638158e+01 2.953944e+01 3.902225e+01 5.048331e+01 1.555046e+02 6.243947e+01 9.029044e+01 5.774961e+01 5.060582e+01 4.978428e+01 3.012960e+01 5.968753e-01 2.105245e+00 4.258506e+00 2.359710e+00 4.017421e+00 5.098585e+00 9.954639e+00 6.235272e+00 7.208811e+00 5.690068e+00 6.104720e+00 6.019164e+00 3.553499e+00 1.737640e-01 2.372012e-01 3.781863e-01 6.368359e-01 7.843338e-01 7.193881e-01 2.608330e+00 1.218840e+00 1.197130e+00 1.047705e+00 1.277194e+00 9.790995e-01 7.699351e-01
<GCONST> 1.350711e+02
<STATE> 3
<NUMMIXES> 2
<MIXTURE> 1 3.529019e-01
<MEAN> 39
 1.127756e+01 1.150883e+01 7.520216e+00 1.309530e+01 9.250126e+00 -6.633684e+00 -1.653798e+00 9.741951e+00 4.402155e+00 1.866122e+00 -9.613034e+00 2.512096e+00 2.144119e+00 -3.501700e+00 -1.382673e+00 -1.065200e+00 -1.586319e+00 1.249729e+00 1.685655e+00 5.301125e-01 -9.256936e-01 -5.043970e-01 1.329226e+00 1.853659e+00 6.386706e-01 7.199839e-01 -6.345679e-01 -7.994452e-01 -5.625169e-01 -7.625137e-01 -7.106705e-01 3.137366e-01 4.329500e-02 -6.879483e-01 -2.448516e-01 -3.195913e-01 7.971489e-01 2.546627e-01 -1.487645e-01
<VARIANCE> 39
 2.112160e+01 1.791909e+01 2.138558e+01 1.384388e+01 2.828903e+01 2.892071e+01 4.526396e+01 4.471664e+01 3.939439e+01 3.026824e+01 3.722151e+01 2.600740e+01 1.885757e+01 2.537897e+00 4.156678e+00 2.198682e+00 3.697277e+00 4.066919e+00 3.447359e+00 3.569575e+00 4.759867e+00 3.928590e+00 3.279439e+00 3.317857e+00 2.638253e+00 2.169747e+00 4.460968e-01 7.028768e-01 4.142170e-01 3.774378e-01 6.026732e-01 6.769709e-01 5.629662e-01 9.344596e-01 7.797556e-01 4.682344e-01 6.086276e-01 4.997106e-01 3.549902e-01
<GCONST> 1.221566e+02
<MIXTURE> 2 6.470981e-01
<MEAN> 39
 1.025894e+01 -5.043854e+00 -5.606032e+00 1.079330e+01 4.320177e+00 -4.354036e+00 -1.386788e+01 8.047663e-01 9.378398e+00 -2.713273e+00 -3.479539e+00 1.407321e-01 1.698179e-01 -1.598035e+00 1.173494e+00 3.758982e+00 -1.673062e+00 1.454330e-01 8.103277e-01 9.174632e-01 -1.260559e+00 -6.360430e-01 3.023847e-02 -5.042624e-01 -8.501557e-01 8.495513e-01 -6.691509e-01 -4.989302e-02 1.293002e-02 -1.360880e+00 -1.248192e+00 3.318999e-01 1.699216e+00 -6.381199e-01 -3.939727e-01 -3.100913e-01 1.245649e+00 -2.769031e-01 -4.896940e-01
<VARIANCE> 39
 1.604297e+01 2.561966e+01 6.647399e+01 3.094593e+01 4.730072e+01 5.529576e+01 6.744667e+01 8.387888e+01 6.673054e+01 6.037462e+01 4.792817e+01 3.790633e+01 2.779943e+01 1.514101e+00 2.999922e+00 3.416796e+00 4.307037e+00 5.551158e+00 4.979383e+00 6.203074e+00 7.932568e+00 7.527309e+00 6.497465e+00 7.543432e+00 3.779801e+00 3.453853e+00 2.687981e-01 2.671262e-01 7.808813e-01 6.012008e-01 1.361442e+00 9.242864e-01 1.302857e+00 1.638799e+00 1.400161e+00 1.235149e+00 1.256359e+00 9.981322e-01 6.690444e-01
<GCONST> 1.388339e+02
<STATE> 4
<NUMMIXES> 2
<MIXTURE> 1 4.278325e-01
<MEAN> 39
 -5.845264e-01 1.511693e+00 -1.378524e+00 3.289304e+00 8.374859e+00 -4.446060e-01 1.546108e+00 2.757638e+00 1.989578e+00 2.805292e+00 -1.100564e+00 5.381244e+00 2.409423e+00 -7.931063e-01 -4.034534e-01 -1.843210e+00 -1.459095e+00 -7.985975e-01 1.068846e+00 9.329498e-01 -2.325634e+00 -5.101462e-01 2.509101e-01 9.445845e-01 8.078738e-02 1.114991e-01 8.303018e-01 3.166353e-01 1.899842e-01 2.562407e-01 -3.043063e-01 -3.960051e-02 5.661460e-02 -2.701438e-02 -9.808058e-02 -2.837560e-01 -4.015313e-01 -2.583205e-01 -1.587084e-01
<VARIANCE> 39
 1.574717e+01 5.269418e+01 4.552707e+01 3.069487e+01 3.841424e+01 4.977719e+01 6.105790e+01 1.168186e+02 5.862929e+01 4.354046e+01 3.618695e+01 2.680996e+01 2.286586e+01 4.625667e+00 6.009534e+00 3.497629e+00 3.953782e+00 4.286279e+00 4.700451e+00 4.667255e+00 8.567176e+00 6.541792e+00 4.228282e+00 5.053318e+00 3.686262e+00 3.340668e+00 5.105044e-01 9.931197e-01 5.394638e-01 5.772835e-01 7.792157e-01 8.247796e-01 8.151494e-01 1.454500e+00 1.171672e+00 8.546779e-01 8.711936e-01 6.206079e-01 6.030979e-01
<GCONST> 1.367785e+02
<MIXTURE> 2 5.721675e-01
<MEAN> 39
 3.683303e+00 -2.909999e+00 2.524588e-01 -1.896241e-01 -1.709709e+00 -2.224708e+00 -6.244024e+00 -4.515292e+00 9.071440e+00 -4.067548e+00 2.529868e+00 -3.309923e+00 1.009757e+00 -1.142565e+00 1.033261e+00 1.450787e+00 -1.699294e+00 -1.032321e+00 8.817613e-01 1.803818e+00 -9.643715e-01 -1.056566e+00 -2.373760e-01 7.677521e-01 -2.860162e-01 -2.356050e-01 4.115532e-01 -6.670459e-02 -5.759109e-01 6.874648e-01 2.189630e-01 -7.728507e-02 -2.337395e-01 3.044236e-01 -1.733990e-01 9.430858e-02 -2.639681e-01 3.536637e-01 -2.488932e-01
<VARIANCE> 39
 1.357096e+01 3.879511e+01 6.528188e+01 4.825759e+01 5.823790e+01 4.428714e+01 6.411469e+01 9.051872e+01 5.432903e+01 5.619268e+01 5.834964e+01 5.137442e+01 3.835530e+01 2.511837e+00 2.308722e+00 2.801746e+00 5.804730e+00 7.095232e+00 3.501249e+00 3.427380e+00 7.647963e+00 4.813515e+00 4.984276e+00 6.124002e+00 3.653978e+00 2.698369e+00 2.271491e-01 2.879654e-01 3.818426e-01 6.580384e-01 6.889647e-01 6.275611e-01 6.879621e-01 9.697648e-01 9.084626e-01 7.691157e-01 9.360626e-01 6.154736e-01 5.411077e-01
<GCONST> 1.336247e+02
<TRANSP> 5
 0.000000e+00 1.000000e+00 0.000000e+00 0.000000e+00 0.000000e+00
 0.000000e+00 7.247513e-01 2.752487e-01 0.000000e+00 0.000000e+00
 0.000000e+00 0.000000e+00 5.676203e-01 4.323796e-01 0.000000e+00
 0.000000e+00 0.000000e+00 0.000000e+00 7.297481e-01 2.702519e-01
 0.000000e+00 0.000000e+00 0.000000e+00 0.000000e+00 0.000000e+00
<ENDHMM>
~o
<STREAMINFO> 1 39
<VECSIZE> 39<NULLD><MFCC_D_A_Z><DIAGC>
~h "dxhq"
<BEGINHMM>
<NUMSTATES> 5
<STATE> 2
<NUMMIXES> 2
<MIXTURE> 1 6.315422e-01
<MEAN> 39
 9.207914e+00 -9.774940e+00 -1.249417e+01 9.367035e+00 -3.014369e+00 -8.145914e+00 -9.345499e+00 1.925757e+00 1.191029e+01 -3.863811e+00 2.255230e+00 -5.089906e-01 -2.155630e+00 -5.804096e-03 8.718029e-01 2.035487e+00 1.587777e+00 1.630061e+00 -1.056943e+00 -3.365654e+00 1.456695e+00 1.041424e-01 3.790754e-01 -2.019451e+00 7.107466e-01 1.996389e+00 -4.340549e-01 3.374453e-01 9.344742e-01 -1.367964e+00 -2.485655e-01 1.061600e+00 1.440891e+00 -8.852818e-01 -8.228246e-01 2.195951e-02 2.526385e-01 -2.726182e-01 -2.767392e-01
<VARIANCE> 39
 9.317658e+00 2.153439e+01 4.531486e+01 2.611285e+01 5.982943e+01 4.753562e+01 1.124323e+02 6.310808e+01 7.214307e+01 4.987192e+01 4.699417e+01 4.452827e+01 2.846583e+01 7.653706e-01 1.957301e+00 3.514703e+00 4.411901e+00 5.296771e+00 6.333929e+00 1.010123e+01 8.611843e+00 9.218290e+00 5.554000e+00 6.360916e+00 6.809919e+00 3.763889e+00 1.900042e-01 3.015561e-01 4.784291e-01 5.379409e-01 1.205133e+00 7.734523e-01 1.704128e+00 1.010053e+00 1.209655e+00 1.080950e+00 9.853513e-01 1.142190e+00 7.595021e-01
<GCONST> 1.365792e+02
<MIXTURE> 2 3.684579e-01
<MEAN> 39
 8.708776e+00 -8.590143e+00 -1.338376e+01 -4.547409e+00 -8.776029e+00 4.669005e+00 1.228444e+01 -1.294039e+01 6.978378e+00 -3.042295e+00 9.352356e+00 -8.805177e-01 -1.196331e+01 -8.057107e-02 -1.907660e+00 -1.635938e+00 3.439138e+00 1.223317e+00 -2.367293e+00 -2.361369e+00 1.725747e+00 2.474844e+00 -3.496585e-01 2.997583e-01 -2.342026e+00 -1.211243e-01 -5.177962e-02 6.772758e-01 7.280728e-01 7.437487e-01 6.387923e-01 -7.451348e-01 -1.548056e+00 1.462354e+00 -2.240277e-01 4.102164e-02 -1.057469e+00 2.134194e-01 1.260724e+00
<VARIANCE> 39
 7.570733e+00 1.559644e+01 1.626918e+01 3.704616e+01 3.298007e+01 4.810477e+01 6.376662e+01 3.091476e+01 2.858961e+01 1.960168e+01 3.596161e+01 5.168463e+01 1.468760e+01 5.611718e-01 1.206754e+00 1.865888e+00 2.555107e+00 3.121844e+00 4.203872e+00 9.492800e+00 8.111468e+00 3.890384e+00 2.468477e+00 4.432096e+00 3.466949e+00 5.869695e+00 2.462593e-01 1.678831e-01 2.809611e-01 1.115203e+00 1.277602e+00 6.961960e-01 7.329021e-01 9.171222e-01 8.083645e-01 5.535827e-01 8.126619e-01 1.732602e+00 4.896505e-01
<GCONST> 1.231666e+02
<STATE> 3
<NUMMIXES> 2
<MIXTURE> 1 3.749475e-01
<MEAN> 39
 7.383133e+00 -1.087206e+01 -7.722770e+00 3.263758e+00 -1.562266e+00 -5.816666e+00 -3.579945e+00 -3.058956e+00 1.049334e+01 1.092559e+00 -5.433723e-01 -4.856994e+00 -1.375872e+00 -1.600358e+00 -4.471329e-01 1.073638e+00 -3.445899e+00 -5.490862e-01 2.484821e+00 3.401132e+00 -5.669891e-02 -6.700541e-01 -7.000977e-01 -6.163784e-01 -2.127804e+00 1.306530e-01 -1.888001e-01 3.129128e-02 -6.639506e-01 -5.479058e-01 3.432035e-01 1.935230e-01 8.732929e-01 2.629432e-01 1.530691e-01 -1.148525e+00 8.557376e-03 3.193140e-01 -2.452075e-01
<VARIANCE> 39
 8.636629e+00 1.349023e+01 3.189327e+01 2.972140e+01 3.223147e+01 3.506614e+01 8.134046e+01 4.925687e+01 6.603803e+01 4.768343e+01 4.542841e+01 6.017113e+01 4.130105e+01 6.798849e-01 8.515349e-01 3.607445e+00 3.128559e+00 3.114216e+00 3.343631e+00 4.576120e+00 3.994416e+00 7.221527e+00 7.848304e+00 3.015332e+00 3.237090e+00 3.963899e+00 1.299713e-01 2.241645e-01 4.637879e-01 6.818272e-01 6.142709e-01 6.697142e-01 1.591099e+00 6.246853e-01 1.218308e+00 1.049362e+00 7.221796e-01 1.173584e+00 6.117662e-01
<GCONST> 1.271305e+02
<MIXTURE> 2 6.250526e-01
<MEAN> 39
 5.839145e+00 -3.657970e+00 3.214263e+00 9.767248e+00 8.342160e-01 -6.255208e+00 -1.188999e+01 4.102308e+00 3.882330e+00 -4.822222e+00 -1.707731e+00 3.840123e-01 1.725602e+00 -2.371371e+00 1.246405e+00 3.548645e+00 -2.713130e+00 -1.236698e+00 -2.926669e-01 1.447971e+00 -1.909496e+00 -6.220781e-01 -9.097229e-01 1.676870e+00 -3.416961e-01 6.521321e-01 -3.831048e-01 -2.271825e-01 -5.204697e-01 -6.284735e-01 -1.570005e+00 2.898897e-01 6.799943e-01 -7.673206e-01 1.292480e-01 -3.350955e-02 1.000659e+00 -9.045572e-02 -5.220846e-01
<VARIANCE> 39
 2.188890e+01 1.860465e+01 4.925230e+01 4.185242e+01 6.082219e+01 4.413967e+01 4.692976e+01 7.931103e+01 4.951404e+01 4.977166e+01 6.514507e+01 3.092186e+01 2.646711e+01 1.677143e+00 1.778037e+00 3.152753e+00 2.457992e+00 1.115270e+01 3.695369e+00 4.544621e+00 8.206045e+00 4.564785e+00 4.260277e+00 7.855132e+00 3.129861e+00 2.511940e+00 4.433020e-01 2.784978e-01 4.750762e-01 1.267426e+00 1.265824e+00 6.815012e-01 1.271245e+00 1.539587e+00 1.149986e+00 7.927148e-01 1.633264e+00 8.169353e-01 4.697431e-01
<GCONST> 1.350624e+02
<STATE> 4
<NUMMIXES> 2
<MIXTURE> 1 6.939419e-01
<MEAN> 39
 2.644176e+00 -7.739867e+00 -5.062386e+00 -5.705805e+00 -6.095180e-01 -7.175344e-01 -2.959642e-01 8.953522e-01 9.935495e+00 -5.381285e+00 -6.262581e-01 -4.758794e+00 -1.157766e+00 -5.080879e-01 4.062880e-01 4.796670e-01 -1.044010e+00 -5.110797e-03 6.645454e-01 1.031728e+00 2.689489e-01 -6.518105e-01 -9.783030e-01 6.197111e-02 6.992031e-01 -2.001590e-01 3.510023e-01 8.684415e-02 -6.156321e-02 7.310461e-01 -2.646742e-03 -2.854315e-01 -4.763931e-01 -4.038088e-03 -1.786420e-01 2.280087e-01 8.640196e-02 3.543900e-01 -6.999031e-02
<VARIANCE> 39
 9.988090e+00 3.369798e+01 3.244595e+01 6.033488e+01 4.222248e+01 6.000451e+01 8.136454e+01 7.462448e+01 4.756973e+01 4.568781e+01 5.952981e+01 4.123607e+01 4.827941e+01 1.186190e+00 1.277231e+00 1.564958e+00 4.236985e+00 4.482976e+00 2.134316e+00 3.293488e+00 2.996015e+00 3.318016e+00 4.489707e+00 3.523206e+00 3.692730e+00 2.515969e+00 1.626629e-01 1.407518e-01 2.828591e-01 4.513050e-01 5.704896e-01 3.847386e-01 5.741308e-01 5.243835e-01 6.196257e-01 7.495586e-01 5.698215e-01 6.545503e-01 5.344774e-01
<GCONST> 1.231038e+02
<MIXTURE> 2 3.060581e-01
<MEAN> 39
 -3.695046e+00 1.258713e+00 1.438318e+01 4.247349e+00 -1.473845e+01 -4.697601e+00 -6.831392e+00 -8.958631e+00 -1.670528e+00 -8.208431e+00 7.772458e+00 1.373229e+00 -8.549970e-02 -8.342876e-01 1.169695e+00 1.275645e+00 -4.366289e-01 -1.505547e+00 1.572516e+00 9.081765e-01 -2.576082e+00 -9.500636e-01 4.481904e-01 -2.445090e-01 -2.256413e-01 -8.111530e-01 6.702062e-01 -1.835961e-01 -5.192295e-01 4.616767e-01 9.572545e-01 8.218915e-02 -2.928972e-01 8.351254e-01 1.278285e-01 3.424570e-01 -7.871938e-01 -9.143855e-02 3.758494e-02
<VARIANCE> 39
 6.912804e+00 9.992792e+00 1.406504e+01 9.415794e+00 1.148109e+01 2.192659e+01 1.603478e+01 3.811373e+01 2.384080e+01 2.190772e+01 3.901911e+01 2.059904e+01 1.412621e+01 1.228008e+00 6.461423e-01 8.960160e-01 8.202873e-01 4.751674e+00 1.596231e+00 1.694944e+00 4.148259e+00 1.579074e+00 1.948623e+00 3.851805e+00 1.634353e+00 1.441466e+00 1.186497e-01 1.341191e-01 1.589737e-01 2.265221e-01 4.169320e-01 6.141830e-01 3.519504e-01 5.202246e-01 3.044520e-01 3.965376e-01 7.621959e-01 3.234762e-01 3.455053e-01
<GCONST> 1.000027e+02
<TRANSP> 5
 0.000000e+00 1.000000e+00 0.000000e+00 0.000000e+00 0.000000e+00
 0.000000e+00 7.475536e-01 2.524464e-01 0.000000e+00 0.000000e+00
